SVM-light Version V6.02
0 # kernel type
3 # kernel parameter -d 
1 # kernel parameter -g 
1 # kernel parameter -s 
1 # kernel parameter -r 
empty# kernel parameter -u 
2770 # highest feature index 
8 # number of training documents 
9 # number of support vectors plus 1 
0.048587676 # threshold b, each following line is a SV (starting with alpha*y)
-0.958669671615141272269511318882 12:0.098739691 27:0.098739691 117:0.098739691 135:0.098739691 199:0.098739691 209:0.098739691 236:0.098739691 259:0.098739691 307:0.098739691 330:0.098739691 342:0.098739691 349:0.098739691 363:0.098739691 375:0.098739691 430:0.098739691 459:0.098739691 486:0.098739691 541:0.098739691 604:0.053047266 621:0.098739691 664:0.098739691 696:0.098739691 698:0.098739691 723:0.098739691 761:0.098739691 773:0.098739691 826:0.098739691 846:0.098739691 848:0.098739691 883:0.098739691 908:0.098739691 912:0.098739691 936:0.098739691 940:0.098739691 995:0.098739691 1010:0.098739691 1013:0.098739691 1030:0.098739691 1034:0.098739691 1055:0.098739691 1179:0.098739691 1226:0.098739691 1336:0.098739691 1352:0.098739691 1364:0.098739691 1412:0.098739691 1455:0.098739691 1469:0.098739691 1477:0.098739691 1557:0.098739691 1565:0.075893477 1573:0.098739691 1580:0.098739691 1585:0.098739691 1586:0.098739691 1594:0.098739691 1633:0.098739691 1671:0.098739691 1690:0.098739691 1706:0.098739691 1714:0.098739691 1732:0.098739691 1736:0.098739691 1742:0.098739691 1753:0.098739691 1835:0.098739691 1837:0.098739691 1859:0.098739691 1866:0.098739691 1878:0.098739691 1906:0.098739691 1912:0.098739691 1919:0.098739691 1953:0.098739691 1958:0.098739691 2000:0.098739691 2093:0.098739691 2126:0.098739691 2127:0.098739691 2152:0.098739691 2161:0.098739691 2176:0.098739691 2181:0.098739691 2219:0.098739691 2224:0.098739691 2268:0.098739691 2285:0.098739691 2296:0.098739691 2323:0.098739691 2340:0.098739691 2355:0.098739691 2377:0.098739691 2391:0.098739691 2396:0.098739691 2452:0.053047266 2460:0.098739691 2495:0.098739691 2526:0.098739691 2536:0.098739691 2555:0.098739691 2650:0.098739691 2711:0.098739691 2740:0.098739691 2756:0.098739691 2768:0.062529303 #
-0.95141232857335067407689166429918 4:0.041965879 15:0.041965879 16:0.041965879 42:0.041965879 50:0.041965879 52:0.041965879 58:0.041965879 62:0.041965879 65:0.041965879 76:0.041965879 78:0.041965879 85:0.041965879 87:0.041965879 92:0.041965879 93:0.041965879 102:0.041965879 104:0.041965879 105:0.041965879 110:0.041965879 119:0.041965879 120:0.041965879 124:0.041965879 127:0.041965879 139:0.041965879 147:0.041965879 149:0.041965879 152:0.041965879 153:0.041965879 156:0.041965879 158:0.041965879 160:0.041965879 161:0.041965879 162:0.041965879 166:0.041965879 168:0.041965879 174:0.041965879 178:0.041965879 179:0.041965879 180:0.041965879 181:0.041965879 195:0.041965879 206:0.041965879 207:0.041965879 214:0.041965879 218:0.041965879 224:0.041965879 227:0.041965879 240:0.041965879 243:0.041965879 248:0.041965879 251:0.041965879 261:0.041965879 263:0.064511783 265:0.041965879 272:0.041965879 280:0.041965879 284:0.041965879 285:0.041965879 292:0.041965879 295:0.041965879 296:0.041965879 299:0.041965879 301:0.041965879 306:0.041965879 322:0.041965879 323:0.041965879 329:0.041965879 337:0.041965879 338:0.041965879 346:0.041965879 347:0.041965879 353:0.041965879 356:0.041965879 364:0.041965879 367:0.041965879 371:0.041965879 376:0.041965879 383:0.041965879 390:0.041965879 404:0.041965879 411:0.041965879 412:0.041965879 423:0.041965879 424:0.041965879 429:0.041965879 437:0.041965879 438:0.041965879 442:0.041965879 447:0.041965879 449:0.041965879 451:0.041965879 456:0.041965879 462:0.041965879 464:0.041965879 467:0.041965879 469:0.041965879 479:0.041965879 505:0.041965879 509:0.041965879 510:0.041965879 511:0.041965879 521:0.041965879 529:0.041965879 532:0.041965879 538:0.041965879 540:0.041965879 543:0.041965879 544:0.041965879 545:0.041965879 550:0.041965879 558:0.041965879 564:0.041965879 570:0.041965879 574:0.041965879 581:0.041965879 588:0.041965879 594:0.041965879 597:0.041965879 601:0.041965879 611:0.041965879 613:0.041965879 617:0.041965879 620:0.041965879 634:0.041965879 635:0.041965879 640:0.041965879 641:0.041965879 645:0.041965879 647:0.041965879 648:0.041965879 649:0.041965879 651:0.041965879 660:0.041965879 669:0.041965879 670:0.041965879 671:0.041965879 683:0.041965879 689:0.041965879 697:0.041965879 700:0.041965879 701:0.041965879 704:0.041965879 707:0.041965879 718:0.041965879 730:0.041965879 732:0.041965879 736:0.041965879 739:0.041965879 740:0.041965879 741:0.041965879 752:0.041965879 754:0.041965879 755:0.041965879 756:0.041965879 767:0.041965879 771:0.041965879 776:0.041965879 778:0.041965879 780:0.041965879 784:0.041965879 786:0.041965879 790:0.041965879 796:0.041965879 803:0.041965879 829:0.041965879 836:0.041965879 837:0.041965879 842:0.041965879 851:0.041965879 852:0.041965879 854:0.041965879 855:0.041965879 856:0.041965879 859:0.041965879 866:0.041965879 868:0.041965879 871:0.041965879 885:0.041965879 889:0.041965879 890:0.041965879 902:0.041965879 903:0.041965879 910:0.041965879 911:0.041965879 919:0.041965879 945:0.041965879 951:0.041965879 953:0.041965879 962:0.041965879 965:0.041965879 970:0.041965879 976:0.041965879 978:0.041965879 979:0.041965879 980:0.041965879 989:0.041965879 992:0.041965879 999:0.041965879 1000:0.041965879 1007:0.041965879 1009:0.041965879 1012:0.041965879 1018:0.041965879 1020:0.041965879 1025:0.041965879 1038:0.041965879 1040:0.064511783 1050:0.041965879 1051:0.041965879 1053:0.041965879 1054:0.041965879 1057:0.041965879 1065:0.041965879 1070:0.041965879 1071:0.041965879 1072:0.041965879 1077:0.041965879 1085:0.041965879 1086:0.041965879 1089:0.041965879 1092:0.041965879 1097:0.041965879 1099:0.041965879 1101:0.041965879 1105:0.041965879 1109:0.041965879 1110:0.041965879 1124:0.041965879 1127:0.041965879 1128:0.041965879 1130:0.041965879 1137:0.041965879 1142:0.041965879 1151:0.041965879 1158:0.041965879 1161:0.041965879 1165:0.041965879 1180:0.041965879 1188:0.041965879 1192:0.041965879 1196:0.041965879 1197:0.041965879 1210:0.041965879 1215:0.041965879 1221:0.041965879 1222:0.041965879 1227:0.041965879 1231:0.041965879 1242:0.041965879 1247:0.041965879 1257:0.041965879 1263:0.041965879 1271:0.041965879 1280:0.041965879 1285:0.041965879 1287:0.041965879 1288:0.041965879 1292:0.041965879 1305:0.041965879 1311:0.041965879 1314:0.041965879 1330:0.041965879 1333:0.041965879 1346:0.041965879 1350:0.041965879 1353:0.041965879 1355:0.041965879 1360:0.041965879 1365:0.041965879 1369:0.041965879 1371:0.041965879 1374:0.041965879 1388:0.041965879 1389:0.041965879 1391:0.041965879 1398:0.041965879 1399:0.041965879 1400:0.041965879 1401:0.041965879 1404:0.041965879 1411:0.041965879 1415:0.041965879 1421:0.041965879 1434:0.041965879 1438:0.041965879 1439:0.041965879 1453:0.041965879 1454:0.041965879 1463:0.041965879 1465:0.041965879 1480:0.041965879 1483:0.041965879 1484:0.041965879 1485:0.041965879 1489:0.041965879 1490:0.041965879 1498:0.041965879 1499:0.041965879 1502:0.041965879 1505:0.041965879 1511:0.041965879 1512:0.041965879 1513:0.041965879 1514:0.041965879 1525:0.041965879 1549:0.041965879 1550:0.041965879 1552:0.041965879 1559:0.041965879 1563:0.041965879 1581:0.041965879 1589:0.041965879 1593:0.041965879 1601:0.041965879 1603:0.041965879 1604:0.041965879 1605:0.041965879 1608:0.041965879 1611:0.041965879 1614:0.041965879 1617:0.041965879 1622:0.041965879 1626:0.041965879 1629:0.041965879 1638:0.041965879 1641:0.041965879 1643:0.041965879 1646:0.041965879 1647:0.041965879 1648:0.041965879 1654:0.041965879 1655:0.041965879 1668:0.041965879 1673:0.041965879 1674:0.041965879 1676:0.041965879 1682:0.041965879 1686:0.041965879 1692:0.041965879 1697:0.041965879 1702:0.041965879 1704:0.041965879 1709:0.041965879 1712:0.041965879 1716:0.041965879 1719:0.041965879 1720:0.041965879 1735:0.041965879 1737:0.041965879 1741:0.041965879 1746:0.041965879 1751:0.041965879 1755:0.041965879 1758:0.041965879 1759:0.041965879 1763:0.041965879 1772:0.041965879 1775:0.041965879 1776:0.041965879 1782:0.041965879 1790:0.041965879 1792:0.041965879 1795:0.041965879 1802:0.041965879 1809:0.041965879 1813:0.041965879 1814:0.041965879 1817:0.041965879 1818:0.041965879 1820:0.041965879 1834:0.041965879 1839:0.041965879 1845:0.041965879 1851:0.041965879 1853:0.041965879 1855:0.041965879 1868:0.041965879 1877:0.041965879 1879:0.041965879 1886:0.041965879 1889:0.041965879 1892:0.041965879 1904:0.041965879 1908:0.041965879 1911:0.041965879 1923:0.041965879 1924:0.041965879 1927:0.041965879 1929:0.041965879 1933:0.041965879 1935:0.041965879 1939:0.041965879 1951:0.041965879 1952:0.041965879 1961:0.041965879 1966:0.041965879 1967:0.041965879 1968:0.041965879 1971:0.041965879 1980:0.041965879 1982:0.041965879 1983:0.041965879 1984:0.041965879 1987:0.041965879 1989:0.041965879 1991:0.041965879 1993:0.041965879 1997:0.041965879 2004:0.041965879 2008:0.041965879 2009:0.041965879 2011:0.041965879 2013:0.041965879 2019:0.041965879 2027:0.064511783 2031:0.041965879 2040:0.041965879 2067:0.041965879 2068:0.041965879 2076:0.041965879 2078:0.041965879 2086:0.041965879 2094:0.041965879 2098:0.041965879 2099:0.041965879 2100:0.041965879 2101:0.041965879 2102:0.041965879 2104:0.041965879 2105:0.041965879 2107:0.041965879 2111:0.041965879 2114:0.041965879 2115:0.041965879 2120:0.041965879 2129:0.041965879 2138:0.041965879 2140:0.041965879 2143:0.041965879 2162:0.041965879 2166:0.041965879 2167:0.041965879 2168:0.041965879 2169:0.041965879 2173:0.041965879 2177:0.041965879 2180:0.041965879 2185:0.041965879 2188:0.041965879 2189:0.041965879 2191:0.041965879 2197:0.041965879 2201:0.041965879 2203:0.041965879 2207:0.041965879 2208:0.041965879 2215:0.041965879 2220:0.041965879 2221:0.041965879 2223:0.041965879 2225:0.041965879 2227:0.041965879 2236:0.041965879 2238:0.064511783 2245:0.041965879 2251:0.041965879 2258:0.041965879 2266:0.041965879 2267:0.041965879 2276:0.041965879 2279:0.041965879 2280:0.041965879 2281:0.041965879 2288:0.041965879 2308:0.041965879 2311:0.041965879 2312:0.041965879 2313:0.041965879 2331:0.041965879 2344:0.041965879 2350:0.041965879 2352:0.041965879 2356:0.064511783 2357:0.041965879 2365:0.041965879 2374:0.041965879 2379:0.041965879 2386:0.041965879 2394:0.041965879 2399:0.041965879 2404:0.041965879 2413:0.041965879 2416:0.041965879 2417:0.041965879 2423:0.041965879 2429:0.041965879 2450:0.041965879 2451:0.041965879 2462:0.041965879 2467:0.041965879 2469:0.041965879 2472:0.041965879 2476:0.041965879 2482:0.041965879 2485:0.041965879 2487:0.041965879 2488:0.041965879 2492:0.041965879 2506:0.041965879 2509:0.041965879 2510:0.041965879 2511:0.041965879 2512:0.041965879 2539:0.041965879 2540:0.041965879 2541:0.041965879 2545:0.041965879 2550:0.041965879 2551:0.041965879 2560:0.041965879 2565:0.041965879 2566:0.041965879 2570:0.041965879 2573:0.041965879 2579:0.041965879 2584:0.041965879 2586:0.041965879 2587:0.041965879 2597:0.041965879 2600:0.041965879 2602:0.041965879 2612:0.041965879 2613:0.041965879 2617:0.041965879 2631:0.041965879 2632:0.041965879 2637:0.041965879 2649:0.041965879 2654:0.041965879 2664:0.041965879 2670:0.041965879 2678:0.041965879 2679:0.041965879 2681:0.041965879 2689:0.041965879 2690:0.041965879 2692:0.041965879 2696:0.041965879 2701:0.041965879 2707:0.041965879 2718:0.041965879 2723:0.041965879 2724:0.041965879 2728:0.041965879 2730:0.041965879 2743:0.041965879 2744:0.041965879 2747:0.041965879 2755:0.041965879 2758:0.041965879 2764:0.041965879 #
-0.95141225857368127982738315040478 2:0.084791645 31:0.084791645 53:0.084791645 113:0.1303454 129:0.084791645 141:0.084791645 165:0.084791645 210:0.084791645 212:0.084791645 266:0.084791645 273:0.084791645 291:0.084791645 372:0.084791645 382:0.084791645 403:0.084791645 427:0.084791645 452:0.084791645 487:0.084791645 503:0.084791645 519:0.084791645 524:0.084791645 528:0.084791645 530:0.084791645 576:0.084791645 599:0.084791645 629:0.084791645 642:0.084791645 644:0.084791645 676:0.084791645 713:0.084791645 714:0.084791645 733:0.084791645 762:0.084791645 774:0.084791645 801:0.084791645 815:0.084791645 819:0.084791645 823:0.084791645 835:0.084791645 928:0.084791645 937:0.084791645 941:0.084791645 950:0.084791645 961:0.084791645 975:0.084791645 986:0.084791645 991:0.084791645 994:0.084791645 1074:0.084791645 1081:0.084791645 1108:0.084791645 1145:0.084791645 1152:0.084791645 1156:0.084791645 1166:0.084791645 1190:0.084791645 1191:0.084791645 1195:0.084791645 1203:0.084791645 1233:0.084791645 1276:0.084791645 1279:0.084791645 1281:0.084791645 1284:0.084791645 1310:0.084791645 1338:0.084791645 1377:0.084791645 1416:0.084791645 1420:0.084791645 1456:0.084791645 1472:0.084791645 1492:0.084791645 1519:0.084791645 1531:0.084791645 1545:0.084791645 1578:0.084791645 1598:0.084791645 1599:0.084791645 1600:0.084791645 1606:0.084791645 1609:0.084791645 1618:0.084791645 1627:0.084791645 1635:0.084791645 1644:0.084791645 1651:0.084791645 1653:0.084791645 1660:0.084791645 1670:0.084791645 1679:0.084791645 1691:0.084791645 1717:0.084791645 1721:0.084791645 1747:0.084791645 1756:0.084791645 1799:0.084791645 1826:0.084791645 1865:0.084791645 1876:0.084791645 1882:0.084791645 1896:0.084791645 1909:0.084791645 1941:0.084791645 1947:0.084791645 1976:0.084791645 1978:0.084791645 1988:0.084791645 2039:0.084791645 2066:0.084791645 2069:0.084791645 2149:0.084791645 2157:0.084791645 2172:0.084791645 2175:0.084791645 2212:0.084791645 2294:0.084791645 2325:0.084791645 2327:0.084791645 2333:0.084791645 2378:0.084791645 2388:0.084791645 2420:0.084791645 2435:0.084791645 2444:0.084791645 2461:0.084791645 2479:0.084791645 2525:0.084791645 2554:0.084791645 2576:0.1303454 2622:0.1303454 2627:0.084791645 2643:0.084791645 2673:0.084791645 2712:0.084791645 2765:0.084791645 #
-0.95704335432652887227789051394211 36:0.13522859 95:0.13522859 196:0.13522859 217:0.13522859 255:0.13522859 300:0.13522859 386:0.13522859 422:0.13522859 448:0.13522859 508:0.13522859 560:0.13522859 731:0.13522859 742:0.13522859 865:0.13522859 895:0.13522859 930:0.13522859 1016:0.13522859 1037:0.13522859 1048:0.13522859 1067:0.13522859 1104:0.13522859 1129:0.13522859 1204:0.13522859 1244:0.13522859 1316:0.13522859 1397:0.13522859 1458:0.13522859 1516:0.13522859 1592:0.13522859 1628:0.13522859 1699:0.13522859 1805:0.13522859 1819:0.13522859 1950:0.13522859 1992:0.13522859 2070:0.13522859 2092:0.13522859 2123:0.13522859 2248:0.13522859 2250:0.13522859 2292:0.13522859 2321:0.13522859 2397:0.13522859 2422:0.13522859 2491:0.13522859 2513:0.13522859 2519:0.10393964 2530:0.13522859 2544:0.13522859 2648:0.13522859 2651:0.13522859 2665:0.13522859 2704:0.13522859 2720:0.13522859 2752:0.13522859 2770:0.041361742 #
1.0000000303043652394308082875796 5:0.034244023 7:0.034244023 9:0.034244023 13:0.034244023 18:0.034244023 22:0.034244023 24:0.052641403 25:0.034244023 29:0.034244023 30:0.034244023 35:0.034244023 48:0.034244023 49:0.034244023 51:0.034244023 57:0.034244023 60:0.034244023 64:0.034244023 68:0.034244023 69:0.034244023 71:0.034244023 73:0.034244023 74:0.065057568 75:0.034244023 79:0.034244023 80:0.052641403 82:0.034244023 88:0.034244023 89:0.034244023 90:0.034244023 94:0.034244023 98:0.034244023 99:0.034244023 100:0.034244023 103:0.052641403 107:0.034244023 111:0.034244023 118:0.034244023 121:0.034244023 122:0.034244023 123:0.034244023 126:0.052641403 128:0.034244023 130:0.034244023 131:0.034244023 132:0.034244023 133:0.034244023 136:0.034244023 138:0.034244023 146:0.034244023 148:0.034244023 155:0.034244023 157:0.034244023 163:0.034244023 167:0.034244023 169:0.034244023 172:0.034244023 173:0.034244023 183:0.034244023 184:0.021685855 185:0.034244023 187:0.034244023 189:0.034244023 193:0.034244023 194:0.034244023 197:0.034244023 202:0.034244023 204:0.034244023 205:0.034244023 213:0.034244023 222:0.034244023 231:0.034244023 234:0.034244023 235:0.034244023 241:0.034244023 244:0.034244023 245:0.034244023 250:0.034244023 253:0.034244023 254:0.034244023 256:0.034244023 257:0.034244023 262:0.034244023 269:0.034244023 271:0.034244023 274:0.034244023 275:0.034244023 281:0.034244023 286:0.034244023 287:0.034244023 288:0.034244023 294:0.034244023 298:0.034244023 303:0.034244023 308:0.034244023 309:0.034244023 310:0.034244023 311:0.034244023 312:0.034244023 313:0.052641403 316:0.034244023 317:0.034244023 318:0.034244023 321:0.034244023 325:0.034244023 326:0.034244023 328:0.034244023 332:0.034244023 333:0.034244023 335:0.034244023 339:0.034244023 341:0.034244023 344:0.034244023 352:0.034244023 354:0.034244023 359:0.034244023 366:0.034244023 368:0.034244023 369:0.034244023 374:0.034244023 377:0.034244023 379:0.034244023 381:0.034244023 389:0.034244023 391:0.052641403 392:0.034244023 397:0.034244023 407:0.034244023 408:0.034244023 409:0.034244023 410:0.034244023 413:0.034244023 416:0.034244023 418:0.034244023 419:0.034244023 420:0.034244023 428:0.034244023 432:0.034244023 439:0.034244023 440:0.034244023 443:0.034244023 445:0.034244023 450:0.034244023 457:0.034244023 460:0.034244023 461:0.034244023 463:0.034244023 465:0.034244023 468:0.034244023 470:0.034244023 471:0.034244023 475:0.034244023 476:0.034244023 477:0.034244023 480:0.034244023 481:0.034244023 483:0.034244023 484:0.034244023 490:0.034244023 494:0.034244023 496:0.034244023 502:0.034244023 504:0.034244023 513:0.034244023 514:0.034244023 517:0.034244023 518:0.034244023 522:0.034244023 523:0.034244023 525:0.034244023 527:0.034244023 531:0.034244023 535:0.034244023 539:0.034244023 542:0.034244023 546:0.034244023 547:0.034244023 549:0.034244023 551:0.034244023 555:0.034244023 556:0.034244023 559:0.034244023 562:0.034244023 563:0.052641403 565:0.034244023 568:0.034244023 569:0.034244023 573:0.034244023 577:0.034244023 578:0.034244023 587:0.034244023 589:0.034244023 592:0.034244023 595:0.034244023 596:0.034244023 602:0.034244023 603:0.034244023 604:0.036794763 606:0.034244023 607:0.026320701 614:0.034244023 619:0.034244023 624:0.034244023 625:0.034244023 626:0.034244023 632:0.034244023 637:0.034244023 639:0.034244023 650:0.034244023 652:0.034244023 653:0.034244023 655:0.034244023 656:0.034244023 659:0.034244023 663:0.034244023 666:0.034244023 668:0.052641403 674:0.034244023 675:0.034244023 678:0.034244023 679:0.034244023 680:0.034244023 684:0.034244023 685:0.034244023 688:0.034244023 692:0.034244023 699:0.034244023 702:0.034244023 703:0.034244023 705:0.034244023 706:0.034244023 708:0.034244023 709:0.034244023 711:0.034244023 737:0.034244023 743:0.034244023 745:0.034244023 746:0.034244023 747:0.034244023 749:0.034244023 751:0.034244023 763:0.034244023 765:0.052641403 766:0.034244023 768:0.034244023 775:0.034244023 779:0.034244023 781:0.034244023 782:0.034244023 783:0.034244023 789:0.034244023 793:0.034244023 794:0.034244023 795:0.034244023 800:0.034244023 802:0.034244023 804:0.034244023 805:0.034244023 806:0.034244023 807:0.034244023 808:0.052641403 809:0.034244023 811:0.034244023 816:0.034244023 818:0.034244023 820:0.034244023 821:0.034244023 822:0.034244023 825:0.034244023 827:0.034244023 830:0.034244023 831:0.034244023 833:0.034244023 834:0.034244023 838:0.034244023 840:0.034244023 841:0.034244023 844:0.034244023 847:0.034244023 858:0.034244023 862:0.034244023 863:0.034244023 876:0.034244023 881:0.034244023 882:0.034244023 887:0.034244023 888:0.034244023 891:0.034244023 892:0.034244023 894:0.034244023 897:0.034244023 898:0.034244023 899:0.034244023 914:0.034244023 916:0.034244023 924:0.034244023 932:0.034244023 933:0.034244023 935:0.034244023 942:0.034244023 943:0.034244023 955:0.034244023 958:0.034244023 959:0.034244023 960:0.065057568 963:0.034244023 966:0.034244023 977:0.034244023 981:0.034244023 987:0.034244023 988:0.034244023 993:0.034244023 1002:0.034244023 1005:0.034244023 1006:0.034244023 1014:0.034244023 1017:0.034244023 1019:0.034244023 1021:0.034244023 1028:0.034244023 1032:0.034244023 1035:0.034244023 1046:0.034244023 1052:0.034244023 1061:0.034244023 1062:0.034244023 1063:0.034244023 1066:0.034244023 1073:0.034244023 1078:0.034244023 1080:0.034244023 1082:0.034244023 1084:0.034244023 1087:0.034244023 1088:0.034244023 1091:0.034244023 1093:0.034244023 1095:0.034244023 1102:0.034244023 1107:0.034244023 1111:0.034244023 1112:0.034244023 1114:0.034244023 1117:0.034244023 1118:0.034244023 1119:0.034244023 1122:0.034244023 1126:0.034244023 1140:0.034244023 1143:0.034244023 1146:0.034244023 1147:0.034244023 1149:0.034244023 1153:0.034244023 1154:0.034244023 1155:0.034244023 1157:0.034244023 1159:0.034244023 1160:0.034244023 1163:0.034244023 1167:0.052641403 1169:0.034244023 1170:0.034244023 1172:0.034244023 1173:0.034244023 1177:0.034244023 1178:0.034244023 1189:0.034244023 1193:0.034244023 1194:0.034244023 1200:0.034244023 1206:0.034244023 1207:0.034244023 1208:0.034244023 1209:0.034244023 1214:0.034244023 1217:0.034244023 1219:0.034244023 1220:0.034244023 1224:0.034244023 1225:0.034244023 1229:0.034244023 1230:0.034244023 1237:0.034244023 1238:0.034244023 1241:0.034244023 1246:0.034244023 1252:0.034244023 1254:0.034244023 1259:0.034244023 1261:0.034244023 1267:0.034244023 1272:0.034244023 1274:0.034244023 1282:0.052641403 1283:0.034244023 1290:0.034244023 1299:0.034244023 1303:0.034244023 1308:0.034244023 1309:0.034244023 1312:0.034244023 1317:0.034244023 1320:0.034244023 1321:0.034244023 1324:0.034244023 1326:0.034244023 1328:0.034244023 1334:0.034244023 1337:0.034244023 1340:0.034244023 1342:0.034244023 1347:0.034244023 1349:0.034244023 1351:0.034244023 1356:0.034244023 1357:0.034244023 1358:0.052641403 1359:0.034244023 1362:0.034244023 1363:0.034244023 1368:0.034244023 1370:0.034244023 1372:0.034244023 1379:0.034244023 1381:0.034244023 1392:0.034244023 1393:0.034244023 1395:0.034244023 1406:0.034244023 1410:0.052641403 1414:0.034244023 1417:0.034244023 1419:0.034244023 1422:0.034244023 1428:0.034244023 1429:0.034244023 1430:0.034244023 1432:0.034244023 1433:0.034244023 1435:0.034244023 1437:0.034244023 1441:0.034244023 1442:0.034244023 1444:0.034244023 1450:0.034244023 1461:0.034244023 1464:0.034244023 1470:0.034244023 1473:0.034244023 1475:0.034244023 1487:0.034244023 1488:0.034244023 1497:0.034244023 1518:0.034244023 1521:0.034244023 1528:0.034244023 1529:0.034244023 1532:0.034244023 1533:0.034244023 1537:0.034244023 1539:0.034244023 1541:0.034244023 1546:0.034244023 1551:0.034244023 1554:0.034244023 1555:0.034244023 1558:0.052641403 1561:0.034244023 1565:0.026320701 1566:0.026320701 1568:0.034244023 1569:0.034244023 1582:0.052641403 1590:0.034244023 1591:0.034244023 1596:0.034244023 1612:0.034244023 1613:0.034244023 1615:0.034244023 1619:0.034244023 1620:0.034244023 1634:0.034244023 1642:0.034244023 1645:0.034244023 1649:0.034244023 1650:0.034244023 1656:0.034244023 1657:0.034244023 1658:0.034244023 1661:0.034244023 1662:0.034244023 1665:0.034244023 1666:0.034244023 1672:0.034244023 1675:0.034244023 1678:0.034244023 1683:0.034244023 1684:0.034244023 1685:0.034244023 1688:0.034244023 1689:0.034244023 1693:0.034244023 1698:0.034244023 1707:0.034244023 1708:0.034244023 1718:0.034244023 1723:0.034244023 1724:0.034244023 1725:0.034244023 1730:0.034244023 1731:0.034244023 1740:0.034244023 1743:0.034244023 1744:0.034244023 1749:0.034244023 1754:0.034244023 1757:0.034244023 1761:0.034244023 1766:0.034244023 1768:0.034244023 1771:0.026320701 1773:0.034244023 1774:0.034244023 1779:0.034244023 1781:0.034244023 1783:0.034244023 1786:0.034244023 1789:0.034244023 1791:0.034244023 1793:0.034244023 1796:0.034244023 1801:0.034244023 1803:0.034244023 1806:0.034244023 1810:0.034244023 1825:0.034244023 1829:0.034244023 1832:0.034244023 1838:0.034244023 1840:0.034244023 1842:0.034244023 1843:0.018397382 1846:0.034244023 1850:0.034244023 1857:0.034244023 1858:0.034244023 1862:0.034244023 1863:0.034244023 1864:0.034244023 1867:0.034244023 1870:0.034244023 1871:0.034244023 1874:0.034244023 1880:0.034244023 1881:0.034244023 1883:0.034244023 1884:0.034244023 1890:0.034244023 1894:0.034244023 1895:0.034244023 1898:0.034244023 1899:0.052641403 1900:0.034244023 1902:0.034244023 1905:0.034244023 1913:0.034244023 1916:0.034244023 1921:0.034244023 1922:0.034244023 1925:0.034244023 1926:0.034244023 1928:0.034244023 1942:0.034244023 1943:0.034244023 1944:0.034244023 1948:0.034244023 1957:0.034244023 1959:0.034244023 1973:0.034244023 1981:0.034244023 1990:0.034244023 1996:0.034244023 2003:0.034244023 2012:0.034244023 2014:0.034244023 2016:0.034244023 2021:0.052641403 2024:0.034244023 2025:0.034244023 2030:0.034244023 2032:0.034244023 2036:0.034244023 2037:0.034244023 2038:0.034244023 2044:0.034244023 2047:0.034244023 2053:0.052641403 2054:0.052641403 2057:0.034244023 2062:0.034244023 2063:0.034244023 2074:0.034244023 2079:0.034244023 2081:0.034244023 2084:0.034244023 2088:0.034244023 2091:0.034244023 2110:0.034244023 2121:0.034244023 2122:0.034244023 2124:0.034244023 2125:0.034244023 2128:0.034244023 2131:0.034244023 2133:0.034244023 2141:0.034244023 2142:0.034244023 2144:0.034244023 2146:0.034244023 2150:0.034244023 2151:0.034244023 2154:0.034244023 2155:0.034244023 2158:0.052641403 2163:0.034244023 2170:0.034244023 2174:0.034244023 2182:0.034244023 2186:0.034244023 2187:0.034244023 2190:0.034244023 2192:0.034244023 2194:0.034244023 2195:0.034244023 2198:0.034244023 2200:0.034244023 2206:0.034244023 2213:0.034244023 2217:0.034244023 2226:0.034244023 2229:0.034244023 2232:0.034244023 2233:0.052641403 2234:0.034244023 2235:0.034244023 2239:0.034244023 2240:0.034244023 2241:0.034244023 2243:0.034244023 2252:0.034244023 2255:0.034244023 2257:0.034244023 2263:0.034244023 2265:0.034244023 2272:0.034244023 2274:0.034244023 2277:0.034244023 2278:0.034244023 2283:0.034244023 2284:0.034244023 2286:0.034244023 2287:0.034244023 2290:0.034244023 2293:0.034244023 2295:0.034244023 2298:0.079233207 2301:0.034244023 2302:0.034244023 2306:0.034244023 2314:0.034244023 2317:0.034244023 2324:0.034244023 2329:0.034244023 2330:0.034244023 2334:0.034244023 2336:0.034244023 2342:0.034244023 2343:0.034244023 2345:0.034244023 2346:0.034244023 2347:0.034244023 2348:0.034244023 2349:0.034244023 2351:0.034244023 2353:0.034244023 2354:0.034244023 2358:0.034244023 2359:0.034244023 2360:0.034244023 2361:0.034244023 2362:0.034244023 2366:0.034244023 2368:0.034244023 2371:0.034244023 2372:0.034244023 2373:0.034244023 2375:0.034244023 2381:0.034244023 2383:0.034244023 2389:0.034244023 2393:0.034244023 2400:0.034244023 2401:0.034244023 2402:0.034244023 2403:0.034244023 2418:0.034244023 2421:0.034244023 2424:0.034244023 2426:0.034244023 2427:0.034244023 2428:0.034244023 2431:0.034244023 2438:0.034244023 2447:0.034244023 2449:0.034244023 2452:0.036794763 2456:0.034244023 2457:0.034244023 2459:0.034244023 2465:0.065057568 2466:0.034244023 2470:0.034244023 2471:0.034244023 2473:0.034244023 2480:0.034244023 2483:0.034244023 2484:0.034244023 2493:0.034244023 2497:0.034244023 2498:0.052641403 2502:0.065057568 2505:0.034244023 2514:0.034244023 2517:0.034244023 2519:0.026320701 2520:0.034244023 2521:0.034244023 2522:0.034244023 2524:0.034244023 2531:0.034244023 2534:0.034244023 2535:0.034244023 2537:0.052641403 2538:0.034244023 2543:0.034244023 2547:0.034244023 2549:0.034244023 2552:0.034244023 2553:0.034244023 2557:0.034244023 2559:0.034244023 2561:0.034244023 2564:0.034244023 2567:0.034244023 2571:0.034244023 2577:0.034244023 2592:0.034244023 2594:0.034244023 2595:0.034244023 2598:0.034244023 2604:0.034244023 2609:0.034244023 2610:0.034244023 2611:0.034244023 2614:0.034244023 2615:0.034244023 2619:0.034244023 2621:0.034244023 2623:0.034244023 2624:0.034244023 2626:0.026320701 2628:0.034244023 2630:0.034244023 2635:0.052641403 2642:0.034244023 2655:0.026320701 2657:0.034244023 2661:0.034244023 2668:0.034244023 2669:0.034244023 2674:0.034244023 2677:0.034244023 2684:0.034244023 2686:0.034244023 2687:0.034244023 2691:0.034244023 2693:0.052641403 2694:0.034244023 2697:0.034244023 2700:0.034244023 2702:0.034244023 2708:0.034244023 2713:0.034244023 2714:0.034244023 2719:0.034244023 2721:0.034244023 2725:0.034244023 2727:0.034244023 2733:0.034244023 2734:0.034244023 2739:0.034244023 2741:0.034244023 2742:0.034244023 2749:0.034244023 2750:0.034244023 2753:0.034244023 2768:0.021685855 #
0.90986239321674200475342786376132 3:0.1020629 59:0.13278688 84:0.13278688 115:0.1020629 144:0.13278688 247:0.1020629 258:0.1020629 378:0.13278688 417:0.1020629 478:0.1020629 495:0.1020629 515:0.13278688 615:0.13278688 627:0.13278688 662:0.1020629 665:0.13278688 672:0.1020629 907:0.1020629 929:0.13278688 952:0.13278688 1003:0.1020629 1029:0.1020629 1043:0.13278688 1064:0.13278688 1103:0.084090516 1132:0.1020629 1182:0.13278688 1183:0.13278688 1185:0.1020629 1232:0.13278688 1234:0.1020629 1243:0.13278688 1253:0.13278688 1291:0.1020629 1331:0.071338907 1394:0.1020629 1403:0.13278688 1425:0.1020629 1446:0.14267781 1460:0.13278688 1478:0.1020629 1562:0.13278688 1637:0.13278688 1659:0.1020629 1711:0.13278688 1807:0.13278688 1831:0.1020629 1960:0.13278688 1965:0.13278688 2055:0.13278688 2075:0.1020629 2109:0.13278688 2130:0.13278688 2199:0.084090516 2261:0.1020629 2337:0.14267781 2367:0.13278688 2392:0.13278688 2395:0.1020629 2405:0.13278688 2425:0.1020629 2458:0.13278688 2477:0.13278688 2500:0.1020629 2527:0.13278688 2542:0.1020629 2596:0.13278688 2608:0.1020629 2717:0.1020629 2761:0.1020629 2766:0.1020629 #
1.0000000303043652394308082875796 83:0.228853 398:0.228853 536:0.228853 557:0.228853 633:0.228853 646:0.228853 817:0.228853 872:0.228853 1174:0.228853 1212:0.228853 1275:0.228853 1969:0.228853 2029:0.228853 2048:0.228853 2071:0.228853 2113:0.228853 2132:0.228853 2605:0.228853 2688:0.228853 2770:0.069998205 #
0.90867365832005231318646565341623 3:0.038266663 6:0.049786076 10:0.049786076 26:0.049786076 28:0.076533325 32:0.049786076 40:0.049786076 41:0.049786076 44:0.049786076 45:0.049786076 55:0.049786076 63:0.049786076 86:0.049786076 96:0.049786076 101:0.049786076 112:0.049786076 114:0.049786076 115:0.038266663 116:0.049786076 134:0.049786076 137:0.049786076 140:0.049786076 143:0.049786076 151:0.049786076 154:0.076533325 177:0.049786076 191:0.049786076 201:0.049786076 215:0.049786076 220:0.049786076 225:0.049786076 230:0.049786076 237:0.049786076 247:0.038266663 258:0.038266663 264:0.049786076 267:0.049786076 268:0.049786076 276:0.049786076 282:0.049786076 283:0.049786076 297:0.049786076 315:0.049786076 327:0.049786076 331:0.049786076 336:0.049786076 343:0.049786076 350:0.049786076 358:0.049786076 360:0.049786076 384:0.049786076 388:0.049786076 393:0.049786076 395:0.049786076 396:0.049786076 399:0.049786076 400:0.049786076 402:0.049786076 417:0.038266663 421:0.049786076 425:0.049786076 435:0.049786076 441:0.049786076 455:0.049786076 466:0.049786076 472:0.049786076 473:0.049786076 474:0.049786076 478:0.038266663 493:0.049786076 495:0.038266663 497:0.049786076 534:0.049786076 552:0.049786076 566:0.049786076 567:0.049786076 575:0.049786076 582:0.049786076 583:0.049786076 584:0.049786076 586:0.049786076 598:0.049786076 600:0.049786076 612:0.049786076 616:0.049786076 623:0.049786076 630:0.049786076 643:0.049786076 657:0.049786076 658:0.049786076 662:0.038266663 672:0.038266663 673:0.049786076 690:0.049786076 694:0.049786076 710:0.049786076 712:0.049786076 715:0.049786076 726:0.049786076 728:0.049786076 729:0.049786076 735:0.049786076 738:0.049786076 744:0.049786076 748:0.049786076 758:0.049786076 760:0.049786076 764:0.049786076 785:0.049786076 797:0.049786076 798:0.049786076 814:0.049786076 828:0.049786076 832:0.049786076 853:0.049786076 857:0.049786076 860:0.049786076 861:0.049786076 867:0.049786076 869:0.049786076 870:0.049786076 874:0.049786076 875:0.049786076 877:0.049786076 878:0.049786076 886:0.049786076 893:0.049786076 896:0.049786076 900:0.049786076 906:0.049786076 907:0.038266663 922:0.049786076 923:0.049786076 938:0.049786076 944:0.049786076 946:0.049786076 948:0.049786076 954:0.049786076 964:0.049786076 968:0.049786076 971:0.049786076 972:0.049786076 983:0.049786076 984:0.049786076 985:0.049786076 990:0.049786076 997:0.049786076 1003:0.038266663 1029:0.038266663 1031:0.049786076 1042:0.049786076 1044:0.076533325 1045:0.049786076 1056:0.049786076 1058:0.049786076 1060:0.049786076 1068:0.049786076 1069:0.049786076 1075:0.049786076 1076:0.049786076 1098:0.049786076 1103:0.063056476 1106:0.049786076 1115:0.049786076 1132:0.038266663 1134:0.049786076 1135:0.049786076 1139:0.049786076 1141:0.049786076 1164:0.049786076 1181:0.049786076 1185:0.038266663 1187:0.049786076 1201:0.049786076 1202:0.049786076 1216:0.049786076 1218:0.049786076 1228:0.049786076 1234:0.038266663 1236:0.049786076 1251:0.049786076 1260:0.049786076 1268:0.049786076 1273:0.049786076 1278:0.049786076 1286:0.049786076 1291:0.038266663 1295:0.049786076 1300:0.049786076 1307:0.049786076 1313:0.049786076 1315:0.049786076 1322:0.049786076 1323:0.049786076 1331:0.080241747 1332:0.049786076 1335:0.049786076 1345:0.049786076 1366:0.049786076 1367:0.049786076 1386:0.049786076 1394:0.038266663 1418:0.049786076 1424:0.049786076 1425:0.038266663 1426:0.049786076 1431:0.049786076 1446:0.053494498 1452:0.049786076 1462:0.049786076 1476:0.049786076 1478:0.038266663 1486:0.049786076 1491:0.049786076 1494:0.049786076 1495:0.049786076 1496:0.049786076 1501:0.049786076 1503:0.049786076 1504:0.049786076 1507:0.049786076 1508:0.049786076 1509:0.049786076 1510:0.049786076 1515:0.049786076 1517:0.049786076 1526:0.049786076 1535:0.049786076 1542:0.049786076 1543:0.049786076 1560:0.049786076 1570:0.049786076 1571:0.049786076 1577:0.049786076 1579:0.049786076 1584:0.049786076 1602:0.094584711 1610:0.049786076 1616:0.049786076 1624:0.049786076 1625:0.049786076 1659:0.038266663 1664:0.049786076 1680:0.049786076 1681:0.049786076 1695:0.049786076 1700:0.049786076 1710:0.049786076 1713:0.049786076 1722:0.049786076 1729:0.049786076 1733:0.049786076 1738:0.049786076 1745:0.049786076 1748:0.049786076 1760:0.049786076 1784:0.049786076 1787:0.049786076 1800:0.049786076 1811:0.049786076 1815:0.049786076 1816:0.049786076 1823:0.049786076 1830:0.049786076 1831:0.038266663 1841:0.049786076 1847:0.049786076 1848:0.049786076 1849:0.049786076 1856:0.049786076 1860:0.049786076 1872:0.049786076 1873:0.076533325 1888:0.049786076 1897:0.049786076 1901:0.049786076 1907:0.049786076 1910:0.049786076 1918:0.049786076 1930:0.049786076 1931:0.049786076 1936:0.049786076 1956:0.049786076 1964:0.049786076 1977:0.049786076 1986:0.049786076 2002:0.049786076 2005:0.049786076 2010:0.049786076 2017:0.049786076 2028:0.049786076 2041:0.049786076 2046:0.049786076 2059:0.049786076 2064:0.049786076 2072:0.049786076 2075:0.038266663 2077:0.049786076 2083:0.049786076 2085:0.049786076 2096:0.049786076 2097:0.049786076 2108:0.049786076 2118:0.049786076 2135:0.049786076 2148:0.049786076 2153:0.049786076 2156:0.049786076 2159:0.049786076 2171:0.049786076 2193:0.049786076 2196:0.049786076 2199:0.063056476 2204:0.049786076 2209:0.049786076 2210:0.049786076 2214:0.049786076 2228:0.049786076 2249:0.049786076 2256:0.049786076 2261:0.038266663 2264:0.049786076 2269:0.049786076 2270:0.049786076 2275:0.049786076 2289:0.049786076 2291:0.049786076 2297:0.049786076 2300:0.049786076 2309:0.049786076 2315:0.049786076 2316:0.076533325 2318:0.049786076 2319:0.049786076 2322:0.049786076 2326:0.049786076 2332:0.049786076 2337:0.053494498 2341:0.049786076 2369:0.049786076 2376:0.049786076 2385:0.049786076 2387:0.049786076 2395:0.038266663 2398:0.049786076 2407:0.049786076 2411:0.049786076 2414:0.049786076 2419:0.049786076 2425:0.038266663 2436:0.049786076 2437:0.049786076 2445:0.049786076 2453:0.049786076 2468:0.049786076 2474:0.049786076 2478:0.049786076 2486:0.049786076 2490:0.049786076 2494:0.049786076 2500:0.038266663 2503:0.049786076 2504:0.049786076 2507:0.049786076 2518:0.049786076 2528:0.049786076 2542:0.038266663 2546:0.049786076 2556:0.049786076 2562:0.049786076 2574:0.049786076 2580:0.049786076 2582:0.049786076 2589:0.049786076 2599:0.049786076 2601:0.049786076 2608:0.038266663 2620:0.049786076 2625:0.049786076 2626:0.038266663 2629:0.049786076 2636:0.049786076 2644:0.049786076 2645:0.049786076 2646:0.049786076 2652:0.049786076 2666:0.049786076 2671:0.049786076 2675:0.049786076 2676:0.049786076 2680:0.049786076 2682:0.049786076 2709:0.049786076 2716:0.049786076 2717:0.038266663 2722:0.049786076 2736:0.049786076 2737:0.049786076 2745:0.049786076 2748:0.049786076 2751:0.049786076 2759:0.049786076 2761:0.038266663 2766:0.038266663 #
