SVM-light Version V6.02
0 # kernel type
3 # kernel parameter -d 
1 # kernel parameter -g 
1 # kernel parameter -s 
1 # kernel parameter -r 
empty# kernel parameter -u 
6384 # highest feature index 
8 # number of training documents 
9 # number of support vectors plus 1 
-0.045160753 # threshold b, each following line is a SV (starting with alpha*y)
-0.99999998174280368967714593964047 7:0.03423956 19:0.03423956 22:0.03423956 34:0.03423956 43:0.03423956 45:0.065049089 56:0.03423956 72:0.052634541 74:0.03423956 75:0.03423956 76:0.03423956 84:0.03423956 85:0.03423956 117:0.03423956 135:0.03423956 142:0.03423956 143:0.03423956 155:0.03423956 168:0.03423956 184:0.03423956 188:0.03423956 189:0.03423956 192:0.03423956 194:0.03423956 195:0.03423956 205:0.03423956 211:0.03423956 233:0.03423956 236:0.03423956 241:0.03423956 243:0.03423956 244:0.03423956 245:0.03423956 249:0.03423956 254:0.03423956 263:0.03423956 264:0.03423956 265:0.03423956 276:0.03423956 287:0.03423956 289:0.03423956 304:0.03423956 318:0.03423956 346:0.03423956 354:0.03423956 374:0.03423956 379:0.03423956 382:0.03423956 393:0.03423956 397:0.03423956 431:0.03423956 438:0.03423956 440:0.03423956 444:0.03423956 446:0.03423956 448:0.03423956 462:0.03423956 464:0.03423956 466:0.03423956 467:0.03423956 471:0.03423956 472:0.03423956 478:0.03423956 483:0.03423956 527:0.03423956 528:0.03423956 530:0.03423956 542:0.03423956 563:0.03423956 564:0.03423956 571:0.03423956 591:0.03423956 604:0.03423956 618:0.03423956 621:0.03423956 644:0.03423956 646:0.03423956 657:0.03423956 677:0.03423956 701:0.03423956 702:0.03423956 712:0.03423956 733:0.03423956 736:0.03423956 740:0.03423956 743:0.03423956 744:0.03423956 749:0.03423956 750:0.03423956 763:0.03423956 776:0.03423956 792:0.03423956 797:0.03423956 802:0.03423956 809:0.03423956 827:0.03423956 831:0.03423956 834:0.03423956 837:0.03423956 872:0.03423956 875:0.03423956 882:0.03423956 897:0.03423956 899:0.03423956 901:0.03423956 907:0.03423956 941:0.03423956 977:0.02631727 979:0.03423956 984:0.03423956 986:0.03423956 991:0.03423956 1000:0.03423956 1024:0.018394982 1034:0.03423956 1035:0.03423956 1040:0.03423956 1041:0.03423956 1049:0.03423956 1051:0.03423956 1064:0.03423956 1067:0.03423956 1073:0.03423956 1075:0.03423956 1090:0.03423956 1091:0.03423956 1096:0.03423956 1098:0.03423956 1100:0.03423956 1104:0.03423956 1115:0.03423956 1125:0.03423956 1129:0.03423956 1132:0.052634541 1137:0.03423956 1138:0.03423956 1139:0.03423956 1143:0.052634541 1179:0.03423956 1180:0.03423956 1182:0.03423956 1185:0.03423956 1194:0.03423956 1197:0.03423956 1198:0.03423956 1200:0.03423956 1202:0.03423956 1205:0.03423956 1209:0.03423956 1222:0.03423956 1230:0.03423956 1237:0.03423956 1239:0.03423956 1243:0.03423956 1245:0.03423956 1257:0.03423956 1262:0.03423956 1267:0.03423956 1276:0.07922288 1277:0.052634541 1305:0.03423956 1307:0.03423956 1310:0.03423956 1316:0.03423956 1317:0.03423956 1322:0.03423956 1324:0.03423956 1338:0.03423956 1353:0.03423956 1354:0.03423956 1360:0.03423956 1362:0.036789965 1366:0.03423956 1375:0.03423956 1383:0.03423956 1387:0.03423956 1394:0.03423956 1411:0.03423956 1415:0.03423956 1419:0.03423956 1424:0.03423956 1425:0.03423956 1428:0.03423956 1437:0.03423956 1445:0.03423956 1456:0.03423956 1458:0.03423956 1464:0.03423956 1474:0.03423956 1482:0.03423956 1487:0.03423956 1499:0.03423956 1504:0.03423956 1513:0.03423956 1518:0.03423956 1519:0.03423956 1533:0.03423956 1537:0.03423956 1540:0.03423956 1544:0.03423956 1553:0.03423956 1563:0.03423956 1583:0.03423956 1587:0.03423956 1589:0.052634541 1591:0.03423956 1596:0.03423956 1598:0.03423956 1606:0.03423956 1608:0.03423956 1628:0.03423956 1633:0.03423956 1638:0.03423956 1646:0.03423956 1653:0.03423956 1676:0.03423956 1696:0.03423956 1713:0.03423956 1717:0.03423956 1735:0.052634541 1739:0.03423956 1750:0.03423956 1766:0.03423956 1769:0.03423956 1770:0.03423956 1783:0.052634541 1785:0.03423956 1789:0.03423956 1796:0.03423956 1798:0.03423956 1800:0.03423956 1822:0.03423956 1829:0.03423956 1830:0.03423956 1844:0.03423956 1848:0.03423956 1851:0.03423956 1855:0.03423956 1863:0.03423956 1865:0.03423956 1884:0.03423956 1889:0.03423956 1909:0.03423956 1920:0.03423956 1923:0.03423956 1931:0.03423956 1937:0.03423956 1951:0.03423956 1966:0.03423956 1970:0.03423956 1971:0.03423956 1991:0.03423956 2010:0.03423956 2011:0.03423956 2018:0.03423956 2030:0.03423956 2034:0.03423956 2036:0.03423956 2040:0.03423956 2043:0.03423956 2045:0.03423956 2048:0.03423956 2056:0.03423956 2066:0.03423956 2080:0.03423956 2082:0.03423956 2085:0.03423956 2089:0.03423956 2090:0.03423956 2103:0.03423956 2121:0.03423956 2122:0.03423956 2129:0.065049089 2147:0.03423956 2159:0.03423956 2165:0.03423956 2170:0.03423956 2201:0.03423956 2205:0.03423956 2212:0.03423956 2217:0.03423956 2219:0.03423956 2221:0.03423956 2231:0.03423956 2232:0.03423956 2238:0.03423956 2242:0.03423956 2248:0.03423956 2261:0.03423956 2262:0.03423956 2277:0.03423956 2285:0.03423956 2286:0.03423956 2288:0.03423956 2289:0.03423956 2297:0.03423956 2306:0.03423956 2329:0.03423956 2337:0.03423956 2340:0.03423956 2343:0.03423956 2358:0.052634541 2361:0.03423956 2374:0.03423956 2396:0.03423956 2399:0.03423956 2405:0.03423956 2410:0.03423956 2437:0.03423956 2468:0.03423956 2477:0.03423956 2485:0.02631727 2501:0.052634541 2513:0.03423956 2519:0.03423956 2524:0.03423956 2543:0.03423956 2545:0.03423956 2551:0.03423956 2553:0.03423956 2563:0.03423956 2567:0.03423956 2578:0.03423956 2579:0.03423956 2583:0.03423956 2587:0.03423956 2588:0.03423956 2594:0.03423956 2600:0.03423956 2614:0.03423956 2617:0.03423956 2636:0.03423956 2638:0.03423956 2639:0.03423956 2654:0.03423956 2655:0.03423956 2662:0.03423956 2665:0.03423956 2682:0.03423956 2684:0.03423956 2711:0.03423956 2712:0.03423956 2715:0.03423956 2718:0.03423956 2742:0.03423956 2757:0.03423956 2760:0.03423956 2781:0.03423956 2782:0.03423956 2783:0.03423956 2785:0.03423956 2787:0.03423956 2788:0.03423956 2792:0.03423956 2797:0.03423956 2799:0.03423956 2825:0.03423956 2830:0.052634541 2847:0.03423956 2848:0.03423956 2851:0.03423956 2864:0.03423956 2866:0.03423956 2877:0.03423956 2882:0.03423956 2898:0.03423956 2908:0.03423956 2911:0.03423956 2922:0.02168303 2928:0.03423956 2929:0.03423956 2935:0.03423956 2937:0.03423956 2964:0.03423956 2966:0.03423956 2978:0.03423956 2985:0.03423956 2993:0.03423956 2998:0.03423956 3018:0.03423956 3019:0.03423956 3029:0.03423956 3030:0.052634541 3044:0.03423956 3046:0.03423956 3050:0.052634541 3051:0.03423956 3070:0.03423956 3073:0.03423956 3075:0.03423956 3078:0.03423956 3119:0.052634541 3144:0.03423956 3145:0.03423956 3148:0.03423956 3156:0.03423956 3160:0.03423956 3178:0.03423956 3181:0.03423956 3200:0.03423956 3228:0.03423956 3232:0.03423956 3240:0.03423956 3252:0.03423956 3254:0.052634541 3257:0.03423956 3267:0.03423956 3269:0.03423956 3270:0.03423956 3273:0.03423956 3298:0.03423956 3307:0.03423956 3316:0.03423956 3321:0.03423956 3331:0.03423956 3348:0.03423956 3352:0.03423956 3355:0.03423956 3356:0.03423956 3361:0.03423956 3392:0.03423956 3405:0.03423956 3419:0.03423956 3426:0.03423956 3437:0.03423956 3454:0.03423956 3460:0.03423956 3466:0.03423956 3467:0.03423956 3471:0.03423956 3482:0.03423956 3486:0.03423956 3499:0.03423956 3502:0.03423956 3511:0.03423956 3518:0.03423956 3527:0.03423956 3530:0.03423956 3538:0.03423956 3552:0.03423956 3554:0.03423956 3555:0.03423956 3564:0.03423956 3567:0.03423956 3571:0.03423956 3572:0.03423956 3585:0.03423956 3588:0.03423956 3593:0.052634541 3603:0.03423956 3614:0.03423956 3615:0.03423956 3620:0.03423956 3622:0.03423956 3646:0.03423956 3650:0.03423956 3679:0.03423956 3681:0.03423956 3684:0.03423956 3694:0.03423956 3700:0.03423956 3706:0.03423956 3727:0.03423956 3733:0.03423956 3747:0.03423956 3750:0.03423956 3781:0.03423956 3792:0.03423956 3797:0.03423956 3806:0.03423956 3818:0.03423956 3838:0.03423956 3846:0.03423956 3849:0.03423956 3851:0.03423956 3852:0.03423956 3864:0.03423956 3865:0.03423956 3867:0.03423956 3870:0.03423956 3891:0.052634541 3897:0.03423956 3906:0.03423956 3914:0.03423956 3918:0.03423956 3919:0.03423956 3921:0.03423956 3925:0.03423956 3926:0.03423956 3933:0.03423956 3938:0.03423956 3941:0.03423956 3943:0.03423956 3952:0.03423956 3971:0.03423956 3983:0.03423956 3987:0.03423956 3989:0.03423956 4006:0.03423956 4022:0.03423956 4032:0.03423956 4053:0.03423956 4054:0.03423956 4055:0.03423956 4086:0.03423956 4088:0.052634541 4093:0.03423956 4106:0.03423956 4110:0.03423956 4121:0.03423956 4122:0.03423956 4152:0.03423956 4182:0.03423956 4185:0.03423956 4187:0.03423956 4190:0.03423956 4191:0.03423956 4194:0.03423956 4218:0.03423956 4223:0.03423956 4228:0.03423956 4230:0.03423956 4238:0.03423956 4243:0.03423956 4247:0.03423956 4268:0.03423956 4272:0.03423956 4296:0.03423956 4302:0.03423956 4307:0.03423956 4312:0.052634541 4314:0.03423956 4317:0.03423956 4339:0.03423956 4340:0.03423956 4352:0.03423956 4370:0.03423956 4386:0.03423956 4390:0.03423956 4393:0.03423956 4394:0.03423956 4396:0.03423956 4403:0.052634541 4437:0.03423956 4450:0.03423956 4451:0.03423956 4452:0.03423956 4454:0.03423956 4471:0.03423956 4473:0.03423956 4483:0.03423956 4489:0.03423956 4498:0.03423956 4501:0.03423956 4502:0.03423956 4519:0.03423956 4522:0.03423956 4528:0.03423956 4531:0.03423956 4537:0.03423956 4547:0.03423956 4551:0.03423956 4553:0.03423956 4556:0.03423956 4576:0.03423956 4577:0.03423956 4580:0.03423956 4582:0.03423956 4587:0.03423956 4594:0.03423956 4606:0.03423956 4619:0.03423956 4624:0.065049089 4626:0.03423956 4643:0.065049089 4644:0.03423956 4651:0.03423956 4653:0.03423956 4657:0.03423956 4659:0.03423956 4671:0.03423956 4678:0.03423956 4694:0.03423956 4696:0.03423956 4701:0.03423956 4705:0.03423956 4706:0.03423956 4707:0.03423956 4713:0.03423956 4716:0.03423956 4717:0.02631727 4718:0.03423956 4721:0.03423956 4755:0.03423956 4759:0.03423956 4762:0.03423956 4784:0.03423956 4789:0.03423956 4797:0.03423956 4804:0.03423956 4810:0.052634541 4814:0.03423956 4841:0.03423956 4843:0.03423956 4850:0.03423956 4859:0.03423956 4864:0.02631727 4869:0.03423956 4878:0.03423956 4884:0.03423956 4885:0.03423956 4920:0.03423956 4921:0.03423956 4926:0.03423956 4928:0.03423956 4929:0.03423956 4931:0.03423956 4935:0.03423956 4944:0.03423956 4951:0.03423956 4957:0.03423956 4959:0.03423956 4985:0.03423956 4991:0.03423956 4994:0.03423956 4995:0.03423956 4998:0.03423956 5000:0.03423956 5001:0.03423956 5005:0.03423956 5008:0.03423956 5016:0.03423956 5020:0.03423956 5031:0.03423956 5036:0.03423956 5054:0.03423956 5067:0.03423956 5070:0.03423956 5078:0.03423956 5089:0.03423956 5096:0.03423956 5100:0.03423956 5110:0.03423956 5113:0.03423956 5115:0.03423956 5122:0.03423956 5135:0.03423956 5138:0.03423956 5139:0.03423956 5160:0.052634541 5161:0.03423956 5173:0.03423956 5174:0.03423956 5175:0.036789965 5197:0.03423956 5206:0.03423956 5209:0.03423956 5212:0.03423956 5221:0.03423956 5245:0.03423956 5247:0.03423956 5257:0.052634541 5258:0.03423956 5263:0.03423956 5277:0.03423956 5295:0.03423956 5298:0.03423956 5300:0.03423956 5306:0.03423956 5328:0.03423956 5330:0.03423956 5334:0.03423956 5341:0.03423956 5373:0.03423956 5380:0.03423956 5391:0.03423956 5398:0.03423956 5405:0.03423956 5409:0.03423956 5417:0.03423956 5421:0.03423956 5423:0.03423956 5426:0.03423956 5434:0.03423956 5440:0.03423956 5452:0.03423956 5465:0.03423956 5468:0.03423956 5469:0.03423956 5471:0.03423956 5480:0.03423956 5482:0.03423956 5487:0.03423956 5488:0.03423956 5502:0.03423956 5518:0.03423956 5523:0.03423956 5545:0.03423956 5552:0.03423956 5561:0.03423956 5563:0.03423956 5564:0.03423956 5572:0.03423956 5573:0.03423956 5581:0.03423956 5584:0.03423956 5594:0.03423956 5596:0.03423956 5613:0.03423956 5622:0.03423956 5623:0.052634541 5629:0.03423956 5632:0.03423956 5633:0.03423956 5635:0.03423956 5639:0.03423956 5645:0.03423956 5660:0.03423956 5664:0.03423956 5675:0.03423956 5691:0.03423956 5702:0.03423956 5707:0.03423956 5709:0.03423956 5710:0.052634541 5716:0.02631727 5727:0.03423956 5759:0.03423956 5765:0.03423956 5770:0.03423956 5784:0.03423956 5788:0.03423956 5794:0.03423956 5806:0.03423956 5809:0.03423956 5812:0.03423956 5814:0.03423956 5816:0.03423956 5823:0.03423956 5825:0.03423956 5829:0.03423956 5837:0.03423956 5860:0.03423956 5865:0.03423956 5866:0.03423956 5878:0.03423956 5887:0.03423956 5890:0.03423956 5891:0.03423956 5893:0.03423956 5902:0.03423956 5903:0.03423956 5910:0.03423956 5911:0.03423956 5921:0.03423956 5930:0.03423956 5937:0.03423956 5956:0.03423956 5978:0.03423956 6000:0.03423956 6005:0.03423956 6020:0.03423956 6021:0.03423956 6029:0.03423956 6035:0.03423956 6042:0.03423956 6053:0.03423956 6063:0.03423956 6087:0.052634541 6088:0.03423956 6094:0.03423956 6096:0.03423956 6102:0.03423956 6121:0.03423956 6123:0.03423956 6138:0.03423956 6141:0.03423956 6142:0.03423956 6145:0.03423956 6152:0.03423956 6154:0.03423956 6159:0.03423956 6168:0.03423956 6172:0.03423956 6185:0.03423956 6212:0.03423956 6213:0.03423956 6217:0.03423956 6228:0.03423956 6237:0.03423956 6238:0.03423956 6250:0.03423956 6277:0.03423956 6292:0.03423956 6315:0.03423956 6321:0.02631727 6329:0.03423956 6330:0.03423956 6333:0.03423956 6338:0.03423956 6339:0.052634541 6343:0.03423956 6350:0.03423956 6356:0.03423956 6357:0.03423956 6364:0.03423956 6382:0.015844576 #
-0.90473296459148544457207208324689 149:0.10240349 339:0.13323002 348:0.13323002 630:0.10240349 661:0.10240349 688:0.10240349 762:0.13323002 1157:0.10240349 1184:0.13323002 1377:0.13323002 1451:0.10240349 1517:0.10240349 1547:0.10240349 1592:0.13323002 1619:0.13323002 1683:0.10240349 1843:0.10240349 1936:0.10240349 1939:0.13323002 2174:0.10240349 2181:0.13323002 2213:0.084371135 2322:0.10240349 2387:0.10240349 2403:0.10240349 2431:0.10240349 2552:0.10240349 2730:0.13323002 2923:0.14315394 2943:0.13323002 2960:0.13323002 2962:0.10240349 2968:0.13323002 2980:0.10240349 3194:0.10240349 3233:0.13323002 3403:0.13323002 3667:0.13323002 3738:0.10240349 3773:0.13323002 3834:0.13323002 3898:0.13323002 3929:0.13323002 3963:0.10240349 3984:0.071576968 4127:0.13323002 4208:0.13323002 4253:0.13323002 4267:0.10240349 4507:0.10240349 4621:0.13323002 4664:0.10240349 4695:0.13323002 4902:0.13323002 5022:0.13323002 5051:0.10240349 5091:0.10240349 5111:0.13323002 5133:0.14315394 5396:0.10240349 5491:0.13323002 5526:0.13323002 5618:0.13323002 5657:0.13323002 5748:0.13323002 5870:0.10240349 5944:0.13323002 6064:0.084371135 6106:0.10240349 6241:0.13323002 6382:0.061653048 #
-0.99999998174280368967714593964047 6:0.098829776 77:0.098829776 266:0.098829776 291:0.098829776 366:0.098829776 392:0.098829776 426:0.098829776 435:0.098829776 475:0.098829776 511:0.098829776 553:0.098829776 757:0.098829776 799:0.098829776 807:0.098829776 851:0.098829776 869:0.098829776 939:0.098829776 957:0.098829776 959:0.098829776 1092:0.098829776 1181:0.098829776 1231:0.098829776 1236:0.098829776 1293:0.098829776 1311:0.098829776 1362:0.053095661 1388:0.098829776 1412:0.098829776 1564:0.098829776 1607:0.098829776 1656:0.098829776 1697:0.098829776 1748:0.098829776 1765:0.098829776 1917:0.098829776 2176:0.098829776 2363:0.098829776 2386:0.098829776 2434:0.098829776 2480:0.098829776 2482:0.098829776 2485:0.075962715 2550:0.098829776 2557:0.098829776 2569:0.098829776 2657:0.098829776 2676:0.098829776 2681:0.098829776 2701:0.098829776 2842:0.098829776 2888:0.098829776 2893:0.098829776 2925:0.098829776 2939:0.098829776 2951:0.098829776 3047:0.098829776 3123:0.098829776 3182:0.098829776 3202:0.098829776 3367:0.098829776 3388:0.098829776 3436:0.098829776 3457:0.098829776 3699:0.098829776 3816:0.098829776 3828:0.098829776 4039:0.098829776 4077:0.098829776 4133:0.098829776 4138:0.098829776 4139:0.098829776 4164:0.098829776 4210:0.098829776 4229:0.098829776 4271:0.098829776 4328:0.098829776 4440:0.098829776 4455:0.098829776 4458:0.098829776 4466:0.098829776 4513:0.098829776 4672:0.098829776 5077:0.098829776 5175:0.053095661 5236:0.098829776 5305:0.098829776 5325:0.098829776 5357:0.098829776 5361:0.098829776 5399:0.098829776 5401:0.098829776 5579:0.098829776 5589:0.098829776 5641:0.098829776 5721:0.098829776 5771:0.098829776 5810:0.098829776 5894:0.098829776 6011:0.098829776 6044:0.098829776 6169:0.098829776 6170:0.098829776 6206:0.098829776 6349:0.098829776 6382:0.045734115 #
-0.90634568545384208704263073741458 4:0.049809333 26:0.049809333 64:0.049809333 80:0.049809333 100:0.049809333 149:0.038284536 166:0.049809333 183:0.049809333 210:0.049809333 237:0.049809333 257:0.049809333 282:0.049809333 309:0.049809333 324:0.049809333 365:0.049809333 385:0.049809333 458:0.049809333 473:0.049809333 477:0.049809333 479:0.049809333 491:0.049809333 507:0.049809333 524:0.049809333 541:0.049809333 544:0.049809333 559:0.049809333 569:0.049809333 576:0.049809333 587:0.049809333 589:0.049809333 617:0.049809333 630:0.038284536 640:0.049809333 652:0.049809333 661:0.038284536 688:0.038284536 690:0.049809333 716:0.049809333 728:0.049809333 803:0.049809333 822:0.049809333 848:0.049809333 858:0.049809333 865:0.049809333 889:0.049809333 921:0.049809333 923:0.049809333 937:0.049809333 954:0.049809333 967:0.049809333 970:0.049809333 972:0.049809333 997:0.049809333 1007:0.049809333 1010:0.049809333 1055:0.049809333 1070:0.049809333 1147:0.049809333 1157:0.038284536 1162:0.049809333 1195:0.049809333 1203:0.049809333 1224:0.049809333 1256:0.049809333 1287:0.049809333 1288:0.049809333 1296:0.049809333 1297:0.049809333 1299:0.049809333 1314:0.049809333 1418:0.049809333 1430:0.049809333 1441:0.049809333 1451:0.038284536 1460:0.049809333 1462:0.049809333 1476:0.049809333 1494:0.049809333 1516:0.049809333 1517:0.038284536 1536:0.049809333 1547:0.038284536 1577:0.049809333 1580:0.049809333 1624:0.076569073 1651:0.049809333 1667:0.049809333 1670:0.049809333 1683:0.038284536 1701:0.049809333 1718:0.049809333 1727:0.049809333 1749:0.049809333 1753:0.049809333 1779:0.049809333 1790:0.049809333 1807:0.049809333 1810:0.049809333 1819:0.049809333 1843:0.038284536 1864:0.049809333 1881:0.049809333 1904:0.049809333 1907:0.049809333 1908:0.049809333 1933:0.049809333 1936:0.038284536 1948:0.049809333 1952:0.049809333 1967:0.049809333 1996:0.049809333 2051:0.049809333 2058:0.049809333 2062:0.049809333 2063:0.049809333 2078:0.049809333 2079:0.049809333 2093:0.049809333 2098:0.049809333 2125:0.049809333 2139:0.049809333 2153:0.049809333 2174:0.038284536 2213:0.063085929 2244:0.049809333 2266:0.049809333 2315:0.049809333 2322:0.038284536 2345:0.049809333 2387:0.038284536 2388:0.049809333 2403:0.038284536 2404:0.049809333 2406:0.049809333 2431:0.038284536 2439:0.049809333 2441:0.049809333 2443:0.049809333 2450:0.049809333 2456:0.049809333 2459:0.049809333 2487:0.049809333 2507:0.049809333 2525:0.049809333 2541:0.049809333 2552:0.038284536 2574:0.049809333 2595:0.049809333 2601:0.049809333 2644:0.049809333 2672:0.049809333 2700:0.049809333 2721:0.049809333 2741:0.049809333 2762:0.049809333 2775:0.049809333 2784:0.049809333 2791:0.049809333 2794:0.049809333 2805:0.049809333 2811:0.049809333 2826:0.049809333 2831:0.049809333 2857:0.049809333 2883:0.049809333 2891:0.049809333 2894:0.049809333 2923:0.053519487 2946:0.049809333 2962:0.038284536 2969:0.049809333 2976:0.049809333 2980:0.038284536 2990:0.049809333 3008:0.049809333 3020:0.049809333 3033:0.049809333 3063:0.049809333 3090:0.049809333 3099:0.049809333 3106:0.049809333 3133:0.049809333 3136:0.049809333 3138:0.049809333 3187:0.049809333 3189:0.049809333 3194:0.038284536 3197:0.049809333 3201:0.049809333 3237:0.049809333 3251:0.049809333 3253:0.049809333 3272:0.049809333 3276:0.049809333 3304:0.076569073 3309:0.049809333 3315:0.049809333 3343:0.049809333 3363:0.049809333 3379:0.049809333 3407:0.049809333 3432:0.049809333 3458:0.049809333 3463:0.049809333 3493:0.049809333 3519:0.049809333 3543:0.049809333 3544:0.049809333 3547:0.049809333 3566:0.049809333 3569:0.049809333 3618:0.049809333 3623:0.049809333 3624:0.049809333 3627:0.049809333 3628:0.049809333 3634:0.049809333 3635:0.049809333 3644:0.049809333 3657:0.049809333 3738:0.038284536 3740:0.049809333 3755:0.049809333 3763:0.049809333 3764:0.049809333 3770:0.049809333 3801:0.049809333 3820:0.049809333 3822:0.076569073 3840:0.049809333 3854:0.049809333 3900:0.049809333 3911:0.049809333 3920:0.049809333 3959:0.049809333 3963:0.038284536 3965:0.049809333 3984:0.080279231 3995:0.049809333 4008:0.049809333 4009:0.049809333 4041:0.049809333 4064:0.049809333 4098:0.049809333 4100:0.049809333 4109:0.049809333 4113:0.049809333 4146:0.049809333 4147:0.094628893 4153:0.049809333 4175:0.049809333 4207:0.049809333 4217:0.049809333 4220:0.049809333 4250:0.049809333 4254:0.049809333 4267:0.038284536 4278:0.049809333 4303:0.049809333 4306:0.049809333 4333:0.049809333 4356:0.049809333 4359:0.049809333 4369:0.049809333 4419:0.049809333 4420:0.049809333 4434:0.049809333 4460:0.049809333 4464:0.049809333 4477:0.049809333 4490:0.049809333 4506:0.049809333 4507:0.038284536 4508:0.049809333 4514:0.049809333 4515:0.049809333 4543:0.076569073 4546:0.049809333 4581:0.049809333 4591:0.049809333 4603:0.049809333 4613:0.049809333 4623:0.049809333 4645:0.049809333 4646:0.049809333 4655:0.049809333 4664:0.038284536 4666:0.049809333 4698:0.049809333 4712:0.049809333 4717:0.038284536 4732:0.049809333 4787:0.049809333 4796:0.049809333 4822:0.049809333 4856:0.049809333 4868:0.049809333 4890:0.049809333 4909:0.049809333 4915:0.049809333 4963:0.049809333 4969:0.049809333 5021:0.049809333 5034:0.049809333 5038:0.049809333 5041:0.049809333 5051:0.038284536 5075:0.049809333 5081:0.049809333 5084:0.076569073 5087:0.049809333 5091:0.038284536 5093:0.049809333 5133:0.053519487 5152:0.049809333 5156:0.049809333 5158:0.049809333 5168:0.049809333 5183:0.049809333 5189:0.049809333 5195:0.049809333 5223:0.049809333 5237:0.049809333 5255:0.049809333 5269:0.049809333 5280:0.049809333 5281:0.049809333 5310:0.049809333 5319:0.049809333 5320:0.049809333 5329:0.049809333 5332:0.049809333 5347:0.049809333 5354:0.049809333 5389:0.049809333 5396:0.038284536 5429:0.049809333 5433:0.049809333 5458:0.049809333 5490:0.049809333 5514:0.049809333 5521:0.049809333 5529:0.049809333 5539:0.049809333 5556:0.049809333 5559:0.049809333 5578:0.049809333 5603:0.049809333 5605:0.049809333 5626:0.049809333 5630:0.049809333 5674:0.049809333 5677:0.049809333 5704:0.049809333 5749:0.049809333 5769:0.049809333 5777:0.049809333 5795:0.049809333 5807:0.049809333 5824:0.049809333 5840:0.049809333 5849:0.049809333 5858:0.049809333 5861:0.049809333 5869:0.049809333 5870:0.038284536 5876:0.049809333 5881:0.049809333 5885:0.049809333 5899:0.049809333 5916:0.049809333 5925:0.049809333 5936:0.049809333 5940:0.049809333 5942:0.049809333 5964:0.049809333 5968:0.049809333 5987:0.049809333 6001:0.049809333 6031:0.049809333 6038:0.049809333 6057:0.049809333 6064:0.063085929 6072:0.049809333 6079:0.049809333 6080:0.049809333 6106:0.038284536 6116:0.049809333 6133:0.049809333 6144:0.049809333 6210:0.049809333 6226:0.049809333 6230:0.049809333 6247:0.049809333 6267:0.049809333 6269:0.049809333 6282:0.049809333 6302:0.049809333 6309:0.049809333 6311:0.049809333 6336:0.049809333 6337:0.049809333 6365:0.049809333 6382:0.023049589 #
0.95387529296180872950827733802726 32:0.042000901 38:0.042000901 39:0.042000901 60:0.042000901 68:0.042000901 73:0.042000901 89:0.042000901 98:0.042000901 101:0.042000901 107:0.042000901 118:0.042000901 145:0.042000901 151:0.064565614 172:0.042000901 180:0.042000901 190:0.042000901 204:0.042000901 212:0.042000901 214:0.042000901 230:0.042000901 252:0.042000901 253:0.042000901 274:0.042000901 294:0.042000901 317:0.042000901 329:0.042000901 337:0.042000901 340:0.042000901 352:0.042000901 357:0.042000901 359:0.042000901 360:0.042000901 412:0.042000901 415:0.042000901 420:0.042000901 469:0.042000901 476:0.042000901 520:0.042000901 549:0.042000901 565:0.042000901 572:0.042000901 573:0.064565614 582:0.042000901 585:0.042000901 588:0.042000901 611:0.042000901 613:0.042000901 626:0.042000901 629:0.042000901 634:0.042000901 650:0.042000901 662:0.042000901 686:0.042000901 699:0.042000901 703:0.042000901 705:0.042000901 739:0.042000901 741:0.042000901 761:0.042000901 765:0.042000901 767:0.042000901 785:0.042000901 813:0.042000901 817:0.042000901 818:0.042000901 821:0.042000901 823:0.042000901 846:0.042000901 881:0.042000901 894:0.042000901 915:0.042000901 930:0.042000901 933:0.042000901 938:0.042000901 943:0.042000901 946:0.042000901 960:0.042000901 965:0.042000901 983:0.042000901 990:0.042000901 999:0.042000901 1002:0.042000901 1004:0.042000901 1025:0.042000901 1044:0.042000901 1063:0.042000901 1071:0.042000901 1074:0.042000901 1077:0.042000901 1081:0.042000901 1102:0.042000901 1109:0.042000901 1112:0.042000901 1114:0.042000901 1126:0.042000901 1152:0.042000901 1165:0.042000901 1170:0.042000901 1171:0.042000901 1172:0.042000901 1174:0.042000901 1178:0.042000901 1183:0.042000901 1190:0.042000901 1192:0.042000901 1219:0.042000901 1223:0.042000901 1253:0.042000901 1264:0.042000901 1280:0.042000901 1283:0.042000901 1285:0.042000901 1312:0.064565614 1334:0.042000901 1341:0.042000901 1348:0.042000901 1361:0.042000901 1374:0.042000901 1381:0.042000901 1386:0.042000901 1417:0.042000901 1422:0.042000901 1423:0.042000901 1433:0.042000901 1440:0.042000901 1452:0.042000901 1455:0.042000901 1466:0.042000901 1470:0.042000901 1490:0.042000901 1492:0.042000901 1498:0.042000901 1500:0.042000901 1522:0.042000901 1525:0.042000901 1557:0.042000901 1574:0.042000901 1579:0.042000901 1597:0.042000901 1603:0.042000901 1622:0.042000901 1625:0.042000901 1630:0.042000901 1632:0.042000901 1635:0.042000901 1642:0.042000901 1643:0.042000901 1663:0.042000901 1664:0.042000901 1666:0.042000901 1669:0.042000901 1675:0.042000901 1680:0.042000901 1684:0.042000901 1698:0.042000901 1709:0.042000901 1725:0.042000901 1729:0.042000901 1743:0.042000901 1744:0.042000901 1751:0.042000901 1758:0.042000901 1768:0.042000901 1771:0.042000901 1776:0.042000901 1781:0.042000901 1801:0.042000901 1820:0.042000901 1862:0.042000901 1880:0.042000901 1885:0.042000901 1887:0.042000901 1898:0.042000901 1916:0.042000901 1924:0.042000901 1935:0.042000901 1945:0.042000901 1963:0.042000901 1975:0.042000901 1985:0.042000901 1993:0.042000901 2001:0.042000901 2002:0.042000901 2008:0.042000901 2009:0.042000901 2019:0.042000901 2026:0.042000901 2047:0.042000901 2064:0.042000901 2070:0.042000901 2091:0.042000901 2101:0.042000901 2124:0.042000901 2130:0.042000901 2143:0.042000901 2152:0.042000901 2155:0.042000901 2158:0.042000901 2195:0.042000901 2196:0.042000901 2200:0.042000901 2204:0.042000901 2207:0.042000901 2226:0.042000901 2228:0.042000901 2233:0.042000901 2250:0.042000901 2263:0.042000901 2282:0.042000901 2283:0.042000901 2298:0.042000901 2359:0.042000901 2384:0.042000901 2400:0.042000901 2407:0.042000901 2415:0.042000901 2423:0.042000901 2429:0.042000901 2457:0.042000901 2475:0.042000901 2476:0.042000901 2481:0.042000901 2484:0.042000901 2500:0.042000901 2512:0.042000901 2514:0.042000901 2516:0.042000901 2542:0.042000901 2544:0.042000901 2562:0.042000901 2564:0.042000901 2570:0.042000901 2585:0.042000901 2609:0.042000901 2616:0.042000901 2626:0.042000901 2656:0.042000901 2690:0.042000901 2710:0.042000901 2713:0.042000901 2727:0.042000901 2739:0.042000901 2740:0.042000901 2744:0.042000901 2786:0.042000901 2795:0.042000901 2802:0.042000901 2808:0.042000901 2835:0.042000901 2836:0.042000901 2837:0.042000901 2841:0.042000901 2845:0.042000901 2855:0.042000901 2860:0.042000901 2862:0.042000901 2868:0.042000901 2869:0.064565614 2870:0.042000901 2871:0.042000901 2889:0.042000901 2902:0.042000901 2919:0.042000901 2934:0.042000901 2949:0.042000901 2973:0.042000901 2979:0.042000901 3005:0.042000901 3011:0.042000901 3014:0.042000901 3016:0.042000901 3021:0.042000901 3024:0.042000901 3037:0.042000901 3038:0.042000901 3039:0.042000901 3064:0.042000901 3071:0.042000901 3077:0.042000901 3104:0.042000901 3117:0.042000901 3127:0.042000901 3141:0.042000901 3149:0.042000901 3166:0.042000901 3176:0.042000901 3185:0.042000901 3195:0.042000901 3229:0.042000901 3247:0.042000901 3250:0.042000901 3255:0.042000901 3274:0.042000901 3277:0.042000901 3281:0.042000901 3283:0.042000901 3287:0.042000901 3295:0.042000901 3296:0.042000901 3319:0.042000901 3333:0.042000901 3341:0.042000901 3350:0.042000901 3360:0.042000901 3362:0.042000901 3374:0.042000901 3422:0.042000901 3431:0.042000901 3443:0.042000901 3453:0.042000901 3455:0.042000901 3490:0.042000901 3491:0.042000901 3497:0.042000901 3514:0.042000901 3517:0.042000901 3525:0.042000901 3584:0.042000901 3598:0.042000901 3602:0.042000901 3611:0.042000901 3612:0.042000901 3616:0.042000901 3653:0.042000901 3663:0.042000901 3677:0.042000901 3713:0.042000901 3716:0.042000901 3723:0.042000901 3732:0.042000901 3737:0.042000901 3739:0.042000901 3746:0.042000901 3775:0.042000901 3793:0.042000901 3795:0.042000901 3835:0.042000901 3856:0.042000901 3860:0.042000901 3872:0.042000901 3902:0.042000901 3909:0.042000901 3922:0.042000901 3923:0.042000901 3956:0.042000901 3960:0.042000901 3998:0.042000901 4007:0.042000901 4012:0.042000901 4016:0.042000901 4038:0.042000901 4040:0.042000901 4052:0.042000901 4068:0.042000901 4079:0.042000901 4082:0.042000901 4089:0.042000901 4090:0.042000901 4101:0.042000901 4103:0.042000901 4142:0.042000901 4170:0.042000901 4174:0.042000901 4213:0.042000901 4216:0.042000901 4224:0.042000901 4226:0.042000901 4231:0.042000901 4235:0.042000901 4246:0.042000901 4251:0.042000901 4255:0.042000901 4258:0.042000901 4273:0.042000901 4274:0.042000901 4293:0.042000901 4304:0.042000901 4315:0.042000901 4346:0.042000901 4347:0.042000901 4365:0.042000901 4371:0.042000901 4374:0.042000901 4375:0.042000901 4377:0.042000901 4381:0.042000901 4388:0.042000901 4391:0.042000901 4397:0.042000901 4412:0.042000901 4416:0.042000901 4429:0.042000901 4430:0.042000901 4435:0.042000901 4459:0.042000901 4462:0.042000901 4463:0.042000901 4495:0.042000901 4565:0.042000901 4575:0.042000901 4588:0.042000901 4590:0.042000901 4597:0.042000901 4615:0.042000901 4629:0.042000901 4633:0.042000901 4661:0.042000901 4663:0.042000901 4677:0.042000901 4685:0.042000901 4688:0.042000901 4689:0.042000901 4699:0.042000901 4725:0.042000901 4733:0.042000901 4754:0.042000901 4760:0.042000901 4770:0.042000901 4785:0.042000901 4836:0.042000901 4847:0.042000901 4849:0.042000901 4857:0.042000901 4871:0.042000901 4883:0.042000901 4897:0.042000901 4910:0.042000901 4932:0.042000901 4973:0.042000901 4974:0.042000901 4986:0.042000901 5004:0.042000901 5006:0.042000901 5013:0.042000901 5019:0.042000901 5045:0.042000901 5059:0.042000901 5063:0.042000901 5071:0.042000901 5076:0.042000901 5079:0.042000901 5092:0.042000901 5127:0.042000901 5128:0.042000901 5131:0.042000901 5142:0.042000901 5165:0.042000901 5169:0.042000901 5181:0.042000901 5192:0.042000901 5193:0.042000901 5194:0.042000901 5202:0.042000901 5203:0.042000901 5244:0.042000901 5252:0.042000901 5267:0.042000901 5282:0.042000901 5302:0.042000901 5308:0.042000901 5309:0.042000901 5336:0.042000901 5355:0.042000901 5365:0.042000901 5386:0.042000901 5387:0.042000901 5394:0.042000901 5400:0.042000901 5408:0.042000901 5419:0.042000901 5430:0.042000901 5438:0.042000901 5453:0.042000901 5474:0.042000901 5509:0.042000901 5513:0.042000901 5533:0.042000901 5551:0.042000901 5565:0.042000901 5575:0.042000901 5576:0.042000901 5595:0.042000901 5599:0.042000901 5611:0.042000901 5616:0.042000901 5617:0.042000901 5619:0.042000901 5636:0.042000901 5649:0.042000901 5661:0.042000901 5665:0.042000901 5670:0.042000901 5682:0.042000901 5683:0.042000901 5690:0.042000901 5726:0.042000901 5730:0.042000901 5737:0.042000901 5740:0.042000901 5741:0.042000901 5742:0.042000901 5743:0.042000901 5750:0.042000901 5751:0.042000901 5754:0.042000901 5755:0.042000901 5763:0.042000901 5764:0.042000901 5772:0.042000901 5778:0.042000901 5789:0.042000901 5818:0.042000901 5833:0.042000901 5836:0.042000901 5842:0.042000901 5859:0.042000901 5884:0.042000901 5901:0.042000901 5908:0.042000901 5917:0.042000901 5926:0.042000901 5927:0.042000901 5934:0.042000901 5947:0.042000901 5953:0.042000901 5954:0.042000901 5957:0.042000901 5980:0.064565614 5983:0.042000901 6016:0.042000901 6017:0.042000901 6022:0.042000901 6034:0.042000901 6039:0.042000901 6047:0.042000901 6055:0.042000901 6066:0.042000901 6071:0.042000901 6074:0.042000901 6091:0.042000901 6104:0.042000901 6115:0.042000901 6119:0.042000901 6136:0.042000901 6146:0.042000901 6151:0.042000901 6162:0.042000901 6173:0.042000901 6187:0.042000901 6190:0.042000901 6231:0.042000901 6248:0.042000901 6261:0.042000901 6284:0.042000901 6288:0.042000901 6316:0.042000901 6361:0.042000901 6368:0.042000901 6374:0.042000901 6375:0.042000901 6384:0.0097180931 #
0.95176453609550026868646455113776 224:0.22909321 706:0.22909321 1450:0.22909321 1658:0.22909321 1874:0.22909321 2075:0.22909321 2776:0.22909321 2814:0.22909321 3146:0.22909321 3690:0.22909321 4005:0.22909321 4350:0.22909321 4389:0.22909321 4413:0.22909321 4428:0.22909321 4854:0.22909321 5191:0.22909321 5472:0.22909321 5483:0.22909321 6384:0.053007178 #
0.95307357930518143973586120409891 81:0.085081615 95:0.085081615 110:0.085081615 285:0.085081615 330:0.085081615 350:0.085081615 356:0.085081615 399:0.085081615 449:0.085081615 548:0.085081615 673:0.085081615 675:0.085081615 755:0.085081615 778:0.085081615 808:0.085081615 815:0.085081615 845:0.085081615 874:0.085081615 900:0.085081615 903:0.085081615 948:0.085081615 1053:0.085081615 1087:0.085081615 1108:0.085081615 1151:0.085081615 1199:0.085081615 1204:0.085081615 1329:0.085081615 1331:0.085081615 1356:0.085081615 1368:0.085081615 1384:0.085081615 1406:0.085081615 1427:0.085081615 1512:0.085081615 1551:0.085081615 1661:0.085081615 1662:0.085081615 1681:0.085081615 1700:0.085081615 1710:0.085081615 1926:0.085081615 1997:0.085081615 2039:0.085081615 2044:0.085081615 2052:0.085081615 2142:0.085081615 2199:0.085081615 2352:0.085081615 2392:0.085081615 2395:0.085081615 2465:0.085081615 2467:0.085081615 2517:0.085081615 2565:0.085081615 2586:0.085081615 2683:0.085081615 2724:0.085081615 2743:0.085081615 2859:0.085081615 2921:0.085081615 2977:0.085081615 2996:0.085081615 3083:0.13079117 3103:0.085081615 3259:0.13079117 3312:0.085081615 3406:0.085081615 3416:0.085081615 3441:0.085081615 3473:0.085081615 3504:0.085081615 3639:0.085081615 3691:0.085081615 3780:0.085081615 3790:0.085081615 3794:0.085081615 3863:0.085081615 3890:0.085081615 3908:0.085081615 3970:0.085081615 3990:0.085081615 4105:0.085081615 4155:0.085081615 4165:0.085081615 4184:0.085081615 4186:0.085081615 4264:0.085081615 4288:0.085081615 4319:0.085081615 4426:0.085081615 4548:0.085081615 4550:0.085081615 4583:0.085081615 4593:0.085081615 4648:0.085081615 4715:0.13079117 4816:0.085081615 4831:0.085081615 4837:0.085081615 5095:0.085081615 5148:0.085081615 5207:0.085081615 5229:0.085081615 5262:0.085081615 5352:0.085081615 5358:0.085081615 5362:0.085081615 5470:0.085081615 5516:0.085081615 5542:0.085081615 5546:0.085081615 5548:0.085081615 5550:0.085081615 5560:0.085081615 5654:0.085081615 5732:0.085081615 5733:0.085081615 5744:0.085081615 5761:0.085081615 5785:0.085081615 5808:0.085081615 5822:0.085081615 5900:0.085081615 5951:0.085081615 5985:0.085081615 6002:0.085081615 6037:0.085081615 6045:0.085081615 6126:0.085081615 6216:0.085081615 6307:0.085081615 6331:0.085081615 6345:0.085081615 6384:0.019686032 #
0.95236931900245191950915568668279 124:0.13601536 506:0.13601536 580:0.13601536 615:0.13601536 764:0.13601536 993:0.13601536 1005:0.13601536 1250:0.13601536 1268:0.13601536 1335:0.13601536 1478:0.13601536 1538:0.13601536 1654:0.13601536 1693:0.13601536 1699:0.13601536 1850:0.13601536 1914:0.13601536 1980:0.13601536 2069:0.13601536 2193:0.13601536 2271:0.13601536 2300:0.13601536 3132:0.13601536 3167:0.13601536 3223:0.13601536 3506:0.13601536 3734:0.13601536 3819:0.13601536 4067:0.13601536 4144:0.13601536 4201:0.13601536 4252:0.13601536 4362:0.13601536 4436:0.13601536 4527:0.13601536 4665:0.13601536 4865:0.13601536 5052:0.13601536 5140:0.13601536 5404:0.13601536 5454:0.13601536 5684:0.13601536 5745:0.13601536 5933:0.13601536 6003:0.13601536 6010:0.13601536 6097:0.13601536 6125:0.13601536 6161:0.13601536 6184:0.13601536 6215:0.13601536 6221:0.13601536 6232:0.13601536 6314:0.13601536 6384:0.031470992 #
