SVM-light Version V6.02
0 # kernel type
3 # kernel parameter -d 
1 # kernel parameter -g 
1 # kernel parameter -s 
1 # kernel parameter -r 
empty# kernel parameter -u 
2525 # highest feature index 
8 # number of training documents 
9 # number of support vectors plus 1 
0.85226616 # threshold b, each following line is a SV (starting with alpha*y)
-0.14354962696422313150890204269672 7:0.034750417 9:0.034750417 11:0.034750417 15:0.034750417 16:0.034750417 19:0.034750417 21:0.034750417 25:0.053419854 30:0.034750417 33:0.034750417 34:0.034750417 35:0.066019624 37:0.034750417 38:0.034750417 40:0.034750417 44:0.066019624 46:0.034750417 52:0.034750417 70:0.034750417 72:0.034750417 73:0.034750417 77:0.034750417 79:0.034750417 81:0.034750417 82:0.034750417 83:0.034750417 85:0.066019624 93:0.034750417 95:0.026709927 96:0.034750417 100:0.034750417 106:0.026709927 111:0.053419854 112:0.034750417 113:0.034750417 117:0.034750417 121:0.026709927 122:0.01217791 123:0.034750417 130:0.034750417 139:0.034750417 140:0.034750417 146:0.034750417 148:0.080404893 156:0.034750417 158:0.034750417 161:0.034750417 162:0.034750417 164:0.034750417 167:0.034750417 169:0.034750417 170:0.026709927 171:0.034750417 172:0.034750417 173:0.053419854 174:0.034750417 175:0.034750417 179:0.034750417 181:0.034750417 182:0.034750417 184:0.034750417 185:0.034750417 187:0.034750417 188:0.053419854 189:0.034750417 190:0.034750417 191:0.034750417 194:0.034750417 195:0.034750417 201:0.034750417 202:0.034750417 204:0.034750417 206:0.034750417 207:0.034750417 208:0.053419854 217:0.026709927 222:0.053419854 224:0.026709927 226:0.034750417 228:0.034750417 235:0.034750417 241:0.034750417 242:0.034750417 244:0.034750417 248:0.034750417 250:0.034750417 264:0.034750417 266:0.034750417 269:0.034750417 273:0.034750417 275:0.053419854 279:0.034750417 281:0.034750417 282:0.034750417 285:0.034750417 293:0.034750417 294:0.034750417 297:0.034750417 300:0.034750417 301:0.034750417 304:0.034750417 310:0.034750417 311:0.034750417 313:0.034750417 314:0.034750417 315:0.034750417 318:0.034750417 322:0.034750417 323:0.034750417 324:0.034750417 327:0.034750417 333:0.034750417 336:0.034750417 344:0.026709927 352:0.034750417 360:0.053419854 361:0.034750417 365:0.026709927 366:0.034750417 368:0.044013087 371:0.066019624 372:0.053419854 376:0.034750417 378:0.034750417 379:0.034750417 382:0.069830269 389:0.034750417 402:0.034750417 406:0.034750417 408:0.034750417 409:0.034750417 413:0.034750417 417:0.044013087 419:0.034750417 420:0.034750417 424:0.034750417 426:0.034750417 429:0.034750417 431:0.053419854 432:0.034750417 435:0.034750417 442:0.034750417 443:0.034750417 444:0.034750417 447:0.034750417 448:0.034750417 450:0.034750417 451:0.034750417 455:0.034750417 458:0.034750417 465:0.034750417 466:0.034750417 469:0.053419854 470:0.034750417 477:0.034750417 479:0.034750417 490:0.034750417 496:0.034750417 500:0.034750417 501:0.034750417 504:0.034750417 508:0.034750417 513:0.034750417 515:0.044013087 519:0.034750417 539:0.034750417 545:0.037338875 549:0.034750417 551:0.034750417 552:0.034750417 553:0.034750417 556:0.034750417 562:0.064323917 564:0.053419854 570:0.034750417 573:0.034750417 575:0.056008313 583:0.056008313 587:0.034750417 590:0.034750417 591:0.034750417 592:0.034750417 601:0.085031591 603:0.034750417 606:0.053419854 613:0.034750417 614:0.034750417 616:0.034750417 617:0.034750417 620:0.034750417 623:0.034750417 632:0.034750417 634:0.034750417 645:0.034750417 650:0.034750417 656:0.034750417 657:0.034750417 661:0.034750417 663:0.034750417 664:0.026709927 665:0.034750417 672:0.066019624 673:0.053419854 674:0.034750417 677:0.034750417 678:0.034750417 679:0.034750417 680:0.034750417 681:0.034750417 683:0.034750417 698:0.034750417 700:0.034750417 702:0.034750417 714:0.034750417 718:0.034750417 720:0.034750417 722:0.034750417 729:0.034750417 731:0.034750417 732:0.034750417 742:0.034750417 744:0.034750417 748:0.026709927 750:0.026709927 754:0.034750417 755:0.034750417 757:0.034750417 758:0.034750417 760:0.034750417 763:0.034750417 765:0.034750417 768:0.034750417 778:0.026709927 783:0.034750417 785:0.034750417 786:0.022006543 793:0.034750417 795:0.026709927 796:0.034750417 801:0.034750417 810:0.034750417 815:0.053419854 817:0.034750417 818:0.034750417 819:0.034750417 825:0.034750417 826:0.034750417 836:0.034750417 840:0.034750417 847:0.034750417 852:0.034750417 858:0.034750417 861:0.034750417 862:0.034750417 863:0.034750417 869:0.034750417 871:0.026709927 872:0.034750417 883:0.034750417 885:0.034750417 888:0.034750417 889:0.034750417 893:0.034750417 896:0.034750417 897:0.034750417 898:0.034750417 907:0.034750417 917:0.053419854 923:0.034750417 929:0.034750417 930:0.034750417 935:0.026709927 937:0.034750417 939:0.053419854 940:0.034750417 941:0.034750417 942:0.0092626689 943:0.034750417 944:0.034750417 949:0.034750417 951:0.034750417 953:0.034750417 955:0.034750417 956:0.034750417 962:0.034750417 964:0.034750417 978:0.018669438 981:0.034750417 986:0.034750417 992:0.034750417 995:0.034750417 996:0.034750417 997:0.034750417 998:0.053419854 1000:0.034750417 1011:0.034750417 1020:0.034750417 1021:0.034750417 1026:0.034750417 1027:0.034750417 1029:0.07467775 1034:0.034750417 1038:0.034750417 1042:0.053419854 1050:0.034750417 1060:0.022006543 1063:0.034750417 1065:0.053419854 1072:0.034750417 1084:0.034750417 1087:0.034750417 1090:0.034750417 1092:0.034750417 1093:0.034750417 1095:0.034750417 1096:0.034750417 1101:0.034750417 1104:0.034750417 1115:0.034750417 1117:0.034750417 1123:0.034750417 1124:0.034750417 1125:0.034750417 1130:0.034750417 1135:0.034750417 1144:0.034750417 1152:0.034750417 1154:0.034750417 1155:0.034750417 1156:0.044013087 1157:0.034750417 1160:0.034750417 1166:0.034750417 1174:0.034750417 1178:0.034750417 1182:0.034750417 1184:0.034750417 1193:0.034750417 1195:0.034750417 1200:0.034750417 1203:0.034750417 1205:0.034750417 1209:0.034750417 1217:0.053419854 1220:0.034750417 1223:0.034750417 1226:0.034750417 1228:0.034750417 1233:0.034750417 1235:0.034750417 1242:0.034750417 1244:0.034750417 1248:0.034750417 1253:0.034750417 1255:0.034750417 1261:0.026709927 1266:0.034750417 1287:0.034750417 1293:0.034750417 1295:0.041898161 1298:0.034750417 1299:0.053419854 1301:0.034750417 1302:0.034750417 1308:0.034750417 1309:0.034750417 1314:0.034750417 1318:0.034750417 1320:0.034750417 1327:0.034750417 1329:0.034750417 1332:0.034750417 1333:0.034750417 1340:0.034750417 1341:0.034750417 1343:0.034750417 1344:0.034750417 1345:0.034750417 1349:0.034750417 1363:0.034750417 1367:0.034750417 1370:0.034750417 1373:0.034750417 1374:0.034750417 1378:0.053419854 1379:0.034750417 1382:0.034750417 1384:0.034750417 1388:0.034750417 1389:0.034750417 1390:0.034750417 1391:0.034750417 1393:0.053419854 1394:0.053419854 1395:0.034750417 1407:0.034750417 1408:0.034750417 1409:0.053419854 1410:0.034750417 1413:0.034750417 1415:0.026709927 1417:0.066019624 1418:0.026709927 1420:0.034750417 1421:0.034750417 1425:0.053419854 1430:0.034750417 1434:0.026709927 1451:0.034750417 1463:0.034750417 1464:0.034750417 1467:0.034750417 1469:0.034750417 1470:0.034750417 1475:0.053419854 1480:0.034750417 1482:0.034750417 1484:0.034750417 1487:0.034750417 1488:0.034750417 1492:0.034750417 1496:0.034750417 1498:0.034750417 1501:0.034750417 1503:0.034750417 1505:0.034750417 1507:0.034750417 1508:0.034750417 1512:0.034750417 1516:0.034750417 1518:0.026709927 1519:0.034750417 1524:0.034750417 1530:0.034750417 1532:0.034750417 1533:0.034750417 1534:0.053419854 1535:0.053419854 1540:0.034750417 1547:0.034750417 1549:0.034750417 1553:0.034750417 1556:0.034750417 1558:0.034750417 1561:0.034750417 1566:0.034750417 1573:0.022006543 1577:0.037338875 1580:0.034750417 1581:0.034750417 1582:0.034750417 1586:0.034750417 1593:0.034750417 1602:0.034750417 1606:0.034750417 1607:0.018669438 1608:0.034750417 1610:0.034750417 1613:0.034750417 1616:0.034750417 1618:0.053419854 1619:0.034750417 1623:0.026709927 1624:0.034750417 1628:0.034750417 1629:0.034750417 1631:0.034750417 1632:0.034750417 1636:0.034750417 1645:0.034750417 1648:0.034750417 1649:0.034750417 1652:0.034750417 1654:0.034750417 1663:0.034750417 1664:0.034750417 1666:0.022006543 1671:0.034750417 1673:0.034750417 1676:0.034750417 1677:0.034750417 1680:0.034750417 1683:0.034750417 1686:0.034750417 1688:0.034750417 1691:0.034750417 1693:0.034750417 1699:0.034750417 1701:0.022006543 1702:0.034750417 1708:0.034750417 1711:0.034750417 1713:0.053419854 1717:0.034750417 1718:0.053419854 1721:0.034750417 1722:0.034750417 1725:0.053419854 1730:0.034750417 1731:0.034750417 1732:0.034750417 1734:0.034750417 1736:0.034750417 1737:0.034750417 1749:0.034750417 1750:0.026709927 1754:0.034750417 1755:0.034750417 1759:0.034750417 1760:0.034750417 1762:0.034750417 1763:0.053419854 1764:0.034750417 1768:0.034750417 1769:0.034750417 1772:0.034750417 1777:0.022006543 1778:0.034750417 1782:0.066019624 1786:0.034750417 1789:0.034750417 1791:0.034750417 1794:0.034750417 1795:0.022006543 1798:0.034750417 1804:0.034750417 1805:0.026709927 1809:0.034750417 1814:0.053419854 1818:0.034750417 1819:0.034750417 1823:0.034750417 1828:0.034750417 1831:0.034750417 1835:0.053419854 1838:0.034750417 1839:0.034750417 1841:0.034750417 1842:0.034750417 1847:0.034750417 1851:0.034750417 1853:0.034750417 1858:0.034750417 1861:0.034750417 1865:0.034750417 1867:0.034750417 1869:0.034750417 1875:0.034750417 1877:0.034750417 1882:0.034750417 1884:0.034750417 1887:0.034750417 1892:0.034750417 1899:0.034750417 1900:0.034750417 1901:0.034750417 1908:0.034750417 1911:0.034750417 1912:0.034750417 1915:0.034750417 1916:0.034750417 1918:0.034750417 1919:0.034750417 1923:0.034750417 1928:0.032161959 1932:0.034750417 1933:0.034750417 1935:0.034750417 1936:0.034750417 1942:0.034750417 1943:0.034750417 1952:0.034750417 1954:0.034750417 1955:0.053419854 1957:0.034750417 1963:0.034750417 1964:0.034750417 1967:0.034750417 1969:0.034750417 1970:0.034750417 1975:0.034750417 1979:0.034750417 1981:0.034750417 1984:0.034750417 1985:0.034750417 1986:0.034750417 1988:0.034750417 1996:0.034750417 2006:0.034750417 2013:0.034750417 2014:0.034750417 2019:0.034750417 2023:0.034750417 2028:0.034750417 2032:0.034750417 2039:0.034750417 2040:0.034750417 2041:0.034750417 2044:0.034750417 2047:0.034750417 2049:0.034750417 2052:0.034750417 2054:0.034750417 2056:0.034750417 2058:0.034750417 2061:0.034750417 2068:0.034750417 2078:0.034750417 2087:0.034750417 2089:0.026709927 2091:0.034750417 2094:0.034750417 2097:0.034750417 2100:0.034750417 2103:0.034750417 2104:0.034750417 2109:0.034750417 2110:0.034750417 2111:0.034750417 2114:0.034750417 2117:0.034750417 2118:0.034750417 2122:0.053419854 2124:0.066019624 2127:0.034750417 2129:0.034750417 2130:0.034750417 2133:0.034750417 2136:0.034750417 2138:0.034750417 2139:0.034750417 2144:0.034750417 2148:0.034750417 2150:0.034750417 2157:0.053419854 2158:0.034750417 2163:0.034750417 2164:0.034750417 2165:0.034750417 2175:0.034750417 2176:0.034750417 2181:0.026709927 2182:0.034750417 2186:0.034750417 2189:0.034750417 2190:0.034750417 2193:0.034750417 2194:0.034750417 2195:0.034750417 2196:0.034750417 2205:0.034750417 2210:0.034750417 2212:0.034750417 2214:0.034750417 2215:0.034750417 2217:0.034750417 2220:0.026709927 2237:0.034750417 2241:0.034750417 2244:0.034750417 2245:0.034750417 2246:0.066019624 2248:0.034750417 2249:0.034750417 2253:0.034750417 2255:0.034750417 2256:0.034750417 2257:0.053419854 2259:0.034750417 2260:0.034750417 2262:0.034750417 2264:0.034750417 2267:0.034750417 2269:0.034750417 2277:0.053419854 2281:0.034750417 2283:0.034750417 2285:0.034750417 2289:0.034750417 2293:0.037338875 2297:0.034750417 2298:0.034750417 2301:0.034750417 2305:0.034750417 2307:0.034750417 2309:0.034750417 2310:0.034750417 2312:0.034750417 2313:0.034750417 2324:0.034750417 2327:0.034750417 2336:0.034750417 2337:0.034750417 2338:0.034750417 2340:0.034750417 2347:0.034750417 2349:0.034750417 2350:0.034750417 2352:0.034750417 2357:0.034750417 2360:0.034750417 2362:0.034750417 2363:0.034750417 2364:0.034750417 2367:0.034750417 2375:0.034750417 2376:0.034750417 2378:0.034750417 2379:0.034750417 2382:0.034750417 2383:0.034750417 2385:0.034750417 2391:0.034750417 2398:0.034750417 2406:0.034750417 2408:0.034750417 2409:0.034750417 2414:0.034750417 2419:0.034750417 2421:0.03670815 2427:0.034750417 2433:0.034750417 2438:0.053419854 2441:0.034750417 2446:0.034750417 2448:0.053419854 2452:0.026709927 2454:0.034750417 2461:0.034750417 2466:0.034750417 2471:0.034750417 2479:0.034750417 2486:0.034750417 2487:0.034750417 2494:0.048711639 2499:0.034750417 2506:0.034750417 2525:0.016080979 #
-0.13062505066565099909325908811297 49:0.15622135 74:0.14539155 122:0.050950903 149:0.14539155 198:0.14539155 203:0.14539155 240:0.14539155 257:0.092072718 271:0.14539155 298:0.14539155 345:0.11175111 359:0.11175111 368:0.092072718 394:0.11175111 411:0.11175111 412:0.14539155 418:0.11175111 454:0.11175111 503:0.092072718 527:0.11175111 529:0.11175111 542:0.11175111 641:0.14539155 691:0.14539155 740:0.11175111 743:0.14539155 746:0.11175111 822:0.078110673 901:0.14539155 942:0.077507772 975:0.11175111 1004:0.078110673 1031:0.11175111 1055:0.14539155 1118:0.14539155 1145:0.11175111 1167:0.14539155 1187:0.092072718 1191:0.11175111 1234:0.14539155 1262:0.11175111 1295:0.058432281 1319:0.11175111 1412:0.14539155 1562:0.049583688 1599:0.14539155 1603:0.11175111 1604:0.11175111 1607:0.078110673 1666:0.092072718 1785:0.092072718 1844:0.092072718 1859:0.11175111 1879:0.11175111 1913:0.14539155 1947:0.11175111 1968:0.11175111 2079:0.067280874 2081:0.11175111 2152:0.14539155 2180:0.11175111 2207:0.11175111 2223:0.11175111 2252:0.11175111 2273:0.11175111 2308:0.14539155 2396:0.14539155 2449:0.14539155 2495:0.13456175 2519:0.11175111 #
-0.14380903691721447223983432195382 39:0.10123181 66:0.10123181 67:0.10123181 69:0.10123181 121:0.077808976 157:0.10123181 177:0.10123181 247:0.10123181 283:0.10123181 290:0.10123181 343:0.10123181 355:0.10123181 382:0.040684659 385:0.10123181 387:0.10123181 422:0.10123181 427:0.10123181 474:0.10123181 515:0.0641075 532:0.0641075 545:0.054386143 566:0.10123181 572:0.10123181 589:0.10123181 625:0.10123181 640:0.10123181 653:0.10123181 692:0.10123181 790:0.10123181 827:0.10123181 856:0.10123181 873:0.10123181 878:0.10123181 886:0.10123181 891:0.10123181 947:0.10123181 1022:0.077808976 1046:0.10123181 1060:0.0641075 1067:0.10123181 1089:0.10123181 1098:0.10123181 1126:0.10123181 1138:0.10123181 1190:0.10123181 1197:0.10123181 1222:0.10123181 1239:0.10123181 1268:0.10123181 1272:0.10123181 1275:0.10123181 1281:0.10123181 1304:0.10123181 1361:0.10123181 1362:0.15561795 1442:0.10123181 1452:0.10123181 1455:0.10123181 1473:0.10123181 1497:0.10123181 1509:0.10123181 1529:0.10123181 1542:0.10123181 1557:0.10123181 1564:0.10123181 1577:0.054386143 1583:0.10123181 1635:0.10123181 1641:0.10123181 1644:0.10123181 1659:0.10123181 1662:0.10123181 1675:0.10123181 1679:0.077808976 1705:0.10123181 1795:0.0641075 1803:0.054386143 1812:0.10123181 1829:0.10123181 1876:0.10123181 1886:0.10123181 1909:0.10123181 1926:0.10123181 1938:0.10123181 1941:0.10123181 1992:0.10123181 2003:0.10123181 2021:0.10123181 2075:0.10123181 2077:0.10123181 2089:0.077808976 2101:0.10123181 2105:0.10123181 2156:0.10123181 2167:0.10123181 2185:0.10123181 2201:0.10123181 2208:0.10123181 2233:0.10123181 2254:0.10123181 2286:0.10123181 2335:0.10123181 2416:0.10123181 2421:0.0097213555 2525:0.046845671 #
-0.15794284134735628311041466531606 2:0.041930415 4:0.041930415 5:0.041930415 12:0.041930415 14:0.041930415 17:0.041930415 24:0.041930415 28:0.041930415 41:0.041930415 42:0.041930415 51:0.041930415 54:0.041930415 55:0.041930415 56:0.041930415 58:0.041930415 62:0.041930415 64:0.041930415 65:0.041930415 71:0.041930415 76:0.041930415 87:0.041930415 89:0.041930415 92:0.041930415 107:0.041930415 108:0.041930415 124:0.041930415 127:0.041930415 135:0.041930415 143:0.041930415 144:0.041930415 147:0.041930415 153:0.041930415 155:0.041930415 160:0.041930415 178:0.041930415 193:0.041930415 209:0.041930415 211:0.041930415 212:0.041930415 215:0.041930415 217:0.03222863 220:0.041930415 229:0.041930415 231:0.041930415 232:0.041930415 233:0.041930415 234:0.041930415 237:0.041930415 239:0.041930415 245:0.041930415 246:0.041930415 254:0.041930415 259:0.041930415 260:0.041930415 265:0.041930415 267:0.041930415 274:0.041930415 284:0.041930415 286:0.041930415 287:0.041930415 289:0.041930415 295:0.041930415 302:0.041930415 303:0.041930415 306:0.041930415 307:0.041930415 309:0.041930415 320:0.041930415 328:0.041930415 334:0.041930415 337:0.041930415 338:0.041930415 341:0.041930415 346:0.041930415 353:0.041930415 365:0.03222863 369:0.041930415 370:0.041930415 381:0.041930415 386:0.041930415 391:0.041930415 395:0.041930415 396:0.041930415 407:0.041930415 410:0.041930415 414:0.06445726 415:0.041930415 423:0.03222863 430:0.041930415 439:0.041930415 440:0.041930415 452:0.041930415 457:0.041930415 459:0.041930415 460:0.06445726 462:0.041930415 463:0.041930415 476:0.041930415 481:0.041930415 488:0.041930415 491:0.041930415 493:0.041930415 505:0.041930415 507:0.041930415 510:0.041930415 512:0.041930415 517:0.041930415 525:0.03222863 528:0.041930415 531:0.041930415 536:0.041930415 541:0.041930415 550:0.041930415 559:0.041930415 560:0.041930415 567:0.041930415 576:0.06445726 580:0.041930415 581:0.041930415 584:0.041930415 586:0.041930415 599:0.06445726 600:0.041930415 602:0.041930415 605:0.041930415 607:0.041930415 608:0.041930415 612:0.041930415 615:0.041930415 618:0.041930415 619:0.041930415 621:0.041930415 627:0.041930415 628:0.041930415 629:0.041930415 630:0.041930415 635:0.041930415 637:0.041930415 638:0.041930415 643:0.06445726 644:0.041930415 646:0.041930415 660:0.041930415 670:0.041930415 684:0.041930415 685:0.041930415 686:0.041930415 689:0.06445726 690:0.041930415 695:0.041930415 697:0.041930415 703:0.041930415 705:0.041930415 706:0.041930415 715:0.041930415 719:0.041930415 725:0.041930415 726:0.041930415 728:0.041930415 733:0.041930415 735:0.041930415 741:0.041930415 751:0.041930415 752:0.041930415 756:0.041930415 761:0.041930415 764:0.041930415 766:0.041930415 767:0.041930415 773:0.041930415 779:0.041930415 780:0.041930415 786:0.053106897 788:0.041930415 792:0.041930415 797:0.041930415 803:0.041930415 812:0.041930415 814:0.06445726 823:0.041930415 828:0.041930415 832:0.041930415 833:0.041930415 839:0.041930415 844:0.041930415 846:0.041930415 868:0.03222863 879:0.041930415 882:0.041930415 884:0.041930415 894:0.041930415 895:0.041930415 905:0.041930415 911:0.06445726 914:0.041930415 915:0.06445726 918:0.041930415 922:0.041930415 927:0.041930415 928:0.041930415 931:0.041930415 933:0.041930415 934:0.06445726 935:0.03222863 938:0.041930415 952:0.041930415 960:0.041930415 961:0.041930415 970:0.041930415 971:0.041930415 980:0.041930415 982:0.041930415 983:0.041930415 989:0.041930415 994:0.03222863 1001:0.041930415 1002:0.041930415 1008:0.041930415 1010:0.041930415 1012:0.041930415 1015:0.041930415 1018:0.041930415 1023:0.041930415 1024:0.041930415 1025:0.041930415 1043:0.041930415 1044:0.041930415 1045:0.03222863 1058:0.041930415 1059:0.041930415 1061:0.041930415 1066:0.041930415 1078:0.041930415 1079:0.041930415 1085:0.041930415 1088:0.041930415 1097:0.041930415 1106:0.041930415 1107:0.041930415 1108:0.041930415 1109:0.041930415 1111:0.041930415 1113:0.041930415 1114:0.041930415 1116:0.041930415 1119:0.041930415 1121:0.041930415 1131:0.041930415 1134:0.041930415 1137:0.041930415 1140:0.041930415 1147:0.041930415 1161:0.041930415 1163:0.041930415 1164:0.041930415 1169:0.041930415 1172:0.041930415 1173:0.041930415 1179:0.041930415 1192:0.041930415 1199:0.06445726 1216:0.041930415 1227:0.041930415 1236:0.041930415 1240:0.06445726 1241:0.041930415 1243:0.041930415 1245:0.041930415 1246:0.041930415 1247:0.041930415 1256:0.041930415 1260:0.041930415 1274:0.06445726 1276:0.041930415 1277:0.041930415 1283:0.041930415 1284:0.041930415 1285:0.041930415 1286:0.041930415 1291:0.09701784 1306:0.041930415 1313:0.041930415 1321:0.041930415 1325:0.041930415 1331:0.041930415 1338:0.041930415 1347:0.041930415 1350:0.06445726 1351:0.041930415 1352:0.041930415 1357:0.041930415 1364:0.041930415 1365:0.041930415 1368:0.03222863 1371:0.041930415 1377:0.041930415 1392:0.041930415 1396:0.041930415 1397:0.041930415 1398:0.041930415 1400:0.041930415 1401:0.041930415 1404:0.041930415 1406:0.041930415 1422:0.041930415 1426:0.041930415 1427:0.041930415 1435:0.041930415 1441:0.041930415 1445:0.041930415 1458:0.041930415 1472:0.041930415 1477:0.041930415 1478:0.041930415 1481:0.041930415 1485:0.041930415 1491:0.041930415 1495:0.079660349 1499:0.06445726 1504:0.041930415 1517:0.041930415 1523:0.041930415 1537:0.041930415 1544:0.041930415 1545:0.041930415 1546:0.041930415 1551:0.041930415 1552:0.041930415 1560:0.041930415 1569:0.041930415 1572:0.041930415 1578:0.041930415 1584:0.041930415 1587:0.041930415 1592:0.041930415 1594:0.041930415 1612:0.041930415 1614:0.041930415 1620:0.041930415 1622:0.041930415 1634:0.079660349 1638:0.041930415 1643:0.041930415 1651:0.041930415 1656:0.041930415 1661:0.041930415 1669:0.041930415 1670:0.041930415 1672:0.041930415 1679:0.03222863 1684:0.041930415 1695:0.041930415 1696:0.041930415 1697:0.041930415 1703:0.041930415 1707:0.041930415 1739:0.041930415 1740:0.041930415 1742:0.041930415 1743:0.041930415 1744:0.041930415 1748:0.041930415 1750:0.03222863 1761:0.041930415 1773:0.041930415 1774:0.041930415 1775:0.041930415 1780:0.041930415 1788:0.041930415 1796:0.041930415 1801:0.041930415 1802:0.041930415 1806:0.041930415 1816:0.041930415 1834:0.041930415 1836:0.041930415 1837:0.041930415 1845:0.041930415 1848:0.041930415 1850:0.041930415 1855:0.041930415 1863:0.041930415 1864:0.041930415 1866:0.041930415 1868:0.041930415 1871:0.041930415 1874:0.041930415 1883:0.041930415 1885:0.041930415 1891:0.041930415 1893:0.041930415 1895:0.041930415 1897:0.06445726 1898:0.041930415 1903:0.041930415 1910:0.041930415 1922:0.041930415 1934:0.041930415 1937:0.041930415 1940:0.041930415 1944:0.041930415 1946:0.041930415 1960:0.041930415 1962:0.041930415 1973:0.041930415 1977:0.079660349 1987:0.041930415 1993:0.041930415 1995:0.041930415 1997:0.06445726 2001:0.041930415 2004:0.041930415 2005:0.041930415 2009:0.041930415 2011:0.041930415 2015:0.041930415 2017:0.041930415 2018:0.041930415 2020:0.041930415 2024:0.041930415 2029:0.041930415 2033:0.041930415 2037:0.041930415 2045:0.041930415 2048:0.041930415 2053:0.041930415 2055:0.041930415 2057:0.041930415 2060:0.041930415 2064:0.041930415 2065:0.041930415 2069:0.06445726 2070:0.041930415 2072:0.041930415 2086:0.041930415 2113:0.041930415 2115:0.041930415 2123:0.041930415 2128:0.041930415 2135:0.041930415 2141:0.041930415 2143:0.041930415 2146:0.041930415 2147:0.041930415 2151:0.041930415 2160:0.041930415 2162:0.041930415 2166:0.041930415 2172:0.041930415 2173:0.041930415 2177:0.041930415 2192:0.06445726 2199:0.041930415 2200:0.041930415 2203:0.041930415 2206:0.041930415 2216:0.041930415 2221:0.041930415 2222:0.041930415 2227:0.06445726 2228:0.041930415 2229:0.041930415 2232:0.041930415 2235:0.041930415 2240:0.041930415 2243:0.041930415 2251:0.041930415 2258:0.041930415 2274:0.041930415 2275:0.041930415 2278:0.041930415 2287:0.041930415 2291:0.041930415 2294:0.041930415 2299:0.041930415 2302:0.041930415 2304:0.041930415 2311:0.041930415 2316:0.041930415 2322:0.041930415 2326:0.041930415 2328:0.041930415 2329:0.041930415 2343:0.041930415 2348:0.041930415 2354:0.041930415 2366:0.06445726 2377:0.041930415 2380:0.041930415 2387:0.041930415 2390:0.041930415 2397:0.041930415 2399:0.041930415 2404:0.041930415 2405:0.041930415 2412:0.041930415 2413:0.041930415 2415:0.041930415 2417:0.041930415 2423:0.041930415 2430:0.041930415 2435:0.041930415 2436:0.041930415 2437:0.10260049 2439:0.041930415 2440:0.041930415 2443:0.041930415 2451:0.041930415 2455:0.03222863 2457:0.041930415 2459:0.041930415 2462:0.041930415 2464:0.041930415 2465:0.041930415 2469:0.041930415 2473:0.041930415 2476:0.041930415 2478:0.041930415 2481:0.041930415 2485:0.041930415 2490:0.041930415 2491:0.041930415 2496:0.041930415 2498:0.041930415 2504:0.041930415 2513:0.041930415 2518:0.041930415 2524:0.022526845 #
-0.15826451878274780393773824016534 13:0.086787894 78:0.086787894 95:0.066707067 114:0.086787894 116:0.086787894 136:0.066707067 141:0.086787894 151:0.13341413 213:0.086787894 218:0.086787894 221:0.086787894 238:0.086787894 253:0.086787894 277:0.086787894 296:0.086787894 308:0.086787894 316:0.086787894 339:0.086787894 344:0.066707067 364:0.086787894 392:0.086787894 399:0.086787894 400:0.086787894 434:0.086787894 499:0.086787894 533:0.086787894 534:0.086787894 537:0.086787894 543:0.086787894 571:0.086787894 575:0.04662624 578:0.086787894 582:0.16488162 596:0.086787894 597:0.086787894 642:0.086787894 651:0.086787894 652:0.086787894 669:0.086787894 682:0.086787894 709:0.086787894 712:0.086787894 745:0.13341413 775:0.086787894 804:0.086787894 816:0.086787894 859:0.086787894 908:0.086787894 919:0.066707067 926:0.086787894 945:0.086787894 948:0.086787894 1004:0.04662624 1009:0.086787894 1017:0.086787894 1052:0.086787894 1053:0.086787894 1105:0.086787894 1110:0.086787894 1129:0.13341413 1176:0.086787894 1202:0.086787894 1212:0.086787894 1224:0.086787894 1254:0.086787894 1300:0.086787894 1305:0.086787894 1315:0.086787894 1317:0.086787894 1415:0.066707067 1424:0.086787894 1429:0.086787894 1436:0.086787894 1456:0.086787894 1460:0.086787894 1471:0.086787894 1474:0.086787894 1489:0.086787894 1493:0.086787894 1518:0.066707067 1520:0.086787894 1536:0.086787894 1617:0.086787894 1728:0.086787894 1753:0.086787894 1795:0.054960538 1803:0.04662624 1824:0.16488162 1843:0.086787894 1846:0.086787894 1890:0.13341413 1982:0.086787894 1998:0.086787894 2027:0.086787894 2034:0.086787894 2038:0.086787894 2059:0.086787894 2080:0.086787894 2093:0.086787894 2099:0.086787894 2140:0.086787894 2149:0.086787894 2161:0.086787894 2197:0.086787894 2202:0.086787894 2204:0.086787894 2238:0.066707067 2261:0.086787894 2271:0.086787894 2290:0.086787894 2300:0.13341413 2318:0.086787894 2346:0.086787894 2361:0.086787894 2372:0.086787894 2374:0.086787894 2386:0.086787894 2421:0.0083342968 2422:0.16064663 2434:0.086787894 2458:0.086787894 2468:0.086787894 2494:0.060827769 2502:0.086787894 2503:0.086787894 2523:0.054960538 #
0.99999999875945011496014558360912 36:0.2327344 106:0.17888473 423:0.17888473 762:0.2327344 798:0.2327344 954:0.2327344 969:0.2327344 1004:0.12503506 1045:0.17888473 1142:0.2327344 1237:0.2327344 1257:0.2327344 1428:0.2327344 1555:0.2327344 1870:0.2327344 1906:0.2327344 2008:0.2327344 2066:0.2327344 2159:0.2327344 2247:0.2327344 2523:0.14738469 #
-0.14691700937557741757366613910563 84:0.13610339 90:0.13610339 99:0.13610339 125:0.13610339 192:0.13610339 196:0.13610339 197:0.13610339 243:0.13610339 255:0.13610339 278:0.13610339 405:0.13610339 417:0.086190768 473:0.13610339 497:0.13610339 518:0.13610339 530:0.13610339 821:0.13610339 824:0.13610339 830:0.13610339 845:0.13610339 866:0.13610339 932:0.13610339 974:0.13610339 976:0.13610339 991:0.13610339 999:0.13610339 1003:0.13610339 1007:0.13610339 1056:0.13610339 1069:0.13610339 1102:0.13610339 1136:0.13610339 1346:0.13610339 1366:0.13610339 1383:0.10461203 1385:0.13610339 1443:0.13610339 1514:0.13610339 1565:0.13610339 1757:0.13610339 1777:0.086190768 1939:0.13610339 1965:0.13610339 2084:0.13610339 2092:0.13610339 2126:0.13610339 2178:0.13610339 2315:0.13610339 2321:0.13610339 2323:0.13610339 2341:0.13610339 2356:0.13610339 2453:0.13610339 2501:0.13610339 2509:0.13610339 2521:0.10461203 #
-0.11889191470668197814219979591144 3:0.050715577 22:0.050715577 23:0.050715577 26:0.050715577 29:0.064233735 31:0.050715577 32:0.050715577 49:0.054493237 53:0.050715577 57:0.050715577 75:0.050715577 80:0.050715577 88:0.050715577 91:0.050715577 94:0.050715577 101:0.050715577 103:0.050715577 109:0.050715577 110:0.050715577 122:0.035545457 126:0.077962197 129:0.050715577 134:0.050715577 137:0.050715577 152:0.050715577 170:0.038981099 186:0.050715577 199:0.050715577 225:0.050715577 230:0.050715577 257:0.064233735 262:0.050715577 263:0.050715577 272:0.050715577 276:0.050715577 291:0.050715577 305:0.050715577 319:0.050715577 321:0.054493237 325:0.050715577 331:0.050715577 332:0.050715577 345:0.038981099 347:0.050715577 350:0.050715577 357:0.077962197 358:0.050715577 359:0.038981099 362:0.050715577 380:0.050715577 383:0.050715577 394:0.038981099 403:0.050715577 404:0.050715577 411:0.038981099 418:0.038981099 437:0.050715577 441:0.050715577 446:0.050715577 449:0.050715577 454:0.038981099 464:0.050715577 467:0.050715577 468:0.050715577 478:0.050715577 487:0.077962197 495:0.050715577 498:0.050715577 503:0.064233735 522:0.050715577 526:0.050715577 527:0.038981099 529:0.038981099 542:0.038981099 555:0.050715577 562:0.02346896 568:0.050715577 569:0.10898647 574:0.050715577 585:0.050715577 631:0.038981099 633:0.050715577 636:0.050715577 639:0.050715577 658:0.050715577 659:0.050715577 662:0.050715577 664:0.038981099 668:0.050715577 676:0.050715577 687:0.050715577 694:0.050715577 704:0.050715577 713:0.050715577 716:0.050715577 717:0.050715577 723:0.050715577 740:0.038981099 746:0.038981099 747:0.050715577 770:0.050715577 778:0.038981099 782:0.050715577 799:0.038981099 800:0.050715577 802:0.050715577 808:0.077962197 809:0.050715577 811:0.050715577 813:0.050715577 822:0.081739858 837:0.050715577 838:0.050715577 853:0.050715577 855:0.050715577 857:0.050715577 867:0.050715577 868:0.038981099 870:0.077962197 871:0.038981099 876:0.050715577 877:0.050715577 899:0.050715577 900:0.050715577 903:0.050715577 904:0.050715577 906:0.050715577 910:0.050715577 912:0.050715577 942:0.067590788 946:0.050715577 957:0.050715577 963:0.050715577 968:0.050715577 973:0.050715577 975:0.038981099 977:0.050715577 979:0.050715577 985:0.050715577 993:0.050715577 1005:0.050715577 1014:0.050715577 1028:0.050715577 1031:0.038981099 1032:0.050715577 1035:0.050715577 1036:0.050715577 1039:0.050715577 1040:0.050715577 1048:0.050715577 1051:0.050715577 1064:0.050715577 1068:0.050715577 1086:0.050715577 1094:0.050715577 1099:0.050715577 1100:0.050715577 1127:0.050715577 1132:0.050715577 1139:0.096350603 1143:0.077962197 1145:0.038981099 1151:0.050715577 1158:0.050715577 1162:0.050715577 1165:0.050715577 1168:0.050715577 1170:0.096350603 1180:0.050715577 1183:0.050715577 1187:0.064233735 1189:0.050715577 1191:0.038981099 1196:0.050715577 1207:0.050715577 1211:0.050715577 1214:0.050715577 1215:0.050715577 1219:0.050715577 1229:0.050715577 1238:0.050715577 1262:0.038981099 1263:0.050715577 1267:0.050715577 1270:0.050715577 1271:0.050715577 1273:0.050715577 1279:0.050715577 1288:0.050715577 1294:0.050715577 1295:0.020382388 1296:0.050715577 1310:0.050715577 1312:0.050715577 1319:0.038981099 1323:0.050715577 1324:0.050715577 1326:0.050715577 1328:0.050715577 1330:0.050715577 1336:0.050715577 1342:0.050715577 1353:0.050715577 1356:0.050715577 1368:0.038981099 1380:0.050715577 1403:0.050715577 1414:0.050715577 1423:0.050715577 1431:0.050715577 1438:0.050715577 1440:0.050715577 1454:0.050715577 1459:0.077962197 1461:0.050715577 1462:0.050715577 1466:0.050715577 1490:0.050715577 1500:0.050715577 1502:0.050715577 1506:0.050715577 1510:0.050715577 1521:0.050715577 1525:0.050715577 1538:0.050715577 1541:0.050715577 1562:0.086479075 1567:0.050715577 1568:0.050715577 1570:0.050715577 1579:0.050715577 1585:0.050715577 1590:0.077962197 1596:0.10898647 1600:0.050715577 1603:0.038981099 1604:0.038981099 1607:0.054493237 1615:0.050715577 1621:0.050715577 1626:0.050715577 1627:0.050715577 1630:0.050715577 1639:0.050715577 1646:0.050715577 1653:0.050715577 1657:0.077962197 1666:0.032116868 1667:0.050715577 1668:0.050715577 1678:0.050715577 1685:0.050715577 1689:0.050715577 1690:0.050715577 1710:0.096350603 1726:0.050715577 1733:0.050715577 1741:0.050715577 1745:0.050715577 1747:0.050715577 1756:0.050715577 1758:0.050715577 1767:0.050715577 1771:0.050715577 1776:0.050715577 1779:0.050715577 1785:0.064233735 1787:0.050715577 1797:0.050715577 1799:0.050715577 1800:0.050715577 1807:0.050715577 1813:0.077962197 1822:0.050715577 1827:0.050715577 1832:0.050715577 1844:0.064233735 1852:0.050715577 1854:0.050715577 1856:0.050715577 1857:0.050715577 1859:0.038981099 1862:0.050715577 1878:0.050715577 1879:0.038981099 1889:0.050715577 1894:0.050715577 1905:0.050715577 1920:0.050715577 1925:0.050715577 1927:0.050715577 1929:0.050715577 1947:0.038981099 1949:0.050715577 1966:0.050715577 1968:0.038981099 1972:0.050715577 1974:0.050715577 1983:0.050715577 2002:0.050715577 2007:0.050715577 2026:0.050715577 2031:0.050715577 2043:0.050715577 2046:0.050715577 2079:0.09387584 2081:0.038981099 2083:0.050715577 2088:0.050715577 2090:0.050715577 2096:0.050715577 2106:0.050715577 2108:0.050715577 2120:0.050715577 2121:0.050715577 2125:0.050715577 2137:0.050715577 2154:0.050715577 2174:0.077962197 2180:0.038981099 2187:0.050715577 2198:0.050715577 2207:0.038981099 2213:0.050715577 2223:0.038981099 2224:0.050715577 2252:0.038981099 2266:0.050715577 2272:0.050715577 2273:0.038981099 2276:0.050715577 2282:0.050715577 2306:0.050715577 2314:0.050715577 2319:0.050715577 2332:0.050715577 2333:0.050715577 2342:0.050715577 2344:0.077962197 2353:0.050715577 2358:0.050715577 2365:0.050715577 2370:0.050715577 2371:0.050715577 2373:0.050715577 2392:0.050715577 2394:0.050715577 2403:0.050715577 2418:0.050715577 2429:0.050715577 2431:0.050715577 2445:0.050715577 2470:0.050715577 2472:0.050715577 2480:0.050715577 2484:0.050715577 2488:0.050715577 2489:0.050715577 2493:0.050715577 2495:0.04693792 2497:0.050715577 2500:0.050715577 2510:0.050715577 2516:0.050715577 2519:0.038981099 #
