SVM-light Version V6.02
0 # kernel type
3 # kernel parameter -d 
1 # kernel parameter -g 
1 # kernel parameter -s 
1 # kernel parameter -r 
empty# kernel parameter -u 
2813 # highest feature index 
4 # number of training documents 
5 # number of support vectors plus 1 
0.66666602 # threshold b, each following line is a SV (starting with alpha*y)
-0.33333395607756993728187921988138 6:0.20412415 20:0.20412415 128:0.20412415 243:0.20412415 311:0.20412415 358:0.20412415 439:0.20412415 520:0.20412415 673:0.20412415 730:0.20412415 798:0.20412415 890:0.20412415 1074:0.20412415 1151:0.20412415 1284:0.20412415 1580:0.20412415 1592:0.20412415 1676:0.20412415 1809:0.20412415 2209:0.20412415 2255:0.20412415 2487:0.20412415 2606:0.20412415 2625:0.20412415 #
-0.33333398587994977901871607173234 515:0.57735026 1418:0.57735026 1966:0.57735026 #
-0.33333393000049194032641253215843 35:0.13608277 48:0.13608277 113:0.13608277 208:0.13608277 225:0.13608277 255:0.13608277 267:0.13608277 276:0.13608277 317:0.13608277 463:0.13608277 556:0.13608277 582:0.13608277 659:0.13608277 693:0.13608277 764:0.13608277 766:0.13608277 906:0.13608277 946:0.13608277 1095:0.13608277 1110:0.13608277 1127:0.13608277 1164:0.13608277 1185:0.13608277 1308:0.13608277 1376:0.13608277 1404:0.13608277 1471:0.13608277 1553:0.13608277 1590:0.13608277 1678:0.13608277 1713:0.13608277 1833:0.13608277 1944:0.13608277 2059:0.13608277 2068:0.13608277 2151:0.13608277 2170:0.13608277 2199:0.13608277 2218:0.13608277 2280:0.13608277 2308:0.13608277 2343:0.13608277 2348:0.13608277 2440:0.13608277 2446:0.13608277 2520:0.13608277 2533:0.13608277 2558:0.13608277 2572:0.13608277 2583:0.13608277 2704:0.13608277 2725:0.13608277 2743:0.13608277 2801:0.13608277 #
0.99999996460974449608016811907873 5:0.048864193 14:0.048864193 27:0.048864193 40:0.073296286 54:0.048864193 55:0.048864193 59:0.048864193 61:0.048864193 71:0.048864193 81:0.048864193 85:0.048864193 114:0.048864193 120:0.048864193 126:0.048864193 130:0.048864193 131:0.048864193 138:0.048864193 150:0.048864193 154:0.048864193 159:0.048864193 169:0.073296286 177:0.048864193 188:0.048864193 189:0.048864193 211:0.048864193 222:0.048864193 226:0.048864193 228:0.048864193 233:0.048864193 237:0.048864193 257:0.048864193 261:0.048864193 270:0.048864193 277:0.048864193 278:0.048864193 294:0.048864193 295:0.048864193 308:0.048864193 309:0.048864193 315:0.048864193 316:0.048864193 318:0.048864193 329:0.048864193 339:0.048864193 347:0.048864193 366:0.048864193 368:0.048864193 374:0.048864193 380:0.048864193 387:0.048864193 389:0.048864193 395:0.048864193 399:0.048864193 406:0.048864193 407:0.048864193 408:0.048864193 425:0.048864193 427:0.048864193 432:0.048864193 444:0.048864193 451:0.048864193 452:0.048864193 468:0.048864193 478:0.048864193 483:0.048864193 484:0.048864193 485:0.048864193 494:0.048864193 495:0.048864193 512:0.048864193 528:0.048864193 555:0.048864193 575:0.048864193 584:0.048864193 590:0.048864193 591:0.048864193 610:0.048864193 611:0.048864193 615:0.048864193 619:0.048864193 620:0.048864193 628:0.048864193 635:0.048864193 641:0.048864193 649:0.048864193 663:0.048864193 667:0.048864193 674:0.048864193 685:0.048864193 689:0.048864193 696:0.048864193 698:0.048864193 703:0.048864193 718:0.048864193 725:0.048864193 733:0.048864193 735:0.048864193 737:0.048864193 742:0.048864193 753:0.048864193 757:0.048864193 761:0.048864193 762:0.048864193 777:0.048864193 782:0.048864193 787:0.048864193 800:0.048864193 806:0.048864193 820:0.048864193 841:0.048864193 842:0.048864193 851:0.048864193 862:0.048864193 872:0.048864193 880:0.048864193 886:0.048864193 889:0.048864193 893:0.048864193 894:0.048864193 896:0.048864193 897:0.048864193 898:0.048864193 900:0.048864193 913:0.048864193 919:0.048864193 920:0.048864193 924:0.048864193 933:0.048864193 938:0.048864193 940:0.048864193 945:0.048864193 954:0.048864193 955:0.048864193 962:0.048864193 973:0.048864193 985:0.048864193 1001:0.048864193 1002:0.048864193 1004:0.048864193 1015:0.048864193 1035:0.048864193 1036:0.048864193 1045:0.048864193 1049:0.048864193 1050:0.048864193 1052:0.048864193 1061:0.048864193 1069:0.048864193 1102:0.048864193 1104:0.073296286 1105:0.048864193 1115:0.048864193 1116:0.048864193 1130:0.048864193 1136:0.048864193 1137:0.048864193 1157:0.048864193 1163:0.073296286 1187:0.048864193 1191:0.048864193 1200:0.048864193 1203:0.048864193 1210:0.048864193 1218:0.048864193 1223:0.048864193 1235:0.048864193 1238:0.048864193 1239:0.048864193 1257:0.048864193 1258:0.048864193 1265:0.048864193 1277:0.048864193 1278:0.048864193 1280:0.048864193 1297:0.048864193 1310:0.048864193 1316:0.048864193 1329:0.048864193 1338:0.048864193 1350:0.048864193 1352:0.048864193 1362:0.048864193 1366:0.048864193 1371:0.048864193 1372:0.048864193 1391:0.048864193 1392:0.048864193 1397:0.048864193 1401:0.088506639 1405:0.048864193 1412:0.048864193 1449:0.048864193 1470:0.048864193 1472:0.048864193 1486:0.048864193 1489:0.048864193 1492:0.048864193 1499:0.048864193 1502:0.048864193 1522:0.073296286 1529:0.048864193 1542:0.048864193 1554:0.048864193 1564:0.048864193 1565:0.048864193 1567:0.048864193 1568:0.048864193 1573:0.048864193 1575:0.048864193 1579:0.048864193 1581:0.048864193 1589:0.048864193 1593:0.048864193 1604:0.048864193 1610:0.048864193 1620:0.048864193 1626:0.048864193 1638:0.048864193 1640:0.048864193 1644:0.048864193 1651:0.048864193 1658:0.048864193 1668:0.048864193 1673:0.048864193 1683:0.048864193 1685:0.088506639 1695:0.048864193 1697:0.048864193 1700:0.048864193 1703:0.048864193 1708:0.048864193 1727:0.048864193 1728:0.048864193 1729:0.048864193 1732:0.048864193 1735:0.048864193 1736:0.048864193 1748:0.048864193 1761:0.048864193 1763:0.048864193 1773:0.048864193 1779:0.048864193 1788:0.048864193 1794:0.048864193 1795:0.048864193 1800:0.048864193 1806:0.048864193 1810:0.048864193 1818:0.048864193 1829:0.048864193 1851:0.048864193 1855:0.048864193 1865:0.048864193 1868:0.048864193 1871:0.048864193 1875:0.048864193 1878:0.048864193 1879:0.048864193 1881:0.048864193 1883:0.048864193 1888:0.048864193 1900:0.048864193 1901:0.048864193 1912:0.048864193 1918:0.048864193 1920:0.048864193 1921:0.048864193 1927:0.048864193 1931:0.048864193 1942:0.048864193 1943:0.073296286 1951:0.048864193 1959:0.048864193 1960:0.048864193 1962:0.048864193 1969:0.048864193 1973:0.048864193 1982:0.048864193 2000:0.048864193 2002:0.048864193 2009:0.048864193 2012:0.048864193 2018:0.048864193 2027:0.048864193 2038:0.048864193 2042:0.048864193 2045:0.048864193 2063:0.048864193 2064:0.048864193 2066:0.048864193 2077:0.048864193 2079:0.048864193 2082:0.048864193 2090:0.048864193 2099:0.048864193 2100:0.048864193 2111:0.048864193 2112:0.048864193 2121:0.048864193 2122:0.048864193 2125:0.048864193 2133:0.048864193 2140:0.048864193 2146:0.048864193 2152:0.048864193 2154:0.048864193 2160:0.048864193 2162:0.048864193 2165:0.048864193 2178:0.048864193 2190:0.048864193 2204:0.048864193 2216:0.048864193 2219:0.048864193 2220:0.048864193 2224:0.048864193 2226:0.048864193 2232:0.048864193 2233:0.048864193 2242:0.048864193 2250:0.048864193 2252:0.048864193 2259:0.048864193 2263:0.073296286 2265:0.048864193 2274:0.048864193 2275:0.048864193 2279:0.048864193 2290:0.048864193 2292:0.048864193 2307:0.048864193 2313:0.048864193 2314:0.048864193 2320:0.048864193 2325:0.048864193 2330:0.048864193 2332:0.048864193 2344:0.048864193 2346:0.048864193 2358:0.048864193 2367:0.048864193 2375:0.073296286 2377:0.048864193 2381:0.048864193 2382:0.048864193 2387:0.048864193 2390:0.048864193 2394:0.073296286 2398:0.048864193 2406:0.048864193 2419:0.048864193 2425:0.048864193 2437:0.048864193 2442:0.048864193 2445:0.048864193 2447:0.048864193 2465:0.048864193 2468:0.048864193 2481:0.048864193 2496:0.048864193 2509:0.048864193 2513:0.048864193 2514:0.048864193 2515:0.048864193 2531:0.048864193 2539:0.048864193 2549:0.048864193 2550:0.048864193 2551:0.048864193 2552:0.048864193 2565:0.048864193 2568:0.048864193 2581:0.048864193 2584:0.048864193 2586:0.048864193 2598:0.048864193 2605:0.048864193 2619:0.048864193 2622:0.048864193 2644:0.048864193 2654:0.048864193 2663:0.048864193 2665:0.048864193 2671:0.048864193 2687:0.048864193 2696:0.048864193 2700:0.048864193 2702:0.048864193 2726:0.048864193 2729:0.048864193 2731:0.048864193 2734:0.048864193 2735:0.048864193 2736:0.048864193 2738:0.048864193 2762:0.048864193 2772:0.048864193 2791:0.048864193 2794:0.048864193 2798:0.048864193 2800:0.048864193 2807:0.048864193 2813:0.048864193 #
