SVM-light Version V6.02
0 # kernel type
3 # kernel parameter -d 
1 # kernel parameter -g 
1 # kernel parameter -s 
1 # kernel parameter -r 
empty# kernel parameter -u 
2804 # highest feature index 
68 # number of training documents 
68 # number of support vectors plus 1 
0.69632304 # threshold b, each following line is a SV (starting with alpha*y)
-0.15124970768069889714979581185617 43:0.051419966 60:0.12508176 78:0.12508176 97:0.071967401 132:0.12508176 141:0.077372089 164:0.12508176 191:0.077372089 234:0.051419966 244:0.11989585 259:0.083986886 274:0.12508176 302:0.037797734 339:0.046850372 348:0.077372089 397:0.12508176 406:0.067397811 415:0.041094873 428:0.10453432 556:0.041094873 568:0.042892009 578:0.10283993 595:0.037797734 677:0.067397811 743:0.11989585 789:0.067397811 797:0.13479562 898:0.10453432 904:0.067397811 924:0.053999305 926:0.12508176 935:0.071967401 939:0.06690374 947:0.12508176 965:0.10453432 966:0.092514843 1027:0.12508176 1059:0.089610338 1099:0.071967401 1106:0.059947923 1151:0.039400488 1166:0.069661789 1204:0.063439444 1262:0.041094873 1291:0.15474418 1357:0.053999305 1405:0.077372089 1494:0.083986886 1532:0.092514843 1550:0.12508176 1554:0.046850372 1565:0.077372089 1600:0.092514843 1673:0.10453432 1675:0.12508176 1681:0.028499769 1707:0.12508176 1716:0.063439444 1746:0.077372089 1752:0.14714162 1777:0.063439444 1845:0.092514843 1876:0.049047206 1885:0.071967401 1886:0.12508176 1919:0.077372089 1924:0.12508176 1947:0.12508176 1958:0.1439348 1979:0.092514843 2019:0.067397811 2024:0.12508176 2048:0.092514843 2066:0.067397811 2081:0.10453432 2104:0.059947923 2135:0.18502969 2155:0.046850372 2159:0.18502969 2189:0.063439444 2196:0.092514843 2214:0.092514843 2263:0.083986886 2267:0.12508176 2271:0.12508176 2324:0.10453432 2326:0.063439444 2336:0.077372089 2343:0.082189746 2357:0.15474418 2377:0.077372089 2394:0.041094873 2410:0.051419966 2434:0.10453432 2440:0.11989585 2462:0.039400488 2507:0.10453432 2530:0.059947923 2532:0.059947923 2536:0.092514843 2571:0.092514843 2580:0.032134153 2601:0.063439444 2607:0.034830894 2635:0.092514843 2662:0.083986886 2674:0.042892009 2688:0.061745062 2690:0.11989585 2728:0.12508176 2732:0.10453432 2761:0.092514843 2766:0.083986886 2768:0.10453432 #
-0.39599970484189467301305853652593 25:0.21615551 51:0.21926118 53:0.18064721 98:0.15987618 315:0.071016625 316:0.12436787 503:0.10963059 568:0.07412228 578:0.088859558 677:0.11647109 869:0.23294218 924:0.09331695 1059:0.23228531 1095:0.18064721 1363:0.049250849 1449:0.21615551 1503:0.13370778 1509:0.15987618 1732:0.18064721 1888:0.15987618 1894:0.21615551 1962:0.12436787 1973:0.18064721 2054:0.1203835 2067:0.21615551 2155:0.080962777 2178:0.15987618 2183:0.10963059 2233:0.13370778 2284:0.09331695 2301:0.13370778 2326:0.10963059 2327:0.21615551 2379:0.36129442 2568:0.13370778 2674:0.07412228 2710:0.10963059 2754:0.13370778 #
-0.17262961280558153376318841765169 33:0.15495417 46:0.15495417 157:0.13713735 244:0.088862494 249:0.072704054 268:0.11469082 295:0.12449612 319:0.11469082 404:0.060916085 415:0.12183217 422:0.066415966 434:0.15495417 499:0.1854122 532:0.13713735 568:0.12716007 638:0.1854122 682:0.069447622 741:0.088862494 745:0.072704054 764:0.1854122 770:0.15495417 795:0.051630814 904:0.19981134 924:0.080044687 964:0.21335861 1020:0.069447622 1096:0.12449612 1159:0.1854122 1221:0.1854122 1262:0.12183217 1271:0.10667931 1382:0.1854122 1441:0.11469082 1518:0.13713735 1521:0.13713735 1584:0.080044687 1670:0.069447622 1681:0.08449202 1687:0.056028645 1749:0.066415966 1791:0.13713735 1903:0.15495417 1930:0.1854122 1983:0.09990567 2037:0.13713735 2076:0.10667931 2086:0.10667931 2117:0.1854122 2181:0.12449612 2231:0.11469082 2253:0.11469082 2343:0.060916085 2378:0.043969434 2506:0.16846555 2525:0.15495417 2539:0.1854122 2544:0.094038077 2765:0.15495417 #
-0.28213346182548493246144971635658 51:0.20472148 249:0.15827717 315:0.1326147 339:0.15118791 707:0.16593416 805:0.15118791 1044:0.33733618 1059:0.14458796 1222:0.16593416 1389:0.27102882 1459:0.12197471 1474:0.24968262 1553:0.19345421 1839:0.40364352 1962:0.23224151 2155:0.15118791 2183:0.20472148 2352:0.21749526 2677:0.40364352 #
-0.23136789471643631754815828571736 59:0.27262673 83:0.088328563 119:0.069030352 128:0.13631336 177:0.093473054 257:0.063198015 293:0.10603832 302:0.111384 339:0.1380607 404:0.060550075 409:0.13631336 430:0.11400171 550:0.093473054 682:0.1380607 716:0.18429816 745:0.072267212 882:0.093473054 915:0.060550075 984:0.053451631 1020:0.069030352 1242:0.18429816 1246:0.13631336 1252:0.11400171 1330:0.27262673 1346:0.083726667 1384:0.069030352 1390:0.37124425 1464:0.30804625 1518:0.13631336 1647:0.12639603 1699:0.11400171 1785:0.088328563 1791:0.13631336 2066:0.19861078 2078:0.18429816 2166:0.10603832 2167:0.099305391 2285:0.15402313 2387:0.13631336 2410:0.075763293 2674:0.12639603 2680:0.15402313 2692:0.13631336 2762:0.18429816 2781:0.15402313 #
0.99999999999272404238581657409668 56:0.34087238 91:0.34087238 236:0.34087238 338:0.11733802 394:0.11829512 457:0.2039374 568:0.13986509 582:0.25229996 669:0.15083922 985:0.17043619 1034:0.2039374 1038:0.2039374 1114:0.088042237 1245:0.088042237 1280:0.2197752 1407:0.09774106 1434:0.25229996 1649:0.09774106 1846:0.15083922 2059:0.13693497 2366:0.2039374 2371:0.073051818 2397:0.079968177 2526:0.17043619 2537:0.13986509 2607:0.056789432 2613:0.17043619 2767:0.2039374 #
0.99999999999272404238581657409668 492:0.12966149 595:0.077253364 597:0.14709146 876:0.18908758 999:0.25564986 1017:0.25564986 1076:0.21365374 1108:0.21365374 1112:0.25564986 1264:0.17165762 1297:0.21365374 1641:0.11036714 1650:0.21365374 1741:0.25564986 1844:0.21365374 1846:0.18908758 1885:0.14709146 2042:0.27550367 2139:0.25564986 2346:0.25564986 2349:0.1225253 2371:0.091575593 2705:0.18908758 2715:0.25564986 #
0.99999999999272404238581657409668 1363:1 #
0.77351716802363124081409750942839 1363:0.60204583 2218:0.7984615 #
0.99999999999272404238581657409668 851:0.81109709 2042:0.43704349 2614:0.38873446 #
-0.46900979627549588268919933398138 271:0.19449788 342:0.24237095 613:0.36096331 626:0.22328185 1170:0.36096331 1200:0.14154136 1280:0.19449788 1568:0.30166712 1790:0.30166712 1986:0.30166712 2041:0.15583222 2096:0.18307477 2218:0.10907742 2237:0.2669811 2245:0.2669811 2744:0.22328185 #
-0.34724318265211145950743798493932 233:0.25300613 1480:0.80319947 2059:0.53931302 #
-0.27151481418389900035492701135809 200:0.09488339 324:0.17009385 378:0.10936172 445:0.083227105 498:0.079795562 568:0.086866744 626:0.15669727 656:0.073470175 960:0.17009385 995:0.13649695 1100:0.079795562 1144:0.083227105 1166:0.070541024 1245:0.10936172 1265:0.12140911 1280:0.13649695 1334:0.1284803 1338:0.073470175 1367:0.4234148 1401:0.18736503 1493:0.083227105 1546:0.25332096 1601:0.090741359 1716:0.1284803 1723:0.18736503 1726:0.11508372 1779:0.057718959 1880:0.067748159 1883:0.076549597 1898:0.076549597 1993:0.25332096 2057:0.4234148 2171:0.076549597 2283:0.13649695 2349:0.12140911 2452:0.10936172 2455:0.25332096 2461:0.083227105 2530:0.12140911 2537:0.086866744 #
-0.45575547139775846039455586833355 11:0.24669501 375:0.46971065 917:0.43988621 2136:0.50498545 2378:0.19359811 2456:0.32011709 2537:0.27994388 2607:0.22733128 #
-0.27538313758595589497701894288184 61:0.31441265 352:0.14283769 492:0.15946503 713:0.095010549 1241:0.52552688 1266:0.169415 1446:0.31441265 1484:0.31441265 1748:0.1944869 1921:0.31441265 2187:0.31441265 2245:0.23255059 2792:0.23255059 #
0.99999999999272404238581657409668 246:0.51070851 315:0.20077141 523:0.35160097 682:0.22889024 1270:0.26381677 1662:0.19249338 2284:0.26381677 2690:0.2928791 2768:0.51070851 #
0.99999999999272404238581657409668 1553:0.70710677 2473:0.70710677 #
0.99999999999272404238581657409668 1:0.036657859 10:0.015069711 12:0.036657859 13:0.036657859 21:0.036657859 26:0.039393313 36:0.061271995 44:0.081340306 76:0.061271995 77:0.024614137 89:0.036657859 97:0.021091573 100:0.036657859 104:0.013131104 111:0.030635998 120:0.036657859 124:0.036657859 138:0.027113436 143:0.068026587 155:0.036657859 157:0.027113436 165:0.11337765 171:0.027113436 172:0.036657859 173:0.042183146 174:0.021091573 179:0.036657859 180:0.036657859 184:0.0098037794 188:0.036657859 196:0.084366292 198:0.031651281 199:0.024614137 204:0.022154855 209:0.061271995 216:0.036657859 224:0.061271995 233:0.011547148 240:0.098456547 242:0.013131104 244:0.017569009 252:0.036657859 253:0.036657859 256:0.02746099 257:0.012570413 263:0.036657859 267:0.041191485 283:0.027113436 288:0.036657859 289:0.045351058 291:0.036657859 297:0.036657859 301:0.024614137 307:0.036657859 308:0.024614137 309:0.013131104 311:0.036657859 313:0.014374323 314:0.036657859 315:0.012043724 317:0.036657859 329:0.13248096 331:0.030635998 351:0.022675529 353:0.036657859 355:0.036657859 362:0.063274719 363:0.036657859 369:0.036657859 379:0.073842406 381:0.036657859 382:0.027113436 383:0.030635998 391:0.036657859 398:0.019752357 404:0.03613117 413:0.036657859 414:0.036657859 420:0.061271995 422:0.013131104 427:0.061271995 429:0.030635998 434:0.030635998 438:0.036657859 451:0.030635998 452:0.036657859 453:0.036657859 471:0.024614137 486:0.036657859 490:0.036657859 492:0.018592274 494:0.036657859 506:0.036657859 516:0.061271995 520:0.036657859 527:0.036657859 531:0.036657859 534:0.027113436 535:0.036657859 537:0.027113436 541:0.036657859 551:0.036657859 557:0.036657859 558:0.036657859 565:0.014374323 567:0.027113436 568:0.012570413 578:0.015069711 579:0.036657859 586:0.022675529 589:0.036657859 601:0.1382665 602:0.022675529 607:0.036657859 612:0.036657859 616:0.068026587 626:0.022675529 628:0.098456547 632:0.036657859 634:0.036657859 650:0.036657859 652:0.030635998 659:0.030139422 664:0.061271995 665:0.036657859 671:0.081340306 673:0.036657859 683:0.022675529 689:0.036657859 690:0.022675529 695:0.061271995 701:0.036657859 703:0.036657859 725:0.061271995 733:0.036657859 735:0.036657859 757:0.036657859 758:0.013730495 767:0.036657859 769:0.084366292 773:0.036657859 792:0.036657859 793:0.036657859 799:0.030635998 804:0.027113436 810:0.030635998 832:0.036657859 841:0.036657859 845:0.021091573 846:0.036657859 850:0.027113436 853:0.061271995 855:0.036657859 857:0.015069711 865:0.036657859 869:0.039504714 876:0.027113436 879:0.036657859 883:0.036657859 887:0.036657859 893:0.061271995 899:0.061271995 904:0.019752357 912:0.036657859 913:0.030635998 915:0.03613117 916:0.061271995 924:0.063302562 925:0.061271995 945:0.030635998 949:0.036657859 952:0.027113436 958:0.036657859 962:0.042183146 963:0.022675529 977:0.021091573 980:0.036657859 991:0.061271995 994:0.027113436 996:0.036657859 997:0.027113436 1005:0.036657859 1018:0.036657859 1032:0.036657859 1036:0.036657859 1042:0.030635998 1046:0.036657859 1049:0.036657859 1059:0.026262209 1071:0.049228273 1086:0.036657859 1096:0.024614137 1105:0.030635998 1110:0.036657859 1113:0.061271995 1131:0.030635998 1132:0.036657859 1133:0.030635998 1136:0.027113436 1141:0.017569009 1155:0.045209132 1166:0.051039658 1178:0.090702116 1181:0.036657859 1184:0.030635998 1187:0.036657859 1197:0.01582564 1202:0.036657859 1203:0.036657859 1206:0.081340306 1212:0.036657859 1217:0.030635998 1236:0.036657859 1239:0.049228273 1245:0.031651281 1247:0.061271995 1249:0.036657859 1250:0.036657859 1251:0.036657859 1265:0.035138018 1266:0.039504714 1270:0.031651281 1273:0.061271995 1274:0.16476594 1277:0.036657859 1283:0.1382665 1285:0.036657859 1286:0.036657859 1288:0.036657859 1292:0.027113436 1297:0.030635998 1302:0.036657859 1318:0.036657859 1320:0.036657859 1324:0.061271995 1336:0.036657859 1338:0.042527225 1340:0.036657859 1346:0.099922009 1347:0.036657859 1362:0.1356274 1371:0.036657859 1380:0.030635998 1381:0.036657859 1384:0.096113466 1401:0.027113436 1403:0.036657859 1407:0.035138018 1414:0.036657859 1433:0.036657859 1438:0.019752357 1441:0.022675529 1451:0.061271995 1453:0.036657859 1459:0.022154855 1469:0.036657859 1470:0.036657859 1471:0.030635998 1483:0.061271995 1485:0.036657859 1487:0.12936892 1491:0.036657859 1492:0.036657859 1505:0.030635998 1508:0.013730495 1509:0.054226872 1510:0.036657859 1511:0.027113436 1530:0.054226872 1531:0.036657859 1532:0.027113436 1535:0.098456547 1542:0.036657859 1547:0.027113436 1557:0.036657859 1572:0.036657859 1577:0.036657859 1584:0.031651281 1585:0.054226872 1590:0.017569009 1597:0.094953842 1599:0.036657859 1605:0.054226872 1610:0.036657859 1613:0.014374323 1615:0.036657859 1618:0.036657859 1619:0.027113436 1622:0.036657859 1623:0.036657859 1627:0.036657859 1632:0.027113436 1633:0.036657859 1640:0.036657859 1641:0.01582564 1644:0.036657859 1648:0.027113436 1655:0.068026587 1657:0.036657859 1660:0.036657859 1661:0.049018897 1666:0.024614137 1670:0.013730495 1676:0.036657859 1680:0.055776823 1683:0.036657859 1685:0.021091573 1686:0.036657859 1687:0.033232283 1690:0.013730495 1693:0.036657859 1706:0.036657859 1717:0.036657859 1719:0.036657859 1729:0.061271995 1743:0.027113436 1750:0.036657859 1752:0.014374323 1754:0.022675529 1763:0.036657859 1768:0.036657859 1772:0.036657859 1776:0.036657859 1777:0.018592274 1779:0.0083524613 1784:0.036657859 1793:0.036657859 1801:0.036657859 1805:0.061271995 1810:0.061271995 1819:0.036657859 1824:0.036657859 1826:0.061271995 1829:0.027113436 1849:0.027113436 1852:0.045351058 1854:0.036657859 1866:0.036657859 1868:0.036657859 1879:0.036657859 1880:0.0098037794 1897:0.049961004 1898:0.088619418 1906:0.036657859 1907:0.036657859 1909:0.015069711 1913:0.036657859 1919:0.022675529 1925:0.036657859 1935:0.061271995 1940:0.036657859 1949:0.024614137 1950:0.061271995 1953:0.055776823 1957:0.036657859 1971:0.036657859 1972:0.036657859 1975:0.036657859 1980:0.022675529 1991:0.027113436 1994:0.054226872 2003:0.031651281 2008:0.061271995 2019:0.019752357 2022:0.036657859 2028:0.036657859 2029:0.073842406 2033:0.030635998 2035:0.036657859 2040:0.036657859 2046:0.036657859 2054:0.020415863 2055:0.036657859 2060:0.036657859 2062:0.036657859 2064:0.036657859 2068:0.021091573 2070:0.036657859 2071:0.027113436 2074:0.036657859 2075:0.036657859 2085:0.036657859 2089:0.036657859 2094:0.036657859 2095:0.049228273 2096:0.037184548 2103:0.036657859 2108:0.036657859 2124:0.036657859 2128:0.030635998 2134:0.036657859 2136:0.022675529 2140:0.024614137 2142:0.019752357 2148:0.036657859 2155:0.013730495 2156:0.036657859 2166:0.021091573 2167:0.019752357 2168:0.036657859 2172:0.036657859 2176:0.036657859 2182:0.036657859 2192:0.021091573 2206:0.036657859 2209:0.098456547 2213:0.022675529 2218:0.011077427 2220:0.049228273 2223:0.036657859 2226:0.030635998 2235:0.030635998 2236:0.036657859 2246:0.036657859 2248:0.036657859 2252:0.036657859 2253:0.022675529 2256:0.0098037794 2260:0.036657859 2261:0.036657859 2264:0.017569009 2265:0.036657859 2272:0.036657859 2274:0.027113436 2277:0.036657859 2282:0.021091573 2287:0.036657859 2290:0.030635998 2295:0.036657859 2296:0.036657859 2300:0.049228273 2301:0.045351058 2302:0.018592274 2303:0.036657859 2304:0.036657859 2306:0.030635998 2308:0.036657859 2311:0.036657859 2317:0.036657859 2332:0.033307336 2333:0.081340306 2338:0.027113436 2340:0.036657859 2343:0.012043724 2349:0.017569009 2352:0.039504714 2353:0.036657859 2360:0.054226872 2369:0.081340306 2372:0.063274719 2377:0.022675529 2394:0.012043724 2395:0.036657859 2405:0.036657859 2414:0.054226872 2419:0.090702116 2423:0.036657859 2427:0.036657859 2429:0.030635998 2434:0.030635998 2438:0.024614137 2445:0.036657859 2446:0.036657859 2450:0.036657859 2451:0.036657859 2458:0.063274719 2463:0.033307336 2476:0.036657859 2479:0.018592274 2484:0.036657859 2487:0.027113436 2489:0.036657859 2492:0.081340306 2494:0.036657859 2498:0.036657859 2504:0.036657859 2506:0.016653668 2511:0.022675529 2515:0.081340306 2520:0.036657859 2522:0.027113436 2526:0.030635998 2527:0.036657859 2537:0.012570413 2543:0.024614137 2548:0.036657859 2549:0.036657859 2552:0.036657859 2567:0.061271995 2569:0.068026587 2572:0.01582564 2573:0.027113436 2576:0.030635998 2581:0.027113436 2582:0.036657859 2584:0.02746099 2587:0.036657859 2588:0.036657859 2594:0.036657859 2596:0.036657859 2603:0.030635998 2605:0.036657859 2611:0.036657859 2617:0.036657859 2620:0.02746099 2625:0.036657859 2626:0.030635998 2629:0.021091573 2633:0.036657859 2641:0.036657859 2647:0.036657859 2653:0.036657859 2658:0.098761782 2659:0.030635998 2669:0.061271995 2671:0.036657859 2672:0.022675529 2674:0.025140826 2680:0.030635998 2682:0.027113436 2684:0.024614137 2688:0.0090478491 2689:0.036657859 2696:0.036657859 2699:0.01582564 2707:0.036657859 2712:0.030635998 2716:0.036657859 2721:0.030635998 2722:0.036657859 2726:0.036657859 2727:0.0083524613 2729:0.036657859 2731:0.036657859 2738:0.036657859 2743:0.036657859 2744:0.045351058 2750:0.036657859 2751:0.036657859 2752:0.036657859 2753:0.061271995 2755:0.036657859 2756:0.036657859 2757:0.027113436 2758:0.036657859 2769:0.036657859 2782:0.036657859 2789:0.022675529 2797:0.036657859 2801:0.036657859 2803:0.036657859 #
0.99999999999272404238581657409668 31:0.041686673 43:0.031804111 45:0.044513043 48:0.027712747 67:0.07736516 83:0.037078794 88:0.041686673 94:0.07736516 96:0.044513043 97:0.044513043 98:0.057221975 149:0.047855929 153:0.07736516 156:0.11444395 184:0.02069054 196:0.044513043 199:0.051947292 204:0.070135593 215:0.14356779 231:0.057221975 234:0.063608222 237:0.07736516 243:0.07736516 249:0.030336518 271:0.041686673 276:0.047855929 285:0.051947292 289:0.047855929 315:0.025417866 316:0.044513043 330:0.064656228 333:0.057221975 337:0.07736516 351:0.047855929 361:0.11771508 372:0.07736516 375:0.044513043 379:0.051947292 398:0.083373345 401:0.07736516 406:0.041686673 422:0.027712747 424:0.07736516 425:0.057221975 458:0.039751023 474:0.051947292 484:0.11123638 519:0.07736516 554:0.057221975 565:0.030336518 578:0.063608222 599:0.15695344 618:0.047855929 651:0.047855929 653:0.089026086 660:0.047855929 669:0.057221975 682:0.086933218 684:0.089752249 685:0.07736516 690:0.047855929 766:0.041686673 779:0.035146996 795:0.10771745 799:0.064656228 802:0.07736516 830:0.037078794 838:0.047855929 856:0.051947292 869:0.041686673 888:0.035146996 913:0.064656228 920:0.064656228 939:0.02069054 975:0.07736516 984:0.044876125 990:0.07736516 1003:0.07736516 1025:0.03923836 1030:0.07736516 1087:0.057221975 1100:0.02436986 1107:0.03923836 1121:0.07736516 1125:0.07736516 1151:0.02436986 1158:0.07736516 1166:0.086173959 1179:0.047855929 1188:0.057221975 1189:0.07736516 1192:0.07736516 1197:0.033399474 1209:0.12931246 1261:0.07736516 1265:0.037078794 1272:0.12931246 1275:0.07736516 1321:0.07736516 1326:0.047855929 1327:0.044513043 1332:0.064656228 1338:0.022438062 1363:0.035255168 1377:0.044513043 1389:0.051947292 1405:0.14356779 1450:0.057221975 1459:0.046757061 1461:0.047855929 1471:0.064656228 1508:0.028977739 1517:0.07736516 1528:0.09100955 1545:0.07736516 1553:0.037078794 1556:0.064656228 1559:0.07736516 1602:0.041686673 1637:0.07736516 1647:0.026529426 1669:0.047855929 1670:0.057955477 1703:0.07736516 1711:0.051947292 1713:0.064656228 1731:0.07736516 1743:0.11444395 1744:0.066798948 1792:0.07736516 1847:0.17166592 1882:0.12931246 1920:0.064656228 1958:0.044513043 1960:0.047855929 1968:0.047855929 1974:0.07736516 1979:0.057221975 2020:0.035146996 2076:0.089026086 2109:0.064656228 2111:0.03923836 2147:0.057221975 2152:0.07736516 2164:0.07736516 2188:0.041686673 2202:0.033399474 2218:0.16364972 2234:0.037078794 2242:0.047855929 2255:0.11444395 2256:0.28966755 2266:0.044513043 2282:0.044513043 2302:0.15695344 2306:0.064656228 2318:0.07736516 2326:0.03923836 2332:0.035146996 2342:0.07736516 2343:0.025417866 2360:0.057221975 2399:0.07736516 2410:0.031804111 2414:0.057221975 2422:0.07736516 2424:0.037078794 2456:0.060673036 2462:0.14621916 2467:0.051947292 2473:0.074157588 2486:0.064656228 2543:0.051947292 2550:0.07736516 2553:0.063608222 2561:0.12931246 2562:0.07736516 2573:0.11444395 2607:0.02154349 2620:0.086933218 2629:0.044513043 2630:0.037078794 2660:0.07736516 2674:0.053058852 2688:0.019095177 2699:0.066798948 2704:0.083138242 2727:0.017627584 2789:0.047855929 #
0.99999999999272404238581657409668 375:0.44305724 1362:0.31655982 2045:0.77004832 2284:0.33243915 #
-0.82740134895596273434392742274213 45:0.082389168 48:0.051293507 71:0.14319512 74:0.14319512 86:0.14319512 117:0.31773636 149:0.088576511 198:0.12363813 204:0.086542621 234:0.05886621 242:0.051293507 256:0.053634882 324:0.19229843 398:0.07715784 458:0.036787573 467:0.14319512 476:0.14319512 484:0.13725823 517:0.043271311 578:0.05886621 599:0.072626255 646:0.14319512 648:0.082389168 651:0.088576511 660:0.088576511 684:0.16612239 690:0.088576511 760:0.11967217 787:0.14319512 915:0.047045916 924:0.12363813 943:0.082389168 1194:0.14319512 1222:0.11773242 1252:0.088576511 1267:0.11967217 1338:0.041530598 1341:0.082389168 1363:0.032626886 1461:0.088576511 1553:0.20588735 1555:0.14319512 1585:0.10591213 1590:0.27451646 1613:0.056149844 1669:0.088576511 1844:0.11967217 1958:0.082389168 1960:0.088576511 2111:0.072626255 2188:0.07715784 2256:0.11488833 2463:0.1301071 2473:0.34314558 2512:0.19229843 2553:0.11773242 2607:0.039874833 2620:0.053634882 2627:0.14319512 2634:0.14319512 2727:0.097880654 2775:0.088576511 #
-0.46196532272097001747823696859996 2029:0.79794639 2302:0.60272837 #
-0.2864105517819370838594750239281 5:0.058371335 10:0.047991846 24:0.058371335 30:0.10832064 31:0.031452227 34:0.048782557 38:0.048782557 43:0.095983692 45:0.033584699 48:0.041818049 50:0.048782557 121:0.059209995 134:0.036773693 149:0.036106881 161:0.058371335 178:0.1007541 187:0.048782557 189:0.072213762 198:0.075598828 202:0.048782557 203:0.048782557 204:0.035277795 211:0.048782557 234:0.095983692 241:0.048782557 242:0.062727071 248:0.039193776 249:0.022888636 259:0.039193776 267:0.065590352 271:0.031452227 276:0.036106881 277:0.048782557 281:0.048782557 285:0.078387551 286:0.058371335 287:0.058371335 293:0.067169398 299:0.067169398 302:0.017638898 309:0.083636098 313:0.11444318 315:0.038355116 316:0.067169398 323:0.048782557 327:0.048782557 335:0.039193776 336:0.058371335 356:0.048782557 383:0.048782557 384:0.058371335 386:0.048782557 387:0.048782557 396:0.048782557 398:0.031452227 404:0.019177558 458:0.0299918 464:0.031452227 469:0.048782557 474:0.039193776 487:0.053036202 501:0.021863451 511:0.058371335 533:0.097565114 544:0.048782557 556:0.038355116 560:0.11444318 577:0.036106881 588:0.078387551 594:0.053036202 599:0.029604997 600:0.048782557 602:0.10832064 625:0.048782557 651:0.036106881 660:0.036106881 663:0.029604997 677:0.062904455 678:0.12952045 684:0.067717291 707:0.023995923 713:0.052916691 745:0.022888636 751:0.048782557 759:0.039193776 760:0.048782557 795:0.016254375 805:0.087453805 808:0.036106881 811:0.078387551 815:0.048782557 823:0.039193776 825:0.027975624 838:0.072213762 848:0.048782557 850:0.043173481 857:0.047991846 892:0.048782557 897:0.025199611 908:0.058371335 922:0.043173481 933:0.1661091 934:0.048782557 939:0.015610831 972:0.043173481 1002:0.097565114 1023:0.048782557 1024:0.048782557 1025:0.029604997 1040:0.058371335 1054:0.033584699 1063:0.058371335 1068:0.058371335 1069:0.094356686 1073:0.058371335 1083:0.039193776 1099:0.067169398 1100:0.036773693 1107:0.029604997 1122:0.029604997 1127:0.048782557 1141:0.027975624 1161:0.058371335 1167:0.048782557 1168:0.058371335 1185:0.048782557 1226:0.048782557 1227:0.048782557 1229:0.043173481 1235:0.048782557 1239:0.039193776 1254:0.048782557 1265:0.027975624 1269:0.048782557 1274:0.021863451 1278:0.048782557 1284:0.058371335 1289:0.072213762 1294:0.048782557 1295:0.036106881 1307:0.048782557 1319:0.058371335 1326:0.036106881 1328:0.043173481 1338:0.016929323 1344:0.058371335 1352:0.1567751 1353:0.058371335 1363:0.053199433 1378:0.058371335 1385:0.083926871 1387:0.10832064 1406:0.048782557 1407:0.027975624 1409:0.058371335 1426:0.048782557 1436:0.055951249 1441:0.036106881 1459:0.07055559 1461:0.036106881 1473:0.078387551 1474:0.036106881 1477:0.048782557 1501:0.043173481 1507:0.048782557 1508:0.043726902 1512:0.048782557 1515:0.048782557 1519:0.058371335 1523:0.097565114 1528:0.045777272 1529:0.043173481 1537:0.058371335 1544:0.048782557 1584:0.025199611 1590:0.027975624 1597:0.075598828 1601:0.020909024 1607:0.043173481 1611:0.043173481 1613:0.045777272 1617:0.048782557 1639:0.048782557 1645:0.048782557 1661:0.031221662 1662:0.14709477 1665:0.043173481 1669:0.036106881 1678:0.058371335 1688:0.058371335 1694:0.058371335 1702:0.048782557 1711:0.039193776 1718:0.048782557 1721:0.094356686 1722:0.058371335 1723:0.043173481 1739:0.058371335 1744:0.10079844 1753:0.043173481 1758:0.048782557 1767:0.097565114 1777:0.029604997 1785:0.027975624 1789:0.036106881 1806:0.048782557 1811:0.058371335 1816:0.048782557 1827:0.048782557 1831:0.036106881 1835:0.072213762 1841:0.058371335 1843:0.072213762 1846:0.043173481 1888:0.043173481 1895:0.048782557 1926:0.058371335 1951:0.043173481 1955:0.048782557 1963:0.043173481 1968:0.036106881 2000:0.043173481 2004:0.076710232 2016:0.036106881 2020:0.079554304 2023:0.048782557 2042:0.031452227 2051:0.058371335 2052:0.058371335 2079:0.058371335 2092:0.058371335 2112:0.078387551 2121:0.048782557 2122:0.039193776 2142:0.031452227 2147:0.043173481 2155:0.021863451 2160:0.058371335 2169:0.1007541 2177:0.048782557 2188:0.031452227 2192:0.067169398 2202:0.025199611 2205:0.058371335 2207:0.033584699 2211:0.033584699 2216:0.079554304 2220:0.039193776 2222:0.043173481 2232:0.048782557 2242:0.036106881 2253:0.036106881 2256:0.015610831 2258:0.058371335 2263:0.078387551 2266:0.033584699 2270:0.048782557 2297:0.048782557 2300:0.039193776 2302:0.029604997 2315:0.048782557 2329:0.048782557 2332:0.026518101 2336:0.036106881 2341:0.058371335 2347:0.078387551 2352:0.062904455 2372:0.033584699 2377:0.036106881 2378:0.027684849 2386:0.048782557 2389:0.031452227 2394:0.019177558 2397:0.022888636 2400:0.048782557 2408:0.10832064 2432:0.058371335 2435:0.043173481 2437:0.048782557 2442:0.048782557 2443:0.067717291 2457:0.048782557 2458:0.033584699 2463:0.053036202 2468:0.048782557 2470:0.11758133 2471:0.048782557 2481:0.036106881 2487:0.043173481 2493:0.058371335 2503:0.043173481 2506:0.026518101 2525:0.048782557 2553:0.047991846 2555:0.058371335 2560:0.067169398 2572:0.050399221 2579:0.048782557 2580:0.0149959 2586:0.031452227 2590:0.048782557 2599:0.039193776 2602:0.039193776 2620:0.021863451 2630:0.027975624 2652:0.078387551 2656:0.039193776 2663:0.058371335 2665:0.067169398 2668:0.058371335 2675:0.043173481 2684:0.039193776 2688:0.014407143 2713:0.043173481 2719:0.067169398 2727:0.013299858 2780:0.043173481 2799:0.072213762 2804:0.058371335 #
-0.23209316695063697544298975117272 26:0.056617524 43:0.064976238 45:0.090940759 99:0.11690529 104:0.11323505 116:0.15805809 149:0.097770326 160:0.075752489 204:0.047762662 234:0.064976238 301:0.10612904 315:0.051929053 348:0.097770326 351:0.097770326 398:0.085166447 441:0.13209356 458:0.040605944 495:0.13209356 517:0.047762662 528:0.15805809 599:0.080164507 651:0.097770326 660:0.097770326 684:0.18336509 690:0.097770326 741:0.15150498 816:0.15805809 845:0.27282229 939:0.042271059 965:0.13209356 1001:0.33970514 1055:0.097770326 1083:0.10612904 1107:0.080164507 1141:0.075752489 1151:0.049787961 1153:0.15805809 1252:0.097770326 1325:0.15805809 1327:0.090940759 1338:0.045841273 1372:0.15805809 1435:0.15805809 1461:0.097770326 1477:0.13209356 1528:0.12395585 1560:0.1436116 1649:0.075752489 1662:0.099575922 1669:0.097770326 1681:0.036013398 1721:0.085166447 1726:0.071805798 1752:0.061977923 1965:0.15805809 2003:0.068235584 2006:0.13209356 2030:0.15805809 2188:0.085166447 2280:0.15805809 2284:0.068235584 2357:0.097770326 2378:0.074965127 2439:0.15805809 2470:0.10612904 2500:0.15805809 2553:0.12995248 2584:0.059201922 2607:0.044013645 2688:0.039011709 2727:0.036013398 2754:0.097770326 #
-0.18834590746665375027291133847029 26:0.046711456 30:0.080663964 45:0.075029336 69:0.1304035 83:0.12499695 92:0.1304035 143:0.16132793 149:0.080663964 174:0.075029336 191:0.080663964 234:0.053607687 269:0.1304035 302:0.039405882 325:0.096450984 338:0.075029336 345:0.1304035 374:0.1304035 385:0.053607687 398:0.070265323 406:0.070265323 412:0.096450984 430:0.080663964 455:0.1304035 458:0.033501338 471:0.087560199 479:0.1304035 517:0.039405882 599:0.066138551 614:0.080663964 651:0.080663964 660:0.080663964 684:0.15128267 715:0.096450984 743:0.062498473 745:0.051133975 837:0.1304035 915:0.042843301 948:0.1304035 979:0.087560199 1022:0.046711456 1024:0.10898185 1100:0.041076824 1107:0.066138551 1133:0.10898185 1151:0.082153648 1166:0.036312811 1171:0.1304035 1179:0.080663964 1182:0.1751204 1243:0.087560199 1268:0.096450984 1338:0.037820667 1363:0.029712323 1443:0.080663964 1461:0.080663964 1514:0.067002676 1541:0.1304035 1593:0.10898185 1613:0.051133975 1632:0.19290197 1669:0.080663964 1681:0.029712323 1687:0.11821765 1709:0.1304035 1735:0.19290197 1744:0.056296766 1749:0.093422912 1760:0.1304035 1777:0.066138551 1779:0.029712323 1785:0.062498473 1821:0.096450984 1830:0.066138551 1865:0.1304035 1876:0.051133975 1923:0.075029336 1934:0.062498473 1990:0.1304035 2020:0.059242316 2044:0.1304035 2137:0.1304035 2188:0.070265323 2214:0.096450984 2244:0.10898185 2309:0.1304035 2321:0.087560199 2325:0.096450984 2334:0.1304035 2392:0.1304035 2394:0.085686602 2424:0.062498473 2426:0.10898185 2438:0.1751204 2440:0.062498473 2475:0.096450984 2553:0.10721537 2607:0.10893843 2613:0.10898185 2727:0.029712323 2733:0.1304035 2784:0.1304035 #
0.99999999999272404238581657409668 197:0.32946572 559:0.39422604 577:0.24385723 857:0.16206272 1232:0.29158336 1280:0.42484167 1726:0.17909692 2100:0.29158336 2151:0.39422604 2218:0.1191289 2435:0.29158336 2443:0.11433659 #
0.99999999999272404238581657409668 301:0.28215602 347:0.35118565 523:0.24177627 738:0.31080592 939:0.11238238 1088:0.42021528 1252:0.25993344 1528:0.16477531 1960:0.25993344 2218:0.12698244 2234:0.20139654 2266:0.48355255 #
0.99999999999272404238581657409668 562:0.61118495 939:0.16345532 1363:0.13925797 1514:0.15701661 1661:0.16345532 1934:0.29292259 2284:0.26385593 2770:0.61118495 #
-0.3277391069768108011750484820368 134:0.13121478 835:0.34812889 939:0.1114042 1641:0.17983298 1690:0.15602501 1749:0.1492139 2001:0.41655767 2086:0.23967183 2217:0.41655767 2316:0.30810061 2570:0.41655767 2690:0.19964357 2798:0.23967183 #
-0.212992194755167008057838984314 17:0.07792455 26:0.041571047 37:0.13040587 48:0.041571047 104:0.041571047 134:0.036556482 160:0.055620767 173:0.066772655 184:0.062074497 220:0.11605311 223:0.071787223 229:0.071787223 256:0.043468624 285:0.07792455 295:0.07792455 296:0.07792455 298:0.071787223 302:0.035069421 303:0.096988834 306:0.071787223 377:0.11605311 393:0.062532909 394:0.033658653 399:0.071787223 422:0.041571047 446:0.038128566 458:0.029814649 465:0.11605311 577:0.071787223 595:0.070138842 597:0.066772655 605:0.11605311 648:0.066772655 656:0.033658653 658:0.11605311 682:0.086937249 686:0.08583694 687:0.07792455 698:0.08583694 700:0.07792455 705:0.05010153 706:0.07792455 713:0.035069421 750:0.07792455 761:0.08583694 795:0.032316733 812:0.096988834 857:0.047708374 871:0.052722938 882:0.058860265 884:0.11605311 897:0.05010153 928:0.11605311 955:0.13354531 977:0.066772655 982:0.096988834 984:0.033658653 1013:0.08583694 1022:0.041571047 1025:0.058860265 1041:0.071787223 1054:0.066772655 1064:0.066772655 1106:0.055620767 1130:0.11605311 1137:0.05010153 1155:0.047708374 1160:0.14312512 1180:0.11772053 1208:0.096988834 1240:0.058860265 1248:0.07792455 1281:0.071787223 1304:0.08583694 1323:0.08583694 1388:0.11124153 1394:0.08583694 1402:0.08583694 1404:0.066772655 1508:0.086937249 1514:0.089443944 1516:0.07792455 1558:0.11605311 1564:0.07792455 1579:0.052722938 1589:0.08583694 1597:0.05010153 1602:0.062532909 1613:0.045506883 1631:0.066772655 1647:0.079591967 1681:0.0264426 1685:0.066772655 1720:0.041571047 1751:0.08583694 1752:0.045506883 1754:0.071787223 1779:0.0264426 1789:0.071787223 1809:0.07792455 1813:0.13354531 1815:0.071787223 1848:0.062532909 1853:0.08583694 1856:0.096988834 1872:0.062532909 1874:0.11772053 1876:0.091013767 1877:0.11772053 1883:0.035069421 1909:0.047708374 1923:0.066772655 1932:0.07792455 1944:0.08583694 1949:0.07792455 2004:0.076257132 2010:0.08583694 2042:0.062532909 2066:0.062532909 2084:0.15816881 2123:0.071787223 2142:0.12506582 2167:0.062532909 2203:0.08583694 2247:0.08583694 2254:0.062532909 2375:0.096988834 2394:0.038128566 2409:0.07792455 2421:0.07792455 2424:0.055620767 2472:0.23377365 2478:0.047708374 2509:0.08583694 2511:0.071787223 2544:0.058860265 2569:0.071787223 2586:0.12506582 2595:0.11605311 2621:0.11605311 2631:0.05010153 2678:0.08583694 2690:0.055620767 2695:0.11605311 2720:0.071787223 2772:0.058860265 2775:0.071787223 2794:0.07792455 2795:0.096988834 2800:0.08583694 #
-0.28487320764207613166263399762101 9:0.21633869 162:0.21633869 276:0.13382109 290:0.21633869 458:0.055578537 631:0.21633869 796:0.21633869 870:0.21633869 1025:0.10972349 1070:0.21633869 1218:0.21633869 1329:0.21633869 1374:0.21633869 1499:0.21633869 1626:0.21633869 1795:0.21633869 1905:0.21633869 1954:0.21633869 1968:0.13382109 2186:0.21633869 2256:0.057857625 2307:0.21633869 2332:0.09828268 2483:0.21633869 2600:0.21633869 2735:0.21633869 #
-0.28425336253083788307094437186606 50:0.29771811 712:0.35623807 889:0.35623807 891:0.22035892 1239:0.23919815 1240:0.18067819 1605:0.26348612 1749:0.12760699 2080:0.35623807 2572:0.15379228 2659:0.29771811 2777:0.44071785 #
-0.2082005812614911299807118894023 32:0.064927191 64:0.087720521 87:0.087720521 114:0.087720521 171:0.038817156 174:0.030195912 184:0.014035655 226:0.070478037 227:0.087720521 231:0.077634312 239:0.087720521 249:0.041158222 255:0.070478037 265:0.087720521 283:0.077634312 294:0.087720521 338:0.060391825 350:0.050305616 359:0.070478037 380:0.087720521 390:0.087720521 402:0.070478037 408:0.016531562 435:0.087720521 445:0.017242489 472:0.026617773 475:0.060391825 489:0.087720521 491:0.087720521 498:0.016531562 549:0.087720521 553:0.026617773 576:0.052481506 596:0.087720521 606:0.052481506 616:0.032463595 633:0.087720521 656:0.015221107 670:0.087720521 704:0.087720521 724:0.070478037 727:0.087720521 741:0.025152808 744:0.087720521 749:0.070478037 753:0.087720521 755:0.070478037 765:0.087720521 782:0.077634312 821:0.087720521 864:0.070478037 873:0.087720521 874:0.087720521 909:0.12078365 931:0.087720521 937:0.15970664 962:0.060391825 1016:0.087720521 1078:0.070478037 1104:0.070478037 1111:0.087720521 1120:0.028278613 1137:0.022656901 1144:0.017242489 1179:0.032463595 1207:0.087720521 1214:0.087720521 1233:0.087720521 1234:0.087720521 1253:0.077634312 1256:0.087720521 1260:0.077634312 1331:0.087720521 1370:0.087720521 1376:0.087720521 1395:0.087720521 1399:0.087720521 1424:0.087720521 1468:0.10787334 1493:0.017242489 1496:0.087720521 1511:0.077634312 1513:0.087720521 1527:0.052481506 1533:0.087720521 1536:0.070478037 1540:0.077634312 1549:0.087720521 1554:0.019657368 1579:0.023842352 1581:0.087720521 1595:0.087720521 1606:0.087720521 1612:0.070478037 1624:0.087720521 1625:0.087720521 1654:0.060391825 1672:0.087720521 1674:0.15970664 1681:0.035873596 1698:0.070478037 1730:0.087720521 1738:0.087720521 1765:0.077634312 1770:0.087720521 1781:0.030195912 1783:0.052481506 1825:0.087720521 1831:0.032463595 1855:0.087720521 1857:0.070478037 1863:0.087720521 1880:0.014035655 1883:0.015859084 1900:0.070478037 1910:0.070478037 1916:0.04386026 1917:0.087720521 1929:0.1359414 1939:0.087720521 1945:0.11311445 1946:0.070478037 1952:0.087720521 1959:0.087720521 1961:0.087720521 1978:0.052481506 1997:0.032463595 2012:0.087720521 2017:0.087720521 2031:0.070478037 2056:0.087720521 2068:0.030195912 2071:0.077634312 2087:0.087720521 2088:0.087720521 2097:0.087720521 2119:0.087720521 2144:0.025152808 2149:0.087720521 2173:0.087720521 2174:0.087720521 2198:0.070478037 2199:0.087720521 2229:0.095369406 2238:0.070478037 2241:0.087720521 2243:0.087720521 2249:0.052481506 2257:0.087720521 2294:0.087720521 2319:0.087720521 2335:0.087720521 2343:0.017242489 2358:0.087720521 2461:0.017242489 2478:0.021574667 2480:0.087720521 2519:0.087720521 2522:0.077634312 2630:0.10061123 2686:0.087720521 2698:0.087720521 2745:0.087720521 2748:0.077634312 2771:0.087720521 2772:0.026617773 2791:0.087720521 #
-0.25945161253624537955886353302049 28:0.14074638 184:0.045040037 233:0.053049337 242:0.12065255 302:0.05089137 305:0.076509461 403:0.14074638 446:0.055330679 582:0.1041748 594:0.076509461 618:0.1041748 622:0.085415706 731:0.14074638 758:0.18923989 834:0.14074638 886:0.1041748 986:0.085415706 998:0.1041748 1079:0.1041748 1223:0.1245632 1334:0.085415706 1452:0.72643209 1691:0.28149277 1745:0.16841173 1803:0.080714673 1843:0.1041748 1889:0.16841173 1909:0.069232523 2192:0.096897863 2351:0.16841173 2443:0.097688235 2580:0.086531699 2620:0.12615992 #
-0.30382108391322631968378686906362 207:0.70710677 624:0.70710677 #
-0.24690967463988630625770781534811 233:0.15831205 292:0.42002127 346:0.50258136 1335:0.50258136 1983:0.54161185 #
-0.26724358464611225327800525519706 14:0.081409179 26:0.11664537 51:0.041289419 57:0.18063922 184:0.021772072 278:0.081409179 395:0.14051947 408:0.025643717 445:0.026746506 472:0.041289419 478:0.083657764 492:0.041289419 498:0.025643717 553:0.041289419 656:0.023610942 692:0.13607185 813:0.18063922 868:0.081409179 976:0.13607185 1029:0.068035923 1120:0.04386571 1122:0.16515768 1137:0.035145324 1140:0.081409179 1144:0.026746506 1238:0.42689443 1245:0.035145324 1258:0.081409179 1282:0.081409179 1300:0.18063922 1301:0.081409179 1350:0.13607185 1392:0.13607185 1457:0.13607185 1468:0.03346657 1493:0.026746506 1500:0.13607185 1503:0.050357446 1534:0.13607185 1539:0.13607185 1554:0.030492458 1579:0.036984194 1587:0.081409179 1588:0.13607185 1641:0.10543597 1652:0.18063922 1661:0.13063243 1680:0.12386826 1690:0.091477379 1781:0.046839822 1786:0.081409179 1859:0.068035923 1880:0.021772072 1883:0.024600571 1912:0.13607185 1962:0.14051947 2003:0.10543597 2083:0.081409179 2107:0.081409179 2144:0.03901697 2145:0.13607185 2290:0.068035923 2349:0.15606788 2364:0.13607185 2461:0.026746506 2465:0.081409179 2478:0.03346657 2479:0.28902593 2559:0.13607185 2584:0.091477379 2604:0.03346657 2694:0.081409179 2697:0.081409179 2703:0.13607185 2710:0.041289419 2740:0.14793678 2772:0.041289419 #
-0.22596157276921552403692317056993 242:0.11165631 574:0.31170884 593:0.31170884 621:0.31170884 830:0.14939266 891:0.19281438 964:0.1793457 1007:0.16795808 2011:0.23055075 2170:0.31170884 2262:0.26050377 2289:0.31170884 2508:0.23055075 2609:0.1793457 2618:0.31170884 2631:0.26913694 2688:0.076935604 #
-0.25966678077752919362453098983679 2:0.060677506 72:0.081978947 73:0.05285538 84:0.081978947 99:0.072552904 109:0.081978947 122:0.15856615 134:0.030899042 191:0.060677506 256:0.073482931 262:0.081978947 273:0.065865032 302:0.059284233 313:0.038464289 339:0.1102244 357:0.081978947 367:0.081978947 368:0.081978947 406:0.10571076 408:0.092697129 410:0.081978947 412:0.072552904 429:0.081978947 444:0.098092861 458:0.025200566 472:0.049751114 510:0.081978947 517:0.11856847 523:0.056438994 545:0.081978947 550:0.099502228 553:0.049751114 565:0.11539286 568:0.0336372 577:0.060677506 578:0.040325079 583:0.12135501 587:0.081978947 610:0.081978947 662:0.16395789 674:0.060677506 683:0.060677506 734:0.098092861 739:0.081978947 743:0.094025917 745:0.076928578 758:0.036741465 766:0.05285538 789:0.05285538 795:0.054630857 823:0.065865032 825:0.094025917 827:0.098092861 845:0.056438994 856:0.065865032 861:0.098092861 888:0.044563591 939:0.026233956 945:0.081978947 950:0.098092861 972:0.072552904 984:0.085349031 1004:0.098092861 1028:0.098092861 1059:0.035137556 1069:0.10571076 1092:0.072552904 1106:0.047012959 1129:0.081978947 1137:0.042347871 1151:0.061798085 1178:0.060677506 1179:0.060677506 1204:0.14925334 1243:0.065865032 1270:0.042347871 1299:0.081978947 1311:0.098092861 1317:0.098092861 1341:0.056438994 1357:0.042347871 1361:0.081978947 1363:0.022350373 1364:0.042347871 1404:0.056438994 1422:0.098092861 1425:0.065865032 1468:0.040325079 1474:0.060677506 1494:0.13173006 1495:0.081978947 1554:0.036741465 1567:0.065865032 1580:0.098092861 1598:0.098092861 1603:0.072552904 1646:0.081978947 1649:0.047012959 1663:0.065865032 1679:0.098092861 1681:0.022350373 1687:0.029642116 1699:0.18203253 1708:0.065865032 1718:0.081978947 1734:0.065865032 1736:0.081978947 1748:0.060677506 1761:0.081978947 1766:0.081978947 1777:0.049751114 1830:0.049751114 1849:0.072552904 1851:0.098092861 1864:0.13173006 1870:0.098092861 1875:0.065865032 1876:0.038464289 1880:0.026233956 1885:0.056438994 1914:0.098092861 1915:0.098092861 1942:0.098092861 1949:0.065865032 1987:0.05285538 1996:0.072552904 2058:0.080650158 2066:0.05285538 2091:0.098092861 2141:0.072552904 2144:0.047012959 2155:0.036741465 2159:0.072552904 2166:0.056438994 2171:0.029642116 2191:0.060677506 2211:0.056438994 2234:0.14103886 2284:0.084695742 2316:0.072552904 2326:0.049751114 2343:0.032227829 2378:0.046524309 2394:0.032227829 2410:0.040325079 2435:0.072552904 2456:0.038464289 2495:0.072552904 2501:0.10571076 2513:0.081978947 2532:0.094025917 2536:0.072552904 2571:0.072552904 2593:0.098092861 2630:0.047012959 2635:0.072552904 2657:0.065865032 2673:0.081978947 2690:0.047012959 2727:0.022350373 2730:0.098092861 2763:0.047012959 2766:0.065865032 2781:0.081978947 2787:0.098092861 #
-0.2327598623203006034110273958504 4:0.048093881 11:0.019649168 47:0.06502381 51:0.032979023 65:0.074824572 101:0.06502381 104:0.023291986 105:0.06502381 112:0.17724192 119:0.024355186 126:0.088620961 128:0.048093881 136:0.05434221 141:0.080443829 163:0.20110956 177:0.098937072 200:0.048710372 210:0.048093881 249:0.025497211 257:0.044594862 268:0.040221915 270:0.040221915 300:0.06502381 310:0.040221915 320:0.03503678 331:0.05434221 333:0.048093881 348:0.040221915 371:0.05434221 373:0.06502381 378:0.028071562 382:0.048093881 393:0.07007356 404:0.042726375 419:0.05434221 422:0.046583973 423:0.05434221 425:0.048093881 426:0.06502381 440:0.06502381 445:0.021363188 449:0.087321237 474:0.043660618 478:0.033409908 496:0.096187763 497:0.06502381 498:0.020482361 503:0.032979023 504:0.05434221 508:0.080443829 517:0.019649168 518:0.05434221 550:0.032979023 554:0.048093881 556:0.08545275 572:0.06502381 584:0.06502381 595:0.11789501 603:0.06502381 608:0.06502381 617:0.05434221 642:0.074824572 656:0.018858725 659:0.13365346 674:0.080443829 683:0.040221915 707:0.026730692 713:0.019649168 762:0.06502381 776:0.05434221 779:0.029540319 780:0.043660618 784:0.05434221 789:0.07007356 797:0.03503678 811:0.043660618 818:0.05434221 823:0.043660618 826:0.05434221 829:0.048093881 840:0.06502381 842:0.040221915 847:0.048093881 871:0.029540319 878:0.06502381 882:0.065958045 885:0.05434221 888:0.029540319 897:0.056143124 904:0.03503678 905:0.05434221 910:0.048093881 941:0.10868442 953:0.096187763 960:0.043660618 963:0.040221915 967:0.05434221 972:0.048093881 974:0.074824572 984:0.056576174 992:0.05434221 995:0.03503678 1014:0.05434221 1061:0.087321237 1074:0.048093881 1085:0.087321237 1099:0.037412286 1100:0.020482361 1103:0.043660618 1120:0.03503678 1136:0.048093881 1141:0.031163955 1144:0.021363188 1151:0.020482361 1155:0.026730692 1166:0.036213711 1174:0.048093881 1240:0.032979023 1246:0.048093881 1264:0.13098185 1265:0.031163955 1270:0.028071562 1291:0.12066574 1298:0.087321237 1308:0.05434221 1313:0.06502381 1315:0.040221915 1338:0.018858725 1346:0.029540319 1351:0.06502381 1357:0.084214687 1366:0.043660618 1384:0.073065564 1389:0.043660618 1397:0.048093881 1412:0.12066574 1415:0.05434221 1429:0.06502381 1431:0.098937072 1436:0.06232791 1459:0.039298337 1460:0.05434221 1462:0.05434221 1493:0.021363188 1514:0.050114863 1528:0.050994422 1547:0.048093881 1560:0.029540319 1562:0.05434221 1565:0.080443829 1573:0.05434221 1576:0.05434221 1578:0.03503678 1579:0.029540319 1584:0.028071562 1586:0.096187763 1600:0.048093881 1601:0.023291986 1603:0.048093881 1619:0.048093881 1621:0.048093881 1647:0.11148715 1654:0.037412286 1662:0.020482361 1670:0.048710372 1704:0.05434221 1712:0.05434221 1715:0.05434221 1716:0.032979023 1755:0.05434221 1779:0.014815617 1782:0.06502381 1797:0.06502381 1803:0.06232791 1817:0.13191609 1820:0.05434221 1822:0.05434221 1840:0.048093881 1842:0.05434221 1848:0.03503678 1872:0.03503678 1880:0.017389968 1883:0.019649168 1892:0.06502381 1893:0.037412286 1898:0.019649168 1909:0.026730692 1919:0.040221915 1934:0.06232791 1937:0.096187763 1953:0.032979023 1964:0.05434221 1967:0.031163955 1969:0.05434221 1988:0.06502381 1999:0.087321237 2000:0.048093881 2015:0.05434221 2048:0.048093881 2054:0.036213711 2058:0.080192074 2077:0.06502381 2082:0.05434221 2084:0.029540319 2115:0.06502381 2127:0.048093881 2129:0.026730692 2132:0.05434221 2140:0.043660618 2141:0.048093881 2155:0.024355186 2163:0.06502381 2171:0.019649168 2190:0.10868442 2196:0.048093881 2202:0.056143124 2213:0.080443829 2234:0.031163955 2251:0.06502381 2253:0.040221915 2254:0.03503678 2266:0.037412286 2268:0.05434221 2273:0.087321237 2283:0.03503678 2284:0.056143124 2312:0.087321237 2325:0.048093881 2326:0.032979023 2331:0.048093881 2343:0.021363188 2350:0.048093881 2371:0.023291986 2374:0.17464247 2376:0.087321237 2377:0.040221915 2387:0.048093881 2389:0.10511034 2391:0.06502381 2410:0.080192074 2416:0.06502381 2440:0.06232791 2452:0.028071562 2461:0.021363188 2467:0.043660618 2481:0.040221915 2495:0.048093881 2497:0.05434221 2516:0.05434221 2517:0.087321237 2530:0.031163955 2532:0.06232791 2537:0.022297431 2551:0.05434221 2554:0.087321237 2558:0.048093881 2599:0.087321237 2607:0.018106855 2609:0.037412286 2614:0.031163955 2622:0.087321237 2631:0.028071562 2657:0.043660618 2675:0.048093881 2685:0.087321237 2688:0.016049098 2704:0.069875963 2705:0.048093881 2709:0.05434221 2740:0.029540319 2761:0.048093881 2763:0.06232791 2764:0.087321237 2779:0.05434221 2798:0.037412286 #
-0.35176824252179050844802077335771 669:0.48940885 1560:0.30060568 2357:0.81860566 #
-0.27869283797384103440464286904898 430:0.41377851 565:0.26229975 1177:0.55903953 1498:0.66892523 #
-0.23023153516261776752038770155195 10:0.098815158 31:0.064760111 90:0.12018652 126:0.054600742 141:0.074344032 147:0.3227998 157:0.088894151 168:0.12018652 230:0.074344032 232:0.12018652 342:0.08069995 385:0.049407579 399:0.074344032 405:0.12018652 406:0.064760111 418:0.12018652 422:0.04305166 433:0.10044324 478:0.030876542 503:0.060956661 509:0.12018652 552:0.074344032 556:0.039486572 583:0.074344032 586:0.14868806 602:0.074344032 618:0.074344032 639:0.10044324 682:0.045016821 743:0.057601783 779:0.054600742 780:0.08069995 795:0.03346774 808:0.074344032 843:0.12018652 856:0.08069995 943:0.069150865 969:0.12018652 984:0.034857456 997:0.1777883 1010:0.12018652 1020:0.045016821 1077:0.088894151 1090:0.10044324 1108:0.10044324 1131:0.10044324 1138:0.12018652 1219:0.12018652 1224:0.12952022 1296:0.12018652 1341:0.069150865 1349:0.064760111 1366:0.08069995 1393:0.12018652 1566:0.12018652 1649:0.057601783 1696:0.088894151 1734:0.08069995 1746:0.074344032 1752:0.094255358 1802:0.20088647 1821:0.1777883 1830:0.060956661 1840:0.088894151 1860:0.12018652 1893:0.069150865 1977:0.12018652 1989:0.12018652 2053:0.12018652 2054:0.03346774 2116:0.088894151 2120:0.10044324 2165:0.12018652 2226:0.10044324 2231:0.14868806 2242:0.074344032 2321:0.1613999 2355:0.12018652 2371:0.04305166 2390:0.10044324 2394:0.15794629 2424:0.057601783 2610:0.10044324 2650:0.12018652 2670:0.1777883 2674:0.041213375 2734:0.20088647 #
-0.19914106636949555073634599011712 11:0.04334705 15:0.08873155 63:0.16506675 80:0.1060975 115:0.14344577 119:0.053728763 181:0.077292889 195:0.11988164 257:0.049189247 313:0.056248125 315:0.04712826 335:0.096317507 342:0.096317507 464:0.077292889 556:0.04712826 560:0.056248125 666:0.1060975 681:0.096317507 779:0.13033484 783:0.1060975 807:0.18578182 875:0.1060975 1098:0.11988164 1109:0.08873155 1114:0.12385454 1119:0.14344577 1173:0.1060975 1188:0.1060975 1197:0.06192727 1200:0.2249925 1211:0.14344577 1259:0.068749242 1337:0.24760012 1345:0.19263501 1377:0.082533374 1447:0.06516742 1508:0.053728763 1561:0.1060975 1574:0.1060975 1578:0.077292889 1584:0.06192727 1630:0.24760012 1636:0.16506675 1638:0.14344577 1651:0.11988164 1666:0.096317507 1685:0.082533374 1689:0.1060975 1690:0.053728763 1720:0.10276658 1779:0.032683995 1799:0.11988164 1869:0.1060975 1967:0.27499697 2104:0.13749848 2171:0.086694099 2264:0.13749848 2359:0.11988164 2371:0.10276658 2372:0.082533374 2389:0.077292889 2397:0.11249625 2444:0.14344577 2529:0.11988164 2537:0.049189247 2572:0.06192727 2603:0.11988164 2604:0.058969244 2624:0.11988164 2662:0.096317507 2688:0.035405114 2699:0.12385454 2727:0.032683995 2789:0.08873155 #
-0.18300496437372082425554253859445 2:0.058078751 11:0.08511772 15:0.058078751 20:0.093891643 79:0.093891643 88:0.05059164 107:0.093891643 119:0.070335731 121:0.047620326 129:0.093891643 150:0.08530996 184:0.025110383 190:0.11045071 198:0.040534157 200:0.035167865 245:0.078467868 256:0.035167865 257:0.032196552 313:0.036816902 315:0.030847546 328:0.093891643 329:0.092542633 330:0.078467868 350:0.26999664 362:0.16206531 378:0.040534157 409:0.13889109 445:0.030847546 464:0.05059164 478:0.024121251 498:0.029575668 556:0.030847546 560:0.036816902 595:0.028372575 656:0.027231207 663:0.047620326 681:0.063044094 742:0.047620326 779:0.08530996 783:0.069445543 794:0.093891643 807:0.081068315 875:0.069445543 943:0.054021768 956:0.078467868 960:0.063044094 995:0.05059164 1009:0.093891643 1012:0.093891643 1060:0.093891643 1075:0.13889109 1100:0.029575668 1114:0.040534157 1134:0.063044094 1144:0.030847546 1173:0.069445543 1200:0.073633805 1205:0.093891643 1224:0.05059164 1259:0.26999664 1293:0.30354983 1338:0.027231207 1342:0.093891643 1363:0.042786259 1375:0.15693574 1377:0.054021768 1447:0.29858485 1487:0.036816902 1493:0.030847546 1502:0.078467868 1508:0.035167865 1561:0.069445543 1574:0.069445543 1578:0.05059164 1601:0.033632651 1636:0.10804354 1661:0.025110383 1689:0.069445543 1690:0.035167865 1716:0.047620326 1779:0.042786259 1812:0.093891643 1869:0.069445543 1880:0.025110383 1883:0.028372575 1898:0.056745149 1923:0.054021768 1953:0.047620326 2009:0.093891643 2014:0.093891643 2069:0.093891643 2104:0.089998879 2133:0.093891643 2150:0.12608819 2153:0.17423625 2161:0.033632651 2171:0.028372575 2224:0.12608819 2225:0.093891643 2245:0.069445543 2264:0.044999439 2283:0.05059164 2291:0.15693574 2371:0.033632651 2397:0.036816902 2411:0.093891643 2419:0.058078751 2424:0.044999439 2429:0.078467868 2433:0.13889109 2452:0.040534157 2461:0.030847546 2463:0.04265498 2475:0.069445543 2485:0.093891643 2506:0.04265498 2530:0.044999439 2537:0.032196552 2572:0.040534157 2604:0.077195995 2615:0.093891643 2688:0.023174224 2699:0.081068315 2727:0.064179391 2739:0.10804354 2744:0.058078751 2789:0.058078751 #
-0.20982031370444115259132900064287 2:0.03422334 11:0.083593763 17:0.037149206 27:0.045488317 37:0.041445859 41:0.055326354 42:0.055326354 48:0.019818291 51:0.028060634 54:0.055326354 73:0.029811503 83:0.026516257 88:0.029811503 98:0.040921304 99:0.040921304 104:0.019818291 111:0.046237782 121:0.028060634 122:0.029811503 125:0.055326354 130:0.055326354 134:0.034855369 145:0.055326354 146:0.046237782 148:0.055326354 158:0.055326354 159:0.055326354 160:0.026516257 173:0.031832732 174:0.031832732 181:0.059623007 183:0.12276392 184:0.014796481 196:0.031832732 197:0.046237782 200:0.020722929 204:0.016718753 223:0.03422334 229:0.03422334 230:0.03422334 238:0.089434505 245:0.046237782 249:0.021694636 250:0.055326354 256:0.020722929 257:0.01897206 267:0.020722929 272:0.055326354 280:0.055326354 289:0.03422334 298:0.03422334 302:0.016718753 305:0.050269533 306:0.03422334 310:0.03422334 315:0.018177148 316:0.031832732 318:0.055326354 334:0.055326354 339:0.041445859 352:0.1508086 365:0.075404301 378:0.023885055 385:0.045488317 394:0.016046192 415:0.16359432 422:0.019818291 442:0.055326354 445:0.018177148 446:0.018177148 447:0.055326354 478:0.014213628 481:0.12276392 492:0.028060634 498:0.017427685 500:0.055326354 502:0.092475563 505:0.055326354 512:0.055326354 514:0.15916367 515:0.055326354 517:0.033437505 526:0.14859682 550:0.028060634 564:0.055326354 568:0.037944119 626:0.03422334 629:0.046237782 641:0.055326354 643:0.055326354 648:0.031832732 656:0.016046192 657:0.074298412 672:0.092475563 681:0.037149206 687:0.037149206 697:0.055326354 700:0.037149206 706:0.037149206 713:0.016718753 736:0.029811503 750:0.037149206 752:0.046237782 766:0.089434505 771:0.040921304 781:0.046237782 785:0.03422334 795:0.015406454 797:0.029811503 800:0.055326354 801:0.040921304 824:0.055326354 857:0.022744158 871:0.050269533 880:0.055326354 888:0.025134766 897:0.023885055 901:0.11144762 915:0.036354296 923:0.055326354 929:0.055326354 939:0.014796481 940:0.055326354 946:0.055326354 954:0.055326354 956:0.046237782 977:0.031832732 984:0.016046192 995:0.029811503 1020:0.020722929 1022:0.019818291 1037:0.055326354 1041:0.03422334 1048:0.040921304 1054:0.031832732 1058:0.046237782 1059:0.019818291 1064:0.031832732 1076:0.046237782 1084:0.055326354 1100:0.034855369 1106:0.026516257 1109:0.03422334 1114:0.023885055 1118:0.055326354 1134:0.037149206 1142:0.14859682 1144:0.018177148 1146:0.055326354 1151:0.034855369 1155:0.022744158 1160:0.068232477 1166:0.030812908 1180:0.028060634 1182:0.037149206 1193:0.055326354 1200:0.021694636 1215:0.055326354 1224:0.029811503 1225:0.055326354 1240:0.028060634 1244:0.046237782 1245:0.023885055 1248:0.037149206 1262:0.16359432 1266:0.029811503 1267:0.046237782 1270:0.023885055 1271:0.063665465 1276:0.055326354 1280:0.029811503 1281:0.03422334 1309:0.12276392 1314:0.055326354 1315:0.03422334 1328:0.040921304 1338:0.016046192 1341:0.031832732 1349:0.089434505 1363:0.012606062 1364:0.095540218 1380:0.046237782 1388:0.053032514 1404:0.031832732 1438:0.029811503 1459:0.033437505 1472:0.046237782 1478:0.040921304 1482:0.055326354 1493:0.018177148 1503:0.03422334 1505:0.046237782 1516:0.037149206 1520:0.092475563 1551:0.040921304 1552:0.046237782 1568:0.046237782 1593:0.046237782 1601:0.019818291 1602:0.029811503 1608:0.055326354 1613:0.021694636 1620:0.075404301 1631:0.031832732 1648:0.040921304 1649:0.026516257 1668:0.055326354 1670:0.041445859 1681:0.06303031 1684:0.055326354 1690:0.041445859 1697:0.055326354 1716:0.028060634 1720:0.019818291 1726:0.050269533 1754:0.03422334 1756:0.092475563 1769:0.055326354 1773:0.029811503 1774:0.055326354 1775:0.055326354 1779:0.025212124 1780:0.055326354 1788:0.046237782 1790:0.046237782 1807:0.092475563 1813:0.031832732 1815:0.03422334 1823:0.055326354 1829:0.040921304 1831:0.03422334 1832:0.055326354 1833:0.12276392 1836:0.040921304 1838:0.055326354 1848:0.029811503 1859:0.046237782 1861:0.092475563 1872:0.029811503 1874:0.056121267 1875:0.037149206 1877:0.056121267 1880:0.014796481 1883:0.016718753 1898:0.016718753 1899:0.055326354 1932:0.037149206 1934:0.026516257 1936:0.040921304 1956:0.14859682 1970:0.055326354 2003:0.047770109 2042:0.029811503 2054:0.015406454 2065:0.095540218 2093:0.068446681 2096:0.14030316 2098:0.046237782 2100:0.081842609 2111:0.028060634 2114:0.055326354 2123:0.03422334 2130:0.055326354 2153:0.03422334 2154:0.055326354 2161:0.17836462 2171:0.016718753 2188:0.029811503 2189:0.056121267 2191:0.03422334 2194:0.092475563 2196:0.040921304 2208:0.046237782 2210:0.055326354 2212:0.055326354 2216:0.025134766 2218:0.066875011 2224:0.037149206 2228:0.055326354 2229:0.050269533 2235:0.046237782 2237:0.081842609 2254:0.029811503 2278:0.055326354 2283:0.029811503 2284:0.047770109 2288:0.055326354 2314:0.092475563 2324:0.046237782 2343:0.018177148 2352:0.029811503 2397:0.021694636 2424:0.026516257 2443:0.016046192 2448:0.068446681 2452:0.023885055 2461:0.018177148 2462:0.069710739 2477:0.055326354 2488:0.055326354 2499:0.12276392 2506:0.025134766 2530:0.026516257 2540:0.055326354 2544:0.028060634 2568:0.068446681 2572:0.023885055 2580:0.014213628 2584:0.041445859 2585:0.055326354 2604:0.045488317 2606:0.092475563 2612:0.12276392 2620:0.020722929 2637:0.040921304 2639:0.055326354 2643:0.055326354 2656:0.037149206 2666:0.055326354 2687:0.055326354 2688:0.013655585 2699:0.023885055 2708:0.055326354 2710:0.028060634 2711:0.055326354 2712:0.046237782 2719:0.031832732 2720:0.03422334 2727:0.012606062 2740:0.025134766 2746:0.046237782 2754:0.03422334 2764:0.037149206 2775:0.03422334 2776:0.055326354 2793:0.055326354 2794:0.037149206 2802:0.055326354 #
-0.26441739274224512756816807268478 249:0.1640275 470:0.34959182 525:0.41830817 859:0.41830817 939:0.22374471 1007:0.22539702 1216:0.2808755 1387:0.25875378 1613:0.1640275 1662:0.13176619 2239:0.41830817 2378:0.09919937 2580:0.10746555 2607:0.11648419 #
-0.25837324021977670085448153258767 276:0.22186683 325:0.53057832 458:0.092145674 867:0.35867578 1025:0.18191457 1065:0.35867578 1149:0.29975536 1303:0.35867578 1968:0.22186683 2256:0.095924258 2332:0.16294643 2440:0.17190251 2586:0.19326529 #
-0.24940381296079919271058145113784 48:0.085817657 97:0.13784289 204:0.072395958 276:0.14819476 404:0.078711137 458:0.061548207 474:0.16086443 626:0.14819476 630:0.23957555 649:0.23957555 721:0.23957555 729:0.23957555 829:0.17719845 902:0.23957555 1001:0.34327063 1025:0.12150885 1204:0.12150885 1222:0.098487325 1232:0.17719845 1332:0.20021999 1450:0.17719845 1968:0.14819476 1991:0.17719845 2013:0.23957555 2072:0.23957555 2116:0.17719845 2216:0.10883919 2256:0.064072095 2332:0.10883919 2456:0.1878853 2584:0.17946988 2620:0.089734942 2704:0.085817657 #
-0.1819534739133323031357036825284 4:0.048106119 11:0.01965417 16:0.054356042 18:0.054356042 33:0.054356042 51:0.03298742 68:0.070091397 75:0.065040357 82:0.065040357 103:0.065040357 119:0.024361385 121:0.03298742 131:0.065040357 134:0.020487573 150:0.059095677 151:0.065040357 175:0.054356042 182:0.096212238 194:0.065040357 198:0.028078707 199:0.043671731 200:0.04872277 204:0.01965417 213:0.10871208 214:0.065040357 225:0.10871208 229:0.040232152 233:0.10243787 242:0.023297915 244:0.031171886 249:0.051007401 257:0.044606213 259:0.043671731 267:0.024361385 270:0.040232152 296:0.043671731 304:0.065040357 305:0.059095677 313:0.025503701 322:0.054356042 327:0.054356042 338:0.074843615 344:0.10871208 364:0.087343462 376:0.065040357 378:0.028078707 385:0.053474993 394:0.056590576 445:0.021368625 446:0.085474499 470:0.054356042 473:0.096212238 478:0.033418413 485:0.080212489 487:0.059095677 495:0.054356042 498:0.020487573 501:0.024361385 503:0.03298742 507:0.065040357 521:0.10871208 539:0.065040357 587:0.054356042 590:0.080464303 594:0.029547838 604:0.065040357 618:0.040232152 622:0.098962255 656:0.018863525 691:0.054356042 694:0.065040357 707:0.026737496 708:0.065040357 713:0.078616679 723:0.093515657 742:0.03298742 743:0.031171886 758:0.024361385 759:0.043671731 774:0.065040357 778:0.065040357 805:0.024361385 808:0.040232152 819:0.065040357 830:0.12468755 836:0.048106119 847:0.048106119 857:0.026737496 858:0.054356042 888:0.029547838 896:0.054356042 904:0.035045698 911:0.065040357 927:0.10871208 932:0.054356042 935:0.037421808 939:0.086971968 942:0.065040357 962:0.074843615 964:0.037421808 968:0.096212238 987:0.054356042 994:0.048106119 995:0.035045698 1000:0.054356042 1007:0.070091397 1008:0.065040357 1022:0.1397875 1055:0.040232152 1059:0.023297915 1079:0.040232152 1083:0.043671731 1089:0.054356042 1100:0.020487573 1105:0.054356042 1109:0.12069645 1116:0.16092861 1124:0.10871208 1144:0.021368625 1182:0.043671731 1183:0.065040357 1191:0.065040357 1197:0.056157414 1216:0.043671731 1228:0.054356042 1230:0.054356042 1270:0.028078707 1306:0.070091397 1334:0.03298742 1338:0.018863525 1343:0.10871208 1354:0.065040357 1356:0.037421808 1363:0.029638777 1385:0.031171886 1386:0.065040357 1389:0.043671731 1407:0.093515657 1437:0.065040357 1439:0.065040357 1443:0.040232152 1459:0.01965417 1479:0.16092861 1493:0.021368625 1514:0.016709207 1538:0.054356042 1553:0.031171886 1564:0.043671731 1567:0.087343462 1570:0.065040357 1578:0.035045698 1584:0.028078707 1594:0.065040357 1601:0.023297915 1611:0.048106119 1621:0.048106119 1631:0.037421808 1643:0.054356042 1649:0.062343773 1658:0.13194968 1662:0.020487573 1671:0.065040357 1677:0.065040357 1708:0.043671731 1716:0.03298742 1726:0.059095677 1735:0.048106119 1744:0.028078707 1746:0.080464303 1752:0.025503701 1779:0.014819388 1785:0.031171886 1803:0.093515657 1808:0.054356042 1834:0.043671731 1836:0.048106119 1862:0.10871208 1876:0.025503701 1880:0.017394394 1883:0.01965417 1898:0.01965417 1909:0.053474993 1927:0.048106119 1934:0.031171886 1943:0.065040357 1979:0.048106119 1984:0.043671731 1985:0.096212238 2034:0.065040357 2042:0.035045698 2058:0.053474993 2059:0.087343462 2086:0.037421808 2104:0.031171886 2125:0.10871208 2129:0.053474993 2146:0.065040357 2161:0.023297915 2171:0.01965417 2202:0.028078707 2207:0.11226542 2213:0.040232152 2230:0.054356042 2281:0.065040357 2283:0.035045698 2326:0.03298742 2338:0.096212238 2343:0.042737249 2348:0.054356042 2352:0.035045698 2361:0.14431836 2367:0.054356042 2378:0.030847888 2385:0.17728703 2393:0.14018279 2394:0.021368625 2402:0.065040357 2417:0.087343462 2424:0.031171886 2430:0.065040357 2443:0.075454101 2452:0.028078707 2456:0.025503701 2461:0.021368625 2462:0.020487573 2473:0.031171886 2474:0.10871208 2508:0.048106119 2528:0.065040357 2530:0.031171886 2537:0.022303106 2553:0.026737496 2556:0.065040357 2560:0.037421808 2578:0.065040357 2580:0.083546028 2597:0.10871208 2598:0.054356042 2607:0.018111464 2609:0.037421808 2614:0.062343773 2619:0.10871208 2620:0.024361385 2623:0.054356042 2631:0.028078707 2632:0.065040357 2645:0.043671731 2688:0.016053183 2704:0.093191661 2714:0.054356042 2719:0.037421808 2721:0.054356042 2724:0.065040357 2737:0.054356042 2740:0.029547838 2763:0.031171886 2777:0.040232152 #
-0.23290278700557720537034356311779 35:0.17819053 55:0.10660798 106:0.17819053 160:0.102188 184:0.057022482 201:0.23655297 204:0.064430505 267:0.079861745 354:0.17819053 359:0.14316511 389:0.10660798 402:0.14316511 408:0.033581287 445:0.035025422 460:0.10660798 472:0.054069843 493:0.089095265 498:0.033581287 508:0.065944724 537:0.078850985 553:0.054069843 578:0.043825567 598:0.10660798 611:0.10660798 640:0.10660798 655:0.10660798 656:0.0309193 724:0.14316511 742:0.054069843 804:0.078850985 850:0.078850985 864:0.14316511 897:0.04602395 917:0.11488716 937:0.10813969 988:0.10660798 1020:0.15972349 1100:0.067162573 1107:0.054069843 1120:0.057443582 1137:0.04602395 1141:0.051093999 1144:0.035025422 1155:0.087651134 1163:0.15770197 1175:0.10660798 1176:0.10660798 1232:0.078850985 1257:0.23655297 1287:0.10660798 1316:0.089095265 1341:0.061338276 1363:0.048581071 1368:0.10660798 1468:0.043825567 1493:0.035025422 1514:0.027388144 1536:0.14316511 1554:0.039930873 1579:0.048432011 1583:0.10660798 1596:0.14316511 1612:0.14316511 1635:0.089095265 1662:0.033581287 1674:0.10813969 1726:0.048432011 1752:0.041803248 1781:0.061338276 1880:0.028511241 1883:0.032215253 1898:0.032215253 1910:0.14316511 1911:0.17819053 1929:0.0920479 2007:0.10660798 2019:0.057443582 2031:0.14316511 2076:0.12267655 2122:0.071582556 2129:0.043825567 2144:0.051093999 2183:0.10813969 2229:0.096864022 2240:0.10660798 2313:0.10660798 2321:0.071582556 2356:0.10660798 2378:0.025281467 2383:0.10660798 2409:0.071582556 2461:0.035025422 2478:0.043825567 2577:0.10660798 2681:0.17819053 2741:0.10660798 2772:0.054069843 2790:0.10660798 #
-0.20877622871435103091286578091967 6:0.11375824 23:0.11375824 49:0.11375824 83:0.054520901 85:0.095070936 97:0.06545227 246:0.095070936 257:0.039009042 270:0.070367672 292:0.095070936 312:0.11375824 385:0.04676497 404:0.074749194 408:0.071667202 412:0.084139571 437:0.11375824 439:0.11375824 454:0.095070936 471:0.076383635 492:0.057696339 493:0.095070936 540:0.11375824 550:0.057696339 556:0.037374597 578:0.04676497 682:0.12782717 705:0.24555402 723:0.054520901 737:0.19014187 741:0.1090418 745:0.044607013 825:0.054520901 895:0.095070936 906:0.11375824 952:0.084139571 966:0.084139571 978:0.11375824 981:0.095070936 984:0.032993075 1011:0.095070936 1013:0.16827914 1020:0.085218117 1045:0.11375824 1066:0.11375824 1071:0.15276727 1092:0.084139571 1096:0.076383635 1222:0.04676497 1295:0.070367672 1307:0.095070936 1323:0.16827914 1359:0.11375824 1364:0.19644322 1425:0.076383635 1431:0.057696339 1467:0.11375824 1521:0.084139571 1647:0.039009042 1687:0.13750379 1696:0.16827914 1724:0.11375824 1727:0.11375824 1764:0.11375824 1773:0.061296355 1809:0.15276727 1840:0.084139571 1948:0.076383635 1983:0.12259271 2037:0.084139571 2058:0.04676497 2116:0.084139571 2129:0.04676497 2131:0.11375824 2167:0.061296355 2181:0.076383635 2254:0.061296355 2371:0.040749006 2378:0.053954218 2398:0.11375824 2407:0.11375824 2413:0.11375824 2448:0.21110302 2506:0.10336075 2541:0.095070936 2543:0.15276727 2544:0.057696339 2571:0.084139571 2604:0.09352994 2607:0.031677689 2623:0.095070936 2629:0.06545227 2644:0.095070936 2690:0.054520901 2744:0.070367672 2763:0.054520901 2766:0.076383635 2774:0.11375824 #
-0.19293105650673178508291982780065 73:0.050775502 83:0.090325959 127:0.094232865 215:0.058289822 254:0.078753039 308:0.063273214 309:0.033754878 339:0.035295673 342:0.063273214 408:0.059366304 430:0.058289822 488:0.094232865 536:0.094232865 561:0.25309286 571:0.094232865 573:0.094232865 610:0.078753039 627:0.15750608 674:0.058289822 699:0.15750608 713:0.028475687 715:0.069697924 742:0.047793388 745:0.073901407 771:0.13939585 795:0.052481115 814:0.094232865 828:0.094232865 831:0.094232865 835:0.078753039 854:0.094232865 944:0.094232865 957:0.094232865 961:0.094232865 970:0.033754878 1011:0.078753039 1053:0.094232865 1061:0.12654643 1067:0.094232865 1081:0.094232865 1092:0.069697924 1143:0.094232865 1151:0.059366304 1156:0.094232865 1195:0.078753039 1243:0.063273214 1279:0.094232865 1327:0.10843619 1413:0.094232865 1425:0.12654643 1434:0.058289822 1486:0.094232865 1508:0.035295673 1551:0.069697924 1603:0.069697924 1642:0.094232865 1659:0.094232865 1673:0.078753039 1687:0.056951374 1692:0.094232865 1699:0.058289822 1713:0.078753039 1733:0.15750608 1746:0.058289822 1749:0.033754878 1766:0.078753039 1830:0.19117355 1864:0.12654643 1893:0.054218095 1897:0.17123999 2043:0.094232865 2054:0.026240557 2063:0.15750608 2068:0.054218095 2106:0.094232865 2128:0.078753039 2155:0.035295673 2166:0.054218095 2167:0.050775502 2193:0.094232865 2195:0.15750608 2197:0.078753039 2214:0.069697924 2230:0.078753039 2262:0.078753039 2276:0.094232865 2279:0.32530859 2438:0.063273214 2449:0.15750608 2466:0.094232865 2534:0.15750608 2572:0.040681466 2584:0.035295673 2607:0.026240557 2654:0.094232865 2657:0.063273214 2673:0.078753039 2674:0.032313563 2713:0.069697924 2718:0.078753039 2747:0.20310201 #
-0.1658283273728016482539970866128 10:0.060992971 11:0.044834651 22:0.14943445 37:0.11114529 40:0.045888338 88:0.03997273 96:0.042682894 97:0.042682894 137:0.074184299 150:0.13480772 152:0.074184299 154:0.074184299 200:0.027786322 267:0.027786322 284:0.074184299 289:0.045888338 295:0.049811482 305:0.06740386 326:0.074184299 340:0.074184299 341:0.074184299 348:0.045888338 349:0.074184299 361:0.037625078 365:0.23591352 375:0.042682894 378:0.032026257 388:0.074184299 443:0.25609735 445:0.024372812 456:0.074184299 466:0.074184299 483:0.049811482 484:0.1422172 485:0.030496486 498:0.023367895 510:0.06199789 523:0.042682894 537:0.054869298 543:0.074184299 567:0.1097386 581:0.074184299 586:0.045888338 594:0.03370193 618:0.045888338 645:0.1097386 656:0.021515524 736:0.03997273 745:0.029089235 748:0.099622965 752:0.06199789 807:0.032026257 849:0.1646079 857:0.030496486 869:0.07994546 877:0.074184299 914:0.074184299 915:0.024372812 917:0.03997273 943:0.042682894 952:0.054869298 979:0.049811482 984:0.021515524 1029:0.06199789 1031:0.074184299 1100:0.023367895 1107:0.037625078 1134:0.099622965 1139:0.074184299 1144:0.024372812 1152:0.074184299 1157:0.074184299 1165:0.12399578 1196:0.074184299 1197:0.032026257 1224:0.11991818 1229:0.054869298 1231:0.12399578 1260:0.054869298 1265:0.035554301 1269:0.06199789 1295:0.045888338 1306:0.15989092 1333:0.091776676 1334:0.037625078 1338:0.021515524 1349:0.11991818 1364:0.032026257 1369:0.049811482 1385:0.035554301 1391:0.1646079 1421:0.1646079 1432:0.074184299 1438:0.15989092 1440:0.074184299 1448:0.074184299 1455:0.049811482 1493:0.024372812 1526:0.049811482 1540:0.054869298 1554:0.027786322 1569:0.1646079 1589:0.054869298 1590:0.035554301 1601:0.026573339 1613:0.029089235 1620:0.23591352 1650:0.06199789 1661:0.059519552 1664:0.18355335 1744:0.032026257 1749:0.10629336 1773:0.03997273 1777:0.037625078 1778:0.074184299 1779:0.033805653 1818:0.049811482 1845:0.054869298 1873:0.054869298 1875:0.049811482 1880:0.019839849 1883:0.022417326 1909:0.030496486 1918:0.049811482 1919:0.045888338 2019:0.03997273 2050:0.06199789 2054:0.12394638 2111:0.15050031 2127:0.054869298 2136:0.045888338 2171:0.022417326 2242:0.045888338 2282:0.17073157 2354:0.074184299 2370:0.074184299 2378:0.017592378 2382:0.074184299 2390:0.06199789 2394:0.024372812 2440:0.035554301 2447:0.074184299 2452:0.032026257 2456:0.029089235 2461:0.024372812 2462:0.04673579 2463:0.03370193 2478:0.030496486 2537:0.02543867 2575:0.074184299 2580:0.076233327 2583:0.049811482 2602:0.049811482 2607:0.020657731 2608:0.074184299 2630:0.035554301 2644:0.06199789 2684:0.049811482 2688:0.036620159 2723:0.074184299 2757:0.054869298 #
-0.1652251216477033379792516143425 39:0.11750159 65:0.13521212 73:0.12662677 126:0.053380981 171:0.086908288 184:0.062849261 199:0.078897141 212:0.098199368 217:0.11750159 219:0.11750159 230:0.072683208 255:0.15779428 271:0.063313387 315:0.038604457 329:0.038604457 339:0.044011161 408:0.037012752 422:0.042089902 425:0.086908288 445:0.038604457 459:0.11750159 472:0.059594911 475:0.13521212 498:0.037012752 553:0.059594911 569:0.098199368 578:0.048303831 580:0.098199368 590:0.072683208 609:0.19639874 656:0.034078754 666:0.086908288 680:0.11750159 707:0.048303831 754:0.11750159 755:0.15779428 839:0.19639874 852:0.098199368 856:0.078897141 898:0.098199368 963:0.072683208 1078:0.15779428 1120:0.063313387 1137:0.050726857 1144:0.038604457 1155:0.096607663 1312:0.11750159 1341:0.067606062 1346:0.053380981 1357:0.050726857 1417:0.19639874 1459:0.035507131 1468:0.048303831 1493:0.038604457 1506:0.11750159 1514:0.03018677 1525:0.11750159 1554:0.044011161 1579:0.053380981 1654:0.13521212 1721:0.063313387 1726:0.053380981 1734:0.078897141 1781:0.067606062 1831:0.072683208 1857:0.15779428 1880:0.03142463 1883:0.035507131 1884:0.11750159 1893:0.067606062 1898:0.035507131 1900:0.15779428 1916:0.098199368 1931:0.11750159 1934:0.056314979 1966:0.11750159 1976:0.11750159 1987:0.25325355 1997:0.072683208 2019:0.063313387 2058:0.048303831 2068:0.067606062 2082:0.098199368 2129:0.048303831 2144:0.056314979 2155:0.044011161 2188:0.063313387 2198:0.15779428 2200:0.11750159 2211:0.067606062 2378:0.027864825 2431:0.098199368 2461:0.038604457 2478:0.048303831 2505:0.11750159 2564:0.26072487 2691:0.19639874 2692:0.086908288 2763:0.056314979 2772:0.059594911 #
-0.15476311025072803095881113222276 53:0.067116529 83:0.038489718 85:0.067116529 96:0.046206858 104:0.057534549 169:0.080309063 176:0.080309063 184:0.042955715 191:0.049676947 205:0.080309063 212:0.067116529 222:0.080309063 226:0.10784799 230:0.049676947 249:0.031490885 268:0.049676947 301:0.053923994 316:0.046206858 329:0.026385069 361:0.16292584 392:0.13423306 399:0.049676947 404:0.026385069 407:0.21569598 408:0.050594367 430:0.049676947 441:0.067116529 445:0.026385069 454:0.067116529 458:0.020631816 462:0.17819817 472:0.04073146 498:0.025297184 529:0.080309063 553:0.04073146 597:0.092413716 652:0.067116529 656:0.023291878 663:0.04073146 702:0.080309063 722:0.080309063 723:0.076979436 742:0.04073146 749:0.10784799 758:0.030080402 797:0.043272935 842:0.049676947 857:0.033014324 909:0.092413716 943:0.046206858 963:0.049676947 970:0.40274185 985:0.067116529 1020:0.060160805 1022:0.028767275 1044:0.067116529 1050:0.13423306 1074:0.059399392 1082:0.080309063 1104:0.10784799 1120:0.043272935 1137:0.034670394 1144:0.026385069 1147:0.13423306 1149:0.067116529 1151:0.075891554 1163:0.059399392 1166:0.022363264 1195:0.067116529 1210:0.067116529 1217:0.067116529 1222:0.033014324 1252:0.049676947 1316:0.067116529 1327:0.046206858 1334:0.04073146 1357:0.069340788 1358:0.067116529 1401:0.059399392 1408:0.080309063 1468:0.033014324 1487:0.031490885 1493:0.026385069 1501:0.059399392 1508:0.030080402 1514:0.041263632 1554:0.030080402 1560:0.036484413 1579:0.036484413 1584:0.069340788 1596:0.053923994 1641:0.034670394 1656:0.080309063 1681:0.01829835 1698:0.10784799 1714:0.080309063 1723:0.059399392 1732:0.067116529 1734:0.053923994 1752:0.031490885 1762:0.13423306 1781:0.046206858 1803:0.038489718 1804:0.067116529 1873:0.059399392 1880:0.021477858 1881:0.080309063 1883:0.024268134 1929:0.069340788 1934:0.038489718 1945:0.08654587 1946:0.10784799 1948:0.053923994 1997:0.14903083 2002:0.080309063 2011:0.059399392 2019:0.043272935 2058:0.066028647 2068:0.092413716 2120:0.067116529 2144:0.038489718 2155:0.030080402 2158:0.080309063 2166:0.046206858 2185:0.13423306 2207:0.046206858 2219:0.080309063 2238:0.10784799 2292:0.13423306 2326:0.04073146 2344:0.13423306 2362:0.080309063 2371:0.028767275 2378:0.01904483 2389:0.043272935 2443:0.046583757 2461:0.026385069 2478:0.033014324 2501:0.21636468 2523:0.080309063 2557:0.067116529 2558:0.11879878 2563:0.13423306 2604:0.033014324 2609:0.046206858 2655:0.080309063 2656:0.053923994 2658:0.043272935 2688:0.039643575 2717:0.13423306 2732:0.067116529 2754:0.049676947 2763:0.038489718 2772:0.04073146 2798:0.046206858 #
-0.13915672341900392483537984844588 2:0.047164489 18:0.063722044 40:0.094328977 45:0.043869901 58:0.076247357 62:0.05639521 63:0.087739803 70:0.30937141 77:0.1535902 96:0.043869901 108:0.12744409 118:0.076247357 119:0.028559057 121:0.038671426 134:0.04803551 182:0.05639521 198:0.032916903 200:0.028559057 208:0.076247357 218:0.076247357 233:0.04803551 242:0.054624684 260:0.063722044 261:0.076247357 264:0.076247357 271:0.041084368 305:0.03463918 315:0.025050618 320:0.041084368 324:0.051196735 329:0.025050618 343:0.076247357 378:0.032916903 385:0.031344589 408:0.024017755 410:0.063722044 411:0.076247357 445:0.025050618 446:0.025050618 458:0.039176684 475:0.043869901 480:0.076247357 483:0.051196735 485:0.12537836 487:0.03463918 498:0.024017755 513:0.11279042 550:0.038671426 656:0.022113869 661:0.076247357 663:0.038671426 676:0.076247357 690:0.047164489 723:0.073086128 728:0.076247357 795:0.021232221 798:0.076247357 805:0.028559057 809:0.076247357 830:0.073086128 876:0.05639521 886:0.094328977 891:0.047164489 897:0.032916903 907:0.076247357 917:0.041084368 924:0.065833807 935:0.043869901 938:0.076247357 939:0.020391595 959:0.076247357 964:0.043869901 968:0.05639521 971:0.076247357 974:0.043869901 986:0.15468571 998:0.094328977 1007:0.082168736 1035:0.076247357 1039:0.076247357 1100:0.024017755 1117:0.076247357 1123:0.076247357 1135:0.076247357 1141:0.073086128 1144:0.025050618 1166:0.021232221 1201:0.076247357 1210:0.063722044 1220:0.076247357 1240:0.038671426 1265:0.036543064 1295:0.047164489 1315:0.14149345 1330:0.05639521 1333:0.047164489 1338:0.022113869 1358:0.063722044 1365:0.076247357 1366:0.051196735 1369:0.051196735 1384:0.028559057 1398:0.12744409 1416:0.076247357 1419:0.076247357 1434:0.047164489 1436:0.036543064 1438:0.041084368 1441:0.047164489 1455:0.051196735 1479:0.047164489 1487:0.059796404 1489:0.076247357 1493:0.025050618 1497:0.076247357 1526:0.051196735 1554:0.028559057 1575:0.076247357 1591:0.047164489 1592:0.076247357 1601:0.027312342 1616:0.076247357 1629:0.076247357 1663:0.10239347 1667:0.076247357 1687:0.023040749 1708:0.051196735 1759:0.076247357 1773:0.041084368 1779:0.017372893 1789:0.047164489 1818:0.051196735 1852:0.047164489 1878:0.076247357 1880:0.020391595 1883:0.023040749 1891:0.076247357 1918:0.051196735 1933:0.076247357 1953:0.038671426 1963:0.05639521 1983:0.041084368 2005:0.076247357 2033:0.063722044 2073:0.076247357 2122:0.051196735 2129:0.031344589 2143:0.076247357 2147:0.05639521 2171:0.023040749 2183:0.038671426 2197:0.063722044 2207:0.043869901 2221:0.076247357 2259:0.076247357 2275:0.076247357 2298:0.076247357 2305:0.076247357 2310:0.076247357 2401:0.076247357 2403:0.076247357 2436:0.076247357 2443:0.022113869 2452:0.032916903 2458:0.087739803 2461:0.025050618 2478:0.031344589 2482:0.076247357 2491:0.076247357 2496:0.076247357 2514:0.063722044 2533:0.16918562 2541:0.063722044 2546:0.18865795 2560:0.043869901 2574:0.076247357 2576:0.063722044 2580:0.019588342 2583:0.1535902 2636:0.076247357 2638:0.076247357 2640:0.076247357 2642:0.076247357 2645:0.051196735 2651:0.076247357 2658:0.041084368 2661:0.076247357 2670:0.05639521 2672:0.094328977 2702:0.12744409 2705:0.05639521 2706:0.076247357 2713:0.05639521 2749:0.076247357 2783:0.076247357 2785:0.076247357 2798:0.043869901 #
-0.1642110104147579130451362061649 3:0.061772108 7:0.051624678 15:0.038210504 17:0.041477248 26:0.044254411 27:0.25393948 29:0.061772108 31:0.033284668 32:0.038210504 37:0.023137238 48:0.022127206 62:0.045688812 88:0.033284668 104:0.022127206 110:0.061772108 133:0.061772108 134:0.019458083 135:0.061772108 160:0.029605513 166:0.061772108 173:0.035541382 184:0.033040669 206:0.038210504 223:0.076421008 229:0.038210504 256:0.023137238 298:0.076421008 306:0.038210504 310:0.076421008 319:0.076421008 351:0.038210504 352:0.084189214 360:0.061772108 370:0.13706644 394:0.035831284 395:0.035541382 408:0.038916167 416:0.061772108 417:0.061772108 422:0.022127206 432:0.061772108 436:0.061772108 445:0.020294862 446:0.040589724 448:0.10324936 468:0.061772108 472:0.062659629 477:0.061772108 498:0.019458083 514:0.035541382 522:0.061772108 530:0.061772108 534:0.045688812 546:0.061772108 553:0.062659629 568:0.021182384 577:0.038210504 585:0.061772108 591:0.061772108 614:0.076421008 629:0.051624678 648:0.035541382 656:0.017915642 657:0.082954496 679:0.061772108 687:0.041477248 700:0.041477248 706:0.041477248 713:0.018666558 717:0.13706644 726:0.061772108 736:0.066569336 745:0.024222152 746:0.10324936 747:0.061772108 750:0.041477248 766:0.033284668 777:0.10324936 785:0.15284202 795:0.017201371 817:0.091377623 822:0.061772108 857:0.02539395 866:0.061772108 871:0.084189214 888:0.028063072 890:0.051624678 894:0.061772108 897:0.026667764 903:0.061772108 919:0.061772108 921:0.061772108 922:0.045688812 936:0.071082763 951:0.051624678 977:0.071082763 979:0.082954496 1022:0.044254411 1033:0.061772108 1041:0.038210504 1051:0.061772108 1054:0.035541382 1064:0.035541382 1087:0.045688812 1101:0.061772108 1120:0.033284668 1128:0.061772108 1137:0.053335529 1144:0.020294862 1145:0.061772108 1148:0.061772108 1155:0.02539395 1160:0.076181844 1164:0.13706644 1172:0.10324936 1180:0.062659629 1240:0.031329814 1244:0.051624678 1245:0.026667764 1248:0.041477248 1263:0.061772108 1268:0.045688812 1281:0.038210504 1292:0.045688812 1356:0.035541382 1363:0.014074721 1377:0.035541382 1383:0.061772108 1388:0.059211027 1390:0.041477248 1400:0.061772108 1404:0.035541382 1420:0.061772108 1442:0.061772108 1445:0.061772108 1454:0.061772108 1456:0.061772108 1465:0.051624678 1468:0.0507879 1472:0.051624678 1475:0.061772108 1478:0.045688812 1481:0.061772108 1493:0.020294862 1502:0.051624678 1516:0.041477248 1551:0.045688812 1552:0.051624678 1554:0.046274476 1563:0.051624678 1579:0.028063072 1591:0.076421008 1602:0.033284668 1613:0.024222152 1631:0.035541382 1641:0.026667764 1648:0.045688812 1655:0.038210504 1665:0.045688812 1666:0.041477248 1681:0.028149443 1682:0.061772108 1690:0.046274476 1710:0.061772108 1720:0.066381618 1754:0.038210504 1765:0.045688812 1779:0.014074721 1781:0.035541382 1787:0.061772108 1794:0.061772108 1800:0.10324936 1813:0.035541382 1815:0.038210504 1828:0.061772108 1848:0.033284668 1852:0.038210504 1872:0.033284668 1874:0.062659629 1876:0.024222152 1877:0.062659629 1880:0.033040669 1883:0.018666558 1885:0.035541382 1897:0.028063072 1898:0.018666558 1901:0.061772108 1908:0.061772108 1932:0.041477248 1938:0.10324936 1980:0.076421008 1982:0.061772108 1992:0.061772108 2003:0.026667764 2026:0.061772108 2041:0.053335529 2065:0.18667436 2076:0.035541382 2095:0.041477248 2098:0.051624678 2102:0.051624678 2105:0.061772108 2109:0.051624678 2110:0.061772108 2113:0.061772108 2123:0.076421008 2144:0.059211027 2162:0.061772108 2171:0.037333116 2178:0.045688812 2180:0.061772108 2184:0.061772108 2191:0.076421008 2201:0.13706644 2244:0.051624678 2254:0.033284668 2255:0.045688812 2274:0.045688812 2285:0.051624678 2299:0.061772108 2301:0.038210504 2339:0.061772108 2349:0.029605513 2380:0.082954496 2388:0.051624678 2412:0.061772108 2424:0.029605513 2441:0.061772108 2460:0.061772108 2461:0.020294862 2469:0.061772108 2478:0.02539395 2524:0.061772108 2531:0.061772108 2544:0.062659629 2581:0.045688812 2584:0.023137238 2589:0.061772108 2591:0.061772108 2629:0.035541382 2648:0.061772108 2710:0.031329814 2720:0.076421008 2727:0.028149443 2746:0.051624678 2747:0.033284668 2748:0.045688812 2772:0.031329814 2786:0.33891815 2792:0.045688812 2794:0.041477248 #
-0.15244773360366706271840087083547 11:0.25707555 119:0.31864569 257:0.29172349 1578:0.45839596 1836:0.62922561 2054:0.23689702 2537:0.29172349 #
-0.13692203648382017533435828227084 134:0.042401023 144:0.13460733 186:0.13460733 200:0.050418254 233:0.042401023 249:0.052782387 257:0.04615844 266:0.13460733 350:0.064513244 358:0.13460733 366:0.13460733 378:0.058111608 415:0.08844889 445:0.044224445 498:0.042401023 547:0.13460733 548:0.13460733 647:0.11249511 656:0.039039895 693:0.13460733 714:0.13460733 715:0.099560291 740:0.13460733 741:0.064513244 745:0.052782387 756:0.13460733 775:0.13460733 782:0.099560291 833:0.13460733 871:0.061152119 951:0.11249511 992:0.11249511 995:0.072530471 1058:0.11249511 1072:0.13460733 1075:0.099560291 1087:0.099560291 1100:0.042401023 1144:0.044224445 1186:0.13460733 1199:0.13460733 1253:0.099560291 1262:0.08844889 1293:0.072530471 1295:0.083264343 1338:0.039039895 1339:0.13460733 1360:0.13460733 1427:0.13460733 1430:0.13460733 1493:0.044224445 1582:0.13460733 1601:0.048217297 1604:0.13460733 1634:0.22499022 1653:0.13460733 1681:0.061340325 1687:0.040676214 1716:0.068270661 1728:0.13460733 1779:0.030670162 1871:0.13460733 1880:0.035999388 1883:0.040676214 1898:0.040676214 2018:0.13460733 2025:0.13460733 2081:0.11249511 2093:0.16652869 2161:0.048217297 2171:0.040676214 2215:0.13460733 2229:0.12230424 2283:0.072530471 2286:0.13460733 2328:0.13460733 2330:0.13460733 2343:0.044224445 2363:0.13460733 2365:0.13460733 2415:0.13460733 2433:0.099560291 2452:0.058111608 2461:0.044224445 2530:0.064513244 2664:0.13460733 2736:0.13460733 2759:0.13460733 #
-0.12237695724768501981394308586459 11:0.021795506 16:0.06027817 22:0.048429795 28:0.06027817 40:0.04461547 48:0.10334495 66:0.072126545 93:0.12055634 104:0.025836239 175:0.06027817 184:0.03857905 200:0.027015574 204:0.043591011 211:0.06027817 233:0.11359854 242:0.077508718 244:0.034568083 275:0.06027817 296:0.048429795 305:0.065534189 322:0.06027817 347:0.06027817 364:0.096859589 375:0.04149894 378:0.0311379 385:0.029650563 394:0.062756158 399:0.04461547 403:0.06027817 431:0.072126545 445:0.02369675 446:0.11848376 450:0.06027817 471:0.048429795 473:0.053347316 475:0.04149894 478:0.018529685 483:0.096859589 485:0.088951692 487:0.032767095 498:0.022719709 501:0.027015574 513:0.053347316 566:0.072126545 582:0.08923094 590:0.04461547 592:0.072126545 594:0.032767095 620:0.072126545 622:0.10974426 645:0.053347316 654:0.072126545 656:0.020918719 691:0.06027817 731:0.06027817 732:0.072126545 736:0.038863949 742:0.036581419 758:0.081046723 759:0.048429795 788:0.072126545 795:0.02008472 805:0.027015574 830:0.034568083 834:0.06027817 836:0.10669463 858:0.06027817 862:0.072126545 886:0.08923094 891:0.08923094 896:0.06027817 900:0.12055634 917:0.038863949 932:0.06027817 939:0.03857905 986:0.10974426 987:0.06027817 993:0.072126545 994:0.053347316 998:0.08923094 1007:0.038863949 1022:0.025836239 1042:0.06027817 1048:0.10669463 1055:0.13384642 1064:0.082997881 1079:0.13384642 1089:0.06027817 1100:0.022719709 1126:0.072126545 1144:0.02369675 1169:0.072126545 1197:0.062275801 1213:0.072126545 1222:0.029650563 1223:0.10669463 1228:0.06027817 1230:0.06027817 1270:0.062275801 1306:0.038863949 1322:0.072126545 1333:0.04461547 1334:0.036581419 1338:0.020918719 1348:0.072126545 1356:0.12449682 1369:0.048429795 1379:0.072126545 1385:0.034568083 1387:0.04461547 1405:0.04461547 1407:0.069136165 1443:0.04461547 1455:0.048429795 1493:0.02369675 1503:0.04461547 1526:0.048429795 1528:0.056564692 1532:0.053347316 1538:0.06027817 1553:0.034568083 1554:0.027015574 1584:0.0311379 1601:0.025836239 1613:0.056564692 1614:0.072126545 1631:0.04149894 1658:0.14632568 1711:0.096859589 1747:0.072126545 1749:0.051672477 1779:0.082169853 1785:0.069136165 1796:0.12055634 1803:0.034568083 1804:0.06027817 1808:0.06027817 1818:0.048429795 1834:0.14528939 1843:0.04461547 1848:0.038863949 1876:0.08484704 1880:0.019289525 1883:0.021795506 1909:0.059301127 1918:0.048429795 1927:0.053347316 1928:0.29265136 1958:0.082997881 1960:0.08923094 1962:0.04149894 1973:0.06027817 1981:0.072126545 1984:0.048429795 1985:0.053347316 2004:0.02369675 2049:0.072126545 2086:0.082997881 2118:0.072126545 2136:0.04461547 2171:0.021795506 2179:0.072126545 2192:0.04149894 2202:0.0311379 2218:0.021795506 2227:0.072126545 2336:0.04461547 2343:0.02369675 2345:0.072126545 2348:0.06027817 2367:0.06027817 2378:0.05131318 2385:0.13106838 2393:0.11659186 2417:0.096859589 2443:0.062756158 2452:0.0311379 2456:0.028282346 2461:0.02369675 2462:0.045439418 2478:0.029650563 2502:0.06027817 2508:0.053347316 2518:0.12055634 2537:0.024733044 2538:0.19371918 2546:0.04461547 2553:0.029650563 2580:0.11117811 2598:0.06027817 2601:0.036581419 2604:0.029650563 2607:0.02008472 2614:0.069136165 2620:0.054031149 2631:0.062275801 2645:0.096859589 2674:0.024733044 2679:0.072126545 2688:0.017802188 2704:0.025836239 2714:0.06027817 2719:0.04149894 2737:0.06027817 2763:0.034568083 2764:0.048429795 2777:0.08923094 2778:0.072126545 #
-0.091412572185156609760880996873311 4:0.16190743 11:0.066148683 37:0.081991427 51:0.11102347 119:0.081991427 150:0.099447109 185:0.21890183 193:0.21890183 200:0.081991427 221:0.21890183 257:0.15012804 270:0.13540657 335:0.29396585 415:0.2157567 478:0.11247403 616:0.13540657 888:0.099447109 1259:0.10491306 1262:0.2157567 1373:0.21890183 1410:0.21890183 1447:0.099447109 1514:0.056237016 1578:0.11795088 1681:0.14962977 1803:0.10491306 2093:0.13540657 2129:0.089988537 2138:0.21890183 2153:0.13540657 2161:0.23523654 2202:0.094502561 2213:0.13540657 2224:0.14698292 2343:0.2157567 2537:0.075064018 2542:0.21890183 2740:0.099447109 2796:0.21890183 #
-0.077167673209120851707254473694775 7:0.040509406 10:0.019926395 11:0.014647475 15:0.059966855 19:0.048471998 26:0.034726027 31:0.052236341 32:0.029983427 40:0.029983427 52:0.048471998 62:0.035851587 63:0.055777982 73:0.02611817 80:0.071703173 88:0.02611817 102:0.13018724 104:0.017363014 119:0.072622299 134:0.015268576 139:0.048471998 140:0.048471998 142:0.081018813 150:0.022020832 167:0.048471998 170:0.048471998 174:0.055777982 177:0.024584215 181:0.10447268 184:0.012963353 190:0.19006898 195:0.040509406 198:0.020925948 200:0.018155575 204:0.014647475 206:0.11993371 210:0.035851587 215:0.029983427 235:0.048471998 238:0.10447268 244:0.023231171 247:0.048471998 251:0.048471998 256:0.03631115 257:0.016621621 259:0.032546811 260:0.040509406 267:0.03631115 268:0.029983427 271:0.02611817 275:0.040509406 302:0.087884843 308:0.065093622 309:0.034726027 313:0.019006899 351:0.029983427 375:0.027888991 378:0.020925948 395:0.027888991 421:0.081018813 422:0.034726027 433:0.040509406 445:0.015925189 461:0.048471998 478:0.11207438 485:0.019926395 492:0.024584215 498:0.030537153 503:0.024584215 517:0.043942422 524:0.048471998 532:0.035851587 534:0.035851587 555:0.14991714 563:0.048471998 565:0.019006899 569:0.040509406 570:0.048471998 575:0.048471998 586:0.029983427 614:0.059966855 615:0.048471998 623:0.048471998 637:0.048471998 639:0.040509406 642:0.055777982 644:0.048471998 653:0.027888991 656:0.014058238 666:0.035851587 667:0.048471998 688:0.048471998 707:0.05977919 711:0.048471998 713:0.014647475 720:0.081018813 730:0.048471998 742:0.04916843 758:0.018155575 768:0.048471998 769:0.055777982 780:0.032546811 790:0.048471998 795:0.026995512 803:0.048471998 804:0.035851587 807:0.06277784 810:0.040509406 817:0.035851587 842:0.029983427 845:0.027888991 852:0.040509406 863:0.048471998 872:0.048471998 888:0.044041663 890:0.040509406 901:0.032546811 915:0.031850379 917:0.02611817 930:0.048471998 935:0.083666973 936:0.11155596 943:0.027888991 973:0.048471998 974:0.027888991 983:0.048471998 984:0.014058238 1000:0.040509406 1019:0.048471998 1021:0.048471998 1043:0.048471998 1047:0.048471998 1052:0.048471998 1059:0.052089039 1062:0.048471998 1083:0.032546811 1090:0.040509406 1091:0.048471998 1097:0.048471998 1098:0.040509406 1100:0.015268576 1106:0.046462342 1107:0.024584215 1114:0.10462974 1122:0.073752649 1144:0.015925189 1150:0.081018813 1180:0.024584215 1184:0.040509406 1188:0.035851587 1190:0.048471998 1197:0.020925948 1200:0.076027595 1222:0.09963198 1237:0.048471998 1245:0.083703794 1266:0.078354508 1268:0.035851587 1270:0.020925948 1271:0.055777982 1289:0.029983427 1290:0.048471998 1292:0.035851587 1310:0.048471998 1333:0.029983427 1337:0.083666973 1338:0.014058238 1345:0.065093622 1355:0.081018813 1362:0.039852791 1363:0.022088606 1369:0.032546811 1377:0.055777982 1418:0.048471998 1423:0.048471998 1444:0.048471998 1455:0.032546811 1463:0.048471998 1465:0.040509406 1476:0.048471998 1478:0.035851587 1488:0.048471998 1490:0.048471998 1493:0.015925189 1504:0.081018813 1508:0.018155575 1524:0.048471998 1526:0.032546811 1543:0.048471998 1554:0.018155575 1560:0.022020832 1563:0.040509406 1571:0.048471998 1591:0.059966855 1601:0.017363014 1609:0.048471998 1630:0.083666973 1641:0.06277784 1649:0.023231171 1651:0.040509406 1655:0.029983427 1661:0.03889006 1664:0.029983427 1666:0.032546811 1670:0.03631115 1685:0.083666973 1690:0.03631115 1720:0.12154109 1725:0.081018813 1742:0.048471998 1748:0.059966855 1749:0.017363014 1773:0.052236341 1777:0.024584215 1779:0.011044303 1799:0.040509406 1815:0.029983427 1818:0.032546811 1829:0.035851587 1850:0.048471998 1852:0.029983427 1858:0.27483439 1867:0.048471998 1873:0.035851587 1880:0.025926705 1883:0.014647475 1890:0.048471998 1893:0.027888991 1897:0.044041663 1904:0.048471998 1918:0.032546811 1927:0.035851587 1929:0.020925948 1945:0.02611817 1949:0.032546811 1951:0.035851587 1967:0.092924684 1980:0.059966855 1984:0.032546811 1994:0.035851587 1995:0.048471998 2003:0.020925948 2038:0.048471998 2039:0.048471998 2041:0.16740759 2054:0.026995512 2061:0.048471998 2086:0.027888991 2090:0.048471998 2095:0.032546811 2101:0.048471998 2102:0.040509406 2111:0.024584215 2136:0.029983427 2140:0.032546811 2141:0.035851587 2142:0.02611817 2150:0.065093622 2155:0.018155575 2171:0.043942422 2178:0.035851587 2183:0.04916843 2202:0.06277784 2208:0.040509406 2216:0.022020832 2218:0.014647475 2231:0.059966855 2233:0.11993371 2242:0.029983427 2250:0.048471998 2253:0.029983427 2264:0.092924684 2274:0.035851587 2301:0.029983427 2336:0.059966855 2337:0.081018813 2349:0.023231171 2359:0.040509406 2371:0.086815067 2378:0.011494854 2380:0.065093622 2381:0.048471998 2388:0.040509406 2394:0.015925189 2397:0.095034488 2410:0.019926395 2421:0.032546811 2431:0.040509406 2443:0.014058238 2452:0.020925948 2454:0.14991714 2456:0.038013797 2461:0.015925189 2462:0.030537153 2463:0.044041663 2478:0.019926395 2502:0.040509406 2503:0.035851587 2507:0.040509406 2529:0.040509406 2532:0.023231171 2537:0.033243243 2545:0.081018813 2557:0.040509406 2565:0.048471998 2566:0.048471998 2568:0.059966855 2572:0.041851897 2580:0.012452709 2581:0.035851587 2584:0.018155575 2592:0.048471998 2601:0.1475053 2602:0.065093622 2604:0.019926395 2607:0.013497756 2609:0.027888991 2614:0.023231171 2616:0.081018813 2624:0.040509406 2626:0.040509406 2629:0.055777982 2649:0.048471998 2662:0.032546811 2672:0.059966855 2674:0.033243243 2676:0.048471998 2682:0.071703173 2688:0.023927603 2693:0.048471998 2699:0.020925948 2710:0.098336861 2718:0.040509406 2725:0.048471998 2727:0.055221517 2739:0.11155596 2740:0.044041663 2742:0.048471998 2747:0.052236341 2754:0.029983427 2757:0.035851587 2765:0.040509406 2792:0.035851587 2798:0.027888991 #
-0.072098315361345130525272395516367 8:0.10612541 10:0.043627188 30:0.065646224 32:0.065646224 72:0.088691972 73:0.05718356 84:0.088691972 109:0.088691972 122:0.17155069 126:0.048212782 191:0.065646224 228:0.10612541 230:0.065646224 256:0.039750122 262:0.088691972 279:0.10612541 302:0.064138852 309:0.038014874 313:0.041614022 320:0.05718356 339:0.079500243 357:0.088691972 367:0.088691972 368:0.088691972 385:0.043627188 406:0.05718356 408:0.03342928 451:0.088691972 458:0.10905668 463:0.10612541 487:0.048212782 503:0.053825095 517:0.1282777 523:0.12212125 545:0.088691972 552:0.065646224 556:0.034866877 568:0.036391657 578:0.043627188 580:0.088691972 583:0.13129245 619:0.10612541 668:0.10612541 675:0.10612541 683:0.065646224 705:0.22907811 739:0.088691972 743:0.10172544 758:0.039750122 763:0.10612541 766:0.05718356 789:0.05718356 791:0.10612541 797:0.05718356 825:0.050862718 857:0.043627188 888:0.048212782 895:0.088691972 910:0.078494065 939:0.028382184 966:0.078494065 981:0.088691972 984:0.030779343 989:0.10612541 1001:0.038014874 1069:0.05718356 1106:0.050862718 1129:0.088691972 1137:0.045815621 1151:0.06685856 1166:0.029552214 1174:0.078494065 1179:0.065646224 1204:0.16147529 1208:0.088691972 1243:0.071258537 1254:0.088691972 1270:0.045815621 1299:0.088691972 1361:0.088691972 1363:0.024180584 1364:0.045815621 1404:0.061060626 1412:0.065646224 1431:0.053825095 1466:0.10612541 1474:0.065646224 1494:0.071258537 1495:0.088691972 1522:0.10612541 1554:0.039750122 1567:0.071258537 1628:0.10612541 1646:0.088691972 1649:0.050862718 1662:0.03342928 1663:0.071258537 1670:0.039750122 1681:0.024180584 1705:0.10612541 1708:0.071258537 1721:0.05718356 1736:0.088691972 1748:0.065646224 1752:0.041614022 1757:0.10612541 1761:0.088691972 1771:0.10612541 1773:0.05718356 1777:0.053825095 1798:0.10612541 1830:0.053825095 1849:0.078494065 1875:0.071258537 1876:0.041614022 1880:0.028382184 1885:0.061060626 1948:0.071258537 1987:0.11436712 1996:0.078494065 2006:0.088691972 2020:0.096425563 2036:0.088691972 2050:0.088691972 2066:0.05718356 2135:0.078494065 2155:0.079500243 2171:0.032069426 2191:0.065646224 2211:0.12212125 2254:0.05718356 2269:0.10612541 2316:0.078494065 2343:0.034866877 2378:0.050334059 2394:0.034866877 2404:0.10612541 2410:0.043627188 2420:0.10612541 2425:0.10612541 2456:0.041614022 2472:0.071258537 2495:0.078494065 2510:0.10612541 2513:0.088691972 2532:0.050862718 2536:0.078494065 2607:0.029552214 2630:0.050862718 2635:0.078494065 2637:0.078494065 2662:0.071258537 2688:0.026193747 2692:0.078494065 2701:0.10612541 2727:0.024180584 2763:0.050862718 2766:0.071258537 #
