SVM-light Version V6.02
0 # kernel type
3 # kernel parameter -d 
1 # kernel parameter -g 
1 # kernel parameter -s 
1 # kernel parameter -r 
empty# kernel parameter -u 
20196 # highest feature index 
49 # number of training documents 
31 # number of support vectors plus 1 
1.0058693 # threshold b, each following line is a SV (starting with alpha*y)
-0.15984823556906302410851594686392 102:0.10693161 414:0.043958608 425:0.10249821 725:0.10693161 1001:0.035131752 1018:0.036668111 1404:0.11523593 1686:0.020737786 2019:0.061524484 2039:0.044241518 2870:0.046163671 3003:0.024364276 3011:-0.015830752 3373:0.04193015 3473:0.10693161 3488:0.12304897 3528:0.079090364 3630:0.10693161 3807:0.079090364 3813:0.15818073 3858:0.15818073 4046:0.071799867 4062:0.10693161 4161:0.089365736 4176:0.066144913 4178:0.064790778 4215:0.10693161 4504:0.089365736 4528:0.036452487 4788:0.10249821 4946:0.071799867 4975:0.012210838 5012:0.13228983 5220:0.10693161 5435:0.066144913 5473:0.071799867 5653:0.066144913 5760:0.057617966 6043:0.087917216 6150:0.028177794 6224:0.057617966 6616:0.057617966 6685:0.061524484 6725:0.10693161 6757:0.089365736 6915:-0.036006533 7182:0.054233987 7302:0.035131752 7794:0.079090364 7836:0.10693161 7924:0.079090364 8343:0.022486217 8498:0.10693161 8715:0.079090364 8748:0.057617966 8776:0.089365736 9198:0.054233987 9410:-0.038075354 9581:0.051249105 9594:0.079090364 9708:0.089365736 9712:0.029776713 9788:0.071799867 9990:0.079090364 10094:0.011614523 10132:0.043958608 10156:0.10693161 10199:0.022486217 10207:0.023377018 10311:0.066144913 10563:0.10693161 10600:0.061524484 10699:0.012210838 10836:0.035131752 10921:0.066144913 11165:0.032313049 11268:-0.3299436 11420:0.052697625 11502:0.057617966 11962:0.10693161 12032:0.076607324 12058:0.046163671 12143:0.051249105 12210:0.033683229 12246:0.059553426 12411:0.080683731 12467:0.13228983 12660:-0.016029514 12849:0.071799867 13006:0.044972435 13193:0.10693161 13265:0.054233987 13323:0.12579045 13367:0.054233987 13574:0.10693161 13808:0.057617966 13958:0.051249105 14042:0.040052094 14110:0.079090364 14197:-0.35957924 14239:0.10693161 14438:0.035131752 14480:0.043958608 14534:0.089365736 14707:0.051249105 14766:0.079090364 14782:0.027471289 15027:0.10693161 15139:0.089365736 15327:0.061524484 15328:0.070263505 15534:0.066144913 15659:0.066144913 15728:0.032313049 15961:0.089365736 16518:0.10249821 16673:0.018322416 16785:0.089365736 16836:0.10693161 16875:0.057195589 16932:0.079090364 16960:0.040052094 17409:0.028177794 18004:0.00075089379 18031:0.040052094 18051:0.066144913 18253:0.089365736 18318:0.10693161 18323:0.03223471 18381:0.066144913 18552:0.079090364 18890:0.026894577 19049:0.0089435894 19114:0.054233987 19129:0.012821523 19164:-0.013534826 19569:0.10249821 19602:0.033683229 19845:0.054233987 19899:0.079090364 19953:0.036668111 19976:0.052785467 19995:0.016831268 20196:0.046163671 #
-0.12777693651147312148275148047105 30:0.20292903 541:0.15009341 572:0.066671133 1018:0.069586761 2010:0.16959347 2374:0.20292903 2602:0.20292903 2705:0.15009341 5077:0.20584466 5080:0.16959347 5172:0.044422157 6043:0.083422273 6224:0.10934426 6570:0.21868852 6679:0.16959347 6915:-0.017082812 7736:0.12552623 8544:0.11675784 8938:0.10292233 9025:0.12552623 9198:0.10292233 9202:0.20292903 9410:-0.018064337 10207:0.01478788 11268:-0.31307456 12032:0.21807185 12058:0.087606914 12411:0.025519535 13583:0.20292903 14042:0.076008692 14079:0.15009341 14197:-0.075821117 14415:0.33918694 14761:0.12552623 15086:0.12552623 15329:0.15009341 15708:0.16959347 15765:0.11675784 16098:0.10292233 17409:0.026737146 17663:0.046237204 18890:0.025519535 18898:0.11301727 19129:0.048663985 19264:0.087606914 19299:0.12552623 19953:0.069586761 20158:0.10292233 20196:0.087606914 #
-0.10924729373979331914501500477854 100:0.039980624 369:0.032032583 446:0.055583619 476:0.049821321 670:0.062010136 749:0.070117533 1018:0.025443695 1213:0.045897398 1304:0.062010136 1494:0.042691324 1617:0.035561323 1754:0.054880135 1933:0.079961248 1997:0.054880135 2259:0.049821321 2525:0.042691324 2562:0.074198946 2686:0.062010136 2870:0.032032583 2878:0.074198946 3003:0.016906166 3011:-0.065908946 3036:0.1376922 3055:0.049821321 3151:0.062010136 3263:0.01865517 3322:0.054880135 3324:0.074198946 3373:0.029094979 3380:0.019843768 3469:0.074198946 3486:0.027626349 3756:0.042691324 3858:0.054880135 3882:0.022421753 3912:0.045897398 4141:0.054880135 4202:0.11994187 4524:0.062010136 4528:0.0050588143 4591:0.074929625 4765:0.062010136 4788:0.035561323 4800:0.012990203 4937:0.061005019 4946:0.049821321 4975:0.0084729977 5007:0.045897398 5760:0.079961248 5841:0.019062096 5864:0.037632506 5943:0.089687012 5991:0.062010136 6025:0.087284938 6043:0.030502509 6047:0.091794796 6081:0.062010136 6150:0.019552333 6467:0.071122646 6538:0.049821321 6713:0.062010136 6798:0.064559318 6826:0.074198946 6839:0.054880135 6915:-0.0062461575 7134:0.045897398 7182:0.11289752 7212:0.032485023 7567:0.062010136 7601:0.049821321 7674:0.030502509 7870:0.049821321 8056:0.074198946 8174:0.045897398 8197:0.062010136 8343:0.031205993 8487:0.074198946 8522:0.062010136 8564:0.011524596 8590:0.039980624 8607:0.054880135 8748:0.039980624 9080:0.054880135 9198:0.037632506 9410:-0.013210084 9438:0.029094979 9581:0.071122646 9594:0.054880135 9686:0.074198946 9690:0.074198946 9912:0.016906166 10026:0.074198946 10228:0.042691324 10231:0.054880135 10286:0.058189958 10328:0.074198946 10542:0.062010136 10600:0.042691324 10656:0.029094979 10755:0.062010136 10833:0.054880135 10889:0.074198946 11017:0.062010136 11146:0.045897398 11268:-0.25183961 11275:0.12402027 11304:0.045897398 11449:0.0037310338 11450:0.027791809 11502:0.039980624 11508:0.041323621 11543:0.014985925 11640:0.074198946 11698:0.033708587 12032:0.026578588 12110:-0.0037158155 12143:0.035561323 12179:0.062010136 12210:0.046745021 12434:0.074198946 12566:0.042691324 12660:-0.022245489 12767:0.062010136 12817:0.045897398 12849:0.099642642 13006:0.015602997 13136:0.062010136 13290:0.035561323 13294:0.049821321 13296:0.062010136 13367:0.037632506 13452:0.074198946 13561:0.049821321 13623:0.074198946 13675:0.049821321 13937:0.074198946 14042:0.027791809 14068:0.042691324 14144:0.074198946 14172:0.10668397 14197:-0.58218771 14414:0.035191704 14438:0.024377625 14480:0.030502509 14722:0.062010136 14766:0.054880135 14909:0.049821321 14953:0.079961248 15100:0.035561323 15298:0.062010136 15328:0.024377625 15351:0.012713769 15357:0.062010136 15399:0.02337251 15534:0.045897398 15728:0.044843506 15833:0.062010136 15931:0.062010136 16035:0.062010136 16193:0.075265013 16204:0.037632506 16502:0.074198946 16518:0.071122646 16553:0.039980624 16645:0.049821321 16673:0.025427539 16875:0.019843768 16960:0.083375432 17246:0.032032583 17316:0.045897398 17409:0.019552333 17566:0.074198946 17574:0.074198946 17659:0.062010136 17663:0.016906166 17664:0.032032583 17894:0.016242512 18031:0.027791809 18122:0.054880135 18240:0.049821321 18262:0.035561323 18323:0.011183698 18335:0.062010136 18529:0.037632506 18594:0.099642642 18643:0.022421753 18890:0.03732384 19045:0.054880135 19111:0.07628262 19129:0.0088967467 19164:-0.018783404 19264:0.064065166 19382:0.074198946 19899:0.054880135 19995:0.011679075 20196:0.032032583 #
-0.27277976837180434310781151907577 572:0.1135893 2208:0.14212863 3011:-0.10236916 3303:0.34573534 4800:0.030264392 5077:0.17535138 6270:0.14212863 8544:0.19892329 8938:0.17535138 9410:-0.030776668 11268:-0.42671445 11522:0.12949793 12032:0.12384484 12787:0.10447577 12817:0.21386223 12968:0.16570054 13006:0.14540656 14042:0.12949793 14197:-0.12917835 14371:0.18629259 14931:0.34573534 15289:0.23214602 15616:0.13557014 16353:0.28894067 16673:0.059240725 16960:0.12949793 17409:0.091105506 20196:0.14925812 #
-0.066431681469421285934906507009146 448:0.060413212 739:0.057881951 751:0.13030675 781:0.10897825 1264:0.17617711 1578:0.089354187 2263:0.13030675 2276:0.10897825 2435:0.080037273 2863:0.037047572 3011:-0.05216448 3036:0.10897825 3722:0.17617711 4267:0.13030675 4528:0.03603477 4942:0.17617711 5321:0.089354187 5879:0.13030675 6233:0.1319771 6798:0.051096298 6845:0.065988548 7518:0.065988548 7567:0.14723614 7762:0.13030675 8237:0.065595679 8241:0.084436394 8261:0.13030675 8564:0.027363867 8748:0.18985905 8917:0.094929524 9761:0.057881951 10155:0.2606135 10286:0.069082782 11268:-0.21744183 11420:0.028940976 12411:0.022155322 12549:0.2606135 12649:0.35488549 12660:-0.026409715 13006:0.037047572 14068:0.10136577 14197:-0.1316514 14263:0.14723614 14480:0.072424799 14959:0.13030675 15297:0.084436394 15380:0.065988548 15710:0.10136577 15728:0.1064759 16193:0.089354187 16960:0.1319771 17351:0.12082642 17409:0.023212418 17436:0.17617711 17848:0.29447228 18004:0.00061857433 19111:0.030187426 19164:-0.022299547 19953:0.12082642 19962:0.14723614 20196:0.076057792 #
0.99999999746856982341114417067729 7:0.052045602 8:0.052045602 40:0.028043734 42:0.043495964 61:0.029945109 183:0.059847463 248:0.032193959 279:0.052045602 352:0.043495964 356:0.043495964 414:0.085581884 422:0.043495964 482:0.032193959 492:0.043495964 541:0.038494747 572:0.034198549 593:0.043495964 613:0.052045602 651:0.043495964 708:0.043495964 724:0.043495964 739:0.017099274 835:0.028043734 896:0.043495964 923:0.039223079 1001:0.034198549 1139:0.032193959 1261:0.047182079 1341:0.052045602 1425:0.032193959 1595:0.043495964 1617:0.024943892 1666:0.14810777 1754:0.038494747 1839:0.043495964 1933:0.084131204 2019:0.059890218 2020:0.032788508 2034:0.026396688 2039:0.021533169 2058:0.026396688 2061:0.043495964 2308:0.043495964 2347:0.032193959 2428:0.052045602 2487:0.052045602 2795:0.032193959 2863:0.076611213 2877:0.06740614 2904:0.069892652 2940:0.043495964 3011:-0.023115361 3059:0.034946326 3073:0.084131204 3077:0.038494747 3204:0.032193959 3263:0.0026170707 3299:0.064387918 3316:0.038494747 3486:0.019378036 3629:0.043495964 3756:0.029945109 3778:0.069892652 3934:0.029945109 3962:0.070932962 4028:0.052045602 4046:0.069892652 4050:0.029945109 4117:0.026396688 4173:0.023644319 4176:0.032193959 4186:0.052045602 4199:0.069892652 4406:0.043495964 4416:0.047288638 4435:0.10483897 4436:0.043495964 4528:0.01064526 4614:0.044937428 4628:0.043495964 4640:0.028043734 4655:0.034946326 4975:0.0059432415 5123:0.032193959 5172:0.011393036 5324:0.089835323 5473:0.034946326 5512:0.043495964 5547:0.059890218 5575:0.052045602 5608:0.043495964 5618:0.032193959 5841:0.026741572 5913:0.019494096 6019:0.10204091 6053:0.069892652 6068:0.096581869 6224:0.056087468 6236:0.052045602 6270:0.021395471 6299:0.06037873 6342:0.043495964 6351:0.034946326 6424:0.026396688 6441:0.069892652 6467:0.024943892 6498:0.064387918 6657:0.038494747 6745:0.032193959 6881:0.052045602 6912:0.029945109 6915:-0.026287571 6938:0.052045602 6973:0.034946326 7115:0.043495964 7116:0.052045602 7212:0.045572143 7218:0.043495964 7222:0.043495964 7263:0.043495964 7310:0.034946326 7323:0.034946326 7338:0.052045602 7423:0.052045602 7462:0.1397853 7470:0.052045602 7520:0.074831672 7614:0.049887784 7757:0.043495964 7765:0.052045602 7810:0.052045602 7905:0.024943892 7927:0.018643102 7936:0.038494747 8031:0.027838154 8033:0.13115403 8038:0.038494747 8077:0.052045602 8087:0.052045602 8159:0.052045602 8241:0.024943892 8291:0.043495964 8313:0.043495964 8365:0.064387918 8500:0.052045602 8546:0.038494747 8753:0.03145472 8903:0.052045602 8920:0.089835323 8930:0.043495964 8947:0.028043734 8966:0.022468714 9006:0.034946326 9043:0.043495964 9080:0.038494747 9147:0.043495964 9274:0.029945109 9312:0.020408183 9339:0.096581869 9410:-0.018531982 9574:0.043495964 9681:0.043495964 9696:0.052045602 9697:0.034946326 9798:0.052045602 9882:0.038494747 9890:0.059890218 9912:0.011858545 10015:0.038494747 10094:0.0056530042 10102:0.052045602 10125:0.043495964 10132:0.085581884 10141:0.037286203 10145:0.043495964 10233:0.086991929 10286:0.020408183 10417:0.043495964 10422:0.064387918 10437:0.06740614 10444:0.038494747 10459:0.043495964 10559:0.028043734 10589:0.069892652 10592:0.052045602 10656:0.10204091 10694:0.034946326 10699:0.011886483 10786:0.043495964 10787:0.052045602 10931:0.043495964 10965:0.047288638 11000:0.043495964 11087:0.043495964 11146:0.032193959 11268:-0.40147418 11317:0.064387918 11475:0.086991929 11508:0.014492879 11522:0.077976383 11606:0.043495964 11636:0.042790942 11710:0.022468714 11759:0.052045602 11917:0.086991929 11985:0.11548424 12039:0.052045602 12387:0.034946326 12502:0.043495964 12554:0.023644319 12644:0.096581869 12660:-0.007801862 12672:0.04477099 12676:0.043495964 12678:0.024943892 12681:0.052045602 12750:0.032193959 12787:0.062909439 12817:0.032193959 12864:0.038494747 12875:0.043495964 12876:0.038988192 12914:0.040816367 13006:0.032833375 13010:0.043495964 13027:0.022468714 13070:0.040816367 13134:0.043495964 13155:0.043495964 13189:0.032193959 13257:0.052045602 13307:0.089874856 13367:0.026396688 13438:0.052045602 13584:0.043495964 13676:0.038494747 13775:0.01783572 13811:0.05255812 13812:0.070932962 13861:0.052045602 13862:0.052045602 13995:-0.011412478 14030:0.038494747 14042:0.019494096 14145:0.038494747 14168:0.043495964 14197:-0.13612191 14319:0.043495964 14371:0.056087468 14414:0.024684627 14433:0.028043734 14438:0.017099274 14547:0.043495964 14562:0.029945109 14621:0.038494747 14751:0.052045602 14782:0.013370786 14847:0.019494096 14903:0.069892652 15160:0.052045602 15180:0.042790942 15214:0.096581869 15383:0.052793376 15399:0.032788508 15610:0.055929307 15613:0.034946326 15616:0.020408183 15634:0.043495964 15659:0.032193959 15662:0.058482289 15710:0.059890218 15728:0.01572736 15750:0.074572407 15765:0.059890218 15892:0.043495964 15911:0.028043734 16041:0.034946326 16085:0.032193959 16261:0.047288638 16314:0.043495964 16388:0.026396688 16428:0.06037873 16544:0.043495964 16629:0.043495964 16645:0.034946326 16673:0.0089178598 16701:0.038494747 16852:0.038494747 16862:0.043495964 16875:0.013919077 17023:0.043495964 17024:0.026396688 17252:0.024943892 17332:0.043495964 17490:0.024943892 17506:0.019494096 17532:0.043495964 17580:0.052045602 17601:0.038494747 17609:0.015094683 17663:0.047434181 17868:0.043495964 17873:0.043495964 17894:0.011393036 17960:0.086991929 17986:0.0096890181 18011:0.043495964 18132:0.038494747 18323:0.015689231 18335:0.043495964 18340:0.052045602 18390:0.038494747 18396:0.043495964 18431:0.052045602 18525:0.043495964 18530:0.032193959 18547:0.052045602 18616:0.052045602 18741:0.032193959 18792:0.038494747 18808:0.068397097 18882:0.028043734 18890:0.032725222 18944:0.052045602 19008:0.043495964 19046:0.028043734 19049:0.013059032 19119:0.059890218 19164:-0.0065876511 19197:0.032193959 19215:0.032193959 19219:0.013919077 19247:0.043495964 19442:0.043495964 19530:0.043495964 19561:0.043495964 19615:0.043495964 19668:0.052045602 19690:0.038494747 19734:0.043495964 19775:0.042790942 19782:0.059890218 19794:0.043495964 19931:0.034946326 19939:0.059890218 19966:0.034946326 19976:0.012845833 19995:0.016384181 20029:0.038494747 20110:0.064387918 20189:0.029945109 #
0.99999999746856982341114417067729 40:0.021942485 42:0.0340329 143:0.12594889 183:0.040137373 200:0.0680658 240:0.0340329 352:0.0340329 356:0.0340329 414:0.033481263 422:0.0340329 425:0.039034102 492:0.0340329 494:0.04072246 541:0.030119754 572:0.040137373 593:0.0340329 651:0.0340329 708:0.0340329 724:0.0340329 739:0.026758248 835:0.065827459 896:0.0340329 923:0.073655114 995:0.075569332 1001:0.026758248 1046:0.025189778 1092:0.020653775 1158:0.011810654 1222:0.04072246 1261:0.024611371 1269:0.04072246 1298:0.04388497 1318:0.027343336 1379:0.0340329 1425:0.050379556 1491:0.025189778 1527:0.04072246 1595:0.0340329 1666:0.12554225 1802:0.058348294 1839:0.0340329 1933:0.021942485 1953:0.060239509 2019:0.046860386 2039:0.01684837 2061:0.0340329 2070:0.030119754 2570:0.04072246 2589:0.050379556 2863:0.042816807 2870:0.017580377 2904:0.054686673 2940:0.0340329 3003:0.0092785768 3073:0.021942485 3109:0.04072246 3243:0.030119754 3299:0.075569332 3368:0.021942485 3455:0.060239509 3465:0.04072246 3580:0.04072246 3629:0.0340329 3756:0.023430193 3778:0.054686673 3805:0.066962525 3931:0.04072246 3962:0.074000865 4046:0.027343336 4117:0.020653775 4173:0.055500649 4199:0.054686673 4359:0.04072246 4406:0.0340329 4436:0.0340329 4463:0.0340329 4469:0.04072246 4503:0.04130755 4523:0.054686673 4530:0.0340329 4551:0.020653775 4579:0.04072246 4628:0.0340329 4640:0.021942485 4675:0.0340329 4730:0.04072246 4937:0.016740631 4955:0.04072246 5007:0.025189778 5123:0.075569332 5172:0.0089143449 5180:0.029174147 5324:0.07029058 5512:0.0340329 5547:0.093720771 5597:0.04072246 5617:0.0680658 5618:0.10075911 5742:0.082674578 5745:0.04072246 5841:0.031385437 5913:0.16778216 5943:0.012305685 5996:0.04072246 6019:0.079840697 6053:0.054686673 6064:0.060239509 6148:0.023430193 6165:0.07029058 6224:0.065827459 6270:0.033481263 6299:0.011810654 6342:0.0340329 6351:0.027343336 6467:0.078068204 6498:0.050379556 6521:0.027343336 6657:0.030119754 6745:0.075569332 6838:0.0680658 6855:0.04072246 6883:0.025189778 6912:0.023430193 7032:0.04072246 7115:0.0340329 7212:0.044571728 7218:0.0340329 7222:0.0340329 7263:0.0340329 7290:0.04072246 7323:0.027343336 7520:0.058551151 7614:0.039034102 7640:0.030119754 7757:0.0340329 7779:0.0085633611 7905:0.039034102 7927:0.04376122 7929:0.04388497 7936:0.060239509 7986:0.0340329 7997:0.0340329 8031:0.010890815 8033:0.025654977 8034:0.019517051 8038:0.030119754 8045:0.015252924 8144:0.018500216 8183:0.04072246 8250:0.0340329 8291:0.0340329 8309:0.04072246 8313:0.0340329 8365:0.025189778 8495:0.0340329 8546:0.030119754 8587:0.027343336 8607:0.030119754 8624:0.017580377 8673:0.04072246 8917:0.021942485 8920:0.07029058 8930:0.0340329 8938:0.020653775 8966:0.017580377 9006:0.027343336 9043:0.0340329 9147:0.0340329 9274:0.023430193 9312:0.015968138 9339:0.050379556 9384:0.0340329 9410:-0.025375225 9433:0.04072246 9438:0.015968138 9670:0.015252924 9681:0.0340329 9712:0.03401934 9761:0.080274746 9857:0.04072246 9890:0.023430193 9989:0.04072246 10015:0.060239509 10125:0.0340329 10132:0.083703153 10141:0.029174147 10193:0.04072246 10207:0.0089026028 10281:0.04072246 10417:0.0340329 10422:0.075569332 10444:0.030119754 10559:0.021942485 10600:0.023430193 10642:0.025189778 10672:0.065827459 10699:0.0093004368 10921:0.025189778 10931:0.0340329 10932:0.10971243 10965:0.055500649 11000:0.0340329 11087:0.0340329 11268:-0.52773619 11317:0.050379556 11351:0.04072246 11353:0.04072246 11449:0.0020476959 11450:0.030505847 11485:0.018500216 11508:0.011339781 11522:0.091517538 11602:0.04072246 11606:0.0340329 11852:0.023430193 12026:0.04072246 12032:0.014587074 12103:0.04072246 12116:0.04072246 12133:0.082030006 12161:0.025189778 12455:0.025189778 12598:0.023430193 12660:-0.006104474 12672:0.03261463 12676:0.0340329 12688:0.04072246 12750:0.025189778 12787:0.049222741 12790:0.04072246 12817:0.025189778 12864:0.030119754 12875:0.0340329 12960:0.04072246 12974:0.0340329 12984:0.055500649 13006:0.042816807 13027:0.017580377 13134:0.0340329 13155:0.0340329 13199:0.020653775 13230:0.027343336 13307:0.035160754 13584:0.0340329 13676:0.030119754 13748:0.030119754 13775:0.041866038 13808:0.021942485 13811:0.024674086 13812:0.055500649 13838:0.0340329 13958:0.019517051 13995:-0.0089295572 14042:0.015252924 14068:0.023430193 14077:0.04072246 14168:0.0340329 14172:0.039034102 14197:-0.21301393 14319:0.0340329 14335:0.04072246 14547:0.0340329 14563:0.04072246 14621:0.030119754 14720:0.0680658 14859:0.04072246 14903:0.054686673 15180:0.050221894 15241:0.0340329 15265:0.019517051 15351:0.0069776727 15383:0.04130755 15388:0.037000433 15399:0.051309954 15410:0.0340329 15446:0.030119754 15610:0.014587074 15613:0.082030006 15634:0.0340329 15635:0.04072246 15659:0.025189778 15710:0.046860386 15750:0.08752244 15886:0.033481263 15892:0.0340329 15996:0.0340329 16060:0.04072246 16098:0.020653775 16110:0.025189778 16261:0.074000865 16314:0.0340329 16388:0.0826151 16418:0.04072246 16509:0.060239509 16587:0.04072246 16629:0.0340329 16645:0.027343336 16673:0.0069776727 16852:0.060239509 16862:0.0340329 16982:0.04072246 17176:0.04072246 17252:0.039034102 17332:0.0340329 17377:0.054686673 17506:0.015252924 17516:0.012305685 17532:0.0340329 17598:0.023430193 17601:0.030119754 17663:0.0092785768 17830:0.04072246 17868:0.0340329 17986:0.0075810566 18011:0.0340329 18090:0.030119754 18132:0.030119754 18323:0.0061379261 18390:0.060239509 18396:0.0340329 18525:0.0340329 18530:0.025189778 18552:0.030119754 18631:0.04072246 18792:0.030119754 18808:0.10703299 18866:0.04072246 18887:0.046860386 18890:0.035847645 19008:0.0340329 19016:0.04072246 19049:0.0051089423 19073:0.018413778 19119:0.023430193 19164:-0.005154429 19201:0.04072246 19247:0.0340329 19286:0.04072246 19378:0.060239509 19409:0.04072246 19438:0.04072246 19442:0.0340329 19530:0.0340329 19606:0.0680658 19615:0.0340329 19635:0.030119754 19734:0.0340329 19782:0.046860386 19794:0.0340329 19878:0.04072246 19931:0.027343336 19939:0.093720771 19966:0.027343336 19976:0.030153207 19995:0.012819607 20029:0.060239509 20110:0.075569332 20189:0.023430193 #
-0.22523348065881554358469429644174 164:0.072440922 249:0.052339334 252:0.057604365 348:0.038678791 369:0.024868499 372:0.096283153 412:0.090726264 425:0.027608039 448:0.039506432 472:0.035632454 555:0.052339334 615:0.066286832 808:0.075702295 845:0.085212402 872:0.071041882 1046:0.071264908 1092:0.087648012 1158:0.01670688 1220:0.057604365 1261:0.069628522 1310:0.029216003 1366:0.057604365 1374:0.057604365 1425:0.035632454 1496:0.042606201 1686:0.033514511 1692:0.057604365 1790:0.031038962 2020:0.018145252 2039:0.015888687 2221:0.048141576 2425:0.096283153 2571:0.057604365 2589:0.035632454 2625:0.048141576 2863:0.012113389 2928:0.033143416 3011:-0.076752633 3055:0.038678791 3263:0.0086897658 3359:0.0057931775 3373:0.022587892 3380:0.015405713 3452:0.027608039 3486:0.01072386 3528:0.042606201 3805:0.047361255 3853:0.082824118 3882:0.01740713 3934:0.099430248 3950:0.035632454 4178:0.034902975 4232:0.048141576 4263:0.15701801 4343:0.077357583 4411:0.018925574 4503:0.029216003 4509:0.042606201 4528:0.0039274115 4549:0.057604365 4566:0.062077925 4627:0.057604365 4674:0.033143416 4693:0.048141576 4800:0.055467203 4937:0.047361255 4975:0.0065780133 4999:0.012113389 5020:0.01740713 5027:0.048141576 5048:0.048141576 5077:0.029216003 5099:0.048141576 5110:0.057604365 5172:0.063049383 5339:0.085212402 5373:0.043152351 5473:0.038678791 5608:0.048141576 5648:0.096283153 5677:0.077357583 5702:0.024868499 5742:0.050120637 5902:0.048141576 5913:0.021576175 6092:0.035632454 6242:0.048141576 6270:0.023680627 6271:0.057604365 6299:0.066827521 6351:0.038678791 6496:0.048141576 6546:0.048141576 6589:0.027608039 6605:0.048141576 6616:0.031038962 6630:0.057604365 6685:0.033143416 6825:0.048141576 6830:0.062077925 6914:0.035632454 6973:0.038678791 7023:0.10689736 7049:0.096283153 7072:0.018925574 7144:0.057604365 7170:0.049736999 7212:0.025219753 7230:0.048141576 7472:0.057604365 7520:0.027608039 7617:0.057604365 7690:0.14252982 7755:0.014798861 7779:0.048453555 7811:0.048141576 7870:0.077357583 7875:0.057604365 7891:0.031038962 7927:0.020634292 7958:0.042606201 7997:0.048141576 8027:0.11686401 8033:0.018145252 8034:0.055216078 8046:0.057604365 8144:0.052339334 8154:0.042606201 8229:0.013125105 8241:0.027608039 8343:0.024226777 8401:0.096283153 8478:0.047361255 8501:0.042606201 8513:0.091392584 8521:0.057604365 8522:0.048141576 8587:0.038678791 8695:0.057604365 8753:0.01740713 8881:0.057604365 8966:0.024868499 9108:0.031038962 9198:0.029216003 9230:0.048141576 9251:0.1278186 9410:-0.046150427 9432:0.024868499 9438:0.022587892 9595:0.019753216 9712:0.0160408 9764:0.038678791 9890:0.033143416 10094:0.06256777 10199:0.024226777 10207:0.041977555 10318:0.042606201 10381:0.048141576 10437:0.024868499 10461:0.057604365 10481:0.096283153 10593:0.01740713 10607:0.038678791 10656:0.022587892 10675:0.048141576 10699:0.03946808 10890:0.018925574 10932:0.062077925 10948:0.029597722 10965:0.052339334 10997:0.018925574 11076:0.057604365 11182:0.057604365 11268:-0.31993482 11375:0.082824118 11420:0.0094627868 11449:0.0057931775 11450:0.021576175 11522:0.021576175 11636:0.023680627 11698:0.026169667 11852:0.033143416 11864:0.085212402 11905:0.042606201 12032:0.020634292 12110:-0.069234572 12139:0.048141576 12161:0.14252982 12411:0.0072440924 12598:0.033143416 12642:0.057604365 12660:-0.025905434 12678:0.082824118 12787:0.01740713 12965:0.048141576 12968:0.027608039 12995:0.038678791 13027:0.024868499 13265:0.029216003 13307:0.024868499 13323:0.022587892 13433:0.048141576 13485:0.038678791 13593:0.01740713 13737:0.085212402 13775:0.0098703373 13881:0.077357583 13928:0.033143416 13958:0.027608039 13987:0.096283153 14197:-0.23675221 14371:0.031038962 14414:0.027321085 14437:0.12415585 14438:0.018925574 14455:0.057604365 14527:0.057604365 14707:0.027608039 14752:0.057604365 14782:0.073994309 14813:0.048141576 14847:0.021576175 14868:0.024868499 14985:0.082537167 15019:0.057604365 15058:0.048141576 15100:0.027608039 15170:0.042606201 15196:0.048141576 15289:0.038678791 15328:0.037851147 15345:0.057604365 15351:0.0098703373 15380:0.021576175 15383:0.029216003 15395:0.057604365 15399:0.018145252 15537:0.057604365 15594:0.035632454 15610:0.020634292 15616:0.045175783 15662:0.021576175 15863:0.057604365 15886:0.047361255 15995:0.026169667 16088:0.018145252 16098:0.029216003 16108:0.057604365 16138:0.096283153 16261:0.026169667 16518:0.027608039 16639:0.057604365 16656:0.11043216 16673:0.059222024 16838:0.096283153 16855:0.048141576 16875:0.077028565 16921:0.066286832 16968:0.048141576 17002:0.057604365 17017:0.12380575 17143:0.035632454 17323:0.038678791 17343:0.057604365 17377:0.038678791 17409:0.022769187 17609:0.01670688 17663:0.02625021 17706:0.057604365 17800:0.057604365 17894:0.025219753 17986:0.01072386 18106:0.057604365 18132:0.042606201 18258:0.057604365 18262:0.055216078 18381:0.071264908 18537:0.042606201 18882:0.031038962 18890:0.02897637 19049:0.0024089685 19071:0.020634292 19073:0.026047396 19164:-0.021873748 19257:0.048141576 19261:0.057604365 19356:0.085212402 19536:0.027608039 19602:0.018145252 19628:0.096283153 19636:0.012113389 19775:0.023680627 19782:0.033143416 19840:0.096283153 19875:0.096283153 19896:0.057604365 19976:0.014217841 19995:0.009067052 20137:0.035632454 20188:0.033143416 #
-0.15958566564431481138441881739709 61:0.083706364 248:0.089992635 414:0.059807334 572:0.047798064 801:0.12158544 1139:0.089992635 1494:0.25111911 1802:0.31268138 1959:0.089992635 2034:0.073787369 2276:0.089992635 2396:0.14548446 2579:0.14548446 2795:0.089992635 3003:0.033148509 3011:-0.043076657 3073:0.078391403 3263:0.087786816 3387:0.097686402 3486:0.054167945 3638:0.14548446 4380:0.14548446 4435:0.097686402 4800:0.012735172 4975:0.016613303 5012:0.089992635 5180:0.10422713 5653:0.089992635 5841:0.037375715 5902:0.12158544 5943:0.043963112 6424:0.073787369 6757:0.12158544 6914:0.089992635 6973:0.097686402 7212:0.063694522 8033:0.091654591 8144:0.066093601 8237:0.027083972 8354:0.052113563 8624:0.062807404 8637:0.14548446 8753:0.043963112 8947:0.078391403 8952:0.12158544 9670:0.054492369 9712:0.040512335 9912:0.033148509 10094:0.031603988 10132:0.059807334 10207:0.010601769 10231:0.1076054 10699:0.016613303 11053:0.14548446 11268:-0.13467018 11323:0.089992635 11412:0.13945265 11449:0.0073155682 11518:0.14548446 11543:0.20568398 12210:0.045827296 12212:0.14548446 12660:-0.021808755 12914:0.11409508 12984:0.1321872 13189:0.089992635 13323:0.057047538 13811:0.088150278 14197:-0.21743156 14257:0.14548446 14414:0.0690016 15086:0.089992635 15373:0.14548446 15455:0.069726326 15911:0.078391403 16085:0.089992635 16428:0.16877829 16673:0.049856663 16875:0.03890837 17252:0.069726326 17598:0.083706364 17609:0.042194571 17679:0.14548446 17873:0.12158544 17894:0.031847261 17986:0.027083972 18262:0.069726326 18323:0.021928266 18735:0.14548446 18890:0.01829554 19111:0.074784994 19129:0.034888323 19164:-0.018414637 19264:0.062807404 19775:0.11961467 19976:0.035908304 20193:0.073787369 #
-0.09964090920436219356304263783386 2863:0.08359953 4178:0.080293313 5099:0.33224505 6830:0.21421279 6915:-0.03346638 8033:0.12522793 9712:0.11070423 10699:0.045397602 11268:-0.12266684 11637:0.39755166 12644:0.24591437 13070:0.15588842 14414:0.094277084 14782:0.1021331 15616:0.15588842 16156:0.39755166 16673:0.068119302 16875:0.21264246 17377:0.26693842 19193:0.39755166 20192:0.24591437 #
-0.15000871874929186389202584450686 781:0.35195279 2690:0.56897616 3011:-0.1684688 6025:0.22310762 11268:-0.35112172 12110:-0.028493809 12267:0.47550932 16673:0.097492382 19073:0.085759401 20188:0.32736781 #
-0.068290612455290722326850527679198 40:0.040379658 61:0.043117415 183:0.086173266 248:0.04635549 348:0.050318576 414:0.061613895 418:0.074939512 482:0.04635549 572:0.024620933 614:0.074939512 677:0.074939512 761:0.074939512 860:0.043117415 871:0.10774876 923:0.01129532 998:0.055427883 1139:0.04635549 1617:0.035916254 1804:0.074939512 1854:0.074939512 1959:0.04635549 2020:0.023605786 2034:0.038008109 2039:0.010335072 2161:0.074939512 2188:0.12525809 2409:0.062629044 2456:0.08623483 2484:0.043117415 2542:0.020041825 2646:0.062629044 2795:0.04635549 2863:0.031517453 3011:-0.055472307 3059:0.050318576 3309:0.062629044 3486:0.02790208 3488:0.043117415 3528:0.055427883 3769:0.062629044 3774:0.038008109 3820:0.062629044 4050:0.043117415 4117:0.15203243 4122:0.062629044 4173:0.034045026 4463:0.062629044 4528:0.010218611 4702:0.043117415 4751:0.074939512 4800:0.0065599275 4975:0.0085575646 4999:0.031517453 5123:0.04635549 5147:0.074939512 5156:0.074939512 5172:0.03280925 5432:0.055427883 5435:0.13906647 5673:0.11402433 5703:0.050318576 5760:0.040379658 5841:0.038504701 6025:0.029385369 6043:0.061613895 6092:0.04635549 6165:0.08623483 6184:0.074939512 6233:0.084207579 6424:0.15203243 6498:0.04635549 6521:0.050318576 6538:0.050318576 6570:0.040379658 6589:0.071832508 6798:0.043469112 6915:-0.0063084988 6981:0.055427883 7050:0.074939512 7134:0.04635549 7170:0.032352291 7640:0.055427883 7779:0.015758727 7929:0.040379658 8045:0.056138385 8152:0.074939512 8166:0.11085577 8265:0.074939512 8405:0.043117415 8495:0.062629044 8753:0.067936614 8947:0.040379658 8966:0.032352291 9180:0.074939512 9198:0.038008109 9410:-0.013341931 9438:0.058770739 9631:0.074939512 9712:0.020868031 9912:0.017074902 10132:0.030806947 10141:0.026843863 10165:0.074939512 10207:0.027305026 10463:0.13906647 10559:0.040379658 10589:0.050318576 10687:0.062629044 10699:0.0085575646 10844:0.026843863 10850:0.055427883 11025:0.055427883 11265:0.04635549 11323:0.04635549 11420:0.012310467 11485:0.034045026 11508:0.10434016 11698:0.034045026 11758:0.062629044 11804:0.040379658 11874:0.074939512 11987:0.074939512 12210:0.023605786 12246:0.083472125 12528:0.074939512 12660:-0.011233758 12787:0.045291077 12876:0.028069193 12892:0.074939512 12914:0.088156104 12958:0.074939512 12968:0.035916254 12974:0.062629044 13189:0.04635549 13241:0.074939512 13307:0.064704582 13546:0.074939512 13570:0.12525809 13775:0.012840663 13811:0.10594847 13812:0.034045026 13995:-0.0082163094 14030:0.055427883 14172:0.035916254 14197:-0.16799954 14480:0.030806947 14492:0.055427883 14514:0.074939512 14770:0.11085577 14847:0.084207579 14974:0.064704582 14985:0.08053159 15289:0.050318576 15297:0.035916254 15327:0.043117415 15328:0.024620933 15329:0.055427883 15446:0.11085577 15611:0.074939512 15616:0.029385369 15702:0.04635549 15765:0.043117415 15911:0.080759317 15915:0.074939512 15952:0.074939512 16041:0.050318576 16085:0.04635549 16188:0.074939512 16302:0.074939512 16403:0.055427883 16428:0.086938225 16553:0.040379658 16600:0.062629044 16601:0.074939512 16656:0.035916254 16673:0.03852199 16875:0.020041825 16972:0.074939512 17024:0.038008109 17275:0.074939512 17334:0.055427883 17338:0.074939512 17351:0.025697643 17480:0.074939512 17490:0.035916254 17501:0.12525809 17508:0.074939512 17516:0.15851878 17598:0.043117415 17609:0.021734556 17663:0.034149803 17894:0.016404625 17986:0.02790208 18040:0.074939512 18184:0.074939512 18323:0.022590639 18557:0.16628364 18741:0.04635549 18753:0.074939512 18887:0.043117415 18890:0.018848181 19049:0.0094017312 19058:0.074939512 19111:0.025681326 19164:-0.0094854385 19197:0.04635549 19216:0.11085577 19219:0.28058556 19262:0.043117415 19393:0.055427883 19463:0.074939512 19536:0.035916254 19602:0.14163472 19762:0.050318576 19775:0.061613895 19783:0.12525809 19953:0.051395286 19976:0.01849648 20155:0.04635549 20193:0.038008109 #
-0.025373813400349574942449493164531 446:0.081436075 448:0.074555583 572:0.071431771 835:0.11715196 1001:0.071431771 1158:0.063057639 1380:0.1608108 1686:0.21082592 1790:0.11715196 2020:0.068486564 2045:0.093862467 2133:0.1608108 2286:0.10420245 2815:0.1608108 3380:0.058146577 3472:0.1608108 3486:0.040475618 3882:0.065700635 4387:0.10420245 4411:0.071431771 4528:0.014823432 4614:0.093862467 4975:0.024827735 4999:0.04572019 5020:0.065700635 5373:0.081436075 5702:0.093862467 6019:0.085254647 6232:0.14598736 7072:0.071431771 7634:0.098773524 7779:0.04572019 7891:0.11715196 7927:0.077881068 7988:0.25018981 8229:0.099077523 8343:0.09144038 9108:0.11715196 9269:0.077881068 9312:0.085254647 9432:0.093862467 9595:0.074555583 9783:0.081436075 9912:0.19815505 10199:0.09144038 10472:0.1608108 10593:0.065700635 10656:0.085254647 10890:0.071431771 10997:0.071431771 11268:-0.13417183 11420:0.035715885 11449:0.021865489 11485:0.19754705 11674:0.1608108 11804:0.11715196 12411:0.027341751 12660:-0.097776219 12876:0.081436075 13011:0.1608108 13265:0.11027148 13593:0.065700635 13775:0.07450825 13958:0.2084049 14197:-0.2437053 14707:0.10420245 14974:0.18772493 15351:0.037254125 15380:0.081436075 16088:0.068486564 16612:0.18772493 17356:0.085254647 17409:0.057292614 17609:0.063057639 17894:0.047594111 17986:0.040475618 19049:0.0090922946 19164:-0.08255922 19636:0.04572019 19976:0.053663131 19995:0.034222241 20155:0.13448942 20187:0.13448942 #
-0.075255277012226243216197474339424 183:0.055431556 482:0.20872946 923:0.05086055 1929:0.33743754 4173:0.1532979 4640:0.1818215 5841:0.086689465 9410:-0.030038016 10682:0.49916121 11268:-0.10411828 13811:0.068152092 14197:-0.25215605 16746:0.33743754 17024:0.17114288 17262:0.282006 17551:0.33743754 18741:0.20872946 19219:0.090244308 19569:0.16172367 20193:0.17114288 #
-0.065171524913898798425648806187382 18:0.087199442 86:0.16221657 157:0.11781167 322:0.075958289 448:0.048339907 572:0.046314508 835:0.075958289 1001:0.046314508 1185:0.10426554 1380:0.10426554 1686:0.027338812 2045:0.12171597 2051:0.14096892 2133:0.10426554 2192:0.14096892 2286:0.067562163 2484:0.081108287 2815:0.10426554 2927:0.24332488 2938:0.14096892 2961:0.11781167 3011:-0.020869823 3263:0.007088508 3472:0.10426554 3486:0.02624334 3882:0.085197173 4216:0.11781167 4387:0.13512433 4614:0.060857985 5020:0.042598587 5118:0.10426554 6019:0.055276901 6232:0.094654419 7023:0.087199442 7170:0.060857985 7449:0.18930884 7634:0.064042188 7779:0.059287567 7891:0.075958289 7988:0.16221657 8039:0.094654419 8074:0.081108287 8128:0.10099213 8229:0.032119647 9269:0.10099213 9274:0.081108287 9312:0.1105538 9410:-0.012548772 9595:0.048339907 9652:0.11781167 9705:0.057951037 9783:0.052801039 9788:0.094654419 9912:0.032119647 10432:0.11781167 10472:0.10426554 10656:0.055276901 10694:0.094654419 11268:-0.1304903 11420:0.023157254 11485:0.12808438 11674:0.10426554 12123:0.11781167 12876:0.052801039 13011:0.10426554 13027:0.060857985 13700:0.27024865 13775:0.024154607 13958:0.13512433 14433:0.075958289 14854:0.11781167 14974:0.12171597 15372:0.14096892 15380:0.052801039 16129:0.094654419 16612:0.18257396 17334:0.10426554 17356:0.2211076 17409:0.018573521 17608:0.24332488 17894:0.030858785 17986:0.02624334 19049:0.0058952076 19111:0.024154607 19129:0.01690273 19575:0.14096892 19854:0.11781167 19976:0.034793783 20155:0.087199442 20187:0.087199442 #
-0.052702887762703869156677427554314 47:0.12282433 175:0.10930602 183:0.017955923 385:0.067613654 446:0.040941443 521:0.067613654 718:0.058897365 808:0.035911847 923:0.049425717 1158:0.031701807 1162:0.10930602 1214:0.073394164 1261:0.033030555 1345:0.080846548 1578:0.055438247 1622:0.080846548 2272:0.073394164 2362:0.080846548 2525:0.062890626 2542:0.058465607 2877:0.047188725 2928:0.062890626 3003:0.024905281 3011:-0.01618227 3126:0.080846548 3204:0.067613654 3368:0.058897365 3373:0.085722409 3436:0.062890626 3599:0.080846548 3732:0.14897318 3929:0.080846548 4230:0.058897365 4522:0.067613654 4528:0.014904763 4551:0.055438247 4576:0.055438247 4640:0.11779473 4788:0.052387085 4953:0.055438247 4975:0.024963954 5172:0.047855239 5180:0.039154187 5700:0.10930602 5742:0.031701807 5841:0.028081283 6061:0.062890626 6148:0.062890626 6150:0.028803477 6233:0.081882887 6251:0.073394164 6268:0.073394164 6338:0.073394164 6409:0.091350093 6790:0.091350093 6798:0.031701807 6883:0.067613654 6912:0.062890626 7055:0.10930602 7097:0.13480411 7538:0.080846548 7755:0.084243849 7760:0.073394164 7929:0.058897365 8074:0.062890626 8128:0.039154187 8229:0.024905281 8237:0.020348847 8297:0.073394164 8310:0.067613654 8354:0.039154187 8478:0.044934705 8508:0.073394164 8564:0.0084887166 8748:0.058897365 8841:0.067613654 8917:0.058897365 9688:0.10930602 9841:0.10930602 9893:0.067613654 10007:0.067613654 10039:0.073394164 10041:0.091350093 10094:0.011872422 10141:0.039154187 10199:0.02298552 10207:0.0079653673 10510:0.11087649 10589:0.073394164 10593:0.033030555 10607:0.073394164 10625:0.091350093 10642:0.067613654 10844:0.039154187 11146:0.067613654 11165:0.066061109 11268:-0.067453988 11316:0.080846548 11449:0.010992728 11508:0.0304379 11636:0.044934705 11710:0.047188725 12143:0.052387085 12217:0.044934705 12455:0.067613654 12660:-0.065541789 12665:0.080846548 12672:0.0064846827 12727:0.067613654 12876:0.081882887 12995:0.073394164 13070:0.042861205 13248:0.091350093 13323:0.042861205 13441:0.12578125 13675:0.073394164 14197:-0.28588283 14408:0.091350093 14438:0.035911847 14588:0.22018251 14849:0.10930602 14868:0.047188725 14934:0.080846548 15193:0.073394164 15265:0.10477417 15351:0.037458524 15385:0.047188725 15399:0.034431163 15455:0.052387085 15483:0.062890626 15576:0.10930602 15594:0.067613654 15714:0.073394164 15728:0.033030555 15771:0.080846548 15912:0.067613654 16026:0.10930602 16443:0.080846548 16753:0.049657729 16769:0.10930602 16844:0.10930602 16911:0.12578125 16952:0.062890626 17005:0.080846548 17017:0.039154187 17024:0.055438247 17111:0.062890626 17246:0.047188725 17351:0.074964643 17409:0.014401739 18039:0.10930602 18081:0.049657729 18095:0.080846548 18323:0.016475238 18487:0.11087649 18564:0.058897365 18572:0.080846548 18610:0.11087649 18776:0.091350093 18808:0.071823694 18882:0.058897365 19046:0.11779473 19049:0.00457109 19073:0.016475238 19164:-0.05534146 19206:0.080846548 19498:0.073394164 19533:0.073394164 19536:0.052387085 19636:0.068956554 19646:0.044934705 19702:0.080846548 19796:0.067613654 20181:0.080846548 20189:0.062890626 #
-0.058431775772420063708167958793638 64:0.054931164 155:0.054931164 164:0.034539606 183:0.0090236552 369:0.023714447 448:0.03767309 472:0.033978887 718:0.059197124 739:0.036094621 998:0.040629011 1001:0.072189242 1158:0.015931576 1165:0.1129085 1213:0.033978887 1261:0.016599331 1377:0.036883853 1404:0.029598562 1481:0.054931164 1491:0.033978887 1496:0.040629011 1571:0.054931164 1578:0.0557204 1609:0.045907509 1616:0.040629011 1686:0.010653077 1691:0.091815017 1754:0.040629011 1755:0.063210711 1790:0.029598562 1826:0.045907509 2019:0.031605355 2020:0.0173032 2039:0.030302709 2070:0.040629011 2263:0.040629011 2369:0.045907509 2435:0.024955232 2515:0.040629011 2863:0.011551252 2870:0.071143337 3011:-0.1057201 3043:0.045907509 3060:0.045907509 3129:0.045907509 3132:0.045907509 3185:0.054931164 3256:0.1114408 3263:0.011048676 3308:0.045907509 3368:0.029598562 3380:0.014690792 3452:0.052653708 3486:0.010226206 3567:0.073767707 3732:0.024955232 3780:0.054931164 3805:0.0225817 3810:0.045907509 3853:0.052653708 3882:0.016599331 3950:0.067957774 4050:0.031605355 4133:0.073767707 4198:0.14973138 4230:0.029598562 4250:0.073767707 4267:0.040629011 4337:0.054931164 4411:0.01804731 4528:0.0037451552 4533:0.045907509 4551:0.0278602 4655:0.073767707 4674:0.031605355 4937:0.067745097 4975:0.0062727523 4990:0.031605355 4999:0.011551252 5020:0.016599331 5077:0.0278602 5180:0.019676732 5321:0.083580598 5373:0.041149814 5499:0.033978887 5549:0.054931164 5612:0.045907509 5638:0.054931164 5653:0.033978887 5702:0.023714447 5781:0.045907509 5787:0.054931164 5829:0.073767707 5879:0.040629011 5905:0.054931164 5943:0.016599331 6009:0.054931164 6048:0.054931164 6270:0.0225817 6391:0.045907509 6441:0.036883853 6471:0.045907509 6474:0.040629011 6521:0.036883853 6616:0.029598562 6745:0.033978887 6798:0.047794729 6839:0.040629011 6859:0.033978887 6915:-0.0046241721 7072:0.01804731 7174:0.073767707 7212:0.0120247 7304:0.11065156 7384:0.054931164 7518:0.061724722 7614:0.052653708 7656:0.045907509 7755:0.042336304 7779:0.023102503 7834:0.040629011 7855:0.045907509 7891:0.029598562 7924:0.040629011 7927:0.019676732 7953:0.040629011 7958:0.040629011 8033:0.0173032 8034:0.026326854 8045:0.041149814 8229:0.012516018 8237:0.010226206 8324:0.045907509 8343:0.023102503 8444:0.054931164 8478:0.0225817 8548:0.045907509 8555:0.045907509 8564:0.0213298 8715:0.040629011 8769:0.054931164 8777:0.045907509 8846:0.040629011 8902:0.083580598 8910:0.054931164 8935:0.0278602 8966:0.047428895 9108:0.029598562 9198:0.0278602 9269:0.019676732 9410:-0.048898626 9432:0.023714447 9581:0.052653708 9595:0.018836545 9618:0.045907509 9626:0.040629011 9712:0.015296407 9715:0.031605355 9865:0.040629011 9873:0.045907509 9990:0.040629011 10012:0.045907509 10094:0.017899269 10199:0.023102503 10207:0.020014767 10311:0.067957774 10458:0.040629011 10506:0.045907509 10593:0.016599331 10672:0.029598562 10699:0.0062727523 10785:0.040629011 10844:0.039353464 10850:0.040629011 10890:0.01804731 10921:0.033978887 10948:0.028224204 10986:0.081258021 10997:0.01804731 11025:0.040629011 11032:0.045907509 11123:0.063210711 11165:0.099595994 11178:0.054931164 11186:0.054931164 11268:-0.16949324 11304:0.067957774 11420:0.01804731 11449:0.0082865069 11454:0.054931164 11481:0.045907509 11485:0.024955232 11502:0.059197124 11543:0.01109442 11698:0.024955232 11710:0.047428895 11838:0.081258021 11844:0.036883853 11861:0.045907509 12110:-0.0055018049 12133:0.036883853 12170:0.029598562 12210:0.0173032 12217:0.0225817 12246:0.030592814 12411:0.05526337 12467:0.10193666 12478:0.073767707 12579:0.054931164 12616:0.036883853 12660:-0.13175073 12693:0.045907509 12730:0.054931164 12787:0.033198662 12914:0.043079346 12984:0.024955232 13006:0.011551252 13027:0.023714447 13265:0.0278602 13414:0.054931164 13593:0.016599331 13700:0.026326854 13739:0.054931164 13775:0.018824585 13796:0.045907509 14017:0.036883853 14042:0.020574907 14103:0.091815017 14110:0.040629011 14145:0.040629011 14172:0.026326854 14197:-0.45153087 14204:0.054931164 14339:0.040629011 14407:0.14753541 14433:0.088795684 14480:0.067745097 14707:0.026326854 14850:0.073767707 14868:0.023714447 14909:0.036883853 14950:0.073767707 14985:0.059030194 15100:0.052653708 15170:0.040629011 15267:0.063210711 15289:0.036883853 15328:0.01804731 15351:0.018824585 15353:0.054931164 15380:0.020574907 15388:0.074865691 15410:0.045907509 15463:0.16989443 15616:0.021539673 15659:0.033978887 15751:0.033978887 15853:0.045907509 15856:0.054931164 15944:0.045907509 15978:0.054931164 15995:0.024955232 16041:0.036883853 16088:0.0173032 16098:0.0278602 16100:0.045907509 16110:0.067957774 16193:0.0278602 16300:0.045907509 16436:0.033978887 16638:0.045907509 16645:0.036883853 16673:0.018824585 16753:0.024955232 16771:0.045907509 16975:0.045907509 17019:0.045907509 17105:0.073767707 17128:0.040629011 17252:0.026326854 17311:0.040629011 17351:0.094182722 17409:0.014475036 17490:0.026326854 17609:0.015931576 17743:0.10193666 17894:0.024049399 17986:0.010226206 18004:0.0013500791 18018:0.073767707 18051:0.067957774 18073:0.045907509 18076:0.045907509 18081:0.024955232 18090:0.081258021 18122:0.040629011 18323:0.024838634 18331:0.045907509 18546:0.040629011 18564:0.029598562 18625:0.031605355 18692:0.081258021 18792:0.040629011 18890:0.013815843 18898:0.030592814 19045:0.040629011 19049:0.0022971774 19066:0.045907509 19073:0.0082795452 19129:0.0065864637 19164:-0.097340457 19215:0.033978887 19250:0.073767707 19264:0.047428895 19348:0.040629011 19378:0.040629011 19569:0.052653708 19636:0.011551252 19776:0.073767707 19976:0.013558044 19995:0.0086462842 20125:0.073767707 20196:0.023714447 #
-0.055081892809131338673012123763328 47:0.039542269 100:0.028442275 240:0.044114102 273:0.052785244 291:0.044114102 322:0.05688455 369:0.022788027 385:0.03265148 446:0.019771134 448:0.018100683 521:0.03265148 555:0.04796068 572:0.017342281 699:0.088228203 803:0.052785244 808:0.017342281 810:0.052785244 862:0.11712544 923:0.015912198 934:0.052785244 982:0.10809384 1018:0.036201365 1106:0.044114102 1158:0.015309199 1214:0.035442963 1257:0.052785244 1261:0.015950868 1298:0.028442275 1331:0.044114102 1360:0.03904181 1379:0.044114102 1404:0.028442275 1408:0.052785244 1448:0.052785244 1690:0.052785244 1699:0.052785244 1724:0.044114102 1790:0.028442275 1966:0.052785244 2020:0.033254478 2039:0.0072797285 2045:0.022788027 2085:0.052785244 2272:0.035442963 2311:0.060741343 2371:0.11712544 2418:0.14177185 2525:0.030370671 2542:0.014116887 2647:0.044114102 2667:0.078083619 2701:0.044114102 2720:0.088228203 2928:0.030370671 3003:0.060135357 3011:-0.0078146206 3160:0.052785244 3235:0.052785244 3243:0.03904181 3354:0.088228203 3368:0.028442275 3380:0.014116887 3452:0.025298379 3455:0.03904181 3750:0.13385911 3751:0.052785244 3774:0.026771823 3779:0.052785244 3806:0.052785244 3847:0.03265148 3882:0.015950868 3912:0.03265148 3962:0.02398034 3981:0.04796068 3990:0.044114102 4161:0.044114102 4202:0.028442275 4230:0.028442275 4411:0.017342281 4415:0.052785244 4448:0.052785244 4528:0.0071976967 4551:0.026771823 4576:0.026771823 4614:0.022788027 4677:0.11712544 4718:0.052785244 4800:0.0046206252 4825:0.052785244 4907:0.044114102 4975:0.0060277032 4999:0.011099995 5007:0.03265148 5020:0.079754345 5065:0.052785244 5077:0.026771823 5172:0.034664843 5180:0.018908048 5189:0.044114102 5213:0.052785244 5246:0.052785244 5252:0.052785244 5275:0.052785244 5373:0.019771134 5442:0.085326828 5460:0.088228203 5518:0.052785244 5655:0.028442275 5702:0.022788027 5742:0.015309199 5909:0.052785244 5922:0.052785244 5937:0.052785244 5940:0.15185335 5943:0.031901736 6064:0.03904181 6148:0.030370671 6150:0.0069547798 6232:0.035442963 6251:0.035442963 6268:0.035442963 6299:0.015309199 6338:0.035442963 6393:0.03265148 6586:0.052785244 6610:0.10632889 6660:0.052785244 6672:0.052785244 6744:0.052785244 6798:0.015309199 6845:0.019771134 6878:0.052785244 6883:0.03265148 6912:0.030370671 6915:-0.017774103 6962:0.044114102 7023:0.03265148 7068:0.14177185 7072:0.017342281 7097:0.065098591 7268:0.044114102 7302:0.15608051 7312:0.028442275 7314:0.044114102 7342:0.028442275 7453:0.085326828 7736:0.03265148 7760:0.035442963 7779:0.011099995 7837:0.044114102 7871:0.044114102 7927:0.018908048 7929:0.028442275 8008:0.03904181 8045:0.039542269 8093:0.052785244 8128:0.018908048 8144:0.04796068 8221:0.028442275 8224:0.052785244 8229:0.024054144 8237:0.029480139 8250:0.044114102 8310:0.03265148 8343:0.02219999 8345:0.03904181 8350:0.11712544 8405:0.030370671 8508:0.035442963 8624:0.045576055 8753:0.015950868 8801:0.044114102 8841:0.03265148 8947:0.028442275 8956:0.088228203 9018:0.052785244 9029:0.078083619 9088:0.052785244 9108:0.028442275 9115:0.052785244 9174:0.088228203 9312:0.020698212 9410:-0.014096511 9432:0.022788027 9501:0.052785244 9670:0.039542269 9705:0.043399062 9730:0.088228203 9761:0.034684561 9783:0.039542269 9890:0.030370671 9893:0.03265148 9912:0.012027072 10007:0.03265148 10008:0.052785244 10039:0.035442963 10060:0.052785244 10094:0.017200023 10105:0.043399062 10128:0.052785244 10141:0.018908048 10199:0.02219999 10207:0.011539727 10231:0.03904181 10277:0.052785244 10378:0.030370671 10407:0.11712544 10503:0.044114102 10510:0.053543646 10593:0.015950868 10642:0.03265148 10669:0.052785244 10691:0.052785244 10699:0.012055406 10750:0.071941018 10836:0.15608051 10844:0.018908048 10890:0.017342281 10948:0.013560804 10978:0.026771823 10997:0.017342281 11122:0.052785244 11268:-0.14658469 11420:0.017342281 11449:0.0079627894 11508:0.014698843 11584:0.044114102 11636:0.021699531 11698:0.02398034 11710:0.022788027 11804:0.028442275 11984:0.088228203 12000:0.03904181 12030:0.044114102 12032:0.018908048 12143:0.025298379 12184:0.035442963 12210:0.033254478 12217:0.021699531 12246:0.029397687 12302:0.052785244 12339:0.052785244 12350:0.028442275 12411:0.013276118 12450:0.052785244 12455:0.03265148 12482:0.091152109 12514:0.052785244 12554:0.02398034 12566:0.030370671 12660:-0.031650949 12727:0.03265148 12784:0.065302961 12787:0.031901736 12831:0.052785244 13006:0.011099995 13070:0.020698212 13215:0.052785244 13265:0.026771823 13371:0.052785244 13441:0.030370671 13561:0.035442963 13593:0.015950868 13594:0.052785244 13775:0.0090445951 13995:-0.017361999 14110:0.03904181 14129:0.052785244 14152:0.035442963 14197:-0.21694577 14253:0.052785244 14371:0.028442275 14553:0.065302961 14707:0.025298379 14761:0.065302961 14782:0.013560804 14847:0.019771134 14916:0.052785244 14952:0.052785244 14974:0.022788027 14994:0.052785244 14995:0.044114102 15086:0.03265148 15176:0.044114102 15193:0.035442963 15233:0.044114102 15251:0.052785244 15265:0.050596759 15297:0.025298379 15328:0.017342281 15329:0.03904181 15351:0.01808919 15383:0.026771823 15399:0.033254478 15455:0.025298379 15483:0.030370671 15594:0.03265148 15595:0.03265148 15616:0.020698212 15620:0.052785244 15662:0.019771134 15702:0.03265148 15728:0.015950868 15751:0.03265148 15765:0.030370671 15828:0.14388204 15886:0.043399062 15995:0.02398034 16088:0.016627239 16157:0.14177185 16193:0.026771823 16315:0.03265148 16339:0.052785244 16345:0.052785244 16436:0.03265148 16440:0.052785244 16553:0.085326828 16673:0.0090445951 16753:0.04796068 16875:0.014116887 16952:0.030370671 16960:0.039542269 17017:0.018908048 17111:0.030370671 17153:0.03904181 17198:0.070885926 17219:0.052785244 17323:0.035442963 17356:0.020698212 17392:0.052785244 17409:0.01390956 17435:0.052785244 17443:0.022788027 17516:0.063803472 17601:0.03904181 17609:0.015309199 17616:0.052785244 17663:0.012027072 17664:0.091152109 17877:0.03904181 18004:0.00037066784 18103:0.044114102 18153:0.071941018 18243:0.052785244 18262:0.025298379 18394:0.088228203 18487:0.026771823 18513:0.052785244 18530:0.03265148 18532:0.052785244 18537:0.03904181 18540:0.052785244 18564:0.028442275 18610:0.053543646 18882:0.028442275 18898:0.014698843 19049:0.0066223098 19071:0.17017242 19073:0.0079560988 19111:0.0090445951 19114:0.053543646 19129:0.0063291593 19135:0.044114102 19164:-0.026725084 19264:0.045576055 19466:0.052785244 19536:0.025298379 19602:0.066508956 19636:0.011099995 19679:0.11712544 19824:0.052785244 19909:0.052785244 19931:0.035442963 19976:0.013028391 19995:0.0083085112 20125:0.035442963 20158:0.026771823 20194:0.028442275 #
-0.024821143343783103052402339017135 164:0.024132626 183:0.010507961 338:0.063966818 412:0.020149412 718:0.10340174 739:0.021015922 808:0.021015922 980:0.063966818 998:0.047312096 1001:0.042031843 1165:0.13148087 1213:0.039568089 1261:0.038659528 1318:0.042950898 1345:0.047312096 1377:0.042950898 1404:0.034467246 1491:0.039568089 1496:0.047312096 1578:0.097328812 1609:0.053458858 1616:0.047312096 1755:0.073608272 1826:0.053458858 2010:0.053458858 2039:0.017643608 2263:0.047312096 2311:0.036804136 2362:0.047312096 2369:0.053458858 2435:0.029060129 2514:0.063966818 2515:0.094624192 2863:0.013451324 2870:0.055230498 2877:0.027615249 3011:-0.11364004 3043:0.053458858 3060:0.053458858 3126:0.047312096 3129:0.053458858 3132:0.053458858 3204:0.039568089 3256:0.12977175 3263:0.0096495589 3308:0.053458858 3368:0.034467246 3436:0.036804136 3452:0.030657373 3567:0.085901797 3599:0.047312096 3732:0.087180391 3810:0.053458858 3929:0.047312096 4050:0.036804136 4133:0.085901797 4198:0.11624052 4250:0.085901797 4267:0.047312096 4522:0.079136178 4528:0.021805989 4533:0.053458858 4655:0.042950898 4674:0.036804136 4788:0.030657373 4800:0.016798256 4975:0.0073045604 4990:0.036804136 5180:0.022913367 5321:0.097328812 5465:0.053458858 5499:0.039568089 5653:0.039568089 5781:0.053458858 5829:0.085901797 5879:0.047312096 5943:0.019329764 6025:0.15049647 6061:0.036804136 6233:0.023959285 6270:0.052592348 6391:0.053458858 6441:0.042950898 6459:0.063966818 6471:0.053458858 6474:0.047312096 6521:0.042950898 6616:0.034467246 6798:0.055656508 6859:0.039568089 7174:0.085901797 7207:0.063966818 7212:0.014002649 7310:0.042950898 7518:0.047918569 7538:0.047312096 7614:0.061314747 7656:0.053458858 7755:0.082167044 7762:0.047312096 7790:0.047312096 7834:0.047312096 7855:0.053458858 7924:0.047312096 7953:0.047312096 7958:0.047312096 8034:0.030657373 8045:0.047918569 8088:0.063966818 8176:0.045826733 8229:0.014574784 8237:0.01190832 8241:0.061314747 8261:0.047312096 8297:0.042950898 8324:0.053458858 8478:0.052592348 8513:0.0092260893 8548:0.053458858 8555:0.053458858 8564:0.024838349 8715:0.047312096 8846:0.047312096 8902:0.097328812 8917:0.034467246 8935:0.064885877 9198:0.032442939 9410:-0.056941986 9581:0.061314747 9606:0.053458858 9618:0.053458858 9715:0.036804136 9873:0.053458858 9990:0.047312096 10007:0.039568089 10012:0.053458858 10094:0.027791373 10104:0.063966818 10155:0.047312096 10199:0.013451324 10207:0.018645605 10311:0.039568089 10458:0.047312096 10506:0.053458858 10672:0.034467246 10785:0.047312096 10844:0.045826733 10986:0.047312096 11025:0.047312096 11032:0.053458858 11060:0.047312096 11123:0.073608272 11165:0.13530836 11268:-0.2171106 11304:0.039568089 11316:0.047312096 11375:0.030657373 11420:0.031523883 11449:0.006433039 11481:0.053458858 11502:0.068934493 11687:0.063966818 11710:0.055230498 11838:0.047312096 11844:0.042950898 11861:0.053458858 12143:0.030657373 12210:0.020149412 12246:0.01781252 12267:0.053458858 12308:0.063966818 12411:0.064353675 12478:0.085901797 12494:0.063966818 12554:0.029060129 12616:0.042950898 12660:-0.11506686 12665:0.047312096 12693:0.053458858 12876:0.023959285 12914:0.025082745 12968:0.030657373 12984:0.029060129 12995:0.042950898 13006:0.013451324 13039:0.042950898 13601:0.053458858 13679:0.085901797 13775:0.02192105 13796:0.053458858 14017:0.042950898 14043:0.063966818 14145:0.047312096 14172:0.030657373 14197:-0.31070203 14339:0.047312096 14433:0.034467246 14438:0.021015922 14440:0.063966818 14480:0.078888528 14707:0.030657373 14850:0.085901797 14868:0.082845747 14909:0.042950898 14934:0.047312096 14950:0.085901797 14985:0.0687401 15130:0.14193629 15267:0.073608272 15351:0.02192105 15388:0.058120258 15710:0.036804136 15751:0.039568089 15771:0.047312096 15853:0.053458858 15944:0.053458858 15961:0.053458858 16098:0.032442939 16100:0.053458858 16110:0.039568089 16193:0.032442939 16300:0.053458858 16332:0.063966818 16443:0.047312096 16638:0.053458858 16673:0.032881577 16753:0.029060129 16771:0.053458858 16894:0.094624192 16911:0.073608272 16960:0.023959285 17017:0.022913367 17019:0.053458858 17024:0.032442939 17128:0.047312096 17189:0.14193629 17311:0.047312096 17351:0.10967489 17409:0.016856043 17490:0.030657373 17743:0.039568089 18004:0.0017967478 18018:0.085901797 18051:0.079136178 18073:0.053458858 18076:0.053458858 18081:0.029060129 18323:0.038565807 18331:0.053458858 18564:0.034467246 18572:0.047312096 18625:0.036804136 18672:0.063966818 18692:0.047312096 18773:0.053458858 18898:0.053437565 19066:0.053458858 19073:0.038565807 19129:0.015339749 19164:-0.089062318 19206:0.047312096 19250:0.085901797 19348:0.094624192 19498:0.042950898 19533:0.042950898 19561:0.053458858 19569:0.061314747 19636:0.040353969 19690:0.047312096 19702:0.047312096 19776:0.085901797 19953:0.043869954 20181:0.047312096 20196:0.027615249 #
-0.049228539221584079188520632897053 448:0.23759618 1686:0.1343734 3486:0.12898903 5020:0.20937693 7779:0.1457026 7891:0.37334371 9595:0.23759618 11268:-0.21379159 15380:0.25952315 17409:0.091290988 17894:0.15167446 17986:0.12898903 18537:0.5124771 18898:0.1929424 19049:0.057951242 20187:0.42859527 #
-0.031419700279755755079058587853069 61:0.06373591 92:0.11077515 248:0.068522416 414:0.045538653 615:0.06373591 633:0.11077515 684:0.11077515 781:0.068522416 841:0.074380629 1139:0.068522416 1263:0.081933171 1475:0.11077515 2020:0.034893937 2034:0.056183368 2039:0.015277243 2259:0.074380629 2589:0.068522416 2779:0.11077515 2795:0.068522416 3003:0.025240021 3011:-0.016399769 3263:0.0055702385 3373:0.043437283 3436:0.06373591 3452:0.053091198 3486:0.041244693 3807:0.081933171 4002:0.09257789 4156:0.074380629 4528:0.022657637 4975:0.012649743 4999:0.046588916 5172:0.02424922 5760:0.059688978 5841:0.028458713 5943:0.033474505 6424:0.056183368 6915:-0.0093251867 7058:0.09257789 7134:0.068522416 7212:0.02424922 7755:0.056917425 8154:0.16386634 8176:0.07936088 8194:0.11077515 8229:0.025240021 8241:0.053091198 8354:0.03968044 8600:0.11077515 8947:0.059688978 9210:0.11077515 9384:0.09257789 9712:0.092541009 9719:0.09257789 9761:0.036394522 9912:0.025240021 10207:0.0080724256 10286:0.043437283 10316:0.13704483 10378:0.06373591 10555:0.11077515 10682:0.081933171 10699:0.025299486 10833:0.081933171 10905:0.11077515 10949:0.11077515 11192:0.068522416 11268:-0.068360612 11420:0.036394522 11449:0.0055702385 11543:0.022373201 11883:0.074380629 12210:0.069787875 12246:0.030847004 12437:0.081933171 12660:-0.033211354 13006:0.046588916 13070:0.043437283 13113:0.16386634 13189:0.068522416 13256:0.11077515 13307:0.047822971 13367:0.056183368 13775:0.018980993 13811:0.089492805 13812:0.050325155 14197:-0.49667189 14308:0.11077515 14339:0.081933171 14436:0.11077515 14438:0.072789043 15214:0.068522416 15297:0.1061824 15319:0.11077515 15351:0.018980993 15534:0.068522416 15728:0.033474505 15886:0.045538653 15911:0.059688978 16085:0.068522416 16428:0.12851158 16518:0.053091198 16895:0.11077515 17017:0.03968044 17023:0.09257789 17301:0.11077515 17323:0.14876126 17409:0.014595306 17609:0.032127894 17663:0.025240021 17894:0.02424922 17986:0.020622347 18103:0.09257789 18511:0.081933171 18529:0.056183368 18595:0.11077515 18643:0.10042351 18884:0.11077515 18890:0.027861271 19037:0.11077515 19129:0.013282378 19164:-0.028042639 19536:0.053091198 19563:0.14876126 19569:0.053091198 19635:0.081933171 19775:0.091077305 20074:0.11077515 20148:0.11077515 20193:0.056183368 #
-0.029475133255075485622098696580906 61:0.0796436 248:0.085624762 414:0.056904532 446:0.051847536 871:0.1326842 1139:0.085624762 2208:0.11380906 2276:0.085624762 2795:0.085624762 3310:0.11568417 3486:0.051538855 3488:0.0796436 3774:0.070206039 4416:0.12577137 4523:0.18589021 4975:0.015806962 5103:0.13842325 5109:0.13842325 5131:0.13842325 5603:0.18589021 5841:0.035561655 5943:0.041829325 6043:0.056904532 6148:0.0796436 6424:0.070206039 6589:0.33171049 6915:-0.011652637 7314:0.11568417 7779:0.029108465 7905:0.2653684 8753:0.083658651 8947:0.074586608 9410:-0.024644323 9712:0.038546033 9744:0.13842325 9761:0.045478143 9912:0.094618849 10007:0.085624762 10094:0.01503503 10141:0.049584188 10271:0.30714801 10437:0.11951797 10944:0.13842325 11265:0.085624762 11323:0.085624762 11449:0.0069605005 12058:0.11951797 12566:0.0796436 12660:-0.020750247 12968:0.1990263 13070:0.054278687 13189:0.085624762 13811:0.083871827 13853:0.13842325 13995:-0.060706466 14197:-0.20687833 14847:0.051847536 14858:0.13842325 15317:0.0796436 15610:0.049584188 15911:0.074586608 16029:0.13842325 16085:0.085624762 16349:0.13842325 16428:0.16058648 16544:0.11568417 17609:0.040146619 17663:0.031539615 17894:0.030301524 17926:0.13842325 17986:0.025769427 18032:0.13842325 18089:0.10238267 19164:-0.017520867 19219:0.11105976 19775:0.11380906 20193:0.070206039 #
-0.014812369559260294901714694049133 164:0.048462197 2667:0.2850309 6299:0.11176722 7342:0.41529462 8144:0.17507224 9080:0.2850309 11112:0.38536698 11146:0.23837727 11636:0.15842085 12110:-0.019298827 12365:0.2850309 13006:0.081037261 14037:0.38536698 15233:0.32206196 17516:0.11645183 19049:0.032231476 20195:0.1846948 #
-0.016721513704530645977319736061872 183:0.03619355 482:0.13628808 739:0.072387099 923:0.033208951 1134:0.22032689 1288:0.22032689 1802:0.31569061 2039:0.030385764 2208:0.090574369 2409:0.18413334 3011:-0.032618418 3263:0.011078958 3962:0.10009452 4173:0.10009452 4800:0.019286601 5841:0.056603126 6474:0.16296147 6612:0.22032689 7182:0.11174624 7212:0.048230633 7640:0.16296147 8237:0.04101694 8753:0.066579312 9438:0.17278968 9670:0.1650504 10141:0.078922652 11216:0.22032689 11369:0.22032689 11543:0.088998623 12365:0.16296147 13748:0.16296147 13790:0.22032689 13811:0.044499312 13995:-0.024156468 14197:-0.32928616 14847:0.082525201 14985:0.078922652 15327:0.12676792 16041:0.14793979 16315:0.13628808 17024:0.11174624 18323:0.033208951 18741:0.13628808 18930:0.22032689 18998:0.16296147 19111:0.11325708 19219:0.058924228 20193:0.11174624 #
-0.0073059184962376280333962164093009 17663:0.42803103 19049:0.078560382 20195:0.90034312 #
-0.014982246025948810219663442921956 4117:0.44188878 8237:0.32439438 13828:0.58501238 14197:-0.3255319 20189:0.50129044 #
-0.015115796669864596871168949121511 18:0.056647666 27:0.091578111 249:0.083207883 446:0.034301315 448:0.031403214 572:0.030087449 602:0.090262346 661:0.15807195 751:0.13546875 835:0.049345039 1001:0.030087449 1158:0.026560217 1310:0.046446938 1380:0.067734376 1399:0.091578111 1686:0.10656122 1724:0.07653439 1790:0.049345039 1948:0.13546875 2020:0.02884691 2045:0.039535377 2128:0.035909716 2133:0.067734376 2286:0.26334381 2482:0.15306878 2484:0.052690651 2542:0.024491653 2815:0.067734376 3359:0.009209862 3380:0.024491653 3436:0.052690651 3472:0.067734376 3486:0.017048549 3847:0.169943 3882:0.027673462 3977:0.091578111 4006:0.067734376 4178:0.036991972 4363:0.07653439 4387:0.043890636 4411:0.030087449 4416:0.041603941 4462:0.091578111 4528:0.0062437095 4614:0.039535377 4679:0.091578111 4975:0.010457576 4999:0.01925759 5007:0.056647666 5020:0.083020389 5373:0.034301315 5609:0.091578111 5702:0.039535377 6019:0.035909716 6232:0.061490662 6404:0.07653439 6835:0.091578111 7072:0.030087449 7183:0.091578111 7634:0.29122761 7779:0.01925759 7891:0.049345039 7927:0.032803927 7988:0.1053813 8031:0.024491653 8229:0.041731987 8343:0.03851518 8644:0.091578111 8935:0.046446938 9108:0.049345039 9269:0.032803927 9312:0.035909716 9432:0.039535377 9595:0.031403214 9705:0.075293854 9783:0.034301315 9912:0.062597983 9944:0.1053813 9953:0.056647666 10199:0.03851518 10207:0.0066734962 10423:0.10772915 10437:0.039535377 10472:0.067734376 10503:0.07653439 10593:0.027673462 10656:0.035909716 10687:0.07653439 10699:0.020915153 10890:0.030087449 10948:0.023526894 10997:0.030087449 11165:0.027673462 11268:-0.084770851 11420:0.015043724 11449:0.009209862 11485:0.083207883 11674:0.067734376 11804:0.049345039 11844:0.061490662 12184:0.061490662 12350:0.049345039 12411:0.023032987 12473:0.29607025 12554:0.041603941 12567:0.091578111 12648:0.091578111 12660:-0.041183874 12876:0.034301315 13011:0.067734376 13265:0.046446938 13440:0.091578111 13593:0.055346925 13775:0.031383276 13791:0.091578111 13958:0.087781273 13995:-0.040162209 14003:0.091578111 14152:0.12298132 14197:-0.10264999 14533:0.13546875 14707:0.043890636 14974:0.079070754 15199:0.091578111 15317:0.052690651 15351:0.015691638 15380:0.068602629 15383:0.046446938 15391:0.091578111 15824:0.26334381 16088:0.02884691 16388:0.046446938 16612:0.079070754 17004:0.091578111 17100:0.091578111 17356:0.071819432 17409:0.036197938 17609:0.026560217 17663:0.041731987 17894:0.020046895 17986:0.017048549 18004:0.0019292359 18925:0.091578111 19049:0.0038297235 19057:0.12298132 19071:0.032803927 19164:-0.034774389 19280:0.15306878 19507:0.091578111 19536:0.043890636 19635:0.067734376 19636:0.03851518 19976:0.022603201 19995:0.014414593 20083:0.056647666 20155:0.056647666 20187:0.056647666 #
-0.0075827460350925673243649427490709 2276:0.25053406 3387:0.27195305 4050:0.46606693 10228:0.23303346 11265:0.25053406 12914:0.1588169 13811:0.081801675 14172:0.19411388 14197:-0.15132909 16509:0.29956692 16875:0.10831854 17155:0.40501994 17516:0.12239064 18806:0.33848649 18890:0.050933674 19049:0.03387522 20195:0.19411388 #
-0.0051165582386412961773958230082826 183:0.035139918 282:0.21391295 482:0.13232058 511:0.21391295 712:0.21391295 923:0.032242205 2481:0.21391295 4173:0.097180665 4541:0.21391295 5841:0.054955348 6571:0.21391295 6939:0.21391295 7417:0.21391295 9037:0.21391295 10083:0.21391295 11510:0.21391295 11565:0.21391295 13104:0.21391295 13410:0.21391295 13684:0.21391295 13811:0.04320389 14197:-0.079925075 16246:0.21391295 16324:0.21391295 17024:0.10849319 17440:0.21391295 18741:0.13232058 19107:0.21391295 19219:0.057208885 19844:0.21391295 20193:0.10849319 #
-0.012557856063006526264880235999044 100:0.041811436 369:0.033499435 406:0.077596709 446:0.029064467 490:0.077596709 670:0.064849734 688:0.077596709 749:0.024442798 834:0.077596709 995:0.047999159 1001:0.02549394 1018:0.026608827 1190:0.077596709 1213:0.047999159 1304:0.064849734 1349:0.077596709 1404:0.041811436 1616:0.057393238 1617:0.037189767 1802:0.027795689 1933:0.041811436 2039:0.010701532 2259:0.052102767 2525:0.044646267 2639:0.077596709 2686:0.064849734 3003:0.017680343 3011:-0.034463543 3055:0.052102767 3073:0.041811436 3243:0.057393238 3263:0.0078037749 3322:0.057393238 3373:0.030427312 3380:0.020752465 3486:0.028891429 3756:0.089292534 3813:0.057393238 3882:0.023448503 3912:0.047999159 4141:0.057393238 4202:0.12543431 4230:0.041811436 4524:0.064849734 4800:0.013585058 4946:0.052102767 4975:0.0088609979 5589:0.077596709 5760:0.041811436 5831:0.064849734 5841:0.079739995 5943:0.093794011 5991:0.064849734 6043:0.031899296 6047:0.095998317 6150:0.020447686 6467:0.037189767 6788:0.064849734 6798:0.022505218 6839:0.057393238 7134:0.047999159 7182:0.11806739 7870:0.052102767 7975:0.077596709 8033:0.024442798 8045:0.029064467 8102:0.077596709 8174:0.047999159 8197:0.064849734 8215:0.077596709 8221:0.041811436 8275:0.077596709 8343:0.032634996 8564:0.018078506 8590:0.083622873 8607:0.057393238 8748:0.041811436 8902:0.039355796 8952:0.064849734 9091:0.077596709 9438:0.030427312 9548:0.077596709 9581:0.037189767 9594:0.057393238 9712:0.021607969 9788:0.052102767 9858:0.077596709 9912:0.017680343 10094:0.016856546 10228:0.089292534 10542:0.064849734 10600:0.044646267 10656:0.030427312 10672:0.041811436 10699:0.017721996 10755:0.064849734 10965:0.035252187 11268:-0.095771633 11449:0.0039018875 11450:0.029064467 11502:0.041811436 11636:0.031899296 11698:0.035252187 12143:0.037189767 12179:0.064849734 12210:0.048885595 12246:0.021607969 12324:0.064849734 12660:-0.023264168 12817:0.047999159 12849:0.052102767 13010:0.064849734 13136:0.064849734 13230:0.052102767 13248:0.064849734 13296:0.064849734 13323:0.030427312 13327:0.077596709 13367:0.039355796 13561:0.052102767 13775:0.013295966 13812:0.070504375 13838:0.064849734 14042:0.058128934 14197:-0.66683304 14414:0.036803223 14438:0.02549394 14464:0.077596709 14480:0.031899296 14519:0.077596709 14588:0.052102767 14722:0.064849734 14959:0.057393238 15100:0.037189767 15177:0.077596709 15180:0.031899296 15214:0.047999159 15216:0.047999159 15298:0.064849734 15328:0.02549394 15351:0.013295966 15357:0.064849734 15385:0.16749717 15388:0.035252187 15534:0.047999159 15595:0.047999159 15728:0.046897005 15750:0.027795689 15833:0.064849734 15886:0.031899296 16035:0.064849734 16098:0.039355796 16244:0.064849734 16304:0.077596709 16413:0.077596709 16518:0.074379534 16553:0.041811436 16591:0.077596709 16781:0.064849734 16875:0.020752465 16932:0.057393238 16960:0.058128934 17246:0.033499435 17311:0.057393238 17409:0.010223843 17659:0.064849734 17663:0.017680343 17664:0.033499435 17743:0.047999159 17894:0.016986297 18031:0.029064467 18240:0.052102767 18262:0.037189767 18323:0.035087481 18529:0.039355796 18890:0.048791245 19049:0.0032450322 19129:0.0093041519 19164:-0.019643543 19532:0.077596709 19899:0.057393238 19976:0.019152327 19995:0.01221389 20196:0.033499435 #
