SVM-light Version V6.02
0 # kernel type
3 # kernel parameter -d 
1 # kernel parameter -g 
1 # kernel parameter -s 
1 # kernel parameter -r 
empty# kernel parameter -u 
950 # highest feature index 
8 # number of training documents 
9 # number of support vectors plus 1 
0.79239751 # threshold b, each following line is a SV (starting with alpha*y)
-0.60237848611123134823230884649092 1:0.019955458 2:0.03151156 3:0.019955458 4:0.019955458 5:0.024220472 6:0.03151156 7:-0.2211187 8:0.024220472 9:0.024220472 10:0.03151156 11:0.03151156 12:0.03151156 13:0.03151156 14:0.059866376 15:0.048440944 16:0.019955458 17:0.039910916 18:0 19:0.022085775 20:0.011042887 21:0.016929384 22:0.050788149 23:0.03151156 24:0.031442691 25:0.021182526 26:0.050788149 27:0.067717537 28:0.039910916 29:0.067717537 30:0.050788149 31:0.03151156 32:0.024220472 33:0.05832871 34:0.048440944 35:0.0005395448 36:0.03151156 37:0.03151156 38:0.03151156 39:0.029164355 40:0.019955458 41:0.03151156 42:0.03151156 43:0.019955458 44:0.059866376 45:0.03151156 46:0.019955458 47:0.016929384 48:0.057829767 49:0.03151156 50:0.024220472 51:0.039910916 52:0.03151156 53:0.03151156 54:0.03151156 55:0.03151156 56:0.0026977239 57:0.03151156 58:0.048440944 59:0.03151156 60:-0.0046944125 61:0.024220472 62:0.03151156 63:0.03151156 64:0.039910916 65:0.033858769 66:0.011042887 67:-0.014083237 68:0.028166475 69:0.03151156 70:0.03312866 71:0.03151156 72:0.019955458 73:0.050788149 74:0.024220472 75:0.024220472 76:0.043746531 77:0.03151156 78:0.03151156 79:0.019955458 80:0.03151156 81:0.03151156 82:-0.015783727 83:0.050788149 84:0.024220472 85:0.03151156 86:0.048440944 87:0.050396141 88:0.01266437 89:0.033858769 90:0.03151156 91:0.03151156 92:0.03151156 93:0.024220472 94:0.0072910888 95:0.033858769 96:0.019955458 97:0.024220472 98:0.024220472 99:0.048440944 100:0.03151156 101:0.03151156 102:0.03151156 103:0.03151156 104:0.037993111 105:0.03151156 106:0.03151156 107:0.048440944 108:0.041996785 109:0.03151156 110:0.03151156 111:0.03773123 112:0.019955458 113:0.03151156 114:0.048440944 115:0.048440944 116:0.050788149 117:0.03151156 118:0.019276589 119:0.03151156 120:0.03151156 121:0.03151156 122:0.03151156 123:0.033858769 124:0.03151156 125:0.039910916 126:0.03151156 127:0.019955458 128:0.014582178 129:0.048440944 130:0.048440944 131:-0.0029402606 132:0.03151156 133:0.03151156 134:0.022085775 135:0.03151156 136:0.019955458 137:0.03223969 138:0.03151156 139:0.067717537 140:0.048440944 141:0.039910916 142:0.039910916 143:0.01815645 144:0.024220472 145:0.048440944 146:0.048440944 147:0.03151156 148:0.03312866 149:0.059866376 150:0.03151156 151:0.02532874 152:0.024220472 153:0.019955458 154:0.03151156 155:0.03151156 156:0.010251351 157:0.048440944 158:0.0083993562 159:0.03151156 160:0.03151156 161:0.048440944 162:0.048440944 163:0.03151156 164:0.03151156 165:0.059866376 166:0.059866376 167:0.022085775 168:0.024220472 169:0.03151156 170:0.03151156 171:0.03151156 172:0.03151156 173:0.03151156 174:0.050396141 175:0.03151156 176:0.048440944 177:0.031442691 178:0.048440944 179:0.014582178 180:0.024220472 181:0.039910916 182:0.03151156 183:0.02532874 184:0.03151156 185:0.050657481 186:-0.011028054 187:0.03151156 188:0.037993111 189:0.063321851 190:0.01266437 191:0.059866376 192:0.03151156 193:0.01266437 194:0.024220472 195:0.039910916 196:0.024220472 197:0.0053954478 198:0.024220472 199:0.019955458 200:0.048440944 201:0.03151156 202:0.016929384 203:0.03151156 204:0.03151156 205:0.028166475 206:0.016929384 207:0.03151156 208:0.059866376 209:0.03151156 210:0.03151156 211:0.019955458 212:0.03151156 213:0.03151156 214:0.03151156 215:0.03151156 216:0.059866376 217:0.01266437 218:0.0083993562 219:0.048440944 220:0.03151156 221:-0.0076712286 222:0.03151156 223:0.03151156 224:0.03151156 225:0.03151156 226:0.03151156 227:0.048440944 228:0.01266437 229:0.03151156 230:0.019955458 231:0.024220472 232:0.055214435 233:0.03151156 234:0.024220472 235:0.014582178 236:0.03151156 237:0.039910916 238:0.075986221 239:0.024220472 240:-0.0049438821 241:0.03151156 242:0.03151156 243:0.011042887 244:0.03151156 245:0.048440944 246:0.03151156 247:0.03151156 248:0.024220472 249:0.03151156 250:0.048440944 251:0.03151156 252:0.029164355 253:0.0083993562 254:0.03151156 255:0.03151156 256:0.03151156 257:0.0044330722 258:0.024220472 259:0.03151156 260:0.03151156 261:0.050657481 262:0.03151156 263:0.03151156 264:0.019955458 265:0.048440944 266:0.067717537 267:0.03151156 268:0.050788149 269:0.067717537 270:0.02532874 271:0.043746531 272:0.014582178 273:0.050788149 274:0.024220472 275:0.03151156 276:0.03151156 277:0.019955458 278:0.03151156 279:0.024220472 280:0.01266437 281:-0.59489518 282:0.043746531 283:0.03151156 284:-0.42540404 285:0.03151156 286:0.019955458 287:0.050788149 288:0.03151156 289:0.024220472 290:0.033858769 291:0.012577076 292:0.03151156 293:0.019276589 294:0.048440944 295:0.03151156 296:0.03151156 297:0.048440944 298:0.03151156 299:0.03151156 300:0.048440944 301:0.024220472 302:0.048440944 303:0.03151156 304:0.059866376 305:0.019955458 306:0.03151156 307:0.03151156 308:0.077106357 309:0.048440944 310:0.014582178 311:0.03312866 312:0.024220472 313:0.029164355 314:0.024220472 315:0.043746531 316:0.03151156 317:0.019955458 318:0.001108268 319:0.03312866 320:0.024220472 321:0.03151156 322:0.048440944 323:0.03151156 324:0.055214435 325:0.021493126 326:0.048440944 327:0.072910883 328:0.03151156 329:0.03151156 330:0.03151156 331:0.016929384 332:0.02532874 333:0.0090626534 334:0.024220472 335:0.024220472 336:0.03151156 337:0.03151156 338:0.039910916 339:0.059866376 340:0.03151156 341:0.019955458 342:0.019955458 343:0.016929384 344:0.03151156 947:0.019955458 #
-0.080799675050440888934843997049029 7:-0.043688148 19:0.096000493 20:0.048000246 21:0.073587149 25:0.013153476 56:0.0023452456 60:-0.020405257 68:0.010202629 88:0.1651451 93:0.10527941 94:0.031692259 96:0.08674062 128:0.12676904 131:-0.0063902326 141:0.08674062 143:0.026306951 148:0.048000246 174:0.073019162 185:0.11009673 186:-0.013073392 197:0.0023452456 205:0.010202629 206:0.073587149 230:0.08674062 231:0.10527941 271:0.12676904 280:0.11009673 281:-0.078358725 284:-0.43145871 290:0.073587149 291:0.054668926 310:0.063384518 362:0.063384518 371:0.13697167 372:0.13697167 373:0.13697167 374:0.1651451 375:0.13697167 376:0.13697167 377:0.13697167 378:0.13697167 379:0.13697167 380:0.048000246 381:0.10527941 382:0.10527941 383:0.063384518 384:0.13697167 385:0.13697167 386:0.13697167 387:0.10527941 388:0.13697167 389:0.10527941 390:0.10527941 391:0.21055882 392:0.08674062 393:0.13697167 394:0.073587149 395:0.13697167 396:0.13697167 397:0.13697167 398:0.073587149 399:0.13697167 400:0.13697167 401:0.13697167 402:0.13697167 403:0.13697167 404:0.13697167 405:0.13697167 406:0.13697167 407:0.13697167 949:0.08674062 #
-0.51258593364260862657033612777013 3:0.050973151 7:-0.038510028 8:0.030933736 21:0.021621753 24:0.016063103 32:0.030933736 46:0.025486575 47:0.043243505 56:0.0041345526 60:-0.017986732 61:0.030933736 65:0.043243505 67:-0.0029977886 74:0.030933736 75:0.030933736 76:0.03724793 89:0.043243505 94:0.018623965 95:0.043243505 97:0.030933736 116:0.021621753 131:-0.0018776109 134:0.014103678 143:0.011594465 167:0.014103678 177:0.016063103 183:0.016174592 186:-0.0038412912 190:0.064698368 193:0.064698368 196:0.030933736 211:0.025486575 218:0.010727433 221:-0.0024493716 243:0.028207356 248:0.030933736 252:0.03724793 253:0.010727433 257:0.0014154501 280:0.016174592 281:-0.64466536 284:-0.10866293 291:0.016063103 293:0.036929313 305:0.050973151 311:0.014103678 314:0.030933736 315:0.018623965 331:0.021621753 332:0.032349184 333:0.023149155 338:0.025486575 343:0.064865261 349:0.030933736 363:0.016174592 365:0.03724793 368:0.025486575 374:0.04852378 380:0.08462207 382:0.030933736 387:0.030933736 389:0.030933736 398:0.064865261 408:0.040245719 409:0.030933736 410:0.040245719 411:0.061867472 412:0.050973151 413:0.030933736 414:0.08648701 415:0.061867472 416:0.040245719 417:0.030933736 418:0.040245719 419:0.040245719 420:0.030933736 421:0.055871893 422:0.040245719 423:0.040245719 424:0.040245719 425:0.040245719 426:0.040245719 427:0.061867472 428:0.040245719 429:0.030933736 430:0.064865261 431:0.040245719 432:0.08087296 433:0.040245719 434:0.04852378 435:0.040245719 436:0.040245719 437:0.040245719 438:0.040245719 439:0.040245719 440:0.040245719 441:0.043243505 442:0.064865261 443:0.03724793 444:0.040245719 445:0.040245719 446:0.030933736 447:0.040245719 448:0.040245719 449:0.040245719 450:0.040245719 451:0.040245719 452:0.061867472 453:0.040245719 454:0.025486575 455:0.040245719 456:0.061867472 457:0.040245719 458:0.040245719 459:0.040245719 460:0.040245719 461:0.032975677 462:0.040245719 463:0.040245719 464:0.061867472 465:0.025486575 466:0.040245719 467:0.040245719 468:0.040245719 469:0.061867472 470:0.040245719 471:0.061867472 472:0.040245719 473:0.050973151 474:0.040245719 475:0.040245719 476:0.030933736 477:0.061867472 478:0.040245719 479:0.040245719 480:0.050973151 481:0.040245719 482:0.040245719 483:0.040245719 484:0.030933736 485:0.040245719 486:0.061867472 487:0.040245719 488:0.040245719 489:0.076459728 490:0.040245719 491:0.016174592 492:0.040245719 493:0.040245719 494:0.040245719 495:0.061867472 496:0.040245719 497:0.040245719 498:0.025486575 499:0.076459728 500:0.061867472 501:0.025486575 502:0.040245719 503:0.061867472 504:0.043243505 505:0.025486575 506:0.040245719 507:0.040245719 508:0.040245719 509:0.040245719 510:0.076459728 511:0.040245719 512:0.040245719 513:0.040245719 514:0.040245719 515:0.040245719 516:0.040245719 517:0.061867472 518:0.040245719 519:0.028207356 520:0.061867472 521:0.040245719 522:0.040245719 523:0.040245719 524:0.061867472 525:0.040245719 526:0.040245719 527:0.040245719 528:0.050973151 529:0.040245719 530:0.040245719 531:0.040245719 532:0.040245719 533:0.040245719 534:0.040245719 535:0.040245719 536:0.040245719 537:0.061867472 538:0.040245719 539:0.076459728 540:-0.22201049 541:0.030933736 542:0.040245719 543:0.030933736 544:0.064865261 545:0.040245719 546:0.030933736 547:0.061867472 548:0.040245719 549:0.040245719 550:0.040245719 551:0.061867472 552:0.040245719 553:0.08648701 554:0.040245719 555:0.040245719 556:0.061867472 557:0.040245719 558:0.040245719 559:0.040245719 560:0.040245719 561:0.040245719 562:0.040245719 563:0.040245719 564:0.040245719 565:0.040245719 566:0.040245719 567:0.09704756 568:0.040245719 569:0.040245719 570:0.040245719 571:0.040245719 572:0.025486575 573:0.030933736 574:0.040245719 575:0.050973151 576:0.061867472 577:0.061867472 578:0.040245719 579:0.040245719 580:0.040245719 581:0.040245719 582:0.08087296 583:0.030933736 584:0.040245719 585:0.040245719 586:0.040245719 587:0.030933736 588:0.040245719 589:0.061867472 590:0.040245719 591:0.074495859 592:0.040245719 593:0.040245719 594:0.030933736 595:0.03724793 596:0.040245719 597:0.040245719 598:0.030933736 599:0.040245719 600:0.076459728 601:0.040245719 602:0.040245719 603:0.040245719 604:0.040245719 605:0.040245719 606:0.040245719 607:0.030933736 608:0.040245719 609:0.061867472 610:0.040245719 611:0.076459728 612:0.061867472 613:0.040245719 614:0.040245719 615:0.030933736 616:0.030933736 617:0.040245719 618:0.040245719 619:0.040245719 620:0.040245719 621:0.040245719 622:0.040245719 948:0.025486575 #
-0.33186846142558090733132303284947 56:0.0070499023 67:-0.03066951 108:0.10974927 131:-0.038418591 134:0.14429066 143:0.039539877 218:0.10974927 243:0.14429066 281:-0.23554946 291:0.08216849 355:0.31647411 421:0.19053639 461:0.03066951 519:0.14429066 623:0.52149159 624:0.4117423 625:0.31647411 626:0.26074579 944:0.31647411 #
-0.24975751309427285384856531891273 16:0.14152946 18:0 19:0.07831911 39:0.051710352 43:0.070764728 50:0.085889034 67:-0.0083235074 68:0.0083235074 83:0.060033862 88:0.044909552 104:0.089819103 128:0.051710352 137:0.095271878 143:0.010730867 144:0.085889034 153:0.070764728 174:0.029785244 183:0.044909552 186:-0.0035551779 194:0.085889034 197:0.001913298 199:0.070764728 205:0.0083235074 206:0.060033862 281:-0.44748625 284:-0.20113863 287:0.060033862 310:0.051710352 318:0.035370599 320:0.085889034 324:0.039159555 331:0.060033862 392:0.070764728 394:0.060033862 541:0.085889034 546:0.085889034 595:0.051710352 607:0.085889034 627:0.17177807 628:0.085889034 629:0.11174421 630:0.11174421 631:0.26945731 632:0.11174421 633:0.11174421 634:0.085889034 635:0.11174421 636:0.11174421 637:0.11174421 638:0.11174421 639:0.11174421 640:0.085889034 641:0.089819103 642:0.11174421 643:0.11174421 644:0.17177807 645:0.085889034 646:0.11174421 647:0.11174421 648:0.034178685 649:0.11174421 650:0.11174421 651:0.21229418 652:0.11174421 653:0.21229418 654:0.22454776 655:0.085889034 656:0.11174421 657:0.11174421 658:0.070764728 659:0.11174421 660:0.17177807 661:0.11174421 947:0.070764728 #
1.0000000154805059882079376620823 7:-0.18999647 25:0.019067826 35:0.010199296 46:0.12574281 64:0.12574281 66:0.069583148 67:-0.029580308 82:-0.079564802 151:0.079800397 158:0.10585161 197:0.0067995312 198:0.15261739 221:-0.036253307 240:-0.12460905 257:0.0069833891 264:0.12574281 270:0.079800397 281:-0.56796032 282:0.091884829 325:0.033857979 333:0.028552677 345:0.19855982 346:0.15261739 347:0.10667498 348:0.12574281 349:0.15261739 350:0.15261739 351:0.1391663 352:0.15261739 353:0.15261739 354:0.091884829 355:0.15261739 356:0.12574281 357:0.15261739 358:0.15960079 359:0.19855982 360:0.06073257 361:0.15261739 362:0.091884829 363:0.079800397 364:0.12574281 365:0.091884829 366:0.15261739 367:0.091884829 368:0.12574281 369:0.15261739 370:0.15261739 950:0.091884829 #
1.0000000154805059882079376620823 4:0.074746959 7:-0.20706052 9:0.045361187 17:0.037373479 25:0.017002108 35:0.012125805 48:0.018051032 56:0.0030314513 60:-0.0087919068 66:0.082726456 67:-0.017583814 79:0.074746959 82:-0.070945136 94:0.027310155 96:0.037373479 108:0.031461384 131:-0.0055066524 136:0.037373479 151:0.0474368 152:0.045361187 153:0.037373479 158:0.078653462 167:0.041363228 188:0.0237184 193:0.0237184 197:0.0020209674 202:0.03170611 217:0.0237184 218:0.094384156 221:-0.025142288 228:0.0948736 235:0.027310155 240:-0.22221899 243:0.041363228 253:0.015730692 257:0.0041512283 270:0.0474368 272:0.081930466 273:0.03170611 274:0.045361187 281:-0.50643021 282:0.027310155 284:-0.10622878 291:0.011777457 301:0.045361187 313:0.027310155 317:0.037373479 318:0.0062268423 319:0.020681614 325:0.030189969 333:0.0084864721 342:0.037373479 346:0.045361187 347:0.095118329 348:0.074746959 350:0.045361187 351:0.082726456 352:0.045361187 353:0.045361187 354:0.10924062 356:0.074746959 357:0.045361187 358:0.071155205 360:0.036102064 362:0.027310155 363:0.0474368 364:0.037373479 366:0.045361187 367:0.081930466 368:0.037373479 370:0.045361187 381:0.045361187 383:0.027310155 409:0.045361187 412:0.037373479 421:0.027310155 434:0.071155205 443:0.054620311 473:0.037373479 476:0.045361187 501:0.074746959 504:0.03170611 505:0.037373479 519:0.041363228 575:0.037373479 591:0.027310155 615:0.045361187 626:0.037373479 628:0.045361187 655:0.045361187 693:0.059016265 694:0.059016265 695:0.059016265 696:0.059016265 697:0.090722375 698:0.059016265 699:0.059016265 700:0.059016265 701:0.090722375 702:0.059016265 703:0.059016265 704:0.12682444 705:0.059016265 706:0.059016265 707:0.059016265 708:0.059016265 709:0.059016265 710:0.059016265 711:0.059016265 712:0.059016265 713:0.045361187 714:0.090722375 715:0.059016265 716:0.059016265 717:0.12682444 718:0.059016265 719:0.090722375 720:0.059016265 721:0.090722375 722:0.059016265 723:0.045361187 724:0.11212043 725:0.059016265 726:0.059016265 727:0.090722375 728:0.11212043 729:0.059016265 730:0.090722375 731:0.059016265 732:0.059016265 733:0.045361187 734:0.059016265 735:0.059016265 736:0.059016265 737:0.059016265 738:0.059016265 739:0.090722375 740:0.13655078 741:0.059016265 742:0.059016265 743:0.059016265 744:0.059016265 745:0.14477131 746:0.090722375 747:0.059016265 748:0.059016265 749:0.059016265 750:0.059016265 751:0.059016265 752:0.059016265 753:0.090722375 754:0.11212043 755:0.037373479 756:0.11212043 757:0.059016265 758:0.074746959 759:0.059016265 760:0.059016265 761:0.090722375 762:0.059016265 763:0.045361187 764:0.059016265 765:0.059016265 766:0.059016265 767:0.059016265 768:0.090722375 769:0.090722375 770:0.059016265 771:0.059016265 772:0.059016265 773:0.059016265 774:0.059016265 775:0.059016265 950:0.027310155 #
-0.22260996163687757354310292612354 28:0.097734541 67:-0.011495759 82:-0.015460585 112:0.097734541 118:0.18881938 177:0.030798962 190:0.062025458 199:0.097734541 202:0.082913935 257:0.010855784 281:-0.17658056 289:0.11862302 390:0.11862302 432:0.062025458 442:0.082913935 443:0.071418174 528:0.097734541 583:0.11862302 648:0.094409689 662:0.29320362 663:0.1543321 664:0.097734541 665:0.1543321 666:0.082913935 667:0.1543321 668:0.1543321 669:0.1543321 670:0.1543321 671:0.1543321 672:0.23724604 673:0.1543321 674:0.1543321 675:0.1543321 676:0.1543321 677:0.1543321 678:0.1543321 679:0.1543321 680:0.1543321 681:0.1543321 682:0.1543321 683:0.1543321 684:0.1543321 685:0.1543321 686:0.1543321 687:0.1543321 688:0.1543321 689:0.1543321 690:0.1543321 691:0.1543321 692:0.1543321 946:0.11862302 #
