SVM-light Version V6.02
0 # kernel type
3 # kernel parameter -d 
1 # kernel parameter -g 
1 # kernel parameter -s 
1 # kernel parameter -r 
empty# kernel parameter -u 
21056 # highest feature index 
68 # number of training documents 
63 # number of support vectors plus 1 
0.073700416 # threshold b, each following line is a SV (starting with alpha*y)
-0.40988765119112358092934300657362 107:0.11089471 436:0.047366027 448:0.10772853 762:0.093726836 1047:0.039305963 1068:0.040721662 1478:0.12539679 1770:0.025841691 2117:0.066516399 2138:0.06046677 3017:0.043821704 3160:0.028362645 3168:-0.01185125 3538:0.047366027 3643:0.11089471 3661:0.11294767 3705:0.071032144 3812:0.11089471 3996:0.083684273 4003:0.16736855 4049:0.16736855 4249:0.071032144 4266:0.11089471 4366:0.093726836 4381:0.062698394 4383:0.070661366 4421:0.11089471 4720:0.093726836 4745:0.065151386 5017:0.11294767 5180:0.076558962 5210:0.018320084 5248:0.12539679 5462:0.11089471 5684:0.071032144 5725:0.066516399 5916:0.071032144 6027:0.062698394 6328:0.087643407 6440:0.04031118 6516:0.059391089 6917:0.053864267 6988:0.066516399 7028:0.11089471 7061:0.071032144 7227:-0.015593162 7504:0.059391089 7631:0.040721662 8149:0.071032144 8191:0.093726836 8283:0.083684273 8722:0.028362645 8885:0.11089471 9109:0.083684273 9144:0.062698394 9173:0.093726836 9604:0.056473836 9826:-0.017498452 10004:0.056473836 10017:0.083684273 10135:0.093726836 10139:0.032180652 10217:0.076558962 10424:0.083684273 10531:0.016066894 10570:0.04553052 10595:0.11089471 10638:0.028362645 10646:0.034923162 10754:0.059391089 11017:0.11089471 11054:0.066516399 11155:0.016066894 11300:0.040721662 11387:0.066516399 11639:0.037966825 11748:-0.29019123 11905:0.06850747 11992:0.062698394 12473:0.11089471 12548:0.068671502 12575:0.049348526 12661:0.056473836 12732:0.039305963 12769:0.070975915 12942:0.10642368 13001:0.1330328 13205:-0.0098542124 13402:0.076558962 13568:0.05672529 13758:0.11089471 13835:0.059391089 13895:0.13146511 13940:0.059391089 14154:0.11089471 14398:0.062698394 14553:0.053864267 14640:0.043821704 14710:0.076558962 14800:-0.3109135 14844:0.11089471 15056:0.039305963 15101:0.047366027 15157:0.083684273 15342:0.056473836 15402:0.083684273 15418:0.032180652 15678:0.11089471 15794:0.093726836 15987:0.062698394 15988:0.070975915 16205:0.071032144 16336:0.066516399 16408:0.036696393 16653:0.093726836 17233:0.11294767 17396:0.018320084 17510:0.093726836 17563:0.093726836 17603:0.064361304 17663:0.083684273 17691:0.042223215 18163:0.036640167 18785:0.0066146129 18813:0.04553052 18835:0.071032144 19040:0.093726836 19107:0.093726836 19112:0.042918939 19172:0.071032144 19353:0.083684273 19705:0.033222534 19875:0.0053443895 19942:0.059391089 19957:0.017167876 19994:-0.0074746548 20412:0.10772853 20446:0.036696393 20698:0.056473836 20753:0.083684273 20808:0.035487957 20831:0.062339142 20850:0.02145947 21054:0.040721662 #
-1.0000000031146130119452664075652 31:0.19323264 567:0.14644395 599:0.078274593 1068:0.083954118 2108:0.17252831 2485:0.19323264 2730:0.19323264 2844:0.15783836 5314:0.18773668 5317:0.17252831 5412:0.053276718 6328:0.090345345 6516:0.12244409 6870:0.22209933 6982:0.14644395 7227:-0.0080369404 8086:0.13713403 8934:0.12244409 9339:0.11642971 9427:0.13713403 9604:0.11642971 9608:0.19323264 9826:-0.0090189539 10646:0.023999866 11748:-0.29913747 12548:0.21236567 12575:0.10173976 12942:0.036568195 14163:0.19323264 14640:0.090345345 14678:0.15783836 14800:-0.07122191 15030:0.31567672 15397:0.14644395 15740:0.12244409 15989:0.15783836 16387:0.15783836 16447:0.12926261 16798:0.11642971 18163:0.037769735 18431:0.056682188 19705:0.034246743 19713:0.13269097 19957:0.070788555 20097:0.10173976 20132:0.13713403 20808:0.073164016 21021:0.11642971 21056:0.068518706 #
-0.079005956780689431950825962758245 283:0.1261588 448:0.081203446 776:0.061390225 1068:0.12278045 1420:0.16718009 2109:0.11541699 2138:0.030385697 2207:0.16718009 2419:0.10027726 2571:0.10027726 2611:0.16718009 3160:0.085516602 3168:-0.089332171 3426:0.016215866 3615:0.16718009 3831:0.1261588 4183:0.107085 4745:0.039287772 4796:0.089535445 5029:0.021108354 5179:0.14129855 5285:0.14129855 5753:0.094521396 5862:0.16718009 6079:0.14129855 6184:0.16718009 6525:0.068639852 6917:0.16240689 7155:0.068639852 7536:0.041448019 7631:0.12278045 8116:0.1261588 8411:0.063653894 8545:0.06606371 8634:0.1261588 9826:-0.013189957 9997:0.14129855 10298:0.089535445 10728:0.06606371 11127:0.107085 11155:0.024221756 11300:0.12278045 11308:0.063653894 11527:0.1261588 11708:0.16718009 11896:0.085137524 11905:0.034426305 11998:0.045525432 12035:0.040182166 12357:0.20055452 12575:0.074395709 12628:-0.011753789 12942:0.10695983 13091:0.16240689 13299:0.107085 13590:0.077644646 13961:0.16718009 14182:0.1261588 14268:0.107085 14521:0.089535445 14800:-0.36455986 15029:0.041448019 15897:0.14129855 15988:0.053500116 16291:0.063653894 16393:0.11541699 17275:0.14129855 18163:0.027618567 18735:0.1261588 18785:0.0049859527 19448:0.055321898 19820:0.16718009 20047:0.107085 21054:0.061390225 #
-0.64091137752053239928784478252055 471:0.063901603 776:0.063901603 789:0.12013853 820:0.11146569 1329:0.17401917 1657:0.09319821 2370:0.13131978 2384:0.10437945 2549:0.084525362 3010:0.038121566 3168:-0.037194647 3193:0.10437945 3908:0.17401917 4474:0.13131978 4745:0.061342463 5176:0.17401917 5567:0.09319821 6153:0.13131978 6525:0.14289561 7105:0.055688724 7155:0.071447805 7855:0.071447805 7907:0.14707886 8116:0.13131978 8608:0.078635119 8612:0.088620372 8634:0.13131978 8954:0.037961293 9144:0.19677626 9318:0.098388128 10189:0.063901603 10594:0.26263955 10728:0.068766281 11748:-0.18215059 11905:0.035834633 12942:0.027833849 13086:0.26263955 13193:0.36041558 13205:-0.015463513 13568:0.044507481 14666:0.098388128 14800:-0.10842098 14870:0.14707886 15101:0.074328132 15606:0.13131978 15956:0.084525362 16043:0.059578635 16389:0.10437945 16408:0.11517007 16895:0.09319821 17691:0.13251577 18101:0.13251577 18163:0.028748402 18192:0.17401917 18624:0.29415771 18785:0.0051899208 19939:0.034739725 19994:-0.011729443 20808:0.11137745 20817:0.14707886 21054:0.063901603 #
-0.4524354269738122269473024061881 173:0.021830741 193:0.013648047 355:0.064257018 434:0.021999562 755:0.10324102 776:0.02359583 849:0.022775514 1026:0.064257018 1044:0.048490159 1047:0.045551028 1225:0.14297296 1275:0.041158985 1326:0.042526841 1385:0.044361457 1413:0.048490159 1447:0.044361457 1478:0.036330063 1569:0.041158985 1574:0.048490159 1657:0.10324102 1690:0.054309238 1697:0.048490159 1840:0.068827346 1914:0.054309238 2108:0.048490159 2138:0.023357978 2370:0.048490159 2419:0.038542375 2473:0.048490159 2480:0.054309238 2549:0.031211203 2636:0.064257018 2637:0.096980318 3010:0.014076485 3017:0.050784245 3024:0.029843347 3168:-0.082405299 3200:0.054309238 3218:0.054309238 3286:0.048490159 3289:0.054309238 3292:0.054309238 3366:0.038542375 3419:0.13765469 3426:0.018698098 3472:0.044361457 3532:0.036330063 3605:0.038542375 3621:0.032723296 3745:0.088722914 3777:0.048490159 3919:0.093633607 3999:0.054309238 4127:0.048490159 4253:0.032723296 4338:0.088722914 4403:0.11937339 4457:0.088722914 4474:0.048490159 4738:0.082317971 4745:0.037751433 4750:0.054309238 4878:0.044361457 4898:0.038542375 5017:0.032723296 5029:0.024339501 5210:0.01061542 5226:0.038542375 5421:0.025392123 5567:0.10324102 5716:0.054309238 5753:0.036330063 5916:0.041158985 6050:0.054309238 6100:0.088722914 6153:0.048490159 6223:0.021999562 6309:0.1646751 6346:0.038542375 6525:0.026382282 6562:0.057189189 6685:0.054309238 6737:0.044361457 6757:0.064257018 6769:0.054309238 6773:0.048490159 6821:0.044361457 6917:0.031211203 7105:0.061689608 7169:0.041158985 7496:0.088722914 7530:0.064257018 7536:0.015930882 7639:0.044361457 7855:0.052764565 7875:0.048490159 7956:0.065446593 8000:0.054309238 8109:0.096288055 8116:0.048490159 8145:0.048490159 8189:0.048490159 8212:0.054309238 8283:0.048490159 8313:0.048490159 8318:0.048490159 8400:0.029843347 8411:0.048931781 8454:0.064257018 8545:0.050784245 8599:0.017498069 8608:0.014518108 8612:0.065446593 8634:0.048490159 8671:0.044361457 8700:0.054309238 8863:0.057189189 8902:0.01061542 8938:0.054309238 8945:0.054309238 8954:0.035043258 9109:0.048490159 9243:0.048490159 9301:0.10324102 9318:0.036330063 9336:0.068827346 9604:0.032723296 9826:-0.025348332 10004:0.065446593 10029:0.054309238 10041:0.054309238 10142:0.038542375 10304:0.054309238 10424:0.048490159 10441:0.041158985 10447:0.054309238 10531:0.037239313 10542:0.064257018 10594:0.048490159 10638:0.0164345 10646:0.026981248 10754:0.034413673 10909:0.048490159 10959:0.054309238 11128:0.036330063 11245:0.048490159 11308:0.048931781 11453:0.048490159 11492:0.048490159 11499:0.054309238 11527:0.048490159 11595:0.07708475 11639:0.15399693 11748:-0.18496381 11785:0.036330063 11797:0.048490159 11858:0.032723296 11905:0.039696086 11936:0.012973434 11971:0.054309238 11992:0.072660126 12185:0.064257018 12208:0.059686694 12343:0.048490159 12349:0.038542375 12367:0.054309238 12661:0.032723296 12732:0.022775514 12769:0.020563202 12790:0.054309238 12833:0.064257018 12942:0.082221754 13012:0.088722914 13028:0.064257018 13091:0.031211203 13156:0.041158985 13205:-0.068519294 13211:0.048490159 13239:0.054309238 13429:0.026382282 13467:0.026382282 13528:0.032723296 13544:0.029843347 13556:0.044361457 13568:0.0164345 13602:0.044361457 14182:0.048490159 14268:0.082317971 14365:0.027296094 14386:0.054309238 14615:0.044361457 14641:0.064257018 14747:0.048490159 14775:0.029843347 14800:-0.26022571 14947:0.048490159 15050:0.036330063 15056:0.022775514 15058:0.064257018 15101:0.082337551 15342:0.032723296 15490:0.088722914 15508:0.076176368 15550:0.044361457 15580:0.048490159 15596:0.088722914 15633:0.076176368 15785:0.14547047 15925:0.068827346 16012:0.027296094 16051:0.062422406 16389:0.038542375 16433:0.041158985 16454:0.048490159 16543:0.054309238 16635:0.054309238 16653:0.054309238 16798:0.032723296 16801:0.054309238 16812:0.041158985 16895:0.034413673 17002:0.054309238 17036:0.064257018 17154:0.048490159 17361:0.054309238 17396:0.031846259 17478:0.031211203 17496:0.054309238 17623:0.096980318 17642:0.07708475 17691:0.024465891 17752:0.025392123 17754:0.054309238 17759:0.034413673 17870:0.048490159 17935:0.14547047 18061:0.044361457 18101:0.12232945 18163:0.021230839 18250:0.031211203 18514:0.041158985 18785:0.01533113 18800:0.088722914 18835:0.082317971 18857:0.054309238 18860:0.054309238 18866:0.031211203 19112:0.049738046 19120:0.044361457 19366:0.036330063 19374:0.048490159 19430:0.036330063 19479:0.064257018 19499:0.048490159 19585:0.054309238 19713:0.055940434 19892:0.054309238 19899:0.051310927 19957:0.019895565 19994:-0.047642395 20038:0.048490159 20083:0.088722914 20185:0.096980318 20341:0.044361457 20376:0.044361457 20404:0.054309238 20412:0.062422406 20481:0.049303498 20538:0.044361457 20550:0.048490159 20626:0.088722914 20808:0.041126404 21045:0.048490159 21054:0.02359583 #
1.0000000031146130119452664075652 599:0.12359937 2312:0.16065201 3168:-0.077162474 3467:0.30512369 5029:0.045581922 5314:0.14822266 6562:0.16065201 8934:0.19334514 9339:0.18384816 9826:-0.014241365 11748:-0.37788206 12013:0.14822266 12548:0.11177856 13337:0.11177856 13368:0.23124209 13528:0.18384816 13568:0.18466675 14640:0.14265968 14800:-0.11246284 14982:0.20411193 15577:0.36101297 15947:0.24923442 16291:0.13745587 17058:0.30512369 17396:0.059640244 17691:0.13745587 18163:0.11928049 21056:0.10819436 #
0.99539286054596798347660069339327 173:0.072768115 4383:0.27295712 4745:0.0755018 5248:0.72659111 9826:-0.025347976 11905:0.13231844 12628:-0.022588003 12942:0.10277575 13544:0.29842928 17113:0.44360831 18163:0.10615271 18785:0.019163644 21052:0.24465548 #
0.84892453291656078118165851265076 78:0.33931714 144:0.33931714 173:0.022732612 439:0.33931714 642:0.12040391 1068:0.14742371 2144:0.093228698 2703:0.25715604 3426:0.019470554 3480:0.12857802 6007:0.13285111 7671:0.21501221 9670:0.20073481 9677:0.079323359 9722:0.085739076 9826:-0.0079186559 10018:0.15285975 10139:0.058251441 10146:0.16965857 11374:0.20073481 11624:0.24080782 12400:0.16965857 12628:-0.014112893 13224:0.10222548 14365:0.042635623 14473:0.13858233 15758:0.20073481 17113:0.13858233 17777:0.20073481 17787:0.20073481 18162:0.16965857 18199:0.093228698 19049:0.10222548 19875:0.0096740853 21052:0.076429874 #
1.0000000031146130119452664075652 1918:0.25239962 3474:0.21332504 3480:0.16167125 6346:0.15139328 6375:0.19046788 7146:0.25239962 7275:0.21332504 7633:0.17425045 8354:0.11722376 8954:0.027529771 9677:0.099739492 9826:-0.019913496 9962:0.19046788 10296:0.19046788 11054:0.15139328 11445:0.13517587 11639:0.086413614 12672:0.25239962 14800:-0.078627586 17719:0.25239962 18302:0.21332504 18785:0.0075275269 19000:0.21332504 19164:0.25239962 19697:0.2854068 19867:0.25239962 19875:0.01824598 20210:0.25239962 20214:0.12853612 21056:0.075643308 #
1.0000000031146130119452664075652 1028:0.15543713 10897:0.6670289 11155:0.096641958 17016:0.6670289 17396:0.11019484 21055:0.25397158 #
-0.71083467405288602858348667723476 305:0.065540932 594:0.13108186 760:0.13953997 787:0.027485717 1218:0.025660908 1380:0.13108186 1752:0.077546015 2157:0.16612306 2393:0.077546015 2463:0.17555523 2665:0.023240278 2834:0.13108186 3168:-0.0082872948 3546:0.024010167 3657:0.018070476 4260:0.077546015 4624:0.028475683 4811:0.038451098 5031:0.077546015 5048:0.13108186 5187:0.041530766 5210:0.025621589 5235:0.019833319 5314:0.031838402 5322:0.17555523 5601:0.13108186 5754:0.077546015 5771:0.077546015 6136:0.041530766 6440:0.042282961 6742:0.17555523 7168:0.065540932 7394:0.028475683 7588:0.44573763 7673:0.077546015 8020:0.034508243 8086:0.046513326 8354:0.10804575 8397:0.144061 8733:0.12257387 8934:0.1245923 9017:0.10804575 9164:0.077546015 9266:0.077546015 10095:0.095515206 10131:0.034508243 10212:0.095515206 10279:0.077546015 10638:0.019833319 11047:0.026549291 11116:0.13108186 11355:0.028475683 11415:0.090012632 11445:0.041530766 11464:0.028475683 11806:0.13108186 11936:0.015656469 12690:0.043843485 13116:0.13108186 13205:-0.020672442 13332:0.13108186 13505:0.13108186 13765:0.1245923 13945:0.046513326 14515:0.077546015 14620:0.13108186 14800:-0.048314303 15398:0.065540932 16012:0.0164706 16692:0.15066397 16788:0.027485717 16906:0.041530766 17514:0.13108186 17995:0.03601525 17998:0.077546015 18199:0.03601525 18478:0.13108186 18672:0.020463195 18762:0.13108186 18766:0.018070476 18813:0.031838402 18866:0.037665993 19003:0.17555523 19873:0.0394908 19945:0.077546015 19994:-0.01568054 20214:0.1579632 20467:0.077546015 20481:0.019833319 20491:0.034508243 20496:0.29071537 20850:0.030012187 21021:0.0394908 21053:0.029525682 #
-1.0000000031146130119452664075652 4346:0.30591649 5017:0.20644593 5226:0.24315757 6794:0.34262812 8354:0.18827681 8545:0.16019475 10212:0.16644152 14521:0.21711025 15001:0.40538707 15400:0.40538707 16063:0.14368699 17603:0.11763969 19987:0.40538707 21055:0.15435131 #
-0.75216378470069455985935746866744 1028:0.071807168 1326:0.1019695 2723:0.30814683 4102:0.30814683 4206:0.23253629 5215:0.23253629 5328:0.30814683 7641:0.17422213 8235:0.5208838 8543:0.165032 11445:0.165032 14544:0.30814683 14800:-0.095993973 16517:0.14967445 19478:0.30814683 21055:0.11732706 #
-0.79222550714746076128136564875604 1028:0.081063136 3937:0.18630467 4206:0.2625103 7671:0.18630467 8228:0.29401293 9103:0.16156238 9432:0.2625103 10385:0.22282165 11013:0.19667941 12078:0.29401293 14800:-0.10836763 16206:0.34786707 16831:0.24015881 16995:0.34786707 17018:0.22282165 18107:0.14858311 18278:0.10770826 18785:0.010374733 19585:0.29401293 21055:0.13245055 #
-0.65050080070942506438314012484625 420:0.069254003 467:0.069254003 544:0.084783785 642:0.06016966 768:0.069254003 787:0.017777769 898:0.084783785 923:0.084783785 928:0.084783785 1218:0.016597481 1255:0.084783785 1381:0.084783785 1421:0.084783785 1698:0.10217064 1770:0.011687988 2240:0.050156783 2350:0.084783785 2552:0.084783785 2594:0.084783785 2634:0.084783785 2665:0.015031816 2845:0.075699441 3160:0.038484585 3168:-0.0053602247 3187:0.084783785 3311:0.075699441 3324:0.084783785 3503:0.069254003 3546:0.015529782 3593:0.042391893 3657:0.011687988 3698:0.084783785 3701:0.050156783 4076:0.084783785 4080:0.084783785 4180:0.097449489 4185:0.032127265 4197:0.084783785 4227:0.084783785 4353:0.084783785 4383:0.04261275 4560:0.050156783 4572:0.084783785 4624:0.018418079 4811:0.02487018 4946:0.084783785 5187:0.026862109 5210:0.016572051 5235:0.012828195 5378:0.084783785 5550:0.037849721 5677:0.084783785 5681:0.075699441 5999:0.084783785 6136:0.026862109 6283:0.084783785 6440:0.06381347 6556:0.084783785 6760:0.084783785 6925:0.12033932 7112:0.084783785 7227:-0.095210925 7280:0.069254003 7394:0.018418079 7456:0.032127265 7572:0.084783785 7621:0.084783785 7752:0.084783785 8020:0.1115997 8070:0.084783785 8200:0.084783785 8302:0.069254003 8460:0.069254003 8518:0.084783785 8706:0.084783785 8865:0.069254003 8906:0.084783785 8932:0.084783785 9151:0.075699441 9181:0.084783785 9993:0.075699441 10142:0.06016966 10149:0.084783785 10370:0.10744844 10397:0.075699441 10603:0.084783785 10638:0.012828195 10646:0.0052651544 10825:0.03008483 10980:0.084783785 11047:0.017172089 11155:0.0072669256 11339:0.084783785 11355:0.018418079 11464:0.018418079 11640:0.084783785 11671:0.032127265 11685:0.084783785 11700:0.084783785 11860:0.069254003 11896:0.02554266 11914:0.069254003 11936:0.010126608 11979:0.075699441 12055:0.03008483 12148:0.069254003 12171:0.084783785 12447:0.084783785 12521:0.069254003 12652:0.069254003 12690:0.028357977 12822:0.084783785 12849:0.084783785 12866:0.084783785 13204:0.084783785 13205:-0.013370941 13490:0.069254003 13521:0.084783785 13575:0.075699441 13623:0.084783785 13870:0.084783785 13945:0.03008483 13977:0.084783785 14101:0.084783785 14181:0.069254003 14377:0.084783785 14395:0.084783785 14461:0.084783785 14467:0.075699441 14524:0.084783785 14579:0.084783785 14592:-0.16907255 14633:0.084783785 14783:0.069254003 14788:0.084783785 14800:-0.031249704 14872:0.084783785 14991:0.084783785 15092:0.06016966 15513:0.075699441 15597:0.084783785 15763:0.084783785 15872:0.06425453 15903:0.084783785 15988:0.016050916 16012:0.010653188 16291:0.038194437 16364:0.075699441 16513:0.051085319 16598:0.084783785 16788:0.017777769 16906:0.026862109 16941:0.050156783 17180:0.084783785 17205:0.084783785 17325:0.13976803 17652:0.06016966 17741:0.084783785 17995:0.023294672 18320:0.084783785 18672:0.013235599 18758:0.084783785 18766:0.011687988 18777:0.084783785 18813:0.020593086 18866:0.024362372 18892:0.084783785 19037:0.084783785 19041:0.16117266 19114:0.069254003 19226:0.050156783 19331:0.032127265 19441:0.069254003 19471:0.084783785 19519:0.16117266 19671:0.084783785 19789:0.084783785 19873:0.02554266 19953:0.084783785 19957:0.023294672 19994:-0.010142177 20029:0.084783785 20041:0.050156783 20182:0.069254003 20481:0.012828195 20491:0.022319939 20497:0.084783785 20799:0.069254003 20850:0.01941189 21017:0.084783785 21053:0.019097218 #
1.0000000031146130119452664075652 54:0.042158939 93:0.05562868 173:0.022361118 193:0.027959252 371:0.065818138 391:0.048338179 434:0.1126702 448:0.031969476 582:0.061136782 699:0.10574926 849:0.11664422 882:0.045439214 886:0.049668226 902:0.035249751 916:0.084337942 1098:0.042158939 1149:0.095908433 1218:0.021780014 1364:0.037212703 1377:0.035249751 1466:0.065818138 1612:0.065818138 1673:0.063938953 1770:0.03067508 2118:0.021780014 2138:0.01196273 2159:0.065818138 2312:0.029289298 2326:0.05562868 2665:0.039450947 2717:0.03947876 2754:0.05562868 3010:0.043255419 3078:0.03947876 3168:-0.077373393 3217:0.084317878 3426:0.012768245 3538:0.084337942 3546:0.020378927 3598:0.045439214 3657:0.01533754 3661:0.067036614 3710:0.065818138 3805:0.05562868 4044:0.033518307 4074:0.022534041 4381:0.037212703 4383:0.027959252 4439:0.05562868 4470:0.12787791 4554:0.090878427 4624:0.024169089 4687:0.084317878 4719:0.035249751 4725:0.049668226 4786:0.037212703 5003:0.065818138 5029:0.091413036 5210:0.021746643 5235:0.016833775 5256:0.022534041 5263:0.05562868 5284:0.065818138 5393:0.11125736 5412:0.061350159 5421:0.026009023 5621:0.027023239 5684:0.042158939 5763:0.05562868 5894:0.049668226 5941:0.090878427 5967:0.030568391 6007:0.065340042 6143:0.065818138 6191:0.025060289 6429:0.065818138 6433:0.042158939 6534:0.05562868 6579:0.045439214 6591:0.065340042 6645:0.045439214 6846:0.05562868 6906:0.05562868 6948:0.033518307 6982:0.042158939 7139:0.030568391 7226:0.12647682 7227:-0.0069411309 7394:0.024169089 7492:0.056225292 7536:0.016317923 7554:0.05562868 7734:0.065818138 7836:0.049668226 7857:0.033518307 8086:0.03947876 8134:0.047458678 8149:0.042158939 8161:0.065818138 8166:0.05562868 8286:0.026009023 8393:0.12787791 8400:0.061136782 8542:0.065818138 8545:0.052018046 8599:0.089615919 8612:0.067036614 8722:0.033667549 8745:0.037212703 8863:0.058578596 8888:0.049668226 8902:0.13047986 8934:0.035249751 8954:0.014357853 8978:0.037212703 9149:0.045068081 9368:0.030568391 9638:0.05562868 9826:-0.010385668 9849:0.030568391 9855:0.023328844 9949:0.05562868 10018:0.025060289 10031:0.042158939 10131:0.029289298 10139:0.019099835 10192:0.090878427 10321:0.03947876 10531:0.066752069 10580:0.10403609 10638:0.016833775 10646:0.020727567 10761:0.099336453 10828:0.05562868 10910:0.05562868 11047:0.022534041 11062:0.045439214 11131:0.05562868 11155:0.0095360093 11156:0.065818138 11175:0.065818138 11355:0.024169089 11415:0.019099835 11427:0.090878427 11432:0.031969476 11464:0.024169089 11624:0.07895752 11745:0.07895752 11748:-0.24112771 11878:0.05562868 11879:0.065818138 11936:0.013288624 11937:0.081069715 11998:0.017923184 12013:0.027023239 12035:0.015819561 12413:0.049668226 12514:0.099336453 12628:-0.057842758 12877:0.099336453 13090:0.11125736 13138:0.11843628 13188:0.042158939 13205:-0.017545993 13224:0.067036614 13226:0.065818138 13269:0.046510182 13317:0.05562868 13395:0.25575581 13467:0.054046478 13525:0.05562868 13528:0.033518307 13590:0.030568391 13633:0.056225292 13985:0.11125736 14008:0.05562868 14025:0.045439214 14028:0.045439214 14062:0.13631764 14256:0.065818138 14326:0.049668226 14365:0.013979626 14521:0.070499502 14592:-0.0034133098 14762:0.065818138 14800:-0.20503682 14975:0.049668226 15029:0.048953768 15055:0.11163811 15092:0.03947876 15144:0.065818138 15361:0.15791504 15418:0.114599 15450:0.05562868 15487:0.054046478 15508:0.052018046 15633:0.026009023 15710:0.045439214 15754:0.033518307 15988:0.021062784 16012:0.013979626 16285:0.07802707 16577:0.029289298 16603:0.042158939 16693:0.05562868 16720:0.05562868 16788:0.023328844 16963:0.031969476 17379:0.028112646 17396:0.032619964 17398:0.05562868 17497:0.084317878 17582:0.049668226 17603:0.038199671 17700:0.05562868 17752:0.026009023 17795:0.049668226 17851:0.074425407 17885:0.11843628 18003:0.042158939 18041:0.045439214 18049:0.049668226 18163:0.021746643 18278:0.020378927 18376:0.021780014 18398:0.065818138 18445:0.045439214 18766:0.03067508 18813:0.027023239 19281:0.05562868 19366:0.037212703 19619:0.05562868 19621:0.024169089 19705:0.0098591056 19859:0.042158939 19875:0.0031719976 19899:0.01313938 19939:0.039418142 19947:0.03947876 19994:-0.013309053 20428:0.065818138 20446:0.043560028 20481:0.016833775 20491:0.029289298 20570:0.11125736 20625:0.029289298 20698:0.033518307 20808:0.021062784 20831:0.018499739 20850:0.025473215 20987:0.042158939 21000:0.070499502 21052:0.025060289 #
1.0000000031146130119452664075652 173:0.065305851 261:0.05602029 264:0.057666745 367:0.036937673 391:0.021175813 394:0.097478442 434:0.098716304 448:0.028010145 471:0.042351626 497:0.036937673 582:0.053565159 642:0.069178849 849:0.081758521 886:0.087033905 916:0.073892921 1098:0.073875345 1149:0.084030434 1218:0.019082619 1284:0.057666745 1326:0.076330476 1377:0.030884167 1434:0.057666745 1443:0.057666745 1500:0.036937673 1574:0.043516953 1770:0.040314082 1776:0.057666745 1875:0.032604009 2118:0.019082619 2138:0.020962358 2326:0.048739221 2539:0.097478442 2695:0.057666745 2717:0.034589425 2754:0.048739221 3010:0.012632784 3078:0.034589425 3168:-0.055465288 3212:0.039811693 3426:0.016780401 3523:0.011642864 3538:0.024630973 3546:0.017855052 3621:0.029367156 3657:0.013438027 3705:0.036937673 3994:0.051323798 4044:0.088101469 4074:0.019743262 4132:0.10376827 4148:0.034589425 4383:0.036744863 4439:0.048739221 4470:0.16806087 4554:0.079623386 4624:0.021175813 4719:0.030884167 4725:0.043516953 4745:0.0067759203 4766:0.057666745 4786:0.065208018 4849:0.057666745 4898:0.034589425 4918:0.048739221 5029:0.080091782 5171:0.04735297 5210:0.0095266905 5235:0.014748958 5256:0.019743262 5263:0.048739221 5285:0.048739221 5314:0.023676485 5336:0.048739221 5347:0.057666745 5412:0.06719014 5587:0.087033905 5621:0.04735297 5725:0.034589425 5870:0.048739221 5911:0.097478442 5941:0.079623386 5967:0.02678258 6007:0.057247858 6179:0.048739221 6191:0.021956641 6379:0.036937673 6534:0.048739221 6562:0.025661899 6563:0.057666745 6591:0.076330476 6645:0.039811693 6796:0.043516953 6846:0.048739221 6889:0.028010145 6906:0.048739221 6917:0.028010145 6931:0.057666745 6988:0.034589425 7133:0.048739221 7139:0.053565159 7226:0.036937673 7287:0.039811693 7340:0.11081301 7368:0.097478442 7394:0.021175813 7466:0.057666745 7492:0.049261946 7536:0.028593985 7554:0.048739221 7808:0.057666745 7857:0.029367156 7959:0.057666745 8038:0.14775069 8109:0.017282527 8134:0.055441402 8166:0.048739221 8227:0.079623386 8232:0.057666745 8248:0.032604009 8286:0.022787876 8318:0.043516953 8358:0.048739221 8393:0.11204058 8399:0.019743262 8400:0.053565159 8412:0.057666745 8510:0.05602029 8522:0.043516953 8599:0.015703447 8612:0.029367156 8722:0.029497916 8781:0.097478442 8863:0.051323798 8888:0.043516953 8902:0.10479359 8911:0.057666745 8912:0.048739221 8978:0.032604009 9089:0.057666745 9149:0.019743262 9279:0.057666745 9368:0.02678258 9513:0.032604009 9604:0.029367156 9638:0.048739221 9659:0.13055085 9826:-0.020473721 9849:0.02678258 9855:0.02043963 10018:0.021956641 10139:0.016734373 10192:0.039811693 10321:0.034589425 10531:0.083550014 10638:0.029497916 10646:0.060535047 10761:0.043516953 10828:0.048739221 10886:0.02678258 10912:0.057666745 10933:0.097478442 11047:0.019743262 11062:0.039811693 11112:0.024630973 11131:0.048739221 11155:0.050130006 11355:0.021175813 11399:0.065208018 11415:0.033468746 11432:0.05602029 11464:0.021175813 11544:0.057666745 11656:0.057666745 11748:-0.27162606 11858:0.088101469 11905:0.011874937 11936:0.011642864 11937:0.023676485 12013:0.023676485 12132:0.024630973 12196:0.028010145 12357:0.034589425 12370:0.087033905 12413:0.043516953 12548:0.017855052 12628:-0.048651926 12657:0.048739221 12679:0.14775069 12942:0.0092236241 13138:0.034589425 13186:0.057666745 13205:-0.015372969 13224:0.088101469 13337:0.017855052 13525:0.048739221 13528:0.029367156 13556:0.039811693 13590:0.02678258 13835:0.030884167 13879:0.02678258 13895:0.022787876 14008:0.048739221 14062:0.039811693 14174:0.019743262 14326:0.087033905 14365:0.012248287 14473:0.079623386 14521:0.030884167 14553:0.028010145 14584:0.097478442 14800:-0.19760793 14982:0.032604009 15029:0.028593985 15055:0.13041604 15056:0.02043963 15075:0.057666745 15150:0.057666745 15342:0.029367156 15388:0.057666745 15418:0.08367186 15450:0.048739221 15487:0.023676485 15508:0.022787876 15633:0.091151506 15669:0.057666745 15710:0.039811693 15754:0.029367156 15825:0.043516953 15851:0.048739221 15947:0.039811693 15988:0.036908433 16006:0.048739221 16012:0.012248287 16043:0.019743262 16046:0.030884167 16059:0.057666745 16063:0.02043963 16208:0.057666745 16266:0.036937673 16285:0.022787876 16291:0.043913282 16339:0.023676485 16554:0.057666745 16577:0.051323798 16692:0.028010145 16788:0.02043963 16798:0.029367156 16810:0.057666745 16840:0.097478442 16963:0.028010145 17233:0.029367156 17362:0.057666745 17379:0.098523892 17396:0.057160139 17565:0.097478442 17582:0.043516953 17603:0.08367186 17652:0.069178849 17700:0.048739221 17736:0.057666745 17752:0.13672726 17885:0.034589425 18073:0.039811693 18093:0.057666745 18130:0.039811693 18163:0.02858007 18376:0.019082619 18431:0.028593985 18475:0.057666745 18573:0.057666745 18672:0.030434724 18766:0.013438027 18891:0.057666745 18918:0.043516953 19045:0.057666745 19049:0.058734313 19172:0.073875345 19338:0.043516953 19697:0.032604009 19705:0.034552332 19875:0.0013895773 19897:0.022787876 19899:0.034536313 19994:-0.011660764 20090:0.048739221 20094:0.057666745 20193:0.087033905 20379:0.029367156 20446:0.019082619 20473:0.097478442 20481:0.014748958 20625:0.025661899 20633:0.034589425 20693:0.097478442 20729:0.097478442 20750:0.057666745 20831:0.016208597 20850:0.011159214 21000:0.030884167 21052:0.021956641 #
1.0000000031146130119452664075652 60:0.078139082 138:0.034515489 162:0.034515489 283:0.026046362 332:0.034515489 340:0.058344129 367:0.022108441 391:0.025348876 397:0.034515489 434:0.011817007 448:0.016765015 469:0.026283579 471:0.012674438 502:0.052092724 546:0.022108441 554:0.034515489 599:0.011817007 629:0.13941881 680:0.034515489 681:0.034515489 692:0.055455644 776:0.038023315 793:0.034515489 814:0.058344129 835:0.034515489 882:0.023828639 924:0.034515489 1002:0.034515489 1068:0.012674438 1097:0.034515489 1127:0.034515489 1225:0.030719021 1275:0.022108441 1299:0.034515489 1403:0.034515489 1572:0.020702936 1647:0.034515489 1663:0.034515489 1668:0.034515489 1726:0.058344129 1811:0.034515489 1827:0.034515489 1878:0.026046362 1955:0.034515489 1975:0.034515489 2027:0.034515489 2056:0.022108441 2109:0.023828639 2123:0.029172065 2138:0.018820016 2171:0.026046362 2230:0.12275381 2254:0.034515489 2317:0.058344129 2381:0.034515489 2382:0.034515489 2549:0.10059009 2645:0.026046362 2660:0.034515489 2665:0.010344175 2681:0.034515489 2749:0.034515489 2775:0.034515489 2776:0.029172065 2805:0.034515489 2817:0.034515489 2837:0.029172065 2844:0.047657277 2845:0.026046362 3010:0.022683442 3024:0.096181653 3027:0.034515489 3043:0.034515489 3132:0.034515489 3167:0.034515489 3168:-0.0036886493 3203:0.034515489 3208:0.034515489 3284:0.034515489 3388:0.029172065 3402:0.034515489 3473:0.029172065 3485:0.034515489 3486:0.026046362 3496:0.044216882 3497:0.034515489 3523:0.1672475 3545:0.034515489 3546:0.01068685 3553:0.023828639 3579:0.034515489 3622:0.058344129 3687:0.034515489 3706:0.022108441 3729:0.034515489 3738:0.052092724 3774:0.058344129 3844:0.034515489 3900:0.034515489 3920:0.034515489 3937:0.036970429 3986:0.029172065 4058:0.034515489 4069:0.034515489 4120:0.034515489 4148:0.020702936 4189:0.029172065 4267:0.034515489 4270:0.026046362 4322:0.017577233 4327:0.026046362 4337:0.034515489 4349:0.034515489 4378:0.03353003 4517:0.034515489 4539:0.034515489 4574:0.029172065 4577:0.034515489 4599:0.017577233 4604:0.034515489 4613:0.082811743 4629:0.03353003 4683:0.034515489 4738:0.022108441 4745:0.024333699 4783:0.034515489 4826:0.058344129 4835:0.016030276 4853:0.034515489 4877:0.034515489 4904:0.058344129 4920:0.034515489 4923:0.029172065 4927:0.020702936 4977:0.029172065 4991:0.058344129 5005:0.026046362 5055:0.034515489 5085:0.034515489 5110:0.034515489 5130:0.034515489 5157:0.034515489 5210:0.0057020448 5235:0.044138741 5272:0.034515489 5421:0.013639312 5430:0.029172065 5444:0.034515489 5550:0.026046362 5551:0.034515489 5669:0.034515489 5693:0.095314555 5740:0.034515489 5765:0.034515489 5795:0.034515489 5832:0.023828639 5840:0.034515489 5874:0.029172065 5918:0.019514598 5951:0.034515489 5968:0.071485922 6065:0.034515489 6079:0.029172065 6102:0.029172065 6163:0.034515489 6173:0.034515489 6257:0.026046362 6269:0.034515489 6302:0.034515489 6309:0.014742467 6328:0.013639312 6337:0.022108441 6344:0.034515489 6353:0.022108441 6363:0.034515489 6368:0.034515489 6375:0.026046362 6402:0.095314555 6416:0.034515489 6450:0.029172065 6531:0.034515489 6638:0.034515489 6659:0.034515489 6729:0.029172065 6814:0.034515489 6870:0.03353003 6917:0.016765015 6979:0.058344129 7016:0.029172065 7093:0.034515489 7114:0.052092724 7169:0.022108441 7212:0.034515489 7227:-0.0012133258 7260:0.047657277 7293:0.034515489 7377:0.034515489 7378:0.029172065 7492:0.014742467 7506:0.071485922 7529:0.029172065 7536:0.025671694 7583:0.034515489 7641:0.039029196 7652:0.047657277 7658:0.058344129 7665:0.034515489 7675:0.034515489 7726:0.034515489 7761:0.034515489 7833:0.034515489 7855:0.099198215 7891:0.034515489 7908:0.034515489 8022:0.034515489 8046:0.058344129 8087:0.022108441 8134:0.0082958871 8145:0.052092724 8149:0.022108441 8189:0.026046362 8263:0.017577233 8301:0.034515489 8313:0.026046362 8320:0.034515489 8324:0.034515489 8334:0.034515489 8354:0.016030276 8370:0.022108441 8397:0.053434253 8405:0.020702936 8411:0.013141789 8440:0.019514598 8441:0.034515489 8490:0.034515489 8534:0.026046362 8595:0.034515489 8599:0.0093990415 8608:0.031193456 8643:0.034515489 8653:0.034515489 8661:0.034515489 8672:0.058344129 8676:0.034515489 8724:0.023828639 8733:0.040917937 8785:0.082811743 8797:0.029172065 8832:0.034515489 8863:0.015359511 8908:0.034515489 8909:0.026046362 8929:0.034515489 8954:0.022588072 8955:0.034515489 9017:0.032060552 9149:0.023634015 9150:0.034515489 9151:0.026046362 9196:0.047657277 9318:0.019514598 9336:0.055455644 9408:0.047657277 9448:0.034515489 9449:0.034515489 9475:0.034515489 9480:0.034515489 9496:0.034515489 9615:0.078139082 9622:0.023828639 9654:0.1105422 9682:0.062108807 9706:0.034515489 9804:0.034515489 9809:0.034515489 9816:0.034515489 9826:-0.010892632 9955:0.034515489 9958:0.034515489 9993:0.026046362 10018:0.013141789 10068:0.034515489 10090:0.034515489 10095:0.028342348 10112:0.034515489 10144:0.034515489 10181:0.034515489 10189:0.038023315 10212:0.014171174 10343:0.0093990415 10382:0.034515489 10385:0.044216882 10412:0.034515489 10416:0.026046362 10481:0.029172065 10502:0.034515489 10551:0.034515489 10618:0.058344129 10759:0.066325322 10775:0.034515489 10825:0.020702936 10886:0.032060552 10948:0.034515489 10967:0.034515489 10972:0.034515489 11112:0.014742467 11155:0.010001499 11191:0.034515489 11203:0.034515489 11208:0.029172065 11245:0.026046362 11246:0.029172065 11308:0.013141789 11363:0.034515489 11387:0.020702936 11445:0.018485215 11448:0.034515489 11526:0.034515489 11551:0.034515489 11572:0.034515489 11581:0.034515489 11621:0.034515489 11645:0.034515489 11671:0.066325322 11699:0.034515489 11748:-0.063224524 11761:0.058344129 11784:0.034515489 11804:0.022108441 11861:0.058344129 11870:0.034515489 11882:0.034515489 11905:0.0142151 11929:0.034515489 11937:0.014171174 11995:0.034515489 12012:0.026046362 12055:0.020702936 12095:0.095314555 12132:0.014742467 12189:0.034515489 12223:0.026046362 12241:0.034515489 12341:0.023828639 12413:0.026046362 12431:0.034515489 12452:0.034515489 12482:0.034515489 12486:0.034515489 12548:0.0213737 12575:0.061438043 12657:0.029172065 12671:0.034515489 12739:0.044227403 12769:0.05522735 12798:0.034515489 12807:0.034515489 12840:0.034515489 12844:0.034515489 12916:0.047657277 12942:0.0055206497 12989:0.13660219 12995:0.034515489 13091:0.016765015 13098:0.034515489 13114:0.034515489 13177:0.034515489 13205:-0.058274522 13224:0.035154466 13269:0.059233494 13299:0.022108441 13316:0.029172065 13337:0.0213737 13429:0.014171174 13590:0.032060552 13633:0.014742467 13634:0.034515489 13677:0.026046362 13695:0.034515489 13720:0.066325322 13759:0.034515489 13765:0.055455644 13858:0.058344129 13895:0.013639312 13935:0.034515489 13940:0.018485215 13951:0.034515489 14122:0.034515489 14173:0.050295047 14174:0.094536059 14197:0.058344129 14217:0.034515489 14221:0.034515489 14263:0.023828639 14337:0.026046362 14365:0.0073310127 14398:0.019514598 14418:0.071485922 14466:0.034515489 14482:0.026046362 14483:0.034515489 14552:0.034515489 14592:-0.0035799267 14602:0.034515489 14615:0.023828639 14640:0.013639312 14666:0.019514598 14686:0.034515489 14721:0.034515489 14728:0.034515489 14765:0.034515489 14800:-0.15053183 14895:0.034515489 14908:0.034515489 14954:0.029172065 14982:0.039029196 15056:0.012233808 15113:0.052092724 15157:0.026046362 15164:0.058344129 15171:0.034515489 15178:0.034515489 15187:0.062108807 15223:0.058344129 15246:0.034515489 15250:0.026046362 15318:0.078139082 15377:0.034515489 15379:0.034515489 15380:0.034515489 15398:0.029172065 15406:0.026046362 15435:0.034515489 15487:0.028342348 15622:0.016030276 15643:0.029172065 15675:0.034515489 15719:0.058344129 15743:0.034515489 15762:0.034515489 15809:0.034515489 15831:0.029172065 15835:0.014742467 15871:0.034515489 15987:0.019514598 15988:0.01104547 16012:0.0073310127 16040:0.078139082 16045:0.034515489 16084:0.034515489 16144:0.034515489 16152:0.041405872 16238:0.034515489 16260:0.058344129 16285:0.013639312 16306:0.034515489 16336:0.020702936 16339:0.04251352 16364:0.026046362 16381:0.044216882 16432:0.013141789 16590:0.034515489 16602:0.019514598 16698:0.034515489 16755:0.034515489 16832:0.058344129 16837:0.034515489 16937:0.034515489 16976:0.13660219 17018:0.022108441 17103:0.034515489 17148:0.058344129 17317:0.034515489 17320:0.029172065 17425:0.026046362 17439:0.058344129 17444:0.034515489 17486:0.034515489 17504:0.058344129 17623:0.026046362 17652:0.041405872 17683:0.020702936 17795:0.026046362 17880:0.034515489 18001:0.016030276 18066:0.088433765 18128:0.034515489 18162:0.029172065 18199:0.032060552 18216:0.034515489 18250:0.03353003 18267:0.17005408 18278:0.01068685 18302:0.029172065 18336:0.034515489 18376:0.04568636 18515:0.034515489 18587:0.058344129 18594:0.034515489 18756:0.034515489 18764:0.095314555 18785:0.022646461 18862:0.034515489 18871:0.034515489 18874:0.052092724 18883:0.034515489 18915:0.034515489 18961:0.034515489 18999:0.034515489 19014:0.034515489 19112:0.0066791652 19198:0.034515489 19255:0.034515489 19313:0.034515489 19351:0.034515489 19367:0.058344129 19400:0.034515489 19448:0.034264769 19461:0.034515489 19682:0.029172065 19693:0.034515489 19701:0.034515489 19705:0.0051701837 19713:0.020032171 19859:0.022108441 19872:0.019514598 19875:0.0016634176 19879:0.034515489 19890:0.034515489 19899:0.12402688 19928:0.058344129 19947:0.020702936 19959:0.034515489 19994:-0.02093808 19997:0.034515489 20020:0.034515489 20045:0.034515489 20047:0.022108441 20051:0.01068685 20071:0.034515489 20090:0.029172065 20092:0.034515489 20095:0.020702936 20124:0.034515489 20132:0.041405872 20138:0.034515489 20145:0.034515489 20174:0.034515489 20193:0.026046362 20214:0.017577233 20227:0.034515489 20231:0.052092724 20250:0.078139082 20301:0.034515489 20378:0.034515489 20406:0.023828639 20496:0.018485215 20512:0.078139082 20569:0.090144768 20572:0.034515489 20574:0.034515489 20586:0.058344129 20611:0.022108441 20647:0.066325322 20708:0.023828639 20768:0.034515489 20789:0.097572997 20805:0.034515489 20806:0.022108441 20808:0.02209094 20817:0.029172065 20821:0.023828639 20831:0.0097013917 20850:0.0066791652 20893:0.034515489 20942:0.088433765 20944:0.034515489 20962:0.034515489 21018:0.022108441 21037:0.034515489 21039:0.058344129 21054:0.012674438 #
1.0000000031146130119452664075652 43:0.03898799 64:0.043665487 193:0.10823517 260:0.046629902 367:0.046629902 436:0.062187992 441:0.072798163 507:0.046629902 599:0.024923777 641:0.072798163 711:0.072798163 799:0.072798163 902:0.03898799 915:0.10143051 968:0.014532813 1044:0.054935545 1199:0.046629902 1698:0.037072927 1891:0.072798163 1945:0.072798163 2056:0.046629902 2118:0.024089787 2133:0.037072927 2138:0.013231378 2263:0.072798163 2291:0.12305621 2521:0.061528105 2571:0.087330975 2603:0.043665487 2665:0.021817362 2776:0.061528105 2938:0.046629902 3010:0.031895109 3168:-0.038899478 3217:0.046629902 3473:0.061528105 3657:0.033928175 3661:0.037072927 3705:0.046629902 3958:0.054935545 3963:0.03898799 4010:0.061528105 4253:0.037072927 4322:0.14829171 4327:0.054935545 4378:0.035359845 4678:0.054935545 4745:0.017107764 4927:0.043665487 4979:0.072798163 5029:0.009191582 5210:0.012026438 5235:0.037237998 5360:0.046629902 5386:0.061528105 5395:0.072798163 5412:0.033928175 5681:0.054935545 5684:0.1398897 5936:0.11696398 5968:0.050258048 6027:0.041159112 6112:0.043634724 6309:0.031093996 6328:0.057534568 6379:0.046629902 6457:0.087330975 6476:0.072798163 6525:0.089667171 6720:0.15595196 6798:0.046629902 6821:0.050258048 6838:0.050258048 6870:0.035359845 6889:0.070719689 7105:0.046592992 7227:-0.0025590796 7295:0.054935545 7369:0.072798163 7456:0.046629902 7492:0.031093996 7984:0.054935545 8134:0.017497227 8288:0.041159112 8411:0.05543587 8519:0.072798163 8534:0.10987109 8638:0.072798163 8785:0.043665487 8880:0.061528105 9149:0.07477133 9348:0.03898799 9368:0.033810172 9586:0.072798163 9604:0.037072927 9826:-0.0057435343 9855:0.051605742 10054:0.072798163 10139:0.021125374 10343:0.019823939 10570:0.029889056 10580:0.028767284 10604:0.072798163 10646:0.038209546 10914:0.1398897 11013:0.041159112 11043:0.050258048 11143:0.061528105 11155:0.010547305 11308:0.027717935 11315:0.054935545 11492:0.054935545 11745:0.043665487 11804:0.046629902 11905:0.014990851 11975:0.035359845 11998:0.099119693 12196:0.035359845 12260:0.061528105 12308:0.041159112 12380:0.072798163 12499:0.072798163 12732:0.025802871 12769:0.093185984 13064:0.072798163 13205:-0.0064689158 13337:0.04508023 13429:0.029889056 13445:0.072798163 13467:0.089667171 13518:0.072798163 13528:0.037072927 13534:0.061528105 13753:0.046629902 13811:0.072798163 13879:0.067620344 14126:0.072798163 14150:0.12305621 14365:0.015462167 14401:0.12633908 14402:0.035359845 14592:-0.0037752916 14628:0.054935545 14775:0.033810172 14800:-0.1360686 15101:0.031093996 15113:0.054935545 15136:0.072798163 15406:0.10987109 15487:0.089667171 15622:0.067620344 15633:0.086301848 15947:0.050258048 15956:0.035359845 15987:0.041159112 15988:0.023296496 15989:0.050258048 16114:0.10987109 16286:0.072798163 16291:0.027717935 16381:0.046629902 16447:0.041159112 16602:0.082318224 16606:0.072798163 16644:0.072798163 16739:0.050258048 16785:0.046629902 16890:0.072798163 17004:0.072798163 17113:0.050258048 17139:0.096359149 17271:0.041159112 17320:0.061528105 17321:0.072798163 17379:0.031093996 17396:0.036079314 17603:0.021125374 17704:0.072798163 17759:0.03898799 18025:0.072798163 18084:0.054935545 18088:0.072798163 18101:0.027717935 18239:0.061528105 18250:0.035359845 18261:0.12305621 18270:0.072798163 18278:0.1577808 18364:0.041159112 18376:0.024089787 18431:0.036096882 18672:0.019210309 18766:0.033928175 18822:0.072798163 18970:0.072798163 19112:0.028174654 19358:0.16480663 19551:0.046629902 19564:0.072798163 19702:0.041159112 19705:0.02180933 19875:0.0052625826 19884:0.072798163 19939:0.029065626 19994:-0.0049068267 20028:0.046629902 20048:0.10987109 20051:0.31556159 20095:0.043665487 20231:0.054935545 20305:0.072798163 20379:0.037072927 20446:0.14453872 20611:0.046629902 20625:0.06479086 20634:0.12305621 20808:0.046592992 20831:0.020461639 21018:0.046629902 21056:0.021817362 #
1.0000000031146130119452664075652 1052:0.5744257 3621:0.29252994 8109:0.17215343 8397:0.17785643 10531:0.083225213 10646:0.060299721 14800:-0.17894523 17603:0.16669318 18431:0.14241414 19705:0.086045027 19875:0.013841754 20097:0.2556214 20996:0.5744257 21056:0.17215343 #
-1.0000000031146130119452664075652 64:0.081140518 260:0.086649083 436:0.057779796 469:0.051506296 915:0.12565415 1199:0.086649083 2312:0.12039632 2384:0.081140518 2938:0.086649083 3474:0.11433337 3657:0.063046351 3661:0.068890028 3963:0.072448656 4629:0.13141344 4739:0.18678202 5210:0.022347888 5340:0.13527572 5346:0.13527572 5369:0.13527572 5865:0.18678202 6112:0.040541675 6223:0.046314109 6328:0.053456228 6438:0.081140518 6720:0.072448656 6889:0.32853362 7227:-0.0047553582 7643:0.11433337 8134:0.032513868 8263:0.27556011 9149:0.092628218 9348:0.072448656 9826:-0.010672808 10139:0.039255802 10171:0.13527572 10189:0.049674619 10343:0.11051232 10441:0.086649083 10531:0.019599317 10580:0.053456228 10712:0.30624864 10886:0.12565415 11411:0.13527572 11745:0.081140518 11804:0.086649083 11936:0.013656024 12575:0.12039632 13104:0.072448656 13205:-0.012020733 13528:0.20667008 13633:0.057779796 13753:0.086649083 14401:0.10061446 14444:0.13527572 14592:-0.02806144 14800:-0.1685645 15487:0.05554074 15498:0.13527572 15977:0.076483093 16285:0.053456228 16602:0.076483093 16727:0.13527572 16785:0.086649083 17054:0.13527572 17139:0.17905745 17259:0.11433337 18376:0.044764362 18431:0.033538152 18672:0.035697173 18706:0.13527572 18766:0.031523176 18814:0.13527572 18874:0.10208288 19994:-0.0091180122 20051:0.12565415 20625:0.12039632 21056:0.040541675 #
-0.6843906969229728298742543302069 7:0.051452171 8:0.051452171 43:0.027555872 45:0.043486737 64:0.030861825 193:0.076498277 260:0.032957006 292:0.051452171 372:0.043486737 376:0.043486737 436:0.087906264 445:0.043486737 507:0.032957006 517:0.043486737 567:0.032957006 599:0.035231177 620:0.043486737 640:0.051452171 682:0.043486737 745:0.043486737 761:0.043486737 776:0.018893758 876:0.029090373 941:0.043486737 968:0.051357392 1047:0.036473822 1199:0.032957006 1326:0.051078424 1409:0.051452171 1500:0.032957006 1675:0.043486737 1698:0.026202345 1750:0.17354214 1839:0.038827259 1927:0.043486737 2028:0.078607038 2117:0.06172365 2118:0.034052283 2133:0.026202345 2138:0.028054958 2157:0.027555872 2161:0.043486737 2416:0.043486737 2457:0.032957006 2542:0.051452171 2606:0.051452171 2938:0.032957006 3010:0.078899704 3024:0.071688898 3053:0.071042605 3092:0.043486737 3168:-0.016495986 3217:0.032957006 3232:0.087271117 3237:0.038827259 3366:0.030861825 3426:0.004990675 3463:0.065914012 3480:0.032957006 3657:0.023979703 3811:0.043486737 3943:0.030861825 3967:0.071042605 4132:0.030861825 4160:0.074974723 4230:0.051452171 4249:0.065914012 4253:0.026202345 4322:0.026202345 4378:0.024991574 4381:0.029090373 4391:0.051452171 4404:0.071042605 4618:0.043486737 4629:0.049983148 4649:0.10656391 4650:0.043486737 4745:0.018137097 4835:0.047792599 4850:0.043486737 4863:0.029090373 4878:0.035521302 5210:0.0085000265 5360:0.032957006 5412:0.011989851 5570:0.092585474 5725:0.030861825 5768:0.043486737 5807:0.06172365 5837:0.051452171 5870:0.043486737 5880:0.032957006 6112:0.03084008 6191:0.019590437 6303:0.10988282 6338:0.071042605 6353:0.098871022 6516:0.055111744 6528:0.051452171 6562:0.022896392 6591:0.068104565 6636:0.043486737 6645:0.035521302 6720:0.027555872 6737:0.071042605 6765:0.026202345 6798:0.065914012 6959:0.038827259 7049:0.032957006 7192:0.051452171 7224:0.030861825 7227:-0.010852213 7250:0.051452171 7287:0.035521302 7437:0.043486737 7438:0.051452171 7536:0.051024992 7542:0.043486737 7546:0.043486737 7590:0.043486737 7639:0.035521302 7652:0.035521302 7667:0.051452171 7757:0.051452171 7798:0.14208521 7806:0.051452171 7857:0.078607038 7956:0.052404691 8111:0.043486737 8119:0.051452171 8165:0.051452171 8263:0.026202345 8286:0.020332094 8296:0.038827259 8397:0.031861734 8399:0.14092471 8404:0.038827259 8443:0.051452171 8453:0.051452171 8527:0.051452171 8612:0.026202345 8665:0.043486737 8688:0.043486737 8745:0.058180746 8887:0.051452171 8936:0.038827259 9149:0.035231177 9302:0.051452171 9321:0.092585474 9331:0.043486737 9348:0.027555872 9368:0.023896299 9408:0.035521302 9446:0.043486737 9484:0.038827259 9552:0.043486737 9682:0.030861825 9722:0.021976566 9750:0.098871022 9826:-0.008118812 9997:0.043486737 10106:0.043486737 10122:0.051452171 10123:0.035521302 10227:0.051452171 10313:0.038827259 10321:0.06172365 10343:0.014011133 10450:0.038827259 10531:0.0074546072 10540:0.051452171 10563:0.043486737 10570:0.084499761 10580:0.040664189 10584:0.038827259 10674:0.086973473 10728:0.020332094 10864:0.043486737 10869:0.065914012 10886:0.071688898 10894:0.038827259 10910:0.043486737 11013:0.029090373 11043:0.071042605 11046:0.051452171 11112:0.10988282 11150:0.035521302 11155:0.014909214 11246:0.043486737 11247:0.051452171 11398:0.043486737 11432:0.049983148 11467:0.043486737 11555:0.043486737 11620:0.030861825 11748:-0.33660239 11798:0.065914012 11965:0.086973473 11998:0.014011133 12013:0.084499761 12101:0.043486737 12132:0.043953132 12208:0.023896299 12261:0.051452171 12426:0.086973473 12497:0.11648177 12556:0.051452171 12916:0.035521302 13036:0.043486737 13091:0.024991574 13188:0.098871022 13205:-0.0045720898 13218:0.12763563 13222:0.043486737 13224:0.026202345 13227:0.051452171 13299:0.032957006 13337:0.063723467 13368:0.032957006 13417:0.038827259 13428:0.043486737 13429:0.042249881 13467:0.042249881 13568:0.039478518 13572:0.043486737 13590:0.023896299 13633:0.043953132 13698:0.043486737 13719:0.043486737 13753:0.032957006 13827:0.051452171 13879:0.095585197 13940:0.027555872 14013:0.051452171 14164:0.043486737 14264:0.038827259 14365:0.021856651 14401:0.063781239 14402:0.074974723 14452:0.051452171 14453:0.051452171 14592:-0.0053365892 14628:0.038827259 14640:0.020332094 14747:0.038827259 14771:0.043486737 14800:-0.11219874 14927:0.043486737 14982:0.058180746 15029:0.025512496 15050:0.029090373 15056:0.018236911 15170:0.043486737 15187:0.030861825 15250:0.038827259 15387:0.051452171 15418:0.014930958 15487:0.02112494 15543:0.071042605 15815:0.051452171 15835:0.043953132 15870:0.098871022 16046:0.055111744 16063:0.036473822 16285:0.060996283 16288:0.035521302 16291:0.019590437 16311:0.043486737 16336:0.030861825 16339:0.063374817 16389:0.06172365 16408:0.017026141 16432:0.07836175 16447:0.058180746 16583:0.043486737 16602:0.029090373 16739:0.035521302 16785:0.032957006 16963:0.049983148 17017:0.043486737 17096:0.026202345 17139:0.068104565 17259:0.043486737 17351:0.043486737 17368:0.035521302 17396:0.0085000265 17425:0.038827259 17579:0.038827259 17590:0.043486737 17603:0.014930958 17758:0.043486737 17759:0.027555872 18001:0.023896299 18082:0.043486737 18250:0.024991574 18267:0.02112494 18295:0.043486737 18346:0.051452171 18367:0.038827259 18376:0.017026141 18431:0.051024992 18646:0.043486737 18651:0.043486737 18672:0.013577432 18740:0.086973473 18766:0.011989851 18792:0.043486737 18918:0.038827259 19112:0.019913236 19124:0.035521302 19129:0.051452171 19181:0.038827259 19187:0.043486737 19225:0.051452171 19325:0.043486737 19331:0.032957006 19348:0.051452171 19420:0.051452171 19551:0.032957006 19605:0.038827259 19621:0.075575031 19697:0.029090373 19705:0.038535912 19760:0.051452171 19830:0.043486737 19872:0.029090373 19875:0.0074389596 19947:0.06172365 19994:-0.0034680392 20028:0.032957006 20047:0.032957006 20051:0.015930867 20080:0.043486737 20282:0.043486737 20373:0.043486737 20404:0.043486737 20459:0.043486737 20514:0.051452171 20538:0.035521302 20583:0.043486737 20625:0.045792785 20633:0.06172365 20645:0.043486737 20786:0.035521302 20794:0.06172365 20821:0.035521302 20831:0.014461844 20850:0.019913236 20885:0.038827259 20971:0.065914012 21056:0.01542004 #
-0.66807083570694769658615541629842 64:0.083977416 260:0.089678571 436:0.059799936 599:0.047933377 842:0.10565197 1199:0.089678571 1572:0.25193223 1889:0.33195123 2056:0.089678571 2133:0.071298607 2384:0.083977416 2508:0.14000534 2704:0.14000534 2938:0.089678571 3160:0.035808034 3168:-0.02992457 3232:0.079157159 3426:0.16296017 3553:0.096656218 3657:0.065250628 3821:0.14000534 4592:0.14000534 4649:0.096656218 5029:0.017677238 5210:0.02312923 5248:0.079157159 5421:0.11065041 5916:0.089678571 6112:0.041959122 6179:0.11833078 6223:0.047933377 6720:0.07498166 7061:0.089678571 7226:0.089678571 7287:0.096656218 7536:0.069421478 8399:0.095866755 8510:0.068004012 8608:0.031632539 8733:0.055325203 9017:0.065023683 9030:0.14000534 9149:0.047933377 9348:0.07498166 9353:0.11833078 10095:0.057482596 10139:0.040628295 10343:0.038125377 10531:0.040569127 10570:0.057482596 10646:0.01469691 10672:0.10565197 11155:0.020284563 11520:0.14000534 11748:-0.10991053 11804:0.089678571 11896:0.14259721 11936:0.014133476 12009:0.14000534 12035:0.2355545 12732:0.049624048 12734:0.14000534 13205:-0.012441011 13467:0.11496519 13544:0.13004737 13753:0.089678571 13895:0.055325203 14401:0.10413221 14800:-0.17445798 14864:0.14000534 15029:0.069421478 15740:0.07498166 16036:0.14000534 16123:0.071298607 16602:0.079157159 16785:0.089678571 17139:0.1853178 17396:0.046258461 17603:0.040628295 18001:0.065023683 18364:0.079157159 18376:0.04632945 18448:0.14000534 18651:0.11833078 18672:0.036945242 18766:0.032625314 19049:0.071298607 19112:0.027092729 19545:0.14000534 19705:0.020971838 19939:0.083848469 19957:0.043349121 19994:-0.0094368029 20097:0.062302854 20625:0.12460571 20831:0.039351799 21056:0.041959122 #
-0.55038428146884454950082954383106 54:0.087811708 64:0.041114617 91:0.082229234 95:0.068545409 173:0.07762561 386:0.068545409 434:0.04693554 582:0.031835034 599:0.02346777 629:0.025170568 699:0.1468415 787:0.024295507 849:0.024295507 903:0.068545409 916:0.11711013 968:0.013683829 1218:0.022682499 1673:0.033294179 1770:0.031946145 1836:0.057933729 1840:0.036710374 2060:0.043905854 2118:0.022682499 2138:0.074750535 2230:0.054173488 2274:0.068545409 2457:0.043905854 2587:0.068545409 2638:0.11586746 2703:0.043905854 3010:0.045047767 3013:0.068545409 3108:0.068545409 3168:-0.014650811 3212:0.047322053 3251:0.068545409 3366:0.041114617 3388:0.057933729 3412:0.068545409 3424:0.11586746 3426:0.013297316 3496:0.043905854 3523:0.006919628 3546:0.021223357 3557:0.068545409 3598:0.047322053 3970:0.29368299 3994:0.030502941 4074:0.02346777 4117:0.057933729 4132:0.041114617 4167:0.068545409 4273:0.068545409 4319:0.068545409 4383:0.029117782 4585:0.068545409 4624:0.025170568 4673:0.068545409 4687:0.087811708 4747:0.057933729 4768:0.031835034 4773:0.15517889 4793:0.057933729 4802:0.068545409 4937:0.068545409 5029:0.0086546242 5210:0.022647744 5226:0.041114617 5235:0.017531306 5243:0.043905854 5426:0.11586746 5587:0.051726297 5621:0.028142985 5630:0.068545409 5653:0.068545409 5742:0.068545409 5865:0.047322053 5894:0.10345259 5918:0.038754661 5967:0.031835034 6112:0.041085653 6375:0.051726297 6512:0.068545409 6579:0.047322053 6591:0.022682499 6600:0.068545409 6734:0.068545409 6948:0.034907185 6988:0.041114617 7139:0.063670069 7181:0.068545409 7191:0.068545409 7366:0.068545409 7394:0.025170568 7639:0.047322053 7855:0.028142985 7915:0.068545409 7956:0.034907185 8038:0.043905854 8126:0.068545409 8240:0.068545409 8286:0.027086744 8591:0.038754661 8599:0.018665856 8722:0.035062611 8902:0.090590976 8936:0.051726297 8954:0.059811164 9155:0.068545409 9336:0.036710374 9339:0.034907185 9421:0.068545409 9546:0.068545409 9568:0.068545409 9574:0.068545409 9622:0.14196616 9826:-0.0054080063 9849:0.031835034 9922:0.068545409 10031:0.17562342 10075:0.068545409 10093:0.14196616 10192:0.047322053 10296:0.051726297 10297:0.068545409 10298:0.036710374 10313:0.051726297 10458:0.068545409 10531:0.009931148 10638:0.017531306 10646:0.021586442 10886:0.031835034 10984:0.057933729 11010:0.041114617 11013:0.038754661 11047:0.02346777 11128:0.038754661 11155:0.009931148 11296:0.068545409 11355:0.025170568 11427:0.047322053 11432:0.033294179 11464:0.025170568 11748:-0.035874169 11804:0.043905854 11858:0.069814369 11936:0.027678512 11998:0.018665856 12013:0.028142985 12208:0.031835034 12357:0.041114617 12370:0.051726297 12418:0.068545409 12575:0.061005883 12628:-0.026505403 12769:0.02193555 12863:0.068545409 12872:0.068545409 13086:0.051726297 13156:0.043905854 13205:-0.048728094 13269:0.041517768 13299:0.043905854 13421:0.068545409 13568:0.052593917 13673:0.068545409 14025:0.047322053 14028:0.047322053 14147:0.068545409 14365:0.014558891 14428:0.068545409 14628:0.051726297 14800:-0.34165251 14865:0.068545409 15092:0.041114617 15187:0.082229234 15418:0.019891262 15517:0.068545409 15736:0.068545409 15777:0.068545409 15851:0.057933729 16012:0.029117782 16043:0.02346777 16046:0.036710374 16063:0.048591014 16285:0.054173488 16304:0.068545409 16503:0.068545409 16577:0.030502941 16622:0.057933729 16788:0.024295507 16895:0.036710374 17096:0.034907185 17147:0.13171756 17230:0.068545409 17379:0.058555067 17497:0.087811708 17603:0.019891262 17647:0.068545409 17781:0.068545409 17963:0.057933729 17964:0.068545409 18001:0.063670069 18003:0.043905854 18250:0.033294179 18376:0.022682499 18423:0.057933729 18445:0.047322053 18468:0.051726297 18691:0.068545409 18785:0.004088575 18813:0.028142985 19027:0.094644107 19448:0.022682499 19682:0.057933729 19690:0.068545409 19702:0.038754661 19921:0.068545409 19994:-0.041581597 20318:0.068545409 20324:0.068545409 20481:0.017531306 20491:0.030502941 20519:0.068545409 20633:0.041114617 20777:0.068545409 20789:0.038754661 20806:0.087811708 20850:0.026528733 20981:0.068545409 21052:0.026098697 #
-0.42825110602414490079681286260893 43:0.022175323 45:0.034995534 151:0.13260917 193:0.052766792 210:0.062491726 251:0.034995534 372:0.034995534 376:0.034995534 436:0.03537086 445:0.034995534 448:0.040223461 517:0.034995534 519:0.041405641 567:0.026521835 599:0.042527925 620:0.034995534 682:0.034995534 745:0.034995534 761:0.034995534 776:0.030409142 876:0.070230596 941:0.034995534 968:0.099190488 1041:0.070230596 1047:0.029351959 1098:0.026521835 1149:0.02011173 1218:0.013701624 1286:0.041405641 1326:0.027403248 1334:0.041405641 1364:0.046820398 1385:0.028585428 1449:0.034995534 1500:0.053043671 1569:0.026521835 1605:0.041405641 1675:0.034995534 1750:0.1512944 1889:0.065448232 1927:0.034995534 2028:0.021086086 2050:0.062491726 2117:0.049671516 2138:0.022576958 2161:0.034995534 2171:0.031245863 2694:0.041405641 2717:0.049671516 3010:0.045352701 3017:0.016362058 3053:0.057170857 3092:0.034995534 3160:0.010589986 3232:0.023410199 3269:0.041405641 3406:0.031245863 3463:0.07956551 3532:0.023410199 3624:0.062491726 3635:0.041405641 3758:0.041405641 3811:0.034995534 3943:0.024835758 3967:0.057170857 3994:0.073702604 4129:0.041405641 4160:0.080446921 4249:0.026521835 4322:0.021086086 4378:0.060335189 4404:0.057170857 4570:0.041405641 4618:0.034995534 4650:0.034995534 4678:0.031245863 4684:0.041405641 4719:0.044350646 4739:0.057170857 4747:0.034995534 4768:0.019230317 4799:0.041405641 4850:0.034995534 4863:0.023410199 4899:0.034995534 4957:0.041405641 5171:0.017000092 5189:0.041405641 5243:0.026521835 5360:0.07956551 5412:0.0096487179 5421:0.032724116 5570:0.074507274 5768:0.034995534 5807:0.099343032 5859:0.041405641 5879:0.062491726 5880:0.10608734 6007:0.095911369 6010:0.041405641 6112:0.037227388 6191:0.17341739 6223:0.014175976 6279:0.041405641 6303:0.088427149 6338:0.057170857 6349:0.062491726 6438:0.024835758 6457:0.074507274 6516:0.066525966 6562:0.036851302 6591:0.013701624 6636:0.034995534 6645:0.028585428 6765:0.084344342 6798:0.053043671 6821:0.028585428 6959:0.031245863 7049:0.07956551 7147:0.069991067 7165:0.041405641 7194:0.026521835 7224:0.024835758 7350:0.041405641 7437:0.034995534 7536:0.05132734 7542:0.034995534 7546:0.034995534 7590:0.034995534 7618:0.041405641 7652:0.028585428 7857:0.06325826 7956:0.042172171 7984:0.031245863 8111:0.034995534 8134:0.0099519519 8263:0.042172171 8286:0.049086176 8288:0.046820398 8296:0.062491726 8346:0.034995534 8358:0.034995534 8397:0.012820212 8399:0.028351951 8400:0.019230317 8404:0.031245863 8411:0.015765216 8510:0.02011173 8552:0.041405641 8621:0.034995534 8665:0.034995534 8684:0.041405641 8688:0.034995534 8745:0.023410199 8880:0.034995534 8936:0.031245863 8978:0.023410199 8998:0.031245863 9017:0.019230317 9067:0.041405641 9318:0.023410199 9321:0.074507274 9331:0.034995534 9339:0.021086086 9368:0.019230317 9408:0.028585428 9446:0.034995534 9552:0.034995534 9682:0.024835758 9722:0.01768543 9750:0.053043671 9798:0.034995534 9826:-0.011433689 9850:0.041405641 9855:0.01467598 10095:0.017000092 10106:0.034995534 10139:0.036046635 10189:0.091227427 10288:0.041405641 10321:0.024835758 10423:0.041405641 10450:0.062491726 10563:0.034995534 10570:0.085000463 10580:0.032724116 10632:0.041405641 10646:0.013039538 10723:0.041405641 10864:0.034995534 10869:0.07956551 10894:0.031245863 11013:0.023410199 11054:0.024835758 11098:0.026521835 11128:0.070230596 11155:0.011998047 11387:0.024835758 11398:0.034995534 11399:0.11705099 11432:0.060335189 11467:0.034995534 11555:0.034995534 11748:-0.45507425 11798:0.053043671 11833:0.041405641 11836:0.041405641 11936:0.0041798805 11937:0.034000184 11975:0.02011173 11998:0.011275324 12013:0.10200056 12097:0.041405641 12101:0.034995534 12357:0.024835758 12541:0.041405641 12548:0.012820212 12621:0.041405641 12634:0.041405641 12651:0.085756287 12679:0.026521835 12987:0.026521835 13138:0.024835758 13205:-0.0036793456 13218:0.095629856 13222:0.034995534 13234:0.034995534 13299:0.026521835 13337:0.051280849 13340:0.041405641 13368:0.026521835 13417:0.031245863 13428:0.034995534 13520:0.041405641 13534:0.034995534 13544:0.057690952 13568:0.052949931 13590:0.019230317 13698:0.034995534 13719:0.034995534 13765:0.022175323 13799:0.028585428 13879:0.038460635 14164:0.034995534 14264:0.031245863 14337:0.031245863 14365:0.052766792 14398:0.023410199 14401:0.030796405 14402:0.060335189 14429:0.034995534 14553:0.02011173 14592:-0.0042945691 14640:0.016362058 14666:0.023410199 14675:0.041405641 14771:0.034995534 14775:0.038460635 14800:-0.18058172 14927:0.034995534 14943:0.041405641 15170:0.034995534 15188:0.041405641 15250:0.031245863 15356:0.069991067 15499:0.041405641 15543:0.057170857 15835:0.053056292 15897:0.034995534 15923:0.021086086 16012:0.0087944651 16046:0.044350646 16051:0.040223461 16063:0.058703918 16074:0.034995534 16114:0.031245863 16285:0.016362058 16288:0.085756287 16311:0.034995534 16312:0.041405641 16336:0.024835758 16389:0.049671516 16432:0.094591305 16577:0.036851302 16583:0.034995534 16693:0.034995534 16759:0.041405641 16798:0.021086086 16812:0.026521835 16963:0.080446921 17017:0.034995534 17096:0.084344342 17129:0.041405641 17224:0.062491726 17307:0.041405641 17351:0.034995534 17368:0.028585428 17396:0.0068403152 17579:0.062491726 17590:0.034995534 17714:0.041405641 17922:0.041405641 18001:0.038460635 18082:0.034995534 18130:0.057170857 18267:0.017000092 18278:0.012820212 18295:0.034995534 18364:0.023410199 18367:0.031245863 18431:0.010265468 18606:0.041405641 18646:0.034995534 18766:0.0096487179 18792:0.034995534 18875:0.031245863 18918:0.031245863 19112:0.0080124931 19181:0.062491726 19187:0.034995534 19325:0.034995534 19331:0.026521835 19353:0.031245863 19436:0.041405641 19605:0.031245863 19621:0.12163657 19680:0.041405641 19702:0.046820398 19705:0.043415964 19830:0.034995534 19838:0.041405641 19875:0.0029932156 19899:0.024797622 19947:0.024835758 19994:-0.0027908713 20033:0.041405641 20080:0.034995534 20119:0.041405641 20216:0.062491726 20248:0.041405641 20278:0.041405641 20282:0.034995534 20373:0.034995534 20450:0.069991067 20459:0.034995534 20480:0.031245863 20583:0.034995534 20633:0.049671516 20645:0.034995534 20732:0.041405641 20786:0.028585428 20794:0.099343032 20821:0.028585428 20831:0.034914091 20850:0.016024986 20885:0.062491726 20971:0.07956551 21056:0.012409129 #
0.82774349835247773565782836158178 391:0.21453743 451:0.49378914 599:0.20002389 5017:0.29752597 6525:0.23987235 8399:0.20002389 8954:0.063723892 10135:0.49378914 10531:0.08464659 10669:0.35043406 11155:0.08464659 19875:0.028156305 20097:0.25998709 21056:0.17509358 #
1.0000000031146130119452664075652 820:0.38008791 2823:0.59338969 3168:-0.12683038 6309:0.25345221 11748:-0.31055853 12628:-0.020859474 12790:0.50152558 17396:0.09802945 19899:0.11845932 21052:0.22593339 #
0.95585141935420070424811456177849 902:0.44802308 8486:0.70703852 19875:0.020157989 20097:0.37226593 20569:0.24275821 21055:0.31851536 #
1.0000000031146130119452664075652 1673:0.15215136 3168:-0.033476438 4725:0.23638447 4898:0.18789007 5029:0.039550845 5412:0.072995484 6342:0.31324628 7139:0.14548321 8434:0.31324628 8902:0.051749066 11748:-0.16394168 12357:0.18789007 14375:0.23638447 14873:0.23638447 15140:0.26475188 15508:0.24756791 16285:0.12378395 16938:0.31324628 17379:0.13379566 17396:0.051749066 17533:0.31324628 20831:0.088045247 20868:0.31324628 21055:0.11926867 #
0.9760241827474226417038494219014 173:0.0434912 2799:0.28980625 6591:0.12708294 7671:0.41135347 8510:0.18653685 9484:0.28980625 11584:0.38403845 11620:0.23035233 12132:0.16403285 12628:-0.013500134 12894:0.28980625 13568:0.09822242 14635:0.38403845 15889:0.32458454 18278:0.11890782 19875:0.018508105 21052:0.14622283 #
-0.61889979881369738823337911526323 471:0.25830692 1770:0.16391982 3657:0.16391982 5256:0.24083236 8134:0.16907141 8248:0.39771044 10018:0.26783162 11748:-0.18407503 16043:0.24083236 18163:0.11620852 18672:0.18562452 18766:0.16391982 19338:0.53082871 19713:0.20412932 19875:0.033900697 21053:0.26783162 #
-0.81407449423131372778783543253667 193:0.045425728 296:0.21387103 507:0.13699226 536:0.21387103 749:0.21387103 968:0.042695414 2600:0.21387103 4378:0.10388238 4758:0.21387103 6112:0.064096421 6871:0.21387103 7251:0.21387103 7750:0.21387103 9440:0.21387103 10520:0.21387103 12000:0.21387103 12057:0.21387103 13668:0.21387103 13984:0.21387103 14273:0.21387103 14401:0.053023845 14800:-0.066625156 16948:0.21387103 17027:0.21387103 17759:0.11454138 18196:0.21387103 19551:0.13699226 19935:0.21387103 20051:0.066219769 20697:0.21387103 21056:0.064096421 #
-0.61761125981884912317099178835633 18:0.087347828 91:0.16358969 166:0.11525536 337:0.077099867 471:0.050075199 599:0.046687592 876:0.077099867 1047:0.048334323 1246:0.10290609 1450:0.10290609 1770:0.031777382 2144:0.12666744 2150:0.13636661 2235:0.10290609 2295:0.13636661 2394:0.069445558 2603:0.081794843 2959:0.10290609 3077:0.24538453 3090:0.13636661 3114:0.11525536 3168:-0.014573416 3426:0.01322707 3642:0.10290609 3657:0.031777382 4074:0.093375184 4422:0.11525536 4599:0.13889112 4835:0.06333372 5256:0.046687592 5355:0.10290609 6303:0.058245737 6524:0.094144128 7340:0.087347828 7492:0.058245737 7784:0.18828826 7978:0.066236585 8134:0.06555213 8248:0.077099867 8348:0.16358969 8405:0.081794843 8440:0.077099867 8494:0.10777461 8599:0.037134498 9677:0.10777461 9682:0.081794843 9722:0.11649147 9826:-0.005379437 10018:0.051921647 10077:0.11525536 10131:0.060683604 10212:0.055988625 10217:0.094144128 10343:0.037134498 10881:0.11525536 10923:0.10290609 11112:0.058245737 11150:0.094144128 11748:-0.10705397 11905:0.028081086 11975:0.13247317 12172:0.10290609 12641:0.11525536 13429:0.055988625 13573:0.10290609 13590:0.06333372 14289:0.27778223 14365:0.028963961 14553:0.13247317 15050:0.077099867 15494:0.11525536 15622:0.12666744 16035:0.13636661 16043:0.046687592 16831:0.094144128 17332:0.19000115 18084:0.10290609 18107:0.23298295 18163:0.022528103 18375:0.24538453 18672:0.035985038 18766:0.031777382 19875:0.0032859826 19939:0.027223082 19957:0.021111239 20418:0.13636661 20708:0.094144128 20831:0.038329046 21018:0.087347828 21053:0.051921647 #
-0.28219818073715929873657159987488 18:0.056718472 28:0.088548347 261:0.086020187 469:0.033714823 471:0.03251585 599:0.030316139 629:0.097547553 692:0.14226961 789:0.12226317 876:0.050064057 1047:0.031385429 1218:0.029301712 1377:0.047423206 1450:0.066821076 1471:0.088548347 1770:0.12380603 1809:0.074839965 1875:0.050064057 2045:0.13364215 2118:0.029301712 2144:0.041125141 2230:0.034991205 2235:0.066821076 2394:0.27056286 2601:0.14967993 2603:0.053112697 2665:0.026537638 2959:0.066821076 3523:0.01787783 3546:0.02741676 3605:0.053112697 3642:0.066821076 3657:0.020634338 4038:0.17015542 4074:0.030316139 4176:0.088548347 4206:0.066821076 4383:0.037614942 4574:0.074839965 4599:0.045093808 4624:0.03251585 4629:0.043010093 4677:0.088548347 4745:0.01040455 4835:0.041125141 4903:0.088548347 5210:0.014628408 5235:0.022647295 5243:0.056718472 5256:0.090948418 5621:0.036355678 5871:0.088548347 5967:0.041125141 6303:0.037821312 6524:0.061131585 6698:0.074839965 7144:0.088548347 7394:0.03251585 7505:0.074839965 7978:0.30107063 8134:0.021282824 8248:0.050064057 8286:0.034991205 8348:0.10622539 8397:0.02741676 8599:0.048225861 8722:0.04529459 9037:0.088548347 9336:0.047423206 9513:0.050064057 9677:0.034991205 9722:0.037821312 9849:0.041125141 10018:0.033714823 10131:0.078808635 10212:0.036355678 10343:0.07233879 10376:0.10622539 10385:0.056718472 10638:0.04529459 10646:0.009295268 10870:0.11346393 10886:0.041125141 10923:0.066821076 10956:0.074839965 11047:0.030316139 11112:0.037821312 11143:0.074839965 11155:0.025658514 11355:0.03251585 11415:0.025695935 11464:0.03251585 11639:0.030316139 11748:-0.069514461 11905:0.018234182 11936:0.01787783 11975:0.086020187 12172:0.066821076 12308:0.050064057 12349:0.053112697 12704:0.061131585 12878:0.050064057 12942:0.028326089 13007:0.30038434 13091:0.043010093 13105:0.088548347 13192:0.088548347 13205:-0.023605477 13429:0.036355678 13573:0.066821076 13835:0.047423206 14015:0.088548347 14174:0.060632277 14365:0.037614942 14381:0.088548347 14553:0.086020187 14592:-0.018368365 14601:0.088548347 14755:0.12226317 14800:-0.0827538 15156:0.13364215 15342:0.045093808 15622:0.082250282 15854:0.088548347 15977:0.050064057 16012:0.018807471 16043:0.060632277 16046:0.047423206 16054:0.088548347 16513:0.27056286 16788:0.031385429 17096:0.045093808 17332:0.082250282 17739:0.088548347 17840:0.088548347 18107:0.075642623 18163:0.043885224 18376:0.029301712 18431:0.043906588 18672:0.023366539 18766:0.020634338 18785:0.015845113 19740:0.088548347 19875:0.0021337213 19883:0.12226317 19897:0.034991205 19994:-0.017905317 20113:0.14967993 20350:0.088548347 20379:0.045093808 20480:0.066821076 20481:0.04529459 20831:0.024888599 20850:0.017135177 20942:0.056718472 21018:0.056718472 21053:0.033714823 #
-0.65151345851578434942297235465958 502:0.27871153 1673:0.17939562 3426:0.035824284 4768:0.17153347 4835:0.17153347 4977:0.31215841 6570:0.25498059 8545:0.14594874 10584:0.27871153 10646:0.038770676 12197:0.36933622 12916:0.25498059 14509:0.36933622 14800:-0.23011141 21000:0.39560553 21055:0.14062494 #
1.0000000031146130119452664075652 2384:0.25091469 3553:0.2887975 4253:0.42606384 10669:0.25091469 11745:0.25091469 13467:0.17175128 14401:0.10371163 14775:0.19428316 14800:-0.13031502 17224:0.31567577 17603:0.12139259 17898:0.41831958 18278:0.1295221 19619:0.35355854 19705:0.062661402 19875:0.020160228 21056:0.12536895 #
0.86396057607228515795583234648802 5235:0.3171111 6889:0.60223424 13528:0.63141078 21056:0.3715843 #
0.80545603035809298919645016212598 3010:0.088089831 4383:0.085408688 5336:0.33986408 7139:0.18675794 7227:-0.01413564 8399:0.13767198 10139:0.11669067 11155:0.058260363 11748:-0.10522661 12133:0.40211672 13188:0.25757053 13633:0.17175454 15029:0.099694543 15418:0.11669067 16291:0.15310612 16858:0.40211672 17396:0.06643068 17603:0.23338133 18130:0.2776114 20024:0.40211672 21052:0.15310612 #
0.87278580376004644136855858960189 173:0.017927904 193:0.067248523 434:0.054199625 582:0.07352411 699:0.084783882 849:0.056111313 1149:0.076894052 2665:0.047444366 3168:-0.050754834 3805:0.13379996 4044:0.08061935 4687:0.10140209 4719:0.084783882 5029:0.039976306 6379:0.10140209 6591:0.10477203 8536:0.15830798 8745:0.089505233 8824:0.15830798 8863:0.070447594 8902:0.052305751 9642:0.15830798 11624:0.094955631 11748:-0.082852632 11878:0.13379996 11937:0.19499159 12628:-0.055650134 12877:0.11946367 13269:0.031962238 13790:0.26759991 14800:-0.049316142 15418:0.091879115 15487:0.12999439 16285:0.12511554 16408:0.052386016 16720:0.13379996 16963:0.076894052 17398:0.13379996 17497:0.10140209 17885:0.094955631 18592:0.72557414 19875:0.0038146973 19899:0.031603277 19939:0.031603277 19947:0.094955631 21052:0.060275842 #
0.68280730727911631561255489941686 8400:0.36424899 18725:0.78428054 19697:0.44342178 19875:0.018898558 21056:0.23504619 #
-0.7289557504937262955024834809592 434:0.160603 541:0.39647275 3168:-0.050131831 5913:0.4690944 10298:0.50245905 11155:0.067964368 14800:-0.29226479 18373:0.4690944 21052:0.17860791 #
-0.55351582459792159074396522555617 105:0.046027228 173:0.010235405 787:0.06407018 820:0.05789252 1079:0.090381257 1326:0.029908244 1328:0.068204246 1377:0.048404843 1428:0.13640849 1536:0.090381257 1911:0.076389119 2095:0.068204246 2181:0.090381257 2366:0.062396981 2661:0.090381257 2703:0.05789252 3168:-0.028976969 3177:0.090381257 3193:0.054212105 3313:0.076389119 3426:0.017533313 3986:0.076389119 3996:0.068204246 4010:0.076389119 4115:0.13640849 4117:0.076389119 4638:0.090381257 4745:0.031859759 4778:0.15277824 4811:0.022407718 4835:0.041976415 4994:0.076389119 5029:0.011411644 5412:0.02106146 5451:0.090381257 5558:0.15277824 5716:0.076389119 5832:0.062396981 6366:0.076389119 6794:0.076389119 6796:0.068204246 7051:0.090381257 7053:0.090381257 7227:-0.006354359 7411:0.076389119 7536:0.044815436 7943:0.12479396 8545:0.035715505 8722:0.023116084 8836:0.090381257 9139:0.15277824 9318:0.051100358 9842:0.15277824 9941:0.090381257 10095:0.037108224 10139:0.02622783 10205:0.090381257 10313:0.068204246 10320:0.076389119 10326:0.090381257 10728:0.071431011 10914:0.05789252 11155:0.065474086 11534:0.090381257 11585:0.24958792 11686:0.15277824 11748:-0.094604507 11785:0.051100358 11813:0.15277824 11905:0.093058109 11998:0.049224112 12035:0.043446735 12036:0.090381257 12055:0.054212105 12732:0.06407018 12829:0.076389119 13338:0.090381257 13390:0.090381257 13429:0.037108224 13568:0.023116084 13737:0.090381257 13808:0.090381257 14173:0.17560153 14640:0.035715505 14666:0.051100358 14706:0.090381257 14800:-0.14077795 14863:0.32527262 15140:0.076389119 15248:0.033188913 15550:0.062396981 15616:0.090381257 15956:0.087800764 16237:0.090381257 16432:0.034412704 16831:0.062396981 16934:0.090381257 17377:0.076389119 17610:0.090381257 17691:0.034412704 17845:0.12479396 17888:0.090381257 17896:0.068204246 18364:0.10220072 18907:0.068204246 18976:0.090381257 19040:0.076389119 19112:0.017489867 19172:0.05789252 19330:0.19361937 19397:0.12479396 19430:0.051100358 19448:0.059816487 19698:0.090381257 19713:0.02622783 19939:0.018042954 19957:0.069960691 20406:0.062396981 20808:0.028923346 20957:0.19361937 21054:0.033188913 #
-0.48921733632937414171237833215855 4322:0.47039771 8608:0.41739592 14418:0.63769639 14800:-0.28774977 21054:0.33919027 #
-0.5493986868085158903340925462544 193:0.07171645 507:0.21627828 968:0.067405932 2024:0.33765164 4378:0.16400564 4863:0.19090374 6112:0.10119305 9826:-0.013319799 11138:0.50960284 11748:-0.088357277 14401:0.083712071 14800:-0.21037063 17471:0.33765164 17759:0.18083367 18011:0.28537899 18316:0.33765164 19551:0.21627828 20051:0.10454531 20412:0.16400564 21056:0.10119305 #
-0.40256088541916823508870493242284 18:0.036586829 43:0.030590821 50:0.023451598 205:0.057119012 407:0.073173657 469:0.02174809 546:0.036586829 760:0.034260884 787:0.040490977 849:0.040490977 968:0.034208275 1028:0.21296623 1068:0.020974681 1163:0.048276279 1218:0.018901367 1276:0.03943355 1326:0.018901367 1364:0.064588659 1470:0.057119012 1519:0.086207233 1672:0.048276279 1989:0.057119012 2056:0.036586829 2225:0.12931085 2380:0.03943355 2432:0.12931085 2571:0.034260884 2603:0.034260884 2648:0.030590821 2665:0.034236748 2739:0.057119012 2765:0.043103617 2777:0.048276279 2797:0.057119012 2964:0.048276279 3078:0.034260884 3160:0.029217737 3168:-0.012208547 3311:0.043103617 3361:0.057119012 3408:0.057119012 3496:0.036586829 3532:0.032294329 3538:0.024397021 3546:0.03537092 3586:0.057119012 3600:0.057119012 3657:0.01331039 3706:0.073173657 3958:0.043103617 4074:0.039111469 4109:0.073173657 4202:0.048276279 4270:0.043103617 4410:0.057119012 4437:0.032294329 4480:0.048276279 4597:0.057119012 4624:0.020974681 4768:0.026528191 4772:0.057119012 4796:0.061181642 4811:0.056644782 4927:0.034260884 5140:0.048276279 5187:0.030590821 5202:0.34796944 5210:0.02830861 5215:0.043103617 5235:0.014608868 5412:0.039931171 5421:0.022571431 5437:0.057119012 5465:0.057119012 5542:0.057119012 5925:0.057119012 5931:0.057119012 6007:0.037802733 6054:0.057119012 6070:0.057119012 6136:0.061181642 6220:0.034260884 6438:0.034260884 6440:0.072671376 6543:0.03943355 6560:0.03943355 6593:0.057119012 6632:0.03943355 6687:0.14634731 6698:0.048276279 6761:0.057119012 6864:0.057119012 6956:0.057119012 6959:0.043103617 7176:0.057119012 7194:0.036586829 7223:0.096552558 7224:0.034260884 7295:0.043103617 7328:0.057119012 7394:0.020974681 7419:0.076254465 7595:0.048276279 7853:0.057119012 8020:0.05083631 8087:0.036586829 8114:0.03943355 8192:0.048276279 8288:0.032294329 8354:0.026528191 8370:0.036586829 8404:0.043103617 8405:0.034260884 8430:0.057119012 8482:0.057119012 8494:0.067714296 8599:0.015554291 8685:0.036586829 8733:0.045142863 8895:0.03943355 8993:0.057119012 9017:0.026528191 9103:0.053056382 9196:0.03943355 9198:0.048276279 9223:0.057119012 9238:0.073173657 9296:0.057119012 9342:0.057119012 9360:0.057119012 9366:0.12931085 10095:0.023451598 10212:0.046903197 10324:0.073173657 10343:0.031108582 10397:0.043103617 10475:0.03943355 10543:0.25418153 10580:0.022571431 10638:0.014608868 10689:0.057119012 10699:0.057119012 10728:0.022571431 10896:0.036586829 10963:0.061181642 11010:0.068521768 11047:0.019555734 11054:0.034260884 11098:0.036586829 11127:0.073173657 11199:0.057119012 11217:0.12931085 11302:0.057119012 11308:0.02174809 11355:0.020974681 11464:0.020974681 11505:0.057119012 11524:0.057119012 11620:0.034260884 11666:0.073173657 11748:-0.014947004 11905:0.011762145 11907:0.096552558 11908:0.057119012 11936:0.023064554 11998:0.015554291 12132:0.024397021 12196:0.027744098 12203:0.057119012 12208:0.026528191 12219:0.057119012 12223:0.043103617 12294:0.068521768 12308:0.032294329 12390:0.0788671 12424:0.096552558 12690:0.032294329 12724:0.057119012 12739:0.024397021 12777:0.096552558 12942:0.0091360155 12969:0.043103617 12987:0.036586829 13016:0.18569733 13138:0.034260884 13174:0.048276279 13193:0.03943355 13205:-0.030453905 13276:0.073173657 13370:0.057119012 13633:0.024397021 13720:0.036586829 13930:0.0788671 13945:0.034260884 13992:0.096552558 14016:0.032294329 14173:0.027744098 14174:0.019555734 14241:0.096552558 14482:0.043103617 14550:0.048276279 14563:0.057119012 14678:0.03943355 14800:-0.12455609 14870:0.048276279 15440:0.057119012 15821:0.057119012 15848:0.03943355 15872:0.036586829 15923:0.058176439 16012:0.036395848 16063:0.020245489 16123:0.02908822 16152:0.034260884 16266:0.036586829 16269:0.057119012 16287:0.057119012 16433:0.073173657 16517:0.083232291 16520:0.057119012 16633:0.057119012 16671:0.057119012 16768:0.057119012 16788:0.020245489 16891:0.057119012 16906:0.061181642 16958:0.057119012 17271:0.032294329 17459:0.057119012 17478:0.083232291 17636:0.048276279 17683:0.068521768 17752:0.045142863 17851:0.032294329 17896:0.043103617 17944:0.0788671 17979:0.057119012 17995:0.053056382 18005:0.057119012 18199:0.026528191 18242:0.057119012 18431:0.014161196 18461:0.057119012 18468:0.043103617 18536:0.057119012 18600:0.057119012 18655:0.043103617 18672:0.015072824 18766:0.026620779 18813:0.046903197 18866:0.027744098 18913:0.057119012 19262:0.057119012 19285:0.061181642 19326:0.057119012 19366:0.032294329 19413:0.061181642 19873:0.058176439 19875:0.0013763787 19994:-0.023100013 20048:0.043103617 20127:0.057119012 20132:0.034260884 20194:0.057119012 20214:0.02908822 20379:0.02908822 20440:0.057119012 20481:0.029217737 20491:0.025418155 20577:0.057119012 20850:0.022106441 20938:0.057119012 20957:0.030590821 21021:0.02908822 21053:0.02174809 #
0.72069148673847516217705333474441 434:0.25954565 12628:-0.02664917 13378:0.75808918 14473:0.52336603 21052:0.28864282 #
0.34516235445274440207796828872233 18431:0.63619483 19875:0.061834112 21056:0.7690466 #
-0.49400120103870981402849338337546 184:0.17354399 768:0.14175606 787:0.036389329 929:0.086771995 1218:0.033973396 1377:0.05498407 1864:0.10266595 2118:0.067946792 2133:0.052283291 2168:0.10266595 2243:0.10266595 2571:0.12316132 2590:0.10266595 2665:0.061537273 2999:0.10266595 3168:-0.010971848 3282:0.10266595 3426:0.049791139 3546:0.031787921 3657:0.023924151 3994:0.045686699 4180:0.099734716 4342:0.10266595 4361:0.070878029 4624:0.037699979 4811:0.050906789 4844:0.10266595 5029:0.025925448 5114:0.10266595 5187:0.05498407 5209:0.10266595 5210:0.033921342 5235:0.026258042 5320:0.10266595 5625:0.23242387 5928:0.17354399 6136:0.05498407 6257:0.077474624 6328:0.040569987 6440:0.055979934 6948:0.10456658 7155:0.16860801 7227:-0.02526317 7394:0.037699979 7431:0.14175606 7624:0.23242387 7639:0.070878029 8020:0.045686699 8109:0.030768637 8134:0.024676027 8302:0.14175606 8346:0.086771995 8399:0.035149559 8510:0.049867358 8865:0.14175606 9149:0.070299119 9339:0.10456658 9826:-0.004050002 10638:0.026258042 11047:0.035149559 11155:0.014874676 11355:0.037699979 11464:0.037699979 11663:0.10266595 11741:0.10266595 11748:-0.053731617 11860:0.14175606 11936:0.020728163 12012:0.077474624 12035:0.049352054 12148:0.14175606 12208:0.047681883 12471:0.10266595 12690:0.058045965 12739:0.087702617 12786:0.10266595 12894:0.077474624 13104:0.05498407 13205:-0.027368991 13490:0.14175606 13602:0.14175606 13895:0.040569987 13945:0.061580662 14174:0.035149559 14181:0.14175606 14398:0.058045965 14592:-0.042593811 14800:-0.063965045 15029:0.025453394 15718:0.10266595 15829:0.17354399 16012:0.021806018 16123:0.10456658 16339:0.084304005 16788:0.036389329 16812:0.06576132 16906:0.05498407 17041:0.10266595 17325:0.095363766 17396:0.016960671 17425:0.077474624 17703:0.10266595 17995:0.047681883 18001:0.047681883 18339:0.086771995 18431:0.050906789 18672:0.027091958 18766:0.023924151 18813:0.042152002 18866:0.049867358 19041:0.10996814 19112:0.019867105 19114:0.14175606 19465:0.17354399 19519:0.10996814 19576:0.10266595 19629:0.10266595 19873:0.052283291 19994:-0.020760031 20131:0.17354399 20222:0.10266595 20341:0.070878029 20481:0.026258042 20491:0.045686699 20850:0.039734211 21053:0.039090112 #
-0.40468946446429565622082691334072 248:0.1287885 434:0.044093091 471:0.047292445 1028:0.030011464 1037:0.1287885 1218:0.042617664 1328:0.097187437 1402:0.1287885 1875:0.072815306 2045:0.097187437 2118:0.042617664 2457:0.082493775 2931:0.1287885 2998:0.1287885 3040:0.1287885 3112:0.1287885 3119:0.1287885 3160:0.065878391 3426:0.012492021 3546:0.039876111 4074:0.044093091 4180:0.12511143 4375:0.1287885 4624:0.047292445 4745:0.030265644 5126:0.1287885 5210:0.021276182 5235:0.032939196 5351:0.1287885 5594:0.1287885 5621:0.052877251 5750:0.1287885 5946:0.1287885 5967:0.059814166 6440:0.023407863 6672:0.1287885 7227:-0.0045273122 7295:0.097187437 7394:0.047292445 7475:0.1287885 7631:0.09458489 7811:0.1287885 8286:0.050892703 8342:0.2177009 8599:0.035070878 8722:0.065878391 9059:0.1287885 9173:0.10885045 9513:0.072815306 9668:0.1287885 9776:0.1287885 9849:0.059814166 9989:0.1287885 10029:0.10885045 10219:0.1287885 10638:0.065878391 10728:0.050892703 10936:0.1287885 11047:0.044093091 11300:0.09458489 11355:0.047292445 11464:0.047292445 11842:0.1287885 11895:0.1287885 11896:0.065586366 11905:0.079561725 11936:0.026002282 11979:0.097187437 12045:0.1287885 12076:0.1287885 12546:0.10885045 12942:0.020599337 13007:0.072815306 13205:-0.034332816 13277:0.1287885 13334:0.16498755 13568:0.065878391 13835:0.068974338 13857:0.1287885 14174:0.044093091 14365:0.027354389 14467:0.097187437 14592:-0.013357868 14737:0.1287885 14800:-0.1604809 14871:0.1287885 15156:0.097187437 15342:0.065586366 15372:0.1287885 15861:0.1287885 15988:0.041214235 16012:0.027354389 16063:0.04564831 16282:0.1287885 16291:0.049036283 16513:0.065586366 16788:0.04564831 17146:0.1287885 17478:0.062555715 17636:0.10885045 17707:0.10885045 18376:0.042617664 18785:0.0038409682 19112:0.024922134 19448:0.042617664 19897:0.050892703 19994:-0.026042258 20239:0.1287885 20481:0.032939196 20850:0.024922134 20979:0.1287885 21053:0.049036283 #
-0.47178185627511437516545811377 193:0.015997266 378:0.075317495 420:0.10399466 523:0.075317495 629:0.027657347 776:0.027657347 786:0.20798932 787:0.053391661 820:0.048243623 842:0.056836702 1218:0.024923462 1377:0.04033725 1478:0.042583507 1569:0.048243623 2138:0.013689277 2230:0.029762834 2312:0.033516541 2384:0.045176622 2645:0.056836702 2665:0.045144793 3017:0.059525669 3160:0.019263348 3168:-0.0080491342 3237:0.056836702 3523:0.015206533 3533:0.056836702 3546:0.023320161 3553:0.05199733 3621:0.038355913 3657:0.017551165 4044:0.038355913 4097:0.12731482 4132:0.045176622 4185:0.14473087 4383:0.031994533 4624:0.027657347 4719:0.04033725 4745:0.0088499067 4811:0.074692175 4813:0.06365741 4822:0.12731482 4898:0.045176622 4973:0.075317495 5002:0.075317495 5171:0.061846856 5187:0.04033725 5210:0.024885274 5226:0.045176622 5235:0.019263348 5317:0.056836702 5421:0.059525669 5545:0.075317495 5753:0.042583507 5936:0.161349 6002:0.12731482 6112:0.022572396 6136:0.04033725 6346:0.090353243 6440:0.041067831 6450:0.06365741 6546:0.075317495 6591:0.049846925 6925:0.090353243 7155:0.061846856 7169:0.048243623 7216:0.12731482 7227:-0.010590567 7394:0.027657347 7398:0.12731482 7431:0.05199733 7529:0.06365741 8020:0.033516541 8109:0.045144793 8134:0.018102754 8354:0.034980241 8460:0.10399466 8608:0.017017091 8794:0.075317495 8954:0.016430082 9113:0.075317495 9233:0.06365741 9300:0.075317495 9407:0.075317495 9541:0.12731482 9604:0.038355913 9672:0.056836702 9677:0.029762834 9826:-0.0089134518 9994:0.075317495 10049:0.1136734 10131:0.033516541 10370:0.080674499 10531:0.010912316 10638:0.019263348 11047:0.025786316 11355:0.027657347 11464:0.027657347 11521:0.075317495 11748:-0.17738293 11858:0.076711826 11905:0.01550964 11914:0.10399466 11936:0.015206533 11937:0.030923428 12055:0.090353243 12132:0.032170068 12377:0.075317495 12400:0.06365741 12652:0.10399466 12690:0.042583507 12732:0.08008749 12769:0.024102718 12829:0.06365741 13205:-0.026771143 13417:0.056836702 13429:0.030923428 13544:0.034980241 13568:0.019263348 13590:0.069960482 13602:0.05199733 13728:0.075317495 13799:0.05199733 13865:0.048243623 13895:0.029762834 13915:0.12731482 13945:0.045176622 14375:0.056836702 14398:0.042583507 14592:-0.027341602 14640:0.029762834 14666:0.042583507 14783:0.10399466 14800:-0.14077753 15029:0.018673044 15050:0.042583507 15248:0.38720286 15599:0.19177955 15740:0.04033725 15754:0.038355913 15794:0.06365741 15956:0.036583543 15960:0.06365741 15977:0.042583507 16012:0.015997266 16061:0.056836702 16205:0.048243623 16267:0.045176622 16291:0.028677171 16387:0.05199733 16447:0.042583507 16603:0.048243623 16716:0.1705101 16788:0.026695831 16906:0.04033725 17058:0.06365741 17096:0.038355913 17190:0.05199733 17325:0.069960482 17396:0.012442637 17752:0.029762834 17870:0.056836702 17963:0.06365741 17995:0.034980241 18011:0.06365741 18163:0.012442637 18335:0.075317495 18339:0.06365741 18364:0.042583507 18423:0.06365741 18507:0.075317495 18513:0.075317495 18672:0.019875122 18766:0.017551165 18785:0.017970057 18813:0.030923428 18866:0.036583543 19112:0.043724541 19281:0.06365741 19702:0.042583507 19873:0.038355913 19939:0.13532175 19957:0.058300402 19994:-0.02030655 20204:0.12731482 20481:0.019263348 20491:0.033516541 20786:0.05199733 20789:0.042583507 20799:0.10399466 20831:0.042339511 20850:0.029149694 20894:0.12731482 21054:0.027657347 #
-0.41068648401410084991525195619033 43:0.06196836 283:0.087315746 778:0.087315746 968:0.023098769 1041:0.06541919 1047:0.041011643 1447:0.079881236 1500:0.074114576 1728:0.19558822 1878:0.17463149 2050:0.087315746 2060:0.14822915 2123:0.097794108 2307:0.11570698 2897:0.11570698 3168:-0.012365534 3426:0.022446321 3699:0.11570698 3732:0.11570698 4183:0.14822915 4361:0.15976247 4482:0.079881236 4899:0.097794108 5682:0.11570698 6027:0.06541919 6332:0.074114576 6337:0.14822915 6353:0.074114576 6379:0.074114576 6525:0.047506314 6838:0.079881236 7105:0.037027955 7155:0.047506314 7789:0.06541919 8223:0.11570698 8954:0.02524082 9233:0.097794108 9648:0.11570698 9677:0.045723345 9826:-0.0091288984 9962:0.087315746 10199:0.11570698 10531:0.016764116 10754:0.06196836 10767:0.31952494 11208:0.097794108 11304:0.11570698 11308:0.044055488 11415:0.033577129 11748:-0.060556814 11936:0.023361135 11975:0.056201704 11998:0.031508598 12441:0.097794108 12612:0.097794108 12707:0.11570698 12878:0.13083838 13104:0.06196836 13156:0.074114576 13197:0.11570698 13205:-0.010281835 13269:0.070083402 13568:0.02959344 13802:0.087315746 13865:0.074114576 13895:0.09144669 14331:0.11570698 14592:-0.0060005304 14664:0.11570698 14800:-0.21627039 15056:0.16404657 15835:0.098842941 15976:0.11570698 15977:0.06541919 16051:0.056201704 16267:0.069402874 16577:0.051490001 16603:0.074114576 16798:0.058924515 16818:0.11570698 16831:0.079881236 17038:0.097794108 17233:0.058924515 17594:0.097794108 17997:0.11570698 18163:0.038230162 18672:0.061066564 18766:0.026963089 18785:0.0069016539 19049:0.058924515 19172:0.074114576 19276:0.19558822 19310:0.17463149 19330:0.06196836 19347:0.087315746 19382:0.11570698 19389:0.11570698 19430:0.06541919 19710:0.11570698 19713:0.033577129 19819:0.087315746 19994:-0.0077990168 20028:0.074114576 20379:0.058924515 20808:0.037027955 21054:0.042488776 #
-0.41478007502219443880520088896446 50:0.083097458 173:0.022920422 261:0.098307326 471:0.14864169 497:0.12964031 1770:0.09432701 2138:0.036785837 2394:0.10307004 2599:0.20239323 3160:0.15529345 3657:0.047163505 3994:0.09006568 4009:0.20239323 4038:0.12964031 4044:0.10307004 4148:0.12139866 4383:0.085975736 5223:0.20239323 5256:0.069293007 5314:0.083097458 5593:0.20239323 5621:0.083097458 5657:0.20239323 7631:0.22296253 7901:0.20239323 7978:0.098307326 8109:0.060656562 8134:0.09729147 8248:0.11443044 9368:0.093998931 10018:0.077061318 10875:0.20239323 11150:0.27945453 11155:0.087970749 11300:0.22296253 11415:0.1174654 11671:0.12964031 11748:-0.05296262 12196:0.098307326 12628:-0.01422949 12942:0.032372195 13334:0.12964031 14755:0.13972726 14800:-0.12609917 15369:0.20239323 15825:0.15273163 15988:0.19430652 16043:0.069293007 16692:0.098307326 18163:0.033435866 18672:0.10681689 18766:0.047163505 19705:0.030317117 19875:0.0048770052 19897:0.23993613 19899:0.040404081 19957:0.062665954 21053:0.077061318 #
-0.34901291593369176968764122648281 50:0.11252282 54:0.043886699 261:0.1331186 582:0.063642286 649:0.068515502 902:0.036694355 915:0.12728457 916:0.029264759 968:0.013677858 1089:0.068515502 1218:0.022672601 1364:0.038737752 1385:0.094602808 1398:0.057908453 1698:0.034891956 1834:0.068515502 2118:0.022672601 2133:0.034891956 2176:0.068515502 2268:0.068515502 2416:0.057908453 2457:0.043886699 2685:0.15511118 2721:0.068515502 2872:0.068515502 3426:0.0066457568 3533:0.051703725 3546:0.021214096 3598:0.047301404 3657:0.015966102 3963:0.14677742 4074:0.023457529 4416:0.068515502 4445:0.068515502 4482:0.047301404 4624:0.025159586 4629:0.03327965 4719:0.036694355 4786:0.15495101 4840:0.068515502 5089:0.051703725 5210:0.022637863 5235:0.017523656 5256:0.046915058 5621:0.028130705 5897:0.068515502 5916:0.043886699 5918:0.15495101 5936:0.036694355 5967:0.031821143 6126:0.068515502 6257:0.051703725 6337:0.043886699 6379:0.043886699 6433:0.087773398 6579:0.047301404 6795:0.068515502 6870:0.0665593 6881:0.068515502 6937:0.057908453 6948:0.034891956 7105:0.021925978 7168:0.057908453 7227:-0.0024085308 7394:0.025159586 7404:0.068515502 7436:0.11581691 7492:0.029264759 7789:0.11621325 7857:0.034891956 8263:0.034891956 8286:0.027074924 8397:0.063642286 8545:0.10829969 8591:0.038737752 8599:0.037315421 8608:0.077401303 8722:0.035047311 8863:0.030489631 8909:0.10340745 8954:0.022419399 9243:0.051703725 9649:0.068515502 9698:0.068515502 9826:-0.010811293 9849:0.031821143 9855:0.024284907 9998:0.11581691 10018:0.026087308 10062:0.068515502 10093:0.047301404 10123:0.047301404 10139:0.019882584 10140:0.068515502 10189:0.025159586 10416:0.051703725 10638:0.017523656 10669:0.04109668 10728:0.027074924 10894:0.051703725 11047:0.023457529 11182:0.068515502 11209:0.23295754 11352:0.24658008 11355:0.025159586 11387:0.04109668 11427:0.047301404 11464:0.025159586 11484:0.057908453 11748:-0.16136332 11848:0.068515502 11936:0.013833217 12132:0.029264759 12174:0.068515502 12308:0.038737752 12341:0.047301404 12390:0.047301404 12704:0.094602808 12850:0.057908453 12878:0.11621325 13205:-0.018265061 13269:0.027666435 13575:0.051703725 13633:0.029264759 13879:0.031821143 13940:0.036694355 14025:0.047301404 14028:0.047301404 14141:0.047301404 14365:0.014552538 14398:0.038737752 14729:0.068515502 14800:-0.2347836 15029:0.016986663 15056:0.024284907 15418:0.079530336 15513:0.051703725 15835:0.058529519 15977:0.038737752 15987:0.038737752 16012:0.014552538 16165:0.068515502 16339:0.028130705 16381:0.043886699 16393:0.047301404 16704:0.068515502 16788:0.024284907 16886:0.068515502 16963:0.03327965 16990:0.15511118 17332:0.031821143 17773:0.068515502 18003:0.087773398 18024:0.068515502 18041:0.14190421 18250:0.03327965 18376:0.022672601 18432:0.031821143 18445:0.047301404 18476:0.15511118 18574:0.068515502 18672:0.018080181 18766:0.031932205 18813:0.028130705 18880:0.047301404 18939:0.23295754 18962:0.15511118 19000:0.057908453 19229:0.1755468 19353:0.051703725 19702:0.038737752 19713:0.1192955 19859:0.043886699 19875:0.0066039846 19939:0.013677858 19957:0.010607048 19994:-0.013854485 20028:0.043886699 20095:0.16438672 20412:0.03327965 20446:0.045345202 20481:0.017523656 20491:0.030489631 20821:0.047301404 20831:0.038515791 20850:0.026517158 20922:0.068515502 21053:0.026087308 #
-0.27657961281464393810125557138235 72:0.10466671 451:0.088463001 471:0.038434677 497:0.067042872 541:0.088463001 776:0.076869354 787:0.074196965 833:0.10466671 837:0.10466671 882:0.072259299 929:0.088463001 1047:0.037098482 1703:0.15796889 1911:0.088463001 1973:0.10466671 2095:0.078984447 2109:0.072259299 2312:0.04657704 2457:0.067042872 2769:0.10466671 3168:-0.15659934 3426:0.020304587 3831:0.078984447 3994:0.04657704 4152:0.10466671 4310:0.10466671 4437:0.059177164 4745:0.061492395 4793:0.088463001 4796:0.056055602 4918:0.088463001 4927:0.062780745 5017:0.053302187 5029:0.026430683 5171:0.042973462 5180:0.072259299 5274:0.10466671 6328:0.041360613 6525:0.12892038 6614:0.176926 6765:0.053302187 6937:0.088463001 7095:0.088463001 7105:0.033494905 7155:0.085946925 7248:0.10466671 7260:0.1445186 7536:0.02594943 7943:0.072259299 8575:0.10466671 8591:0.059177164 8608:0.023648195 8671:0.1445186 8954:0.011416223 9301:0.056055602 9318:0.059177164 9677:0.041360613 9826:-0.0082578575 10131:0.09315408 10139:0.030373339 10298:0.1121112 10385:0.067042872 10511:0.10466671 10531:0.015164553 10728:0.041360613 11110:0.10466671 11297:0.078984447 11445:0.056055602 11748:-0.08216811 11858:0.053302187 11896:0.10660437 11936:0.010566057 12035:0.025156913 12341:0.072259299 12388:0.10466671 13036:0.088463001 13091:0.10167835 13142:0.10466671 13799:0.072259299 13802:0.15796889 14268:0.067042872 14365:0.022230973 14800:-0.26084638 15029:0.051898859 15108:0.10466671 15176:0.20112863 15402:0.078984447 15754:0.053302187 15956:0.050839175 15960:0.088463001 15987:0.059177164 16048:0.24305554 16061:0.078984447 16544:0.10466671 16577:0.04657704 16882:0.10466671 16895:0.056055602 17506:0.088463001 17520:0.10466671 17663:0.078984447 17740:0.15796889 18101:0.039851896 18163:0.034582403 18432:0.19444443 18735:0.078984447 19112:0.020254275 19133:0.10466671 19144:0.10466671 19347:0.078984447 19448:0.13854188 19819:0.078984447 19957:0.016203701 20611:0.13408574 20746:0.10466671 21054:0.038434677 #
-0.32612853554007420475713274754526 193:0.04631874 507:0.13968536 776:0.080079526 968:0.043534752 1194:0.21807547 1353:0.21807547 1889:0.34470314 2138:0.03963615 2312:0.097044326 2521:0.18431468 3168:-0.023305591 3426:0.021152535 4160:0.10592458 4378:0.10592458 5029:0.027534464 6112:0.065356478 6773:0.16456589 6913:0.21807547 7504:0.11679312 7536:0.054066226 7984:0.16456589 8608:0.049271554 9149:0.074662112 9855:0.15459107 10095:0.17907237 10580:0.086175784 11692:0.21807547 11852:0.21807547 12035:0.10483 12894:0.16456589 14337:0.16456589 14380:0.21807547 14401:0.054066226 14592:-0.01130933 14800:-0.27173966 15487:0.089536183 15633:0.086175784 15987:0.12329697 16739:0.1505539 17018:0.13968536 17759:0.11679312 19112:0.042200245 19551:0.13968536 19745:0.21807547 19819:0.16456589 19939:0.13060425 20051:0.067521565 21056:0.065356478 #
-0.29929190931255778007624712699908 1068:0.08379776 1218:0.075514488 1875:0.12902187 2118:0.075514488 2645:0.17220698 3237:0.17220698 3546:0.070656717 3737:0.22820111 4074:0.078128807 4624:0.08379776 4719:0.12221604 4745:0.026813937 5210:0.03769939 5235:0.058365155 5621:0.093693517 5865:0.15754439 5967:0.10598508 7394:0.08379776 7671:0.12221604 8286:0.090177082 8510:0.11084285 8599:0.062142294 8722:0.11673031 9370:0.3857455 9513:0.12902187 9826:-0.0090021566 9849:0.10598508 9853:0.22820111 10018:0.08688768 10638:0.11673031 11047:0.078128807 11355:0.08379776 11464:0.08379776 11905:0.046991967 11936:0.046073597 12349:0.13687862 12769:0.073027752 12942:0.036500089 13205:-0.06083452 13835:0.12221604 14174:0.078128807 14365:0.048469402 14800:-0.28435704 15342:0.11621287 16012:0.048469402 16788:0.080884509 17018:0.1461712 17221:0.22820111 18199:0.10598508 18250:0.11084285 18376:0.075514488 18442:0.3857455 19994:-0.046144433 20214:0.11621287 20481:0.058365155 20850:0.044159677 21053:0.08688768 #
-0.25860016452694739585993488617532 50:0.13221423 185:0.10734089 193:0.022798965 407:0.068755791 469:0.040870093 546:0.068755791 755:0.057487793 849:0.03804633 968:0.064285897 1218:0.03552039 1222:0.10734089 1276:0.074105494 1326:0.03552039 1413:0.081002459 1657:0.057487793 1703:0.081002459 2380:0.074105494 2473:0.081002459 2648:0.057487793 2665:0.064339399 3024:0.049853098 3078:0.064384758 3160:0.027453713 3168:-0.011471455 3286:0.081002459 3366:0.064384758 3532:0.06068911 3538:0.091696195 3605:0.064384758 3777:0.081002459 3919:0.15641427 4127:0.081002459 4437:0.06068911 4738:0.068755791 4745:0.025225397 4768:0.049853098 4796:0.057487793 4863:0.12137822 5017:0.054664031 5187:0.057487793 5210:0.035465963 5412:0.050027095 5421:0.042417359 5965:0.10734089 6007:0.03552039 6112:0.0321697 6346:0.064384758 6438:0.064384758 6440:0.039019335 6525:0.088142827 6543:0.074105494 6560:0.074105494 6632:0.074105494 6703:0.090723194 7097:0.090723194 7105:0.034350682 7194:0.068755791 7224:0.064384758 7375:0.10734089 7419:0.14330119 7875:0.081002459 8109:0.096509099 8114:0.074105494 8288:0.06068911 8440:0.06068911 8494:0.042417359 8599:0.029230397 8608:0.024252396 8671:0.074105494 8685:0.068755791 8733:0.042417359 8863:0.047767062 8895:0.074105494 8954:0.011707902 9144:0.06068911 9238:0.068755791 9318:0.06068911 10114:0.10734089 10272:0.10734089 10324:0.068755791 10441:0.068755791 10475:0.074105494 10477:0.090723194 10531:0.015552 10580:0.042417359 10638:0.027453713 10646:0.011267995 10963:0.11497559 11043:0.074105494 11047:0.036750108 11062:0.074105494 11081:0.090723194 11098:0.068755791 11308:0.040870093 11620:0.064384758 11639:0.073500216 11748:-0.056178309 11797:0.081002459 11936:0.021672029 11998:0.029230397 12132:0.045848098 12208:0.049853098 12661:0.054664031 12739:0.045848098 12987:0.068755791 13205:-0.038153663 13211:0.081002459 13218:0.018363921 13276:0.068755791 13429:0.088142827 13556:0.074105494 13633:0.045848098 13818:0.090723194 13895:0.042417359 14016:0.12137822 14263:0.074105494 14800:-0.23407201 15023:0.090723194 15056:0.03804633 15213:0.22231647 15489:0.10734089 15508:0.042417359 15580:0.081002459 15848:0.074105494 15923:0.10932806 16012:0.04559793 16048:0.049853098 16063:0.03804633 16123:0.054664031 16152:0.064384758 16247:0.10734089 16266:0.068755791 16393:0.074105494 16408:0.03552039 16454:0.081002459 16603:0.068755791 16724:0.10734089 17154:0.081002459 17478:0.05213809 17494:0.10734089 17571:0.10734089 17642:0.12876952 17683:0.064384758 17740:0.081002459 17752:0.042417359 17759:0.057487793 17851:0.06068911 17995:0.049853098 18101:0.081740186 18163:0.017732982 18821:0.10734089 18866:0.05213809 18880:0.074105494 19112:0.020771762 19285:0.11497559 19366:0.06068911 19374:0.081002459 19413:0.11497559 19589:0.090723194 19621:0.078833327 19697:0.06068911 19872:0.12137822 19875:0.0025865594 19899:0.021428633 19994:-0.028940463 20038:0.081002459 20341:0.074105494 20376:0.074105494 20379:0.054664031 20481:0.082361139 20491:0.047767062 20550:0.081002459 20647:0.068755791 21045:0.081002459 21054:0.039416663 #
