SVM-light Version V6.02
0 # kernel type
3 # kernel parameter -d 
1 # kernel parameter -g 
1 # kernel parameter -s 
1 # kernel parameter -r 
empty# kernel parameter -u 
10925 # highest feature index 
68 # number of training documents 
62 # number of support vectors plus 1 
0.89907926 # threshold b, each following line is a SV (starting with alpha*y)
-0.10118098100749808865295165105636 41:0.061576087 48:0.061576087 63:0.061576087 79:0.061576087 122:0.061576087 123:0.061576087 181:0.045543827 199:0.061576087 204:0.061576087 216:0.061576087 244:0.025313368 250:0.059023134 278:0.061576087 285:0.061576087 298:0.061576087 310:0.061576087 386:0.061576087 407:0.061576087 554:0.020230461 564:0.021115167 706:0.061576087 771:0.061576087 782:0.066358097 856:0.061576087 903:0.061576087 932:0.061576087 934:0.01194176 942:0.038089249 973:0.061576087 1051:0.061576087 1092:0.045543827 1114:0.035428599 1118:0.051460858 1122:0.025476279 1161:0.038089249 1178:0.061576087 1180:0.051460858 1196:0.012948587 1328:0.051460858 1369:0.022056991 1481:0.061576087 1579:0.026583141 1624:0.10292172 1638:0.014030058 1643:-0.0091160666 1758:0.061576087 1817:0.061576087 1840:0.061576087 1843:0.024145288 1898:0.061576087 1908:0.070857197 1928:0.045543827 1984:0.061576087 1992:0.061576087 2032:0.035428599 2074:0.045543827 2076:0.091087654 2102:0.091087654 2142:0.061576087 2208:0.041345626 2211:0.061576087 2219:0.061576087 2265:0.061576087 2270:0.051460858 2277:0.038089249 2279:0.037309475 2300:0.061576087 2351:0.061576087 2392:0.061576087 2454:0.061576087 2465:0.051460858 2466:0.061576087 2477:0.020990999 2483:0.061576087 2584:0.041345626 2598:0.061576087 2606:0.082691252 2619:0.059023134 2693:0.061576087 2701:0.041345626 2715:0.0070315558 2736:0.076178499 2816:0.061576087 2849:0.061576087 2886:0.045543827 2920:0.061576087 2967:0.038089249 2979:0.061576087 2988:0.041345626 3040:0.061576087 3095:0.038089249 3123:0.051460858 3156:0.033179048 3188:0.061576087 3310:0.050626736 3367:0.061576087 3376:0.016226055 3384:0.041345626 3402:0.061576087 3411:0.033179048 3442:0.061576087 3456:0.061576087 3492:0.061576087 3593:0.061576087 3627:0.033179048 3652:0.061576087 3667:0.035428599 3684:0.061576087 3709:0.051460858 3801:-0.020734198 3851:0.061576087 3868:0.061576087 3926:0.031230398 3988:0.020230461 4010:0.0073832162 4020:0.061576087 4035:0.061576087 4177:0.045543827 4241:0.045543827 4264:0.061576087 4307:0.045543827 4350:0.061576087 4361:0.061576087 4468:0.051460858 4507:0.045543827 4540:0.012948587 4562:0.061576087 4567:0.051460858 4571:0.061576087 4584:0.061576087 4606:0.061576087 4612:0.061576087 4631:0.061576087 4658:0.061576087 4736:0.045543827 4749:0.033179048 4760:0.061576087 4770:0.051460858 4852:0.061576087 4931:0.045543827 4953:0.061576087 4993:0.031230398 5058:0.061576087 5066:0.061576087 5072:0.041345626 5094:0.061576087 5098:-0.021925522 5104:0.051460858 5129:0.061576087 5192:0.029511567 5200:0.045543827 5265:0.051460858 5268:0.017146787 5311:0.041345626 5338:0.045543827 5414:0.045543827 5456:0.061576087 5466:0.0066881711 5480:0.061576087 5489:0.025313368 5503:0.061576087 5504:0.061576087 5529:0.012948587 5536:0.013461551 5599:0.038089249 5652:0.061576087 5722:0.061576087 5737:0.035428599 5797:0.0070315558 5842:0.061576087 5847:0.063345499 5861:0.020230461 5894:0.061576087 5909:0.038089249 5928:0.061576087 6036:0.018607324 6098:-0.18999654 6139:0.038089249 6188:0.030345691 6218:0.061576087 6232:0.033179048 6253:0.061576087 6260:0.061576087 6270:0.051460858 6374:0.061576087 6428:0.061576087 6477:0.061576087 6511:0.044113982 6530:0.026583141 6536:0.061576087 6544:0.038089249 6553:0.061576087 6567:0.045543827 6570:0.061576087 6575:0.029511567 6602:0.061576087 6606:0.019396337 6627:0.061576087 6630:0.034293573 6674:0.061576087 6708:0.046461362 6736:0.076178499 6743:0.061576087 6836:-0.0092305234 6937:0.041345626 6960:0.061576087 6976:0.029511567 7017:0.025897173 7057:0.061576087 7113:0.061576087 7147:0.031230398 7177:0.072435863 7183:0.033179048 7206:0.031230398 7218:0.061576087 7256:0.061576087 7275:0.061576087 7292:0.061576087 7311:0.061576087 7377:0.061576087 7392:0.051460858 7415:0.061576087 7432:0.061576087 7436:0.033179048 7452:0.061576087 7520:0.029511567 7540:0.061576087 7571:0.023063816 7578:0.061576087 7611:0.045543827 7620:0.061576087 7660:-0.20706208 7676:0.061576087 7720:0.061576087 7781:0.020230461 7803:0.061576087 7804:0.025313368 7814:0.061576087 7815:0.045543827 7828:0.045543827 7831:0.061576087 7837:0.051460858 7858:0.045543827 7905:0.061576087 7928:0.029511567 7963:0.045543827 7968:0.061576087 7972:0.015819218 7994:0.061576087 8053:0.061576087 8063:0.061576087 8118:0.061576087 8139:0.061576087 8174:0.051460858 8217:0.041345626 8286:0.035428599 8287:0.040460922 8327:0.051460858 8366:0.084460668 8395:0.038089249 8435:0.045543827 8460:0.061576087 8473:0.038089249 8485:0.061576087 8498:0.061576087 8505:0.061576087 8506:0.018607324 8524:0.061576087 8619:0.051460858 8625:0.051460858 8743:0.038089249 8753:0.061576087 8778:0.061576087 8815:0.075940102 8864:0.061576087 8910:0.059023134 8967:0.061576087 8992:0.01055088 8997:0.061576087 9029:0.051460858 9056:0.051460858 9081:0.061576087 9105:0.032935821 9128:0.076178499 9130:0.045543827 9147:0.023063816 9183:0.051460858 9227:0.029511567 9259:0.045543827 9332:0.061576087 9359:0.051460858 9366:0.061576087 9373:0.016226055 9394:0.061576087 9405:0.061576087 9415:0.061576087 9444:0.061576087 9547:0.031230398 9553:0.045543827 9579:0.061576087 9581:0.061576087 9612:0.045543827 9690:0.00043239881 9705:0.023063816 9715:0.038089249 9777:0.061576087 9824:0.061576087 9841:0.051460858 9877:0.061576087 9880:0.018562213 9912:0.038089249 9922:0.045543827 9929:0.061576087 9930:0.061576087 9955:0.061576087 10012:0.045543827 10023:0.061576087 10051:0.061576087 10068:0.061576087 10081:0.045543827 10127:0.061576087 10203:0.01548712 10288:0.0051501254 10291:0.045543827 10326:0.031230398 10336:0.0073832162 10356:-0.0077939685 10494:0.061576087 10574:0.059023134 10591:0.019396337 10593:0.061576087 10594:0.061576087 10711:0.061576087 10735:0.031230398 10766:0.045543827 10796:0.021115167 10807:0.030396273 10808:-0.0076676197 10816:0.0096922098 10849:0.061576087 #
-0.16750900884298805526562148315861 19:0.1118316 20:0.1118316 307:0.082714558 320:0.036741611 360:0.064343758 523:0.1118316 564:0.038348373 566:0.1118316 702:0.18692158 804:0.1118316 1082:0.1118316 1110:0.093460791 1312:0.1118316 1433:0.1118316 1455:0.1118316 1497:0.082714558 1951:0.1118316 2127:0.1118316 2771:0.11343836 2773:0.093460791 2819:0.024480483 3310:0.045972947 3390:0.1118316 3411:0.060258225 3469:0.1118316 3510:0.1118316 3610:0.12051645 3663:0.093460791 3735:0.082714558 3801:-0.0094141196 4173:0.1118316 4196:0.093460791 4210:0.069175906 4304:0.1118316 4336:0.1118316 4657:0.064343758 4713:0.093460791 4859:0.05671918 4912:0.069175906 4948:0.1118316 4993:0.05671918 4996:0.1118316 5049:0.1118316 5098:-0.0099550253 5142:0.1118316 5160:0.093460791 5536:0.0081494115 5805:0.1118316 5844:0.1118316 6047:0.1118316 6098:-0.1725314 6142:0.1118316 6227:0.093460791 6312:0.1118316 6511:0.12017661 6530:0.048279051 6586:0.1118316 6629:0.1118316 6708:0.014063491 6877:0.1118316 7049:0.1118316 7089:0.1118316 7112:0.1118316 7173:0.1118316 7316:0.1118316 7319:0.1118316 7332:0.1118316 7333:0.1118316 7414:0.1118316 7439:0.1118316 7451:0.1118316 7508:0.1118316 7511:0.1118316 7571:0.041887421 7576:0.1118316 7592:0.082714558 7627:0.1118316 7660:-0.041784048 7766:0.18692158 7856:0.1118316 7959:0.069175906 8110:0.093460791 8148:0.069175906 8288:0.082714558 8493:0.093460791 8523:0.064343758 8621:0.1118316 8687:0.05671918 8962:0.1118316 9064:0.1118316 9373:0.0147345 9445:0.093460791 9513:0.025480732 9630:0.1118316 9993:0.1118316 10203:0.014063491 10205:0.062282376 10336:0.0268181 10412:0.048279051 10431:0.069175906 10440:0.1118316 10456:0.1118316 10796:0.038348373 10842:0.1118316 10908:0.05671918 #
-0.0237986942278611730838822069245 91:0.094200872 96:0.094200872 155:0.069674261 227:0.094200872 250:0.045147642 308:0.094200872 414:0.03094914 442:0.094200872 564:0.064605184 676:0.094200872 700:0.047777161 751:0.094200872 785:0.094200872 840:0.058270033 967:0.094200872 1048:0.078726299 1069:0.094200872 1111:0.063251734 1122:0.012991448 1140:0.054199688 1154:0.094200872 1182:0.094200872 1239:0.094200872 1269:0.054199688 1316:0.094200872 1353:0.054199688 1369:0.067486838 1371:0.094200872 1414:0.094200872 1638:0.042927172 1643:-0.069730103 1778:0.094200872 1781:0.0047368142 1833:0.094200872 1887:0.094200872 1990:0.069674261 2171:0.058270033 2183:0.094200872 2204:0.094200872 2251:0.078726299 2294:0.063251734 2303:0.094200872 2477:0.012845054 2508:0.047777161 2544:0.094200872 2584:0.063251734 2624:0.0082459962 2700:0.078726299 2757:0.078726299 3002:0.058270033 3062:0.094200872 3186:0.078726299 3211:0.094200872 3239:0.094200872 3332:0.050758261 3416:0.035283688 3440:0.094200872 3627:0.10151652 3757:0.035283688 3940:0.020621032 3988:0.06189828 4147:0.054199688 4184:0.094200872 4224:0.069674261 4379:0.035283688 4448:0.033743419 4492:0.069674261 4696:0.094200872 4705:0.094200872 4827:0.094200872 5019:0.094200872 5098:-0.016771147 5179:0.045147642 5186:0.078726299 5218:0.094200872 5246:0.069674261 5288:0.094200872 5289:0.094200872 5307:0.069674261 5351:0.050758261 5415:0.094200872 5461:0.094200872 5520:0.078726299 5584:0.036938157 5779:0.058270033 5797:0.010757077 5847:0.032302592 5861:0.06189828 5865:0.033743419 5938:0.094200872 5984:0.069674261 6080:0.094200872 6183:0.045147642 6188:0.01547457 6236:0.026231647 6237:0.094200872 6251:0.019025704 6262:0.094200872 6331:0.078726299 6420:0.10839938 6493:0.094200872 6508:0.058270033 6530:0.040667653 6555:-0.0094349869 6708:0.047385287 6781:0.085590921 6837:0.094200872 6863:0.069674261 6880:0.058270033 6948:0.078726299 7011:0.094200872 7029:0.040667653 7052:0.094200872 7216:0.094200872 7301:0.094200872 7329:0.078726299 7362:0.078726299 7371:0.063251734 7372:0.094200872 7470:0.069674261 7500:0.054199688 7507:0.094200872 7573:0.054199688 7660:-0.24637631 7765:0.022339193 7872:0.094200872 7983:0.094200872 8024:0.063251734 8050:0.094200872 8105:0.078726299 8241:0.078726299 8246:0.094200872 8287:0.03094914 8366:0.032302592 8387:0.094200872 8397:0.094200872 8400:0.094200872 8423:0.094200872 8446:0.036938157 8495:0.094200872 8496:0.063251734 8647:0.094200872 8661:0.094200872 8682:0.094200872 8772:0.050758261 8815:0.077450238 8931:0.078726299 9104:0.094200872 9356:0.058270033 9373:0.012411543 9605:0.094200872 9659:0.069674261 9690:0.00033074807 9986:0.094200872 10036:0.094200872 10061:0.028466018 10097:0.032302592 10103:0.069674261 10154:0.063251734 10191:0.094200872 10211:0.094200872 10225:0.094200872 10259:0.094200872 10382:0.058270033 10688:0.094200872 10747:0.069674261 #
-0.12514000148486870145347893412691 262:0.034922477 345:0.085111357 414:0.033459254 419:0.075325154 433:0.062995993 531:0.10184099 555:0.085111357 697:0.10184099 700:0.051652104 723:0.10184099 871:0.051652104 1172:0.10184099 1244:0.075325154 1254:0.062995993 1344:0.046266366 1408:0.10184099 1571:0.085111357 1574:0.021415729 1622:0.068381734 1643:-0.030154211 1657:0.062995993 1750:0.085111357 1919:0.085111357 2021:0.10184099 2159:0.075325154 2326:0.075325154 2369:0.10184099 2379:0.10184099 2438:0.10184099 2477:0.020830268 2643:0.085111357 2698:0.10184099 2903:0.051652104 2916:0.075325154 2975:0.058595527 3221:0.075325154 3238:0.075325154 3306:0.10184099 3416:0.076290712 3545:0.10184099 3720:0.10184099 3726:0.029536739 3757:0.038145356 3922:0.085111357 4095:0.038145356 4099:0.10184099 4120:0.10184099 4123:0.085111357 4224:0.075325154 4300:0.10184099 4478:0.037918255 4480:0.04880932 4492:0.075325154 4582:0.10184099 4668:0.015817963 4749:0.10974997 4767:0.10184099 4806:0.075325154 4845:0.054874983 4995:0.10184099 5010:0.062995993 5133:0.10184099 5135:0.085111357 5295:0.033459254 5305:0.075325154 5352:0.085111357 5431:0.10184099 5502:0.15065031 5553:0.10184099 5584:0.039934009 5705:0.10184099 5708:0.10184099 6063:0.10184099 6093:0.10184099 6098:-0.12569447 6188:0.016729627 6398:0.10184099 6673:0.10184099 6675:0.085111357 6708:0.012807111 6778:0.15065031 6828:0.2051452 6836:-0.015266406 6861:0.10184099 6916:0.10184099 6920:0.085111357 6972:0.10184099 7017:0.021415729 7183:0.10974997 7284:0.075325154 7562:0.085111357 7585:0.058595527 7643:0.10184099 7660:-0.076102436 7689:0.085111357 7804:0.0418659 7857:0.10184099 7888:0.10184099 8075:0.075325154 8237:0.10184099 8266:0.04880932 8315:0.038145356 8484:0.17022271 8494:0.058595527 8506:0.061549481 8678:0.10184099 8735:0.051652104 8736:0.10184099 8849:0.10184099 9147:0.076290712 9349:0.069844954 9373:0.013418175 9379:0.075325154 9385:0.10184099 9420:0.10184099 9442:0.10184099 9525:0.054874983 9613:0.17022271 9616:0.10184099 9654:0.062995993 9690:0.00035757321 9756:0.10184099 10067:0.075325154 10103:0.075325154 10110:0.10184099 10116:0.068381734 10325:0.017450152 10356:-0.012890481 10361:0.10184099 10463:0.075325154 10605:0.10184099 10661:0.10184099 10666:0.10184099 10796:0.069844954 10800:0.085111357 10808:-0.012681513 10893:0.013418175 #
-0.080752722494259382424175441883563 94:0.038848359 434:0.30891863 1118:0.25817192 1180:0.25817192 2279:0.12478428 2477:0.021061782 2736:0.38217688 2862:0.064961247 3579:0.30891863 4567:0.25817192 5098:-0.027499318 5104:0.25817192 5847:0.10593184 6127:0.30891863 6188:0.050746694 6555:-0.015470362 6708:0.038848359 7005:0.14034174 8366:0.10593184 8815:0.12699363 8847:0.22848701 9359:0.25817192 9373:0.040701926 9675:0.30891863 9690:0.0010846421 #
0.99999999135274075801049775691354 320:0.054744761 388:0.12324415 897:0.16662835 1147:0.16662835 1216:0.068499394 1331:0.16662835 1547:0.16662835 1598:0.16662835 1605:0.13925597 1643:-0.049337175 1799:0.16662835 1809:0.16662835 2032:0.095871769 2572:0.16662835 2624:0.01458603 2771:0.084511206 3443:0.068499394 4196:0.13925597 4547:0.16662835 4657:0.095871769 4859:0.084511206 4923:0.16662835 4998:0.16662835 5098:-0.014832922 5758:0.16662835 6098:-0.20565651 6243:0.062411979 6278:0.089784361 6511:0.059687451 6816:0.16662835 6902:0.050352462 6921:0.10307164 6997:0.079859957 7017:0.0700792 7490:0.16662835 7571:0.062411979 7660:-0.062257957 7668:0.16662835 7742:0.089784361 8044:0.16662835 8056:0.16662835 8262:0.11188359 8445:0.16662835 8446:0.065338507 8469:0.16662835 8668:0.16662835 8726:0.16662835 8743:0.20614329 8822:0.11188359 8827:0.13925597 8992:0.028551273 9136:0.16662835 9147:0.062411979 9373:0.043908615 9525:0.089784361 9826:0.16662835 9874:0.16662835 10527:0.16662835 #
0.99999999135274075801049775691354 433:0.19621803 515:0.31721124 536:0.31721124 1490:0.31721124 1643:-0.093923435 1792:0.31721124 2032:0.18251158 2106:0.31721124 3301:0.12438525 4610:0.10421788 6098:-0.19575468 6555:-0.015885649 6640:0.2651023 8822:0.21299335 8992:0.054353207 9525:0.17092295 10104:0.31721124 10302:0.047811925 10768:0.31721124 #
0.99999999135274075801049775691354 621:0.20167288 802:0.20167288 1097:0.16854365 1192:0.20167288 1311:0.20167288 1574:0.042408973 2147:0.20167288 2279:0.040731769 2415:0.20167288 2785:0.16854365 3094:0.20167288 3748:0.1086674 3801:-0.016977066 4238:0.20167288 4371:0.063526526 5268:0.056158841 5797:0.023029624 6098:-0.062227316 6307:0.20167288 6501:0.1491643 6826:0.12474921 7050:0.079080209 7765:0.047825556 7972:0.051810812 8243:0.20167288 8327:0.16854365 8446:0.079080209 8715:0.20167288 8992:0.03455605 9005:0.20167288 9105:0.10787079 9174:0.20167288 9362:0.13541444 9482:0.20167288 9852:0.20167288 10077:0.16854365 10179:0.20167288 10217:0.20167288 10371:0.20167288 10399:0.20167288 #
0.99999999135274075801049775691354 382:0.17570293 400:0.17570293 879:0.10868493 1643:-0.026012039 1893:0.17570293 2032:0.10109295 2468:0.12995604 2486:0.12995604 2556:0.10109295 2624:0.015380385 2819:0.038462229 3012:0.10109295 3319:0.17570293 3325:0.17570293 3487:0.17570293 3748:0.094674021 4019:0.17570293 4390:0.17570293 4642:0.025342058 4910:0.10868493 5075:0.17570293 5150:0.17570293 5459:0.17570293 5476:0.17570293 5606:0.17570293 5725:0.17570293 5942:0.17570293 6098:-0.10842829 6108:0.17570293 6420:0.10109295 6658:0.17570293 7404:0.17570293 7423:0.12995604 7512:0.17570293 7692:0.17570293 7826:0.14683986 8022:0.15170616 8441:0.062938035 8756:0.17570293 8905:0.17570293 8984:0.084209129 8992:0.030106178 9069:0.17570293 9593:0.17570293 10137:0.17570293 10807:0.04336679 10826:0.17570293 #
-0.11931774566631006551098437284963 1:0.033733025 5:0.033733025 6:0.033733025 24:0.018176368 25:0.028191632 38:0.019408731 67:0.033733025 69:0.033733025 98:0.033733025 105:0.038789753 117:0.028191632 121:0.028191632 139:0.020866308 160:0.033733025 164:0.033733025 170:0.033733025 203:0.028191632 205:0.028191632 210:0.028191632 229:0.028191632 241:0.028191632 244:0.055469353 249:0.028191632 255:0.028191632 259:0.033733025 277:0.020866308 279:0.028191632 283:0.028191632 289:0.028191632 290:0.033733025 307:0.024950124 317:0.028191632 320:0.022165572 328:0.028191632 340:0.033733025 349:0.033733025 363:0.028191632 391:0.022650238 395:0.028191632 406:0.028191632 414:0.011082786 432:0.028191632 465:0.018176368 494:0.028191632 508:0.025422189 511:0.024950124 522:0.028191632 529:0.033733025 533:0.033733025 537:0.028191632 546:0.024950124 554:0.022165572 571:0.028191632 577:0.033733025 585:0.033733025 608:0.033733025 619:0.033733025 626:0.028191632 632:0.020866308 639:0.033733025 667:0.045300476 694:0.030580765 730:0.028191632 732:0.033733025 734:0.028191632 744:0.033733025 790:0.020866308 796:0.033733025 815:0.028191632 829:0.022650238 830:0.028191632 836:0.033733025 881:0.028191632 885:0.033733025 889:0.028191632 894:0.016167223 919:0.033733025 922:0.095995106 940:0.028191632 947:0.033733025 953:0.033733025 959:0.033733025 963:0.028191632 964:0.024950124 968:0.033733025 1004:0.018786933 1012:0.028191632 1018:0.033733025 1024:0.033733025 1062:0.033733025 1068:0.054529101 1096:0.033733025 1097:0.028191632 1106:0.045300476 1109:0.033733025 1114:0.038817462 1115:0.021251662 1120:0.017108845 1122:0.013956586 1129:0.028191632 1130:0.017108845 1132:0.028191632 1153:0.033733025 1166:0.028191632 1202:0.033733025 1208:0.028191632 1232:0.033733025 1267:0.028191632 1281:0.033733025 1291:0.020866308 1317:0.045300476 1322:0.033733025 1323:0.033733025 1333:0.022650238 1338:0.033733025 1368:0.033733025 1398:0.033733025 1449:0.028191632 1450:0.028191632 1477:0.033733025 1480:0.033733025 1492:0.028191632 1506:0.028191632 1539:0.020866308 1543:0.033733025 1545:0.028191632 1560:0.033733025 1565:0.033733025 1569:0.033733025 1574:0.049655069 1578:0.033733025 1580:0.033733025 1581:0.020866308 1582:0.043688864 1595:0.045300476 1613:0.028191632 1643:-0.014982074 1644:0.028191632 1668:0.033733025 1669:0.022650238 1675:0.028191632 1678:0.054529101 1680:0.024950124 1709:0.033733025 1711:0.028191632 1742:0.033733025 1749:0.033733025 1753:0.020866308 1756:0.033733025 1762:0.020866308 1776:0.033733025 1781:0.0016962377 1793:0.028191632 1798:0.041732617 1801:0.033733025 1807:0.024950124 1816:0.033733025 1851:0.028191632 1865:0.028191632 1877:0.028191632 1906:0.01255975 1912:0.033733025 1955:0.028191632 1962:0.033733025 1981:0.024950124 1983:0.028191632 2011:0.020866308 2024:0.033733025 2041:0.019408731 2045:0.028191632 2047:0.033733025 2050:0.028191632 2053:0.045300476 2121:0.033733025 2128:0.049900249 2140:0.028191632 2141:0.019408731 2158:0.045974746 2177:0.024950124 2190:0.033733025 2191:0.033733025 2199:0.033733025 2208:0.045300476 2212:0.019408731 2221:0.041732617 2222:0.028191632 2241:0.017108845 2276:0.015324915 2277:0.020866308 2284:0.033733025 2291:0.045300476 2293:0.033733025 2341:0.033733025 2346:0.033733025 2372:0.033733025 2376:0.033733025 2398:0.033733025 2406:0.028191632 2411:0.033733025 2413:0.03064983 2423:0.033733025 2424:0.067950718 2425:0.028191632 2477:0.0068996577 2489:0.028191632 2524:0.029125908 2533:0.028191632 2539:0.018176368 2547:0.022650238 2576:0.033733025 2580:0.033733025 2631:0.028191632 2644:0.033733025 2664:0.028191632 2685:0.033733025 2695:0.033733025 2706:0.028191632 2715:0.003852074 2729:0.020866308 2735:0.033733025 2778:0.033733025 2796:0.020866308 2797:0.033733025 2802:0.028191632 2809:0.033733025 2819:0.0073843235 2867:0.028191632 2882:0.028191632 2889:0.033733025 2904:0.020866308 2905:0.058226194 2925:0.028191632 2958:0.028191632 2971:0.033733025 2985:0.033733025 2986:0.033733025 2988:0.022650238 3004:0.028191632 3005:0.033733025 3013:0.028191632 3032:0.038817462 3036:0.033733025 3049:0.033733025 3066:0.028191632 3073:0.020866308 3090:0.028191632 3123:0.028191632 3128:0.028191632 3204:0.017332379 3231:0.033733025 3241:0.012634974 3257:0.028191632 3259:0.022650238 3276:0.033733025 3297:0.066137165 3316:0.045300476 3326:0.062598921 3372:0.033733025 3385:0.028191632 3396:0.033733025 3398:0.028191632 3411:0.036352735 3419:0.033733025 3439:0.028191632 3443:0.013867338 3457:0.033733025 3464:0.039134089 3480:0.033733025 3488:0.028191632 3491:0.022650238 3498:0.028191632 3529:0.017108845 3537:0.045300476 3553:0.016167223 3570:0.041732617 3578:0.020866308 3587:0.033733025 3648:0.024950124 3676:0.033733025 3699:0.020866308 3705:0.033733025 3713:0.056383263 3742:0.028191632 3767:0.028191632 3768:0.033733025 3779:0.033733025 3783:0.033733025 3798:0.019408731 3801:-0.017038122 3804:0.033733025 3806:0.028191632 3813:0.033733025 3816:0.028191632 3828:0.022650238 3864:0.028191632 3879:0.033733025 3888:0.028191632 3889:0.028191632 3891:0.028191632 3893:0.028191632 3894:0.033733025 3896:0.033733025 3918:0.033733025 3940:0.029537294 3944:0.028191632 3947:0.028191632 3950:0.033733025 3967:0.020866308 3969:0.028191632 3978:0.028191632 3994:0.022650238 4001:0.022650238 4007:0.033733025 4010:0.0040447228 4021:0.028191632 4028:0.028191632 4034:0.028191632 4038:0.033733025 4040:0.028191632 4050:0.033733025 4054:0.028191632 4066:0.090600953 4070:0.033733025 4097:0.04850167 4101:0.058226194 4111:0.029125908 4113:0.033733025 4127:0.033733025 4130:0.028191632 4135:0.033733025 4146:0.032334447 4153:0.056383263 4195:0.028191632 4205:0.033733025 4221:0.028191632 4226:0.033733025 4235:0.028191632 4237:0.028191632 4243:0.028191632 4249:0.033733025 4254:0.011567452 4288:0.024950124 4292:0.033733025 4297:0.016167223 4310:0.012083407 4317:0.024950124 4364:0.033733025 4369:0.028191632 4370:0.018043121 4371:0.085006647 4374:0.024950124 4396:0.033733025 4401:0.033733025 4408:0.028191632 4430:0.033733025 4438:0.033733025 4480:0.016167223 4498:0.033733025 4513:0.028191632 4524:0.028191632 4543:0.033733025 4553:0.041732617 4563:0.033733025 4587:0.028191632 4588:0.028191632 4590:0.033733025 4633:0.033733025 4636:0.033733025 4637:0.033733025 4659:0.024950124 4660:0.028191632 4691:0.028191632 4710:0.028191632 4711:0.028191632 4714:0.033733025 4732:0.028191632 4740:0.028191632 4754:0.020387176 4804:0.028191632 4820:0.020866308 4839:0.033733025 4846:0.033733025 4848:0.058226194 4853:0.028191632 4864:0.018176368 4865:0.028191632 4868:0.033733025 4879:0.028191632 4880:0.014562954 4884:0.028191632 4896:0.028191632 4901:0.022650238 4917:0.028191632 4922:0.033733025 4924:0.028191632 4926:0.033733025 4932:0.024950124 4934:0.033733025 4965:0.028191632 4992:0.033733025 5024:0.028191632 5036:0.019408731 5037:0.028191632 5052:0.013227433 5054:0.033733025 5062:0.028191632 5067:0.033733025 5068:0.062598921 5076:0.074850373 5078:0.056383263 5082:0.028191632 5097:0.033733025 5098:-0.012011386 5102:0.049900249 5103:0.033733025 5107:0.033733025 5121:0.033733025 5137:0.033733025 5156:0.028191632 5159:0.033733025 5161:0.033733025 5177:0.028191632 5185:0.033733025 5186:0.028191632 5189:0.033733025 5191:0.028191632 5210:0.033733025 5226:0.033733025 5237:0.020866308 5251:0.028191632 5259:0.033733025 5260:0.022650238 5316:0.033733025 5321:0.033733025 5356:0.033733025 5359:0.024950124 5365:0.038817462 5375:0.0076860404 5379:0.024950124 5381:0.033733025 5405:0.033733025 5423:0.028191632 5429:0.024950124 5453:0.028191632 5466:0.0036639585 5467:0.033733025 5470:0.033733025 5474:0.028191632 5482:0.028191632 5484:0.028191632 5489:0.055469353 5496:0.024166815 5499:0.028191632 5544:0.033733025 5552:0.056383263 5584:0.013227433 5607:0.033733025 5619:0.033733025 5629:0.033733025 5637:0.028191632 5640:0.041732617 5642:0.033733025 5650:0.043688864 5654:0.024950124 5662:0.028191632 5680:0.024950124 5695:0.033733025 5698:0.028191632 5706:0.028191632 5714:0.020866308 5719:0.018176368 5731:0.045300476 5732:0.033733025 5744:0.033733025 5745:0.028191632 5746:0.028191632 5760:0.010193588 5761:0.028191632 5762:0.033733025 5766:0.028191632 5769:0.066137165 5770:0.028191632 5786:0.033733025 5794:0.022650238 5797:0.0077041481 5813:0.033733025 5825:0.028191632 5838:0.028191632 5839:0.033733025 5849:0.033733025 5877:0.033733025 5881:0.028191632 5906:0.028191632 5916:0.028191632 5929:0.028191632 5934:0.03064983 5937:0.028191632 5951:0.028191632 5987:0.033733025 5994:0.028191632 6008:0.033733025 6023:0.028191632 6028:0.020866308 6084:0.033733025 6096:0.033733025 6098:-0.26021293 6102:0.028191632 6107:0.028191632 6114:0.033733025 6125:0.041732617 6132:0.033733025 6173:0.045300476 6200:0.028191632 6208:0.022650238 6219:0.056383263 6228:0.033733025 6236:0.0093934666 6243:0.050539896 6261:0.033733025 6278:0.036352735 6288:0.028191632 6306:0.027734676 6327:0.033733025 6334:0.033733025 6335:0.024950124 6337:0.028191632 6345:0.033733025 6346:0.014562954 6360:0.020866308 6371:0.033733025 6384:0.028191632 6411:0.041732617 6415:0.028191632 6416:0.056383263 6424:0.028191632 6430:0.022650238 6432:0.033733025 6453:0.056383263 6468:0.033733025 6469:0.028191632 6490:0.074850373 6500:0.033733025 6517:0.033733025 6550:0.024950124 6584:0.033733025 6601:0.028191632 6612:0.028191632 6613:0.028191632 6651:0.033733025 6667:0.033733025 6679:0.028191632 6687:0.028191632 6696:0.022650238 6756:0.033733025 6757:0.028191632 6781:0.015324915 6798:0.045300476 6801:0.028191632 6804:0.028191632 6808:0.028191632 6809:0.028191632 6814:0.076624572 6826:0.062598921 6832:0.033733025 6836:-0.0050567272 6842:0.029018031 6843:0.028191632 6844:0.016167223 6846:0.033733025 6871:0.028191632 6880:0.020866308 6882:0.028191632 6884:0.033733025 6889:0.033733025 6902:0.040774353 6913:0.033733025 6921:0.020866308 6936:0.028191632 6945:0.024950124 6952:0.028191632 6953:0.025269948 6967:0.026454866 6979:0.033733025 6983:0.033733025 7017:0.021280743 7019:0.028191632 7029:0.014562954 7030:0.028191632 7034:0.028191632 7050:0.026454866 7071:0.033733025 7078:0.020866308 7086:0.028191632 7093:0.028191632 7101:0.033733025 7105:0.028191632 7107:0.033733025 7108:0.028191632 7111:0.020866308 7119:0.028191632 7144:0.033733025 7150:0.033733025 7156:0.028191632 7167:0.058251817 7195:0.033733025 7206:0.017108845 7243:0.033733025 7271:0.033733025 7278:0.033733025 7310:0.033733025 7312:0.028191632 7315:0.033733025 7317:0.028191632 7327:0.020866308 7352:0.020866308 7355:0.033733025 7363:0.028191632 7369:0.024950124 7375:0.028191632 7387:0.033733025 7418:0.011560108 7430:0.033733025 7433:0.033733025 7437:0.034065209 7438:0.045974746 7440:0.028191632 7461:0.033733025 7466:0.033733025 7467:0.033733025 7509:0.028191632 7529:0.033733025 7542:-0.0073969248 7560:0.017108845 7563:0.024950124 7568:0.020866308 7571:0.012634974 7575:0.074850373 7613:0.028191632 7629:0.028191632 7633:0.024950124 7644:0.028191632 7648:0.033733025 7660:-0.088226549 7675:0.028191632 7715:0.028191632 7723:0.028191632 7731:0.033733025 7742:0.036352735 7756:0.028191632 7761:0.028191632 7765:0.015999183 7776:0.018176368 7781:0.011082786 7806:0.088662289 7843:0.028191632 7851:0.019408731 7884:0.024950124 7904:0.024950124 7953:0.033733025 7972:0.0086661894 7976:0.033733025 8002:0.056383263 8008:0.012634974 8019:0.033733025 8020:0.020866308 8043:0.045300476 8054:0.020866308 8061:0.033733025 8064:0.028191632 8066:0.033733025 8085:0.020866308 8103:0.033733025 8115:0.033733025 8125:0.028191632 8130:0.028191632 8182:0.033733025 8185:0.033733025 8198:0.027734676 8201:0.033733025 8214:0.033733025 8223:0.062598921 8232:0.028191632 8233:0.028191632 8251:0.028191632 8260:0.033733025 8264:0.033733025 8271:0.028191632 8275:0.028191632 8276:0.028191632 8284:0.049900249 8298:0.028191632 8318:0.034217689 8328:0.021251662 8337:0.028191632 8371:0.033733025 8424:0.028191632 8441:0.036250222 8444:0.022650238 8446:0.013227433 8451:0.033733025 8456:0.028191632 8472:0.033733025 8473:0.020866308 8476:0.037904922 8494:0.038817462 8497:0.033733025 8506:0.010193588 8513:0.033733025 8517:0.04833363 8519:0.028191632 8523:0.038817462 8537:0.033733025 8557:0.033733025 8560:0.020866308 8561:0.028191632 8591:0.028191632 8593:0.033733025 8599:0.018176368 8606:0.028191632 8611:0.028191632 8640:0.033733025 8657:0.022650238 8663:0.033733025 8681:0.020866308 8690:0.033733025 8692:0.033733025 8740:0.028191632 8746:0.033733025 8769:0.028191632 8771:0.03064983 8785:0.045300476 8790:0.028191632 8796:0.028191632 8797:0.033733025 8799:0.028191632 8825:0.033733025 8833:0.028191632 8841:0.017108845 8845:0.028191632 8860:0.039134089 8873:0.020866308 8896:0.033733025 8898:0.033733025 8906:0.033733025 8921:0.028191632 8936:0.033733025 8937:0.028191632 8940:0.033733025 8943:0.033733025 8947:0.033733025 8965:0.033733025 8966:0.028191632 8976:0.033733025 8977:0.022650238 8978:0.028191632 8991:0.028191632 8992:0.0057800538 9000:0.028191632 9007:0.024950124 9010:0.020866308 9026:0.056383263 9080:0.024950124 9091:0.024950124 9096:0.028191632 9103:0.033733025 9105:0.0090215607 9134:0.020866308 9138:0.041732617 9158:0.028191632 9164:0.033733025 9166:0.033733025 9181:0.028191632 9182:0.017108845 9206:0.028191632 9211:0.028191632 9226:0.033733025 9229:0.033733025 9249:0.033733025 9264:0.028191632 9270:0.028191632 9299:0.016167223 9317:0.028191632 9327:0.028191632 9335:0.033733025 9341:0.028191632 9345:0.028191632 9369:0.028191632 9370:0.033733025 9409:0.056383263 9416:0.018176368 9417:0.016167223 9423:0.012634974 9439:0.028191632 9467:0.033733025 9475:0.024950124 9480:0.0097835222 9501:0.033733025 9509:0.028191632 9511:0.045300476 9513:0.030744161 9546:0.028191632 9582:0.033733025 9609:0.028191632 9619:0.033733025 9622:0.028191632 9626:0.028191632 9632:0.0073843235 9635:0.033733025 9636:0.028191632 9647:0.028191632 9662:0.056383263 9664:0.033733025 9680:0.0062798751 9682:0.033733025 9688:0.033733025 9694:0.028191632 9723:0.028191632 9755:0.033733025 9763:0.056383263 9766:0.024950124 9771:0.033733025 9847:0.028191632 9880:0.010168876 9888:0.028191632 9891:0.033733025 9917:0.024950124 9921:0.028191632 9924:0.033733025 9937:0.033733025 9943:0.033733025 9963:0.028191632 9974:0.033733025 9988:0.033733025 9991:0.028191632 9995:0.020866308 10008:0.033733025 10044:0.033733025 10052:0.028191632 10065:0.020866308 10077:0.028191632 10089:0.028191632 10126:0.020866308 10152:0.024950124 10156:0.028191632 10158:0.044331145 10189:0.028191632 10196:0.018176368 10203:0.021210644 10212:0.033733025 10237:0.033733025 10242:0.033733025 10262:0.028191632 10272:0.033733025 10286:0.018176368 10288:0.0084641287 10299:0.020866308 10329:0.038817462 10345:0.028191632 10348:0.028191632 10351:0.033733025 10352:0.033733025 10356:-0.0042697438 10362:0.033733025 10372:0.020866308 10382:0.020866308 10386:0.0090215607 10390:0.028191632 10392:0.022650238 10400:0.028191632 10406:0.020866308 10407:0.033733025 10420:0.033733025 10503:0.028191632 10516:0.028191632 10534:0.033733025 10540:0.020866308 10552:0.028191632 10559:0.028191632 10567:0.033733025 10570:0.028191632 10572:0.033733025 10583:0.028191632 10592:0.028191632 10598:0.028191632 10632:0.033733025 10638:0.033733025 10643:0.024950124 10668:0.028191632 10669:0.020866308 10673:0.033733025 10689:0.027734676 10691:0.020866308 10695:0.028191632 10696:0.038817462 10705:0.028191632 10730:0.028191632 10759:0.020866308 10771:0.028191632 10783:0.022650238 10788:0.038817462 10791:0.028191632 10801:0.022650238 10807:0.0083259447 10808:-0.0042005265 10810:0.033733025 10814:0.028191632 10816:0.010619302 10820:0.028191632 10835:0.024950124 10839:0.033733025 10875:0.028191632 10876:0.041732617 10880:0.028191632 10896:0.028191632 #
-0.14325782150453617025398500572919 8:0.030037897 26:0.011808596 29:0.035942193 74:0.035942193 94:0.045199454 140:0.032657083 142:0.035942193 171:0.035942193 174:0.035942193 181:0.026584104 191:0.035942193 200:0.024133598 208:0.035942193 212:0.01551668 213:0.01551668 215:0.060075793 222:0.035942193 234:0.035942193 242:0.056608573 250:0.017226012 262:0.024650006 266:0.035942193 271:0.02223284 287:0.035942193 291:0.026584104 315:0.032657083 330:0.035942193 342:0.041359611 351:0.035942193 366:0.030037897 371:0.035942193 379:0.026584104 388:0.026584104 404:0.035942193 428:0.035942193 444:0.030037897 451:0.047234382 467:0.035942193 469:0.053168207 483:0.044326521 503:0.035942193 510:0.035942193 516:0.035942193 561:0.035942193 572:0.035942193 579:0.04446568 604:0.054687902 624:0.035942193 629:0.019366734 640:0.010424243 661:0.030037897 671:0.035942193 672:0.035942193 694:0.04344466 707:0.035942193 722:0.0182293 742:0.035942193 760:0.030037897 761:0.035942193 764:0.060075793 767:0.035942193 790:0.02223284 803:0.035942193 819:0.019366734 824:0.035942193 828:0.026584104 833:0.035942193 843:0.035942193 858:0.035942193 859:0.035942193 863:0.035942193 911:0.096833669 934:0.020911351 939:0.035942193 969:0.035942193 985:0.019366734 987:0.053168207 1013:0.030037897 1014:0.030037897 1021:0.035942193 1036:0.035942193 1043:0.035942193 1044:0.035942193 1084:0.035942193 1102:0.030037897 1115:0.011321715 1122:0.0099137332 1150:0.035942193 1159:0.035942193 1164:0.035942193 1176:0.035942193 1196:0.015116277 1217:0.0182293 1224:0.030037897 1292:0.030037897 1296:0.034452025 1334:0.030037897 1336:0.060075793 1376:0.035942193 1394:0.030037897 1399:0.035942193 1413:0.035942193 1422:0.019366734 1427:0.02223284 1451:0.030037897 1469:0.035942193 1516:0.019366734 1555:0.030037897 1564:0.026584104 1574:0.0075581386 1607:0.020679805 1635:0.035942193 1643:-0.047889739 1648:0.035942193 1662:0.035942193 1666:0.024133598 1688:0.035942193 1694:0.035942193 1715:0.030037897 1727:0.035942193 1781:0.0054219724 1835:0.0036146482 1843:0.014093696 1848:0.0096123815 1849:0.016328542 1852:0.053168207 1854:0.035942193 1858:0.035942193 1869:0.013462436 1889:0.017226012 1900:0.048267197 1901:0.035942193 1906:0.0066911434 1915:0.019366734 1928:0.026584104 1930:0.02223284 1933:0.030037897 1942:0.030037897 1963:0.035942193 1972:0.026584104 1989:0.030037897 1998:0.035942193 2016:0.035942193 2032:0.020679805 2060:0.035942193 2066:0.01551668 2071:0.035942193 2072:0.029551014 2084:0.026584104 2099:0.051678039 2101:0.035942193 2103:0.035942193 2114:0.010861165 2141:0.062039416 2143:0.035942193 2148:0.030037897 2150:0.02223284 2198:0.035942193 2235:0.019366734 2240:0.035942193 2255:0.035942193 2263:0.082719222 2279:0.021777682 2297:0.035942193 2308:0.030037897 2323:0.097971246 2347:0.035942193 2352:0.072400793 2371:0.048267197 2408:0.011808596 2419:0.030037897 2442:0.024133598 2462:0.030037897 2464:0.0182293 2467:0.030037897 2468:0.026584104 2469:0.035942193 2471:0.060075793 2477:0.002450505 2487:0.035942193 2491:0.035942193 2504:0.038733467 2532:0.035942193 2556:0.020679805 2560:0.035942193 2567:0.035942193 2568:0.030037897 2590:0.035942193 2624:0.034608714 2641:0.010861165 2647:0.035942193 2654:0.035942193 2656:0.035942193 2678:0.030037897 2679:0.053168207 2696:0.029551014 2702:0.060075793 2715:0.0041043456 2731:0.0075581386 2742:0.010861165 2746:0.030037897 2757:0.030037897 2771:0.0182293 2785:0.030037897 2787:0.082719222 2793:0.035942193 2819:0.039339609 2827:0.035942193 2828:0.011808596 2844:0.030037897 2862:0.075581387 2876:0.035942193 2883:0.035942193 2887:0.035942193 2911:0.035942193 2913:0.053168207 2916:0.026584104 2921:0.035942193 2932:0.060075793 2933:0.030037897 2934:0.026924873 2988:0.024133598 3007:0.035942193 3008:0.030037897 3012:0.041359611 3031:0.035942193 3066:0.030037897 3068:0.026584104 3091:0.060075793 3105:0.048267197 3110:0.030037897 3114:0.035942193 3117:0.01551668 3146:0.031272728 3157:0.035942193 3159:0.026584104 3173:0.024133598 3214:0.035942193 3236:0.030037897 3241:0.013462436 3249:0.026584104 3262:0.035942193 3278:0.035942193 3287:0.030037897 3289:0.030037897 3309:0.019366734 3342:0.02223284 3346:0.035942193 3366:0.035942193 3422:0.030037897 3432:0.035942193 3443:0.014775507 3444:0.035942193 3460:0.035942193 3464:0.041696973 3481:0.035942193 3486:0.035942193 3491:0.024133598 3512:0.035942193 3521:0.053168207 3526:0.030037897 3538:0.026584104 3541:0.035942193 3554:0.035942193 3560:0.082719222 3568:0.030037897 3569:0.017226012 3594:0.030037897 3596:0.035942193 3613:0.02223284 3619:0.017226012 3622:0.030037897 3627:0.019366734 3632:0.035942193 3641:0.035942193 3667:0.020679805 3678:0.030037897 3693:0.019366734 3696:0.035942193 3718:0.059102029 3744:0.030037897 3748:0.038733467 3769:0.01551668 3791:0.035942193 3799:0.035942193 3800:0.02223284 3803:0.035942193 3807:0.030037897 3817:0.035942193 3820:0.030037897 3828:0.024133598 3829:0.030037897 3849:0.066698514 3854:0.035942193 3859:0.060075793 3872:0.011808596 3884:0.030037897 3901:0.032657083 3905:0.035942193 3910:0.035942193 3914:0.030037897 3919:0.031033359 3933:0.035942193 3940:0.015735844 3942:0.035942193 3952:0.030037897 3972:0.035942193 4003:0.030037897 4010:0.0043096109 4071:0.035942193 4078:0.035942193 4097:0.017226012 4134:0.026584104 4148:0.035942193 4188:0.088931359 4197:0.01551668 4201:0.035942193 4212:0.035942193 4220:0.0092337364 4232:0.030232554 4250:0.030037897 4254:0.012325003 4279:0.048267197 4282:0.035942193 4286:0.035942193 4289:0.019366734 4290:0.035942193 4310:0.012874749 4330:0.026584104 4353:0.030037897 4355:0.035942193 4368:0.072917201 4371:0.011321715 4372:0.034452025 4380:0.035942193 4414:0.0066911434 4429:0.032657083 4434:0.026584104 4443:0.041359611 4475:0.0081893979 4480:0.017226012 4488:0.035942193 4507:0.026584104 4514:0.030037897 4540:0.015116277 4551:0.035942193 4552:0.035942193 4570:0.060075793 4585:0.035942193 4602:0.030037897 4609:0.030037897 4610:0.035425786 4615:0.060075793 4619:0.029551014 4634:0.026584104 4642:0.057024326 4647:0.035942193 4648:0.030037897 4676:0.024133598 4698:0.026584104 4708:0.053168207 4724:0.011808596 4727:0.035942193 4730:0.035942193 4754:0.010861165 4788:0.035942193 4802:0.030037897 4819:0.030037897 4828:0.035942193 4857:0.030037897 4880:0.01551668 4887:0.035942193 4910:0.04446568 4921:0.030037897 4929:0.035942193 4933:0.060075793 4946:0.019366734 4954:0.030037897 4957:0.019366734 4972:0.035942193 4993:0.0182293 5012:0.030037897 5025:0.079752311 5033:0.035942193 5060:0.01551668 5061:0.035942193 5072:0.072400793 5098:-0.028795522 5112:0.01551668 5116:0.014093696 5132:0.035942193 5165:0.035942193 5166:0.030037897 5190:0.035942193 5201:0.012325003 5203:0.035942193 5247:0.030037897 5261:0.035942193 5267:0.035942193 5268:0.010008643 5275:0.030037897 5296:0.024133598 5320:0.035942193 5358:0.035942193 5360:0.035942193 5362:0.035942193 5365:0.020679805 5372:0.035942193 5391:0.011808596 5400:0.035942193 5401:0.035942193 5417:0.030037897 5449:0.035942193 5466:0.039039105 5490:0.035942193 5521:0.035942193 5525:0.035942193 5529:0.015116277 5532:0.035942193 5536:0.026191859 5542:0.035942193 5565:0.030037897 5569:0.035942193 5603:0.026584104 5620:0.035942193 5625:0.030037897 5650:0.01551668 5664:0.035942193 5673:0.060075793 5676:0.035942193 5702:0.035942193 5718:0.035942193 5733:0.010861165 5740:0.024133598 5757:0.035942193 5760:0.010861165 5769:0.014093696 5782:0.030037897 5797:0.024626074 5810:0.035942193 5815:0.030037897 5832:0.060075793 5847:0.012325003 5879:0.035942193 5885:0.035942193 5892:0.011808596 5917:0.038733467 5926:0.018467473 5934:0.032657083 5936:0.030037897 5949:0.011808596 5955:0.035942193 5970:0.035942193 5972:0.030037897 5973:0.019366734 5980:0.02223284 5990:0.035942193 5999:0.030037897 6011:0.026584104 6027:0.010861165 6034:0.035942193 6043:0.035942193 6048:0.035942193 6058:0.035942193 6059:0.035942193 6061:0.035942193 6082:0.035942193 6098:-0.19962305 6137:0.026584104 6157:0.051678039 6181:0.035942193 6188:0.0059042978 6203:0.0036146482 6204:0.013462436 6212:0.035942193 6243:0.013462436 6250:0.030037897 6278:0.019366734 6294:0.030037897 6301:0.035942193 6306:0.014775507 6336:0.035942193 6338:0.016328542 6347:0.030037897 6356:0.035942193 6372:0.035942193 6401:0.035942193 6420:0.020679805 6425:0.053168207 6433:0.035942193 6446:0.035942193 6448:0.026584104 6488:0.01551668 6501:0.026584104 6511:0.012874749 6525:0.026584104 6526:0.035942193 6538:0.019366734 6551:0.026584104 6555:-0.043198854 6572:0.030037897 6583:0.088931359 6617:0.035942193 6625:0.035942193 6641:0.030037897 6670:0.035942193 6689:0.035942193 6704:0.030037897 6708:0.004519945 6717:0.030037897 6731:0.035942193 6750:0.035942193 6792:0.035942193 6803:0.035942193 6806:0.020679805 6811:0.035942193 6815:0.026584104 6820:0.035942193 6824:0.035942193 6836:-0.016163673 6844:0.051678039 6864:0.026584104 6868:0.035942193 6898:0.035942193 6902:0.010861165 6939:0.035942193 6989:0.011808596 6995:0.030037897 6997:0.017226012 7012:0.024133598 7029:0.01551668 7059:0.026584104 7060:0.035942193 7063:0.035942193 7091:0.019366734 7098:0.035942193 7142:0.035942193 7147:0.0182293 7164:0.035942193 7167:0.01551668 7177:0.014093696 7184:0.01551668 7189:0.035942193 7241:0.030037897 7242:0.030037897 7259:0.035942193 7260:0.035942193 7264:0.024133598 7323:0.010861165 7359:0.035942193 7360:0.019366734 7381:0.035942193 7396:0.053168207 7403:0.035942193 7418:0.0061585885 7465:0.035942193 7469:0.035942193 7475:0.035942193 7477:0.048267197 7492:0.035942193 7500:0.020679805 7520:0.017226012 7527:0.035942193 7537:0.060075793 7544:0.035942193 7551:0.035942193 7557:0.030037897 7568:0.02223284 7569:0.035942193 7574:0.035942193 7660:-0.14772135 7677:0.035942193 7702:0.030037897 7711:0.035942193 7725:0.030037897 7730:0.030037897 7742:0.019366734 7765:0.017046968 7780:0.077466935 7781:0.011808596 7784:0.035942193 7789:0.035942193 7801:0.035942193 7832:0.035942193 7838:0.060075793 7839:0.01551668 7842:0.030037897 7894:0.030037897 7902:0.026584104 7910:0.035942193 7928:0.017226012 7950:0.035942193 7954:0.035942193 7972:0.046168685 7990:0.030037897 8008:0.013462436 8022:0.01551668 8033:0.035942193 8062:0.011808596 8094:0.051498994 8108:0.030037897 8112:0.035942193 8114:0.030037897 8133:0.030037897 8134:0.024133598 8140:0.026584104 8156:0.017226012 8166:0.035942193 8192:0.026584104 8204:0.035942193 8210:0.030037897 8227:0.035942193 8229:0.026584104 8231:0.035942193 8239:0.030037897 8262:0.024133598 8287:0.023617191 8289:0.030037897 8292:0.035942193 8295:0.0061585885 8305:0.024133598 8315:0.013462436 8316:0.01551668 8318:0.0182293 8325:0.035942193 8328:0.011321715 8329:0.035942193 8346:0.035942193 8348:0.035942193 8354:0.02223284 8366:0.012325003 8398:0.035942193 8431:0.02223284 8437:0.060075793 8441:0.012874749 8446:0.028187392 8462:0.024133598 8464:0.035942193 8476:0.013462436 8477:0.026584104 8479:0.035942193 8486:0.030037897 8501:0.030037897 8502:0.035942193 8547:0.035942193 8572:0.035942193 8587:0.029551014 8595:0.035942193 8634:0.016328542 8636:0.035942193 8671:0.035942193 8683:0.011321715 8684:0.035942193 8687:0.0182293 8694:0.035942193 8706:0.060075793 8720:0.035942193 8727:0.0061585885 8747:0.0061585885 8771:0.016328542 8772:0.019366734 8774:0.035942193 8776:0.035942193 8808:0.035942193 8858:0.035942193 8910:0.017226012 8923:0.026584104 8972:0.035942193 8984:0.06890405 8992:0.036951531 9016:0.035942193 9018:0.035942193 9022:0.035942193 9038:0.035942193 9054:0.035942193 9070:0.035942193 9074:0.030037897 9082:0.060075793 9084:0.035942193 9093:0.030037897 9105:0.048061907 9116:0.035942193 9127:0.041359611 9151:0.030037897 9169:0.035942193 9176:0.077248491 9193:0.030037897 9209:0.035942193 9213:0.035942193 9225:0.030037897 9227:0.017226012 9240:0.035942193 9242:0.02223284 9255:0.035942193 9260:0.026584104 9336:0.024133598 9347:0.035942193 9357:0.035942193 9362:0.024133598 9373:0.014206815 9380:0.026584104 9391:0.11429979 9400:0.035942193 9406:0.026584104 9427:0.01551668 9476:0.026584104 9480:0.010424243 9490:0.035942193 9513:0.016378796 9525:0.019366734 9537:0.035942193 9541:0.035942193 9547:0.0182293 9584:0.035942193 9595:0.035942193 9632:0.015735844 9650:0.035942193 9680:0.0066911434 9681:0.030037897 9712:0.035942193 9749:0.035942193 9766:0.026584104 9821:0.060075793 9844:0.035942193 9846:0.034452025 9855:0.035942193 9867:0.035942193 9881:0.019366734 9895:0.019366734 9902:0.019366734 9910:0.030037897 9911:0.030037897 9912:0.04446568 9913:0.035942193 9918:0.035942193 9934:0.035942193 9951:0.01551668 9996:0.035942193 10001:0.026584104 10074:0.024133598 10088:0.035942193 10119:0.030037897 10145:0.035942193 10168:0.035942193 10196:0.019366734 10203:0.01807978 10244:0.030037897 10263:0.035942193 10271:0.030037897 10273:0.035942193 10284:0.030037897 10288:0.0015030738 10295:0.030037897 10300:0.012874749 10302:0.016252249 10356:-0.013648106 10366:0.035942193 10368:0.019366734 10380:0.035942193 10393:0.038733467 10408:0.030037897 10410:0.035942193 10414:0.020679805 10415:0.030037897 10443:0.011808596 10461:0.053168207 10474:0.035942193 10478:0.035942193 10500:0.030037897 10507:0.035942193 10536:0.030037897 10547:0.01551668 10551:0.035942193 10558:0.017226012 10560:0.030037897 10565:0.035942193 10573:0.030037897 10591:0.011321715 10601:0.030037897 10607:0.060075793 10611:0.0075581386 10616:0.035942193 10658:0.035942193 10671:0.035942193 10689:0.014775507 10696:0.020679805 10706:0.030037897 10723:0.035942193 10731:0.060075793 10741:0.035942193 10746:0.035942193 10751:0.060075793 10752:0.035942193 10753:0.035942193 10764:0.035942193 10784:0.035942193 10807:0.0088712098 10808:-0.013426855 10816:0.005657379 10860:0.035942193 10894:0.02223284 10903:0.030037897 #
-0.11814662519610241719902887780336 2731:0.15311246 3619:0.34896386 6997:0.34896386 9328:0.45039192 9446:0.7281155 #
-0.091881122267849113516291481573717 8:0.033469018 26:0.013157449 30:0.024772415 52:0.040047739 64:0.040047739 68:0.040047739 94:0.015108726 99:0.040047739 103:0.040047739 105:0.013157449 116:0.040047739 141:0.040047739 202:0.040047739 212:0.017289093 213:0.034578186 242:0.063074768 250:0.019193677 257:0.040047739 291:0.029620709 306:0.040047739 315:0.03638738 329:0.040047739 337:0.040047739 366:0.033469018 373:0.0609347 379:0.059241418 451:0.065787241 468:0.026890291 469:0.029620709 472:0.026890291 477:0.023041984 483:0.04938978 517:0.033469018 556:0.040047739 573:0.033469018 579:0.024772415 586:0.040047739 604:0.0609347 609:0.040047739 627:0.040047739 633:0.016463259 638:0.040047739 640:0.011614966 655:0.040047739 659:0.040047739 661:0.033469018 674:0.01819369 686:0.040047739 716:0.021578927 722:0.020311568 753:0.040047739 757:0.040047739 760:0.033469018 777:0.040047739 852:0.040047739 879:0.04954483 907:0.040047739 911:0.021578927 934:0.015533319 944:0.026890291 946:0.040047739 956:0.040047739 961:0.026890291 989:0.033469018 1001:0.040047739 1013:0.033469018 1014:0.033469018 1027:0.059241418 1037:0.040047739 1079:0.040047739 1102:0.033469018 1115:0.012614953 1122:0.0055230716 1127:0.040047739 1131:0.040047739 1138:0.040047739 1144:0.040047739 1196:0.016842954 1205:0.040047739 1216:0.016463259 1224:0.033469018 1234:0.040047739 1248:0.040047739 1259:0.033469018 1334:0.033469018 1348:0.040047739 1375:0.040047739 1394:0.033469018 1400:0.021420738 1406:0.040047739 1427:0.024772415 1451:0.033469018 1471:0.033469018 1513:0.029620709 1536:0.033469018 1555:0.033469018 1558:0.026890291 1574:0.025264431 1596:0.033469018 1607:0.023041984 1643:-0.065217793 1667:0.040047739 1669:0.053780582 1719:0.040047739 1722:0.033469018 1726:0.040047739 1781:0.0040275361 1843:0.047110703 1848:0.010710369 1852:0.029620709 1881:0.026890291 1900:0.053780582 1906:0.0074554482 1908:0.046083968 1927:0.059241418 1932:0.040047739 1933:0.033469018 1942:0.033469018 1946:0.040047739 1979:0.033469018 1989:0.033469018 1994:0.040047739 2030:0.033469018 2059:0.040047739 2066:0.017289093 2083:0.040047739 2099:0.019193677 2107:0.040047739 2114:0.012101796 2123:0.040047739 2134:0.040047739 2157:0.040047739 2237:0.040047739 2263:0.046083968 2277:0.024772415 2279:0.016176844 2308:0.033469018 2310:0.040047739 2323:0.07277476 2329:0.040047739 2352:0.026890291 2371:0.053780582 2408:0.013157449 2419:0.033469018 2422:0.040047739 2447:0.04954483 2462:0.033469018 2464:0.020311568 2467:0.033469018 2468:0.029620709 2498:0.033469018 2504:0.021578927 2599:0.040047739 2610:0.040047739 2617:0.040047739 2624:0.038561944 2641:0.012101796 2678:0.033469018 2713:0.040047739 2715:0.0091463402 2731:0.0084214769 2742:0.012101796 2746:0.033469018 2756:0.040047739 2782:0.020311568 2787:0.046083968 2811:0.066938035 2813:0.033469018 2819:0.035066582 2821:0.014345384 2828:0.013157449 2844:0.033469018 2862:0.016842954 2871:0.040047739 2877:0.033469018 2916:0.029620709 2933:0.033469018 2934:0.015000202 2967:0.024772415 2977:0.026890291 3009:0.033469018 3012:0.023041984 3068:0.059241418 3079:0.029620709 3105:0.053780582 3110:0.033469018 3117:0.017289093 3119:0.040047739 3145:0.040047739 3146:0.034844898 3169:0.040047739 3208:0.026890291 3216:0.059241418 3218:0.040047739 3241:0.015000202 3287:0.033469018 3289:0.033469018 3348:0.040047739 3370:0.040047739 3373:0.029620709 3391:0.026890291 3422:0.033469018 3433:0.033469018 3453:0.040047739 3454:0.026890291 3459:0.040047739 3464:0.034844898 3483:0.040047739 3491:0.026890291 3493:0.040047739 3521:0.029620709 3526:0.033469018 3556:0.040047739 3560:0.023041984 3573:0.040047739 3594:0.033469018 3597:0.040047739 3599:0.040047739 3613:0.074317247 3622:0.033469018 3637:0.040047739 3642:0.021578927 3663:0.033469018 3678:0.033469018 3681:0.040047739 3697:0.040047739 3718:0.082316302 3748:0.021578927 3769:0.017289093 3782:0.040047739 3800:0.074317247 3801:-0.010113802 3807:0.033469018 3815:0.040047739 3820:0.033469018 3823:0.040047739 3826:0.040047739 3829:0.033469018 3872:0.013157449 3884:0.033469018 3917:0.06912595 3919:0.034578186 3929:0.040047739 3937:0.04954483 3940:0.0087666456 3952:0.033469018 3965:0.040047739 3997:0.040047739 4003:0.033469018 4010:0.0096037649 4037:0.040047739 4060:0.040047739 4069:0.040047739 4086:0.040047739 4097:0.019193677 4112:0.026890291 4134:0.029620709 4143:0.040047739 4164:0.040047739 4197:0.017289093 4210:0.024772415 4232:0.025264431 4234:0.033469018 4241:0.029620709 4247:0.040047739 4250:0.033469018 4254:0.013732843 4306:0.026890291 4310:0.014345384 4314:0.040047739 4368:0.081246272 4372:0.038387354 4399:0.040047739 4400:0.040047739 4414:0.0074554482 4443:0.046083968 4445:0.040047739 4448:0.028690768 4460:0.040047739 4475:0.045624215 4480:0.038387354 4489:0.040047739 4491:0.040047739 4507:0.029620709 4514:0.033469018 4539:0.033469018 4540:0.016842954 4546:0.040047739 4553:0.024772415 4564:0.029620709 4596:0.040047739 4610:0.13157448 4619:0.032926518 4634:0.029620709 4642:0.069314189 4657:0.023041984 4668:0.0062202234 4670:0.033469018 4676:0.026890291 4698:0.029620709 4708:0.029620709 4724:0.013157449 4754:0.024203591 4769:0.040047739 4795:0.040047739 4802:0.033469018 4819:0.033469018 4880:0.017289093 4910:0.024772415 4921:0.033469018 4951:0.040047739 4954:0.033469018 4981:0.040047739 5006:0.040047739 5012:0.033469018 5060:0.017289093 5064:0.066938035 5077:0.040047739 5080:0.040047739 5098:-0.014259879 5112:0.017289093 5116:0.015703566 5146:0.040047739 5162:0.033469018 5166:0.033469018 5201:0.013732843 5206:0.040047739 5211:0.024772415 5214:0.040047739 5230:0.040047739 5247:0.033469018 5263:0.016463259 5268:0.011151895 5275:0.033469018 5296:0.053780582 5299:0.040047739 5340:0.040047739 5365:0.023041984 5369:0.040047739 5388:0.040047739 5391:0.013157449 5399:0.026890291 5404:0.033469018 5417:0.033469018 5440:0.026890291 5446:0.040047739 5464:0.040047739 5466:0.03044888 5478:0.040047739 5483:0.040047739 5486:0.053780582 5496:0.057381537 5529:0.0084214769 5536:0.0087550981 5555:0.040047739 5563:0.10756116 5587:0.029620709 5603:0.059241418 5613:0.040047739 5622:0.040047739 5625:0.033469018 5646:0.026890291 5662:0.033469018 5733:0.012101796 5740:0.026890291 5782:0.033469018 5791:0.040047739 5797:0.0045731701 5798:0.040047739 5809:0.040047739 5815:0.033469018 5873:0.040047739 5892:0.013157449 5903:0.033469018 5910:0.040047739 5926:0.010288473 5930:0.053780582 5934:0.01819369 5936:0.033469018 5949:0.013157449 5972:0.033469018 5980:0.04954483 5999:0.033469018 6011:0.029620709 6027:0.012101796 6030:0.040047739 6031:0.04954483 6097:0.04954483 6098:-0.17299743 6111:0.033469018 6118:0.029620709 6171:0.033469018 6172:0.040047739 6203:0.0040275361 6204:0.045000605 6236:0.011151895 6243:0.015000202 6250:0.033469018 6251:0.008088422 6294:0.033469018 6302:0.040047739 6347:0.033469018 6364:0.040047739 6406:0.040047739 6409:0.033469018 6413:0.040047739 6418:0.04954483 6444:0.040047739 6448:0.029620709 6451:0.040047739 6474:0.040047739 6488:0.017289093 6496:0.059241418 6555:-0.050138857 6641:0.033469018 6682:0.059241418 6702:0.040047739 6704:0.033469018 6712:0.040047739 6730:0.040047739 6738:0.040047739 6744:0.040047739 6780:0.066938035 6806:0.06912595 6817:0.040047739 6826:0.024772415 6836:-0.01800999 6838:0.040047739 6844:0.038387354 6845:0.040047739 6855:0.033469018 6867:0.014096376 6885:0.040047739 6892:0.040047739 6934:0.16249254 6941:0.040047739 6962:0.040047739 6967:0.031407133 6989:0.013157449 6995:0.033469018 6997:0.019193677 7000:0.024772415 7029:0.017289093 7045:0.040047739 7050:0.031407133 7129:0.040047739 7149:0.040047739 7182:0.040047739 7184:0.017289093 7205:0.040047739 7217:0.033469018 7229:0.066938035 7236:0.026890291 7241:0.033469018 7242:0.033469018 7247:0.026890291 7249:0.026890291 7264:0.080670871 7291:0.040047739 7309:0.033469018 7320:0.066938035 7356:0.040047739 7358:0.029620709 7365:0.040047739 7370:0.029620709 7376:0.040047739 7396:0.029620709 7418:0.0068620616 7474:0.040047739 7486:0.040047739 7500:0.046083968 7542:-0.0043908027 7557:0.033469018 7638:0.040047739 7642:0.024772415 7660:-0.14963183 7666:0.026890291 7702:0.033469018 7706:0.040047739 7719:0.040047739 7725:0.033469018 7730:0.033469018 7738:0.040047739 7749:0.040047739 7765:0.028491272 7780:0.064736776 7788:0.040047739 7798:0.023041984 7829:0.040047739 7839:0.017289093 7842:0.033469018 7894:0.033469018 7936:0.10756116 7949:0.040047739 7972:0.061730836 7978:0.066938035 7990:0.033469018 7993:0.040047739 8008:0.030000404 8022:0.034578186 8062:0.013157449 8094:0.014345384 8114:0.033469018 8133:0.033469018 8134:0.053780582 8156:0.019193677 8180:0.040047739 8203:0.040047739 8206:0.027465686 8215:0.026890291 8226:0.023041984 8236:0.040047739 8239:0.033469018 8287:0.013157449 8289:0.033469018 8295:0.0068620616 8305:0.026890291 8316:0.017289093 8342:0.066938035 8347:0.033469018 8441:0.043036152 8474:0.026890291 8477:0.059241418 8483:0.040047739 8486:0.033469018 8504:0.026890291 8531:0.059241418 8587:0.016463259 8592:0.040047739 8600:0.024772415 8609:0.040047739 8635:0.033469018 8646:0.033469018 8683:0.012614953 8693:0.040047739 8703:0.040047739 8727:0.0068620616 8747:0.0068620616 8771:0.01819369 8772:0.021578927 8819:0.040047739 8837:0.040047739 8923:0.029620709 8984:0.019193677 8992:0.020586185 8994:0.033469018 9047:0.04954483 9080:0.029620709 9093:0.033469018 9105:0.021420738 9117:0.040047739 9151:0.033469018 9176:0.014345384 9193:0.033469018 9198:0.033469018 9223:0.046083968 9225:0.033469018 9231:0.040047739 9234:0.040047739 9242:0.074317247 9252:0.033469018 9280:0.040047739 9300:0.026890291 9301:0.024772415 9306:0.040047739 9320:0.026890291 9324:0.040047739 9339:0.040047739 9365:0.026890291 9367:0.040047739 9373:0.010553071 9380:0.029620709 9391:0.03638738 9406:0.029620709 9408:0.040047739 9427:0.017289093 9428:0.040047739 9429:0.012101796 9430:0.040047739 9456:0.040047739 9480:0.011614966 9494:0.040047739 9497:0.040047739 9522:0.026890291 9525:0.021578927 9547:0.020311568 9549:0.040047739 9567:0.040047739 9571:0.040047739 9573:0.040047739 9577:0.033469018 9588:0.040047739 9609:0.033469018 9617:0.040047739 9680:0.014910896 9681:0.033469018 9693:0.026890291 9705:0.015000202 9713:0.040047739 9748:0.040047739 9782:0.040047739 9860:0.040047739 9884:0.040047739 9896:0.066938035 9907:0.033469018 9910:0.033469018 9911:0.033469018 9951:0.017289093 9959:0.059241418 9964:0.040047739 9966:0.033469018 10006:0.033469018 10016:0.021578927 10022:0.074317247 10057:0.040047739 10098:0.040047739 10118:0.040047739 10119:0.033469018 10157:0.033469018 10158:0.013157449 10171:0.040047739 10203:0.0050362423 10244:0.033469018 10264:0.040047739 10271:0.033469018 10276:0.024772415 10284:0.033469018 10288:0.0033495289 10295:0.033469018 10302:0.0060362285 10325:0.020586185 10329:0.023041984 10341:0.040047739 10356:-0.015207079 10393:0.043157853 10414:0.06912595 10415:0.033469018 10443:0.013157449 10448:0.040047739 10499:0.026890291 10536:0.033469018 10546:0.040047739 10547:0.017289093 10560:0.033469018 10573:0.033469018 10582:0.040047739 10591:0.025229907 10601:0.033469018 10611:0.0084214769 10618:0.016463259 10639:0.040047739 10660:0.066938035 10686:0.040047739 10689:0.016463259 10728:0.040047739 10735:0.020311568 10780:0.040047739 10796:0.013732843 10799:0.040047739 10806:0.040047739 10807:0.0098845353 10808:-0.014960556 10816:0.012607202 10864:0.040047739 10865:0.040047739 10867:0.040047739 10879:0.040047739 10886:0.026890291 10892:0.040047739 10893:0.010553071 10894:0.04954483 10901:0.040047739 10916:0.040047739 10922:0.033469018 #
-0.095313302741510327886764741833758 94:0.012770053 105:0.033362437 107:0.1015463 242:0.03198687 291:0.075107194 315:0.04613249 373:0.051502645 451:0.033362437 496:0.1015463 517:0.084865078 604:0.051502645 1027:0.075107194 1259:0.084865078 1354:0.16973016 1400:0.027157545 1471:0.084865078 1596:0.084865078 1643:-0.045100436 1717:0.16973016 1927:0.075107194 1979:0.084865078 2069:0.1015463 2099:0.048668087 2403:0.1015463 2447:0.062813707 2464:0.051502645 2498:0.084865078 2624:0.017777976 2813:0.084865078 2862:0.021353761 2877:0.084865078 2941:0.1015463 3103:0.1015463 3216:0.075107194 3314:0.1015463 3342:0.062813707 3433:0.084865078 3464:0.058902543 3602:0.1015463 3613:0.062813707 3633:0.1015463 3718:0.041744757 3917:0.11685195 3937:0.062813707 4134:0.075107194 4170:0.1015463 4234:0.084865078 4260:0.1015463 4367:0.1015463 4442:0.1015463 4539:0.084865078 4553:0.062813707 4595:0.1015463 4610:0.10008731 4619:0.041744757 4642:0.029292537 4670:0.084865078 5015:0.1015463 5404:0.084865078 5720:0.1015463 6031:0.062813707 6098:-0.062665381 6118:0.075107194 6171:0.084865078 6204:0.11410493 6409:0.084865078 6418:0.062813707 6555:-0.050853461 6682:0.075107194 6839:0.1015463 6855:0.084865078 6867:0.010212347 6883:0.1015463 7127:0.16973016 7217:0.084865078 7227:0.1015463 7498:0.22532158 7656:0.1015463 7660:-0.037941113 7972:0.052175544 8008:0.076069959 8134:0.068183862 8263:0.1015463 8347:0.084865078 8441:0.072749205 8506:0.030685691 8531:0.075107194 8622:0.1015463 8646:0.084865078 8771:0.04613249 8923:0.075107194 8994:0.084865078 9047:0.062813707 9242:0.062813707 9252:0.084865078 9596:0.43801278 9865:0.1015463 9907:0.084865078 9959:0.075107194 10006:0.084865078 10022:0.12562741 10288:0.0042465851 10302:0.015305649 10325:0.017399658 10329:0.058425974 10376:0.16973016 10393:0.0547162 10414:0.11685195 10857:0.1015463 10922:0.084865078 #
-0.10914107013256871270279191321606 264:0.41610724 541:0.077464193 908:0.41610724 5656:0.41610724 5797:0.047516521 6936:0.34775245 8164:0.41610724 8798:0.41610724 8992:0.071298741 #
-0.060099012984417506111345375074961 763:0.59248745 8285:0.49515831 9429:0.17904037 9513:0.13499776 10046:0.59248745 10288:0.049554702 #
-0.092045546284440213358202242943662 477:0.24124365 966:0.41928953 1170:0.41928953 1297:0.41928953 4418:0.41928953 5787:0.41928953 10288:0.017534353 10412:0.18101235 10659:0.1723661 #
-0.096146020947109389620521824326715 1299:0.23726936 1474:0.23726936 1716:0.23726936 2256:0.17549272 2619:0.11371607 2726:0.13651599 3566:0.19829264 3631:0.23726936 3634:0.23726936 4352:0.10243205 4448:0.084991567 5188:0.23726936 5308:0.088871136 6622:0.23726936 7192:0.23726936 7500:0.13651599 7751:0.23726936 7961:0.23726936 8328:0.074739344 8900:0.23726936 8989:0.23726936 9105:0.063455321 10248:0.23726936 10354:0.23726936 10881:0.23726936 #
-0.064312531804621680953104601030645 8285:0.96366394 9513:0.26272902 10288:0.048221022 #
-0.096295008872534657018427139973937 26:0.015558126 33:0.039575692 81:0.047354758 105:0.0077790632 115:0.079151385 124:0.079151385 135:0.047354758 144:0.047354758 149:0.047354758 193:0.047354758 206:0.047354758 218:0.027246172 233:0.063593261 236:0.047354758 268:0.047354758 286:0.047354758 311:0.047354758 333:0.015558126 360:0.027246172 370:0.047354758 414:0.015558126 416:0.12718652 417:0.029833296 427:0.047354758 433:0.029292332 446:0.039575692 501:0.063593261 603:0.087876998 633:0.019467108 640:0.013734206 665:0.047354758 674:0.021513268 699:0.047354758 722:0.024017569 782:0.025516165 814:0.047354758 826:0.029292332 884:0.027246172 921:0.047354758 1055:0.027246172 1121:0.047354758 1122:0.006530798 1155:0.047354758 1165:0.018568803 1216:0.019467108 1254:0.029292332 1279:0.047354758 1304:0.047354758 1355:0.047354758 1387:0.035025235 1400:0.025329115 1457:0.12718652 1512:0.047354758 1520:0.079151385 1533:0.047354758 1541:0.047354758 1562:0.047354758 1579:0.04088724 1605:0.039575692 1610:0.047354758 1638:0.01078974 1643:-0.0070106615 1680:0.035025235 1712:0.047354758 1835:0.0047623911 1839:0.035025235 1848:0.012664557 1853:0.03179663 1869:0.017737104 1889:0.022695711 1906:0.0088157514 1909:0.047354758 1938:0.047354758 1943:0.1050757 1953:0.063593261 1986:0.047354758 1997:0.047354758 2042:0.047354758 2079:0.022695711 2082:0.047354758 2099:0.022695711 2109:0.047354758 2120:0.079151385 2141:0.027246172 2144:0.079151385 2173:0.087876998 2206:0.047354758 2279:0.019128434 2307:0.03179663 2337:0.047354758 2350:0.039575692 2359:0.047354758 2370:0.047354758 2408:0.015558126 2429:0.047354758 2464:0.024017569 2477:0.0032286029 2511:0.047354758 2514:0.038256869 2515:0.039575692 2517:0.079151385 2556:0.027246172 2564:0.047354758 2587:0.024017569 2594:0.047354758 2609:0.047354758 2637:0.047354758 2640:0.047354758 2641:0.014309862 2696:0.038934216 2704:0.024017569 2712:0.047354758 2715:0.01081516 2726:0.027246172 2731:0.00995804 2773:0.039575692 2784:0.047354758 2821:0.033925619 2828:0.015558126 2857:0.047354758 2860:0.047354758 2878:0.047354758 2881:0.047354758 2892:0.047354758 2931:0.047354758 2974:0.047354758 3002:0.029292332 3028:0.047354758 3029:0.047354758 3055:0.047354758 3092:0.079151385 3104:0.096070275 3144:0.079151385 3154:0.047354758 3191:0.035025235 3204:0.012165683 3213:0.024017569 3232:0.047354758 3292:0.047354758 3294:0.047354758 3317:0.047354758 3321:0.054492343 3332:0.025516165 3335:0.047354758 3359:0.047354758 3376:0.01871784 3378:0.039575692 3423:0.047354758 3427:0.047354758 3431:0.047354758 3464:0.027468411 3542:0.047354758 3547:0.027246172 3601:0.047354758 3630:0.054492343 3639:0.047354758 3691:0.035025235 3724:0.047354758 3727:0.047354758 3730:0.047354758 3757:0.035474207 3765:0.029292332 3795:0.079151385 3801:-0.015945524 3839:0.047354758 3842:0.063593261 3848:0.047354758 3862:0.027246172 3872:0.015558126 3874:0.079151385 3890:0.035025235 3935:0.039575692 3953:0.047354758 3993:0.047354758 4004:0.043026537 4010:0.011356045 4048:0.047354758 4055:0.047354758 4067:0.047354758 4092:0.047354758 4104:0.047354758 4115:0.047354758 4154:0.047354758 4171:0.063593261 4178:0.019467108 4180:0.045391422 4183:0.079151385 4220:0.024331367 4225:0.027246172 4232:0.00995804 4352:0.02044362 4405:0.063593261 4414:0.0088157514 4466:0.047354758 4478:0.0088157514 4490:0.047354758 4512:0.039575692 4557:0.047354758 4577:0.047354758 4581:0.047354758 4589:0.047354758 4623:0.035025235 4668:0.0073551508 4706:0.047354758 4723:0.047354758 4724:0.015558126 4737:0.047354758 4782:0.1050757 4801:0.039575692 4837:0.047354758 4900:0.047354758 4905:0.047354758 4958:0.079151385 4968:0.047354758 4993:0.024017569 5032:0.039575692 5034:0.016962809 5057:0.047354758 5059:0.047354758 5083:0.047354758 5086:0.047354758 5098:-0.012646277 5184:0.047354758 5194:0.047354758 5213:0.027246172 5220:0.070050471 5262:0.047354758 5263:0.019467108 5277:0.039575692 5293:0.047354758 5294:0.039575692 5386:0.051032331 5391:0.015558126 5466:0.0051435018 5469:0.047354758 5529:0.00995804 5671:0.027246172 5682:0.047354758 5715:0.047354758 5728:0.079151385 5733:0.014309862 5752:0.035025235 5760:0.014309862 5836:0.035025235 5892:0.015558126 5935:0.047354758 5949:0.015558126 5979:0.047354758 6027:0.014309862 6044:0.047354758 6073:0.047354758 6098:-0.13150422 6148:0.047354758 6154:0.047354758 6157:0.045391422 6166:0.047354758 6175:0.047354758 6188:0.0077790632 6193:0.063593261 6196:0.047354758 6203:0.0047623911 6204:0.017737104 6225:0.039575692 6255:0.047354758 6263:0.054492343 6287:0.079151385 6296:0.047354758 6306:0.019467108 6381:0.039575692 6429:0.047354758 6445:0.039575692 6501:0.035025235 6502:0.024017569 6569:0.063593261 6585:0.025516165 6606:0.044749942 6630:0.013186643 6657:0.039575692 6686:0.039575692 6769:0.047354758 6815:0.035025235 6836:-0.028394736 6906:0.047354758 6923:0.063593261 6926:0.047354758 6945:0.035025235 6953:0.017737104 6956:0.035025235 6976:0.022695711 6989:0.015558126 7005:0.021513268 7013:0.047354758 7017:0.00995804 7029:0.04088724 7035:0.03179663 7065:0.047354758 7099:0.047354758 7106:0.047354758 7131:0.03179663 7141:0.02044362 7157:0.022695711 7158:0.03179663 7166:0.047354758 7177:0.018568803 7191:0.079151385 7211:0.027246172 7270:0.024017569 7331:0.047354758 7344:0.039575692 7384:0.035025235 7417:0.047354758 7423:0.035025235 7436:0.025516165 7542:-0.036343571 7546:0.022695711 7571:0.017737104 7573:0.027246172 7579:0.047354758 7585:0.027246172 7604:0.047354758 7639:0.047354758 7649:0.047354758 7651:0.063593261 7660:-0.10615999 7693:0.019467108 7710:0.047354758 7734:0.047354758 7754:0.047354758 7758:0.03179663 7765:0.011229907 7769:0.047354758 7776:0.025516165 7868:0.047354758 7874:0.027246172 7883:0.23747933 7892:0.035025235 7909:0.047354758 7920:0.063593261 7932:0.024017569 7962:0.047354758 8012:0.047354758 8029:0.047354758 8062:0.015558126 8070:0.12758084 8072:0.11716933 8078:0.047354758 8084:0.047354758 8124:0.047354758 8148:0.029292332 8156:0.022695711 8168:0.047354758 8174:0.039575692 8183:0.047354758 8207:0.079151385 8266:0.022695711 8269:0.039575692 8282:0.027246172 8295:0.0081140976 8306:0.035025235 8326:0.039575692 8353:0.029833296 8370:0.079151385 8395:0.029292332 8432:0.029292332 8436:0.047354758 8439:0.047354758 8446:0.018568803 8455:0.039575692 8458:0.047354758 8488:0.047354758 8493:0.039575692 8523:0.027246172 8534:0.047354758 8535:0.047354758 8575:0.047354758 8600:0.029292332 8644:0.1050757 8660:0.0025713595 8683:0.014916648 8710:0.047354758 8727:0.0081140976 8738:0.024017569 8741:0.047354758 8745:0.047354758 8747:0.0081140976 8767:0.047354758 8827:0.039575692 8834:0.047354758 8841:0.024017569 8851:0.047354758 8888:0.047354758 8922:0.047354758 8956:0.04088724 8986:0.047354758 8992:0.0081140976 9041:0.019467108 9049:0.027246172 9176:0.016962809 9232:0.035025235 9253:0.039575692 9275:0.079151385 9278:0.047354758 9281:0.039575692 9296:0.02044362 9307:0.039575692 9314:0.047354758 9373:0.0062392801 9458:0.047354758 9461:0.039575692 9474:0.027246172 9477:0.047354758 9507:0.039575692 9516:0.039575692 9518:0.079151385 9545:0.047354758 9554:0.047354758 9556:0.047354758 9557:0.047354758 9599:0.027246172 9607:0.047354758 9632:0.010366187 9663:0.039575692 9680:0.0088157514 9690:0.0013301359 9705:0.017737104 9734:0.021513268 9738:0.047354758 9753:0.047354758 9760:0.047354758 9827:0.027246172 9880:0.021412754 9925:0.047354758 9941:0.047354758 9966:0.039575692 10004:0.047354758 10055:0.047354758 10106:0.047354758 10116:0.03179663 10178:0.025516165 10200:0.027246172 10283:0.047354758 10325:0.073026873 10336:0.028390111 10349:0.047354758 10356:-0.023975637 10443:0.015558126 10467:0.079151385 10519:0.047354758 10587:0.047354758 10590:0.039575692 10611:0.00995804 10618:0.019467108 10620:0.047354758 10645:0.024017569 10718:0.047354758 10783:0.03179663 10785:0.025516165 10790:0.063593261 10807:0.02337609 10808:-0.023586966 10816:0.014907482 10832:0.039575692 10841:0.079151385 10845:0.047354758 10893:0.01247856 10902:0.039575692 #
-0.07677190661586558162454707598954 12:0.055254549 51:0.10278969 89:0.074652202 183:0.048131514 262:0.030630926 320:0.029347518 358:0.089325964 360:0.051394846 465:0.048131514 554:0.029347518 652:0.066068605 770:0.066068605 853:0.074652202 896:0.089325964 934:0.017323432 1072:0.059978444 1126:0.07712619 1128:0.089325964 1168:0.066068605 1204:0.089325964 1258:0.042811248 1285:0.074652202 1366:0.051394846 1425:0.066068605 1470:0.074652202 1550:0.066068605 1606:0.15418454 1611:0.089325964 1620:0.074652202 1629:0.066068605 1643:-0.013224312 1646:0.089325964 1781:0.0044916836 1859:0.089325964 1869:0.033457752 1897:0.066068605 1906:0.016629281 1915:0.048131514 1917:0.066068605 2114:0.053985797 2235:0.048131514 2301:0.074652202 2396:0.085622497 2524:0.038563095 2742:0.026992898 2753:0.089325964 2754:0.066068605 2779:0.066068605 2795:0.066068605 2841:0.089325964 2956:0.066068605 2999:0.045304686 3129:0.089325964 3230:0.074652202 3297:0.035026602 3415:0.059978444 3471:0.066068605 3496:0.066068605 3569:0.042811248 3693:0.048131514 3763:0.066068605 3793:0.089325964 3821:0.066068605 3822:0.074652202 3849:0.055254549 3876:0.066068605 3901:0.04058079 3919:0.038563095 4026:0.089325964 4061:0.11995689 4158:0.04058079 4232:0.037567992 4248:0.074652202 4255:0.074652202 4289:0.048131514 4348:0.10278969 4363:0.066068605 4375:0.059978444 4393:0.051394846 4415:0.074652202 4422:0.063994385 4475:0.020352842 4493:0.066068605 4592:0.074652202 4671:0.074652202 4673:0.074652202 4726:0.074652202 4744:0.074652202 4843:0.074652202 4957:0.048131514 5034:0.063994385 5036:0.051394846 5052:0.070053205 5053:0.066068605 5098:-0.0079516191 5201:0.030630926 5236:0.074652202 5263:0.036721088 5308:0.033457752 5311:0.059978444 5375:0.020352842 5380:0.074652202 5410:0.074652202 5538:0.074652202 5572:0.074652202 5631:0.066068605 5648:0.074652202 5668:0.066068605 5729:0.066068605 5735:0.089325964 5760:0.026992898 5769:0.035026602 5794:0.059978444 5912:0.074652202 5915:0.074652202 5924:0.066068605 5973:0.048131514 6098:-0.082686111 6176:0.11995689 6188:0.014673759 6199:0.066068605 6224:0.081161581 6324:0.066068605 6361:0.089325964 6538:0.048131514 6563:0.074652202 6590:0.096263029 6697:0.066068605 6953:0.033457752 6975:0.074652202 7020:0.066068605 7029:0.038563095 7056:0.074652202 7080:0.066068605 7103:0.074652202 7257:0.066068605 7382:0.17124499 7385:0.074652202 7418:0.015305739 7520:0.085622497 7657:0.089325964 7732:0.066068605 7776:0.048131514 7939:0.074652202 7951:0.066068605 8003:0.066068605 8014:0.074652202 8034:0.074652202 8081:0.074652202 8086:0.07712619 8127:0.066068605 8155:0.066068605 8171:0.089325964 8221:0.089325964 8257:0.059978444 8272:0.066068605 8303:0.066068605 8309:0.089325964 8315:0.033457752 8380:0.089325964 8401:0.089325964 8700:0.059978444 8717:0.074652202 8853:0.089325964 8938:0.066068605 8959:0.11568929 8993:0.074652202 9090:0.089325964 9159:0.089325964 9197:0.089325964 9342:0.066068605 9350:0.14010641 9373:0.011769244 9389:0.066068605 9395:0.11995689 9454:0.074652202 9479:0.15418454 9517:0.074652202 9523:0.074652202 9611:0.066068605 9632:0.019553889 9680:0.016629281 9819:0.074652202 9856:0.074652202 9895:0.048131514 10024:0.066068605 10253:0.066068605 10288:0.0037355402 10318:0.066068605 10325:0.015305739 10336:0.010710536 10368:0.048131514 10504:0.089325964 10566:0.066068605 10579:0.089325964 10635:0.066068605 10656:0.074652202 10742:0.074652202 10807:0.022047328 10874:0.089325964 10905:0.055254549 #
-0.089716361101914970932469373110507 1603:0.40681502 1767:0.48677927 4372:0.23329866 5070:0.48677927 9653:0.48677927 10196:0.26229128 10288:0.020356718 #
-0.063284745304239178875782556588092 26:0.011195976 33:0.028479557 71:0.045763139 72:0.034077547 118:0.056959115 129:0.034077547 163:0.028479557 169:0.034077547 218:0.019606955 224:0.034077547 233:0.045763139 260:0.045763139 296:0.056959115 316:0.056959115 335:0.034077547 342:0.039213911 377:0.056959115 399:0.034077547 403:0.034077547 409:0.045763139 417:0.010734354 474:0.056959115 487:0.056959115 490:0.056959115 501:0.045763139 535:0.034077547 543:0.034077547 565:0.028479557 580:0.034077547 601:0.034077547 603:0.021079419 633:0.014008967 640:0.0098834429 657:0.056959115 674:0.015481431 726:0.056959115 752:0.056959115 795:0.034077547 810:0.028479557 845:0.034077547 850:0.034077547 854:0.034077547 884:0.019606955 894:0.065329373 929:0.034077547 934:0.0066088298 970:0.034077547 994:0.034077547 1020:0.034077547 1055:0.019606955 1100:0.034077547 1108:0.034077547 1171:0.034077547 1225:0.034077547 1236:0.056959115 1273:0.045763139 1289:0.034077547 1298:0.028479557 1326:0.034077547 1346:0.056959115 1362:0.056959115 1381:0.056959115 1400:0.0091137001 1428:0.034077547 1443:0.034077547 1498:0.050409887 1638:0.023293618 1643:-0.0050450293 1654:0.056959115 1655:0.056959115 1672:0.034077547 1676:0.034077547 1687:0.034077547 1720:0.034077547 1721:0.050409887 1731:0.056959115 1782:0.025204943 1823:0.045763139 1848:0.0091137001 1869:0.012764017 1875:0.034077547 1878:0.028479557 1902:0.034077547 1906:0.0063440129 1924:0.056959115 1926:0.034077547 1931:0.056959115 1953:0.045763139 1978:0.056959115 2005:0.034077547 2022:0.056959115 2031:0.034077547 2035:0.034077547 2079:0.016332343 2116:0.056959115 2117:0.056959115 2135:0.056959115 2155:0.056959115 2168:0.061925724 2173:0.021079419 2180:0.056959115 2197:0.056959115 2230:0.034077547 2233:0.034077547 2253:0.034077547 2261:0.056959115 2279:0.027530501 2302:0.034077547 2309:0.034077547 2316:0.034077547 2319:0.056959115 2339:0.034077547 2350:0.028479557 2360:0.034077547 2375:0.034077547 2408:0.011195976 2409:0.034077547 2448:0.034077547 2452:0.056959115 2456:0.034077547 2514:0.01376525 2537:0.034077547 2555:0.034077547 2581:0.056959115 2587:0.017283581 2591:0.056959115 2641:0.010297697 2665:0.034077547 2674:0.034077547 2692:0.034077547 2704:0.017283581 2715:0.0077828318 2731:0.007166029 2762:0.034077547 2804:0.056959115 2815:0.034077547 2828:0.011195976 2842:0.034077547 2893:0.028479557 2894:0.025204943 2962:0.056959115 2964:0.050409887 2983:0.028479557 3060:0.034077547 3080:0.056959115 3088:0.034077547 3142:0.056959115 3167:0.034077547 3187:0.034077547 3191:0.050409887 3213:0.017283581 3220:0.034077547 3248:0.034077547 3288:0.056959115 3298:0.06864471 3318:0.034077547 3352:0.034077547 3353:0.056959115 3376:0.031429481 3386:0.034077547 3400:0.034077547 3430:0.034077547 3438:0.056959115 3446:0.034077547 3466:0.028479557 3511:0.056959115 3547:0.019606955 3550:0.056959115 3595:0.028479557 3615:0.034077547 3623:0.034077547 3630:0.078427821 3644:0.028479557 3659:0.034077547 3689:0.034077547 3732:0.056959115 3751:0.034077547 3780:0.034077547 3801:-0.15490921 3825:0.045763139 3842:0.045763139 3852:0.034077547 3862:0.019606955 3872:0.011195976 3903:0.021079419 3925:0.028479557 3930:0.028479557 3943:0.034077547 3961:0.056959115 3983:0.056959115 4004:0.015481431 4010:0.008172065 4047:0.056959115 4081:0.034077547 4132:0.056959115 4139:0.028479557 4159:0.056959115 4166:0.034077547 4171:0.045763139 4178:0.070044838 4180:0.04899703 4191:0.034077547 4202:0.056959115 4225:0.019606955 4252:0.034077547 4266:0.056959115 4281:0.034077547 4313:0.028479557 4321:0.045763139 4405:0.045763139 4414:0.0063440129 4421:0.028479557 4431:0.056959115 4433:0.075614832 4512:0.028479557 4533:0.056959115 4537:0.034077547 4575:0.034077547 4614:0.034077547 4621:0.045763139 4639:0.056959115 4643:0.034077547 4644:0.056959115 4656:0.056959115 4665:0.034077547 4724:0.011195976 4756:0.050409887 4777:0.056959115 4862:0.056959115 4908:0.028479557 4909:0.028479557 4916:0.034077547 4940:0.056959115 4956:0.034077547 5119:0.056959115 5138:0.056959115 5173:0.034077547 5183:0.050409887 5213:0.019606955 5270:0.039213911 5274:0.056959115 5292:0.034077547 5310:0.051850744 5331:0.034077547 5353:0.034077547 5363:0.034077547 5386:0.073448025 5391:0.011195976 5398:0.050409887 5408:0.034077547 5450:0.050409887 5452:0.034077547 5455:0.028479557 5497:0.045763139 5509:0.056959115 5529:0.007166029 5530:0.034077547 5536:0.0024833048 5623:0.019606955 5671:0.019606955 5686:0.034077547 5701:0.056959115 5707:0.056959115 5733:0.010297697 5736:0.028479557 5760:0.010297697 5797:0.0038914159 5811:0.034077547 5882:0.056959115 5892:0.011195976 5921:0.034077547 5931:0.034077547 5949:0.011195976 6007:0.045763139 6027:0.010297697 6037:0.056959115 6057:0.021079419 6064:0.056959115 6075:0.056959115 6135:0.034077547 6158:0.045763139 6183:0.016332343 6184:0.034077547 6193:0.045763139 6203:0.0034271234 6225:0.028479557 6226:0.050409887 6244:0.034077547 6249:0.056959115 6263:0.019606955 6311:0.045763139 6323:0.056959115 6375:0.056959115 6408:0.034077547 6426:0.034077547 6463:0.056959115 6464:0.034077547 6498:0.045763139 6502:0.017283581 6569:0.045763139 6585:0.018362006 6597:0.034077547 6646:0.028479557 6655:0.056959115 6659:0.056959115 6668:0.056959115 6677:0.056959115 6693:0.034077547 6771:0.045763139 6835:0.056959115 6836:-0.015325117 6858:0.056959115 6870:0.034077547 6923:0.045763139 6973:0.056959115 6976:0.016332343 6977:0.045763139 6989:0.011195976 6993:0.056959115 7003:0.034077547 7018:0.028479557 7022:0.050409887 7036:0.034077547 7044:0.056959115 7068:0.034077547 7076:0.034077547 7141:0.014711688 7157:0.016332343 7161:0.056959115 7198:0.028479557 7200:0.034077547 7203:0.034077547 7211:0.019606955 7225:0.056959115 7262:0.056959115 7270:0.017283581 7281:0.056959115 7328:0.045763139 7344:0.028479557 7357:0.056959115 7380:0.056959115 7384:0.050409887 7420:0.034077547 7424:0.056959115 7434:0.056959115 7471:0.056959115 7473:0.050409887 7503:0.056959115 7528:0.034077547 7534:0.056959115 7542:-0.24285531 7546:0.016332343 7566:0.056959115 7573:0.039213911 7610:0.034077547 7651:0.045763139 7654:0.056959115 7660:-0.025465036 7691:0.056959115 7746:0.056959115 7747:0.028479557 7794:0.034077547 7796:0.034077547 7797:0.034077547 7798:0.039213911 7805:0.056959115 7866:0.034077547 7874:0.019606955 7890:0.045763139 7908:0.034077547 7911:0.056959115 7920:0.022881569 7932:0.017283581 7967:0.056959115 7987:0.034077547 7999:0.034077547 8026:0.050409887 8062:0.011195976 8068:0.056959115 8077:0.034077547 8091:0.045763139 8142:0.034077547 8154:0.034077547 8161:0.056959115 8163:0.034077547 8225:0.042158838 8244:0.056959115 8245:0.034077547 8255:0.034077547 8287:0.011195976 8295:0.0058390866 8353:0.010734354 8404:0.034077547 8405:0.056959115 8446:0.026725056 8449:0.045763139 8481:0.050409887 8491:0.034077547 8507:0.034077547 8521:0.034077547 8532:0.034077547 8540:0.056959115 8552:0.034077547 8554:0.032664686 8574:0.034077547 8597:0.056959115 8623:0.028479557 8660:0.032690544 8664:0.056959115 8683:0.010734354 8691:0.034077547 8727:0.0058390866 8738:0.017283581 8747:0.0058390866 8759:0.034077547 8765:0.034077547 8881:0.034077547 8882:0.056959115 8886:0.034077547 8893:0.056959115 8913:0.056959115 8929:0.056959115 8956:0.088270128 8969:0.028479557 8980:0.056959115 8985:0.034077547 8990:0.056959115 9025:0.045763139 9041:0.070044838 9042:0.056959115 9048:0.056959115 9049:0.019606955 9067:0.056959115 9068:0.028479557 9072:0.034077547 9122:0.056959115 9127:0.039213911 9157:0.034077547 9172:0.056959115 9190:0.056959115 9215:0.034077547 9222:0.056959115 9224:0.034077547 9243:0.028479557 9253:0.028479557 9269:0.056959115 9276:0.056959115 9295:0.056959115 9296:0.014711688 9319:0.034077547 9352:0.045763139 9402:0.056959115 9424:0.056959115 9451:0.056959115 9529:0.045763139 9550:0.056959115 9552:0.034077547 9599:0.019606955 9632:0.0074597411 9644:0.034077547 9652:0.056959115 9663:0.028479557 9674:0.056959115 9680:0.0063440129 9686:0.056959115 9705:0.012764017 9725:0.034077547 9727:0.034077547 9734:0.015481431 9736:0.034077547 9750:0.056959115 9776:0.034077547 9783:0.034077547 9802:0.056959115 9805:0.034077547 9807:0.056959115 9827:0.019606955 9839:0.056959115 9842:0.10370149 9858:0.034077547 9882:0.045763139 9914:0.034077547 9938:0.034077547 9995:0.021079419 10056:0.045763139 10078:0.056959115 10108:0.10370149 10139:0.034077547 10150:0.034077547 10178:0.018362006 10180:0.056959115 10185:0.034077547 10221:0.034077547 10227:0.034077547 10236:0.034077547 10249:0.056959115 10280:0.034077547 10333:0.056959115 10336:0.012258097 10342:0.034077547 10356:-0.012940055 10373:0.056959115 10379:0.034077547 10419:0.056959115 10441:0.034077547 10443:0.011195976 10457:0.045763139 10569:0.034077547 10586:0.034077547 10611:0.007166029 10618:0.014008967 10623:0.056959115 10624:0.034077547 10645:0.017283581 10687:0.034077547 10721:0.034077547 10732:0.028479557 10744:0.034077547 10745:0.028479557 10774:0.028479557 10790:0.045763139 10808:-0.012730283 10815:0.056959115 10816:0.010727759 10833:0.056959115 10904:0.056959115 #
-0.08520480096393687197142696732044 94:0.026599556 188:0.21151724 273:0.21151724 598:0.21151724 1475:0.15644555 1634:0.21151724 2110:0.21151724 2472:0.21151724 2503:0.21151724 2538:0.21151724 2719:0.21151724 2862:0.044479106 3464:0.061345927 3583:0.21151724 4009:0.2279437 4429:0.096092299 4739:0.284049 4932:0.15644555 6005:0.21151724 6028:0.13083868 6306:0.086952806 6458:0.21151724 6555:-0.010592591 6690:0.15644555 7017:0.044479106 7556:0.21151724 7567:0.21151724 8234:0.17677088 8963:0.21151724 9429:0.063917182 9915:0.21151724 10288:0.017690964 #
-0.089862733774961831012539903440484 31:0.057600401 61:0.031036826 94:0.0072435937 166:0.057600401 280:0.057600401 314:0.057600401 381:0.057600401 390:0.057600401 417:0.036288008 433:0.035630003 528:0.057600401 538:0.057600401 542:0.057600401 570:0.057600401 599:0.057600401 649:0.057600401 694:0.017405933 696:0.042603269 722:0.029213993 758:0.085206538 786:0.057600401 811:0.057600401 823:0.057600401 855:0.057600401 860:0.057600401 916:0.057600401 975:0.048138265 1002:0.048138265 1049:0.057600401 1075:0.057600401 1104:0.042603269 1124:0.057600401 1142:0.057600401 1167:0.057600401 1188:0.057600401 1196:0.012112555 1243:0.038676128 1261:0.057600401 1263:0.057600401 1296:0.027606139 1314:0.057600401 1397:0.057600401 1418:0.035630003 1522:0.057600401 1594:0.057600401 1643:-0.02558245 1651:0.057600401 1657:0.035630003 1696:0.048138265 1698:0.057600401 1723:0.048138265 1728:0.057600401 1781:0.0057927789 1790:0.057600401 1810:0.057600401 1876:0.057600401 1923:0.057600401 2020:0.057600401 2067:0.048138265 2074:0.042603269 2081:0.048138265 2092:0.057600401 2131:0.096276529 2132:0.048138265 2366:0.057600401 2418:0.057600401 2421:0.057600401 2476:0.057600401 2477:0.011781423 2499:0.096276529 2514:0.011633524 2521:0.057600401 2522:0.048138265 2524:0.024866788 2575:0.15470451 2604:0.048138265 2624:0.0050421259 2737:0.057600401 2782:0.029213993 2791:0.057600401 2798:0.057600401 2819:0.012609009 2843:0.057600401 2899:0.096276529 2954:0.038676128 2975:0.033141132 2984:0.048138265 3042:0.048138265 3045:0.038676128 3203:0.057600401 3322:0.057600401 3334:0.048138265 3345:0.057600401 3397:0.057600401 3499:0.042603269 3500:0.057600401 3566:0.048138265 3568:0.048138265 3588:0.057600401 3653:0.057600401 3694:0.057600401 3701:0.057600401 3703:0.057600401 3801:-0.0096977428 3878:0.057600401 3899:0.057600401 3940:0.025218017 4004:0.026167866 4140:0.077352256 4323:0.057600401 4324:0.057600401 4357:0.057600401 4376:0.057600401 4411:0.057600401 4439:0.057600401 4448:0.02063287 4467:0.057600401 4501:0.057600401 4540:0.012112555 4565:0.057600401 4591:0.057600401 4603:0.057600401 4628:0.048138265 4651:0.15470451 4688:0.057600401 4745:0.096276529 4840:0.048138265 4845:0.031036826 4979:0.057600401 5109:0.096276529 5130:0.048138265 5157:0.057600401 5179:0.027606139 5245:0.021574691 5268:0.016039696 5306:0.057600401 5359:0.042603269 5364:0.048138265 5367:0.057600401 5385:0.057600401 5418:0.077352256 5522:0.057600401 5523:0.057600401 5584:0.045172673 5624:0.057600401 5627:0.057600401 5666:0.035630003 5797:0.032887802 5804:0.057600401 5872:0.057600401 5977:0.057600401 5988:0.057600401 6002:0.057600401 6006:0.15470451 6032:0.057600401 6060:0.057600401 6065:0.096276529 6098:-0.071091726 6117:0.035630003 6133:0.057600401 6134:0.096276529 6164:0.048138265 6188:0.04731068 6229:0.15470451 6236:0.032079391 6251:0.023267047 6252:0.057600401 6263:0.033141132 6279:0.042603269 6292:0.057600401 6297:0.057600401 6473:0.15470451 6487:0.048138265 6554:0.057600401 6579:0.057600401 6606:0.036288008 6637:0.057600401 6645:0.057600401 6657:0.048138265 6746:0.057600401 6761:0.057600401 6859:0.057600401 6903:0.057600401 6914:0.048138265 6931:0.057600401 6932:0.057600401 6953:0.021574691 7017:0.012112555 7055:0.057600401 7096:0.057600401 7104:0.057600401 7116:0.057600401 7134:0.057600401 7263:0.057600401 7266:0.048138265 7322:0.10467146 7409:0.057600401 7571:0.021574691 7585:0.033141132 7588:0.057600401 7607:0.057600401 7660:-0.10760724 7685:0.1988468 7808:0.057600401 7826:0.048138265 7834:0.057600401 7883:0.02063287 7925:0.057600401 7957:0.057600401 7981:0.057600401 7998:0.057600401 8025:0.048138265 8046:0.038676128 8082:0.057600401 8098:0.057600401 8249:0.057600401 8266:0.055212278 8338:0.057600401 8353:0.036288008 8367:0.096276529 8391:0.057600401 8415:0.057600401 8420:0.057600401 8438:0.057600401 8455:0.048138265 8517:0.02063287 8550:0.057600401 8604:0.057600401 8652:0.057600401 8686:0.057600401 8700:0.038676128 8752:0.057600401 8804:0.057600401 8806:0.057600401 8810:0.057600401 8890:0.057600401 8983:0.057600401 9100:0.057600401 9109:0.057600401 9129:0.057600401 9147:0.021574691 9149:0.057600401 9220:0.077352256 9244:0.057600401 9248:0.042603269 9256:0.057600401 9396:0.057600401 9399:0.048138265 9471:0.057600401 9474:0.066282265 9496:0.057600401 9629:0.057600401 9665:0.057600401 9742:0.096276529 9759:0.042603269 9800:0.057600401 9841:0.048138265 9880:0.0086818673 9897:0.057600401 9912:0.035630003 9994:0.11685597 10030:0.077352256 10043:0.057600401 10049:0.033141132 10061:0.034811866 10086:0.057600401 10087:0.057600401 10097:0.019751856 10105:0.057600401 10116:0.038676128 10144:0.057600401 10197:0.057600401 10202:0.057600401 10205:0.016039696 10325:0.0098696575 10336:0.034532577 10360:0.057600401 10571:0.038676128 10612:0.057600401 10615:0.057600401 10737:0.057600401 10796:0.019751856 10813:0.057600401 10832:0.048138265 10868:0.1241473 #
-0.093078033941317125932179976643965 213:0.11254717 251:0.21787395 320:0.085651316 704:0.2606996 981:0.2606996 2619:0.12494548 2687:0.2606996 2987:0.2606996 3152:0.2606996 3416:0.097647123 4315:0.2606996 4371:0.082119823 4668:0.020245958 5106:0.2606996 5265:0.21787395 5466:0.028316243 5549:0.14999688 5797:0.02977006 6457:0.19282255 7276:0.2606996 8301:0.17504829 9015:0.2606996 9904:0.2606996 10288:0.021804499 10334:0.2606996 10412:0.11254717 #
-0.092932293970032109342582771205343 14:0.030359091 42:0.091077276 50:0.034303326 84:0.034303326 90:0.034303326 94:0.015485355 104:0.034303326 105:0.0067427182 151:0.030359091 158:0.034303326 189:0.041046046 195:0.041046046 196:0.034303326 201:0.055121221 211:0.034303326 228:0.055121221 242:0.012929417 288:0.041046046 324:0.041046046 346:0.030359091 384:0.055121221 387:0.030359091 388:0.030359091 394:0.034303326 402:0.066350527 414:0.013485436 451:0.013485436 453:0.02756061 456:0.034303326 463:0.034303326 470:0.041046046 519:0.030359091 539:0.041046046 552:0.030359091 554:0.026970873 569:0.041046046 575:0.041046046 605:0.034303326 625:0.055121221 631:0.030359091 644:0.084368274 668:0.02538994 685:0.030359091 694:0.024806937 700:0.020817891 710:0.034303326 719:0.030359091 728:0.034303326 729:0.02756061 741:0.030359091 746:0.030359091 768:0.02756061 782:0.022116844 792:0.034303326 826:0.02538994 828:0.030359091 871:0.062453676 890:0.034303326 893:0.030359091 901:0.034303326 902:0.041046046 911:0.022116844 917:0.030359091 924:0.034303326 928:0.034303326 930:0.041046046 942:0.050779879 965:0.047232743 984:0.034303326 986:0.034303326 1005:0.034303326 1023:0.034303326 1092:0.030359091 1093:0.041046046 1110:0.034303326 1122:0.0113215 1175:0.034303326 1206:0.034303326 1217:0.020817891 1228:0.034303326 1244:0.030359091 1262:0.041046046 1269:0.023616372 1305:0.030359091 1308:0.034303326 1319:0.034303326 1328:0.034303326 1329:0.034303326 1341:0.034303326 1344:0.018647222 1345:0.030359091 1383:0.041046046 1384:0.060718182 1392:0.030359091 1421:0.041046046 1424:0.041046046 1459:0.041046046 1476:0.030359091 1482:0.055121221 1489:0.030359091 1505:0.041046046 1534:0.034303326 1548:0.034303326 1566:0.041046046 1574:0.0086314073 1579:0.035440147 1582:0.017720073 1604:0.034303326 1622:0.02756061 1641:0.034303326 1643:-0.072920218 1658:0.034303326 1670:0.034303326 1673:0.034303326 1704:0.034303326 1710:0.030359091 1713:0.034303326 1714:0.034303326 1735:0.034303326 1753:0.02538994 1779:0.083271563 1781:0.0061919014 1784:0.030359091 1802:0.034303326 1832:0.041046046 1838:0.022116844 1845:0.041046046 1861:0.041046046 1870:0.034303326 1884:0.023616372 1889:0.019672135 1948:0.034303326 1950:0.055121221 1964:0.030359091 1966:0.030359091 1968:0.034303326 1973:0.034303326 1985:0.034303326 1987:0.034303326 2026:0.055941664 2046:0.034303326 2062:0.034303326 2065:0.034303326 2075:0.034303326 2137:0.030359091 2169:0.041046046 2172:0.034303326 2181:0.034303326 2212:0.023616372 2249:0.055121221 2290:0.074588887 2305:0.034303326 2315:0.055121221 2326:0.030359091 2388:0.041046046 2427:0.034303326 2461:0.034303326 2463:0.041046046 2473:0.050779879 2477:0.013992405 2481:0.034303326 2497:0.034303326 2501:0.034303326 2547:0.02756061 2556:0.023616372 2619:0.019672135 2624:0.010779058 2629:0.030359091 2651:0.034303326 2653:0.055121221 2673:0.041046046 2699:0.041046046 2715:0.0046871696 2726:0.023616372 2745:0.030359091 2755:0.034303326 2760:0.055121221 2764:0.034303326 2766:0.030359091 2810:0.034303326 2821:0.014702984 2837:0.034303326 2861:0.030359091 2903:0.062453676 2907:0.034303326 2922:0.034303326 2926:0.034303326 2942:0.034303326 2954:0.02756061 2975:0.023616372 2984:0.034303326 2989:0.041046046 3002:0.02538994 3017:0.034303326 3027:0.034303326 3053:0.041046046 3056:0.041046046 3069:0.034303326 3095:0.02538994 3132:0.055121221 3168:0.034303326 3177:0.034303326 3192:0.041046046 3195:0.034303326 3199:0.055121221 3202:0.041046046 3221:0.030359091 3238:0.030359091 3246:0.034303326 3258:0.012403469 3265:0.034303326 3273:0.034303326 3301:0.096570142 3321:0.023616372 3332:0.044233687 3339:0.034303326 3349:0.030359091 3363:0.030359091 3380:0.041046046 3403:0.041046046 3416:0.015374125 3436:0.041046046 3443:0.033747308 3497:0.041046046 3513:0.034303326 3537:0.02756061 3548:0.041046046 3555:0.034303326 3557:0.030359091 3560:0.023616372 3585:0.02756061 3586:0.041046046 3600:0.055121221 3624:0.034303326 3627:0.022116844 3662:0.034303326 3669:0.034303326 3690:0.034303326 3711:0.041046046 3718:0.016873654 3726:0.035713509 3731:0.041046046 3738:0.034303326 3765:0.02538994 3772:0.041046046 3784:0.041046046 3787:0.034303326 3788:0.034303326 3789:0.055121221 3921:0.055121221 3936:0.041046046 3940:0.0089851795 3964:0.034303326 3992:0.030359091 3994:0.02756061 4010:0.004921583 4024:0.034303326 4076:0.041046046 4089:0.034303326 4095:0.03074825 4105:0.030359091 4108:0.034303326 4125:0.041046046 4146:0.03934427 4169:0.034303326 4186:0.041046046 4192:0.034303326 4218:0.034303326 4220:0.052724715 4224:0.030359091 4239:0.030359091 4262:0.030359091 4271:0.034303326 4274:0.041046046 4294:0.034303326 4307:0.030359091 4325:0.030359091 4330:0.030359091 4341:0.041046046 4372:0.019672135 4379:0.03074825 4395:0.034303326 4402:0.041046046 4414:0.015282594 4443:0.023616372 4448:0.029405968 4475:0.0093523059 4477:0.034303326 4478:0.0076412968 4480:0.03934427 4492:0.030359091 4506:0.034303326 4515:0.02756061 4526:0.041046046 4530:0.034303326 4534:0.041046046 4550:0.041046046 4556:0.041046046 4558:0.041046046 4566:0.034303326 4580:0.030359091 4619:0.033747308 4625:0.034303326 4629:0.041046046 4642:0.0059201703 4652:0.034303326 4655:0.034303326 4661:0.034303326 4664:0.034303326 4668:0.015938202 4716:0.041046046 4736:0.030359091 4738:0.034303326 4747:0.041046046 4764:0.034303326 4790:0.041046046 4794:0.034303326 4796:0.02756061 4799:0.034303326 4806:0.030359091 4807:0.030359091 4822:0.034303326 4838:0.062453676 4844:0.041046046 4845:0.022116844 4856:0.041635782 4873:0.030359091 4925:0.034303326 4966:0.041046046 4993:0.020817891 5010:0.050779879 5011:0.034303326 5043:0.034303326 5056:0.034303326 5074:0.034303326 5081:0.034303326 5087:0.041046046 5098:-0.03653837 5118:0.034303326 5123:0.070849121 5135:0.034303326 5141:0.034303326 5160:0.034303326 5171:0.034303326 5179:0.019672135 5192:0.03934427 5193:0.030359091 5198:0.034303326 5209:0.034303326 5216:0.034303326 5223:0.041046046 5258:0.034303326 5270:0.023616372 5305:0.030359091 5329:0.034303326 5354:0.034303326 5361:0.030359091 5382:0.041046046 5392:0.034303326 5414:0.030359091 5426:0.02538994 5428:0.034303326 5466:0.017833089 5472:0.041046046 5491:0.034303326 5502:0.030359091 5529:0.0086314073 5536:0.011964458 5558:0.047232743 5589:0.068606652 5596:0.041046046 5599:0.02538994 5615:0.041046046 5626:0.034303326 5634:0.041046046 5661:0.030359091 5680:0.030359091 5683:0.030359091 5687:0.034303326 5713:0.034303326 5734:0.041046046 5776:0.041046046 5780:0.022116844 5789:0.034303326 5790:0.034303326 5837:0.030359091 5847:0.042225521 5853:0.034303326 5865:0.029405968 5897:0.055121221 5911:0.041046046 5925:0.030359091 5943:0.030359091 5946:0.034303326 5958:0.034303326 5964:0.030359091 5965:0.034303326 5966:0.034303326 5984:0.030359091 5989:0.030359091 6014:0.047232743 6036:0.086824276 6038:0.050779879 6092:0.030359091 6095:0.041046046 6098:-0.13931492 6117:0.02538994 6124:0.030359091 6157:0.019672135 6161:0.034303326 6188:0.020228155 6191:0.034303326 6203:0.0041279341 6222:0.034303326 6232:0.044233687 6285:0.041046046 6286:0.034303326 6315:0.023616372 6332:0.041046046 6346:0.035440147 6357:0.030359091 6379:0.041046046 6397:0.034303326 6405:0.030359091 6412:0.030359091 6417:0.02756061 6422:0.030359091 6423:0.034303326 6430:0.02756061 6440:0.041046046 6455:0.041046046 6495:0.034303326 6527:0.034303326 6528:0.083271563 6548:0.070849121 6564:0.02756061 6575:0.019672135 6600:0.034303326 6606:0.012929417 6616:0.034303326 6630:0.011429887 6640:0.034303326 6660:0.041046046 6708:0.04129428 6720:0.041046046 6734:0.055121221 6741:0.055121221 6753:0.041046046 6772:0.041046046 6781:0.018647222 6813:0.02756061 6836:-0.073835768 6840:0.030359091 6853:0.034303326 6857:0.041046046 6928:0.034303326 6930:0.041046046 6948:0.034303326 6953:0.015374125 6956:0.030359091 6966:0.055121221 6967:0.016095024 6997:0.019672135 7005:0.018647222 7012:0.02756061 7017:0.0086314073 7035:0.02756061 7090:0.041046046 7110:0.030359091 7122:0.034303326 7159:0.030359091 7165:0.034303326 7179:0.034303326 7235:0.034303326 7284:0.030359091 7318:0.034303326 7329:0.034303326 7335:0.034303326 7371:0.055121221 7386:0.034303326 7392:0.034303326 7393:0.034303326 7394:0.034303326 7402:0.030359091 7418:0.014066237 7429:0.034303326 7443:0.034303326 7463:0.041046046 7550:0.034303326 7555:0.02756061 7560:0.020817891 7572:0.041046046 7626:0.034303326 7633:0.030359091 7647:0.019672135 7652:0.034303326 7660:-0.19937038 7671:0.041046046 7705:0.034303326 7726:0.030359091 7758:0.02756061 7764:0.030359091 7770:0.034303326 7776:0.022116844 7778:0.068606652 7781:0.013485436 7782:0.041046046 7804:0.050620962 7817:0.041046046 7818:0.030359091 7855:0.034303326 7889:0.034303326 7928:0.019672135 7965:0.034303326 8007:0.030359091 8011:0.055121221 8022:0.05316022 8046:0.02756061 8055:0.034303326 8059:0.030359091 8067:0.055121221 8094:0.044108953 8096:0.041046046 8105:0.034303326 8117:0.034303326 8119:0.034303326 8159:0.034303326 8170:0.091077276 8209:0.041046046 8222:0.034303326 8240:0.041046046 8254:0.047232743 8295:0.014066237 8306:0.030359091 8321:0.037294444 8340:0.034303326 8345:0.034303326 8366:0.042225521 8382:0.041046046 8389:0.055121221 8394:0.041046046 8407:0.030359091 8421:0.034303326 8494:0.023616372 8518:0.02538994 8525:0.030359091 8526:0.030359091 8559:0.030359091 8566:0.034303326 8581:0.076169819 8613:0.034303326 8615:0.034303326 8619:0.034303326 8624:0.034303326 8659:0.034303326 8687:0.020817891 8689:0.034303326 8695:0.034303326 8696:0.02538994 8712:0.041046046 8727:0.014066237 8735:0.020817891 8747:0.014066237 8772:0.044233687 8793:0.034303326 8809:0.041046046 8815:0.033747308 8855:0.030359091 8871:0.030359091 8875:0.034303326 8878:0.034303326 8892:0.041046046 8970:0.034303326 8971:0.034303326 8992:0.021099355 9032:0.034303326 9035:0.018647222 9043:0.030359091 9046:0.034303326 9071:0.034303326 9076:0.034303326 9107:0.041046046 9113:0.060718182 9123:0.047232743 9145:0.034303326 9147:0.015374125 9176:0.014702984 9178:0.034303326 9182:0.020817891 9183:0.034303326 9227:0.019672135 9232:0.030359091 9235:0.030359091 9267:0.091077276 9291:0.034303326 9293:0.034303326 9311:0.041046046 9331:0.030359091 9349:0.070375867 9358:0.034303326 9373:0.010816137 9379:0.030359091 9417:0.019672135 9476:0.030359091 9485:0.030359091 9525:0.022116844 9534:0.034303326 9547:0.020817891 9551:0.034303326 9558:0.02538994 9589:0.041046046 9620:0.060718182 9646:0.034303326 9649:0.034303326 9654:0.050779879 9655:0.041046046 9660:0.030359091 9690:0.0011529321 9695:0.041046046 9698:0.055121221 9715:0.050779879 9730:0.034303326 9731:0.034303326 9734:0.018647222 9746:0.034303326 9772:0.041046046 9845:0.041046046 9849:0.034303326 9880:0.024746796 9885:0.034303326 9886:0.034303326 9890:0.034303326 9893:0.041046046 9916:0.034303326 9923:0.041046046 9949:0.034303326 9952:0.041046046 9990:0.034303326 9998:0.041046046 10016:0.022116844 10021:0.030359091 10038:0.041046046 10049:0.023616372 10052:0.034303326 10075:0.034303326 10084:0.041046046 10096:0.030359091 10103:0.030359091 10107:0.034303326 10114:0.030359091 10141:0.034303326 10154:0.02756061 10163:0.034303326 10165:0.041046046 10205:0.034289662 10209:0.034303326 10238:0.041046046 10277:0.041046046 10298:0.034303326 10302:0.024746796 10336:0.009843166 10356:-0.057149254 10357:0.034303326 10377:0.030359091 10388:0.034303326 10395:0.034303326 10401:0.034303326 10402:0.055121221 10422:0.041046046 10455:0.034303326 10458:0.060718182 10463:0.030359091 10477:0.041046046 10500:0.034303326 10538:0.02756061 10555:0.02756061 10570:0.034303326 10574:0.03934427 10611:0.025894221 10643:0.030359091 10650:0.030359091 10675:0.034303326 10679:0.034303326 10690:0.055121221 10713:0.041046046 10722:0.034303326 10743:0.041046046 10762:0.034303326 10767:0.041046046 10796:0.028150346 10803:0.030359091 10808:-0.0562228 10817:0.030359091 10893:0.021632275 10910:0.041046046 10921:0.030359091 #
-0.073421980175601128659756966499117 426:0.20320255 541:0.037829001 694:0.061404604 789:0.20320255 1296:0.097388864 1430:0.20320255 2124:0.20320255 2185:0.1502957 2718:0.1502957 2781:0.20320255 3995:0.10949163 4284:0.33964407 4365:0.20320255 4446:0.12569542 4544:0.20320255 5278:0.20320255 5939:0.10306104 5945:0.20320255 6492:0.20320255 6513:0.20320255 6647:0.20320255 7515:0.20320255 7660:-0.075923309 8107:0.20320255 8555:0.092314929 8761:0.20320255 8826:0.20320255 9437:0.16982204 10083:0.20320255 10100:0.20320255 #
-0.088245524012899090315897865366424 242:0.16068554 4888:0.51011628 5688:0.51011628 6555:-0.025546158 6925:0.51011628 7477:0.34252059 10393:0.27486598 #
-0.070529831566960674016364407634683 105:0.024675054 162:0.15020849 277:0.092914775 292:0.15020849 398:0.15020849 508:0.022640297 1004:0.041827805 1301:0.15020849 1364:0.15020849 1487:0.15020849 1537:0.15020849 1857:0.15020849 2017:0.15020849 2276:0.068239719 2288:0.15020849 2485:0.15020849 3204:0.03858934 3578:0.092914775 3611:0.15020849 3814:0.15020849 3998:0.15020849 4046:0.15020849 4111:0.064846814 4820:0.092914775 4914:0.15020849 5463:0.15020849 5986:0.15020849 6238:0.15020849 6265:0.15020849 6363:0.15020849 6414:0.15020849 6688:0.15020849 7070:0.15020849 7228:0.15020849 7327:0.092914775 7373:0.15020849 7437:0.030337533 7560:0.076183319 7660:-0.056122944 7885:0.15020849 7938:0.15020849 8045:0.15020849 8343:0.15020849 8651:0.15020849 8763:0.15020849 8805:0.15020849 8873:0.092914775 9179:0.15020849 9182:0.076183319 9387:0.15020849 9416:0.080936842 9436:0.15020849 9977:0.15020849 10054:0.15020849 10126:0.092914775 10299:0.092914775 10321:0.15020849 10386:0.040171761 10734:0.15020849 #
