SVM-light Version V6.02
0 # kernel type
3 # kernel parameter -d 
1 # kernel parameter -g 
1 # kernel parameter -s 
1 # kernel parameter -r 
empty# kernel parameter -u 
21061 # highest feature index 
68 # number of training documents 
62 # number of support vectors plus 1 
0.56867989 # threshold b, each following line is a SV (starting with alpha*y)
-0.10281454945282195168054784062406 471:0.24969225 1770:0.158453 3657:0.158453 5256:0.23280045 8134:0.16343278 8248:0.38444656 10018:0.25889927 11748:-0.17793602 16043:0.23280045 18163:0.1123329 18672:0.17943384 18766:0.158453 19338:0.5131253 19713:0.19732149 19875:0.03277009 21053:0.36416721 #
-0.50629743189021592097986967928591 31:0.19268847 567:0.14603154 599:0.07805416 1068:0.083717696 2108:0.17204244 2485:0.19268847 2730:0.19268847 2844:0.15739387 5314:0.18720798 5317:0.17204244 5412:0.053126682 6328:0.090090923 6516:0.12209927 6870:0.22147387 6982:0.14603154 7227:-0.0080143064 8086:0.13674785 8934:0.12209927 9339:0.11610183 9427:0.13674785 9604:0.11610183 9608:0.19268847 9826:-0.0089935549 10646:0.023932278 11748:-0.29829508 12548:0.21176761 12575:0.10145324 12942:0.036465213 14163:0.19268847 14640:0.090090923 14678:0.15739387 14800:-0.071021341 15030:0.31478775 15397:0.14603154 15740:0.12209927 15989:0.15739387 16387:0.15739387 16447:0.12889859 16798:0.11610183 18163:0.03766337 18431:0.056522563 19705:0.034150299 19713:0.13231729 19957:0.070589207 20097:0.10145324 20132:0.13674785 20808:0.07295797 21021:0.11610183 21061:0.10145324 #
-0.064271780805491923738159698586969 283:0.12598097 448:0.081088983 776:0.061303686 1068:0.12260737 1420:0.16694443 2109:0.1152543 2138:0.030342866 2207:0.16694443 2419:0.1001359 2571:0.1001359 2611:0.16694443 3160:0.085396059 3168:-0.089206241 3426:0.016193008 3615:0.16694443 3831:0.12598097 4183:0.10693404 4745:0.039232388 4796:0.089409232 5029:0.0210786 5179:0.14109936 5285:0.14109936 5753:0.094388157 5862:0.16694443 6079:0.14109936 6184:0.16694443 6525:0.068543091 6917:0.16217797 7155:0.068543091 7536:0.041389596 7631:0.12260737 8116:0.12598097 8411:0.063564166 8545:0.065970585 8634:0.12598097 9826:-0.013171364 9997:0.14109936 10298:0.089409232 10728:0.065970585 11127:0.10693404 11155:0.024187611 11300:0.12260737 11308:0.063564166 11527:0.12598097 11708:0.16694443 11896:0.08501751 11905:0.034377776 11998:0.04546126 12035:0.040125523 12357:0.2002718 12575:0.074290842 12628:-0.011737221 12942:0.10680906 13091:0.16217797 13299:0.10693404 13590:0.07753519 13961:0.16694443 14182:0.12598097 14268:0.10693404 14521:0.089409232 14800:-0.36404595 15029:0.041389596 15897:0.14109936 15988:0.053424697 16291:0.063564166 16393:0.1152543 17275:0.14109936 18163:0.027579635 18735:0.12598097 18785:0.0049789245 19448:0.055243917 19820:0.16694443 20047:0.10693404 21055:0.081088983 #
-0.17392384937103394504376296936243 599:0.12259776 2312:0.15935014 3168:-0.07653717 3467:0.30265108 5029:0.045212541 5314:0.1470215 6562:0.15935014 8934:0.19177833 9339:0.18235831 9826:-0.014125958 11748:-0.37481982 12013:0.1470215 12548:0.11087274 13337:0.11087274 13368:0.22936818 13528:0.18235831 13568:0.18317027 14640:0.14150362 14800:-0.11155149 14982:0.20245788 15577:0.35808745 15947:0.2472147 16291:0.13634196 17058:0.30265108 17396:0.059156939 17691:0.13634196 18163:0.11831388 21059:0.16630912 #
-0.22884204329939328292908840012387 471:0.063804023 776:0.063804023 789:0.11995507 820:0.11129547 1329:0.17375344 1657:0.093055889 2370:0.13111924 2384:0.10422006 2549:0.084396288 3010:0.038063355 3168:-0.037137847 3193:0.10422006 3908:0.17375344 4474:0.13111924 4745:0.061248787 5176:0.17375344 5567:0.093055889 6153:0.13111924 6525:0.1426774 7105:0.055603687 7155:0.071338698 7855:0.071338698 7907:0.14685425 8116:0.13111924 8608:0.078515038 8612:0.088485047 8634:0.13111924 8954:0.037903324 9144:0.19647576 9318:0.09823788 10189:0.063804023 10594:0.26223847 10728:0.068661273 11748:-0.18187243 11905:0.035779912 12942:0.027791345 13086:0.26223847 13193:0.35986522 13205:-0.0154399 13568:0.044439513 14666:0.09823788 14800:-0.10825542 14870:0.14685425 15101:0.07421463 15606:0.13111924 15956:0.084396288 16043:0.059487656 16389:0.10422006 16408:0.1149942 16895:0.093055889 17691:0.1323134 18101:0.1323134 18163:0.028704502 18192:0.17375344 18624:0.2937085 18785:0.0051819952 19939:0.034686677 19994:-0.011711532 20808:0.11120737 20817:0.14685425 21055:0.084396288 #
0.99999999693693064628519096004311 78:0.33883464 144:0.33883464 173:0.022700286 439:0.33883464 642:0.12023269 1068:0.14721407 2144:0.09309613 2703:0.25679037 3426:0.019442866 3480:0.12839518 6007:0.13266221 7671:0.21470647 9670:0.20044936 9677:0.079210564 9722:0.085617155 9826:-0.0079073962 10018:0.15264237 10139:0.058168605 10146:0.16941732 11374:0.20044936 11624:0.24046539 12400:0.16941732 12628:-0.014092824 13224:0.10208011 14365:0.042574994 14473:0.13838527 15758:0.20044936 17113:0.13838527 17777:0.20044936 17787:0.20044936 18162:0.16941732 18199:0.09309613 19049:0.10208011 19875:0.0096603287 21056:0.09309613 #
0.99999999693693064628519096004311 1918:0.25153413 3474:0.21259354 3480:0.16111687 6346:0.15087415 6375:0.18981475 7146:0.25153413 7275:0.21259354 7633:0.17365293 8354:0.1168218 8954:0.02743537 9677:0.099397473 9826:-0.019845212 9962:0.18981475 10296:0.18981475 11054:0.15087415 11445:0.13471234 11639:0.086117297 12672:0.25153413 14800:-0.078357972 17719:0.25153413 18302:0.21259354 18785:0.0075017149 19000:0.21259354 19164:0.25153413 19697:0.28442812 19867:0.25153413 19875:0.018183414 20210:0.25153413 20214:0.12809536 21061:0.11193355 #
0.45568788307538504733784634481708 18431:0.48614943 19875:0.047250651 21061:0.87259734 #
0.13302426420092280934248663015751 18278:0.51770878 18431:0.41454256 19875:0.080581829 21061:0.74406898 #
0.99999999693693064628519096004311 8400:0.35270029 18725:0.75941449 19697:0.42936283 19875:0.018299369 21061:0.33794203 #
-0.52518999530498189365346206614049 434:0.25442606 12628:-0.026123511 13378:0.74313575 14473:0.51304251 21056:0.34513986 #
-0.41698669880575167656644453018089 1028:0.080376193 3937:0.1847259 4206:0.26028574 7671:0.1847259 8228:0.29152143 9103:0.16019328 9432:0.26028574 10385:0.22093342 11013:0.19501272 12078:0.29152143 14800:-0.1074493 16206:0.34491917 16831:0.23812366 16995:0.34491917 17018:0.22093342 18107:0.14732398 18278:0.10679552 18785:0.010286815 19585:0.29152143 21060:0.1847259 #
-0.35373617605397994489990765032417 1028:0.15075247 10897:0.64692563 11155:0.09372931 17016:0.64692563 17396:0.10687372 21060:0.34646934 #
-0.5686251574529918029199393458839 4346:0.30241182 5017:0.20408082 5226:0.24037187 6794:0.33870286 8354:0.18611984 8545:0.15835951 10212:0.1645347 14521:0.21462296 15001:0.4007428 15400:0.4007428 16063:0.14204088 17603:0.11629197 19987:0.4007428 21054:0.21462296 #
-0.46773926360453521589022329862928 173:0.071728289 4383:0.26905665 4745:0.074422911 5248:0.71620834 9826:-0.024985762 11905:0.13042764 12628:-0.022265229 12942:0.10130712 13544:0.29416484 17113:0.43726933 18163:0.10463583 18785:0.018889803 21056:0.29416484 #
0.99999999693693064628519096004311 60:0.078130484 138:0.034511689 162:0.034511689 283:0.026043495 332:0.034511689 340:0.058337707 367:0.022106007 391:0.025346085 397:0.034511689 434:0.011815706 448:0.016763169 469:0.026280684 471:0.012673043 502:0.05208699 546:0.022106007 554:0.034511689 599:0.011815706 629:0.13940348 680:0.034511689 681:0.034511689 692:0.055449538 776:0.038019128 793:0.034511689 814:0.058337707 835:0.034511689 882:0.023826016 924:0.034511689 1002:0.034511689 1068:0.012673043 1097:0.034511689 1127:0.034511689 1225:0.030715641 1275:0.022106007 1299:0.034511689 1403:0.034511689 1572:0.020700658 1647:0.034511689 1663:0.034511689 1668:0.034511689 1726:0.058337707 1811:0.034511689 1827:0.034511689 1878:0.026043495 1955:0.034511689 1975:0.034511689 2027:0.034511689 2056:0.022106007 2109:0.023826016 2123:0.029168854 2138:0.018817943 2171:0.026043495 2230:0.1227403 2254:0.034511689 2317:0.058337707 2381:0.034511689 2382:0.034511689 2549:0.10057902 2645:0.026043495 2660:0.034511689 2665:0.010343037 2681:0.034511689 2749:0.034511689 2775:0.034511689 2776:0.029168854 2805:0.034511689 2817:0.034511689 2837:0.029168854 2844:0.047652032 2845:0.026043495 3010:0.022680944 3024:0.096171066 3027:0.034511689 3043:0.034511689 3132:0.034511689 3167:0.034511689 3168:-0.0036882432 3203:0.034511689 3208:0.034511689 3284:0.034511689 3388:0.029168854 3402:0.034511689 3473:0.029168854 3485:0.034511689 3486:0.026043495 3496:0.044212013 3497:0.034511689 3523:0.1672291 3545:0.034511689 3546:0.010685674 3553:0.023826016 3579:0.034511689 3622:0.058337707 3687:0.034511689 3706:0.022106007 3729:0.034511689 3738:0.05208699 3774:0.058337707 3844:0.034511689 3900:0.034511689 3920:0.034511689 3937:0.036966357 3986:0.029168854 4058:0.034511689 4069:0.034511689 4120:0.034511689 4148:0.020700658 4189:0.029168854 4267:0.034511689 4270:0.026043495 4322:0.017575298 4327:0.026043495 4337:0.034511689 4349:0.034511689 4378:0.033526339 4517:0.034511689 4539:0.034511689 4574:0.029168854 4577:0.034511689 4599:0.017575298 4604:0.034511689 4613:0.082802631 4629:0.033526339 4683:0.034511689 4738:0.022106007 4745:0.02433102 4783:0.034511689 4826:0.058337707 4835:0.01602851 4853:0.034511689 4877:0.034511689 4904:0.058337707 4920:0.034511689 4923:0.029168854 4927:0.020700658 4977:0.029168854 4991:0.058337707 5005:0.026043495 5055:0.034511689 5085:0.034511689 5110:0.034511689 5130:0.034511689 5157:0.034511689 5210:0.0057014171 5235:0.044133883 5272:0.034511689 5421:0.013637811 5430:0.029168854 5444:0.034511689 5550:0.026043495 5551:0.034511689 5669:0.034511689 5693:0.095304064 5740:0.034511689 5765:0.034511689 5795:0.034511689 5832:0.023826016 5840:0.034511689 5874:0.029168854 5918:0.01951245 5951:0.034511689 5968:0.071478046 6065:0.034511689 6079:0.029168854 6102:0.029168854 6163:0.034511689 6173:0.034511689 6257:0.026043495 6269:0.034511689 6302:0.034511689 6309:0.014740844 6328:0.013637811 6337:0.022106007 6344:0.034511689 6353:0.022106007 6363:0.034511689 6368:0.034511689 6375:0.026043495 6402:0.095304064 6416:0.034511689 6450:0.029168854 6531:0.034511689 6638:0.034511689 6659:0.034511689 6729:0.029168854 6814:0.034511689 6870:0.033526339 6917:0.016763169 6979:0.058337707 7016:0.029168854 7093:0.034511689 7114:0.05208699 7169:0.022106007 7212:0.034511689 7227:-0.0012131922 7260:0.047652032 7293:0.034511689 7377:0.034511689 7378:0.029168854 7492:0.014740844 7506:0.071478046 7529:0.029168854 7536:0.025668869 7583:0.034511689 7641:0.039024901 7652:0.047652032 7658:0.058337707 7665:0.034511689 7675:0.034511689 7726:0.034511689 7761:0.034511689 7833:0.034511689 7855:0.0991873 7891:0.034511689 7908:0.034511689 8022:0.034511689 8046:0.058337707 8087:0.022106007 8134:0.0082949735 8145:0.05208699 8149:0.022106007 8189:0.026043495 8263:0.017575298 8301:0.034511689 8313:0.026043495 8320:0.034511689 8324:0.034511689 8334:0.034511689 8354:0.01602851 8370:0.022106007 8397:0.053428371 8405:0.020700658 8411:0.013140342 8440:0.01951245 8441:0.034511689 8490:0.034511689 8534:0.026043495 8595:0.034511689 8599:0.0093980068 8608:0.031190021 8643:0.034511689 8653:0.034511689 8661:0.034511689 8672:0.058337707 8676:0.034511689 8724:0.023826016 8733:0.040913433 8785:0.082802631 8797:0.029168854 8832:0.034511689 8863:0.01535782 8908:0.034511689 8909:0.026043495 8929:0.034511689 8954:0.022585588 8955:0.034511689 9017:0.032057021 9149:0.023631413 9150:0.034511689 9151:0.026043495 9196:0.047652032 9318:0.01951245 9336:0.055449538 9408:0.047652032 9448:0.034511689 9449:0.034511689 9475:0.034511689 9480:0.034511689 9496:0.034511689 9615:0.078130484 9622:0.023826016 9654:0.11053003 9682:0.062101971 9706:0.034511689 9804:0.034511689 9809:0.034511689 9816:0.034511689 9826:-0.010891433 9955:0.034511689 9958:0.034511689 9993:0.026043495 10018:0.013140342 10068:0.034511689 10090:0.034511689 10095:0.028339228 10112:0.034511689 10144:0.034511689 10181:0.034511689 10189:0.038019128 10212:0.014169614 10343:0.0093980068 10382:0.034511689 10385:0.044212013 10412:0.034511689 10416:0.026043495 10481:0.029168854 10502:0.034511689 10551:0.034511689 10618:0.058337707 10759:0.06631802 10775:0.034511689 10825:0.020700658 10886:0.032057021 10948:0.034511689 10967:0.034511689 10972:0.034511689 11112:0.014740844 11155:0.010000398 11191:0.034511689 11203:0.034511689 11208:0.029168854 11245:0.026043495 11246:0.029168854 11308:0.013140342 11363:0.034511689 11387:0.020700658 11445:0.018483179 11448:0.034511689 11526:0.034511689 11551:0.034511689 11572:0.034511689 11581:0.034511689 11621:0.034511689 11645:0.034511689 11671:0.06631802 11699:0.034511689 11748:-0.063217565 11761:0.058337707 11784:0.034511689 11804:0.022106007 11861:0.058337707 11870:0.034511689 11882:0.034511689 11905:0.014213535 11929:0.034511689 11937:0.014169614 11995:0.034511689 12012:0.026043495 12055:0.020700658 12095:0.095304064 12132:0.014740844 12189:0.034511689 12223:0.026043495 12241:0.034511689 12341:0.023826016 12413:0.026043495 12431:0.034511689 12452:0.034511689 12482:0.034511689 12486:0.034511689 12548:0.021371348 12575:0.061431281 12657:0.029168854 12671:0.034511689 12739:0.044222534 12769:0.055221271 12798:0.034511689 12807:0.034511689 12840:0.034511689 12844:0.034511689 12916:0.047652032 12942:0.005520042 12989:0.13658716 12995:0.034511689 13091:0.016763169 13098:0.034511689 13114:0.034511689 13177:0.034511689 13205:-0.058268107 13224:0.035150595 13269:0.059226971 13299:0.022106007 13316:0.029168854 13337:0.021371348 13429:0.014169614 13590:0.032057021 13633:0.014740844 13634:0.034511689 13677:0.026043495 13695:0.034511689 13720:0.06631802 13759:0.034511689 13765:0.055449538 13858:0.058337707 13895:0.013637811 13935:0.034511689 13940:0.018483179 13951:0.034511689 14122:0.034511689 14173:0.050289512 14174:0.09452565 14197:0.058337707 14217:0.034511689 14221:0.034511689 14263:0.023826016 14337:0.026043495 14365:0.0073302058 14398:0.01951245 14418:0.071478046 14466:0.034511689 14482:0.026043495 14483:0.034511689 14552:0.034511689 14592:-0.0035795325 14602:0.034511689 14615:0.023826016 14640:0.013637811 14666:0.01951245 14686:0.034511689 14721:0.034511689 14728:0.034511689 14765:0.034511689 14800:-0.15051526 14895:0.034511689 14908:0.034511689 14954:0.029168854 14982:0.039024901 15056:0.012232461 15113:0.05208699 15157:0.026043495 15164:0.058337707 15171:0.034511689 15178:0.034511689 15187:0.062101971 15223:0.058337707 15246:0.034511689 15250:0.026043495 15318:0.078130484 15377:0.034511689 15379:0.034511689 15380:0.034511689 15398:0.029168854 15406:0.026043495 15435:0.034511689 15487:0.028339228 15622:0.01602851 15643:0.029168854 15675:0.034511689 15719:0.058337707 15743:0.034511689 15762:0.034511689 15809:0.034511689 15831:0.029168854 15835:0.014740844 15871:0.034511689 15987:0.01951245 15988:0.011044255 16012:0.0073302058 16040:0.078130484 16045:0.034511689 16084:0.034511689 16144:0.034511689 16152:0.041401315 16238:0.034511689 16260:0.058337707 16285:0.013637811 16306:0.034511689 16336:0.020700658 16339:0.042508841 16364:0.026043495 16381:0.044212013 16432:0.013140342 16590:0.034511689 16602:0.01951245 16698:0.034511689 16755:0.034511689 16832:0.058337707 16837:0.034511689 16937:0.034511689 16976:0.13658716 17018:0.022106007 17103:0.034511689 17148:0.058337707 17317:0.034511689 17320:0.029168854 17425:0.026043495 17439:0.058337707 17444:0.034511689 17486:0.034511689 17504:0.058337707 17623:0.026043495 17652:0.041401315 17683:0.020700658 17795:0.026043495 17880:0.034511689 18001:0.01602851 18066:0.088424027 18128:0.034511689 18162:0.029168854 18199:0.032057021 18216:0.034511689 18250:0.033526339 18267:0.17003536 18278:0.010685674 18302:0.029168854 18336:0.034511689 18376:0.045681331 18515:0.034511689 18587:0.058337707 18594:0.034511689 18756:0.034511689 18764:0.095304064 18785:0.022643968 18862:0.034511689 18871:0.034511689 18874:0.05208699 18883:0.034511689 18915:0.034511689 18961:0.034511689 18999:0.034511689 19014:0.034511689 19112:0.0066784304 19198:0.034511689 19255:0.034511689 19313:0.034511689 19351:0.034511689 19367:0.058337707 19400:0.034511689 19448:0.034260999 19461:0.034511689 19682:0.029168854 19693:0.034511689 19701:0.034511689 19705:0.0051696142 19713:0.020029966 19859:0.022106007 19872:0.01951245 19875:0.0016632344 19879:0.034511689 19890:0.034511689 19899:0.12401323 19928:0.058337707 19947:0.020700658 19959:0.034511689 19994:-0.020935776 19997:0.034511689 20020:0.034511689 20045:0.034511689 20047:0.022106007 20051:0.010685674 20071:0.034511689 20090:0.029168854 20092:0.034511689 20095:0.020700658 20124:0.034511689 20132:0.041401315 20138:0.034511689 20145:0.034511689 20174:0.034511689 20193:0.026043495 20214:0.017575298 20227:0.034511689 20231:0.05208699 20250:0.078130484 20301:0.034511689 20378:0.034511689 20406:0.023826016 20496:0.018483179 20512:0.078130484 20569:0.090134852 20572:0.034511689 20574:0.034511689 20586:0.058337707 20611:0.022106007 20647:0.06631802 20708:0.023826016 20768:0.034511689 20789:0.097562253 20805:0.034511689 20806:0.022106007 20808:0.022088509 20817:0.029168854 20821:0.023826016 20831:0.0097003235 20850:0.0066784304 20893:0.034511689 20942:0.088424027 20944:0.034511689 20962:0.034511689 21018:0.022106007 21037:0.034511689 21039:0.058337707 21057:0.01951245 #
0.99999999693693064628519096004311 43:0.038974993 64:0.043650929 193:0.10819908 260:0.046614356 367:0.046614356 436:0.062167261 441:0.072773896 507:0.046614356 599:0.024915468 641:0.072773896 711:0.072773896 799:0.072773896 902:0.038974993 915:0.10139669 968:0.014527968 1044:0.054917231 1199:0.046614356 1698:0.037060566 1891:0.072773896 1945:0.072773896 2056:0.046614356 2118:0.024081755 2133:0.037060566 2138:0.013226967 2263:0.072773896 2291:0.12301519 2521:0.061507594 2571:0.087301858 2603:0.043650929 2665:0.021810088 2776:0.061507594 2938:0.046614356 3010:0.031884473 3168:-0.038886506 3217:0.046614356 3473:0.061507594 3657:0.033916865 3661:0.037060566 3705:0.046614356 3958:0.054917231 3963:0.038974993 4010:0.061507594 4253:0.037060566 4322:0.14824226 4327:0.054917231 4378:0.035348054 4678:0.054917231 4745:0.017102061 4927:0.043650929 4979:0.072773896 5029:0.009188517 5210:0.012022428 5235:0.037225582 5360:0.046614356 5386:0.061507594 5395:0.072773896 5412:0.033916865 5681:0.054917231 5684:0.13984306 5936:0.11692498 5968:0.050241295 6027:0.041145392 6112:0.043620177 6309:0.03108363 6328:0.057515386 6379:0.046614356 6457:0.087301858 6476:0.072773896 6525:0.089637272 6720:0.15589997 6798:0.046614356 6821:0.050241295 6838:0.050241295 6870:0.035348054 6889:0.070696108 7105:0.046577457 7227:-0.0025582265 7295:0.054917231 7369:0.072773896 7456:0.046614356 7492:0.03108363 7984:0.054917231 8134:0.017491393 8288:0.041145392 8411:0.055417389 8519:0.072773896 8534:0.10983446 8638:0.072773896 8785:0.043650929 8880:0.061507594 9149:0.074746408 9348:0.038974993 9368:0.0337989 9586:0.072773896 9604:0.037060566 9826:-0.0057416195 9855:0.051588535 10054:0.072773896 10139:0.021118332 10343:0.01981733 10570:0.029879091 10580:0.028757693 10604:0.072773896 10646:0.038196806 10914:0.13984306 11013:0.041145392 11043:0.050241295 11143:0.061507594 11155:0.010543788 11308:0.027708694 11315:0.054917231 11492:0.054917231 11745:0.043650929 11804:0.046614356 11905:0.014985853 11975:0.035348054 11998:0.09908665 12196:0.035348054 12260:0.061507594 12308:0.041145392 12380:0.072773896 12499:0.072773896 12732:0.025794268 12769:0.093154915 13064:0.072773896 13205:-0.0064667589 13337:0.045065198 13429:0.029879091 13445:0.072773896 13467:0.089637272 13518:0.072773896 13528:0.037060566 13534:0.061507594 13753:0.046614356 13811:0.072773896 13879:0.067597799 14126:0.072773896 14150:0.12301519 14365:0.015457012 14401:0.12629695 14402:0.035348054 14592:-0.0037740329 14628:0.054917231 14775:0.0337989 14800:-0.13602324 15101:0.03108363 15113:0.054917231 15136:0.072773896 15406:0.10983446 15487:0.089637272 15622:0.067597799 15633:0.086273074 15947:0.050241295 15956:0.035348054 15987:0.041145392 15988:0.023288729 15989:0.050241295 16114:0.10983446 16286:0.072773896 16291:0.027708694 16381:0.046614356 16447:0.041145392 16602:0.082290784 16606:0.072773896 16644:0.072773896 16739:0.050241295 16785:0.046614356 16890:0.072773896 17004:0.072773896 17113:0.050241295 17139:0.096327022 17271:0.041145392 17320:0.061507594 17321:0.072773896 17379:0.03108363 17396:0.036067285 17603:0.021118332 17704:0.072773896 17759:0.038974993 18025:0.072773896 18084:0.054917231 18088:0.072773896 18101:0.027708694 18239:0.061507594 18250:0.035348054 18261:0.12301519 18270:0.072773896 18278:0.1577282 18364:0.041145392 18376:0.024081755 18431:0.036084846 18672:0.019203905 18766:0.033916865 18822:0.072773896 18970:0.072773896 19112:0.02816526 19358:0.16475169 19551:0.046614356 19564:0.072773896 19702:0.041145392 19705:0.02180206 19875:0.005260828 19884:0.072773896 19939:0.029055936 19994:-0.0049051908 20028:0.046614356 20048:0.10983446 20051:0.31545639 20095:0.043650929 20231:0.054917231 20305:0.072773896 20379:0.037060566 20446:0.14449054 20611:0.046614356 20625:0.064769261 20634:0.12301519 20808:0.046577457 20831:0.020454817 21018:0.046614356 21059:0.0337989 #
0.99999999693693064628519096004311 5235:0.29026654 6889:0.55125302 13528:0.57795966 21059:0.52709395 #
0.99999999693693064628519096004311 902:0.42731455 8486:0.67435777 19875:0.019226246 20097:0.35505906 20569:0.23153743 21054:0.42731455 #
0.99999999693693064628519096004311 2384:0.24857228 3553:0.2861014 4253:0.4220863 10669:0.24857228 11745:0.24857228 13467:0.1701479 14401:0.10274342 14775:0.19246942 14800:-0.12909846 17224:0.31272876 17603:0.12025933 17898:0.41441438 18278:0.12831295 19619:0.35025787 19705:0.062076427 19875:0.019972023 21061:0.1844158 #
-0.822767521512782096237970108632 64:0.081047222 260:0.086549446 436:0.05771336 469:0.051447075 915:0.12550966 1199:0.086549446 2312:0.12025788 2384:0.081047222 2938:0.086549446 3474:0.11420191 3657:0.062973857 3661:0.068810813 3963:0.072365351 4629:0.13126235 4739:0.18656726 5210:0.022322191 5340:0.13512018 5346:0.13512018 5369:0.13512018 5865:0.18656726 6112:0.04049506 6223:0.046260856 6328:0.053394761 6438:0.081047222 6720:0.072365351 6889:0.32815585 7227:-0.0047498904 7643:0.11420191 8134:0.032476485 8263:0.27524325 9149:0.092521712 9348:0.072365351 9826:-0.010660536 10139:0.039210666 10171:0.13512018 10189:0.049617503 10343:0.11038525 10441:0.086549446 10531:0.019576782 10580:0.053394761 10712:0.30589649 10886:0.12550966 11411:0.13512018 11745:0.081047222 11804:0.086549446 11936:0.013640322 12575:0.12025788 13104:0.072365351 13205:-0.012006911 13528:0.20643245 13633:0.05771336 13753:0.086549446 14401:0.10049877 14444:0.13512018 14592:-0.028029174 14800:-0.16837068 15487:0.055476878 15498:0.13512018 15977:0.076395154 16285:0.053394761 16602:0.076395154 16727:0.13512018 16785:0.086549446 17054:0.13512018 17139:0.17885157 17259:0.11420191 18376:0.044712894 18431:0.033499587 18672:0.035656128 18706:0.13512018 18766:0.031486928 18814:0.13512018 18874:0.1019655 19994:-0.0091075283 20051:0.12550966 20625:0.12025788 21059:0.062754832 #
-0.2828031015447378115901244655106 902:0.34156245 3657:0.14861745 5256:0.21834996 6948:0.32478514 8954:0.069562241 9855:0.22605143 10018:0.24282877 10139:0.18507326 13269:0.064381942 14800:-0.39735249 15029:0.15811713 18766:0.29723489 19859:0.40851101 21053:0.34156245 #
-0.41331875633707831907415197747468 193:0.045295507 296:0.21325794 507:0.13659956 536:0.21325794 749:0.21325794 968:0.042573024 2600:0.21325794 4378:0.10358459 4758:0.21325794 6112:0.063912682 6871:0.21325794 7251:0.21325794 7750:0.21325794 9440:0.21325794 10520:0.21325794 12000:0.21325794 12057:0.21325794 13668:0.21325794 13984:0.21325794 14273:0.21325794 14401:0.052871846 14800:-0.06643416 16948:0.21325794 17027:0.21325794 17759:0.11421303 18196:0.21325794 19551:0.13659956 19935:0.21325794 20051:0.066029944 20697:0.21325794 21059:0.099044912 #
-0.25449836125118591168003945313103 193:0.046180714 507:0.1392691 776:0.079840891 968:0.043405022 1194:0.21742561 1353:0.21742561 1889:0.34367594 2138:0.03951804 2312:0.09675514 2521:0.18376544 3168:-0.023236142 3426:0.021089502 4160:0.10560893 4378:0.10560893 5029:0.027452413 6112:0.065161712 6773:0.16407549 6913:0.21742561 7504:0.11644508 7536:0.053905111 7984:0.16407549 8608:0.049124729 9149:0.074439622 9855:0.1541304 10095:0.17853874 10580:0.085918985 11692:0.21742561 11852:0.21742561 12035:0.10451761 12894:0.16407549 14337:0.16407549 14380:0.21742561 14401:0.053905111 14592:-0.01127563 14800:-0.2709299 15487:0.08926937 15633:0.085918985 15987:0.12292955 16739:0.15010525 17018:0.1392691 17759:0.11644508 19112:0.04207449 19551:0.1392691 19745:0.21742561 19819:0.16407549 19939:0.13021506 20051:0.067320354 21059:0.10098054 #
-0.27051005223116880715750198760361 193:0.071207292 507:0.21474279 968:0.066927381 2024:0.33525443 4378:0.16284126 4863:0.1895484 6112:0.10047462 9826:-0.013225233 11138:0.5059849 11748:-0.087729976 14401:0.083117753 14800:-0.20887709 17471:0.33525443 17759:0.17954983 18011:0.28335291 18316:0.33525443 19551:0.21474279 20051:0.10380308 20412:0.16284126 21059:0.15570462 #
0.99999999693693064628519096004311 173:0.04326611 2799:0.28830636 6591:0.12642522 7671:0.40922454 8510:0.18557143 9484:0.28830636 11584:0.3820509 11620:0.22916016 12132:0.16318391 12628:-0.013430265 12894:0.28830636 13568:0.097714074 14635:0.3820509 15889:0.32290468 18278:0.11829241 19875:0.018412318 21056:0.17743863 #
0.99999999693693064628519096004311 391:0.21068189 451:0.48491505 599:0.19642918 5017:0.29217899 6525:0.2355615 8399:0.19642918 8954:0.062578686 10135:0.48491505 10531:0.083125375 10669:0.34413627 11155:0.083125375 19875:0.027650297 20097:0.25531474 21061:0.25531474 #
0.99999999693693064628519096004311 1052:0.56443733 3621:0.28744331 8109:0.16915995 8397:0.17476377 10531:0.081778057 10646:0.059251204 14800:-0.17583364 17603:0.16379465 18431:0.13993777 19705:0.084548838 19875:0.013601067 20097:0.25117654 20996:0.56443733 21061:0.25117654 #
-0.31753711914520810211115531274118 420:0.069241643 467:0.069241643 544:0.08476866 642:0.060158927 768:0.069241643 787:0.017774599 898:0.08476866 923:0.08476866 928:0.08476866 1218:0.016594522 1255:0.08476866 1381:0.08476866 1421:0.08476866 1698:0.10215241 1770:0.011685903 2240:0.050147835 2350:0.08476866 2552:0.08476866 2594:0.08476866 2634:0.08476866 2665:0.015029135 2845:0.075685941 3160:0.038477723 3168:-0.0053592683 3187:0.08476866 3311:0.075685941 3324:0.08476866 3503:0.069241643 3546:0.015527012 3593:0.04238433 3657:0.011685903 3698:0.08476866 3701:0.050147835 4076:0.08476866 4080:0.08476866 4180:0.097432107 4185:0.032121532 4197:0.08476866 4227:0.08476866 4353:0.08476866 4383:0.04260515 4560:0.050147835 4572:0.08476866 4624:0.018414794 4811:0.024865743 4946:0.08476866 5187:0.026857316 5210:0.016569095 5235:0.012825907 5378:0.08476866 5550:0.03784297 5677:0.08476866 5681:0.075685941 5999:0.08476866 6136:0.026857316 6283:0.08476866 6440:0.063802086 6556:0.08476866 6760:0.08476866 6925:0.12031785 7112:0.08476866 7227:-0.095193945 7280:0.069241643 7394:0.018414794 7456:0.032121532 7572:0.08476866 7621:0.08476866 7752:0.08476866 8020:0.11157979 8070:0.08476866 8200:0.08476866 8302:0.069241643 8460:0.069241643 8518:0.08476866 8706:0.08476866 8865:0.069241643 8906:0.08476866 8932:0.08476866 9151:0.075685941 9181:0.08476866 9993:0.075685941 10142:0.060158927 10149:0.08476866 10370:0.10742927 10397:0.075685941 10603:0.08476866 10638:0.012825907 10646:0.0052642152 10825:0.030079463 10980:0.08476866 11047:0.017169025 11155:0.0072656297 11339:0.08476866 11355:0.018414794 11464:0.018414794 11640:0.08476866 11671:0.032121532 11685:0.08476866 11700:0.08476866 11860:0.069241643 11896:0.025538104 11914:0.069241643 11936:0.010124803 11979:0.075685941 12055:0.030079463 12148:0.069241643 12171:0.08476866 12447:0.08476866 12521:0.069241643 12652:0.069241643 12690:0.028352918 12822:0.08476866 12849:0.08476866 12866:0.08476866 13204:0.08476866 13205:-0.013368556 13490:0.069241643 13521:0.08476866 13575:0.075685941 13623:0.08476866 13870:0.08476866 13945:0.030079463 13977:0.08476866 14101:0.08476866 14181:0.069241643 14377:0.08476866 14395:0.08476866 14461:0.08476866 14467:0.075685941 14524:0.08476866 14579:0.08476866 14592:-0.16904239 14633:0.08476866 14783:0.069241643 14788:0.08476866 14800:-0.031244129 14872:0.08476866 14991:0.08476866 15092:0.060158927 15513:0.075685941 15597:0.08476866 15763:0.08476866 15872:0.064243063 15903:0.08476866 15988:0.016048053 16012:0.010651288 16291:0.038187623 16364:0.075685941 16513:0.051076207 16598:0.08476866 16788:0.017774599 16906:0.026857316 16941:0.050147835 17180:0.08476866 17205:0.08476866 17325:0.1397431 17652:0.060158927 17741:0.08476866 17995:0.023290517 18320:0.08476866 18672:0.013233238 18758:0.08476866 18766:0.011685903 18777:0.08476866 18813:0.020589413 18866:0.024358027 18892:0.08476866 19037:0.08476866 19041:0.1611439 19114:0.069241643 19226:0.050147835 19331:0.032121532 19441:0.069241643 19471:0.08476866 19519:0.1611439 19671:0.08476866 19789:0.08476866 19873:0.025538104 19953:0.08476866 19957:0.023290517 19994:-0.010140369 20029:0.08476866 20041:0.050147835 20182:0.069241643 20481:0.012825907 20491:0.022315959 20497:0.08476866 20799:0.069241643 20850:0.019408427 21017:0.08476866 21058:0.026857316 #
-0.37189622945664646547214715610608 305:0.065512992 594:0.13102598 760:0.1394805 787:0.027474003 1218:0.02564997 1380:0.13102598 1752:0.077512965 2157:0.16605225 2393:0.077512965 2463:0.1754804 2665:0.02323037 2834:0.13102598 3168:-0.0082837632 3546:0.023999933 3657:0.018062772 4260:0.077512965 4624:0.028463546 4811:0.038434707 5031:0.077512965 5048:0.13102598 5187:0.041513063 5210:0.025610669 5235:0.019824864 5314:0.031824831 5322:0.1754804 5601:0.13102598 5754:0.077512965 5771:0.077512965 6136:0.041513063 6440:0.042264938 6742:0.1754804 7168:0.065512992 7394:0.028463546 7588:0.44554764 7673:0.077512965 8020:0.034493532 8086:0.0464935 8354:0.1079997 8397:0.14399959 8733:0.12252162 8934:0.12453919 9017:0.1079997 9164:0.077512965 9266:0.077512965 10095:0.095474496 10131:0.034493532 10212:0.095474496 10279:0.077512965 10638:0.019824864 11047:0.026537975 11116:0.13102598 11355:0.028463546 11415:0.089974262 11445:0.041513063 11464:0.028463546 11806:0.13102598 11936:0.015649797 12690:0.043824796 13116:0.13102598 13205:-0.020663632 13332:0.13102598 13505:0.13102598 13765:0.12453919 13945:0.0464935 14515:0.077512965 14620:0.13102598 14800:-0.04829371 15398:0.065512992 16012:0.01646358 16692:0.15059975 16788:0.027474003 16906:0.041513063 17514:0.13102598 17995:0.035999898 17998:0.077512965 18199:0.035999898 18478:0.13102598 18672:0.020454472 18762:0.13102598 18766:0.018062772 18813:0.031824831 18866:0.037649937 19003:0.1754804 19873:0.039473969 19945:0.077512965 19994:-0.015673857 20214:0.15789588 20467:0.077512965 20481:0.019824864 20491:0.034493532 20496:0.29059145 20850:0.029999394 21021:0.039473969 21058:0.041513063 #
-0.23032692571189444796786460756266 184:0.17341439 768:0.1416502 787:0.036362156 929:0.086707197 1218:0.033948027 1377:0.05494301 1864:0.10258929 2118:0.067896053 2133:0.052244246 2168:0.10258929 2243:0.10258929 2571:0.12306935 2590:0.10258929 2665:0.061491318 2999:0.10258929 3168:-0.010963654 3282:0.10258929 3426:0.049753956 3546:0.031764183 3657:0.023906285 3994:0.045652583 4180:0.09966024 4342:0.10258929 4361:0.0708251 4624:0.037671827 4811:0.050868772 4844:0.10258929 5029:0.025906088 5114:0.10258929 5187:0.05494301 5209:0.10258929 5210:0.03389601 5235:0.026238434 5320:0.10258929 5625:0.2322503 5928:0.17341439 6136:0.05494301 6257:0.077416763 6328:0.040539689 6440:0.055938128 6948:0.10448849 7155:0.16848211 7227:-0.025244305 7394:0.037671827 7431:0.1416502 7624:0.2322503 7639:0.0708251 8020:0.045652583 8109:0.030745659 8134:0.0246576 8302:0.1416502 8346:0.086707197 8399:0.035123311 8510:0.04983012 8865:0.1416502 9149:0.070246622 9339:0.10448849 9826:-0.004046978 10638:0.026238434 11047:0.035123311 11155:0.014863568 11355:0.037671827 11464:0.037671827 11663:0.10258929 11741:0.10258929 11748:-0.053691491 11860:0.1416502 11936:0.020712685 12012:0.077416763 12035:0.049315199 12148:0.1416502 12208:0.047646277 12471:0.10258929 12690:0.058002617 12739:0.087637126 12786:0.10258929 12894:0.077416763 13104:0.05494301 13205:-0.027348552 13490:0.1416502 13602:0.1416502 13895:0.040539689 13945:0.061534673 14174:0.035123311 14181:0.1416502 14398:0.058002617 14592:-0.042562004 14800:-0.063917272 15029:0.025434386 15718:0.10258929 15829:0.17341439 16012:0.021789733 16123:0.10448849 16339:0.084241055 16788:0.036362156 16812:0.065712214 16906:0.05494301 17041:0.10258929 17325:0.095292553 17396:0.016948005 17425:0.077416763 17703:0.10258929 17995:0.047646277 18001:0.047646277 18339:0.086707197 18431:0.050868772 18672:0.027071726 18766:0.023906285 18813:0.042120527 18866:0.04983012 19041:0.10988602 19112:0.019852269 19114:0.1416502 19465:0.17341439 19519:0.10988602 19576:0.10258929 19629:0.10258929 19873:0.052244246 19994:-0.020744529 20131:0.17341439 20222:0.10258929 20341:0.0708251 20481:0.026238434 20491:0.045652583 20850:0.039704539 21058:0.05494301 #
-0.34578273537216641653202486850205 3010:0.086258955 4383:0.083633542 5336:0.33280027 7139:0.18287633 7227:-0.013841843 8399:0.13481058 10139:0.11426535 11155:0.057049472 11748:-0.10303957 12133:0.39375907 13188:0.25221717 13633:0.16818477 15029:0.097622477 15418:0.11426535 16291:0.14992395 16858:0.39375907 17396:0.065049976 17603:0.22853069 18130:0.2718415 20024:0.39375907 21052:0.25221717 #
-0.34287997553537202799489591598103 173:0.017912034 193:0.067189001 434:0.054151651 582:0.073459037 699:0.084708832 849:0.056061648 1149:0.076825991 2665:0.047402371 3168:-0.050709911 3805:0.13368152 4044:0.080547988 4687:0.10131234 4719:0.084708832 5029:0.039940923 6379:0.10131234 6591:0.10467929 8536:0.15816787 8745:0.089426011 8824:0.15816787 8863:0.07038524 8902:0.052259453 9642:0.15816787 11624:0.094871588 11748:-0.082779296 11878:0.13368152 11937:0.19481899 12628:-0.055600874 12877:0.11935793 13269:0.031933948 13790:0.26736304 14800:-0.049272489 15418:0.091797791 15487:0.12987933 16285:0.1250048 16408:0.052339647 16720:0.13368152 16963:0.076825991 17398:0.13368152 17497:0.10131234 17885:0.094871588 18592:0.72493196 19875:0.0038113208 19899:0.031575304 19939:0.031575304 19947:0.094871588 21056:0.073459037 #
-0.36363641451253503333873595693149 4322:0.43718886 8608:0.38792884 14418:0.5926767 14800:-0.2674354 21057:0.48537591 #
-0.34612337466036025013238486280898 502:0.27605343 1673:0.17768471 3426:0.035482626 4768:0.16989754 4835:0.16989754 4977:0.30918133 6570:0.25254881 8545:0.14455681 10584:0.27605343 10646:0.038400915 12197:0.36581385 12916:0.25254881 14509:0.36581385 14800:-0.22791682 21000:0.39183259 21054:0.1959163 #
-0.29300600604008208982520500285318 18:0.087232843 91:0.16337433 166:0.11510365 337:0.076998375 471:0.05000928 599:0.046626132 876:0.076998375 1047:0.048270695 1246:0.10277062 1450:0.10277062 1770:0.031735551 2144:0.1265007 2150:0.13618709 2235:0.10277062 2295:0.13618709 2394:0.069354147 2603:0.081687167 2959:0.10277062 3077:0.24506152 3090:0.13618709 3114:0.11510365 3168:-0.014554231 3426:0.013209658 3642:0.10277062 3657:0.031735551 4074:0.093252264 4422:0.11510365 4599:0.13870829 4835:0.063250348 5256:0.046626132 5355:0.10277062 6303:0.058169063 6524:0.094020195 7340:0.087232843 7492:0.058169063 7784:0.18804039 7978:0.066149391 8134:0.065465838 8248:0.076998375 8348:0.16337433 8405:0.081687167 8440:0.076998375 8494:0.10763273 8599:0.037085615 9677:0.10763273 9682:0.081687167 9722:0.11633813 9826:-0.0053723557 10018:0.051853299 10077:0.11510365 10131:0.060603723 10212:0.055914924 10217:0.094020195 10343:0.037085615 10881:0.11510365 10923:0.10277062 11112:0.058169063 11150:0.094020195 11748:-0.10691304 11905:0.028044119 11975:0.13229878 12172:0.10277062 12641:0.11510365 13429:0.055914924 13573:0.10277062 13590:0.063250348 14289:0.27741659 14365:0.028925834 14553:0.13229878 15050:0.076998375 15494:0.11510365 15622:0.1265007 16035:0.13618709 16043:0.046626132 16831:0.094020195 17332:0.18975104 18084:0.10277062 18107:0.23267625 18163:0.022498447 18375:0.24506152 18672:0.035937667 18766:0.031735551 19875:0.0032816571 19939:0.027187247 19957:0.021083448 20418:0.13618709 20708:0.094020195 20831:0.038278591 21018:0.087232843 21053:0.072936751 #
-0.25251636318320402896375753698521 1068:0.083489947 1218:0.075237103 1875:0.12854794 2118:0.075237103 2645:0.17157441 3237:0.17157441 3546:0.070397168 3737:0.22736286 4074:0.077841818 4624:0.083489947 4719:0.1217671 4745:0.026715441 5210:0.03756091 5235:0.058150765 5621:0.093349345 5865:0.15696569 5967:0.10559576 7394:0.083489947 7671:0.1217671 8286:0.089845836 8510:0.11043569 8599:0.061914027 8722:0.11630153 9370:0.38432854 9513:0.12854794 9826:-0.008969089 9849:0.10559576 9853:0.22736286 10018:0.086568512 10638:0.11630153 11047:0.077841818 11355:0.083489947 11464:0.083489947 11905:0.046819348 11936:0.045904353 12349:0.13637583 12769:0.072759494 12942:0.036366012 13205:-0.060611054 13835:0.1217671 14174:0.077841818 14365:0.048291359 14800:-0.2833125 15342:0.11578598 16012:0.048291359 16788:0.080587395 17018:0.14563428 17221:0.22736286 18199:0.10559576 18250:0.11043569 18376:0.075237103 18442:0.38432854 19994:-0.045974929 20214:0.11578598 20481:0.058150765 20850:0.043997467 21058:0.1217671 #
-0.14685796598690892267313756747171 18:0.056686956 28:0.088499144 261:0.085972384 469:0.033696089 471:0.032497782 599:0.030299293 629:0.097493343 692:0.14219056 789:0.12219523 876:0.050036237 1047:0.031367987 1218:0.029285429 1377:0.047396854 1450:0.06678395 1471:0.088499144 1770:0.12373723 1809:0.074798375 1875:0.050036237 2045:0.1335679 2118:0.029285429 2144:0.04110229 2230:0.034971759 2235:0.06678395 2394:0.2704125 2601:0.14959675 2603:0.053083185 2665:0.026522892 2959:0.06678395 3523:0.017867897 3546:0.027401526 3605:0.053083185 3642:0.06678395 3657:0.020622872 4038:0.17006087 4074:0.030299293 4176:0.088499144 4206:0.06678395 4383:0.037594039 4574:0.074798375 4599:0.045068752 4624:0.032497782 4629:0.042986192 4677:0.088499144 4745:0.010398768 4835:0.04110229 4903:0.088499144 5210:0.014620279 5235:0.022634711 5243:0.056686956 5256:0.09089788 5621:0.036335476 5871:0.088499144 5967:0.04110229 6303:0.037800293 6524:0.061097614 6698:0.074798375 7144:0.088499144 7394:0.032497782 7505:0.074798375 7978:0.30090335 8134:0.021270996 8248:0.050036237 8286:0.034971759 8348:0.10616637 8397:0.027401526 8599:0.048199061 8722:0.045269422 9037:0.088499144 9336:0.047396854 9513:0.050036237 9677:0.034971759 9722:0.037800293 9849:0.04110229 10018:0.033696089 10131:0.078764841 10212:0.036335476 10343:0.072298594 10376:0.10616637 10385:0.056686956 10638:0.045269422 10646:0.0092901029 10870:0.11340088 10886:0.04110229 10923:0.06678395 10956:0.074798375 11047:0.030299293 11112:0.037800293 11143:0.074798375 11155:0.025644258 11355:0.032497782 11415:0.025681658 11464:0.032497782 11639:0.030299293 11748:-0.069475837 11905:0.018224051 11936:0.017867897 11975:0.085972384 12172:0.06678395 12308:0.050036237 12349:0.053083185 12704:0.061097614 12878:0.050036237 12942:0.028310349 13007:0.30021742 13091:0.042986192 13105:0.088499144 13192:0.088499144 13205:-0.02359236 13429:0.036335476 13573:0.06678395 13835:0.047396854 14015:0.088499144 14174:0.060598586 14365:0.037594039 14381:0.088499144 14553:0.085972384 14592:-0.01835816 14601:0.088499144 14755:0.12219523 14800:-0.082707815 15156:0.1335679 15342:0.045068752 15622:0.08220458 15854:0.088499144 15977:0.050036237 16012:0.018797019 16043:0.060598586 16046:0.047396854 16054:0.088499144 16513:0.2704125 16788:0.031367987 17096:0.045068752 17332:0.08220458 17739:0.088499144 17840:0.088499144 18107:0.075600587 18163:0.043860838 18376:0.029285429 18431:0.043882191 18672:0.023353554 18766:0.020622872 18785:0.015836308 19740:0.088499144 19875:0.0021325357 19883:0.12219523 19897:0.034971759 19994:-0.017895367 20113:0.14959675 20350:0.088499144 20379:0.045068752 20480:0.06678395 20481:0.045269422 20831:0.024874769 20850:0.017125655 20942:0.056686956 21018:0.056686956 21053:0.047396854 #
-0.30509604774115328673644853552105 1028:0.071328387 1326:0.10128959 2723:0.30609223 4102:0.30609223 4206:0.23098582 5215:0.23098582 5328:0.30609223 7641:0.17306046 8235:0.5174107 8543:0.16393162 11445:0.16393162 14544:0.30609223 14800:-0.095353916 16517:0.14867646 19478:0.30609223 21060:0.16393162 #
-0.2129980036913040331025825935285 50:0.13213731 185:0.10727844 193:0.022785699 407:0.068715781 469:0.040846314 546:0.068715781 755:0.057454344 849:0.038024195 968:0.064248495 1218:0.035499722 1222:0.10727844 1276:0.074062377 1326:0.035499722 1413:0.080955327 1657:0.057454344 1703:0.080955327 2380:0.074062377 2473:0.080955327 2648:0.057454344 2665:0.06430196 3024:0.049824089 3078:0.064347297 3160:0.027437739 3168:-0.01146478 3286:0.080955327 3366:0.064347297 3532:0.060653798 3538:0.091642842 3605:0.064347297 3777:0.080955327 3919:0.15632325 4127:0.080955327 4437:0.060653798 4738:0.068715781 4745:0.025210721 4768:0.049824089 4796:0.057454344 4863:0.1213076 5017:0.054632224 5187:0.057454344 5210:0.035445329 5412:0.049997985 5421:0.042392679 5965:0.10727844 6007:0.035499722 6112:0.03215098 6346:0.064347297 6438:0.064347297 6440:0.038996629 6525:0.088091537 6543:0.074062377 6560:0.074062377 6632:0.074062377 6703:0.090670407 7097:0.090670407 7105:0.034330696 7194:0.068715781 7224:0.064347297 7375:0.10727844 7419:0.1432178 7875:0.080955327 8109:0.096452944 8114:0.074062377 8288:0.060653798 8440:0.060653798 8494:0.042392679 8599:0.029213389 8608:0.024238285 8671:0.074062377 8685:0.068715781 8733:0.042392679 8863:0.047739271 8895:0.074062377 8954:0.01170109 9144:0.060653798 9238:0.068715781 9318:0.060653798 10114:0.10727844 10272:0.10727844 10324:0.068715781 10441:0.068715781 10475:0.074062377 10477:0.090670407 10531:0.015542951 10580:0.042392679 10638:0.027437739 10646:0.011261439 10963:0.11490869 11043:0.074062377 11047:0.036728725 11062:0.074062377 11081:0.090670407 11098:0.068715781 11308:0.040846314 11620:0.064347297 11639:0.07345745 11748:-0.05614562 11797:0.080955327 11936:0.021659419 11998:0.029213389 12132:0.045821421 12208:0.049824089 12661:0.054632224 12739:0.045821421 12987:0.068715781 13205:-0.038131464 13211:0.080955327 13218:0.018353235 13276:0.068715781 13429:0.088091537 13556:0.074062377 13633:0.045821421 13818:0.090670407 13895:0.042392679 14016:0.1213076 14263:0.074062377 14800:-0.23393582 15023:0.090670407 15056:0.038024195 15213:0.22218712 15489:0.10727844 15508:0.042392679 15580:0.080955327 15848:0.074062377 15923:0.10926445 16012:0.045571398 16048:0.049824089 16063:0.038024195 16123:0.054632224 16152:0.064347297 16247:0.10727844 16266:0.068715781 16393:0.074062377 16408:0.035499722 16454:0.080955327 16603:0.068715781 16724:0.10727844 17154:0.080955327 17478:0.052107751 17494:0.10727844 17571:0.10727844 17642:0.12869459 17683:0.064347297 17740:0.080955327 17752:0.042392679 17759:0.057454344 17851:0.060653798 17995:0.049824089 18101:0.081692629 18163:0.017722664 18821:0.10727844 18866:0.052107751 18880:0.074062377 19112:0.020759676 19285:0.11490869 19366:0.060653798 19374:0.080955327 19413:0.11490869 19589:0.090670407 19621:0.078787453 19697:0.060653798 19872:0.1213076 19875:0.0025850544 19899:0.021416165 19994:-0.028923625 20038:0.080955327 20341:0.074062377 20376:0.074062377 20379:0.054632224 20481:0.082313217 20491:0.047739271 20550:0.080955327 20647:0.068715781 21045:0.080955327 21055:0.052107751 #
-0.17732806132627851325445078600751 18:0.036578365 43:0.030583743 50:0.023446174 205:0.057105798 407:0.073156729 469:0.021743059 546:0.036578365 760:0.03425296 787:0.040481612 849:0.040481612 968:0.034200363 1028:0.21291697 1068:0.020969829 1163:0.048265114 1218:0.018896995 1276:0.039424427 1326:0.018896995 1364:0.064573713 1470:0.057105798 1519:0.086187288 1672:0.048265114 1989:0.057105798 2056:0.036578365 2225:0.12928092 2380:0.039424427 2432:0.12928092 2571:0.03425296 2603:0.03425296 2648:0.030583743 2665:0.034228828 2739:0.057105798 2765:0.043093644 2777:0.048265114 2797:0.057105798 2964:0.048265114 3078:0.03425296 3160:0.029210977 3168:-0.012205724 3311:0.043093644 3361:0.057105798 3408:0.057105798 3496:0.036578365 3532:0.032286856 3538:0.024391377 3546:0.035362739 3586:0.057105798 3600:0.057105798 3657:0.013307311 3706:0.073156729 3958:0.043093644 4074:0.03910242 4109:0.073156729 4202:0.048265114 4270:0.043093644 4410:0.057105798 4437:0.032286856 4480:0.048265114 4597:0.057105798 4624:0.020969829 4768:0.026522053 4772:0.057105798 4796:0.061167486 4811:0.056631681 4927:0.03425296 5140:0.048265114 5187:0.030583743 5202:0.34788895 5210:0.02830206 5215:0.043093644 5235:0.014605489 5412:0.039921932 5421:0.02256621 5437:0.057105798 5465:0.057105798 5542:0.057105798 5925:0.057105798 5931:0.057105798 6007:0.03779399 6054:0.057105798 6070:0.057105798 6136:0.061167486 6220:0.03425296 6438:0.03425296 6440:0.072654568 6543:0.039424427 6560:0.039424427 6593:0.057105798 6632:0.039424427 6687:0.14631346 6698:0.048265114 6761:0.057105798 6864:0.057105798 6956:0.057105798 6959:0.043093644 7176:0.057105798 7194:0.036578365 7223:0.096530229 7224:0.03425296 7295:0.043093644 7328:0.057105798 7394:0.020969829 7419:0.076236822 7595:0.048265114 7853:0.057105798 8020:0.050824549 8087:0.036578365 8114:0.039424427 8192:0.048265114 8288:0.032286856 8354:0.026522053 8370:0.036578365 8404:0.043093644 8405:0.03425296 8430:0.057105798 8482:0.057105798 8494:0.067698628 8599:0.015550693 8685:0.036578365 8733:0.045132421 8895:0.039424427 8993:0.057105798 9017:0.026522053 9103:0.053044107 9196:0.039424427 9198:0.048265114 9223:0.057105798 9238:0.073156729 9296:0.057105798 9342:0.057105798 9360:0.057105798 9366:0.12928092 10095:0.023446174 10212:0.046892349 10324:0.073156729 10343:0.031101385 10397:0.043093644 10475:0.039424427 10543:0.25412273 10580:0.02256621 10638:0.014605489 10689:0.057105798 10699:0.057105798 10728:0.02256621 10896:0.036578365 10963:0.061167486 11010:0.06850592 11047:0.01955121 11054:0.03425296 11098:0.036578365 11127:0.073156729 11199:0.057105798 11217:0.12928092 11302:0.057105798 11308:0.021743059 11355:0.020969829 11464:0.020969829 11505:0.057105798 11524:0.057105798 11620:0.03425296 11666:0.073156729 11748:-0.014943547 11905:0.011759425 11907:0.096530229 11908:0.057105798 11936:0.023059217 11998:0.015550693 12132:0.024391377 12196:0.027737679 12203:0.057105798 12208:0.026522053 12219:0.057105798 12223:0.043093644 12294:0.06850592 12308:0.032286856 12390:0.078848854 12424:0.096530229 12690:0.032286856 12724:0.057105798 12739:0.024391377 12777:0.096530229 12942:0.0091339024 12969:0.043093644 12987:0.036578365 13016:0.18565437 13138:0.03425296 13174:0.048265114 13193:0.039424427 13205:-0.030446861 13276:0.073156729 13370:0.057105798 13633:0.024391377 13720:0.036578365 13930:0.078848854 13945:0.03425296 13992:0.096530229 14016:0.032286856 14173:0.027737679 14174:0.01955121 14241:0.096530229 14482:0.043093644 14550:0.048265114 14563:0.057105798 14678:0.039424427 14800:-0.12452728 14870:0.048265114 15440:0.057105798 15821:0.057105798 15848:0.039424427 15872:0.036578365 15923:0.05816298 16012:0.036387429 16063:0.020240806 16123:0.02908149 16152:0.03425296 16266:0.036578365 16269:0.057105798 16287:0.057105798 16433:0.073156729 16517:0.083213039 16520:0.057105798 16633:0.057105798 16671:0.057105798 16768:0.057105798 16788:0.020240806 16891:0.057105798 16906:0.061167486 16958:0.057105798 17271:0.032286856 17459:0.057105798 17478:0.083213039 17636:0.048265114 17683:0.06850592 17752:0.045132421 17851:0.032286856 17896:0.043093644 17944:0.078848854 17979:0.057105798 17995:0.053044107 18005:0.057105798 18199:0.026522053 18242:0.057105798 18431:0.01415792 18461:0.057105798 18468:0.043093644 18536:0.057105798 18600:0.057105798 18655:0.043093644 18672:0.015069337 18766:0.026614621 18813:0.046892349 18866:0.027737679 18913:0.057105798 19262:0.057105798 19285:0.061167486 19326:0.057105798 19366:0.032286856 19413:0.061167486 19873:0.05816298 19875:0.0013760603 19994:-0.023094669 20048:0.043093644 20127:0.057105798 20132:0.03425296 20194:0.057105798 20214:0.02908149 20379:0.02908149 20440:0.057105798 20481:0.029210977 20491:0.025412275 20577:0.057105798 20850:0.022101328 20938:0.057105798 20957:0.030583743 21021:0.02908149 21058:0.030583743 #
-0.23180632353754468399920085630583 1673:0.15110336 3168:-0.033245854 4725:0.23475628 4898:0.1865959 5029:0.039278422 5412:0.072492704 6342:0.31108868 7139:0.14448114 8434:0.31108868 8902:0.051392622 11748:-0.16281247 12357:0.1865959 14375:0.23475628 14873:0.23475628 15140:0.26292831 15508:0.24586268 16285:0.12293134 16938:0.31108868 17379:0.1328741 17396:0.051392622 17533:0.31108868 20831:0.087438799 20868:0.31108868 21060:0.16660753 #
-0.19242855568269484622945242335845 105:0.045992523 173:0.010227688 787:0.06402187 820:0.057848867 1079:0.090313107 1326:0.029885693 1328:0.068152815 1377:0.048368346 1428:0.13630563 1536:0.090313107 1911:0.076331519 2095:0.068152815 2181:0.090313107 2366:0.062349934 2661:0.090313107 2703:0.057848867 3168:-0.028955119 3177:0.090313107 3193:0.054171227 3313:0.076331519 3426:0.017520092 3986:0.076331519 3996:0.068152815 4010:0.076331519 4115:0.13630563 4117:0.076331519 4638:0.090313107 4745:0.031835735 4778:0.15266304 4811:0.022390822 4835:0.041944761 4994:0.076331519 5029:0.011403039 5412:0.021045579 5451:0.090313107 5558:0.15266304 5716:0.076331519 5832:0.062349934 6366:0.076331519 6794:0.076331519 6796:0.068152815 7051:0.090313107 7053:0.090313107 7227:-0.0063495678 7411:0.076331519 7536:0.044781644 7943:0.12469987 8545:0.035688575 8722:0.023098655 8836:0.090313107 9139:0.15266304 9318:0.051061828 9842:0.15266304 9941:0.090313107 10095:0.037080243 10139:0.026208054 10205:0.090313107 10313:0.068152815 10320:0.076331519 10326:0.090313107 10728:0.071377151 10914:0.057848867 11155:0.065424718 11534:0.090313107 11585:0.24939974 11686:0.15266304 11748:-0.094533175 11785:0.051061828 11813:0.15266304 11905:0.092987947 11998:0.049186997 12035:0.043413974 12036:0.090313107 12055:0.054171227 12732:0.06402187 12829:0.076331519 13338:0.090313107 13390:0.090313107 13429:0.037080243 13568:0.023098655 13737:0.090313107 13808:0.090313107 14173:0.17546912 14640:0.035688575 14666:0.051061828 14706:0.090313107 14800:-0.1406718 14863:0.32502738 15140:0.076331519 15248:0.03316389 15550:0.062349934 15616:0.090313107 15956:0.087734558 16237:0.090313107 16432:0.034386758 16831:0.062349934 16934:0.090313107 17377:0.076331519 17610:0.090313107 17691:0.034386758 17845:0.12469987 17888:0.090313107 17896:0.068152815 18364:0.10212366 18907:0.068152815 18976:0.090313107 19040:0.076331519 19112:0.01747668 19172:0.057848867 19330:0.19347338 19397:0.12469987 19430:0.051061828 19448:0.059771385 19698:0.090313107 19713:0.026208054 19939:0.018029349 19957:0.069907933 20406:0.062349934 20808:0.028901538 20957:0.19347338 21057:0.051061828 #
-0.22034964705676843288451038915809 43:0.061891835 283:0.087207921 778:0.087207921 968:0.023070244 1041:0.065338403 1047:0.040960997 1447:0.07978259 1500:0.074023053 1728:0.19534668 1878:0.17441584 2050:0.087207921 2060:0.14804611 2123:0.097673342 2307:0.11556409 2897:0.11556409 3168:-0.012350264 3426:0.022418601 3699:0.11556409 3732:0.11556409 4183:0.14804611 4361:0.15956518 4482:0.07978259 4899:0.097673342 5682:0.11556409 6027:0.065338403 6332:0.074023053 6337:0.14804611 6353:0.074023053 6379:0.074023053 6525:0.047447648 6838:0.07978259 7105:0.036982231 7155:0.047447648 7789:0.065338403 8223:0.11556409 8954:0.025209649 9233:0.097673342 9648:0.11556409 9677:0.045666881 9826:-0.0091176247 9962:0.087207921 10199:0.11556409 10531:0.016743412 10754:0.061891835 10767:0.31913036 11208:0.097673342 11304:0.11556409 11308:0.044001084 11415:0.033535663 11748:-0.060482033 11936:0.023332287 11975:0.056132302 11998:0.031469688 12441:0.097673342 12612:0.097673342 12707:0.11556409 12878:0.13067681 13104:0.061891835 13156:0.074023053 13197:0.11556409 13205:-0.010269138 13269:0.069996856 13568:0.029556897 13802:0.087207921 13865:0.074023053 13895:0.091333762 14331:0.11556409 14592:-0.0059931204 14664:0.11556409 14800:-0.21600331 15056:0.16384399 15835:0.098720886 15976:0.11556409 15977:0.065338403 16051:0.056132302 16267:0.069317169 16577:0.051426418 16603:0.074023053 16798:0.058851749 16818:0.11556409 16831:0.07978259 17038:0.097673342 17233:0.058851749 17594:0.097673342 17997:0.11556409 18163:0.038182952 18672:0.060991153 18766:0.026929792 18785:0.006893131 19049:0.058851749 19172:0.074023053 19276:0.19534668 19310:0.17441584 19330:0.061891835 19347:0.087207921 19382:0.11556409 19389:0.11556409 19430:0.065338403 19710:0.11556409 19713:0.033535663 19819:0.087207921 19994:-0.007789386 20028:0.074023053 20379:0.058851749 20808:0.036982231 21057:0.065338403 #
-0.18541956751960156357661446691054 820:0.36348823 2823:0.56747442 3168:-0.12129129 6309:0.24238314 11748:-0.29699543 12628:-0.019948473 12790:0.47962236 17396:0.09374819 19899:0.11328582 21052:0.36348823 #
-0.2372099008097199313027658718056 64:0.083873995 260:0.089568131 436:0.059726294 599:0.04787435 842:0.10552187 1199:0.089568131 1572:0.25162199 1889:0.33154243 2056:0.089568131 2133:0.071210809 2384:0.083873995 2508:0.13983293 2704:0.13983293 2938:0.089568131 3160:0.035763938 3168:-0.029887719 3232:0.079059675 3426:0.16275948 3553:0.096537188 3657:0.065170273 3821:0.13983293 4592:0.13983293 4649:0.096537188 5029:0.017655469 5210:0.023100749 5248:0.079059675 5421:0.11051414 5916:0.089568131 6112:0.041907452 6179:0.11818506 6223:0.04787435 6720:0.074889325 7061:0.089568131 7226:0.089568131 7287:0.096537188 7536:0.069335982 8399:0.0957487 8510:0.067920268 8608:0.031593584 8733:0.055257071 9017:0.064943604 9030:0.13983293 9149:0.04787435 9348:0.074889325 9353:0.11818506 10095:0.057411809 10139:0.040578261 10343:0.038078424 10531:0.040519167 10570:0.057411809 10646:0.014678812 10672:0.10552187 11155:0.020259583 11520:0.13983293 11748:-0.10977519 11804:0.089568131 11896:0.14242162 11936:0.01411607 12009:0.13983293 12035:0.23526442 12732:0.049562939 12734:0.13983293 13205:-0.01242569 13467:0.11482362 13544:0.12988721 13753:0.089568131 13895:0.055257071 14401:0.10400398 14800:-0.17424314 14864:0.13983293 15029:0.069335982 15740:0.074889325 16036:0.13983293 16123:0.071210809 16602:0.079059675 16785:0.089568131 17139:0.18508959 17396:0.046201497 17603:0.040578261 18001:0.064943604 18364:0.079059675 18376:0.046272397 18448:0.13983293 18651:0.11818506 18672:0.036899745 18766:0.032585137 19049:0.071210809 19112:0.027059365 19545:0.13983293 19705:0.020946013 19939:0.083745211 19957:0.043295737 19994:-0.0094251819 20097:0.062226128 20625:0.12445226 20831:0.03930334 21059:0.064943604 #
-0.16390826138225858543684410051355 248:0.12863725 434:0.04404131 471:0.047236905 1028:0.029976219 1037:0.12863725 1218:0.042567614 1328:0.097073302 1402:0.12863725 1875:0.072729796 2045:0.097073302 2118:0.042567614 2457:0.082396895 2931:0.12863725 2998:0.12863725 3040:0.12863725 3112:0.12863725 3119:0.12863725 3160:0.065801024 3426:0.01247735 3546:0.03982928 4074:0.04404131 4180:0.12496451 4375:0.12863725 4624:0.047236905 4745:0.030230101 5126:0.12863725 5210:0.021251196 5235:0.032900512 5351:0.12863725 5594:0.12863725 5621:0.052815154 5750:0.12863725 5946:0.12863725 5967:0.059743922 6440:0.023380373 6672:0.12863725 7227:-0.0045219958 7295:0.097073302 7394:0.047236905 7475:0.12863725 7631:0.094473809 7811:0.12863725 8286:0.050832935 8342:0.21744524 8599:0.035029691 8722:0.065801024 9059:0.12863725 9173:0.10872262 9513:0.072729796 9668:0.12863725 9776:0.12863725 9849:0.059743922 9989:0.12863725 10029:0.10872262 10219:0.12863725 10638:0.065801024 10728:0.050832935 10936:0.12863725 11047:0.04404131 11300:0.094473809 11355:0.047236905 11464:0.047236905 11842:0.12863725 11895:0.12863725 11896:0.065509342 11905:0.079468295 11936:0.025971746 11979:0.097073302 12045:0.12863725 12076:0.12863725 12546:0.10872262 12942:0.020575147 13007:0.072729796 13205:-0.034292497 13277:0.12863725 13334:0.16479379 13568:0.065801024 13835:0.068893336 13857:0.12863725 14174:0.04404131 14365:0.027322264 14467:0.097073302 14592:-0.013342181 14737:0.12863725 14800:-0.16029243 14871:0.12863725 15156:0.097073302 15342:0.065509342 15372:0.12863725 15861:0.12863725 15988:0.041165836 16012:0.027322264 16063:0.0455947 16282:0.12863725 16291:0.048978698 16513:0.065509342 16788:0.0455947 17146:0.12863725 17478:0.062482253 17636:0.10872262 17707:0.10872262 18376:0.042567614 18785:0.0038364574 19112:0.024892867 19448:0.042567614 19897:0.050832935 19994:-0.026011676 20239:0.12863725 20481:0.032900512 20850:0.024892867 20979:0.12863725 21058:0.068893336 #
-0.17309871149832520287326076413592 72:0.1046088 451:0.088414066 471:0.038413413 497:0.067005783 541:0.088414066 776:0.076826826 787:0.074155919 833:0.1046088 837:0.1046088 882:0.072219327 929:0.088414066 1047:0.03707796 1703:0.1578815 1911:0.088414066 1973:0.1046088 2095:0.078940749 2109:0.072219327 2312:0.046551272 2457:0.067005783 2769:0.1046088 3168:-0.15651269 3426:0.020293353 3831:0.078940749 3994:0.046551272 4152:0.1046088 4310:0.1046088 4437:0.059144426 4745:0.061458375 4793:0.088414066 4796:0.056024589 4918:0.088414066 4927:0.062746011 5017:0.053272698 5029:0.02641606 5171:0.042949688 5180:0.072219327 5274:0.1046088 6328:0.041337732 6525:0.12884906 6614:0.17682813 6765:0.053272698 6937:0.088414066 7095:0.088414066 7105:0.033476371 7155:0.085899375 7248:0.1046088 7260:0.14443865 7536:0.025935072 7943:0.072219327 8575:0.1046088 8591:0.059144426 8608:0.023635112 8671:0.14443865 8954:0.011409908 9301:0.056024589 9318:0.059144426 9677:0.041337732 9826:-0.0082532885 10131:0.093102545 10139:0.030356536 10298:0.11204918 10385:0.067005783 10511:0.1046088 10531:0.015156164 10728:0.041337732 11110:0.1046088 11297:0.078940749 11445:0.056024589 11748:-0.082122646 11858:0.053272698 11896:0.1065454 11936:0.010560211 12035:0.025142996 12341:0.072219327 12388:0.1046088 13036:0.088414066 13091:0.1016221 13142:0.1046088 13799:0.072219327 13802:0.1578815 14268:0.067005783 14365:0.022218674 14800:-0.26070207 15029:0.051870145 15108:0.1046088 15176:0.20101735 15402:0.078940749 15754:0.053272698 15956:0.050811049 15960:0.088414066 15987:0.059144426 16048:0.24292107 16061:0.078940749 16544:0.1046088 16577:0.046551272 16882:0.1046088 16895:0.056024589 17506:0.088414066 17520:0.1046088 17663:0.078940749 17740:0.1578815 18101:0.03982985 18163:0.034563269 18432:0.19433685 18735:0.078940749 19112:0.020243069 19133:0.1046088 19144:0.1046088 19347:0.078940749 19448:0.13846524 19819:0.078940749 19957:0.016194738 20611:0.13401157 20746:0.1046088 21055:0.050811049 #
-0.17201018497277670293854612282303 7:0.051443599 8:0.051443599 43:0.02755128 45:0.043479495 64:0.030856684 193:0.076485537 260:0.032951519 292:0.051443599 372:0.043479495 376:0.043479495 436:0.087891616 445:0.043479495 507:0.032951519 517:0.043479495 567:0.032951519 599:0.035225306 620:0.043479495 640:0.051443599 682:0.043479495 745:0.043479495 761:0.043479495 776:0.018890612 876:0.029085526 941:0.043479495 968:0.051348839 1047:0.036467746 1199:0.032951519 1326:0.051069915 1409:0.051443599 1500:0.032951519 1675:0.043479495 1698:0.026197979 1750:0.17351322 1839:0.038820788 1927:0.043479495 2028:0.07859394 2117:0.061713368 2118:0.034046609 2133:0.026197979 2138:0.028050285 2157:0.02755128 2161:0.043479495 2416:0.043479495 2457:0.032951519 2542:0.051443599 2606:0.051443599 2938:0.032951519 3010:0.078886561 3024:0.071676955 3053:0.071030773 3092:0.043479495 3168:-0.016493239 3217:0.032951519 3232:0.087256581 3237:0.038820788 3366:0.030856684 3426:0.0049898438 3463:0.065903038 3480:0.032951519 3657:0.023975708 3811:0.043479495 3943:0.030856684 3967:0.071030773 4132:0.030856684 4160:0.074962236 4230:0.051443599 4249:0.065903038 4253:0.026197979 4322:0.026197979 4378:0.024987411 4381:0.029085526 4391:0.051443599 4404:0.071030773 4618:0.043479495 4629:0.049974822 4649:0.10654616 4650:0.043479495 4745:0.018134076 4835:0.047784638 4850:0.043479495 4863:0.029085526 4878:0.035515387 5210:0.0084986109 5360:0.032951519 5412:0.011987854 5570:0.092570052 5725:0.030856684 5768:0.043479495 5807:0.061713368 5837:0.051443599 5870:0.043479495 5880:0.032951519 6112:0.030834943 6191:0.019587174 6303:0.10986453 6338:0.071030773 6353:0.098854549 6516:0.055102561 6528:0.051443599 6562:0.022892578 6591:0.068093218 6636:0.043479495 6645:0.035515387 6720:0.02755128 6737:0.071030773 6765:0.026197979 6798:0.065903038 6959:0.038820788 7049:0.032951519 7192:0.051443599 7224:0.030856684 7227:-0.010850405 7250:0.051443599 7287:0.035515387 7437:0.043479495 7438:0.051443599 7536:0.051016491 7542:0.043479495 7546:0.043479495 7590:0.043479495 7639:0.035515387 7652:0.035515387 7667:0.051443599 7757:0.051443599 7798:0.14206155 7806:0.051443599 7857:0.07859394 7956:0.052395958 8111:0.043479495 8119:0.051443599 8165:0.051443599 8263:0.026197979 8286:0.020328708 8296:0.038820788 8397:0.031856425 8399:0.14090122 8404:0.038820788 8443:0.051443599 8453:0.051443599 8527:0.051443599 8612:0.026197979 8665:0.043479495 8688:0.043479495 8745:0.058171052 8887:0.051443599 8936:0.038820788 9149:0.035225306 9302:0.051443599 9321:0.092570052 9331:0.043479495 9348:0.02755128 9368:0.023892319 9408:0.035515387 9446:0.043479495 9484:0.038820788 9552:0.043479495 9682:0.030856684 9722:0.021972904 9750:0.098854549 9826:-0.0081174597 9997:0.043479495 10106:0.043479495 10122:0.051443599 10123:0.035515387 10227:0.051443599 10313:0.038820788 10321:0.061713368 10343:0.014008799 10450:0.038820788 10531:0.0074533653 10540:0.051443599 10563:0.043479495 10570:0.08448568 10580:0.040657416 10584:0.038820788 10674:0.08695899 10728:0.020328708 10864:0.043479495 10869:0.065903038 10886:0.071676955 10894:0.038820788 10910:0.043479495 11013:0.029085526 11043:0.071030773 11046:0.051443599 11112:0.10986453 11150:0.035515387 11155:0.014906731 11246:0.043479495 11247:0.051443599 11398:0.043479495 11432:0.049974822 11467:0.043479495 11555:0.043479495 11620:0.030856684 11748:-0.3365463 11798:0.065903038 11965:0.08695899 11998:0.014008799 12013:0.08448568 12101:0.043479495 12132:0.043945808 12208:0.023892319 12261:0.051443599 12426:0.08695899 12497:0.11646237 12556:0.051443599 12916:0.035515387 13036:0.043479495 13091:0.024987411 13188:0.098854549 13205:-0.0045713284 13218:0.12761436 13222:0.043479495 13224:0.026197979 13227:0.051443599 13299:0.032951519 13337:0.06371285 13368:0.032951519 13417:0.038820788 13428:0.043479495 13429:0.04224284 13467:0.04224284 13568:0.039471943 13572:0.043479495 13590:0.023892319 13633:0.043945808 13698:0.043479495 13719:0.043479495 13753:0.032951519 13827:0.051443599 13879:0.095569275 13940:0.02755128 14013:0.051443599 14164:0.043479495 14264:0.038820788 14365:0.021853009 14401:0.063770615 14402:0.074962236 14452:0.051443599 14453:0.051443599 14592:-0.0053357002 14628:0.038820788 14640:0.020328708 14747:0.038820788 14771:0.043479495 14800:-0.11218005 14927:0.043479495 14982:0.058171052 15029:0.025508245 15050:0.029085526 15056:0.018233873 15170:0.043479495 15187:0.030856684 15250:0.038820788 15387:0.051443599 15418:0.014928471 15487:0.02112142 15543:0.071030773 15815:0.051443599 15835:0.043945808 15870:0.098854549 16046:0.055102561 16063:0.036467746 16285:0.060986124 16288:0.035515387 16291:0.019587174 16311:0.043479495 16336:0.030856684 16339:0.06336426 16389:0.061713368 16408:0.017023304 16432:0.078348696 16447:0.058171052 16583:0.043479495 16602:0.029085526 16739:0.035515387 16785:0.032951519 16963:0.049974822 17017:0.043479495 17096:0.026197979 17139:0.068093218 17259:0.043479495 17351:0.043479495 17368:0.035515387 17396:0.0084986109 17425:0.038820788 17579:0.038820788 17590:0.043479495 17603:0.014928471 17758:0.043479495 17759:0.02755128 18001:0.023892319 18082:0.043479495 18250:0.024987411 18267:0.02112142 18295:0.043479495 18346:0.051443599 18367:0.038820788 18376:0.017023304 18431:0.051016491 18646:0.043479495 18651:0.043479495 18672:0.01357517 18740:0.08695899 18766:0.011987854 18792:0.043479495 18918:0.038820788 19112:0.019909918 19124:0.035515387 19129:0.051443599 19181:0.038820788 19187:0.043479495 19225:0.051443599 19325:0.043479495 19331:0.032951519 19348:0.051443599 19420:0.051443599 19551:0.032951519 19605:0.038820788 19621:0.075562447 19697:0.029085526 19705:0.038529489 19760:0.051443599 19830:0.043479495 19872:0.029085526 19875:0.0074377204 19947:0.061713368 19994:-0.0034674616 20028:0.032951519 20047:0.032951519 20051:0.015928213 20080:0.043479495 20282:0.043479495 20373:0.043479495 20404:0.043479495 20459:0.043479495 20514:0.051443599 20538:0.035515387 20583:0.043479495 20625:0.045785155 20633:0.061713368 20645:0.043479495 20786:0.035515387 20794:0.061713368 20821:0.035515387 20831:0.014459436 20850:0.019909918 20885:0.038820788 20971:0.065903038 21059:0.023892319 #
-0.13172663317186666942504302824091 50:0.042309567 105:0.026239362 251:0.04354817 286:0.051524859 305:0.04354817 337:0.058262937 391:0.01892045 407:0.033003565 469:0.019618114 471:0.01892045 546:0.033003565 582:0.047860116 599:0.017640473 734:0.087096341 844:0.051524859 849:0.018262675 851:0.051524859 904:0.11664633 968:0.020571979 980:0.051524859 1028:0.13207468 1068:0.037840899 1163:0.04354817 1218:0.017050194 1276:0.035571486 1322:0.051524859 1326:0.017050194 1364:0.029131468 1398:0.04354817 1428:0.03888211 1449:0.04354817 1478:0.029131468 1482:0.051524859 1525:0.051524859 1774:0.051524859 1783:0.051524859 1809:0.04354817 1875:0.029131468 2063:0.051524859 2118:0.034100387 2138:0.0093648639 2144:0.023930058 2186:0.051524859 2380:0.035571486 2419:0.061810847 2482:0.11664633 2531:0.14228594 2648:0.027594799 2665:0.015441825 2777:0.04354817 2799:0.077764221 2837:0.04354817 2860:0.087096341 3078:0.030905424 3160:0.065890484 3168:-0.0055064298 3322:0.051524859 3398:0.051524859 3406:0.03888211 3518:0.087096341 3532:0.029131468 3546:0.015953371 3621:0.026239362 3624:0.03888211 3937:0.13797399 3938:0.051524859 3963:0.027594799 3968:0.051524859 3995:0.051524859 4038:0.033003565 4074:0.017640473 4109:0.033003565 4160:0.02502688 4180:0.05005376 4189:0.04354817 4366:0.04354817 4407:0.029131468 4437:0.029131468 4624:0.01892045 4628:0.051524859 4662:0.051524859 4745:0.01210848 4768:0.023930058 4796:0.027594799 4835:0.023930058 4901:0.11664633 4943:0.051524859 5029:0.006505589 5056:0.051524859 5140:0.04354817 5210:0.008512035 5235:0.013178097 5243:0.033003565 5256:0.088202365 5302:0.051524859 5314:0.021154784 5412:0.036020368 5421:0.020360818 5430:0.04354817 5454:0.051524859 5488:0.051524859 5494:0.051524859 5518:0.051524859 5621:0.021154784 5691:0.087394409 5709:0.087096341 5774:0.051524859 5918:0.029131468 5967:0.023930058 6007:0.017050194 6186:0.04354817 6200:0.051524859 6217:0.051524859 6220:0.15452711 6223:0.035280947 6349:0.03888211 6438:0.030905424 6440:0.0093648639 6524:0.035571486 6543:0.035571486 6560:0.035571486 6591:0.017050194 6632:0.035571486 6687:0.033003565 6886:0.051524859 6911:0.10671446 6962:0.051524859 6974:0.051524859 7048:0.051524859 7105:0.016488722 7155:0.021154784 7189:0.051524859 7194:0.033003565 7224:0.030905424 7227:-0.0072450293 7275:0.04354817 7340:0.033003565 7389:0.14228594 7394:0.01892045 7419:0.068786211 7595:0.04354817 7631:0.17028405 7641:0.029131468 7643:0.04354817 7671:0.027594799 7789:0.087394409 8086:0.030905424 8114:0.035571486 8134:0.012384132 8192:0.04354817 8228:0.04354817 8286:0.020360818 8288:0.029131468 8370:0.033003565 8411:0.039236229 8459:0.051524859 8494:0.020360818 8510:0.05005376 8591:0.029131468 8594:0.051524859 8599:0.028061852 8608:0.034924284 8621:0.04354817 8685:0.033003565 8722:0.026356194 8724:0.035571486 8729:0.11664633 8785:0.030905424 8895:0.035571486 9017:0.047860116 9149:0.017640473 9198:0.04354817 9238:0.033003565 9348:0.027594799 9357:0.087096341 9420:0.051524859 9432:0.077764221 9492:0.051524859 9513:0.029131468 9520:0.051524859 9580:0.087096341 9722:0.022007613 9826:-0.0060977112 9849:0.023930058 9920:0.051524859 10095:0.042309567 10131:0.045857474 10157:0.087096341 10189:0.037840899 10212:0.042309567 10321:0.030905424 10324:0.033003565 10343:0.014030926 10441:0.033003565 10442:0.051524859 10475:0.035571486 10497:0.051524859 10531:0.022395415 10543:0.045857474 10566:0.051524859 10580:0.020360818 10638:0.026356194 10646:0.016226299 10672:0.03888211 10719:0.051524859 10825:0.030905424 10854:0.11664633 10956:0.04354817 10963:0.055189598 11047:0.017640473 11098:0.033003565 11125:0.051524859 11147:0.051524859 11155:0.014930277 11209:0.075080641 11300:0.17028405 11308:0.019618114 11355:0.01892045 11415:0.014952051 11445:0.027594799 11464:0.01892045 11594:0.051524859 11748:-0.12134805 11905:0.021220354 11936:0.015604233 11998:0.014030926 12078:0.04354817 12132:0.022007613 12196:0.02502688 12208:0.023930058 12308:0.029131468 12496:0.087096341 12514:0.03888211 12546:0.04354817 12548:0.015953371 12661:0.026239362 12704:0.035571486 12732:0.03652535 12739:0.022007613 12769:0.032977443 12826:0.051524859 12867:0.051524859 12878:0.029131468 12942:0.016482495 12982:0.051524859 12987:0.033003565 13016:0.095720232 13049:0.051524859 13091:0.02502688 13104:0.027594799 13205:-0.018314196 13276:0.033003565 13334:0.06600713 13337:0.031906743 13382:0.051524859 13568:0.013178097 13633:0.022007613 13783:0.051524859 13835:0.027594799 13944:0.051524859 14016:0.029131468 14141:0.035571486 14174:0.017640473 14175:0.051524859 14365:0.010943764 14592:-0.0080161924 14710:0.035571486 14730:0.051524859 14755:0.035571486 14800:-0.17656139 14860:0.051524859 14982:0.029131468 15176:0.06600713 15342:0.026239362 15397:0.06600713 15418:0.014952051 15487:0.021154784 15558:0.051524859 15598:0.051524859 15622:0.023930058 15642:0.051524859 15643:0.04354817 15740:0.027594799 15831:0.04354817 15848:0.035571486 15889:0.04354817 15907:0.051524859 15923:0.052478723 15956:0.02502688 15988:0.016488722 15989:0.035571486 16012:0.021887528 16046:0.027594799 16063:0.03652535 16123:0.026239362 16152:0.030905424 16266:0.033003565 16267:0.030905424 16291:0.019618114 16295:0.051524859 16339:0.021154784 16381:0.033003565 16408:0.017050194 16433:0.033003565 16447:0.029131468 16517:0.15016128 16577:0.045857474 16692:0.02502688 16788:0.018262675 16859:0.14228594 16895:0.027594799 17018:0.033003565 17044:0.051524859 17050:0.051524859 17147:0.033003565 17151:0.051524859 17271:0.087394409 17396:0.008512035 17478:0.05005376 17603:0.014952051 17683:0.030905424 17691:0.039236229 17752:0.020360818 17851:0.029131468 17896:0.03888211 17944:0.071142972 17966:0.051524859 18073:0.035571486 18107:0.022007613 18146:0.051524859 18163:0.01702407 18191:0.051524859 18199:0.023930058 18278:0.063813485 18367:0.03888211 18376:0.017050194 18383:0.051524859 18431:0.012774268 18432:0.095720232 18655:0.03888211 18785:0.0030733387 18888:0.04354817 18939:0.075080641 19030:0.051524859 19049:0.026239362 19185:0.087096341 19285:0.027594799 19312:0.051524859 19331:0.033003565 19333:0.051524859 19338:0.03888211 19341:0.051524859 19366:0.029131468 19413:0.055189598 19697:0.029131468 19713:0.014952051 19875:0.0037247343 19897:0.18324736 19899:0.010285989 19939:0.010285989 19942:0.055189598 19957:0.0079766857 19963:0.04354817 19994:-0.013891754 20097:0.045857474 20308:0.051524859 20379:0.026239362 20446:0.068200774 20481:0.013178097 20527:0.11664633 20675:0.051524859 20764:0.051524859 20786:0.035571486 20831:0.014482275 20850:0.0099706836 20987:0.033003565 21021:0.026239362 21058:0.027594799 #
-0.11481699895427135982295396843256 50:0.082857072 173:0.022854118 261:0.098022938 471:0.14821169 497:0.12926528 1770:0.094054133 2138:0.036679421 2394:0.10277187 2599:0.20180774 3160:0.15484421 3657:0.047027066 3994:0.089805134 4009:0.20180774 4038:0.12926528 4044:0.10277187 4148:0.12104747 4383:0.085727021 5223:0.20180774 5256:0.069092557 5314:0.082857072 5593:0.20180774 5621:0.082857072 5657:0.20180774 7631:0.22231755 7901:0.20180774 7978:0.098022938 8109:0.06048109 8134:0.097010016 8248:0.11409941 9368:0.093727008 10018:0.076838389 10875:0.20180774 11150:0.27864614 11155:0.087716267 11300:0.22231755 11415:0.11712559 11671:0.12926528 11748:-0.052809406 12196:0.098022938 12628:-0.014188327 12942:0.032278545 13334:0.12926528 14755:0.13932307 14800:-0.12573439 15369:0.20180774 15825:0.15228981 15988:0.19374444 16043:0.069092557 16692:0.098022938 18163:0.033339139 18672:0.10650788 18766:0.047027066 19705:0.030229414 19875:0.0048628971 19897:0.23924203 19899:0.0402872 19957:0.062484674 21053:0.10808073 #
-0.14534044211362617815552766842302 434:0.15611057 541:0.3853825 3168:-0.048729524 5913:0.4559727 10298:0.4884041 11155:0.066063248 14800:-0.28408945 18373:0.4559727 21052:0.29206729 #
-0.078341872115759728090189639715391 54:0.08779712 64:0.041107789 91:0.082215577 95:0.068534024 173:0.077612713 386:0.068534024 434:0.046927743 582:0.031829745 599:0.023463871 629:0.025166387 699:0.1468171 787:0.024291471 849:0.024291471 903:0.068534024 916:0.11709068 968:0.013681556 1218:0.022678731 1673:0.033288646 1770:0.031940836 1836:0.057924107 1840:0.036704276 2060:0.04389856 2118:0.022678731 2138:0.074738115 2230:0.054164488 2274:0.068534024 2457:0.04389856 2587:0.068534024 2638:0.11584821 2703:0.04389856 3010:0.045040283 3013:0.068534024 3108:0.068534024 3168:-0.014648378 3212:0.047314193 3251:0.068534024 3366:0.041107789 3388:0.057924107 3412:0.068534024 3424:0.11584821 3426:0.013295107 3496:0.04389856 3523:0.0069184783 3546:0.021219831 3557:0.068534024 3598:0.047314193 3970:0.29363421 3994:0.030497873 4074:0.023463871 4117:0.057924107 4132:0.041107789 4167:0.068534024 4273:0.068534024 4319:0.068534024 4383:0.029112944 4585:0.068534024 4624:0.025166387 4673:0.068534024 4687:0.08779712 4747:0.057924107 4768:0.031829745 4773:0.15515311 4793:0.057924107 4802:0.068534024 4937:0.068534024 5029:0.0086531863 5210:0.022643982 5226:0.041107789 5235:0.017528394 5243:0.04389856 5426:0.11584821 5587:0.051717702 5621:0.02813831 5630:0.068534024 5653:0.068534024 5742:0.068534024 5865:0.047314193 5894:0.1034354 5918:0.038748223 5967:0.031829745 6112:0.041078825 6375:0.051717702 6512:0.068534024 6579:0.047314193 6591:0.022678731 6600:0.068534024 6734:0.068534024 6948:0.034901388 6988:0.041107789 7139:0.063659489 7181:0.068534024 7191:0.068534024 7366:0.068534024 7394:0.025166387 7639:0.047314193 7855:0.02813831 7915:0.068534024 7956:0.034901388 8038:0.04389856 8126:0.068534024 8240:0.068534024 8286:0.027082244 8591:0.038748223 8599:0.018662754 8722:0.035056788 8902:0.090575926 8936:0.051717702 8954:0.059801228 9155:0.068534024 9336:0.036704276 9339:0.034901388 9421:0.068534024 9546:0.068534024 9568:0.068534024 9574:0.068534024 9622:0.14194258 9826:-0.0054071075 9849:0.031829745 9922:0.068534024 10031:0.17559424 10075:0.068534024 10093:0.14194258 10192:0.047314193 10296:0.051717702 10297:0.068534024 10298:0.036704276 10313:0.051717702 10458:0.068534024 10531:0.0099294977 10638:0.017528394 10646:0.021582857 10886:0.031829745 10984:0.057924107 11010:0.041107789 11013:0.038748223 11047:0.023463871 11128:0.038748223 11155:0.0099294977 11296:0.068534024 11355:0.025166387 11427:0.047314193 11432:0.033288646 11464:0.025166387 11748:-0.035868209 11804:0.04389856 11858:0.069802776 11936:0.027673913 11998:0.018662754 12013:0.02813831 12208:0.031829745 12357:0.041107789 12370:0.051717702 12418:0.068534024 12575:0.060995746 12628:-0.026501 12769:0.021931907 12863:0.068534024 12872:0.068534024 13086:0.051717702 13156:0.04389856 13205:-0.048719998 13269:0.041510873 13299:0.04389856 13421:0.068534024 13568:0.052585181 13673:0.068534024 14025:0.047314193 14028:0.047314193 14147:0.068534024 14365:0.014556472 14428:0.068534024 14628:0.051717702 14800:-0.34159574 14865:0.068534024 15092:0.041107789 15187:0.082215577 15418:0.019887958 15517:0.068534024 15736:0.068534024 15777:0.068534024 15851:0.057924107 16012:0.029112944 16043:0.023463871 16046:0.036704276 16063:0.048582941 16285:0.054164488 16304:0.068534024 16503:0.068534024 16577:0.030497873 16622:0.057924107 16788:0.024291471 16895:0.036704276 17096:0.034901388 17147:0.13169569 17230:0.068534024 17379:0.05854534 17497:0.08779712 17603:0.019887958 17647:0.068534024 17781:0.068534024 17963:0.057924107 17964:0.068534024 18001:0.063659489 18003:0.04389856 18250:0.033288646 18376:0.022678731 18423:0.057924107 18445:0.047314193 18468:0.051717702 18691:0.068534024 18785:0.0040878961 18813:0.02813831 19027:0.094628386 19448:0.022678731 19682:0.057924107 19690:0.068534024 19702:0.038748223 19921:0.068534024 19994:-0.04157469 20318:0.068534024 20324:0.068534024 20481:0.017528394 20491:0.030497873 20519:0.068534024 20633:0.041107789 20777:0.068534024 20789:0.038748223 20806:0.08779712 20850:0.026524326 20981:0.068534024 21056:0.031829745 #
-0.060665618001725526986511738414265 67:0.056590978 164:0.056590978 173:0.032043789 193:0.012019797 391:0.020780781 471:0.041561563 497:0.036248602 755:0.060616054 776:0.041561563 1044:0.042705148 1047:0.080233328 1218:0.018726636 1225:0.1259159 1275:0.036248602 1326:0.018726636 1447:0.039069012 1478:0.031995788 1559:0.056590978 1569:0.036248602 1574:0.042705148 1649:0.042705148 1657:0.060616054 1690:0.047829997 1697:0.042705148 1770:0.013187343 1775:0.085410297 1839:0.042705148 1840:0.060616054 1875:0.031995788 1914:0.047829997 2117:0.033944163 2118:0.018726636 2138:0.041142613 2171:0.042705148 2370:0.042705148 2480:0.047829997 2549:0.027487619 2637:0.042705148 3010:0.012397122 3017:0.067088313 3168:-0.078621961 3200:0.047829997 3218:0.047829997 3289:0.047829997 3292:0.047829997 3347:0.056590978 3419:0.12123211 3426:0.021956485 3472:0.039069012 3532:0.031995788 3546:0.017521968 3621:0.057638634 3657:0.013187343 3745:0.078138024 3919:0.027487619 3969:0.056590978 3994:0.025183178 3999:0.047829997 4044:0.057638634 4074:0.019374954 4148:0.067888327 4253:0.028819317 4338:0.078138024 4403:0.15769772 4437:0.031995788 4457:0.078138024 4474:0.042705148 4548:0.056590978 4624:0.020780781 4745:0.0066495161 4750:0.047829997 4768:0.026282953 4878:0.078138024 4898:0.033944163 5171:0.069704406 5210:0.0093489708 5226:0.033944163 5235:0.014473818 5256:0.019374954 5314:0.023234803 5421:0.022362772 5567:0.090924077 5621:0.046469606 5753:0.031995788 5810:0.056590978 5874:0.047829997 5901:0.056590978 5916:0.036248602 5967:0.026282953 6050:0.047829997 6056:0.056590978 6100:0.078138024 6153:0.042705148 6182:0.056590978 6223:0.019374954 6292:0.056590978 6333:0.056590978 6562:0.025183178 6685:0.047829997 6737:0.039069012 6769:0.047829997 6773:0.042705148 6821:0.039069012 6917:0.027487619 7049:0.036248602 7105:0.054329865 7148:0.042705148 7169:0.036248602 7227:-0.0019893472 7394:0.020780781 7496:0.078138024 7536:0.014030284 7633:0.11720704 7717:0.056590978 7855:0.069704406 7956:0.057638634 8000:0.047829997 8109:0.050880373 8134:0.027203575 8189:0.042705148 8212:0.047829997 8248:0.031995788 8283:0.042705148 8286:0.022362772 8313:0.042705148 8318:0.042705148 8399:0.019374954 8400:0.026282953 8411:0.043094084 8599:0.015410501 8608:0.012786058 8700:0.047829997 8722:0.028947636 8827:0.056590978 8863:0.025183178 8938:0.047829997 8945:0.047829997 8954:0.030862501 9109:0.042705148 9166:0.056590978 9174:0.047829997 9243:0.042705148 9301:0.090924077 9310:0.056590978 9336:0.030308027 9368:0.052565906 9513:0.031995788 9604:0.028819317 9677:0.022362772 9826:-0.022324206 9849:0.026282953 10004:0.057638634 10018:0.021547042 10041:0.047829997 10049:0.042705148 10139:0.016422195 10142:0.033944163 10296:0.042705148 10304:0.047829997 10424:0.042705148 10447:0.047829997 10531:0.024597419 10638:0.028947636 10646:0.029702887 10754:0.060616054 10909:0.042705148 10959:0.047829997 11047:0.019374954 11128:0.031995788 11155:0.0081991395 11245:0.042705148 11308:0.043094084 11315:0.042705148 11355:0.020780781 11387:0.033944163 11415:0.032844391 11453:0.085410297 11464:0.020780781 11492:0.042705148 11499:0.047829997 11595:0.067888327 11639:0.11624972 11652:0.056590978 11660:0.056590978 11748:-0.14808828 11785:0.063991576 11905:0.023306822 11936:0.017138502 11941:0.056590978 11971:0.047829997 11975:0.027487619 11992:0.063991576 12035:0.013601787 12196:0.027487619 12208:0.052565906 12343:0.085410297 12349:0.033944163 12367:0.047829997 12628:-0.0039786943 12651:0.039069012 12690:0.031995788 12732:0.020058332 12739:0.024171485 12769:0.03621991 12942:0.072412468 13001:0.10183249 13012:0.078138024 13119:0.056590978 13156:0.036248602 13205:-0.080459669 13239:0.047829997 13279:0.047829997 13337:0.035043936 13467:0.046469606 13544:0.026282953 13568:0.014473818 13590:0.026282953 13835:0.030308027 13988:0.056590978 14174:0.019374954 14289:0.028819317 14328:0.056590978 14365:0.024039594 14386:0.047829997 14615:0.039069012 14640:0.022362772 14703:0.095659994 14710:0.039069012 14747:0.042705148 14775:0.026282953 14800:-0.38784316 14807:0.056590978 14947:0.042705148 15022:0.15627605 15050:0.095987357 15101:0.072514452 15342:0.028819317 15490:0.078138024 15508:0.022362772 15550:0.039069012 15596:0.078138024 15633:0.067088313 15754:0.057638634 15825:0.042705148 15925:0.060616054 15947:0.039069012 15988:0.018109955 16012:0.024039594 16014:0.056590978 16043:0.019374954 16051:0.082462855 16074:0.047829997 16131:0.18124302 16291:0.021547042 16336:0.033944163 16433:0.036248602 16543:0.047829997 16547:0.056590978 16635:0.047829997 16674:0.056590978 16692:0.027487619 16739:0.039069012 16788:0.020058332 16798:0.028819317 16801:0.047829997 16812:0.072497204 16895:0.030308027 17002:0.047829997 17147:0.036248602 17361:0.047829997 17368:0.039069012 17396:0.018697942 17478:0.027487619 17496:0.047829997 17707:0.047829997 17754:0.047829997 17845:0.078138024 17870:0.042705148 18001:0.026282953 18061:0.039069012 18101:0.10773521 18163:0.018697942 18250:0.027487619 18376:0.018726636 18514:0.10874581 18672:0.029866969 18766:0.013187343 18785:0.011814323 18800:0.078138024 18835:0.072497204 18857:0.047829997 18860:0.047829997 18866:0.027487619 18875:0.085410297 18907:0.042705148 19112:0.032853119 19120:0.039069012 19347:0.042705148 19366:0.031995788 19430:0.031995788 19499:0.085410297 19605:0.042705148 19705:0.01695388 19713:0.032844391 19871:0.042705148 19875:0.0013636549 19892:0.047829997 19899:0.011297347 19957:0.0087609841 19994:-0.053401757 20047:0.036248602 20083:0.078138024 20097:0.050366357 20185:0.042705148 20216:0.042705148 20412:0.054975238 20481:0.014473818 20626:0.078138024 20831:0.015906228 20850:0.01095104 20987:0.072497204 21055:0.027487619 #
-0.086260989758046954789527660523163 193:0.015988886 378:0.075278044 420:0.10394019 523:0.075278044 629:0.027642859 776:0.027642859 786:0.20788038 787:0.053363696 820:0.048218355 842:0.056806929 1218:0.024910407 1377:0.040316124 1478:0.042561203 1569:0.048218355 2138:0.013682107 2230:0.029747244 2312:0.033498984 2384:0.045152958 2645:0.056806929 2665:0.045121145 3017:0.059494488 3160:0.019253258 3168:-0.0080449181 3237:0.056806929 3523:0.015198568 3533:0.056806929 3546:0.023307946 3553:0.051970094 3621:0.038335823 3657:0.017541971 4044:0.038335823 4097:0.12724814 4132:0.045152958 4185:0.14465506 4383:0.031977773 4624:0.027642859 4719:0.040316124 4745:0.0088452706 4811:0.074653052 4813:0.063624069 4822:0.12724814 4898:0.045152958 4973:0.075278044 5002:0.075278044 5171:0.061814461 5187:0.040316124 5210:0.02487224 5226:0.045152958 5235:0.019253258 5317:0.056806929 5421:0.059494488 5545:0.075278044 5753:0.042561203 5936:0.16126449 6002:0.12724814 6112:0.022560572 6136:0.040316124 6346:0.090305917 6440:0.041046321 6450:0.063624069 6546:0.075278044 6591:0.049820814 6925:0.090305917 7155:0.061814461 7169:0.048218355 7216:0.12724814 7227:-0.010585019 7394:0.027642859 7398:0.12724814 7431:0.051970094 7529:0.063624069 8020:0.033498984 8109:0.045121145 8134:0.018093271 8354:0.03496192 8460:0.10394019 8608:0.017008176 8794:0.075278044 8954:0.016421476 9113:0.075278044 9233:0.063624069 9300:0.075278044 9407:0.075278044 9541:0.12724814 9604:0.038335823 9672:0.056806929 9677:0.029747244 9826:-0.0089087831 9994:0.075278044 10049:0.11361386 10131:0.033498984 10370:0.080632247 10531:0.010906599 10638:0.019253258 11047:0.025772808 11355:0.027642859 11464:0.027642859 11521:0.075278044 11748:-0.17729002 11858:0.076671645 11905:0.015501516 11914:0.10394019 11936:0.015198568 11937:0.03090723 12055:0.090305917 12132:0.032153215 12377:0.075278044 12400:0.063624069 12652:0.10394019 12690:0.042561203 12732:0.080045544 12769:0.024090093 12829:0.063624069 13205:-0.026757119 13417:0.056806929 13429:0.03090723 13544:0.03496192 13568:0.019253258 13590:0.06992384 13602:0.051970094 13728:0.075278044 13799:0.051970094 13865:0.048218355 13895:0.029747244 13915:0.12724814 13945:0.045152958 14375:0.056806929 14398:0.042561203 14592:-0.02732728 14640:0.029747244 14666:0.042561203 14783:0.10394019 14800:-0.1407038 15029:0.018663263 15050:0.042561203 15248:0.38700002 15599:0.19167911 15740:0.040316124 15754:0.038335823 15794:0.063624069 15956:0.03656438 15960:0.063624069 15977:0.042561203 16012:0.015988886 16061:0.056806929 16205:0.048218355 16267:0.045152958 16291:0.028662149 16387:0.051970094 16447:0.042561203 16603:0.048218355 16716:0.1704208 16788:0.026681848 16906:0.040316124 17058:0.063624069 17096:0.038335823 17190:0.051970094 17325:0.06992384 17396:0.01243612 17752:0.029747244 17870:0.056806929 17963:0.063624069 17995:0.03496192 18011:0.063624069 18163:0.01243612 18335:0.075278044 18339:0.063624069 18364:0.042561203 18423:0.063624069 18507:0.075278044 18513:0.075278044 18672:0.01986471 18766:0.017541971 18785:0.017960643 18813:0.03090723 18866:0.03656438 19112:0.043701638 19281:0.063624069 19702:0.042561203 19873:0.038335823 19939:0.13525088 19957:0.058269866 19994:-0.020295912 20204:0.12724814 20481:0.019253258 20491:0.033498984 20786:0.051970094 20789:0.042561203 20799:0.10394019 20831:0.042317335 20850:0.029134424 20894:0.12724814 21057:0.042561203 #
-0.071287790998705163891813185728097 50:0.11248537 54:0.043872092 261:0.1330743 582:0.063621104 649:0.068492696 902:0.036682144 915:0.12724221 916:0.02925502 968:0.013673306 1089:0.068492696 1218:0.022665057 1364:0.038724858 1385:0.094571322 1398:0.057889178 1698:0.03488034 1834:0.068492696 2118:0.022665057 2133:0.03488034 2176:0.068492696 2268:0.068492696 2416:0.057889178 2457:0.043872092 2685:0.15505956 2721:0.068492696 2872:0.068492696 3426:0.0066435449 3533:0.051686518 3546:0.021207035 3598:0.047285661 3657:0.015960788 3963:0.14672858 4074:0.023449723 4416:0.068492696 4445:0.068492696 4482:0.047285661 4624:0.025151214 4629:0.033268575 4719:0.036682144 4786:0.15489943 4840:0.068492696 5089:0.051686518 5210:0.022630328 5235:0.017517824 5256:0.046899445 5621:0.028121343 5897:0.068492696 5916:0.043872092 5918:0.15489943 5936:0.036682144 5967:0.031810552 6126:0.068492696 6257:0.051686518 6337:0.043872092 6379:0.043872092 6433:0.087744184 6579:0.047285661 6795:0.068492696 6870:0.066537149 6881:0.068492696 6937:0.057889178 6948:0.03488034 7105:0.021918682 7168:0.057889178 7227:-0.0024077292 7394:0.025151214 7404:0.068492696 7436:0.11577836 7492:0.02925502 7789:0.11617458 7857:0.03488034 8263:0.03488034 8286:0.027065914 8397:0.063621104 8545:0.10826366 8591:0.038724858 8599:0.037303004 8608:0.077375546 8722:0.035035647 8863:0.030479485 8909:0.10337304 8954:0.022411939 9243:0.051686518 9649:0.068492696 9698:0.068492696 9826:-0.010807695 9849:0.031810552 9855:0.024276825 9998:0.11577836 10018:0.026078627 10062:0.068492696 10093:0.047285661 10123:0.047285661 10139:0.019875966 10140:0.068492696 10189:0.025151214 10416:0.051686518 10638:0.017517824 10669:0.041083001 10728:0.027065914 10894:0.051686518 11047:0.023449723 11182:0.068492696 11209:0.23288003 11352:0.24649802 11355:0.025151214 11387:0.041083001 11427:0.047285661 11464:0.025151214 11484:0.057889178 11748:-0.16130961 11848:0.068492696 11936:0.013828614 12132:0.02925502 12174:0.068492696 12308:0.038724858 12341:0.047285661 12390:0.047285661 12704:0.094571322 12850:0.057889178 12878:0.11617458 13205:-0.018258983 13269:0.027657228 13575:0.051686518 13633:0.02925502 13879:0.031810552 13940:0.036682144 14025:0.047285661 14028:0.047285661 14141:0.047285661 14365:0.014547695 14398:0.038724858 14729:0.068492696 14800:-0.23470546 15029:0.016981009 15056:0.024276825 15418:0.079503864 15513:0.051686518 15835:0.058510039 15977:0.038724858 15987:0.038724858 16012:0.014547695 16165:0.068492696 16339:0.028121343 16381:0.043872092 16393:0.047285661 16704:0.068492696 16788:0.024276825 16886:0.068492696 16963:0.033268575 16990:0.15505956 17332:0.031810552 17773:0.068492696 18003:0.087744184 18024:0.068492696 18041:0.14185698 18250:0.033268575 18376:0.022665057 18432:0.031810552 18445:0.047285661 18476:0.15505956 18574:0.068492696 18672:0.018074164 18766:0.031921577 18813:0.028121343 18880:0.047285661 18939:0.23288003 18962:0.15505956 19000:0.057889178 19229:0.17548837 19353:0.051686518 19702:0.038724858 19713:0.1192558 19859:0.043872092 19875:0.0066017872 19939:0.013673306 19957:0.010603517 19994:-0.013849874 20028:0.043872092 20095:0.164332 20412:0.033268575 20446:0.045330115 20481:0.017517824 20491:0.030479485 20821:0.047285661 20831:0.038502973 20850:0.026508333 20922:0.068492696 21053:0.036682144 #
-0.047246523303291834694483952716837 105:0.1088095 367:0.068429671 467:0.147508 599:0.036575798 629:0.039229706 686:0.10683176 787:0.037865873 1098:0.068429671 1218:0.035351913 1246:0.080618255 1770:0.099579617 2138:0.019417129 2549:0.05189079 2665:0.064034231 2841:0.090292878 2871:0.10683176 3017:0.042216167 3168:-0.034251135 3232:0.060401253 3426:0.010362295 3503:0.147508 3546:0.033077758 3593:0.090292878 3621:0.05440475 3657:0.024894904 3675:0.10683176 3943:0.064079374 3994:0.047540497 4185:0.068429671 4383:0.13614495 4624:0.039229706 4811:0.13243099 5018:0.18058576 5029:0.013488703 5171:0.043862376 5187:0.057215121 5210:0.035297744 5235:0.027323496 5550:0.080618255 5651:0.10683176 5654:0.10683176 5655:0.10683176 6136:0.057215121 6328:0.042216167 6440:0.058251392 6562:0.047540497 6799:0.18058576 6838:0.073753998 7169:0.068429671 7280:0.147508 7316:0.10683176 7394:0.039229706 8020:0.047540497 8109:0.032017116 8134:0.025677288 8510:0.05189079 8892:0.10683176 8981:0.24160501 9174:0.090292878 9348:0.057215121 9672:0.080618255 9826:-0.0042143362 10057:0.24185476 10142:0.12815875 10531:0.015478235 10638:0.027323496 10646:0.011214549 11013:0.060401253 11047:0.036575798 11308:0.040676244 11315:0.080618255 11355:0.039229706 11379:0.10683176 11464:0.039229706 11605:0.090292878 11748:-0.055911846 11926:0.10683176 11936:0.021569235 12055:0.064079374 12104:0.090292878 12521:0.147508 12690:0.060401253 12739:0.091261268 13104:0.057215121 13182:0.10683176 13205:-0.028479522 13337:0.033077758 13865:0.068429671 13945:0.064079374 14174:0.036575798 14308:0.10683176 14398:0.060401253 14592:-0.02770132 14640:0.042216167 14715:0.10683176 14800:-0.26624203 15029:0.026486197 15092:0.12815875 15151:0.090292878 15362:0.18058576 15606:0.080618255 15754:0.05440475 15925:0.11443024 16012:0.022690825 16051:0.05189079 16267:0.064079374 16788:0.037865873 16906:0.057215121 16946:0.090292878 16992:0.18058576 17396:0.017648872 17510:0.090292878 17691:0.040676244 17995:0.049616639 18163:0.017648872 18672:0.028191248 18766:0.049789809 18813:0.043862376 18866:0.05189079 19112:0.041346479 19331:0.068429671 19421:0.10683176 19430:0.060401253 19441:0.147508 19873:0.05440475 19957:0.049616639 19994:-0.021602396 20182:0.147508 20481:0.027323496 20491:0.047540497 20850:0.041346479 21058:0.057215121 #
-0.035680742643023566351700992527185 173:0.06529817 261:0.056013703 264:0.057659965 367:0.036933329 391:0.021173324 394:0.097466975 434:0.098704696 448:0.028006852 471:0.042346649 497:0.036933329 582:0.05355886 642:0.069170713 849:0.08174891 886:0.087023668 916:0.073884226 1098:0.073866658 1149:0.084020555 1218:0.019080374 1284:0.057659965 1326:0.076321498 1377:0.030880535 1434:0.057659965 1443:0.057659965 1500:0.036933329 1574:0.043511834 1770:0.040309343 1776:0.057659965 1875:0.032600176 2118:0.019080374 2138:0.020959891 2326:0.048733488 2539:0.097466975 2695:0.057659965 2717:0.034585357 2754:0.048733488 3010:0.012631299 3078:0.034585357 3168:-0.055458765 3212:0.03980701 3426:0.016778426 3523:0.011641495 3538:0.024628077 3546:0.017852953 3621:0.029363703 3657:0.013436448 3705:0.036933329 3994:0.051317763 4044:0.088091113 4074:0.019740939 4132:0.10375607 4148:0.034585357 4383:0.036740541 4439:0.048733488 4470:0.16804111 4554:0.079614021 4624:0.021173324 4719:0.030880535 4725:0.043511834 4745:0.0067751235 4766:0.057659965 4786:0.065200351 4849:0.057659965 4898:0.034585357 4918:0.048733488 5029:0.080082364 5171:0.0473474 5210:0.0095255701 5235:0.014747224 5256:0.019740939 5263:0.048733488 5285:0.048733488 5314:0.0236737 5336:0.048733488 5347:0.057659965 5412:0.067182235 5587:0.087023668 5621:0.0473474 5725:0.034585357 5870:0.048733488 5911:0.097466975 5941:0.079614021 5967:0.02677943 6007:0.057241127 6179:0.048733488 6191:0.02195406 6379:0.036933329 6534:0.048733488 6562:0.025658881 6563:0.057659965 6591:0.076321498 6645:0.03980701 6796:0.043511834 6846:0.048733488 6889:0.028006852 6906:0.048733488 6917:0.028006852 6931:0.057659965 6988:0.034585357 7133:0.048733488 7139:0.05355886 7226:0.036933329 7287:0.03980701 7340:0.11079998 7368:0.097466975 7394:0.021173324 7466:0.057659965 7492:0.049256153 7536:0.028590623 7554:0.048733488 7808:0.057659965 7857:0.029363703 7959:0.057659965 8038:0.14773332 8109:0.017280495 8134:0.055434883 8166:0.048733488 8227:0.079614021 8232:0.057659965 8248:0.032600176 8286:0.022785198 8318:0.043511834 8358:0.048733488 8393:0.11202741 8399:0.019740939 8400:0.05355886 8412:0.057659965 8510:0.056013703 8522:0.043511834 8599:0.015701599 8612:0.029363703 8722:0.029494448 8781:0.097466975 8863:0.051317763 8888:0.043511834 8902:0.10478127 8911:0.057659965 8912:0.048733488 8978:0.032600176 9089:0.057659965 9149:0.019740939 9279:0.057659965 9368:0.02677943 9513:0.032600176 9604:0.029363703 9638:0.048733488 9659:0.1305355 9826:-0.020471312 9849:0.02677943 9855:0.020437228 10018:0.02195406 10139:0.016732404 10192:0.03980701 10321:0.034585357 10531:0.083540186 10638:0.029494448 10646:0.060527928 10761:0.043511834 10828:0.048733488 10886:0.02677943 10912:0.057659965 10933:0.097466975 11047:0.019740939 11062:0.03980701 11112:0.024628077 11131:0.048733488 11155:0.050124113 11355:0.021173324 11399:0.065200351 11415:0.033464808 11432:0.056013703 11464:0.021173324 11544:0.057659965 11656:0.057659965 11748:-0.27159411 11858:0.088091113 11905:0.01187354 11936:0.011641495 11937:0.0236737 12013:0.0236737 12132:0.024628077 12196:0.028006852 12357:0.034585357 12370:0.087023668 12413:0.043511834 12548:0.017852953 12628:-0.048646208 12657:0.048733488 12679:0.14773332 12942:0.0092225401 13138:0.034585357 13186:0.057659965 13205:-0.015371162 13224:0.088091113 13337:0.017852953 13525:0.048733488 13528:0.029363703 13556:0.03980701 13590:0.02677943 13835:0.030880535 13879:0.02677943 13895:0.022785198 14008:0.048733488 14062:0.03980701 14174:0.019740939 14326:0.087023668 14365:0.012246847 14473:0.079614021 14521:0.030880535 14553:0.028006852 14584:0.097466975 14800:-0.1975847 14982:0.032600176 15029:0.028590623 15055:0.1304007 15056:0.020437228 15075:0.057659965 15150:0.057659965 15342:0.029363703 15388:0.057659965 15418:0.083662026 15450:0.048733488 15487:0.0236737 15508:0.022785198 15633:0.091140792 15669:0.057659965 15710:0.03980701 15754:0.029363703 15825:0.043511834 15851:0.048733488 15947:0.03980701 15988:0.036904093 16006:0.048733488 16012:0.012246847 16043:0.019740939 16046:0.030880535 16059:0.057659965 16063:0.020437228 16208:0.057659965 16266:0.036933329 16285:0.022785198 16291:0.043908119 16339:0.0236737 16554:0.057659965 16577:0.051317763 16692:0.028006852 16788:0.020437228 16798:0.029363703 16810:0.057659965 16840:0.097466975 16963:0.028006852 17233:0.029363703 17362:0.057659965 17379:0.098512307 17396:0.057153419 17565:0.097466975 17582:0.043511834 17603:0.083662026 17652:0.069170713 17700:0.048733488 17736:0.057659965 17752:0.13671118 17885:0.034585357 18073:0.03980701 18093:0.057659965 18130:0.03980701 18163:0.028576709 18376:0.019080374 18431:0.028590623 18475:0.057659965 18573:0.057659965 18672:0.030431146 18766:0.013436448 18891:0.057659965 18918:0.043511834 19045:0.057659965 19049:0.058727406 19172:0.073866658 19338:0.043511834 19697:0.032600176 19705:0.034548268 19875:0.0013894138 19897:0.022785198 19899:0.034532253 19994:-0.011659393 20090:0.048733488 20094:0.057659965 20193:0.087023668 20379:0.029363703 20446:0.019080374 20473:0.097466975 20481:0.014747224 20625:0.025658881 20633:0.034585357 20693:0.097466975 20729:0.097466975 20750:0.057659965 20831:0.016206691 20850:0.011157902 21000:0.030880535 21056:0.02677943 #
-0.04669953284405825577607629384147 64:0.06741602 97:0.11239453 260:0.071992829 436:0.048006639 642:0.06741602 663:0.11239453 719:0.11239453 820:0.071992829 882:0.077594399 1199:0.071992829 1328:0.084816083 1553:0.11239453 2118:0.037192702 2133:0.057237633 2138:0.020428188 2366:0.077594399 2717:0.06741602 2922:0.11239453 2938:0.071992829 3160:0.028746244 3168:-0.012011535 3426:0.010901865 3538:0.048006639 3605:0.06741602 3621:0.057237633 3657:0.052382387 3996:0.084816083 4202:0.09499447 4361:0.077594399 4745:0.039619528 5210:0.018567856 5235:0.057492487 5412:0.026191194 6027:0.063546374 6112:0.033684257 6223:0.038480315 6720:0.060194336 7227:-0.003951014 7378:0.09499447 7456:0.071992829 7536:0.027865347 8109:0.067368515 8522:0.16963217 8545:0.088828765 8563:0.11239453 8599:0.030606573 8612:0.057237633 8733:0.044414382 8991:0.11239453 9348:0.060194336 9616:0.11239453 9798:0.09499447 10139:0.097847655 10146:0.09499447 10189:0.041272413 10343:0.030606573 10646:0.011798495 10728:0.044414382 10759:0.14398566 10825:0.06741602 11009:0.11239453 11138:0.084816083 11155:0.032568388 11297:0.084816083 11371:0.11239453 11416:0.11239453 11666:0.071992829 11748:-0.058823202 11905:0.046289347 11936:0.011346177 12035:0.027014315 12390:0.077594399 12732:0.079675131 12769:0.035967924 12969:0.084816083 13205:-0.019974975 13568:0.057492487 13633:0.048006639 13677:0.16963217 13753:0.071992829 13826:0.11239453 13879:0.052200198 13940:0.060194336 14365:0.023872348 14401:0.11146139 14402:0.054592766 14800:-0.42015806 14916:0.11239453 14947:0.084816083 15053:0.11239453 15056:0.079675131 15870:0.071992829 15956:0.10918553 15979:0.11239453 16012:0.023872348 16205:0.071992829 16408:0.037192702 16577:0.050015952 16602:0.063546374 16785:0.071992829 17139:0.14877081 17233:0.057237633 17624:0.11239453 17752:0.044414382 17758:0.09499447 18051:0.11239453 18073:0.1551888 18163:0.018567856 18376:0.037192702 18431:0.027865347 18672:0.02965918 18766:0.026191194 18888:0.09499447 19310:0.084816083 19330:0.060194336 19398:0.11239453 19448:0.11157811 19699:0.11239453 19705:0.03367186 19862:0.11239453 19957:0.017400065 19994:-0.015151495 20379:0.057237633 20406:0.1551888 20412:0.054592766 20480:0.084816083 20625:0.1000319 20932:0.11239453 21011:0.11239453 21059:0.052200198 #
