SVM-light Version V6.02
0 # kernel type
3 # kernel parameter -d 
1 # kernel parameter -g 
1 # kernel parameter -s 
1 # kernel parameter -r 
empty# kernel parameter -u 
6385 # highest feature index 
8 # number of training documents 
9 # number of support vectors plus 1 
0.6655472 # threshold b, each following line is a SV (starting with alpha*y)
-0.33305064943507678432155216796673 7:0.034235809 19:0.034235809 22:0.034235809 34:0.034235809 43:0.034235809 45:0.065041967 56:0.034235809 72:0.052628778 74:0.034235809 75:0.034235809 76:0.034235809 84:0.034235809 85:0.034235809 117:0.034235809 135:0.034235809 142:0.034235809 143:0.034235809 155:0.034235809 168:0.034235809 184:0.034235809 188:0.034235809 189:0.034235809 192:0.034235809 194:0.034235809 195:0.034235809 205:0.034235809 211:0.034235809 233:0.034235809 236:0.034235809 241:0.034235809 243:0.034235809 244:0.034235809 245:0.034235809 249:0.034235809 254:0.034235809 263:0.034235809 264:0.034235809 265:0.034235809 276:0.034235809 287:0.034235809 289:0.034235809 304:0.034235809 318:0.034235809 346:0.034235809 354:0.034235809 374:0.034235809 379:0.034235809 382:0.034235809 393:0.034235809 397:0.034235809 431:0.034235809 438:0.034235809 440:0.034235809 444:0.034235809 446:0.034235809 448:0.034235809 462:0.034235809 464:0.034235809 466:0.034235809 467:0.034235809 471:0.034235809 472:0.034235809 478:0.034235809 483:0.034235809 527:0.034235809 528:0.034235809 530:0.034235809 542:0.034235809 563:0.034235809 564:0.034235809 571:0.034235809 591:0.034235809 604:0.034235809 618:0.034235809 621:0.034235809 644:0.034235809 646:0.034235809 657:0.034235809 677:0.034235809 701:0.034235809 702:0.034235809 712:0.034235809 733:0.034235809 736:0.034235809 740:0.034235809 743:0.034235809 744:0.034235809 749:0.034235809 750:0.034235809 763:0.034235809 776:0.034235809 792:0.034235809 797:0.034235809 802:0.034235809 809:0.034235809 827:0.034235809 831:0.034235809 834:0.034235809 837:0.034235809 872:0.034235809 875:0.034235809 882:0.034235809 897:0.034235809 899:0.034235809 901:0.034235809 907:0.034235809 941:0.034235809 977:0.026314389 979:0.034235809 984:0.034235809 986:0.034235809 991:0.034235809 1000:0.034235809 1024:0.018392969 1034:0.034235809 1035:0.034235809 1040:0.034235809 1041:0.034235809 1049:0.034235809 1051:0.034235809 1064:0.034235809 1067:0.034235809 1073:0.034235809 1075:0.034235809 1090:0.034235809 1091:0.034235809 1096:0.034235809 1098:0.034235809 1100:0.034235809 1104:0.034235809 1115:0.034235809 1125:0.034235809 1129:0.034235809 1132:0.052628778 1137:0.034235809 1138:0.034235809 1139:0.034235809 1143:0.052628778 1179:0.034235809 1180:0.034235809 1182:0.034235809 1185:0.034235809 1194:0.034235809 1197:0.034235809 1198:0.034235809 1200:0.034235809 1202:0.034235809 1205:0.034235809 1209:0.034235809 1222:0.034235809 1230:0.034235809 1237:0.034235809 1239:0.034235809 1243:0.034235809 1245:0.034235809 1257:0.034235809 1262:0.034235809 1267:0.034235809 1276:0.0792142 1277:0.052628778 1305:0.034235809 1307:0.034235809 1310:0.034235809 1316:0.034235809 1317:0.034235809 1322:0.034235809 1324:0.034235809 1338:0.034235809 1353:0.034235809 1354:0.034235809 1360:0.034235809 1362:0.036785938 1366:0.034235809 1375:0.034235809 1383:0.034235809 1387:0.034235809 1394:0.034235809 1411:0.034235809 1415:0.034235809 1419:0.034235809 1424:0.034235809 1425:0.034235809 1428:0.034235809 1437:0.034235809 1445:0.034235809 1456:0.034235809 1458:0.034235809 1464:0.034235809 1474:0.034235809 1482:0.034235809 1487:0.034235809 1499:0.034235809 1504:0.034235809 1513:0.034235809 1518:0.034235809 1519:0.034235809 1533:0.034235809 1537:0.034235809 1540:0.034235809 1544:0.034235809 1553:0.034235809 1563:0.034235809 1583:0.034235809 1587:0.034235809 1589:0.052628778 1591:0.034235809 1596:0.034235809 1598:0.034235809 1606:0.034235809 1608:0.034235809 1628:0.034235809 1633:0.034235809 1638:0.034235809 1646:0.034235809 1653:0.034235809 1676:0.034235809 1696:0.034235809 1713:0.034235809 1717:0.034235809 1735:0.052628778 1739:0.034235809 1750:0.034235809 1766:0.034235809 1769:0.034235809 1770:0.034235809 1783:0.052628778 1785:0.034235809 1789:0.034235809 1796:0.034235809 1798:0.034235809 1800:0.034235809 1822:0.034235809 1829:0.034235809 1830:0.034235809 1844:0.034235809 1848:0.034235809 1851:0.034235809 1855:0.034235809 1863:0.034235809 1865:0.034235809 1884:0.034235809 1889:0.034235809 1909:0.034235809 1920:0.034235809 1923:0.034235809 1931:0.034235809 1937:0.034235809 1951:0.034235809 1966:0.034235809 1970:0.034235809 1971:0.034235809 1991:0.034235809 2010:0.034235809 2011:0.034235809 2018:0.034235809 2030:0.034235809 2034:0.034235809 2036:0.034235809 2040:0.034235809 2043:0.034235809 2045:0.034235809 2048:0.034235809 2056:0.034235809 2066:0.034235809 2080:0.034235809 2082:0.034235809 2085:0.034235809 2089:0.034235809 2090:0.034235809 2103:0.034235809 2121:0.034235809 2122:0.034235809 2129:0.065041967 2147:0.034235809 2159:0.034235809 2165:0.034235809 2170:0.034235809 2201:0.034235809 2205:0.034235809 2212:0.034235809 2217:0.034235809 2219:0.034235809 2221:0.034235809 2231:0.034235809 2232:0.034235809 2238:0.034235809 2242:0.034235809 2248:0.034235809 2261:0.034235809 2262:0.034235809 2277:0.034235809 2285:0.034235809 2286:0.034235809 2288:0.034235809 2289:0.034235809 2297:0.034235809 2306:0.034235809 2329:0.034235809 2337:0.034235809 2340:0.034235809 2343:0.034235809 2358:0.052628778 2361:0.034235809 2374:0.034235809 2396:0.034235809 2399:0.034235809 2405:0.034235809 2410:0.034235809 2437:0.034235809 2468:0.034235809 2477:0.034235809 2485:0.026314389 2501:0.052628778 2513:0.034235809 2519:0.034235809 2524:0.034235809 2543:0.034235809 2545:0.034235809 2551:0.034235809 2553:0.034235809 2563:0.034235809 2567:0.034235809 2578:0.034235809 2579:0.034235809 2583:0.034235809 2587:0.034235809 2588:0.034235809 2594:0.034235809 2600:0.034235809 2614:0.034235809 2617:0.034235809 2636:0.034235809 2638:0.034235809 2639:0.034235809 2654:0.034235809 2655:0.034235809 2662:0.034235809 2665:0.034235809 2682:0.034235809 2684:0.034235809 2711:0.034235809 2712:0.034235809 2715:0.034235809 2718:0.034235809 2742:0.034235809 2757:0.034235809 2760:0.034235809 2781:0.034235809 2782:0.034235809 2783:0.034235809 2785:0.034235809 2787:0.034235809 2788:0.034235809 2792:0.034235809 2797:0.034235809 2799:0.034235809 2825:0.034235809 2830:0.052628778 2847:0.034235809 2848:0.034235809 2851:0.034235809 2864:0.034235809 2866:0.034235809 2877:0.034235809 2882:0.034235809 2898:0.034235809 2908:0.034235809 2911:0.034235809 2922:0.021680655 2928:0.034235809 2929:0.034235809 2935:0.034235809 2937:0.034235809 2964:0.034235809 2966:0.034235809 2978:0.034235809 2985:0.034235809 2993:0.034235809 2998:0.034235809 3018:0.034235809 3019:0.034235809 3029:0.034235809 3030:0.052628778 3044:0.034235809 3046:0.034235809 3050:0.052628778 3051:0.034235809 3070:0.034235809 3073:0.034235809 3075:0.034235809 3078:0.034235809 3119:0.052628778 3144:0.034235809 3145:0.034235809 3148:0.034235809 3156:0.034235809 3160:0.034235809 3178:0.034235809 3181:0.034235809 3200:0.034235809 3228:0.034235809 3232:0.034235809 3240:0.034235809 3252:0.034235809 3254:0.052628778 3257:0.034235809 3267:0.034235809 3269:0.034235809 3270:0.034235809 3273:0.034235809 3298:0.034235809 3307:0.034235809 3316:0.034235809 3321:0.034235809 3331:0.034235809 3348:0.034235809 3352:0.034235809 3355:0.034235809 3356:0.034235809 3361:0.034235809 3392:0.034235809 3405:0.034235809 3419:0.034235809 3426:0.034235809 3437:0.034235809 3454:0.034235809 3460:0.034235809 3466:0.034235809 3467:0.034235809 3471:0.034235809 3482:0.034235809 3486:0.034235809 3499:0.034235809 3502:0.034235809 3511:0.034235809 3518:0.034235809 3527:0.034235809 3530:0.034235809 3538:0.034235809 3552:0.034235809 3554:0.034235809 3555:0.034235809 3564:0.034235809 3567:0.034235809 3571:0.034235809 3572:0.034235809 3585:0.034235809 3588:0.034235809 3593:0.052628778 3603:0.034235809 3614:0.034235809 3615:0.034235809 3620:0.034235809 3622:0.034235809 3646:0.034235809 3650:0.034235809 3679:0.034235809 3681:0.034235809 3684:0.034235809 3694:0.034235809 3700:0.034235809 3706:0.034235809 3727:0.034235809 3733:0.034235809 3747:0.034235809 3750:0.034235809 3781:0.034235809 3792:0.034235809 3797:0.034235809 3806:0.034235809 3818:0.034235809 3838:0.034235809 3846:0.034235809 3849:0.034235809 3851:0.034235809 3852:0.034235809 3864:0.034235809 3865:0.034235809 3867:0.034235809 3870:0.034235809 3891:0.052628778 3897:0.034235809 3906:0.034235809 3914:0.034235809 3918:0.034235809 3919:0.034235809 3921:0.034235809 3925:0.034235809 3926:0.034235809 3933:0.034235809 3938:0.034235809 3941:0.034235809 3943:0.034235809 3952:0.034235809 3971:0.034235809 3983:0.034235809 3987:0.034235809 3989:0.034235809 4006:0.034235809 4022:0.034235809 4032:0.034235809 4053:0.034235809 4054:0.034235809 4055:0.034235809 4086:0.034235809 4088:0.052628778 4093:0.034235809 4106:0.034235809 4110:0.034235809 4121:0.034235809 4122:0.034235809 4152:0.034235809 4182:0.034235809 4185:0.034235809 4187:0.034235809 4190:0.034235809 4191:0.034235809 4194:0.034235809 4218:0.034235809 4223:0.034235809 4228:0.034235809 4230:0.034235809 4238:0.034235809 4243:0.034235809 4247:0.034235809 4268:0.034235809 4272:0.034235809 4296:0.034235809 4302:0.034235809 4307:0.034235809 4312:0.052628778 4314:0.034235809 4317:0.034235809 4339:0.034235809 4340:0.034235809 4352:0.034235809 4370:0.034235809 4386:0.034235809 4390:0.034235809 4393:0.034235809 4394:0.034235809 4396:0.034235809 4403:0.052628778 4437:0.034235809 4450:0.034235809 4451:0.034235809 4452:0.034235809 4454:0.034235809 4471:0.034235809 4473:0.034235809 4483:0.034235809 4489:0.034235809 4498:0.034235809 4501:0.034235809 4502:0.034235809 4519:0.034235809 4522:0.034235809 4528:0.034235809 4531:0.034235809 4537:0.034235809 4547:0.034235809 4551:0.034235809 4553:0.034235809 4556:0.034235809 4576:0.034235809 4577:0.034235809 4580:0.034235809 4582:0.034235809 4587:0.034235809 4594:0.034235809 4606:0.034235809 4619:0.034235809 4624:0.065041967 4626:0.034235809 4643:0.065041967 4644:0.034235809 4651:0.034235809 4653:0.034235809 4657:0.034235809 4659:0.034235809 4671:0.034235809 4678:0.034235809 4694:0.034235809 4696:0.034235809 4701:0.034235809 4705:0.034235809 4706:0.034235809 4707:0.034235809 4713:0.034235809 4716:0.034235809 4717:0.026314389 4718:0.034235809 4721:0.034235809 4755:0.034235809 4759:0.034235809 4762:0.034235809 4784:0.034235809 4789:0.034235809 4797:0.034235809 4804:0.034235809 4810:0.052628778 4814:0.034235809 4841:0.034235809 4843:0.034235809 4850:0.034235809 4859:0.034235809 4864:0.026314389 4869:0.034235809 4878:0.034235809 4884:0.034235809 4885:0.034235809 4920:0.034235809 4921:0.034235809 4926:0.034235809 4928:0.034235809 4929:0.034235809 4931:0.034235809 4935:0.034235809 4944:0.034235809 4951:0.034235809 4957:0.034235809 4959:0.034235809 4985:0.034235809 4991:0.034235809 4994:0.034235809 4995:0.034235809 4998:0.034235809 5000:0.034235809 5001:0.034235809 5005:0.034235809 5008:0.034235809 5016:0.034235809 5020:0.034235809 5031:0.034235809 5036:0.034235809 5054:0.034235809 5067:0.034235809 5070:0.034235809 5078:0.034235809 5089:0.034235809 5096:0.034235809 5100:0.034235809 5110:0.034235809 5113:0.034235809 5115:0.034235809 5122:0.034235809 5135:0.034235809 5138:0.034235809 5139:0.034235809 5160:0.052628778 5161:0.034235809 5173:0.034235809 5174:0.034235809 5175:0.036785938 5197:0.034235809 5206:0.034235809 5209:0.034235809 5212:0.034235809 5221:0.034235809 5245:0.034235809 5247:0.034235809 5257:0.052628778 5258:0.034235809 5263:0.034235809 5277:0.034235809 5295:0.034235809 5298:0.034235809 5300:0.034235809 5306:0.034235809 5328:0.034235809 5330:0.034235809 5334:0.034235809 5341:0.034235809 5373:0.034235809 5380:0.034235809 5391:0.034235809 5398:0.034235809 5405:0.034235809 5409:0.034235809 5417:0.034235809 5421:0.034235809 5423:0.034235809 5426:0.034235809 5434:0.034235809 5440:0.034235809 5452:0.034235809 5465:0.034235809 5468:0.034235809 5469:0.034235809 5471:0.034235809 5480:0.034235809 5482:0.034235809 5487:0.034235809 5488:0.034235809 5502:0.034235809 5518:0.034235809 5523:0.034235809 5545:0.034235809 5552:0.034235809 5561:0.034235809 5563:0.034235809 5564:0.034235809 5572:0.034235809 5573:0.034235809 5581:0.034235809 5584:0.034235809 5594:0.034235809 5596:0.034235809 5613:0.034235809 5622:0.034235809 5623:0.052628778 5629:0.034235809 5632:0.034235809 5633:0.034235809 5635:0.034235809 5639:0.034235809 5645:0.034235809 5660:0.034235809 5664:0.034235809 5675:0.034235809 5691:0.034235809 5702:0.034235809 5707:0.034235809 5709:0.034235809 5710:0.052628778 5716:0.026314389 5727:0.034235809 5759:0.034235809 5765:0.034235809 5770:0.034235809 5784:0.034235809 5788:0.034235809 5794:0.034235809 5806:0.034235809 5809:0.034235809 5812:0.034235809 5814:0.034235809 5816:0.034235809 5823:0.034235809 5825:0.034235809 5829:0.034235809 5837:0.034235809 5860:0.034235809 5865:0.034235809 5866:0.034235809 5878:0.034235809 5887:0.034235809 5890:0.034235809 5891:0.034235809 5893:0.034235809 5902:0.034235809 5903:0.034235809 5910:0.034235809 5911:0.034235809 5921:0.034235809 5930:0.034235809 5937:0.034235809 5956:0.034235809 5978:0.034235809 6000:0.034235809 6005:0.034235809 6020:0.034235809 6021:0.034235809 6029:0.034235809 6035:0.034235809 6042:0.034235809 6053:0.034235809 6063:0.034235809 6087:0.052628778 6088:0.034235809 6094:0.034235809 6096:0.034235809 6102:0.034235809 6121:0.034235809 6123:0.034235809 6138:0.034235809 6141:0.034235809 6142:0.034235809 6145:0.034235809 6152:0.034235809 6154:0.034235809 6159:0.034235809 6168:0.034235809 6172:0.034235809 6185:0.034235809 6212:0.034235809 6213:0.034235809 6217:0.034235809 6228:0.034235809 6237:0.034235809 6238:0.034235809 6250:0.034235809 6277:0.034235809 6292:0.034235809 6315:0.034235809 6321:0.026314389 6329:0.034235809 6330:0.034235809 6333:0.034235809 6338:0.034235809 6339:0.052628778 6343:0.034235809 6350:0.034235809 6356:0.034235809 6357:0.034235809 6364:0.034235809 6383:0.021680655 #
-0.33203635117214941319119247964409 6:0.098739691 77:0.098739691 266:0.098739691 291:0.098739691 366:0.098739691 392:0.098739691 426:0.098739691 435:0.098739691 475:0.098739691 511:0.098739691 553:0.098739691 757:0.098739691 799:0.098739691 807:0.098739691 851:0.098739691 869:0.098739691 939:0.098739691 957:0.098739691 959:0.098739691 1092:0.098739691 1181:0.098739691 1231:0.098739691 1236:0.098739691 1293:0.098739691 1311:0.098739691 1362:0.053047266 1388:0.098739691 1412:0.098739691 1564:0.098739691 1607:0.098739691 1656:0.098739691 1697:0.098739691 1748:0.098739691 1765:0.098739691 1917:0.098739691 2176:0.098739691 2363:0.098739691 2386:0.098739691 2434:0.098739691 2480:0.098739691 2482:0.098739691 2485:0.075893477 2550:0.098739691 2557:0.098739691 2569:0.098739691 2657:0.098739691 2676:0.098739691 2681:0.098739691 2701:0.098739691 2842:0.098739691 2888:0.098739691 2893:0.098739691 2925:0.098739691 2939:0.098739691 2951:0.098739691 3047:0.098739691 3123:0.098739691 3182:0.098739691 3202:0.098739691 3367:0.098739691 3388:0.098739691 3436:0.098739691 3457:0.098739691 3699:0.098739691 3816:0.098739691 3828:0.098739691 4039:0.098739691 4077:0.098739691 4133:0.098739691 4138:0.098739691 4139:0.098739691 4164:0.098739691 4210:0.098739691 4229:0.098739691 4271:0.098739691 4328:0.098739691 4440:0.098739691 4455:0.098739691 4458:0.098739691 4466:0.098739691 4513:0.098739691 4672:0.098739691 5077:0.098739691 5175:0.053047266 5236:0.098739691 5305:0.098739691 5325:0.098739691 5357:0.098739691 5361:0.098739691 5399:0.098739691 5401:0.098739691 5579:0.098739691 5589:0.098739691 5641:0.098739691 5721:0.098739691 5771:0.098739691 5810:0.098739691 5894:0.098739691 6011:0.098739691 6044:0.098739691 6169:0.098739691 6170:0.098739691 6206:0.098739691 6349:0.098739691 6383:0.062529303 #
-0.33411517011668057097750761386123 32:0.042000901 38:0.042000901 39:0.042000901 60:0.042000901 68:0.042000901 73:0.042000901 89:0.042000901 98:0.042000901 101:0.042000901 107:0.042000901 118:0.042000901 145:0.042000901 151:0.064565614 172:0.042000901 180:0.042000901 190:0.042000901 204:0.042000901 212:0.042000901 214:0.042000901 230:0.042000901 252:0.042000901 253:0.042000901 274:0.042000901 294:0.042000901 317:0.042000901 329:0.042000901 337:0.042000901 340:0.042000901 352:0.042000901 357:0.042000901 359:0.042000901 360:0.042000901 412:0.042000901 415:0.042000901 420:0.042000901 469:0.042000901 476:0.042000901 520:0.042000901 549:0.042000901 565:0.042000901 572:0.042000901 573:0.064565614 582:0.042000901 585:0.042000901 588:0.042000901 611:0.042000901 613:0.042000901 626:0.042000901 629:0.042000901 634:0.042000901 650:0.042000901 662:0.042000901 686:0.042000901 699:0.042000901 703:0.042000901 705:0.042000901 739:0.042000901 741:0.042000901 761:0.042000901 765:0.042000901 767:0.042000901 785:0.042000901 813:0.042000901 817:0.042000901 818:0.042000901 821:0.042000901 823:0.042000901 846:0.042000901 881:0.042000901 894:0.042000901 915:0.042000901 930:0.042000901 933:0.042000901 938:0.042000901 943:0.042000901 946:0.042000901 960:0.042000901 965:0.042000901 983:0.042000901 990:0.042000901 999:0.042000901 1002:0.042000901 1004:0.042000901 1025:0.042000901 1044:0.042000901 1063:0.042000901 1071:0.042000901 1074:0.042000901 1077:0.042000901 1081:0.042000901 1102:0.042000901 1109:0.042000901 1112:0.042000901 1114:0.042000901 1126:0.042000901 1152:0.042000901 1165:0.042000901 1170:0.042000901 1171:0.042000901 1172:0.042000901 1174:0.042000901 1178:0.042000901 1183:0.042000901 1190:0.042000901 1192:0.042000901 1219:0.042000901 1223:0.042000901 1253:0.042000901 1264:0.042000901 1280:0.042000901 1283:0.042000901 1285:0.042000901 1312:0.064565614 1334:0.042000901 1341:0.042000901 1348:0.042000901 1361:0.042000901 1374:0.042000901 1381:0.042000901 1386:0.042000901 1417:0.042000901 1422:0.042000901 1423:0.042000901 1433:0.042000901 1440:0.042000901 1452:0.042000901 1455:0.042000901 1466:0.042000901 1470:0.042000901 1490:0.042000901 1492:0.042000901 1498:0.042000901 1500:0.042000901 1522:0.042000901 1525:0.042000901 1557:0.042000901 1574:0.042000901 1579:0.042000901 1597:0.042000901 1603:0.042000901 1622:0.042000901 1625:0.042000901 1630:0.042000901 1632:0.042000901 1635:0.042000901 1642:0.042000901 1643:0.042000901 1663:0.042000901 1664:0.042000901 1666:0.042000901 1669:0.042000901 1675:0.042000901 1680:0.042000901 1684:0.042000901 1698:0.042000901 1709:0.042000901 1725:0.042000901 1729:0.042000901 1743:0.042000901 1744:0.042000901 1751:0.042000901 1758:0.042000901 1768:0.042000901 1771:0.042000901 1776:0.042000901 1781:0.042000901 1801:0.042000901 1820:0.042000901 1862:0.042000901 1880:0.042000901 1885:0.042000901 1887:0.042000901 1898:0.042000901 1916:0.042000901 1924:0.042000901 1935:0.042000901 1945:0.042000901 1963:0.042000901 1975:0.042000901 1985:0.042000901 1993:0.042000901 2001:0.042000901 2002:0.042000901 2008:0.042000901 2009:0.042000901 2019:0.042000901 2026:0.042000901 2047:0.042000901 2064:0.042000901 2070:0.042000901 2091:0.042000901 2101:0.042000901 2124:0.042000901 2130:0.042000901 2143:0.042000901 2152:0.042000901 2155:0.042000901 2158:0.042000901 2195:0.042000901 2196:0.042000901 2200:0.042000901 2204:0.042000901 2207:0.042000901 2226:0.042000901 2228:0.042000901 2233:0.042000901 2250:0.042000901 2263:0.042000901 2282:0.042000901 2283:0.042000901 2298:0.042000901 2359:0.042000901 2384:0.042000901 2400:0.042000901 2407:0.042000901 2415:0.042000901 2423:0.042000901 2429:0.042000901 2457:0.042000901 2475:0.042000901 2476:0.042000901 2481:0.042000901 2484:0.042000901 2500:0.042000901 2512:0.042000901 2514:0.042000901 2516:0.042000901 2542:0.042000901 2544:0.042000901 2562:0.042000901 2564:0.042000901 2570:0.042000901 2585:0.042000901 2609:0.042000901 2616:0.042000901 2626:0.042000901 2656:0.042000901 2690:0.042000901 2710:0.042000901 2713:0.042000901 2727:0.042000901 2739:0.042000901 2740:0.042000901 2744:0.042000901 2786:0.042000901 2795:0.042000901 2802:0.042000901 2808:0.042000901 2835:0.042000901 2836:0.042000901 2837:0.042000901 2841:0.042000901 2845:0.042000901 2855:0.042000901 2860:0.042000901 2862:0.042000901 2868:0.042000901 2869:0.064565614 2870:0.042000901 2871:0.042000901 2889:0.042000901 2902:0.042000901 2919:0.042000901 2934:0.042000901 2949:0.042000901 2973:0.042000901 2979:0.042000901 3005:0.042000901 3011:0.042000901 3014:0.042000901 3016:0.042000901 3021:0.042000901 3024:0.042000901 3037:0.042000901 3038:0.042000901 3039:0.042000901 3064:0.042000901 3071:0.042000901 3077:0.042000901 3104:0.042000901 3117:0.042000901 3127:0.042000901 3141:0.042000901 3149:0.042000901 3166:0.042000901 3176:0.042000901 3185:0.042000901 3195:0.042000901 3229:0.042000901 3247:0.042000901 3250:0.042000901 3255:0.042000901 3274:0.042000901 3277:0.042000901 3281:0.042000901 3283:0.042000901 3287:0.042000901 3295:0.042000901 3296:0.042000901 3319:0.042000901 3333:0.042000901 3341:0.042000901 3350:0.042000901 3360:0.042000901 3362:0.042000901 3374:0.042000901 3422:0.042000901 3431:0.042000901 3443:0.042000901 3453:0.042000901 3455:0.042000901 3490:0.042000901 3491:0.042000901 3497:0.042000901 3514:0.042000901 3517:0.042000901 3525:0.042000901 3584:0.042000901 3598:0.042000901 3602:0.042000901 3611:0.042000901 3612:0.042000901 3616:0.042000901 3653:0.042000901 3663:0.042000901 3677:0.042000901 3713:0.042000901 3716:0.042000901 3723:0.042000901 3732:0.042000901 3737:0.042000901 3739:0.042000901 3746:0.042000901 3775:0.042000901 3793:0.042000901 3795:0.042000901 3835:0.042000901 3856:0.042000901 3860:0.042000901 3872:0.042000901 3902:0.042000901 3909:0.042000901 3922:0.042000901 3923:0.042000901 3956:0.042000901 3960:0.042000901 3998:0.042000901 4007:0.042000901 4012:0.042000901 4016:0.042000901 4038:0.042000901 4040:0.042000901 4052:0.042000901 4068:0.042000901 4079:0.042000901 4082:0.042000901 4089:0.042000901 4090:0.042000901 4101:0.042000901 4103:0.042000901 4142:0.042000901 4170:0.042000901 4174:0.042000901 4213:0.042000901 4216:0.042000901 4224:0.042000901 4226:0.042000901 4231:0.042000901 4235:0.042000901 4246:0.042000901 4251:0.042000901 4255:0.042000901 4258:0.042000901 4273:0.042000901 4274:0.042000901 4293:0.042000901 4304:0.042000901 4315:0.042000901 4346:0.042000901 4347:0.042000901 4365:0.042000901 4371:0.042000901 4374:0.042000901 4375:0.042000901 4377:0.042000901 4381:0.042000901 4388:0.042000901 4391:0.042000901 4397:0.042000901 4412:0.042000901 4416:0.042000901 4429:0.042000901 4430:0.042000901 4435:0.042000901 4459:0.042000901 4462:0.042000901 4463:0.042000901 4495:0.042000901 4565:0.042000901 4575:0.042000901 4588:0.042000901 4590:0.042000901 4597:0.042000901 4615:0.042000901 4629:0.042000901 4633:0.042000901 4661:0.042000901 4663:0.042000901 4677:0.042000901 4685:0.042000901 4688:0.042000901 4689:0.042000901 4699:0.042000901 4725:0.042000901 4733:0.042000901 4754:0.042000901 4760:0.042000901 4770:0.042000901 4785:0.042000901 4836:0.042000901 4847:0.042000901 4849:0.042000901 4857:0.042000901 4871:0.042000901 4883:0.042000901 4897:0.042000901 4910:0.042000901 4932:0.042000901 4973:0.042000901 4974:0.042000901 4986:0.042000901 5004:0.042000901 5006:0.042000901 5013:0.042000901 5019:0.042000901 5045:0.042000901 5059:0.042000901 5063:0.042000901 5071:0.042000901 5076:0.042000901 5079:0.042000901 5092:0.042000901 5127:0.042000901 5128:0.042000901 5131:0.042000901 5142:0.042000901 5165:0.042000901 5169:0.042000901 5181:0.042000901 5192:0.042000901 5193:0.042000901 5194:0.042000901 5202:0.042000901 5203:0.042000901 5244:0.042000901 5252:0.042000901 5267:0.042000901 5282:0.042000901 5302:0.042000901 5308:0.042000901 5309:0.042000901 5336:0.042000901 5355:0.042000901 5365:0.042000901 5386:0.042000901 5387:0.042000901 5394:0.042000901 5400:0.042000901 5408:0.042000901 5419:0.042000901 5430:0.042000901 5438:0.042000901 5453:0.042000901 5474:0.042000901 5509:0.042000901 5513:0.042000901 5533:0.042000901 5551:0.042000901 5565:0.042000901 5575:0.042000901 5576:0.042000901 5595:0.042000901 5599:0.042000901 5611:0.042000901 5616:0.042000901 5617:0.042000901 5619:0.042000901 5636:0.042000901 5649:0.042000901 5661:0.042000901 5665:0.042000901 5670:0.042000901 5682:0.042000901 5683:0.042000901 5690:0.042000901 5726:0.042000901 5730:0.042000901 5737:0.042000901 5740:0.042000901 5741:0.042000901 5742:0.042000901 5743:0.042000901 5750:0.042000901 5751:0.042000901 5754:0.042000901 5755:0.042000901 5763:0.042000901 5764:0.042000901 5772:0.042000901 5778:0.042000901 5789:0.042000901 5818:0.042000901 5833:0.042000901 5836:0.042000901 5842:0.042000901 5859:0.042000901 5884:0.042000901 5901:0.042000901 5908:0.042000901 5917:0.042000901 5926:0.042000901 5927:0.042000901 5934:0.042000901 5947:0.042000901 5953:0.042000901 5954:0.042000901 5957:0.042000901 5980:0.064565614 5983:0.042000901 6016:0.042000901 6017:0.042000901 6022:0.042000901 6034:0.042000901 6039:0.042000901 6047:0.042000901 6055:0.042000901 6066:0.042000901 6071:0.042000901 6074:0.042000901 6091:0.042000901 6104:0.042000901 6115:0.042000901 6119:0.042000901 6136:0.042000901 6146:0.042000901 6151:0.042000901 6162:0.042000901 6173:0.042000901 6187:0.042000901 6190:0.042000901 6231:0.042000901 6248:0.042000901 6261:0.042000901 6284:0.042000901 6288:0.042000901 6316:0.042000901 6361:0.042000901 6368:0.042000901 6374:0.042000901 6375:0.042000901 6385:0.0097180931 #
-0.33337583895314498727557861457171 224:0.22909321 706:0.22909321 1450:0.22909321 1658:0.22909321 1874:0.22909321 2075:0.22909321 2776:0.22909321 2814:0.22909321 3146:0.22909321 3690:0.22909321 4005:0.22909321 4350:0.22909321 4389:0.22909321 4413:0.22909321 4428:0.22909321 4854:0.22909321 5191:0.22909321 5472:0.22909321 5483:0.22909321 6385:0.053007178 #
-0.33383434752914614707108853508544 81:0.085081615 95:0.085081615 110:0.085081615 285:0.085081615 330:0.085081615 350:0.085081615 356:0.085081615 399:0.085081615 449:0.085081615 548:0.085081615 673:0.085081615 675:0.085081615 755:0.085081615 778:0.085081615 808:0.085081615 815:0.085081615 845:0.085081615 874:0.085081615 900:0.085081615 903:0.085081615 948:0.085081615 1053:0.085081615 1087:0.085081615 1108:0.085081615 1151:0.085081615 1199:0.085081615 1204:0.085081615 1329:0.085081615 1331:0.085081615 1356:0.085081615 1368:0.085081615 1384:0.085081615 1406:0.085081615 1427:0.085081615 1512:0.085081615 1551:0.085081615 1661:0.085081615 1662:0.085081615 1681:0.085081615 1700:0.085081615 1710:0.085081615 1926:0.085081615 1997:0.085081615 2039:0.085081615 2044:0.085081615 2052:0.085081615 2142:0.085081615 2199:0.085081615 2352:0.085081615 2392:0.085081615 2395:0.085081615 2465:0.085081615 2467:0.085081615 2517:0.085081615 2565:0.085081615 2586:0.085081615 2683:0.085081615 2724:0.085081615 2743:0.085081615 2859:0.085081615 2921:0.085081615 2977:0.085081615 2996:0.085081615 3083:0.13079117 3103:0.085081615 3259:0.13079117 3312:0.085081615 3406:0.085081615 3416:0.085081615 3441:0.085081615 3473:0.085081615 3504:0.085081615 3639:0.085081615 3691:0.085081615 3780:0.085081615 3790:0.085081615 3794:0.085081615 3863:0.085081615 3890:0.085081615 3908:0.085081615 3970:0.085081615 3990:0.085081615 4105:0.085081615 4155:0.085081615 4165:0.085081615 4184:0.085081615 4186:0.085081615 4264:0.085081615 4288:0.085081615 4319:0.085081615 4426:0.085081615 4548:0.085081615 4550:0.085081615 4583:0.085081615 4593:0.085081615 4648:0.085081615 4715:0.13079117 4816:0.085081615 4831:0.085081615 4837:0.085081615 5095:0.085081615 5148:0.085081615 5207:0.085081615 5229:0.085081615 5262:0.085081615 5352:0.085081615 5358:0.085081615 5362:0.085081615 5470:0.085081615 5516:0.085081615 5542:0.085081615 5546:0.085081615 5548:0.085081615 5550:0.085081615 5560:0.085081615 5654:0.085081615 5732:0.085081615 5733:0.085081615 5744:0.085081615 5761:0.085081615 5785:0.085081615 5808:0.085081615 5822:0.085081615 5900:0.085081615 5951:0.085081615 5985:0.085081615 6002:0.085081615 6037:0.085081615 6045:0.085081615 6126:0.085081615 6216:0.085081615 6307:0.085081615 6331:0.085081615 6345:0.085081615 6385:0.019686032 #
1.0000000101154009612969275622163 149:0.1020629 339:0.13278688 348:0.13278688 630:0.1020629 661:0.1020629 688:0.1020629 762:0.13278688 1157:0.1020629 1184:0.13278688 1377:0.13278688 1451:0.1020629 1517:0.1020629 1547:0.1020629 1592:0.13278688 1619:0.13278688 1683:0.1020629 1843:0.1020629 1936:0.1020629 1939:0.13278688 2174:0.1020629 2181:0.13278688 2213:0.084090516 2322:0.1020629 2387:0.1020629 2403:0.1020629 2431:0.1020629 2552:0.1020629 2730:0.13278688 2923:0.14267781 2943:0.13278688 2960:0.13278688 2962:0.1020629 2968:0.13278688 2980:0.1020629 3194:0.1020629 3233:0.13278688 3403:0.13278688 3667:0.13278688 3738:0.1020629 3773:0.13278688 3834:0.13278688 3898:0.13278688 3929:0.13278688 3963:0.1020629 3984:0.071338907 4127:0.13278688 4208:0.13278688 4253:0.13278688 4267:0.1020629 4507:0.1020629 4621:0.13278688 4664:0.1020629 4695:0.13278688 4902:0.13278688 5022:0.13278688 5051:0.1020629 5091:0.1020629 5111:0.13278688 5133:0.14267781 5396:0.1020629 5491:0.13278688 5526:0.13278688 5618:0.13278688 5657:0.13278688 5748:0.13278688 5870:0.1020629 5944:0.13278688 6064:0.084090516 6106:0.1020629 6241:0.13278688 6382:0.1020629 #
1.0000000101154009612969275622163 4:0.049786076 26:0.049786076 64:0.049786076 80:0.049786076 100:0.049786076 149:0.038266663 166:0.049786076 183:0.049786076 210:0.049786076 237:0.049786076 257:0.049786076 282:0.049786076 309:0.049786076 324:0.049786076 365:0.049786076 385:0.049786076 458:0.049786076 473:0.049786076 477:0.049786076 479:0.049786076 491:0.049786076 507:0.049786076 524:0.049786076 541:0.049786076 544:0.049786076 559:0.049786076 569:0.049786076 576:0.049786076 587:0.049786076 589:0.049786076 617:0.049786076 630:0.038266663 640:0.049786076 652:0.049786076 661:0.038266663 688:0.038266663 690:0.049786076 716:0.049786076 728:0.049786076 803:0.049786076 822:0.049786076 848:0.049786076 858:0.049786076 865:0.049786076 889:0.049786076 921:0.049786076 923:0.049786076 937:0.049786076 954:0.049786076 967:0.049786076 970:0.049786076 972:0.049786076 997:0.049786076 1007:0.049786076 1010:0.049786076 1055:0.049786076 1070:0.049786076 1147:0.049786076 1157:0.038266663 1162:0.049786076 1195:0.049786076 1203:0.049786076 1224:0.049786076 1256:0.049786076 1287:0.049786076 1288:0.049786076 1296:0.049786076 1297:0.049786076 1299:0.049786076 1314:0.049786076 1418:0.049786076 1430:0.049786076 1441:0.049786076 1451:0.038266663 1460:0.049786076 1462:0.049786076 1476:0.049786076 1494:0.049786076 1516:0.049786076 1517:0.038266663 1536:0.049786076 1547:0.038266663 1577:0.049786076 1580:0.049786076 1624:0.076533325 1651:0.049786076 1667:0.049786076 1670:0.049786076 1683:0.038266663 1701:0.049786076 1718:0.049786076 1727:0.049786076 1749:0.049786076 1753:0.049786076 1779:0.049786076 1790:0.049786076 1807:0.049786076 1810:0.049786076 1819:0.049786076 1843:0.038266663 1864:0.049786076 1881:0.049786076 1904:0.049786076 1907:0.049786076 1908:0.049786076 1933:0.049786076 1936:0.038266663 1948:0.049786076 1952:0.049786076 1967:0.049786076 1996:0.049786076 2051:0.049786076 2058:0.049786076 2062:0.049786076 2063:0.049786076 2078:0.049786076 2079:0.049786076 2093:0.049786076 2098:0.049786076 2125:0.049786076 2139:0.049786076 2153:0.049786076 2174:0.038266663 2213:0.063056476 2244:0.049786076 2266:0.049786076 2315:0.049786076 2322:0.038266663 2345:0.049786076 2387:0.038266663 2388:0.049786076 2403:0.038266663 2404:0.049786076 2406:0.049786076 2431:0.038266663 2439:0.049786076 2441:0.049786076 2443:0.049786076 2450:0.049786076 2456:0.049786076 2459:0.049786076 2487:0.049786076 2507:0.049786076 2525:0.049786076 2541:0.049786076 2552:0.038266663 2574:0.049786076 2595:0.049786076 2601:0.049786076 2644:0.049786076 2672:0.049786076 2700:0.049786076 2721:0.049786076 2741:0.049786076 2762:0.049786076 2775:0.049786076 2784:0.049786076 2791:0.049786076 2794:0.049786076 2805:0.049786076 2811:0.049786076 2826:0.049786076 2831:0.049786076 2857:0.049786076 2883:0.049786076 2891:0.049786076 2894:0.049786076 2923:0.053494498 2946:0.049786076 2962:0.038266663 2969:0.049786076 2976:0.049786076 2980:0.038266663 2990:0.049786076 3008:0.049786076 3020:0.049786076 3033:0.049786076 3063:0.049786076 3090:0.049786076 3099:0.049786076 3106:0.049786076 3133:0.049786076 3136:0.049786076 3138:0.049786076 3187:0.049786076 3189:0.049786076 3194:0.038266663 3197:0.049786076 3201:0.049786076 3237:0.049786076 3251:0.049786076 3253:0.049786076 3272:0.049786076 3276:0.049786076 3304:0.076533325 3309:0.049786076 3315:0.049786076 3343:0.049786076 3363:0.049786076 3379:0.049786076 3407:0.049786076 3432:0.049786076 3458:0.049786076 3463:0.049786076 3493:0.049786076 3519:0.049786076 3543:0.049786076 3544:0.049786076 3547:0.049786076 3566:0.049786076 3569:0.049786076 3618:0.049786076 3623:0.049786076 3624:0.049786076 3627:0.049786076 3628:0.049786076 3634:0.049786076 3635:0.049786076 3644:0.049786076 3657:0.049786076 3738:0.038266663 3740:0.049786076 3755:0.049786076 3763:0.049786076 3764:0.049786076 3770:0.049786076 3801:0.049786076 3820:0.049786076 3822:0.076533325 3840:0.049786076 3854:0.049786076 3900:0.049786076 3911:0.049786076 3920:0.049786076 3959:0.049786076 3963:0.038266663 3965:0.049786076 3984:0.080241747 3995:0.049786076 4008:0.049786076 4009:0.049786076 4041:0.049786076 4064:0.049786076 4098:0.049786076 4100:0.049786076 4109:0.049786076 4113:0.049786076 4146:0.049786076 4147:0.094584711 4153:0.049786076 4175:0.049786076 4207:0.049786076 4217:0.049786076 4220:0.049786076 4250:0.049786076 4254:0.049786076 4267:0.038266663 4278:0.049786076 4303:0.049786076 4306:0.049786076 4333:0.049786076 4356:0.049786076 4359:0.049786076 4369:0.049786076 4419:0.049786076 4420:0.049786076 4434:0.049786076 4460:0.049786076 4464:0.049786076 4477:0.049786076 4490:0.049786076 4506:0.049786076 4507:0.038266663 4508:0.049786076 4514:0.049786076 4515:0.049786076 4543:0.076533325 4546:0.049786076 4581:0.049786076 4591:0.049786076 4603:0.049786076 4613:0.049786076 4623:0.049786076 4645:0.049786076 4646:0.049786076 4655:0.049786076 4664:0.038266663 4666:0.049786076 4698:0.049786076 4712:0.049786076 4717:0.038266663 4732:0.049786076 4787:0.049786076 4796:0.049786076 4822:0.049786076 4856:0.049786076 4868:0.049786076 4890:0.049786076 4909:0.049786076 4915:0.049786076 4963:0.049786076 4969:0.049786076 5021:0.049786076 5034:0.049786076 5038:0.049786076 5041:0.049786076 5051:0.038266663 5075:0.049786076 5081:0.049786076 5084:0.076533325 5087:0.049786076 5091:0.038266663 5093:0.049786076 5133:0.053494498 5152:0.049786076 5156:0.049786076 5158:0.049786076 5168:0.049786076 5183:0.049786076 5189:0.049786076 5195:0.049786076 5223:0.049786076 5237:0.049786076 5255:0.049786076 5269:0.049786076 5280:0.049786076 5281:0.049786076 5310:0.049786076 5319:0.049786076 5320:0.049786076 5329:0.049786076 5332:0.049786076 5347:0.049786076 5354:0.049786076 5389:0.049786076 5396:0.038266663 5429:0.049786076 5433:0.049786076 5458:0.049786076 5490:0.049786076 5514:0.049786076 5521:0.049786076 5529:0.049786076 5539:0.049786076 5556:0.049786076 5559:0.049786076 5578:0.049786076 5603:0.049786076 5605:0.049786076 5626:0.049786076 5630:0.049786076 5674:0.049786076 5677:0.049786076 5704:0.049786076 5749:0.049786076 5769:0.049786076 5777:0.049786076 5795:0.049786076 5807:0.049786076 5824:0.049786076 5840:0.049786076 5849:0.049786076 5858:0.049786076 5861:0.049786076 5869:0.049786076 5870:0.038266663 5876:0.049786076 5881:0.049786076 5885:0.049786076 5899:0.049786076 5916:0.049786076 5925:0.049786076 5936:0.049786076 5940:0.049786076 5942:0.049786076 5964:0.049786076 5968:0.049786076 5987:0.049786076 6001:0.049786076 6031:0.049786076 6038:0.049786076 6057:0.049786076 6064:0.063056476 6072:0.049786076 6079:0.049786076 6080:0.049786076 6106:0.038266663 6116:0.049786076 6133:0.049786076 6144:0.049786076 6210:0.049786076 6226:0.049786076 6230:0.049786076 6247:0.049786076 6267:0.049786076 6269:0.049786076 6282:0.049786076 6302:0.049786076 6309:0.049786076 6311:0.049786076 6336:0.049786076 6337:0.049786076 6365:0.049786076 6382:0.038266663 #
-0.33358766302460390873463325078774 124:0.13601536 506:0.13601536 580:0.13601536 615:0.13601536 764:0.13601536 993:0.13601536 1005:0.13601536 1250:0.13601536 1268:0.13601536 1335:0.13601536 1478:0.13601536 1538:0.13601536 1654:0.13601536 1693:0.13601536 1699:0.13601536 1850:0.13601536 1914:0.13601536 1980:0.13601536 2069:0.13601536 2193:0.13601536 2271:0.13601536 2300:0.13601536 3132:0.13601536 3167:0.13601536 3223:0.13601536 3506:0.13601536 3734:0.13601536 3819:0.13601536 4067:0.13601536 4144:0.13601536 4201:0.13601536 4252:0.13601536 4362:0.13601536 4436:0.13601536 4527:0.13601536 4665:0.13601536 4865:0.13601536 5052:0.13601536 5140:0.13601536 5404:0.13601536 5454:0.13601536 5684:0.13601536 5745:0.13601536 5933:0.13601536 6003:0.13601536 6010:0.13601536 6097:0.13601536 6125:0.13601536 6161:0.13601536 6184:0.13601536 6215:0.13601536 6221:0.13601536 6232:0.13601536 6314:0.13601536 6385:0.031470992 #
