SVM-light Version V6.02
0 # kernel type
3 # kernel parameter -d 
1 # kernel parameter -g 
1 # kernel parameter -s 
1 # kernel parameter -r 
empty# kernel parameter -u 
20192 # highest feature index 
49 # number of training documents 
39 # number of support vectors plus 1 
0.71894581 # threshold b, each following line is a SV (starting with alpha*y)
-0.19306510162933943064444974879734 102:0.10693161 414:0.043958608 425:0.10249821 725:0.10693161 1001:0.035131752 1018:0.036668111 1404:0.11523593 1686:0.020737786 2019:0.061524484 2039:0.044241518 2870:0.046163671 3003:0.024364276 3011:-0.015830752 3373:0.04193015 3473:0.10693161 3488:0.12304897 3528:0.079090364 3630:0.10693161 3807:0.079090364 3813:0.15818073 3858:0.15818073 4046:0.071799867 4062:0.10693161 4161:0.089365736 4176:0.066144913 4178:0.064790778 4215:0.10693161 4504:0.089365736 4528:0.036452487 4788:0.10249821 4946:0.071799867 4975:0.012210838 5012:0.13228983 5220:0.10693161 5435:0.066144913 5473:0.071799867 5653:0.066144913 5760:0.057617966 6043:0.087917216 6150:0.028177794 6224:0.057617966 6616:0.057617966 6685:0.061524484 6725:0.10693161 6757:0.089365736 6915:-0.036006533 7182:0.054233987 7302:0.035131752 7794:0.079090364 7836:0.10693161 7924:0.079090364 8343:0.022486217 8498:0.10693161 8715:0.079090364 8748:0.057617966 8776:0.089365736 9198:0.054233987 9410:-0.038075354 9581:0.051249105 9594:0.079090364 9708:0.089365736 9712:0.029776713 9788:0.071799867 9990:0.079090364 10094:0.011614523 10132:0.043958608 10156:0.10693161 10199:0.022486217 10207:0.023377018 10311:0.066144913 10563:0.10693161 10600:0.061524484 10699:0.012210838 10836:0.035131752 10921:0.066144913 11165:0.032313049 11268:-0.3299436 11420:0.052697625 11502:0.057617966 11962:0.10693161 12032:0.076607324 12058:0.046163671 12143:0.051249105 12210:0.033683229 12246:0.059553426 12411:0.080683731 12467:0.13228983 12660:-0.016029514 12849:0.071799867 13006:0.044972435 13193:0.10693161 13265:0.054233987 13323:0.12579045 13367:0.054233987 13574:0.10693161 13808:0.057617966 13958:0.051249105 14042:0.040052094 14110:0.079090364 14197:-0.35957924 14239:0.10693161 14438:0.035131752 14480:0.043958608 14534:0.089365736 14707:0.051249105 14766:0.079090364 14782:0.027471289 15027:0.10693161 15139:0.089365736 15327:0.061524484 15328:0.070263505 15534:0.066144913 15659:0.066144913 15728:0.032313049 15961:0.089365736 16518:0.10249821 16673:0.018322416 16785:0.089365736 16836:0.10693161 16875:0.057195589 16932:0.079090364 16960:0.040052094 17409:0.028177794 18004:0.00075089379 18031:0.040052094 18051:0.066144913 18253:0.089365736 18318:0.10693161 18323:0.03223471 18381:0.066144913 18552:0.079090364 18890:0.026894577 19049:0.0089435894 19114:0.054233987 19129:0.012821523 19164:-0.013534826 19569:0.10249821 19602:0.033683229 19845:0.054233987 19899:0.079090364 19953:0.036668111 19976:0.052785467 19995:0.016831268 20189:0.046163671 #
-0.097040663826640838340864547717501 1004:0.5697093 3452:0.27304453 7755:0.14636129 8031:0.15236308 10094:0.061879754 10207:0.041515958 14197:-0.21286257 16875:0.15236308 17663:0.12980777 18890:0.071644343 19049:0.023824787 19264:0.24595039 20133:0.5697093 20188:0.27304453 #
-0.32877145995305828707344630856824 448:0.060413212 739:0.057881951 751:0.13030675 781:0.10897825 1264:0.17617711 1578:0.089354187 2263:0.13030675 2276:0.10897825 2435:0.080037273 2863:0.037047572 3011:-0.05216448 3036:0.10897825 3722:0.17617711 4267:0.13030675 4528:0.03603477 4942:0.17617711 5321:0.089354187 5879:0.13030675 6233:0.1319771 6798:0.051096298 6845:0.065988548 7518:0.065988548 7567:0.14723614 7762:0.13030675 8237:0.065595679 8241:0.084436394 8261:0.13030675 8564:0.027363867 8748:0.18985905 8917:0.094929524 9761:0.057881951 10155:0.2606135 10286:0.069082782 11268:-0.21744183 11420:0.028940976 12411:0.022155322 12549:0.2606135 12649:0.35488549 12660:-0.026409715 13006:0.037047572 14068:0.10136577 14197:-0.1316514 14263:0.14723614 14480:0.072424799 14959:0.13030675 15297:0.084436394 15380:0.065988548 15710:0.10136577 15728:0.1064759 16193:0.089354187 16960:0.1319771 17351:0.12082642 17409:0.023212418 17436:0.17617711 17848:0.29447228 18004:0.00061857433 19111:0.030187426 19164:-0.022299547 19953:0.12082642 19962:0.14723614 20189:0.076057792 #
-0.39767744575514252236558832009905 164:0.07618659 4178:0.24471791 4528:0.041304842 5012:0.74949765 9410:-0.053929675 11420:0.09952075 12110:-0.030339357 12411:0.07618659 12984:0.27522808 16403:0.44809219 17409:0.079821676 18004:0.0021271217 20190:0.26154363 #
-0.20742128432753390021581196833722 164:0.024132626 183:0.010507961 338:0.063966818 412:0.020149412 718:0.10340174 739:0.021015922 808:0.021015922 980:0.063966818 998:0.047312096 1001:0.042031843 1165:0.13148087 1213:0.039568089 1261:0.038659528 1318:0.042950898 1345:0.047312096 1377:0.042950898 1404:0.034467246 1491:0.039568089 1496:0.047312096 1578:0.097328812 1609:0.053458858 1616:0.047312096 1755:0.073608272 1826:0.053458858 2010:0.053458858 2039:0.017643608 2263:0.047312096 2311:0.036804136 2362:0.047312096 2369:0.053458858 2435:0.029060129 2514:0.063966818 2515:0.094624192 2863:0.013451324 2870:0.055230498 2877:0.027615249 3011:-0.11364004 3043:0.053458858 3060:0.053458858 3126:0.047312096 3129:0.053458858 3132:0.053458858 3204:0.039568089 3256:0.12977175 3263:0.0096495589 3308:0.053458858 3368:0.034467246 3436:0.036804136 3452:0.030657373 3567:0.085901797 3599:0.047312096 3732:0.087180391 3810:0.053458858 3929:0.047312096 4050:0.036804136 4133:0.085901797 4198:0.11624052 4250:0.085901797 4267:0.047312096 4522:0.079136178 4528:0.021805989 4533:0.053458858 4655:0.042950898 4674:0.036804136 4788:0.030657373 4800:0.016798256 4975:0.0073045604 4990:0.036804136 5180:0.022913367 5321:0.097328812 5465:0.053458858 5499:0.039568089 5653:0.039568089 5781:0.053458858 5829:0.085901797 5879:0.047312096 5943:0.019329764 6025:0.15049647 6061:0.036804136 6233:0.023959285 6270:0.052592348 6391:0.053458858 6441:0.042950898 6459:0.063966818 6471:0.053458858 6474:0.047312096 6521:0.042950898 6616:0.034467246 6798:0.055656508 6859:0.039568089 7174:0.085901797 7207:0.063966818 7212:0.014002649 7310:0.042950898 7518:0.047918569 7538:0.047312096 7614:0.061314747 7656:0.053458858 7755:0.082167044 7762:0.047312096 7790:0.047312096 7834:0.047312096 7855:0.053458858 7924:0.047312096 7953:0.047312096 7958:0.047312096 8034:0.030657373 8045:0.047918569 8088:0.063966818 8176:0.045826733 8229:0.014574784 8237:0.01190832 8241:0.061314747 8261:0.047312096 8297:0.042950898 8324:0.053458858 8478:0.052592348 8513:0.0092260893 8548:0.053458858 8555:0.053458858 8564:0.024838349 8715:0.047312096 8846:0.047312096 8902:0.097328812 8917:0.034467246 8935:0.064885877 9198:0.032442939 9410:-0.056941986 9581:0.061314747 9606:0.053458858 9618:0.053458858 9715:0.036804136 9873:0.053458858 9990:0.047312096 10007:0.039568089 10012:0.053458858 10094:0.027791373 10104:0.063966818 10155:0.047312096 10199:0.013451324 10207:0.018645605 10311:0.039568089 10458:0.047312096 10506:0.053458858 10672:0.034467246 10785:0.047312096 10844:0.045826733 10986:0.047312096 11025:0.047312096 11032:0.053458858 11060:0.047312096 11123:0.073608272 11165:0.13530836 11268:-0.2171106 11304:0.039568089 11316:0.047312096 11375:0.030657373 11420:0.031523883 11449:0.006433039 11481:0.053458858 11502:0.068934493 11687:0.063966818 11710:0.055230498 11838:0.047312096 11844:0.042950898 11861:0.053458858 12143:0.030657373 12210:0.020149412 12246:0.01781252 12267:0.053458858 12308:0.063966818 12411:0.064353675 12478:0.085901797 12494:0.063966818 12554:0.029060129 12616:0.042950898 12660:-0.11506686 12665:0.047312096 12693:0.053458858 12876:0.023959285 12914:0.025082745 12968:0.030657373 12984:0.029060129 12995:0.042950898 13006:0.013451324 13039:0.042950898 13601:0.053458858 13679:0.085901797 13775:0.02192105 13796:0.053458858 14017:0.042950898 14043:0.063966818 14145:0.047312096 14172:0.030657373 14197:-0.31070203 14339:0.047312096 14433:0.034467246 14438:0.021015922 14440:0.063966818 14480:0.078888528 14707:0.030657373 14850:0.085901797 14868:0.082845747 14909:0.042950898 14934:0.047312096 14950:0.085901797 14985:0.0687401 15130:0.14193629 15267:0.073608272 15351:0.02192105 15388:0.058120258 15710:0.036804136 15751:0.039568089 15771:0.047312096 15853:0.053458858 15944:0.053458858 15961:0.053458858 16098:0.032442939 16100:0.053458858 16110:0.039568089 16193:0.032442939 16300:0.053458858 16332:0.063966818 16443:0.047312096 16638:0.053458858 16673:0.032881577 16753:0.029060129 16771:0.053458858 16894:0.094624192 16911:0.073608272 16960:0.023959285 17017:0.022913367 17019:0.053458858 17024:0.032442939 17128:0.047312096 17189:0.14193629 17311:0.047312096 17351:0.10967489 17409:0.016856043 17490:0.030657373 17743:0.039568089 18004:0.0017967478 18018:0.085901797 18051:0.079136178 18073:0.053458858 18076:0.053458858 18081:0.029060129 18323:0.038565807 18331:0.053458858 18564:0.034467246 18572:0.047312096 18625:0.036804136 18672:0.063966818 18692:0.047312096 18773:0.053458858 18898:0.053437565 19066:0.053458858 19073:0.038565807 19129:0.015339749 19164:-0.089062318 19206:0.047312096 19250:0.085901797 19348:0.094624192 19498:0.042950898 19533:0.042950898 19561:0.053458858 19569:0.061314747 19636:0.040353969 19690:0.047312096 19702:0.047312096 19776:0.085901797 19953:0.043869954 20181:0.047312096 20189:0.027615249 #
0.99999999811982842601310039754026 30:0.20292903 541:0.15009341 572:0.066671133 1018:0.069586761 2010:0.16959347 2374:0.20292903 2602:0.20292903 2705:0.15009341 5077:0.20584466 5080:0.16959347 5172:0.044422157 6043:0.083422273 6224:0.10934426 6570:0.21868852 6679:0.16959347 6915:-0.017082812 7736:0.12552623 8544:0.11675784 8938:0.10292233 9025:0.12552623 9198:0.10292233 9202:0.20292903 9410:-0.018064337 10207:0.01478788 11268:-0.31307456 12032:0.21807185 12058:0.087606914 12411:0.025519535 13583:0.20292903 14042:0.076008692 14079:0.15009341 14197:-0.075821117 14415:0.33918694 14761:0.12552623 15086:0.12552623 15329:0.15009341 15708:0.16959347 15765:0.11675784 16098:0.10292233 17409:0.026737146 17663:0.046237204 18890:0.025519535 18898:0.11301727 19129:0.048663985 19264:0.087606914 19299:0.12552623 19953:0.069586761 20158:0.10292233 20189:0.087606914 #
0.99999999811982842601310039754026 572:0.1135893 2208:0.14212863 3011:-0.10236916 3303:0.34573534 4800:0.030264392 5077:0.17535138 6270:0.14212863 8544:0.19892329 8938:0.17535138 9410:-0.030776668 11268:-0.42671445 11522:0.12949793 12032:0.12384484 12787:0.10447577 12817:0.21386223 12968:0.16570054 13006:0.14540656 14042:0.12949793 14197:-0.12917835 14371:0.18629259 14931:0.34573534 15289:0.23214602 15616:0.13557014 16353:0.28894067 16673:0.059240725 16960:0.12949793 17409:0.091105506 20189:0.14925812 #
0.99999999811982842601310039754026 982:0.12099304 10447:0.64992714 10699:0.074217103 16313:0.64992714 16673:0.11136309 20187:0.35020027 #
0.99999999811982842601310039754026 412:0.23887068 12110:-0.037976209 12827:0.75832474 13881:0.50918162 20190:0.32737795 #
0.99999999811982842601310039754026 781:0.36049569 2690:0.58278686 3011:-0.17255801 6025:0.22852308 11268:-0.35964444 12110:-0.029185433 12267:0.48705128 16673:0.099858798 19073:0.087841026 20190:0.25159612 #
-0.33260121425209548950974181025231 4999:0.26205751 6589:0.59726423 12968:0.59726423 20191:0.46677268 #
-0.29720977773545065314664270772482 448:0.25432703 1686:0.14383559 3486:0.13807207 5020:0.22412066 7779:0.15596256 7891:0.39963353 9595:0.25432703 11268:-0.22884619 15380:0.27779803 17409:0.097719438 17894:0.16235496 17986:0.13807207 18537:0.54856431 18898:0.20652886 19049:0.062032003 20192:0.25432703 #
-0.089232751140101235209911578749598 17663:0.42803103 19049:0.078560382 20188:0.90034312 #
-0.022426702951051098733348254654629 100:0.039980624 369:0.032032583 446:0.055583619 476:0.049821321 670:0.062010136 749:0.070117533 1018:0.025443695 1213:0.045897398 1304:0.062010136 1494:0.042691324 1617:0.035561323 1754:0.054880135 1933:0.079961248 1997:0.054880135 2259:0.049821321 2525:0.042691324 2562:0.074198946 2686:0.062010136 2870:0.032032583 2878:0.074198946 3003:0.016906166 3011:-0.065908946 3036:0.1376922 3055:0.049821321 3151:0.062010136 3263:0.01865517 3322:0.054880135 3324:0.074198946 3373:0.029094979 3380:0.019843768 3469:0.074198946 3486:0.027626349 3756:0.042691324 3858:0.054880135 3882:0.022421753 3912:0.045897398 4141:0.054880135 4202:0.11994187 4524:0.062010136 4528:0.0050588143 4591:0.074929625 4765:0.062010136 4788:0.035561323 4800:0.012990203 4937:0.061005019 4946:0.049821321 4975:0.0084729977 5007:0.045897398 5760:0.079961248 5841:0.019062096 5864:0.037632506 5943:0.089687012 5991:0.062010136 6025:0.087284938 6043:0.030502509 6047:0.091794796 6081:0.062010136 6150:0.019552333 6467:0.071122646 6538:0.049821321 6713:0.062010136 6798:0.064559318 6826:0.074198946 6839:0.054880135 6915:-0.0062461575 7134:0.045897398 7182:0.11289752 7212:0.032485023 7567:0.062010136 7601:0.049821321 7674:0.030502509 7870:0.049821321 8056:0.074198946 8174:0.045897398 8197:0.062010136 8343:0.031205993 8487:0.074198946 8522:0.062010136 8564:0.011524596 8590:0.039980624 8607:0.054880135 8748:0.039980624 9080:0.054880135 9198:0.037632506 9410:-0.013210084 9438:0.029094979 9581:0.071122646 9594:0.054880135 9686:0.074198946 9690:0.074198946 9912:0.016906166 10026:0.074198946 10228:0.042691324 10231:0.054880135 10286:0.058189958 10328:0.074198946 10542:0.062010136 10600:0.042691324 10656:0.029094979 10755:0.062010136 10833:0.054880135 10889:0.074198946 11017:0.062010136 11146:0.045897398 11268:-0.25183961 11275:0.12402027 11304:0.045897398 11449:0.0037310338 11450:0.027791809 11502:0.039980624 11508:0.041323621 11543:0.014985925 11640:0.074198946 11698:0.033708587 12032:0.026578588 12110:-0.0037158155 12143:0.035561323 12179:0.062010136 12210:0.046745021 12434:0.074198946 12566:0.042691324 12660:-0.022245489 12767:0.062010136 12817:0.045897398 12849:0.099642642 13006:0.015602997 13136:0.062010136 13290:0.035561323 13294:0.049821321 13296:0.062010136 13367:0.037632506 13452:0.074198946 13561:0.049821321 13623:0.074198946 13675:0.049821321 13937:0.074198946 14042:0.027791809 14068:0.042691324 14144:0.074198946 14172:0.10668397 14197:-0.58218771 14414:0.035191704 14438:0.024377625 14480:0.030502509 14722:0.062010136 14766:0.054880135 14909:0.049821321 14953:0.079961248 15100:0.035561323 15298:0.062010136 15328:0.024377625 15351:0.012713769 15357:0.062010136 15399:0.02337251 15534:0.045897398 15728:0.044843506 15833:0.062010136 15931:0.062010136 16035:0.062010136 16193:0.075265013 16204:0.037632506 16502:0.074198946 16518:0.071122646 16553:0.039980624 16645:0.049821321 16673:0.025427539 16875:0.019843768 16960:0.083375432 17246:0.032032583 17316:0.045897398 17409:0.019552333 17566:0.074198946 17574:0.074198946 17659:0.062010136 17663:0.016906166 17664:0.032032583 17894:0.016242512 18031:0.027791809 18122:0.054880135 18240:0.049821321 18262:0.035561323 18323:0.011183698 18335:0.062010136 18529:0.037632506 18594:0.099642642 18643:0.022421753 18890:0.03732384 19045:0.054880135 19111:0.07628262 19129:0.0088967467 19164:-0.018783404 19264:0.064065166 19382:0.074198946 19899:0.054880135 19995:0.011679075 20189:0.032032583 #
-0.21805019687523716220844960389513 18:0.087429993 86:0.16264547 157:0.11812316 322:0.07615912 448:0.048467714 572:0.046436962 835:0.07615912 1001:0.046436962 1185:0.10454122 1380:0.10454122 1686:0.027411094 2045:0.12203778 2051:0.14134164 2133:0.10454122 2192:0.14134164 2286:0.067740798 2484:0.081322737 2815:0.10454122 2927:0.2439682 2938:0.14134164 2961:0.11812316 3011:-0.020925002 3263:0.0071072495 3472:0.10454122 3486:0.026312727 3882:0.085422434 4216:0.11812316 4387:0.1354816 4614:0.061018892 5020:0.042711217 5118:0.10454122 6019:0.055423051 6232:0.094904676 7023:0.087429993 7170:0.061018892 7449:0.18980935 7634:0.064211518 7779:0.059444323 7891:0.07615912 7988:0.16264547 8039:0.094904676 8074:0.081322737 8128:0.10125915 8229:0.032204568 9269:0.10125915 9274:0.081322737 9312:0.1108461 9410:-0.01258195 9595:0.048467714 9652:0.11812316 9705:0.058104254 9783:0.052940641 9788:0.094904676 9912:0.032204568 10432:0.11812316 10472:0.10454122 10656:0.055423051 10694:0.094904676 11268:-0.13083531 11420:0.023218481 11485:0.12842304 11674:0.10454122 12123:0.11812316 12876:0.052940641 13011:0.10454122 13027:0.061018892 13700:0.27096319 13775:0.024218472 13958:0.1354816 14433:0.07615912 14854:0.11812316 14974:0.12203778 15372:0.14134164 15380:0.052940641 16129:0.094904676 16612:0.18305668 17334:0.10454122 17356:0.2216922 17409:0.018622629 17608:0.2439682 17894:0.030940374 17986:0.026312727 19049:0.0059107943 19111:0.024218472 19129:0.01694742 19575:0.14134164 19854:0.11812316 19976:0.034885775 20155:0.087429993 20192:0.048467714 #
0.99999999811982842601310039754026 2863:0.08492703 4178:0.081568308 5099:0.33752084 6830:0.21761432 6915:-0.033997804 8033:0.12721646 9712:0.11246213 10699:0.046118483 11268:-0.12461469 11637:0.4038645 12644:0.24981931 13070:0.15836382 14414:0.095774129 14782:0.10375489 15616:0.15836382 16156:0.4038645 16673:0.069200985 16875:0.21601906 17377:0.2711772 19193:0.4038645 20190:0.17435318 #
-0.30308646641810338406841651703871 7:0.052059051 8:0.052059051 40:0.028050981 42:0.043507203 61:0.029952848 183:0.05986293 248:0.032202277 279:0.052059051 352:0.043507203 356:0.043507203 414:0.085604005 422:0.043507203 482:0.032202277 492:0.043507203 541:0.038504694 572:0.034207389 593:0.043507203 613:0.052059051 651:0.043507203 708:0.043507203 724:0.043507203 739:0.017103694 835:0.028050981 896:0.043507203 923:0.039233215 1001:0.034207389 1139:0.032202277 1261:0.047194276 1341:0.052059051 1425:0.032202277 1595:0.043507203 1617:0.024950339 1666:0.14814605 1754:0.038504694 1839:0.043507203 1933:0.084152944 2019:0.059905697 2020:0.032796983 2034:0.026403511 2039:0.021538733 2058:0.026403511 2061:0.043507203 2308:0.043507203 2347:0.032202277 2428:0.052059051 2487:0.052059051 2795:0.032202277 2863:0.07663101 2877:0.067423567 2904:0.069910713 2940:0.043507203 3011:-0.023121335 3059:0.034955356 3073:0.084152944 3077:0.038504694 3204:0.032202277 3263:0.0026177471 3299:0.064404555 3316:0.038504694 3486:0.019383045 3629:0.043507203 3756:0.029952848 3778:0.069910713 3934:0.029952848 3962:0.07095129 4028:0.052059051 4046:0.069910713 4050:0.029952848 4117:0.026403511 4173:0.02365043 4176:0.032202277 4186:0.052059051 4199:0.069910713 4406:0.043507203 4416:0.04730086 4435:0.10486607 4436:0.043507203 4528:0.010648012 4614:0.044949044 4628:0.043507203 4640:0.028050981 4655:0.034955356 4975:0.0059447773 5123:0.032202277 5172:0.011395981 5324:0.089858539 5473:0.034955356 5512:0.043507203 5547:0.059905697 5575:0.052059051 5608:0.043507203 5618:0.032202277 5841:0.026748482 5913:0.019499134 6019:0.10206728 6053:0.069910713 6068:0.096606836 6224:0.056101963 6236:0.052059051 6270:0.021401001 6299:0.060394332 6342:0.043507203 6351:0.034955356 6424:0.026403511 6441:0.069910713 6467:0.024950339 6498:0.064404555 6657:0.038504694 6745:0.032202277 6881:0.052059051 6912:0.029952848 6915:-0.026294364 6938:0.052059051 6973:0.034955356 7115:0.043507203 7116:0.052059051 7212:0.045583922 7218:0.043507203 7222:0.043507203 7263:0.043507203 7310:0.034955356 7323:0.034955356 7338:0.052059051 7423:0.052059051 7462:0.13982143 7470:0.052059051 7520:0.074851014 7614:0.049900677 7757:0.043507203 7765:0.052059051 7810:0.052059051 7905:0.024950339 7927:0.01864792 7936:0.038504694 8031:0.027845349 8033:0.13118793 8038:0.038504694 8077:0.052059051 8087:0.052059051 8159:0.052059051 8241:0.024950339 8291:0.043507203 8313:0.043507203 8365:0.064404555 8500:0.052059051 8546:0.038504694 8753:0.031462848 8903:0.052059051 8920:0.089858539 8930:0.043507203 8947:0.028050981 8966:0.022474522 9006:0.034955356 9043:0.043507203 9080:0.038504694 9147:0.043507203 9274:0.029952848 9312:0.020413456 9339:0.096606836 9410:-0.018536771 9574:0.043507203 9681:0.043507203 9696:0.052059051 9697:0.034955356 9798:0.052059051 9882:0.038504694 9890:0.059905697 9912:0.011861609 10015:0.038504694 10094:0.0056544649 10102:0.052059051 10125:0.043507203 10132:0.085604005 10141:0.037295841 10145:0.043507203 10233:0.087014407 10286:0.020413456 10417:0.043507203 10422:0.064404555 10437:0.067423567 10444:0.038504694 10459:0.043507203 10559:0.028050981 10589:0.069910713 10592:0.052059051 10656:0.10206728 10694:0.034955356 10699:0.011889555 10786:0.043507203 10787:0.052059051 10931:0.043507203 10965:0.04730086 11000:0.043507203 11087:0.043507203 11146:0.032202277 11268:-0.40157795 11317:0.064404555 11475:0.087014407 11508:0.014496624 11522:0.077996537 11606:0.043507203 11636:0.042802002 11710:0.022474522 11759:0.052059051 11917:0.087014407 11985:0.11551408 12039:0.052059051 12387:0.034955356 12502:0.043507203 12554:0.02365043 12644:0.096606836 12660:-0.0078038783 12672:0.04478256 12676:0.043507203 12678:0.024950339 12681:0.052059051 12750:0.032202277 12787:0.062925696 12817:0.032202277 12864:0.038504694 12875:0.043507203 12876:0.038998269 12914:0.040826913 13006:0.032841861 13010:0.043507203 13027:0.022474522 13070:0.040826913 13134:0.043507203 13155:0.043507203 13189:0.032202277 13257:0.052059051 13307:0.089898087 13367:0.026403511 13438:0.052059051 13584:0.043507203 13676:0.038504694 13775:0.017840328 13811:0.052571703 13812:0.07095129 13861:0.052059051 13862:0.052059051 13995:-0.011415428 14030:0.038504694 14042:0.019499134 14145:0.038504694 14168:0.043507203 14197:-0.1361571 14319:0.043507203 14371:0.056101963 14414:0.024691006 14433:0.028050981 14438:0.017103694 14547:0.043507203 14562:0.029952848 14621:0.038504694 14751:0.052059051 14782:0.013374241 14847:0.019499134 14903:0.069910713 15160:0.052059051 15180:0.042802002 15214:0.096606836 15383:0.052807022 15399:0.032796983 15610:0.055943761 15613:0.034955356 15616:0.020413456 15634:0.043507203 15659:0.032202277 15662:0.058497403 15710:0.059905697 15728:0.015731424 15750:0.074591681 15765:0.059905697 15892:0.043507203 15911:0.028050981 16041:0.034955356 16085:0.032202277 16261:0.04730086 16314:0.043507203 16388:0.026403511 16428:0.060394332 16544:0.043507203 16629:0.043507203 16645:0.034955356 16673:0.0089201638 16701:0.038504694 16852:0.038504694 16862:0.043507203 16875:0.013922675 17023:0.043507203 17024:0.026403511 17252:0.024950339 17332:0.043507203 17490:0.024950339 17506:0.019499134 17532:0.043507203 17580:0.052059051 17601:0.038504694 17609:0.015098583 17663:0.047446437 17868:0.043507203 17873:0.043507203 17894:0.011395981 17960:0.087014407 17986:0.0096915225 18011:0.043507203 18132:0.038504694 18323:0.015693286 18335:0.043507203 18340:0.052059051 18390:0.038504694 18396:0.043507203 18431:0.052059051 18525:0.043507203 18530:0.032202277 18547:0.052059051 18616:0.052059051 18741:0.032202277 18792:0.038504694 18808:0.068414778 18882:0.028050981 18890:0.032733683 18944:0.052059051 19008:0.043507203 19046:0.028050981 19049:0.013062407 19119:0.059905697 19164:-0.0065893536 19197:0.032202277 19215:0.032202277 19219:0.013922675 19247:0.043507203 19442:0.043507203 19530:0.043507203 19561:0.043507203 19615:0.043507203 19668:0.052059051 19690:0.038504694 19734:0.043507203 19775:0.042802002 19782:0.059905697 19794:0.043507203 19931:0.034955356 19939:0.059905697 19966:0.034955356 19976:0.012849153 19995:0.016388414 20029:0.038504694 20110:0.064404555 20191:0.019499134 #
-0.38378161107837377441498460939329 40:0.021945957 42:0.034038283 143:0.12596881 183:0.040143721 200:0.068076566 240:0.034038283 352:0.034038283 356:0.034038283 414:0.03348656 422:0.034038283 425:0.039040275 492:0.034038283 494:0.040728904 541:0.030124521 572:0.040143721 593:0.034038283 651:0.034038283 708:0.034038283 724:0.034038283 739:0.026762482 835:0.065837868 896:0.034038283 923:0.073666766 995:0.07558129 1001:0.026762482 1046:0.025193764 1092:0.020657042 1158:0.011812523 1222:0.040728904 1261:0.024615265 1269:0.040728904 1298:0.043891914 1318:0.027347662 1379:0.034038283 1425:0.050387528 1491:0.025193764 1527:0.040728904 1595:0.034038283 1666:0.12556212 1802:0.058357522 1839:0.034038283 1933:0.021945957 1953:0.060249042 2019:0.046867799 2039:0.016851036 2061:0.034038283 2070:0.030124521 2570:0.040728904 2589:0.050387528 2863:0.042823579 2870:0.01758316 2904:0.054695323 2940:0.034038283 3003:0.0092800455 3073:0.021945957 3109:0.040728904 3243:0.030124521 3299:0.07558129 3368:0.021945957 3455:0.060249042 3465:0.040728904 3580:0.040728904 3629:0.034038283 3756:0.0234339 3778:0.054695323 3805:0.06697312 3931:0.040728904 3962:0.07401257 4046:0.027347662 4117:0.020657042 4173:0.055509429 4199:0.054695323 4359:0.040728904 4406:0.034038283 4436:0.034038283 4463:0.034038283 4469:0.040728904 4503:0.041314084 4523:0.054695323 4530:0.034038283 4551:0.020657042 4579:0.040728904 4628:0.034038283 4640:0.021945957 4675:0.034038283 4730:0.040728904 4937:0.01674328 4955:0.040728904 5007:0.025193764 5123:0.07558129 5172:0.0089157559 5180:0.029178761 5324:0.070301697 5512:0.034038283 5547:0.093735598 5597:0.040728904 5617:0.068076566 5618:0.10077506 5742:0.082687661 5745:0.040728904 5841:0.031390402 5913:0.1678087 5943:0.012307633 5996:0.040728904 6019:0.079853326 6053:0.054695323 6064:0.060249042 6148:0.0234339 6165:0.070301697 6224:0.065837868 6270:0.03348656 6299:0.011812523 6342:0.034038283 6351:0.027347662 6467:0.07808055 6498:0.050387528 6521:0.027347662 6657:0.030124521 6745:0.07558129 6838:0.068076566 6855:0.040728904 6883:0.025193764 6912:0.0234339 7032:0.040728904 7115:0.034038283 7212:0.044578779 7218:0.034038283 7222:0.034038283 7263:0.034038283 7290:0.040728904 7323:0.027347662 7520:0.058560412 7614:0.039040275 7640:0.030124521 7757:0.034038283 7779:0.0085647162 7905:0.039040275 7927:0.043768141 7929:0.043891914 7936:0.060249042 7986:0.034038283 7997:0.034038283 8031:0.010892538 8033:0.025659036 8034:0.019520137 8038:0.030124521 8045:0.015255337 8144:0.018503143 8183:0.040728904 8250:0.034038283 8291:0.034038283 8309:0.040728904 8313:0.034038283 8365:0.025193764 8495:0.034038283 8546:0.030124521 8587:0.027347662 8607:0.030124521 8624:0.01758316 8673:0.040728904 8917:0.021945957 8920:0.070301697 8930:0.034038283 8938:0.020657042 8966:0.01758316 9006:0.027347662 9043:0.034038283 9147:0.034038283 9274:0.0234339 9312:0.015970666 9339:0.050387528 9384:0.034038283 9410:-0.025379239 9433:0.040728904 9438:0.015970666 9670:0.015255337 9681:0.034038283 9712:0.034024723 9761:0.080287442 9857:0.040728904 9890:0.0234339 9989:0.040728904 10015:0.060249042 10125:0.034038283 10132:0.0837164 10141:0.029178761 10193:0.040728904 10207:0.008904011 10281:0.040728904 10417:0.034038283 10422:0.07558129 10444:0.030124521 10559:0.021945957 10600:0.0234339 10642:0.025193764 10672:0.065837868 10699:0.0093019083 10921:0.025193764 10931:0.034038283 10932:0.10972978 10965:0.055509429 11000:0.034038283 11087:0.034038283 11268:-0.52781969 11317:0.050387528 11351:0.040728904 11353:0.040728904 11449:0.0020480198 11450:0.030510673 11485:0.018503143 11508:0.011341575 11522:0.091532014 11602:0.040728904 11606:0.034038283 11852:0.0234339 12026:0.040728904 12032:0.01458938 12103:0.040728904 12116:0.040728904 12133:0.082042985 12161:0.025193764 12455:0.025193764 12598:0.0234339 12660:-0.0061054397 12672:0.032619789 12676:0.034038283 12688:0.040728904 12750:0.025193764 12787:0.049230531 12790:0.040728904 12817:0.025193764 12864:0.030124521 12875:0.034038283 12960:0.040728904 12974:0.034038283 12984:0.055509429 13006:0.042823579 13027:0.01758316 13134:0.034038283 13155:0.034038283 13199:0.020657042 13230:0.027347662 13307:0.035166319 13584:0.034038283 13676:0.030124521 13748:0.030124521 13775:0.041872662 13808:0.021945957 13811:0.024677988 13812:0.055509429 13838:0.034038283 13958:0.019520137 13995:-0.00893097 14042:0.015255337 14068:0.0234339 14077:0.040728904 14168:0.034038283 14172:0.039040275 14197:-0.21304764 14319:0.034038283 14335:0.040728904 14547:0.034038283 14563:0.040728904 14621:0.030124521 14720:0.068076566 14859:0.040728904 14903:0.054695323 15180:0.05022984 15241:0.034038283 15265:0.019520137 15351:0.0069787768 15383:0.041314084 15388:0.037006285 15399:0.051318072 15410:0.034038283 15446:0.030124521 15610:0.01458938 15613:0.082042985 15634:0.034038283 15635:0.040728904 15659:0.025193764 15710:0.046867799 15750:0.087536283 15886:0.03348656 15892:0.034038283 15996:0.034038283 16060:0.040728904 16098:0.020657042 16110:0.025193764 16261:0.07401257 16314:0.034038283 16388:0.082628168 16418:0.040728904 16509:0.060249042 16587:0.040728904 16629:0.034038283 16645:0.027347662 16673:0.0069787768 16852:0.060249042 16862:0.034038283 16982:0.040728904 17176:0.040728904 17252:0.039040275 17332:0.034038283 17377:0.054695323 17506:0.015255337 17516:0.012307633 17532:0.034038283 17598:0.0234339 17601:0.030124521 17663:0.0092800455 17830:0.040728904 17868:0.034038283 17986:0.0075822561 18011:0.034038283 18090:0.030124521 18132:0.030124521 18323:0.0061388975 18390:0.060249042 18396:0.034038283 18525:0.034038283 18530:0.025193764 18552:0.030124521 18631:0.040728904 18792:0.030124521 18808:0.10704993 18866:0.040728904 18887:0.046867799 18890:0.035853315 19008:0.034038283 19016:0.040728904 19049:0.0051097502 19073:0.018416692 19119:0.0234339 19164:-0.0051552444 19201:0.040728904 19247:0.034038283 19286:0.040728904 19378:0.060249042 19409:0.040728904 19438:0.040728904 19442:0.034038283 19530:0.034038283 19606:0.068076566 19615:0.034038283 19635:0.030124521 19734:0.034038283 19782:0.046867799 19794:0.034038283 19878:0.040728904 19931:0.027347662 19939:0.093735598 19966:0.027347662 19976:0.030157978 19995:0.012821635 20029:0.060249042 20110:0.07558129 20191:0.015255337 #
-0.30844803811874749177590615545341 75:0.33905095 137:0.33905095 164:0.025509305 417:0.33905095 615:0.11671103 1018:0.13911772 2045:0.087571792 2578:0.25095183 3263:0.01020003 3316:0.15003324 5742:0.11766302 7342:0.21860084 9262:0.20284767 9269:0.072661474 9312:0.079540871 9410:-0.018057095 9595:0.13911772 9712:0.056485981 9719:0.16952547 10908:0.20284767 11150:0.25095183 11893:0.16952547 12110:-0.020316852 12678:0.097218789 13775:0.03475735 13881:0.13620327 15104:0.20284767 16403:0.15003324 17041:0.20284767 17051:0.20284767 17408:0.16952547 17443:0.087571792 18262:0.097218789 19049:0.016965855 20190:0.087571792 #
-0.41400023273883435059872226702282 164:0.072458319 249:0.052351899 252:0.057618197 348:0.038688079 369:0.024874471 372:0.096306272 412:0.090748049 425:0.027614668 448:0.03951592 472:0.035641011 555:0.052351899 615:0.066302747 808:0.075720474 845:0.085232861 872:0.071058944 1046:0.071282022 1092:0.087669052 1158:0.01671089 1220:0.057618197 1261:0.069645241 1310:0.029223019 1366:0.057618197 1374:0.057618197 1425:0.035641011 1496:0.042616431 1686:0.033522557 1692:0.057618197 1790:0.031046415 2020:0.018149609 2039:0.015892504 2221:0.048153136 2425:0.096306272 2571:0.057618197 2589:0.035641011 2625:0.048153136 2863:0.012116297 2928:0.033151373 3011:-0.076771066 3055:0.038688079 3263:0.0086918529 3359:0.0057945685 3373:0.022593316 3380:0.015409412 3452:0.027614668 3486:0.010726435 3528:0.042616431 3805:0.047372628 3853:0.082844004 3882:0.01741131 3934:0.09945412 3950:0.035641011 4178:0.034911357 4232:0.048153136 4263:0.15705571 4343:0.077376157 4411:0.018930119 4503:0.029223019 4509:0.042616431 4528:0.0039283545 4549:0.057618197 4566:0.062092829 4627:0.057618197 4674:0.033151373 4693:0.048153136 4800:0.055480521 4937:0.047372628 4975:0.0065795924 4999:0.012116297 5020:0.01741131 5027:0.048153136 5048:0.048153136 5077:0.029223019 5099:0.048153136 5110:0.057618197 5172:0.063064523 5339:0.085232861 5373:0.043162711 5473:0.038688079 5608:0.048153136 5648:0.096306272 5677:0.077376157 5702:0.024874471 5742:0.050132673 5902:0.048153136 5913:0.021581355 6092:0.035641011 6242:0.048153136 6270:0.023686314 6271:0.057618197 6299:0.066843562 6351:0.038688079 6496:0.048153136 6546:0.048153136 6589:0.027614668 6605:0.048153136 6616:0.031046415 6630:0.057618197 6685:0.033151373 6825:0.048153136 6830:0.062092829 6914:0.035641011 6973:0.038688079 7023:0.10692303 7049:0.096306272 7072:0.018930119 7144:0.057618197 7170:0.049748942 7212:0.025225809 7230:0.048153136 7472:0.057618197 7520:0.027614668 7617:0.057618197 7690:0.14256404 7755:0.014802414 7779:0.048465189 7811:0.048153136 7870:0.077376157 7875:0.057618197 7891:0.031046415 7927:0.020639244 7958:0.042616431 7997:0.048153136 8027:0.11689208 8033:0.018149609 8034:0.055229336 8046:0.057618197 8144:0.052351899 8154:0.042616431 8229:0.013128255 8241:0.027614668 8343:0.024232594 8401:0.096306272 8478:0.047372628 8501:0.042616431 8513:0.091414526 8521:0.057618197 8522:0.048153136 8587:0.038688079 8695:0.057618197 8753:0.01741131 8881:0.057618197 8966:0.024874471 9108:0.031046415 9198:0.029223019 9230:0.048153136 9251:0.1278493 9410:-0.04616151 9432:0.024874471 9438:0.022593316 9595:0.01975796 9712:0.016044652 9764:0.038688079 9890:0.033151373 10094:0.062582791 10199:0.024232594 10207:0.041987631 10318:0.042616431 10381:0.048153136 10437:0.024874471 10461:0.057618197 10481:0.096306272 10593:0.01741131 10607:0.038688079 10656:0.022593316 10675:0.048153136 10699:0.039477557 10890:0.018930119 10932:0.062092829 10948:0.029604828 10965:0.052351899 10997:0.018930119 11076:0.057618197 11182:0.057618197 11268:-0.32001162 11375:0.082844004 11420:0.0094650593 11449:0.0057945685 11450:0.021581355 11522:0.021581355 11636:0.023686314 11698:0.02617595 11852:0.033151373 11864:0.085232861 11905:0.042616431 12032:0.020639244 12110:-0.069251202 12139:0.048153136 12161:0.14256404 12411:0.0072458317 12598:0.033151373 12642:0.057618197 12660:-0.025911655 12678:0.082844004 12787:0.01741131 12965:0.048153136 12968:0.027614668 12995:0.038688079 13027:0.024874471 13265:0.029223019 13307:0.024874471 13323:0.022593316 13433:0.048153136 13485:0.038688079 13593:0.01741131 13737:0.085232861 13775:0.0098727075 13881:0.077376157 13928:0.033151373 13958:0.027614668 13987:0.096306272 14197:-0.23680906 14371:0.031046415 14414:0.027327646 14437:0.12418566 14438:0.018930119 14455:0.057618197 14527:0.057618197 14707:0.027614668 14752:0.057618197 14782:0.074012071 14813:0.048153136 14847:0.021581355 14868:0.024874471 14985:0.082556978 15019:0.057618197 15058:0.048153136 15100:0.027614668 15170:0.042616431 15196:0.048153136 15289:0.038688079 15328:0.037860237 15345:0.057618197 15351:0.0098727075 15380:0.021581355 15383:0.029223019 15395:0.057618197 15399:0.018149609 15537:0.057618197 15594:0.035641011 15610:0.020639244 15616:0.045186631 15662:0.021581355 15863:0.057618197 15886:0.047372628 15995:0.02617595 16088:0.018149609 16098:0.029223019 16108:0.057618197 16138:0.096306272 16261:0.02617595 16518:0.027614668 16639:0.057618197 16656:0.11045867 16673:0.059236243 16838:0.096306272 16855:0.048153136 16875:0.077047057 16921:0.066302747 16968:0.048153136 17002:0.057618197 17017:0.12383547 17143:0.035641011 17323:0.038688079 17343:0.057618197 17377:0.038688079 17409:0.022774654 17609:0.01671089 17663:0.026256511 17706:0.057618197 17800:0.057618197 17894:0.025225809 17986:0.010726435 18106:0.057618197 18132:0.042616431 18258:0.057618197 18262:0.055229336 18381:0.071282022 18537:0.042616431 18882:0.031046415 18890:0.028983327 19049:0.0024095469 19071:0.020639244 19073:0.02605365 19164:-0.021879001 19257:0.048153136 19261:0.057618197 19356:0.085232861 19536:0.027614668 19602:0.018149609 19628:0.096306272 19636:0.012116297 19775:0.023686314 19782:0.033151373 19840:0.096306272 19875:0.096306272 19896:0.057618197 19976:0.014221255 19995:0.0090692285 20137:0.035641011 20190:0.024874471 #
-0.24919266960341507344267597545695 982:0.057232786 1261:0.092901126 2595:0.30743206 3906:0.30743206 4006:0.2273875 4980:0.2273875 5091:0.30743206 7312:0.16565363 7878:0.51385915 8174:0.1901689 10978:0.15592457 13950:0.30743206 14197:-0.11486696 15828:0.13966641 18671:0.30743206 20187:0.16565363 #
-0.27255273336424157282209534969297 412:0.14470229 516:0.38391289 3011:-0.06800849 5650:0.45937544 9867:0.49505058 10699:0.052457441 14197:-0.34327623 17606:0.45937544 20190:0.19831792 #
-0.19436511171836057254580509834341 183:0.035234317 282:0.2144876 482:0.13267604 511:0.2144876 712:0.2144876 923:0.032328818 2481:0.2144876 4173:0.097441725 4541:0.2144876 5841:0.055102978 6571:0.2144876 6939:0.2144876 7417:0.2144876 9037:0.2144876 10083:0.2144876 11510:0.2144876 11565:0.2144876 13104:0.2144876 13410:0.2144876 13684:0.2144876 13811:0.043319952 14197:-0.080139779 16246:0.2144876 16324:0.2144876 17024:0.10878465 17440:0.2144876 18741:0.13267604 19107:0.2144876 19219:0.057362568 19844:0.2144876 20191:0.080338046 #
-0.19403807161310129836273574710503 982:0.065252341 3750:0.17777298 4006:0.25924942 7342:0.18886529 7871:0.29293096 8709:0.15131938 9029:0.25924942 9953:0.21681568 10559:0.18886529 11584:0.29293096 14197:-0.13096231 15535:0.35050994 16129:0.23535198 16293:0.35050994 16315:0.21681568 17356:0.13744238 17516:0.10591859 18004:0.0012306732 18773:0.29293096 20187:0.18886529 #
-0.21990733366781353708141466540837 369:0.2515488 428:0.48695964 572:0.19143517 4788:0.27925968 6233:0.21824642 8033:0.18354209 8564:0.045250773 9708:0.48695964 10094:0.063288286 10228:0.33525085 10699:0.066537641 19049:0.048734192 19264:0.2515488 20188:0.27925968 #
-0.11684582347801074353466077582198 237:0.13016312 412:0.041001104 448:0.044634469 982:0.024231689 991:0.13016312 1158:0.037750952 1263:0.096273191 1335:0.13016312 1790:0.070135802 1948:0.096273191 2020:0.041001104 2347:0.080515273 2788:0.13016312 2852:0.13016312 2892:0.13016312 2959:0.13016312 2966:0.13016312 3003:0.059315108 3263:0.0065451469 3380:0.034810826 3882:0.039333243 3981:0.11826622 4170:0.13016312 4411:0.042764325 4528:0.017748799 4894:0.13016312 4975:0.014863712 4999:0.027371475 5114:0.13016312 5346:0.13016312 5373:0.048753638 5496:0.13016312 5682:0.13016312 5702:0.05619299 6150:0.017149791 6378:0.13016312 6915:-0.010957289 6981:0.096273191 7072:0.042764325 7153:0.13016312 7302:0.085528649 7475:0.13016312 7927:0.04662535 7982:0.21756192 8229:0.029657554 8343:0.054742951 8665:0.13016312 8776:0.10878096 9108:0.070135802 9260:0.13016312 9363:0.13016312 9432:0.05619299 9566:0.13016312 9606:0.10878096 9790:0.13016312 10199:0.054742951 10286:0.051039714 10484:0.13016312 10593:0.039333243 10836:0.085528649 10890:0.042764325 10997:0.042764325 11359:0.13016312 11411:0.13016312 11412:0.062383268 11420:0.064146489 11449:0.013090294 11489:0.096273191 11553:0.13016312 11583:0.13016312 12030:0.10878096 12411:0.016368788 12473:0.070135802 12660:-0.058536053 12728:0.13016312 12784:0.16103055 13006:0.054742951 13265:0.066016629 13286:0.13016312 13593:0.039333243 13775:0.022303065 13875:0.096273191 13995:-0.028541965 14135:0.13016312 14197:-0.19453329 14264:0.13016312 14533:0.096273191 14707:0.062383268 14736:0.13016312 15205:0.13016312 15328:0.042764325 15351:0.022303065 15399:0.041001104 15607:0.13016312 15616:0.051039714 15824:0.062383268 16088:0.041001104 16435:0.13016312 16753:0.059133112 16906:0.10878096 16975:0.10878096 17609:0.037750952 18004:0.00045701486 18323:0.019618943 18643:0.039333243 19071:0.04662535 19164:-0.049426034 19400:0.13016312 19636:0.027371475 19995:0.020487957 20117:0.13016312 20192:0.044634469 #
-0.15700312772666830118950542782841 8034:0.3621403 17945:0.7556082 18882:0.4071444 19049:0.031598929 20188:0.3621403 #
-0.15515403584487569288441477510787 164:0.048462197 2667:0.2850309 6299:0.11176722 7342:0.41529462 8144:0.17507224 9080:0.2850309 11112:0.38536698 11146:0.23837727 11636:0.15842085 12110:-0.019298827 12365:0.2850309 13006:0.081037261 14037:0.38536698 15233:0.32206196 17516:0.11645183 19049:0.032231476 20188:0.1846948 #
-0.13719334748224548681250212212035 1830:0.2521894 3310:0.21076174 3316:0.1865281 6061:0.14510043 6088:0.1865281 6837:0.2521894 6962:0.21076174 7304:0.16933407 7993:0.10887321 8564:0.019585056 9269:0.090336032 9410:-0.044898793 9541:0.21076174 9865:0.1865281 10600:0.14510043 10978:0.1279064 11165:0.076207668 12154:0.2521894 14197:-0.09422645 16987:0.2521894 17538:0.21076174 18004:0.00088546058 18213:0.21076174 18373:0.2521894 18882:0.27177447 19041:0.2521894 19049:0.031639077 19373:0.2521894 19377:0.1208668 20188:0.1208668 #
-0.13877700312143256833330440258578 47:0.039542269 100:0.028442275 240:0.044114102 273:0.052785244 291:0.044114102 322:0.05688455 369:0.022788027 385:0.03265148 446:0.019771134 448:0.018100683 521:0.03265148 555:0.04796068 572:0.017342281 699:0.088228203 803:0.052785244 808:0.017342281 810:0.052785244 862:0.11712544 923:0.015912198 934:0.052785244 982:0.10809384 1018:0.036201365 1106:0.044114102 1158:0.015309199 1214:0.035442963 1257:0.052785244 1261:0.015950868 1298:0.028442275 1331:0.044114102 1360:0.03904181 1379:0.044114102 1404:0.028442275 1408:0.052785244 1448:0.052785244 1690:0.052785244 1699:0.052785244 1724:0.044114102 1790:0.028442275 1966:0.052785244 2020:0.033254478 2039:0.0072797285 2045:0.022788027 2085:0.052785244 2272:0.035442963 2311:0.060741343 2371:0.11712544 2418:0.14177185 2525:0.030370671 2542:0.014116887 2647:0.044114102 2667:0.078083619 2701:0.044114102 2720:0.088228203 2928:0.030370671 3003:0.060135357 3011:-0.0078146206 3160:0.052785244 3235:0.052785244 3243:0.03904181 3354:0.088228203 3368:0.028442275 3380:0.014116887 3452:0.025298379 3455:0.03904181 3750:0.13385911 3751:0.052785244 3774:0.026771823 3779:0.052785244 3806:0.052785244 3847:0.03265148 3882:0.015950868 3912:0.03265148 3962:0.02398034 3981:0.04796068 3990:0.044114102 4161:0.044114102 4202:0.028442275 4230:0.028442275 4411:0.017342281 4415:0.052785244 4448:0.052785244 4528:0.0071976967 4551:0.026771823 4576:0.026771823 4614:0.022788027 4677:0.11712544 4718:0.052785244 4800:0.0046206252 4825:0.052785244 4907:0.044114102 4975:0.0060277032 4999:0.011099995 5007:0.03265148 5020:0.079754345 5065:0.052785244 5077:0.026771823 5172:0.034664843 5180:0.018908048 5189:0.044114102 5213:0.052785244 5246:0.052785244 5252:0.052785244 5275:0.052785244 5373:0.019771134 5442:0.085326828 5460:0.088228203 5518:0.052785244 5655:0.028442275 5702:0.022788027 5742:0.015309199 5909:0.052785244 5922:0.052785244 5937:0.052785244 5940:0.15185335 5943:0.031901736 6064:0.03904181 6148:0.030370671 6150:0.0069547798 6232:0.035442963 6251:0.035442963 6268:0.035442963 6299:0.015309199 6338:0.035442963 6393:0.03265148 6586:0.052785244 6610:0.10632889 6660:0.052785244 6672:0.052785244 6744:0.052785244 6798:0.015309199 6845:0.019771134 6878:0.052785244 6883:0.03265148 6912:0.030370671 6915:-0.017774103 6962:0.044114102 7023:0.03265148 7068:0.14177185 7072:0.017342281 7097:0.065098591 7268:0.044114102 7302:0.15608051 7312:0.028442275 7314:0.044114102 7342:0.028442275 7453:0.085326828 7736:0.03265148 7760:0.035442963 7779:0.011099995 7837:0.044114102 7871:0.044114102 7927:0.018908048 7929:0.028442275 8008:0.03904181 8045:0.039542269 8093:0.052785244 8128:0.018908048 8144:0.04796068 8221:0.028442275 8224:0.052785244 8229:0.024054144 8237:0.029480139 8250:0.044114102 8310:0.03265148 8343:0.02219999 8345:0.03904181 8350:0.11712544 8405:0.030370671 8508:0.035442963 8624:0.045576055 8753:0.015950868 8801:0.044114102 8841:0.03265148 8947:0.028442275 8956:0.088228203 9018:0.052785244 9029:0.078083619 9088:0.052785244 9108:0.028442275 9115:0.052785244 9174:0.088228203 9312:0.020698212 9410:-0.014096511 9432:0.022788027 9501:0.052785244 9670:0.039542269 9705:0.043399062 9730:0.088228203 9761:0.034684561 9783:0.039542269 9890:0.030370671 9893:0.03265148 9912:0.012027072 10007:0.03265148 10008:0.052785244 10039:0.035442963 10060:0.052785244 10094:0.017200023 10105:0.043399062 10128:0.052785244 10141:0.018908048 10199:0.02219999 10207:0.011539727 10231:0.03904181 10277:0.052785244 10378:0.030370671 10407:0.11712544 10503:0.044114102 10510:0.053543646 10593:0.015950868 10642:0.03265148 10669:0.052785244 10691:0.052785244 10699:0.012055406 10750:0.071941018 10836:0.15608051 10844:0.018908048 10890:0.017342281 10948:0.013560804 10978:0.026771823 10997:0.017342281 11122:0.052785244 11268:-0.14658469 11420:0.017342281 11449:0.0079627894 11508:0.014698843 11584:0.044114102 11636:0.021699531 11698:0.02398034 11710:0.022788027 11804:0.028442275 11984:0.088228203 12000:0.03904181 12030:0.044114102 12032:0.018908048 12143:0.025298379 12184:0.035442963 12210:0.033254478 12217:0.021699531 12246:0.029397687 12302:0.052785244 12339:0.052785244 12350:0.028442275 12411:0.013276118 12450:0.052785244 12455:0.03265148 12482:0.091152109 12514:0.052785244 12554:0.02398034 12566:0.030370671 12660:-0.031650949 12727:0.03265148 12784:0.065302961 12787:0.031901736 12831:0.052785244 13006:0.011099995 13070:0.020698212 13215:0.052785244 13265:0.026771823 13371:0.052785244 13441:0.030370671 13561:0.035442963 13593:0.015950868 13594:0.052785244 13775:0.0090445951 13995:-0.017361999 14110:0.03904181 14129:0.052785244 14152:0.035442963 14197:-0.21694577 14253:0.052785244 14371:0.028442275 14553:0.065302961 14707:0.025298379 14761:0.065302961 14782:0.013560804 14847:0.019771134 14916:0.052785244 14952:0.052785244 14974:0.022788027 14994:0.052785244 14995:0.044114102 15086:0.03265148 15176:0.044114102 15193:0.035442963 15233:0.044114102 15251:0.052785244 15265:0.050596759 15297:0.025298379 15328:0.017342281 15329:0.03904181 15351:0.01808919 15383:0.026771823 15399:0.033254478 15455:0.025298379 15483:0.030370671 15594:0.03265148 15595:0.03265148 15616:0.020698212 15620:0.052785244 15662:0.019771134 15702:0.03265148 15728:0.015950868 15751:0.03265148 15765:0.030370671 15828:0.14388204 15886:0.043399062 15995:0.02398034 16088:0.016627239 16157:0.14177185 16193:0.026771823 16315:0.03265148 16339:0.052785244 16345:0.052785244 16436:0.03265148 16440:0.052785244 16553:0.085326828 16673:0.0090445951 16753:0.04796068 16875:0.014116887 16952:0.030370671 16960:0.039542269 17017:0.018908048 17111:0.030370671 17153:0.03904181 17198:0.070885926 17219:0.052785244 17323:0.035442963 17356:0.020698212 17392:0.052785244 17409:0.01390956 17435:0.052785244 17443:0.022788027 17516:0.063803472 17601:0.03904181 17609:0.015309199 17616:0.052785244 17663:0.012027072 17664:0.091152109 17877:0.03904181 18004:0.00037066784 18103:0.044114102 18153:0.071941018 18243:0.052785244 18262:0.025298379 18394:0.088228203 18487:0.026771823 18513:0.052785244 18530:0.03265148 18532:0.052785244 18537:0.03904181 18540:0.052785244 18564:0.028442275 18610:0.053543646 18882:0.028442275 18898:0.014698843 19049:0.0066223098 19071:0.17017242 19073:0.0079560988 19111:0.0090445951 19114:0.053543646 19129:0.0063291593 19135:0.044114102 19164:-0.026725084 19264:0.045576055 19466:0.052785244 19536:0.025298379 19602:0.066508956 19636:0.011099995 19679:0.11712544 19824:0.052785244 19909:0.052785244 19931:0.035442963 19976:0.013028391 19995:0.0083085112 20125:0.035442963 20158:0.026771823 20187:0.028442275 #
-0.085340832582922132587555097416043 2276:0.25053406 3387:0.27195305 4050:0.46606693 10228:0.23303346 11265:0.25053406 12914:0.1588169 13811:0.081801675 14172:0.19411388 14197:-0.15132909 16509:0.29956692 16875:0.10831854 17155:0.40501994 17516:0.12239064 18806:0.33848649 18890:0.050933674 19049:0.03387522 20188:0.19411388 #
-0.10866764597451664120519865264214 183:0.055804335 482:0.21013315 923:0.051202588 1929:0.33970681 4173:0.15432882 4640:0.18304424 5841:0.087272443 9410:-0.030240022 10682:0.50251806 11268:-0.10481848 13811:0.068610415 14197:-0.25385177 16746:0.33970681 17024:0.17229381 17262:0.28390247 17551:0.33970681 18741:0.21013315 19219:0.090851195 19569:0.16281125 20191:0.1272399 #
-0.10194576262569410296521255077096 61:0.083810151 248:0.090104215 414:0.059881486 572:0.047857326 801:0.12173618 1139:0.090104215 1494:0.25143045 1802:0.31306908 1959:0.090104215 2034:0.073878855 2276:0.090104215 2396:0.14566484 2579:0.14566484 2795:0.090104215 3003:0.03318961 3011:-0.043130066 3073:0.078488596 3263:0.087895662 3387:0.097807519 3486:0.054235104 3638:0.14566484 4380:0.14566484 4435:0.097807519 4800:0.012750962 4975:0.0166339 5012:0.090104215 5180:0.10435636 5653:0.090104215 5841:0.037422057 5902:0.12173618 5943:0.04401762 6424:0.073878855 6757:0.12173618 6914:0.090104215 6973:0.097807519 7212:0.06377349 8033:0.091768235 8144:0.06617555 8237:0.027117552 8354:0.052178178 8624:0.062885277 8637:0.14566484 8753:0.04401762 8947:0.078488596 8952:0.12173618 9670:0.054559935 9712:0.040562563 9912:0.03318961 10094:0.031643171 10132:0.059881486 10207:0.010614914 10231:0.10773882 10699:0.0166339 11053:0.14566484 11268:-0.13483717 11323:0.090104215 11412:0.13962556 11449:0.0073246388 11518:0.14566484 11543:0.20593899 12210:0.045884117 12212:0.14566484 12660:-0.021835795 12914:0.11423654 12984:0.1323511 13189:0.090104215 13323:0.057118271 13811:0.08825957 14197:-0.21770115 14257:0.14566484 14414:0.069087155 15086:0.090104215 15373:0.14566484 15455:0.069812782 15911:0.078488596 16085:0.090104215 16428:0.16898754 16673:0.04991848 16875:0.038956612 17252:0.069812782 17598:0.083810151 17609:0.042246886 17679:0.14566484 17873:0.12173618 17894:0.031886745 17986:0.027117552 18262:0.069812782 18323:0.021955455 18735:0.14566484 18890:0.018318223 19111:0.074877717 19129:0.034931581 19164:-0.018437469 19264:0.062885277 19775:0.11976297 19976:0.035952825 20191:0.054559935 #
-0.086298376778909086093349856128043 69:0.10424811 428:0.087123066 448:0.035747908 472:0.064484976 516:0.087123066 739:0.068500206 749:0.06567587 794:0.10424811 798:0.10424811 841:0.069998011 885:0.087123066 1001:0.034250103 1622:0.1542111 1823:0.087123066 1880:0.10424811 1997:0.077105552 2011:0.069998011 2208:0.042855449 2347:0.064484976 2640:0.10424811 3011:-0.21606858 3263:0.010484064 3648:0.077105552 3805:0.042855449 3954:0.10424811 4105:0.10424811 4230:0.056172017 4528:0.035537694 4573:0.087123066 4576:0.05287296 4693:0.087123066 4702:0.0599805 4788:0.049962986 4800:0.018250989 4937:0.042855449 4946:0.069998011 5037:0.10424811 6043:0.042855449 6233:0.1171409 6322:0.17424613 6467:0.049962986 6636:0.087123066 6788:0.087123066 6798:0.030234873 6845:0.078093931 6936:0.10424811 6948:0.13999602 7212:0.022820421 7601:0.069998011 8206:0.10424811 8221:0.056172017 8237:0.019407248 8297:0.13999602 8564:0.0080959192 8902:0.05287296 8917:0.056172017 9269:0.037342411 9410:-0.018559918 9705:0.085710898 9712:0.029029453 9867:0.11234403 9953:0.064484976 10074:0.10424811 10094:0.011323052 10286:0.040877894 10654:0.10424811 10833:0.077105552 10978:0.05287296 11268:-0.096499056 11375:0.049962986 11412:0.099925973 11449:0.005242032 11543:0.02105494 11836:0.077105552 11881:0.10424811 12502:0.087123066 12554:0.09471985 12602:0.10424811 13230:0.069998011 13233:0.1542111 13679:0.069998011 13775:0.017862605 14197:-0.31160483 14414:0.049443677 14487:0.10424811 14553:0.19345494 14766:0.077105552 15100:0.049962986 15297:0.049962986 15301:0.087123066 15327:0.0599805 15385:0.22502585 15397:0.087123066 15854:0.10424811 15886:0.042855449 16180:0.10424811 16193:0.05287296 16781:0.087123066 16795:0.10424811 16932:0.077105552 17005:0.1542111 17351:0.035747908 17409:0.027470659 17664:0.18002068 17955:0.077105552 18323:0.015712883 18344:0.10424811 18354:0.10424811 18546:0.077105552 18643:0.12600856 18998:0.077105552 19129:0.012499761 19762:0.13999602 19892:0.10424811 20189:0.045005169 #
-0.076322101283093857215789057590882 47:0.07864137 164:0.026403442 249:0.09538383 448:0.143994 472:0.12987404 1686:0.081436336 2039:0.028955737 2286:0.10062645 2480:0.20995778 3003:0.14351609 3486:0.039086584 3805:0.086311728 3819:0.20995778 3847:0.12987404 3853:0.10062645 3950:0.12987404 4178:0.084810138 4988:0.20995778 5020:0.063445933 5077:0.1064872 5345:0.20995778 5373:0.07864137 5408:0.20995778 7302:0.20694117 7561:0.20995778 7634:0.09538383 7755:0.053939246 7779:0.088302344 7891:0.11313156 8966:0.090641312 9595:0.071997002 10428:0.20995778 10694:0.2819548 10699:0.0719271 10836:0.20694117 10948:0.10787849 11196:0.12987404 11268:-0.06478367 11698:0.09538383 12110:-0.021028988 12411:0.026403442 12784:0.12987404 14152:0.1409774 14197:-0.15689458 14733:0.20995778 15170:0.15529212 15328:0.20694117 15380:0.07864137 15995:0.09538383 17409:0.027663227 17894:0.091921568 17986:0.039086584 18890:0.026403442 19049:0.0087802662 19071:0.22562508 19073:0.031646058 19129:0.050349534 20192:0.071997002 #
-0.055164659558486983659264524249011 18:0.056710731 27:0.091680065 249:0.083300516 446:0.034339502 448:0.031438176 572:0.030120943 602:0.090362832 661:0.15824792 751:0.13561957 835:0.049399972 1001:0.030120943 1158:0.026589787 1310:0.046498649 1380:0.067809783 1399:0.091680065 1686:0.10667985 1724:0.076619588 1790:0.049399972 1948:0.13561957 2020:0.028879024 2045:0.039579391 2128:0.035949696 2133:0.067809783 2286:0.26363698 2482:0.15323918 2484:0.052749306 2542:0.024518918 2815:0.067809783 3359:0.0092201149 3380:0.024518918 3436:0.052749306 3472:0.067809783 3486:0.017067529 3847:0.17013219 3882:0.027704271 3977:0.091680065 4006:0.067809783 4178:0.037033152 4363:0.076619588 4387:0.043939497 4411:0.030120943 4416:0.041650258 4462:0.091680065 4528:0.0062506604 4614:0.039579391 4679:0.091680065 4975:0.010469218 4999:0.019279029 5007:0.056710731 5020:0.083112806 5373:0.034339502 5609:0.091680065 5702:0.039579391 6019:0.035949696 6232:0.061559118 6404:0.076619588 6835:0.091680065 7072:0.030120943 7183:0.091680065 7634:0.2915518 7779:0.019279029 7891:0.049399972 7927:0.032840446 7988:0.10549861 8031:0.024518918 8229:0.041778445 8343:0.038558058 8644:0.091680065 8935:0.046498649 9108:0.049399972 9269:0.032840446 9312:0.035949696 9432:0.039579391 9595:0.031438176 9705:0.075377673 9783:0.034339502 9912:0.062667668 9944:0.10549861 9953:0.056710731 10199:0.038558058 10207:0.0066809254 10423:0.10784908 10437:0.039579391 10472:0.067809783 10503:0.076619588 10593:0.027704271 10656:0.035949696 10687:0.076619588 10699:0.020938436 10890:0.030120943 10948:0.023553085 10997:0.030120943 11165:0.027704271 11268:-0.08486522 11420:0.015060471 11449:0.0092201149 11485:0.083300516 11674:0.067809783 11804:0.049399972 11844:0.061559118 12184:0.061559118 12350:0.049399972 12411:0.023058629 12473:0.29639983 12554:0.041650258 12567:0.091680065 12648:0.091680065 12660:-0.041229721 12876:0.034339502 13011:0.067809783 13265:0.046498649 13440:0.091680065 13593:0.055408541 13775:0.031418215 13791:0.091680065 13958:0.087878995 13995:-0.04020692 14003:0.091680065 14152:0.12311824 14197:-0.10276427 14533:0.13561957 14707:0.043939497 14974:0.079158783 15199:0.091680065 15317:0.052749306 15351:0.015709108 15380:0.068679005 15383:0.046498649 15391:0.091680065 15824:0.26363698 16088:0.028879024 16388:0.046498649 16612:0.079158783 17004:0.091680065 17100:0.091680065 17356:0.071899392 17409:0.036238234 17609:0.026589787 17663:0.041778445 17894:0.020069214 17986:0.017067529 18004:0.0019313836 18925:0.091680065 19049:0.0038339868 19057:0.12311824 19071:0.032840446 19164:-0.034813102 19280:0.15323918 19507:0.091680065 19536:0.043939497 19635:0.067809783 19636:0.038558058 19976:0.022628363 19995:0.01443064 20083:0.056710731 20155:0.056710731 20192:0.031438176 #
-0.057434960380335686735975286865141 40:0.040392924 61:0.043131579 183:0.086201578 248:0.046370719 348:0.050335106 414:0.061634138 418:0.074964128 482:0.046370719 572:0.024629023 614:0.074964128 677:0.074964128 761:0.074964128 860:0.043131579 871:0.10778416 923:0.01129903 998:0.055446092 1139:0.046370719 1617:0.035928052 1804:0.074964128 1854:0.074964128 1959:0.046370719 2020:0.02361354 2034:0.038020596 2039:0.010338468 2161:0.074964128 2188:0.12529923 2409:0.062649615 2456:0.086263157 2484:0.043131579 2542:0.02004841 2646:0.062649615 2795:0.046370719 2863:0.031527806 3011:-0.055490531 3059:0.050335106 3309:0.062649615 3486:0.027911248 3488:0.043131579 3528:0.055446092 3769:0.062649615 3774:0.038020596 3820:0.062649615 4050:0.043131579 4117:0.15208238 4122:0.062649615 4173:0.034056209 4463:0.062649615 4528:0.010221967 4702:0.043131579 4751:0.074964128 4800:0.0065620826 4975:0.0085603762 4999:0.031527806 5123:0.046370719 5147:0.074964128 5156:0.074964128 5172:0.032820027 5432:0.055446092 5435:0.13911216 5673:0.11406179 5703:0.050335106 5760:0.040392924 5841:0.038517348 6025:0.029395023 6043:0.061634138 6092:0.046370719 6165:0.086263157 6184:0.074964128 6233:0.084235243 6424:0.15208238 6498:0.046370719 6521:0.050335106 6538:0.050335106 6570:0.040392924 6589:0.071856104 6798:0.043483395 6915:-0.0063105715 6981:0.055446092 7050:0.074964128 7134:0.046370719 7170:0.032362919 7640:0.055446092 7779:0.015763903 7929:0.040392924 8045:0.056156829 8152:0.074964128 8166:0.11089218 8265:0.074964128 8405:0.043131579 8495:0.062649615 8753:0.067958936 8947:0.040392924 8966:0.032362919 9180:0.074964128 9198:0.038020596 9410:-0.013346314 9438:0.058790047 9631:0.074964128 9712:0.020874888 9912:0.017080512 10132:0.030817069 10141:0.026852682 10165:0.074964128 10207:0.027313996 10463:0.13911216 10559:0.040392924 10589:0.050335106 10687:0.062649615 10699:0.0085603762 10844:0.026852682 10850:0.055446092 11025:0.055446092 11265:0.046370719 11323:0.046370719 11420:0.012314511 11485:0.034056209 11508:0.10437444 11698:0.034056209 11758:0.062649615 11804:0.040392924 11874:0.074964128 11987:0.074964128 12210:0.02361354 12246:0.083499551 12528:0.074964128 12660:-0.011237449 12787:0.045305956 12876:0.028078414 12892:0.074964128 12914:0.088185072 12958:0.074964128 12968:0.035928052 12974:0.062649615 13189:0.046370719 13241:0.074964128 13307:0.064725839 13546:0.074964128 13570:0.12529923 13775:0.012844882 13811:0.10598328 13812:0.034056209 13995:-0.0082190083 14030:0.055446092 14172:0.035928052 14197:-0.16805473 14480:0.030817069 14492:0.055446092 14514:0.074964128 14770:0.11089218 14847:0.084235243 14974:0.064725839 14985:0.080558047 15289:0.050335106 15297:0.035928052 15327:0.043131579 15328:0.024629023 15329:0.055446092 15446:0.11089218 15611:0.074964128 15616:0.029395023 15702:0.046370719 15765:0.043131579 15911:0.080785848 15915:0.074964128 15952:0.074964128 16041:0.050335106 16085:0.046370719 16188:0.074964128 16302:0.074964128 16403:0.055446092 16428:0.08696679 16553:0.040392924 16600:0.062649615 16601:0.074964128 16656:0.035928052 16673:0.038534645 16875:0.02004841 16972:0.074964128 17024:0.038020596 17275:0.074964128 17334:0.055446092 17338:0.074964128 17351:0.025706084 17480:0.074964128 17490:0.035928052 17501:0.12529923 17508:0.074964128 17516:0.15857086 17598:0.043131579 17609:0.021741698 17663:0.034161024 17894:0.016410014 17986:0.027911248 18040:0.074964128 18184:0.074964128 18323:0.02259806 18557:0.16633828 18741:0.046370719 18753:0.074964128 18887:0.043131579 18890:0.018854372 19049:0.0094048195 19058:0.074964128 19111:0.025689764 19164:-0.0094885547 19197:0.046370719 19216:0.11089218 19219:0.28067774 19262:0.043131579 19393:0.055446092 19463:0.074964128 19536:0.035928052 19602:0.14168125 19762:0.050335106 19775:0.061634138 19783:0.12529923 19953:0.051412169 19976:0.018502558 20155:0.046370719 20191:0.028078414 #
-0.00098344511513787091772087478602771 61:0.079732984 248:0.085720852 414:0.056968395 446:0.051905721 871:0.13283311 1139:0.085720852 2208:0.11393679 2276:0.085720852 2795:0.085720852 3310:0.115814 3486:0.051596694 3488:0.079732984 3774:0.070284821 4416:0.12591253 4523:0.18609883 4975:0.0158247 5103:0.13857859 5109:0.13857859 5131:0.13857859 5603:0.18609883 5841:0.035601564 5943:0.041876268 6043:0.056968395 6148:0.079732984 6424:0.070284821 6589:0.33208275 6915:-0.011665714 7314:0.115814 7779:0.029141132 7905:0.26566622 8753:0.083752535 8947:0.074670307 9410:-0.024671979 9712:0.038589291 9744:0.13857859 9761:0.045529179 9912:0.094725035 10007:0.085720852 10094:0.015051903 10141:0.049639832 10271:0.3074927 10437:0.11965211 10944:0.13857859 11265:0.085720852 11323:0.085720852 11449:0.006968312 12058:0.11965211 12566:0.079732984 12660:-0.020773534 12968:0.19924966 13070:0.054339603 13189:0.085720852 13811:0.08396595 13853:0.13857859 13995:-0.060774595 14197:-0.20711049 14847:0.051905721 14858:0.13857859 15317:0.079732984 15610:0.049639832 15911:0.074670307 16029:0.13857859 16085:0.085720852 16349:0.13857859 16428:0.16076669 16544:0.115814 17609:0.040191673 17663:0.031575013 17894:0.030335531 17926:0.13857859 17986:0.025798347 18032:0.13857859 18089:0.10249757 19164:-0.017540529 19219:0.11118439 19775:0.11393679 20191:0.051905721 #
