SVM-light Version V6.02
0 # kernel type
3 # kernel parameter -d 
1 # kernel parameter -g 
1 # kernel parameter -s 
1 # kernel parameter -r 
empty# kernel parameter -u 
775 # highest feature index 
8 # number of training documents 
9 # number of support vectors plus 1 
0.8916183 # threshold b, each following line is a SV (starting with alpha*y)
-0.26543815100435463882888598163845 1:0.019959433 2:0.031517837 3:0.019959433 4:0.019959433 5:0.024225296 6:0.031517837 7:-0.22116275 8:0.024225296 9:0.024225296 10:0.031517837 11:0.031517837 12:0.031517837 13:0.031517837 14:0.059878301 15:0.048450593 16:0.019959433 17:0.039918866 18:0 19:0.022090172 20:0.011045086 21:0.016932756 22:0.050798267 23:0.031517837 24:0.031448953 25:0.021186745 26:0.050798267 27:0.067731023 28:0.039918866 29:0.067731023 30:0.050798267 31:0.031517837 32:0.024225296 33:0.058340326 34:0.048450593 35:0.00053965225 36:0.031517837 37:0.031517837 38:0.031517837 39:0.029170163 40:0.019959433 41:0.031517837 42:0.031517837 43:0.019959433 44:0.059878301 45:0.031517837 46:0.019959433 47:0.016932756 48:0.057841286 49:0.031517837 50:0.024225296 51:0.039918866 52:0.031517837 53:0.031517837 54:0.031517837 55:0.031517837 56:0.0026982613 57:0.031517837 58:0.048450593 59:0.031517837 60:-0.0046953475 61:0.024225296 62:0.031517837 63:0.031517837 64:0.039918866 65:0.033865511 66:0.011045086 67:-0.014086043 68:0.028172085 69:0.031517837 70:0.033135261 71:0.031517837 72:0.019959433 73:0.050798267 74:0.024225296 75:0.024225296 76:0.043755244 77:0.031517837 78:0.031517837 79:0.019959433 80:0.031517837 81:0.031517837 82:-0.015786871 83:0.050798267 84:0.024225296 85:0.031517837 86:0.048450593 87:0.050406177 88:0.012666892 89:0.033865511 90:0.031517837 91:0.031517837 92:0.031517837 93:0.024225296 94:0.0072925407 95:0.033865511 96:0.019959433 97:0.024225296 98:0.024225296 99:0.048450593 100:0.031517837 101:0.031517837 102:0.031517837 103:0.031517837 104:0.038000677 105:0.031517837 106:0.031517837 107:0.048450593 108:0.042005148 109:0.031517837 110:0.031517837 111:0.037738744 112:0.019959433 113:0.031517837 114:0.048450593 115:0.048450593 116:0.050798267 117:0.031517837 118:0.01928043 119:0.031517837 120:0.031517837 121:0.031517837 122:0.031517837 123:0.033865511 124:0.031517837 125:0.039918866 126:0.031517837 127:0.019959433 128:0.014585081 129:0.048450593 130:0.048450593 131:-0.0029408464 132:0.031517837 133:0.031517837 134:0.022090172 135:0.031517837 136:0.019959433 137:0.032246109 138:0.031517837 139:0.067731023 140:0.048450593 141:0.039918866 142:0.039918866 143:0.018160067 144:0.024225296 145:0.048450593 146:0.048450593 147:0.031517837 148:0.033135261 149:0.059878301 150:0.031517837 151:0.025333785 152:0.024225296 153:0.019959433 154:0.031517837 155:0.031517837 156:0.010253393 157:0.048450593 158:0.0084010297 159:0.031517837 160:0.031517837 161:0.048450593 162:0.048450593 163:0.031517837 164:0.031517837 165:0.059878301 166:0.059878301 167:0.022090172 168:0.024225296 169:0.031517837 170:0.031517837 171:0.031517837 172:0.031517837 173:0.031517837 174:0.050406177 175:0.031517837 176:0.048450593 177:0.031448953 178:0.048450593 179:0.014585081 180:0.024225296 181:0.039918866 182:0.031517837 183:0.025333785 184:0.031517837 185:0.050667569 186:-0.01103025 187:0.031517837 188:0.038000677 189:0.063334465 190:0.012666892 191:0.059878301 192:0.031517837 193:0.012666892 194:0.024225296 195:0.039918866 196:0.024225296 197:0.0053965226 198:0.024225296 199:0.019959433 200:0.048450593 201:0.031517837 202:0.016932756 203:0.031517837 204:0.031517837 205:0.028172085 206:0.016932756 207:0.031517837 208:0.059878301 209:0.031517837 210:0.031517837 211:0.019959433 212:0.031517837 213:0.031517837 214:0.031517837 215:0.031517837 216:0.059878301 217:0.012666892 218:0.0084010297 219:0.048450593 220:0.031517837 221:-0.0076727564 222:0.031517837 223:0.031517837 224:0.031517837 225:0.031517837 226:0.031517837 227:0.048450593 228:0.012666892 229:0.031517837 230:0.019959433 231:0.024225296 232:0.055225432 233:0.031517837 234:0.024225296 235:0.014585081 236:0.031517837 237:0.039918866 238:0.076001354 239:0.024225296 240:-0.004944867 241:0.031517837 242:0.031517837 243:0.011045086 244:0.031517837 245:0.048450593 246:0.031517837 247:0.031517837 248:0.024225296 249:0.031517837 250:0.048450593 251:0.031517837 252:0.029170163 253:0.0084010297 254:0.031517837 255:0.031517837 256:0.031517837 257:0.0044339551 258:0.024225296 259:0.031517837 260:0.031517837 261:0.050667569 262:0.031517837 263:0.031517837 264:0.019959433 265:0.048450593 266:0.067731023 267:0.031517837 268:0.050798267 269:0.067731023 270:0.025333785 271:0.043755244 272:0.014585081 273:0.050798267 274:0.024225296 275:0.031517837 276:0.031517837 277:0.019959433 278:0.031517837 279:0.024225296 280:0.012666892 281:-0.59501368 282:0.043755244 283:0.031517837 284:-0.42548877 285:0.031517837 286:0.019959433 287:0.050798267 288:0.031517837 289:0.024225296 290:0.033865511 291:0.012579582 292:0.031517837 293:0.01928043 294:0.048450593 295:0.031517837 296:0.031517837 297:0.048450593 298:0.031517837 299:0.031517837 300:0.048450593 301:0.024225296 302:0.048450593 303:0.031517837 304:0.059878301 305:0.019959433 306:0.031517837 307:0.031517837 308:0.07712172 309:0.048450593 310:0.014585081 311:0.033135261 312:0.024225296 313:0.029170163 314:0.024225296 315:0.043755244 316:0.031517837 317:0.019959433 318:0.0011084888 319:0.033135261 320:0.024225296 321:0.031517837 322:0.048450593 323:0.031517837 324:0.055225432 325:0.021497406 326:0.048450593 327:0.072925411 328:0.031517837 329:0.031517837 330:0.031517837 331:0.016932756 332:0.025333785 333:0.0090644583 334:0.024225296 335:0.024225296 336:0.031517837 337:0.031517837 338:0.039918866 339:0.059878301 340:0.031517837 341:0.019959433 342:0.019959433 343:0.016932756 344:0.031517837 #
-0.097547958164992454310748826173949 7:-0.19080363 25:0.019148832 35:0.010242626 46:0.12627701 64:0.12627701 66:0.069878764 67:-0.029705975 82:-0.07990282 151:0.080139413 158:0.1063013 197:0.0068284175 198:0.15326577 221:-0.036407325 240:-0.12513843 257:0.0070130569 264:0.12627701 270:0.080139413 281:-0.57037318 282:0.092275187 325:0.03400182 333:0.028673979 345:0.19940336 346:0.15326577 347:0.10712818 348:0.12627701 349:0.15326577 350:0.15326577 351:0.13975753 352:0.15326577 353:0.15326577 354:0.092275187 355:0.15326577 356:0.12627701 357:0.15326577 358:0.16027883 359:0.19940336 360:0.060990583 361:0.15326577 362:0.092275187 363:0.080139413 364:0.12627701 365:0.092275187 366:0.15326577 367:0.092275187 368:0.12627701 369:0.15326577 370:0.15326577 #
-0.15289767960206668284683928504819 7:-0.043853436 19:0.096363693 20:0.048181847 21:0.073865555 25:0.01320324 56:0.0023541185 60:-0.020482458 68:0.010241229 88:0.16576989 93:0.10567772 94:0.031812161 96:0.087068796 128:0.12724864 131:-0.0064144088 141:0.087068796 143:0.02640648 148:0.048181847 174:0.073295414 185:0.11051326 186:-0.013122853 197:0.0023541185 205:0.010241229 206:0.073865555 230:0.087068796 231:0.10567772 271:0.12724864 280:0.11051326 281:-0.078655183 284:-0.43309107 290:0.073865555 291:0.054875754 310:0.063624322 362:0.063624322 371:0.13748987 372:0.13748987 373:0.13748987 374:0.16576989 375:0.13748987 376:0.13748987 377:0.13748987 378:0.13748987 379:0.13748987 380:0.048181847 381:0.10567772 382:0.10567772 383:0.063624322 384:0.13748987 385:0.13748987 386:0.13748987 387:0.10567772 388:0.13748987 389:0.10567772 390:0.10567772 391:0.21135543 392:0.087068796 393:0.13748987 394:0.073865555 395:0.13748987 396:0.13748987 397:0.13748987 398:0.073865555 399:0.13748987 400:0.13748987 401:0.13748987 402:0.13748987 403:0.13748987 404:0.13748987 405:0.13748987 406:0.13748987 407:0.13748987 #
-0.18017090545367853149372194820899 3:0.050989714 7:-0.038522542 8:0.030943787 21:0.021628778 24:0.016068323 32:0.030943787 46:0.025494857 47:0.043257557 56:0.004135896 60:-0.017992577 61:0.030943787 65:0.043257557 67:-0.0029987628 74:0.030943787 75:0.030943787 76:0.037260033 89:0.043257557 94:0.018630017 95:0.043257557 97:0.030943787 116:0.021628778 131:-0.0018782211 134:0.014108261 143:0.011598233 167:0.014108261 177:0.016068323 183:0.016179848 186:-0.0038425394 190:0.064719394 193:0.064719394 196:0.030943787 211:0.025494857 218:0.010730918 221:-0.0024501677 243:0.028216522 248:0.030943787 252:0.037260033 253:0.010730918 257:0.0014159101 280:0.016179848 281:-0.64487481 284:-0.10869823 291:0.016068323 293:0.036941312 305:0.050989714 311:0.014108261 314:0.030943787 315:0.018630017 331:0.021628778 332:0.032359697 333:0.023156676 338:0.025494857 343:0.064886339 349:0.030943787 363:0.016179848 365:0.037260033 368:0.025494857 374:0.048539545 380:0.08464957 382:0.030943787 387:0.030943787 389:0.030943787 398:0.064886339 408:0.040258795 409:0.030943787 410:0.040258795 411:0.061887573 412:0.050989714 413:0.030943787 414:0.086515114 415:0.061887573 416:0.040258795 417:0.030943787 418:0.040258795 419:0.040258795 420:0.030943787 421:0.05589005 422:0.040258795 423:0.040258795 424:0.040258795 425:0.040258795 426:0.040258795 427:0.061887573 428:0.040258795 429:0.030943787 430:0.064886339 431:0.040258795 432:0.080899246 433:0.040258795 434:0.048539545 435:0.040258795 436:0.040258795 437:0.040258795 438:0.040258795 439:0.040258795 440:0.040258795 441:0.043257557 442:0.064886339 443:0.037260033 444:0.040258795 445:0.040258795 446:0.030943787 447:0.040258795 448:0.040258795 449:0.040258795 450:0.040258795 451:0.040258795 452:0.061887573 453:0.040258795 454:0.025494857 455:0.040258795 456:0.061887573 457:0.040258795 458:0.040258795 459:0.040258795 460:0.040258795 461:0.032986391 462:0.040258795 463:0.040258795 464:0.061887573 465:0.025494857 466:0.040258795 467:0.040258795 468:0.040258795 469:0.061887573 470:0.040258795 471:0.061887573 472:0.040258795 473:0.050989714 474:0.040258795 475:0.040258795 476:0.030943787 477:0.061887573 478:0.040258795 479:0.040258795 480:0.050989714 481:0.040258795 482:0.040258795 483:0.040258795 484:0.030943787 485:0.040258795 486:0.061887573 487:0.040258795 488:0.040258795 489:0.076484568 490:0.040258795 491:0.016179848 492:0.040258795 493:0.040258795 494:0.040258795 495:0.061887573 496:0.040258795 497:0.040258795 498:0.025494857 499:0.076484568 500:0.061887573 501:0.025494857 502:0.040258795 503:0.061887573 504:0.043257557 505:0.025494857 506:0.040258795 507:0.040258795 508:0.040258795 509:0.040258795 510:0.076484568 511:0.040258795 512:0.040258795 513:0.040258795 514:0.040258795 515:0.040258795 516:0.040258795 517:0.061887573 518:0.040258795 519:0.028216522 520:0.061887573 521:0.040258795 522:0.040258795 523:0.040258795 524:0.061887573 525:0.040258795 526:0.040258795 527:0.040258795 528:0.050989714 529:0.040258795 530:0.040258795 531:0.040258795 532:0.040258795 533:0.040258795 534:0.040258795 535:0.040258795 536:0.040258795 537:0.061887573 538:0.040258795 539:0.076484568 540:-0.22208263 541:0.030943787 542:0.040258795 543:0.030943787 544:0.064886339 545:0.040258795 546:0.030943787 547:0.061887573 548:0.040258795 549:0.040258795 550:0.040258795 551:0.061887573 552:0.040258795 553:0.086515114 554:0.040258795 555:0.040258795 556:0.061887573 557:0.040258795 558:0.040258795 559:0.040258795 560:0.040258795 561:0.040258795 562:0.040258795 563:0.040258795 564:0.040258795 565:0.040258795 566:0.040258795 567:0.097079091 568:0.040258795 569:0.040258795 570:0.040258795 571:0.040258795 572:0.025494857 573:0.030943787 574:0.040258795 575:0.050989714 576:0.061887573 577:0.061887573 578:0.040258795 579:0.040258795 580:0.040258795 581:0.040258795 582:0.080899246 583:0.030943787 584:0.040258795 585:0.040258795 586:0.040258795 587:0.030943787 588:0.040258795 589:0.061887573 590:0.040258795 591:0.074520066 592:0.040258795 593:0.040258795 594:0.030943787 595:0.037260033 596:0.040258795 597:0.040258795 598:0.030943787 599:0.040258795 600:0.076484568 601:0.040258795 602:0.040258795 603:0.040258795 604:0.040258795 605:0.040258795 606:0.040258795 607:0.030943787 608:0.040258795 609:0.061887573 610:0.040258795 611:0.076484568 612:0.061887573 613:0.040258795 614:0.040258795 615:0.030943787 616:0.030943787 617:0.040258795 618:0.040258795 619:0.040258795 620:0.040258795 621:0.040258795 622:0.040258795 #
-0.10089939276138371049285069602774 56:0.0074318931 67:-0.032331303 108:0.1156959 131:-0.040500257 134:0.15210888 143:0.041682299 218:0.1156959 243:0.15210888 281:-0.24831244 291:0.086620688 355:0.33362189 421:0.2008604 461:0.032331303 519:0.15210888 623:0.549748 624:0.43405208 625:0.33362189 626:0.274874 #
1.0000000098508472490266285603866 16:0.14188516 18:0 19:0.078515947 39:0.051840313 43:0.070942581 50:0.0861049 67:-0.0083444268 68:0.0083444268 83:0.06018474 88:0.045022421 104:0.090044841 128:0.051840313 137:0.095511317 143:0.010757837 144:0.0861049 153:0.070942581 174:0.029860102 183:0.045022421 186:-0.0035641131 194:0.0861049 197:0.0019181067 199:0.070942581 205:0.0083444268 206:0.06018474 281:-0.4486109 284:-0.20164415 287:0.06018474 310:0.051840313 318:0.035459496 320:0.0861049 324:0.039257973 331:0.06018474 392:0.070942581 394:0.06018474 541:0.0861049 546:0.0861049 595:0.051840313 607:0.0861049 627:0.1722098 628:0.0861049 629:0.11202505 630:0.11202505 631:0.27013454 632:0.11202505 633:0.11202505 634:0.0861049 635:0.11202505 636:0.11202505 637:0.11202505 638:0.11202505 639:0.11202505 640:0.0861049 641:0.090044841 642:0.11202505 643:0.11202505 644:0.1722098 645:0.0861049 646:0.11202505 647:0.11202505 648:0.034264583 649:0.11202505 650:0.11202505 651:0.21282774 652:0.11202505 653:0.21282774 654:0.22511211 655:0.0861049 656:0.11202505 657:0.11202505 658:0.070942581 659:0.11202505 660:0.1722098 661:0.11202505 #
-0.11271409785693758953684096013603 28:0.098429516 67:-0.011577503 82:-0.015570523 112:0.098429516 118:0.19016205 177:0.031017968 190:0.06246651 199:0.098429516 202:0.083503522 257:0.010932977 281:-0.17783619 289:0.11946653 390:0.11946653 432:0.06246651 442:0.083503522 443:0.07192602 528:0.098429516 583:0.11946653 648:0.095081024 662:0.29528856 663:0.15542954 664:0.098429516 665:0.15542954 666:0.083503522 667:0.15542954 668:0.15542954 669:0.15542954 670:0.15542954 671:0.15542954 672:0.23893306 673:0.15542954 674:0.15542954 675:0.15542954 676:0.15542954 677:0.15542954 678:0.15542954 679:0.15542954 680:0.15542954 681:0.15542954 682:0.15542954 683:0.15542954 684:0.15542954 685:0.15542954 686:0.15542954 687:0.15542954 688:0.15542954 689:0.15542954 690:0.15542954 691:0.15542954 692:0.15542954 #
-0.090331825007434599084099602350761 4:0.074774846 7:-0.20713778 9:0.045378111 17:0.037387423 25:0.017008452 35:0.012130329 48:0.018057767 56:0.0030325823 60:-0.0087951869 66:0.082757324 67:-0.017590374 79:0.074774846 82:-0.070971608 94:0.027320346 96:0.037387423 108:0.031473123 131:-0.0055087069 136:0.037387423 151:0.047454502 152:0.045378111 153:0.037387423 158:0.07868281 167:0.041378662 188:0.023727251 193:0.023727251 197:0.0020217216 202:0.031717941 217:0.023727251 218:0.094419368 221:-0.025151668 228:0.094909005 235:0.027320346 240:-0.22230192 243:0.041378662 253:0.015736561 257:0.0041527771 270:0.047454502 272:0.081961036 273:0.031717941 274:0.045378111 281:-0.50661916 282:0.027320346 284:-0.10626841 291:0.011781851 301:0.045378111 313:0.027320346 317:0.037387423 318:0.0062291659 319:0.020689331 325:0.030201232 333:0.0084896386 342:0.037387423 346:0.045378111 347:0.095153816 348:0.074774846 350:0.045378111 351:0.082757324 352:0.045378111 353:0.045378111 354:0.10928138 356:0.074774846 357:0.045378111 358:0.071181752 360:0.036115535 362:0.027320346 363:0.047454502 364:0.037387423 366:0.045378111 367:0.081961036 368:0.037387423 370:0.045378111 381:0.045378111 383:0.027320346 409:0.045378111 412:0.037387423 421:0.027320346 434:0.071181752 443:0.054640692 473:0.037387423 476:0.045378111 501:0.074774846 504:0.031717941 505:0.037387423 519:0.041378662 575:0.037387423 591:0.027320346 615:0.045378111 626:0.037387423 628:0.045378111 655:0.045378111 693:0.059038285 694:0.059038285 695:0.059038285 696:0.059038285 697:0.090756223 698:0.059038285 699:0.059038285 700:0.059038285 701:0.090756223 702:0.059038285 703:0.059038285 704:0.12687176 705:0.059038285 706:0.059038285 707:0.059038285 708:0.059038285 709:0.059038285 710:0.059038285 711:0.059038285 712:0.059038285 713:0.045378111 714:0.090756223 715:0.059038285 716:0.059038285 717:0.12687176 718:0.059038285 719:0.090756223 720:0.059038285 721:0.090756223 722:0.059038285 723:0.045378111 724:0.11216227 725:0.059038285 726:0.059038285 727:0.090756223 728:0.11216227 729:0.059038285 730:0.090756223 731:0.059038285 732:0.059038285 733:0.045378111 734:0.059038285 735:0.059038285 736:0.059038285 737:0.059038285 738:0.059038285 739:0.090756223 740:0.13660173 741:0.059038285 742:0.059038285 743:0.059038285 744:0.059038285 745:0.14482532 746:0.090756223 747:0.059038285 748:0.059038285 749:0.059038285 750:0.059038285 751:0.059038285 752:0.059038285 753:0.090756223 754:0.11216227 755:0.037387423 756:0.11216227 757:0.059038285 758:0.074774846 759:0.059038285 760:0.059038285 761:0.090756223 762:0.059038285 763:0.045378111 764:0.059038285 765:0.059038285 766:0.059038285 767:0.059038285 768:0.090756223 769:0.090756223 770:0.059038285 771:0.059038285 772:0.059038285 773:0.059038285 774:0.059038285 775:0.059038285 #
