SVM-light Version V6.02
0 # kernel type
3 # kernel parameter -d 
1 # kernel parameter -g 
1 # kernel parameter -s 
1 # kernel parameter -r 
empty# kernel parameter -u 
22173 # highest feature index 
68 # number of training documents 
65 # number of support vectors plus 1 
-0.13921528 # threshold b, each following line is a SV (starting with alpha*y)
-0.97160206776744817425139899569331 108:0.049552973 315:0.061462946 948:0.10730194 991:0.11247363 1085:0.08552362 1110:0.11247363 1239:0.073100217 1356:0.020785026 1420:0.11247363 1482:0.072992586 1854:0.11247363 1856:0.072992586 1863:0.072992586 1908:-0.0058308532 2339:0.11247363 2388:0.08552362 2530:0.058573615 2640:0.08552362 2673:0.033511534 2750:0.08552362 2787:0.046042573 2797:0.11247363 3142:0.075772643 3328:0.058573615 3399:0.1212468 3556:0.058078025 3663:0.061462946 3889:-0.29331222 4157:0.095470071 4206:0.064738601 4264:0.072992586 4386:0.095470071 4636:0.08552362 4774:0.072992586 4914:0.011831871 5067:0.08552362 5169:0.035018746 5231:0.019092565 5413:0.05598902 5436:0.037788589 5440:0.065098822 5517:0.11247363 5609:0.10730194 5749:0.041570053 5934:0.028234646 6024:0.068520062 6252:0.04024373 6287:0.029039012 6623:0.075772643 6704:0.095470071 7030:0.068520062 7126:0.085944407 7285:0.053650972 7998:0.075577177 8045:-0.01483936 8084:0.058573615 8202:0.017509373 8369:0.017509373 8494:0.04024373 8518:-0.2678256 8577:0.058573615 8717:0.11247363 8745:0.051516499 8806:0.071113929 8914:-0.0076750568 8966:0.078466505 9070:0.11247363 9169:0.11247363 9342:0.072992586 9413:0.1294772 9517:0.08552362 9519:0.034512937 9963:0.10730194 10027:0.0202078 10073:0.095470071 10104:0.044459384 10225:0.038185131 10390:0.046042573 10472:0.046480339 10486:0.072992586 10626:0.061462946 10693:0.061462946 10709:-0.0051716911 11224:0.095470071 11589:0.064128488 11951:0.049552973 12173:0.095470071 12178:0.064738601 12383:0.078466505 12521:0.064738601 12604:0.064738601 12722:0.045205932 12741:0.061462946 12874:0.068520062 13062:0.042972203 13117:0.08552362 13751:0.095470071 13769:0.072992586 13974:0.095470071 14438:0.041570053 14916:-0.0090975398 14921:0.046042573 15060:0.046042573 15115:0.058573615 15397:0.038985457 16465:0.038985457 16871:0.041183729 16930:0.042972203 17049:0.1294772 17586:0.11247363 17689:0.15693301 17702:0.17104724 17797:0.11247363 17836:0.072992586 17964:0.11197804 18770:0.095470071 18895:0.095470071 18934:0.068520062 19014:0.064738601 19022:0.095470071 19398:0.02987065 19432:0.05598902 19589:0.042972203 19896:0.071113929 20015:0.1294772 20236:0.13812773 20366:0.064738601 20403:0.05598902 20483:0.11247363 20539:0.041570053 20577:0.08552362 21141:0.11197804 21216:0.095470071 21246:0.0597413 21514:0.11247363 21563:0.072992586 21623:0.030731473 21645:0.095470071 21752:0.064738601 21870:0.010573804 21980:0.068520062 22105:0.08552362 22126:0.02324017 #
-0.23150975239678528438957982871216 200:0.064272575 363:0.16822433 1239:0.043733753 1255:0.091928773 1376:0.14279248 1504:0.096828096 1626:0.16822433 2009:0.041065063 2455:0.10248394 3142:0.037777159 3399:0.12089745 3889:-0.34121159 3940:0.04467687 4914:0.0088483347 5609:0.080244571 6039:0.1279158 6049:0.16822433 6079:0.16822433 6107:0.10248394 6154:0.16822433 6287:0.086866021 6416:0.16822433 6423:0.10917339 6562:0.10917339 7175:0.06886486 7285:0.16048914 7352:0.06886486 7583:0.1279158 7724:0.11736063 7998:0.056519561 8045:-0.011097453 8369:0.026188383 8462:0.1279158 8745:0.077052094 8757:-0.0050627533 9022:0.071396239 9177:0.1279158 9289:0.091928773 9648:0.14279248 9992:0.14279248 10225:0.028556328 10588:0.091928773 10654:0.16822433 10727:0.10248394 11589:0.031971853 11852:0.058309689 12341:0.023964042 12619:0.14279248 13062:0.12854515 13298:0.06886486 13710:0.14279248 13901:0.06886486 14162:0.16822433 14249:0.043433011 14338:0.20496789 14527:0.16748309 14893:0.10248394 14916:-0.068034947 15296:0.087607265 16003:0.1279158 16719:0.1279158 16930:0.12854515 17197:0.11736063 17530:0.019245017 17910:0.066496916 17998:0.14279248 18648:0.16822433 18830:0.064272575 19589:0.12854515 19753:0.047298729 20103:0.10917339 20882:0.064272575 20903:0.11736063 #
-0.90166364744444604806261622798047 117:0.066685066 200:0.066685066 203:0.12176578 638:0.07994426 1239:0.068062969 3142:0.039195132 3399:0.031358842 3439:0.26543429 3556:0.04506328 3644:0.10633071 3889:-0.1011483 4223:0.062450971 4914:0.0091804592 5436:0.11728207 5902:0.095379345 6094:0.13271715 6097:0.10046256 6249:0.040298618 6294:0.10633071 6645:0.13271715 7081:0.13271715 7175:0.14289945 7337:0.056870129 7352:0.071449727 7527:0.074076116 7536:0.14815223 7583:0.13271715 7724:0.12176578 7917:0.095379345 8518:-0.16624671 8914:-0.011910296 9380:0.14815223 9574:0.13271715 9661:0.086884804 10104:0.1379858 10225:0.029628199 10709:-0.008025527 11374:0.17453867 11473:0.066685066 12474:0.095379345 13312:0.090895623 13859:0.26543429 13901:0.071449727 14916:-0.028235463 15060:0.071449727 15397:0.12099672 15860:0.14815223 16574:0.14815223 16867:0.11327125 17659:0.17453867 17997:0.17453867 18881:0.080597237 18963:0.04537531 19014:0.20092513 20072:0.36529738 20443:0.10046256 21049:0.095379345 21364:0.12901837 21499:0.29630446 21890:0.037079722 #
-0.76062289600754984242314549192088 84:0.06453111 107:0.023089614 200:0.024655059 257:0.06453111 281:0.030781943 351:0.041879084 403:0.049068697 638:0.029557301 670:0.098137394 824:0.054775417 830:0.054775417 845:0.049068697 864:0.037143406 1016:0.096370153 1238:0.083758168 1239:0.041940838 1284:0.039313 1356:0.011925291 1504:0.037143406 1592:0.054775417 1596:0.049068697 1600:0.090039432 1668:0.039313 1726:0.054775417 1771:0.045019716 1778:0.049068697 1841:0.049068697 1873:0.06453111 2009:0.015752623 2203:0.049068697 2300:0.06453111 2388:0.049068697 2428:0.045019716 2455:0.078625999 2530:0.033606283 2675:0.039313 2750:0.049068697 2895:0.029557301 3024:0.054775417 3054:0.078625999 3142:0.043474127 3165:0.054775417 3260:0.033606283 3328:0.033606283 3374:0.06453111 3399:0.092752896 3468:0.049068697 3476:0.054775417 3556:0.01666097 3565:0.045019716 3644:0.039313 3883:0.030781943 3889:-0.24308011 3953:0.06453111 4097:0.090039432 4154:0.1472061 4295:0.054775417 4383:0.054775417 4386:0.054775417 4426:0.041879084 4588:0.032123387 4631:0.078625999 4662:0.02550832 4695:0.041879084 4716:0.1472061 4747:0.037143406 4787:0.032123387 4847:0.041879084 4914:0.027153878 5007:0.045019716 5090:0.037143406 5216:0.054775417 5219:0.056379542 5231:0.021908503 5232:0.054775417 5351:0.049068697 5385:0.049068697 5436:0.04336198 5484:0.049068697 5747:0.049068697 5749:0.047701165 5819:0.044735376 5839:0.049068697 5850:0.045019716 5882:0.041879084 5902:0.10579205 5915:0.049068697 5970:0.054775417 6094:0.049068697 6107:0.039313 6159:0.06453111 6188:0.054775417 6249:0.014899361 6252:0.046179228 6317:0.054775417 6347:0.14105608 6368:0.045019716 6373:0.014491376 6546:0.049068697 6587:0.033606283 6641:0.090039432 6645:0.049068697 6709:0.054775417 7030:0.039313 7081:0.049068697 7175:0.026416669 7231:0.06453111 7238:0.054775417 7285:0.030781943 7337:0.063078731 7466:0.045019716 7527:0.054775417 7566:0.033606283 7583:0.049068697 7643:0.049068697 7716:0.018143866 7724:0.045019716 7737:0.045019716 7801:0.059114601 7821:0.054775417 7917:0.035264019 7923:0.061563887 8045:-0.021284999 8084:0.067212567 8185:0.041879084 8202:0.040183619 8330:0.054775417 8362:0.037143406 8462:0.049068697 8494:0.16162731 8518:-0.16902979 8564:0.015752623 8577:0.067212567 8638:0.061563887 8806:0.020400608 8866:0.090039432 8914:-0.052842248 8972:0.027387708 9177:0.049068697 9239:0.054775417 9313:0.045019716 9324:0.06453111 9401:0.049068697 9556:0.045019716 9563:0.049068697 9673:0.029798722 9760:0.041879084 9852:0.032123387 9907:0.054775417 9957:0.049068697 9963:0.061563887 10027:0.034782335 10104:0.02550832 10126:0.035264019 10225:0.021908503 10407:0.030781943 10472:0.053335663 10565:0.049068697 10624:0.059404809 10709:-0.032639515 10723:0.049068697 10738:0.090039432 10866:0.054775417 10872:0.045019716 11221:0.10579205 11469:0.054775417 11499:0.029798722 11589:0.024528906 11679:0.049068697 11682:0.054775417 12010:0.049068697 12075:0.054775417 12165:0.090039432 12341:0.027577929 12474:0.10579205 12517:0.054775417 12647:0.054775417 12664:0.023089614 13117:0.049068697 13140:0.067212567 13210:0.054775417 13298:0.052833337 13312:0.067212567 13340:0.054775417 13393:0.011925291 13490:0.10579205 13721:0.054775417 13727:0.054775417 13817:0.054775417 13859:0.049068697 14093:0.049068697 14183:0.049068697 14293:0.06453111 14335:0.049068697 14438:0.023850583 14452:0.054775417 14527:0.032123387 14551:0.037143406 14634:0.028430739 14916:-0.062635951 15049:0.037143406 15060:0.07925 15115:0.033606283 15157:0.07925 15187:0.07925 15248:0.064246774 15293:0.056861479 15427:0.054775417 16021:0.090039432 16034:0.054775417 16176:0.037143406 16218:0.06453111 16246:0.054775417 16447:0.045019716 16478:0.052896027 16515:0.090039432 16691:0.025164502 16764:0.035264019 16871:0.031505246 16875:0.023850583 16967:0.14778651 16982:0.041879084 17049:0.037143406 17132:0.067212567 17196:0.049068697 17493:0.054775417 17530:0.022147255 17576:0.039313 17618:0.090039432 17792:0.12312777 17801:0.049068697 17910:0.05101664 17926:0.045019716 17964:0.032123387 18010:0.039313 18067:0.021026244 18291:0.17058444 18398:0.054775417 18600:0.090039432 18687:0.049068697 18748:0.096135266 18769:0.049068697 18826:0.030781943 18830:0.049310118 18845:0.06453111 18881:0.014899361 18958:0.054775417 18963:0.041940838 19398:0.017138116 19432:0.032123387 19479:0.049068697 19626:0.041879084 19685:0.037143406 20022:0.06453111 20141:0.02550832 20159:0.033606283 20163:0.045019716 20539:0.023850583 20588:0.041879084 20664:0.083758168 20923:0.049068697 21049:0.035264019 21085:0.06453111 21173:0.054775417 21212:0.054775417 21252:0.098137394 21261:0.041879084 21364:0.11925292 21563:0.083758168 21569:0.045019716 21720:0.049068697 21960:0.098137394 21997:0.045019716 #
-0.78751275742832482773536639797385 6:0.088067345 117:0.051847015 150:0.045592859 370:0.10318635 545:0.12946242 582:0.13570219 793:0.13570219 944:0.10318635 1151:0.11518698 1657:0.059786879 1943:0.074156553 2246:0.11110299 2282:0.11518698 2641:0.053641334 2671:0.062155917 2920:0.059786879 2929:0.088067345 3102:0.13570219 3142:0.030473851 3167:0.12946242 4069:0.11518698 4223:0.04855505 4433:0.094671763 4758:0.23914751 4882:0.037078276 5231:0.023035647 5440:0.039271664 5707:0.078108706 5749:0.050155286 5934:0.034065794 6099:0.0706705 6843:0.045592859 7626:0.078108706 7716:0.038154654 8012:0.082671136 8045:-0.0044760131 8129:0.057593491 8518:-0.096941456 8762:0.11518698 8972:0.057593491 9022:0.057593491 10214:0.088067345 10225:0.023035647 11050:0.16534227 11119:0.078108706 11499:0.0313318 11592:0.13570219 11825:0.24801341 11983:0.034065794 12274:0.11518698 12974:0.10318635 13192:0.068131588 13261:0.082671136 13363:0.10318635 13605:0.10369403 13769:0.088067345 13793:0.039271664 14839:0.282682 14916:-0.010976405 15049:0.078108706 15634:0.19419363 16458:0.13570219 16544:0.094671763 16975:0.10318635 17324:0.082671136 17411:0.10318635 17449:0.11518698 17530:0.015524455 17709:0.0971101 17755:0.141341 17913:0.06473121 18048:0.10318635 18349:0.094671763 18598:0.057593491 18664:0.18934353 18715:0.067552127 18814:0.16534227 18840:0.078108706 19160:0.11957376 19472:0.11518698 19795:0.10318635 19906:0.24801341 20170:0.094671763 20403:0.13510425 20701:0.10728267 21547:0.034065794 21870:0.0063787773 21890:0.028829139 22173:0.088067345 #
0.7800014650786357695011474788771 150:0.076776177 958:0.14830115 1389:0.17376083 1908:-0.0029616784 2351:0.12487605 2530:0.11900572 3399:0.041056775 3801:0.19396932 3889:-0.066214554 4142:0.12487605 4829:0.060689066 5169:0.035574302 5231:0.077581838 5436:0.076776177 6859:0.19396932 6890:0.055782788 7126:0.08730787 7578:0.1392142 8045:-0.0075373901 8518:-0.27207455 8745:0.10466757 9170:0.19396932 9569:0.1392142 9765:0.1315313 9852:0.11375452 10225:0.038790919 10624:0.14024188 11016:0.11900572 11768:0.15942268 11955:0.14830115 12741:0.12487605 13501:0.10900424 14921:0.09354604 14930:0.15942268 15044:0.31884536 15273:0.15942268 16380:0.10466757 16645:0.19396932 16871:0.027891394 16930:0.08730787 17196:0.17376083 17363:0.19396932 18439:0.22750904 19088:0.1392142 19128:0.19396932 19896:0.21672635 20635:0.14830115 20902:0.14830115 #
0.6860230741989712388573252610513 150:0.12369398 891:0.31250367 1726:0.15625183 2351:0.20118763 3556:0.1901077 3889:-0.10667817 6080:0.15625183 6859:0.15625183 8045:-0.012143478 8518:-0.35067111 8956:0.22428779 9411:0.21190986 10027:0.066146508 10104:0.1455296 10225:0.12499198 12341:0.052445699 13501:0.17561656 14240:0.15625183 14916:-0.059558239 14921:0.15071188 15561:0.31250367 19896:0.11638917 20071:0.25684565 20111:0.11297173 20159:0.19172993 20687:0.36816171 20882:0.14066158 #
1.0000000033588491987757151946425 1239:0.084665284 3142:0.14626753 3399:0.11702423 4914:0.034259435 6623:0.29253507 8045:-0.02148384 8757:-0.009801113 9413:0.74980789 9944:0.45440286 10225:0.11056585 14634:0.28696337 16691:0.084665284 #
0.74943170418872617766226085223025 545:0.095122874 894:0.12941544 2641:0.15765247 2669:0.19941512 2673:0.059415761 3269:0.16926791 3472:0.10385069 4667:0.19941512 4775:0.095122874 5607:0.33853582 8045:-0.0065775258 8757:-0.0060014478 9060:0.10385069 9272:0.13912068 9944:0.13912068 11046:0.33853582 11065:0.33853582 11499:0.046042252 11734:0.25883088 13602:0.19941512 13605:0.076189473 15750:0.19941512 16691:0.025921255 16820:0.12148569 16930:0.15237895 17530:0.022813272 18206:0.13824199 18644:0.21794692 19160:0.08785715 19220:0.16926791 19266:0.16926791 19605:0.19941512 19658:0.24297138 21870:0.018747296 #
1.0000000033588491987757151946425 894:0.16483776 1668:0.15473755 1882:0.25399706 1919:0.21559824 2213:0.11633873 2627:0.17719942 3010:0.12643895 3333:0.25399706 3889:-0.07359793 4914:0.013359845 4970:0.21559824 8045:-0.016755722 8494:0.090881653 10114:0.25399706 10779:0.13227569 11541:0.25399706 13605:0.097043306 13784:0.19313636 16408:0.25399706 17538:0.21559824 18309:0.19313636 18630:0.17719942 18934:0.15473755 18963:0.033016164 20218:0.25399706 21418:0.21559824 21660:0.25399706 21821:0.27760118 21870:0.035817932 #
-0.98638755651218479325592625173158 312:0.026475204 347:0.12966833 445:0.076381363 624:0.17423846 903:0.064834163 914:0.024887424 1211:0.02918262 1259:0.040570591 1318:0.12966833 1356:0.028230414 1611:0.041739769 2126:0.034985092 2213:0.10495527 2240:0.10930386 2351:0.1252193 2671:0.034985092 3010:0.038022403 3504:0.12966833 3612:0.1252193 3666:0.046532288 3810:0.076381363 3889:-0.044264372 4775:0.036434621 4882:0.020869885 4971:0.17423846 5210:0.03977761 5227:0.076381363 5677:0.13959686 5968:0.02918262 6836:0.020869885 6859:0.032417081 6880:0.12966833 6978:0.076381363 6981:0.076381363 7227:0.17423846 7355:0.064834163 7410:0.02918262 7453:0.45383915 7578:0.046532288 7874:0.076381363 7904:0.076381363 8129:0.097251244 8564:0.018645374 8914:-0.0156365 8999:0.12966833 9317:0.12966833 9673:0.017635424 9819:0.15208961 10381:0.12966833 10390:0.031267725 10407:0.036434621 10709:-0.010536358 10742:0.064834163 10779:0.15911044 10857:0.034985092 11016:0.03977761 11179:0.12966833 11594:0.16695908 11765:0.12966833 11983:0.019174278 12342:0.076381363 12385:0.041739769 12722:0.046049334 13258:0.14488138 13778:0.076381363 13999:0.12966833 14068:0.02918262 14186:0.12966833 14916:-0.0061781812 15354:0.028230414 15515:0.041739769 15683:0.12966833 15800:0.036434621 16473:0.076381363 16478:0.020869885 16483:0.29217839 16859:0.025662404 17270:0.076381363 17297:0.076381363 17345:0.024146898 17757:0.076381363 18038:0.17423846 18645:0.076381363 18912:0.12077028 19248:0.097251244 19398:0.020285295 19612:0.093751572 19940:0.041739769 20052:0.12966833 20521:0.12966833 21547:0.019174278 21732:0.027329704 22126:0.031565011 #
-1.0000000033588491987757151946425 133:0.085620955 197:0.070371553 236:0.085620955 312:0.017481774 348:0.085620955 364:0.085620955 669:0.085620955 726:0.076700628 849:0.076700628 852:0.085620955 914:0.016433351 929:0.042810477 1058:0.085620955 1113:0.070371553 1130:0.085620955 1211:0.0192695 1225:0.085620955 1259:0.026789062 1356:0.018640751 1611:0.027561078 1653:0.085620955 1815:0.12290246 1908:-0.035297886 1921:0.070371553 1964:0.085620955 2032:0.085620955 2110:0.085620955 2126:0.11550457 2171:0.085620955 2275:0.076700628 2332:0.070371553 2350:0.085620955 2352:0.070371553 2675:0.06145123 2676:0.085620955 3073:0.032731172 3146:0.070371553 3184:0.030725615 3215:0.085620955 3542:0.085620955 3666:0.030725615 3737:0.085620955 3782:0.085620955 3831:-0.095475964 3842:0.085620955 3889:-0.029228093 3972:0.085620955 4148:0.085620955 4464:0.050435178 4805:0.085620955 4882:0.013780539 4892:0.085620955 5193:0.085620955 5210:0.026265452 5231:0.025684338 5247:0.085620955 5799:0.085620955 5837:0.085620955 5934:0.012660918 5968:0.0192695 6150:0.085620955 6211:0.085620955 6287:0.039064828 6564:0.085620955 6623:0.045303736 6668:0.050435178 6771:0.085620955 6836:0.013780539 6924:0.038350314 6957:0.085620955 7182:0.085620955 7234:0.085620955 7340:0.085620955 7410:0.0192695 7445:0.085620955 7742:0.16536647 7856:0.070371553 7870:0.076700628 7881:0.085620955 7998:0.016945075 8043:0.050435178 8163:0.11024431 8369:0.007851515 8500:0.085620955 8508:0.085620955 8564:0.012311678 8767:0.070371553 8822:0.085620955 8914:-0.010324896 9030:0.085620955 9269:0.076700628 9354:0.032731172 9571:0.085620955 9673:0.0116448 10089:0.085620955 10095:0.06145123 10390:0.020646309 10407:0.02405805 10553:0.085620955 10569:0.16536647 10695:0.085620955 10709:-0.0069572353 10717:0.085620955 10766:0.070371553 10857:0.023100914 11015:0.085620955 11259:0.085620955 11613:0.050435178 11855:0.085620955 11983:0.012660918 12156:0.085620955 12385:0.027561078 12466:0.085620955 12509:0.076700628 12594:0.085620955 12641:0.06145123 12722:0.070949003 13175:0.085620955 13292:0.085620955 13342:0.085620955 13395:0.085620955 13923:0.030725615 14068:0.0192695 14281:0.070371553 14365:0.085620955 14381:0.070371553 14470:0.085620955 14561:0.085620955 14647:0.076700628 14784:0.085620955 14916:-0.0040794988 15159:0.076700628 15296:0.026265452 15354:0.018640751 15390:0.076700628 15423:0.052530903 15515:0.027561078 15593:0.085620955 15800:0.02405805 16012:0.085620955 16045:0.085620955 16086:0.085620955 16299:0.070371553 16314:0.070371553 16478:0.013780539 16762:0.070371553 16774:0.070371553 16820:0.06145123 16859:0.016945075 16871:0.0061558392 16892:0.085620955 17099:0.10506181 17264:0.085620955 17345:0.015944375 17549:0.070371553 17599:0.050435178 17713:0.085620955 17738:0.10042589 17748:0.085620955 18052:0.085620955 18588:0.032731172 18800:0.070371553 18890:0.076700628 19331:0.076700628 19381:0.085620955 19398:0.013394531 19712:0.070371553 19940:0.027561078 19977:0.085620955 20253:0.085620955 20312:0.070371553 20360:0.085620955 20380:0.085620955 20395:0.085620955 20412:0.085620955 20472:0.085620955 20512:0.050435178 20736:0.085620955 20775:0.065462343 20785:0.085620955 20813:0.085620955 20882:0.038539 21161:0.14434829 21284:0.085620955 21547:0.012660918 21707:0.032731172 21732:0.018046005 21813:0.085620955 22115:0.070371553 22126:0.02084261 #
-0.95774267480405972374768452937133 69:0.21402285 1802:0.21402285 3675:0.21402285 3889:-0.062015042 6373:0.048061863 6407:0.21402285 6622:0.1065399 6713:0.21402285 7073:0.06193734 7377:0.21402285 7948:0.21402285 9046:0.21402285 10126:0.11695607 10729:0.069735296 11564:0.056839999 11711:0.21402285 13839:0.21402285 15553:0.21402285 16787:0.13889548 16797:0.21402285 16904:0.046746865 18656:0.21402285 19754:0.21402285 20335:0.21402285 20345:0.21402285 20733:0.21402285 21065:0.21402285 21386:0.21402285 21767:0.13889548 22087:0.21402285 #
-0.88399905842222492591275795348338 693:0.3096253 1038:0.17821696 2258:0.16919951 3010:0.1541305 3683:0.3096253 3889:-0.089716718 5102:0.3096253 5819:0.1073219 9783:0.1541305 11293:0.077726312 12129:0.23543544 12391:0.23543544 13048:0.52563339 16613:0.3096253 18040:0.3096253 #
-1.0000000033588491987757151946425 61:0.087201104 108:0.059198812 115:0.049661957 234:0.11839762 948:0.064094514 1029:0.064094514 1356:0.024830978 1908:-0.0017414674 2349:0.077340424 2673:0.04003479 2997:0.13436742 3608:0.087201104 3831:-0.015653126 3889:-0.15573667 4283:0.055005085 4374:0.073427141 4507:0.18629701 4829:0.035685182 4882:0.03671357 5505:0.081857972 5588:0.093148507 5785:0.087201104 6080:0.11405399 6097:0.077340424 6685:0.13377535 6705:0.18748114 6879:0.13436742 7073:0.038885385 7126:0.051337045 7157:0.081857972 7467:0.11405399 7630:0.27990153 8045:-0.0088639734 8120:0.13436742 8185:0.087201104 8202:0.020917697 8218:0.055005085 8303:0.11405399 8497:0.073427141 8564:0.016400144 8745:0.1230891 8914:-0.0091690607 9260:0.13436742 9924:0.13436742 10344:0.059198812 10409:0.1021714 10709:-0.0061783972 10729:0.13134325 10896:0.1230891 11473:0.051337045 11564:0.10705554 11790:0.087201104 11983:0.067461438 12421:0.13436742 12560:0.18748114 12664:0.048077457 12853:0.33443838 13192:0.033730719 13793:0.11665615 13894:0.3065142 14529:0.069975384 14588:0.087201104 15471:0.13436742 15904:0.046574254 15994:0.13436742 16026:0.13436742 17538:0.11405399 18045:0.13436742 19067:0.073427141 19693:0.081857972 20159:0.20992614 20663:0.057026997 20666:0.13436742 20801:0.073427141 21145:0.11405399 21547:0.033730719 #
0.87835124678006903931049009770504 87:0.037528995 107:0.10345618 117:0.044188149 125:0.037528995 146:0.052974217 281:0.027584543 288:0.08635994 312:0.020044299 323:0.057828102 345:0.031601056 368:0.057828102 380:0.037528995 403:0.043971807 536:0.020044299 687:0.057828102 792:0.035229456 914:0.018842194 1082:0.035229456 1211:0.022094075 1239:0.007516867 1272:0.057828102 1284:0.035229456 1356:0.010686581 1376:0.049085751 1397:0.057828102 1465:0.049085751 1551:0.098171502 1569:0.027584543 1716:0.049085751 1726:0.024542876 1943:0.094803162 2009:0.028232714 2180:0.057828102 2197:0.0236727 2203:0.043971807 2344:0.057828102 2355:0.033285227 2530:0.030115511 2641:0.022858705 2660:0.030115511 2673:0.01722989 2920:0.025477566 3042:0.057828102 3142:0.01298612 3203:0.0236727 3219:0.028786646 3363:0.057828102 3399:0.010389802 3472:0.09034653 3544:0.049085751 3889:-0.18431833 3940:0.030715873 4223:0.020691236 4225:0.031601056 4230:0.057828102 4283:0.0236727 4424:0.057828102 4618:0.043971807 4657:0.057828102 4662:0.13715224 4752:0.040343404 4774:0.037528995 4829:0.030715873 4882:0.031601056 4984:0.057828102 5169:0.036009643 5218:0.0236727 5219:0.037892438 5265:0.057828102 5343:0.028786646 5412:0.098171502 5440:0.016735217 5588:0.020044299 5592:0.022094075 5595:0.098171502 5609:0.027584543 5710:0.087943614 5819:0.080177195 5877:0.043971807 5934:0.043550365 5954:0.033285227 5968:0.022094075 6136:0.098171502 6176:0.030115511 6201:0.035229456 6249:0.013351726 6300:0.035229456 6523:0.09034653 6548:0.099855676 6623:0.03895836 6667:0.080686808 6717:0.057828102 6763:0.057828102 6815:0.042746324 6836:0.015800528 6843:0.019428929 6844:0.049085751 6859:0.024542876 6890:0.070581786 6931:0.080686808 7142:0.037528995 7267:0.049085751 7285:0.027584543 7288:0.057828102 7349:0.049085751 7371:0.037528995 7410:0.022094075 7507:0.057573292 7513:0.057828102 7566:0.09034653 7601:0.049085751 7626:0.033285227 7662:0.018842194 7691:0.055169087 7693:0.043971807 7716:0.016259216 7801:0.052974217 7807:0.040343404 7811:0.043971807 7858:0.057828102 7998:0.038857859 8045:-0.017166665 8053:0.021373162 8202:0.090024106 8303:0.024542876 8369:0.054014463 8433:0.066570453 8518:-0.24786365 8564:0.014116357 8684:0.087943614 8757:-0.020884214 8769:0.049085751 8775:0.15011598 8914:-0.011838348 9022:0.024542876 9060:0.060231023 9092:0.025477566 9138:0.040343404 9272:0.080686808 9289:0.031601056 9351:0.080686808 9411:0.033285227 9427:0.13314091 9451:0.073126175 9519:0.088723801 9529:0.049085751 9632:0.049085751 9673:0.013351726 9819:0.028786646 9852:0.028786646 10027:0.06233881 10095:0.070458911 10225:0.029449217 10311:0.057828102 10410:0.057828102 10486:0.075057991 10524:0.043971807 10626:0.031601056 10709:-0.0079770451 10855:0.098171502 10896:0.026487108 10928:0.098171502 11095:0.057573292 11256:0.076432697 11317:0.075057991 11499:0.013351726 11589:0.021981025 11641:0.049085751 11818:0.098171502 11947:0.014116357 11951:0.025477566 11983:0.014516789 12192:0.049085751 12200:0.17271988 12266:0.043971807 12310:0.049085751 12341:0.090615578 12521:0.033285227 12562:0.049085751 12613:0.057828102 12650:0.049085751 12787:0.040343404 12853:0.028786646 12874:0.035229456 12958:0.040343404 12981:0.098171502 13012:0.057828102 13042:0.049085751 13093:0.031601056 13141:0.057828102 13192:0.058067154 13257:0.11514658 13265:0.057828102 13312:0.030115511 13359:0.098171502 13393:0.11755239 13590:0.049085751 13600:0.12103021 13655:0.027584543 13762:0.040343404 13926:0.049085751 13953:0.098171502 13960:0.049085751 14068:0.022094075 14079:0.049085751 14240:0.024542876 14338:0.035229456 14558:0.057828102 14674:0.043971807 14849:0.087943614 14916:-0.042097341 15077:0.057828102 15115:0.030115511 15157:0.0236727 15187:0.0946908 15196:0.057828102 15229:0.043971807 15298:0.021373162 15354:0.021373162 15355:0.037528995 15383:0.024542876 15430:0.057828102 15501:0.098171502 15645:0.057828102 15735:0.049085751 15773:0.035229456 15848:0.040343404 15904:0.020044299 16306:0.10191026 16377:0.043971807 16465:0.020044299 16478:0.015800528 16517:0.035229456 16691:0.075168669 16714:0.057828102 16820:0.070458911 16871:0.070581786 16875:0.085492648 17038:0.057828102 17119:0.057828102 17451:0.050955132 17530:0.019846763 17594:0.049085751 17709:0.020691236 17899:0.066570453 18206:0.060132895 18263:0.022858705 18362:0.057828102 18422:0.043971807 18448:0.049085751 18511:0.055169087 18598:0.049085751 18684:0.030115511 18735:0.15011598 18748:0.01722989 18781:0.080686808 18816:0.049085751 18826:0.055169087 19048:0.057828102 19073:0.027584543 19105:0.033285227 19398:0.030715873 19481:0.057828102 19521:0.040343404 19612:0.035489518 19663:0.057828102 19733:0.022858705 19866:0.043971807 19896:0.018281544 20057:0.035229456 20071:0.040343404 20111:0.017744759 20159:0.030115511 20163:0.040343404 20236:0.0236727 20262:0.049085751 20309:0.020691236 20403:0.028786646 20539:0.021373162 20626:0.057828102 20663:0.024542876 20734:0.040343404 20809:0.049085751 20882:0.044188149 20967:0.042746324 21069:0.026487108 21141:0.028786646 21234:0.098171502 21246:0.076789685 21362:0.057828102 21490:0.057828102 21547:0.014516789 21623:0.031601056 21732:0.020691236 21821:0.031601056 21870:0.0027182507 21961:0.087943614 22126:0.011948888 22164:0.031601056 #
1.0000000033588491987757151946425 19:0.034197662 87:0.02219343 107:0.012236126 115:0.025278788 117:0.013065719 135:0.02219343 150:0.011489639 159:0.14372291 175:0.034197662 200:0.039197158 213:0.034197662 252:0.034197662 327:0.034197662 425:0.034197662 459:0.034197662 510:0.034197662 601:0.026003499 605:0.034197662 638:0.093981698 724:0.029027721 726:0.026003499 804:0.034197662 900:0.034197662 914:0.011142662 962:0.02219343 996:0.034197662 1020:0.037375677 1037:0.029027721 1038:0.039367605 1082:0.020833557 1124:0.017809335 1175:0.034197662 1238:0.02219343 1239:0.026671387 1304:0.029027721 1308:0.026003499 1329:0.034197662 1356:0.006319697 1525:0.02385778 1530:0.034197662 1601:0.029027721 1624:0.034197662 1649:0.029027721 1674:0.034197662 1769:0.029027721 1834:0.058055442 1841:0.052006997 1856:0.02219343 1908:-0.00044321842 1914:0.04771556 2009:0.025043866 2097:0.034197662 2127:0.029027721 2213:0.015663616 2216:0.02219343 2240:0.032625206 2275:0.026003499 2353:0.034197662 2411:0.04771556 2489:0.034197662 2490:0.034197662 2507:0.034197662 2641:0.013517897 2666:0.034197662 2739:0.034197662 2879:0.034197662 2886:0.034197662 2895:0.093981698 2920:0.015066606 2939:0.034197662 2954:0.029027721 3010:0.017023489 3049:0.034197662 3065:0.029027721 3073:0.066580288 3109:0.034197662 3142:0.015359139 3150:0.034197662 3176:0.026003499 3184:0.020833557 3203:0.013999267 3214:0.034197662 3217:0.034197662 3226:0.026003499 3399:0.0061441916 3414:0.13778661 3415:0.026003499 3456:0.034197662 3472:0.03561867 3489:0.070957623 3590:0.034197662 3612:0.056063514 3663:0.018687839 3710:0.034197662 3733:0.058055442 3761:0.034197662 3831:-0.0019919276 3867:0.034197662 3889:-0.13872711 4038:0.034197662 4053:0.034197662 4136:0.058055442 4141:0.034197662 4144:0.034197662 4162:0.034197662 4168:0.01451386 4206:0.019683803 4224:0.034197662 4252:0.034197662 4283:0.013999267 4289:0.034197662 4290:0.034197662 4310:0.04438686 4374:0.018687839 4577:0.034197662 4616:0.02219343 4748:0.08877372 4775:0.032625206 4787:0.034046978 4791:0.010811112 4914:0.039572347 4934:0.034197662 4961:0.034197662 4976:0.034197662 5026:0.034197662 5159:0.029027721 5164:0.034197662 5169:0.0053237332 5219:0.13445015 5224:0.058055442 5271:0.034197662 5280:0.026003499 5306:0.078010499 5352:0.02385778 5388:0.094443075 5397:0.02219343 5436:0.022979278 5438:0.02385778 5440:0.0098966639 5462:0.08333423 5466:0.034197662 5533:0.034197662 5588:0.023707094 5592:0.026131438 5609:0.016312603 5633:0.02219343 5709:0.02385778 5772:0.034197662 5957:0.026003499 6089:0.034197662 6125:0.058055442 6163:0.034197662 6195:0.034197662 6249:0.023687333 6254:0.034197662 6290:0.034197662 6296:0.034197662 6313:0.034197662 6338:0.029027721 6376:0.04438686 6397:0.034197662 6408:0.034197662 6434:0.034197662 6439:0.034197662 6490:0.034197662 6496:0.034197662 6508:0.034197662 6560:0.029027721 6592:0.034197662 6622:0.034046978 6671:0.029027721 6679:0.034197662 6685:0.034046978 6736:0.034197662 6748:0.034197662 6750:0.020833557 6791:0.034197662 6817:0.034197662 6836:0.046719596 6900:0.034197662 6924:0.026003499 7042:0.071573339 7069:0.034197662 7126:0.013065719 7134:0.02219343 7221:0.034197662 7285:0.016312603 7289:0.034197662 7368:0.034197662 7473:0.058055442 7478:0.034197662 7480:0.034197662 7492:0.034197662 7527:0.10159703 7572:0.058055442 7630:0.017809335 7640:0.034197662 7643:0.026003499 7647:0.034197662 7698:0.02385778 7716:0.0096151726 7734:0.034197662 7801:0.015663616 7870:0.026003499 7917:0.018687839 7923:0.048937812 7940:0.04438686 7995:0.078010499 7997:0.02385778 7998:0.011489639 8012:0.062500671 8018:0.034197662 8038:0.02219343 8045:-0.0090238294 8094:0.034197662 8129:0.01451386 8290:0.02385778 8303:0.029027721 8318:0.034197662 8369:0.010647466 8442:0.034197662 8483:0.095431119 8510:0.034197662 8518:-0.057002757 8663:0.034197662 8711:0.034197662 8745:0.062654465 8769:0.029027721 8806:0.05405556 8885:0.034197662 8914:-0.044338491 8972:0.01451386 9022:0.029027721 9054:0.034197662 9088:0.058055442 9113:0.034197662 9173:0.048937812 9190:0.034197662 9233:0.020833557 9273:0.034197662 9275:0.034197662 9313:0.02385778 9334:0.034197662 9377:0.034197662 9411:0.039367605 9454:0.034197662 9569:0.041667115 9589:0.034197662 9614:0.034197662 9673:0.0078957779 9797:0.034197662 9822:0.034197662 9839:0.034197662 9897:0.13778661 10005:0.034197662 10037:0.058055442 10095:0.041667115 10133:0.034197662 10333:0.018687839 10337:0.04771556 10344:0.015066606 10409:0.052006997 10472:0.0070661847 10527:0.034197662 10612:0.034197662 10624:0.02098735 10709:-0.014152097 10720:0.034197662 10727:0.020833557 10729:0.011142662 10742:0.029027721 10752:0.034197662 10755:0.034197662 10779:0.017809335 10833:0.034197662 10886:0.058055442 10895:0.034197662 10990:0.034197662 11020:0.034197662 11038:0.078010499 11063:0.034197662 11135:0.034197662 11207:0.034197662 11223:0.034197662 11231:0.034197662 11235:0.058055442 11260:0.034197662 11316:0.034197662 11334:0.029027721 11402:0.034197662 11409:0.034197662 11429:0.019683803 11473:0.039197158 11479:0.058055442 11499:0.0078957779 11552:0.034197662 11589:0.019498298 11609:0.1259934 11620:0.034197662 11660:0.034197662 11717:0.026003499 11764:0.034197662 11768:0.04771556 11795:0.034197662 11852:0.035560641 11905:0.034197662 11926:0.034197662 11938:0.029027721 11947:0.20035093 11976:0.058055442 12008:0.058055442 12051:0.034197662 12056:0.034197662 12092:0.034197662 12147:0.026003499 12164:0.034197662 12170:0.034197662 12214:0.034197662 12254:0.034197662 12299:0.034197662 12306:0.058055442 12312:0.029027721 12332:0.058055442 12346:0.034197662 12451:0.034197662 12506:0.034197662 12511:0.095431119 12530:0.066580288 12616:0.034197662 12619:0.029027721 12676:0.026003499 12685:0.034197662 12689:0.034197662 12698:0.034197662 12707:0.034197662 12724:0.029027721 12790:0.034197662 12828:0.034197662 12833:0.034197662 12897:0.026003499 12907:0.052006997 12983:0.034197662 12984:0.029027721 13033:0.029027721 13047:0.034197662 13070:0.04771556 13192:0.0085847573 13241:0.034197662 13258:0.05405556 13261:0.020833557 13271:0.034197662 13286:0.034197662 13325:0.034197662 13332:0.058055442 13334:0.034197662 13401:0.034197662 13540:0.034197662 13541:0.034197662 13549:0.034197662 13691:0.034197662 13759:0.034197662 13775:0.034197662 13793:0.0098966639 13809:0.029027721 13864:0.058055442 13923:0.020833557 14053:0.058055442 14159:0.034197662 14177:0.058055442 14200:0.058055442 14205:0.034197662 14303:0.034197662 14359:0.034197662 14373:0.034197662 14374:0.034197662 14456:0.034197662 14463:0.034197662 14465:0.034197662 14487:0.041667115 14527:0.017023489 14580:0.026003499 14629:0.034197662 14657:0.034197662 14671:0.026003499 14685:0.066580288 14693:0.034197662 14831:0.02385778 14915:0.034197662 14916:-0.0027661114 14921:0.013999267 14955:0.034197662 15019:0.029027721 15084:0.034197662 15087:0.056063514 15096:0.058055442 15098:0.034197662 15134:0.026003499 15190:0.029027721 15290:0.078010499 15328:0.041667115 15383:0.04354158 15390:0.026003499 15402:0.013065719 15446:0.034197662 15584:0.058055442 15632:0.029027721 15680:0.052006997 15730:0.020833557 15831:0.034197662 15847:0.034197662 15865:0.034197662 15880:0.17416632 15904:0.047414187 16014:0.095431119 16035:0.034197662 16042:0.034197662 16209:0.034197662 16282:0.034197662 16332:0.019683803 16354:0.034197662 16365:0.034197662 16372:0.034197662 16377:0.026003499 16379:0.017023489 16396:0.034197662 16410:0.034197662 16412:0.034197662 16413:0.052006997 16483:0.018687839 16487:0.078010499 16544:0.02385778 16568:0.034197662 16569:0.02219343 16574:0.029027721 16629:0.058055442 16692:0.034197662 16719:0.026003499 16736:0.034197662 16739:0.058055442 16784:0.04438686 16831:0.056063514 16930:0.013065719 16967:0.031327233 16982:0.02219343 17046:0.029027721 17087:0.034197662 17126:0.034197662 17159:0.034197662 17183:0.02219343 17197:0.02385778 17202:0.029027721 17215:0.026003499 17256:0.058055442 17269:0.034197662 17302:0.016312603 17345:0.010811112 17372:0.029027721 17377:0.034197662 17473:0.034197662 17609:0.034197662 17615:0.052006997 17708:0.034197662 17727:0.034197662 17741:0.029027721 17755:0.017809335 17773:0.026003499 17801:0.026003499 17844:0.08333423 17898:0.034197662 17910:0.013517897 17913:0.016312603 17992:0.034197662 18026:0.034197662 18067:0.011142662 18071:0.029027721 18101:0.034197662 18146:0.034197662 18152:0.034197662 18160:0.034197662 18192:0.034197662 18245:0.034197662 18257:0.034197662 18291:0.015066606 18300:0.02219343 18309:0.026003499 18313:0.034197662 18352:0.034197662 18439:0.034046978 18546:0.034197662 18598:0.01451386 18602:0.066580288 18619:0.034197662 18658:0.034197662 18676:0.034197662 18755:0.034197662 18769:0.026003499 18804:0.034197662 18830:0.013065719 18833:0.034197662 18840:0.019683803 18878:0.034197662 18881:0.031583112 18909:0.02385778 18912:0.040553689 18926:0.07873521 18963:0.026671387 19017:0.034197662 19143:0.11096715 19220:0.029027721 19248:0.029027721 19328:0.04438686 19334:0.026003499 19347:0.029027721 19351:0.034197662 19433:0.066580288 19439:0.034197662 19533:0.026003499 19566:0.034197662 19603:0.034197662 19643:0.034197662 19648:0.034197662 19657:0.034197662 19693:0.020833557 19733:0.013517897 19750:0.034197662 19773:0.095431119 19866:0.026003499 19896:0.021622224 19953:0.045199819 19973:0.034197662 19974:0.034197662 20051:0.034197662 20066:0.029027721 20103:0.02219343 20111:0.02098735 20236:0.013999267 20309:0.097889006 20357:0.029027721 20366:0.019683803 20371:0.071573339 20384:0.026003499 20402:0.034197662 20443:0.019683803 20470:0.026003499 20502:0.034197662 20539:0.012639394 20563:0.052006997 20577:0.026003499 20580:0.034197662 20616:0.034197662 20617:0.078010499 20644:0.02219343 20663:0.029027721 20701:0.013517897 20774:0.034197662 20877:0.058055442 21031:0.058055442 21032:0.034197662 21191:0.026003499 21252:0.026003499 21261:0.02219343 21300:0.026003499 21418:0.029027721 21424:0.034197662 21469:0.034197662 21616:0.034197662 21684:0.034197662 21704:0.034197662 21718:0.058055442 21726:0.034197662 21752:0.019683803 21864:0.02219343 21870:0.0032149705 21872:0.034197662 21961:0.026003499 21980:0.020833557 22054:0.034197662 22111:0.098419011 22126:0.0070661847 22137:0.034197662 22173:0.02219343 #
0.84967565645073372948559153883252 14:0.042476017 107:0.11709364 146:0.059957206 230:0.035766661 248:0.049768109 288:0.097743787 312:0.022686509 345:0.035766661 536:0.022686509 792:0.039873354 914:0.021325946 948:0.062441397 958:0.042476017 988:0.055556167 1211:0.025006486 1224:0.084952034 1356:0.024190543 1375:0.065450922 1465:0.027778083 1482:0.042476017 1569:0.031220699 1716:0.055556167 1731:0.045661416 1822:0.034085296 1856:0.042476017 1908:-0.0025448278 2009:0.015977155 2086:0.049768109 2197:0.026793202 2349:0.075345673 2351:0.035766661 2355:0.037672836 2641:0.025871908 2660:0.034085296 2671:0.029978603 2673:0.019501111 3384:0.099536218 3461:0.042476017 3472:0.068170592 3489:0.055920046 3544:0.055556167 3831:-0.0019061755 3889:-0.18964992 3940:0.052147195 3961:0.065450922 4283:0.080379613 4618:0.049768109 4662:0.025871908 4742:0.049768109 4791:0.020691393 5141:0.055556167 5169:0.010189096 5219:0.014295789 5413:0.032581262 5436:0.021990025 5440:0.018941231 5588:0.045373019 5592:0.050012972 5609:0.031220699 5709:0.045661416 5710:0.049768109 5827:0.035766661 5877:0.099536218 5934:0.032860745 5968:0.025006486 6033:0.065450922 6080:0.027778083 6176:0.034085296 6201:0.039873354 6249:0.045335196 6373:0.029395863 6506:0.065450922 6523:0.034085296 6623:0.029395863 6667:0.091322832 6836:0.017883331 6843:0.021990025 6844:0.055556167 6890:0.063908622 7156:0.042476017 7267:0.055556167 7371:0.12742805 7410:0.025006486 7507:0.032581262 7578:0.039873354 7590:0.055556167 7600:0.065450922 7601:0.055556167 7716:0.092012413 7801:0.059957206 7807:0.045661416 7998:0.021990025 8045:-0.0086353561 8053:0.024190543 8202:0.07132367 8218:0.10717281 8369:0.010189096 8370:0.065450922 8518:-0.2181952 8564:0.015977155 8757:-0.024622023 8914:-0.013398862 9022:0.027778083 9033:0.055556167 9138:0.13698424 9196:0.065450922 9233:0.039873354 9289:0.071533322 9351:0.091322832 9427:0.11301851 9442:0.065450922 9451:0.062074177 9519:0.1205031 9529:0.055556167 9673:0.015111732 9820:0.055556167 9830:0.055556167 10027:0.035278112 10058:0.084952034 10216:0.11111233 10225:0.022220781 10344:0.057671968 10390:0.026793202 10514:0.055556167 10709:-0.0090285679 10846:0.065450922 10857:0.029978603 10896:0.029978603 11256:0.086507954 11317:0.042476017 11405:0.065450922 11443:0.065450922 11465:0.065162525 11499:0.015111732 11589:0.012439267 11641:0.055556167 11951:0.086507954 11969:0.045661416 11983:0.016430372 12178:0.037672836 12192:0.055556167 12200:0.13032505 12224:0.065450922 12266:0.049768109 12341:0.1025604 12641:0.039873354 12719:0.065450922 12787:0.045661416 12905:0.10729998 13042:0.055556167 13093:0.035766661 13192:0.049291115 13257:0.13032505 13298:0.053586405 13312:0.068170592 13393:0.14514326 13590:0.055556167 13655:0.031220699 13722:0.042476017 13762:0.091322832 13926:0.055556167 13960:0.055556167 14068:0.025006486 14209:0.065450922 14240:0.027778083 14249:0.01689845 14526:0.11111233 14762:0.045661416 14764:0.045661416 14849:0.049768109 14916:-0.05823468 15082:0.042476017 15121:0.15949342 15157:0.053586405 15187:0.026793202 15354:0.024190543 15735:0.055556167 15773:0.11962007 15819:0.045661416 15904:0.022686509 15909:0.065450922 15919:0.045661416 16176:0.037672836 16306:0.028835984 16465:0.045373019 16478:0.017883331 16667:0.055556167 16691:0.025523189 16746:0.065450922 16871:0.023965733 16875:0.12095271 17305:0.042476017 17345:0.041382786 17476:0.084952034 17530:0.014975291 17594:0.055556167 17602:0.065450922 17709:0.023418726 17899:0.037672836 17961:0.065450922 18058:0.11111233 18067:0.021325946 18093:0.091322832 18206:0.068059526 18263:0.025871908 18448:0.055556167 18511:0.031220699 18598:0.055556167 18684:0.034085296 18826:0.062441397 18917:0.037672836 18963:0.017015459 19073:0.031220699 19213:0.055556167 19398:0.017382398 19480:0.055556167 19521:0.045661416 19612:0.020083848 19658:0.079746708 19733:0.077615723 19753:0.018402483 19866:0.049768109 19886:0.099536218 20057:0.11962007 20081:0.065450922 20109:0.055556167 20127:0.2606501 20141:0.051743817 20159:0.034085296 20256:0.11111233 20262:0.055556167 20466:0.065450922 20515:0.049768109 20663:0.055556167 20734:0.045661416 20967:0.024190543 21069:0.029978603 21089:0.065450922 21183:0.055556167 21246:0.034764796 21300:0.049768109 21311:0.075345673 21547:0.032860745 21623:0.035766661 21732:0.023418726 21795:0.025006486 21864:0.042476017 21870:0.0061531332 21890:0.041713998 22126:0.027047947 22160:0.042476017 22164:0.071533322 #
1.0000000033588491987757151946425 10:0.039518025 61:0.046931084 87:0.046931084 108:0.063720852 150:0.024296433 230:0.039518025 234:0.095581278 536:0.02506597 541:0.037660308 948:0.034495261 1029:0.034495261 1124:0.15064123 1239:0.018800115 1356:0.013363875 1482:0.14079325 1908:-0.00093724678 1929:0.054988004 1955:0.0723157 2199:0.041624129 2278:0.0723157 2336:0.061383139 2349:0.041624129 2530:0.037660308 2673:0.021546472 2787:0.02960339 2902:0.046931084 2973:0.054988004 3142:0.016239515 3167:0.034495261 3219:0.035998527 3235:0.061383139 3236:0.10997601 3608:0.046931084 3622:0.0723157 3784:0.033122886 3831:-0.0021061033 3840:0.054988004 3883:0.034495261 3889:-0.12572473 4206:0.041624129 4310:0.046931084 4374:0.07903605 4377:0.0723157 4447:0.0723157 4507:0.10026388 4648:0.0723157 4774:0.046931084 4787:0.035998527 4791:0.16003117 4812:0.041624129 4829:0.038411081 4882:0.019759012 4963:0.061383139 5125:0.0723157 5169:0.022515545 5320:0.0723157 5343:0.035998527 5397:0.046931084 5436:0.048592865 5440:0.020927869 5505:0.044055447 5588:0.075197905 5747:0.054988004 5785:0.046931084 5979:0.0723157 6073:0.12276628 6223:0.050450582 6249:0.033393431 6373:0.1136766 6526:0.12276628 6587:0.037660308 6622:0.035998527 6750:0.044055447 6836:0.039518025 6886:0.0723157 6890:0.035305817 7042:0.050450582 7073:0.041855738 7126:0.055258546 7142:0.046931084 7175:0.088810168 7337:0.047125407 7698:0.10090116 7916:0.0723157 7998:0.024296433 8045:-0.0047705346 8053:0.053455502 8090:0.0723157 8218:0.02960339 8225:0.0723157 8239:0.16496401 8369:0.011257772 8497:0.1580721 8528:0.0723157 8806:0.091446377 8914:-0.0049347309 8972:0.03069157 9009:0.061383139 9092:0.063720852 9407:0.061383139 9661:0.035998527 9765:0.041624129 9944:0.050450582 10027:0.038978234 10126:0.039518025 10195:0.0723157 10214:0.046931084 10247:0.061383139 10472:0.029884854 10709:-0.0033251746 10729:0.32987785 10896:0.066245772 11147:0.0723157 11499:0.016696716 11531:0.0723157 11564:0.13443878 11589:0.013743951 11622:0.0723157 11790:0.046931084 11938:0.061383139 11983:0.03630732 12341:0.01030158 12509:0.054988004 12604:0.041624129 12840:0.046931084 12853:0.071997054 13146:0.050450582 13192:0.01815366 13793:0.020927869 13950:0.14079325 13972:0.039518025 14008:0.061383139 14438:0.026727751 14588:0.046931084 14627:0.0723157 14803:0.12276628 14893:0.088110894 14916:-0.02924663 15060:0.02960339 15134:0.10997601 15187:0.088810168 15273:0.050450582 15362:0.0723157 15450:0.0723157 15620:0.041624129 15632:0.061383139 15838:0.0723157 15881:0.0723157 15904:0.02506597 15928:0.046931084 16283:0.039518025 16306:0.031860426 16379:0.035998527 16413:0.054988004 16465:0.15039581 16787:0.046931084 16819:0.0723157 16837:0.0723157 16864:0.0723157 16871:0.04413227 16904:0.015795194 17099:0.037660308 17183:0.046931084 17304:0.061383139 17324:0.044055447 17345:0.022861594 17372:0.061383139 17476:0.046931084 17693:0.061383139 17773:0.054988004 17865:0.054988004 17910:0.028585466 17954:0.0723157 18191:0.11855407 18291:0.031860426 18326:0.088110894 18333:0.061383139 18424:0.046931084 18439:0.035998527 18588:0.046931084 18598:0.03069157 18830:0.055258546 18859:0.0723157 18926:0.041624129 19067:0.039518025 19073:0.034495261 19123:0.0723157 19626:0.046931084 19693:0.044055447 19753:0.10166308 19836:0.041624129 19859:0.0723157 20036:0.0723157 20071:0.050450582 20111:0.044380661 20136:0.0723157 20141:0.085756399 20159:0.037660308 20526:0.10997601 20563:0.054988004 20571:0.054988004 20588:0.046931084 20663:0.092074707 20701:0.057170931 20882:0.027629273 21013:0.050450582 21081:0.0723157 21159:0.0723157 21246:0.01920554 21364:0.026727751 21547:0.03630732 21560:0.0723157 21767:0.046931084 21870:0.010197751 21875:0.0723157 21890:0.030726096 21916:0.046931084 22070:0.12276628 22173:0.046931084 #
1.0000000033588491987757151946425 1304:0.32144392 3889:-0.21946011 9284:0.37869424 11465:0.18851279 13298:0.1550235 13856:0.28795463 14296:0.37869424 14487:0.23070431 16784:0.24576311 16871:0.046221323 17530:0.043322966 17893:0.16684288 17913:0.18064067 21481:0.26419359 22164:0.41388655 #
-0.80725991584015543978125606372487 14:0.089225151 94:0.068743125 107:0.049193397 146:0.031486537 150:0.023096131 159:0.026264321 248:0.10454293 312:0.02382765 522:0.039567795 536:0.02382765 620:0.044612575 864:0.039567795 914:0.022398649 1200:0.068743125 1211:0.026264321 1224:0.089225151 1247:0.1568144 1253:0.058350664 1356:0.025407337 1465:0.029175332 1569:0.032791112 1710:0.068743125 1731:0.047958203 1822:0.035799798 1952:0.068743125 2045:0.068743125 2197:0.028140912 2614:0.058350664 2661:0.1438746 2966:0.068743125 3378:0.068743125 3439:0.052271463 3489:0.050342437 3514:0.068743125 3522:0.068743125 3556:0.053245343 3585:0.068743125 3788:0.068743125 3840:0.052271463 3889:-0.31870303 4223:0.024596699 4225:0.037565738 4283:0.056281824 4530:0.068743125 4669:0.068743125 4787:0.034220111 4886:0.068743125 4914:0.0072315601 5159:0.058350664 5325:0.058350664 5375:0.068743125 5427:0.047958203 5505:0.041878998 5714:0.068743125 5934:0.034513652 5950:0.058350664 5968:0.026264321 6242:0.3005259 6249:0.047615573 6250:0.041878998 6300:0.041878998 6338:0.058350664 6350:0.11670133 6376:0.044612575 6544:0.058350664 6548:0.039567795 6593:0.068743125 6608:0.068743125 6623:0.030874487 6707:0.058350664 6836:0.018782869 6839:0.037565738 6866:0.052271463 6931:0.047958203 7073:0.039787963 7410:0.026264321 7466:0.047958203 7507:0.034220111 7527:0.029175332 7537:0.068743125 7566:0.071599595 7587:0.068743125 7715:0.039567795 7716:0.019328134 7747:0.068743125 7816:0.052271463 7923:0.032791112 7986:0.068743125 7997:0.1438746 8045:-0.0045348587 8202:0.010701611 8303:0.029175332 8362:0.039567795 8369:0.010701611 8404:0.068743125 8518:-0.032738641 8564:0.033561625 8638:0.032791112 8684:0.052271463 8745:0.062973075 8757:-0.011378629 8806:0.021732178 8914:-0.037527546 9109:0.068743125 9451:0.021732178 9519:0.021094074 9549:0.068743125 9632:0.058350664 9673:0.031743716 9778:0.068743125 9938:0.035799798 10058:0.089225151 10176:0.058350664 10177:0.068743125 10333:0.037565738 10390:0.028140912 10588:0.037565738 10687:0.068743125 10709:-0.028448125 10857:0.031486537 11050:0.083757997 11256:0.12114578 11465:0.034220111 11499:0.015871858 11589:0.078389801 11609:0.056281824 11708:0.068743125 11734:0.044612575 11809:0.068743125 11852:0.02382765 11874:0.068743125 11928:0.068743125 11947:0.0083904061 11957:0.068743125 11969:0.047958203 12249:0.068743125 12276:0.068743125 12316:0.068743125 12341:0.0097926566 12492:0.068743125 12500:0.068743125 12560:0.047958203 12641:0.041878998 12768:0.068743125 12874:0.041878998 12905:0.15026295 13140:0.035799798 13218:0.068743125 13393:0.10162935 13452:0.068743125 13501:0.032791112 13525:0.068743125 13566:0.068743125 13655:0.032791112 13722:0.1784503 13762:0.047958203 13784:0.052271463 13972:0.037565738 14068:0.026264321 14240:0.029175332 14338:0.041878998 14355:0.068743125 14551:0.039567795 14762:0.047958203 14764:0.047958203 14916:-0.011120711 15087:0.075131476 15298:0.050814673 15354:0.025407337 15443:0.058350664 15583:0.13383773 15710:0.068743125 15723:0.068743125 15904:0.02382765 15915:0.058350664 15919:0.047958203 16084:0.095916405 16283:0.037565738 16306:0.060572889 16478:0.018782869 16517:0.041878998 16569:0.089225151 16691:0.08935672 16859:0.023096131 16871:0.025171218 16875:0.025407337 16904:0.015014873 17132:0.035799798 17241:0.068743125 17302:0.065582223 17305:0.044612575 17335:0.11670133 17391:0.058350664 17447:0.068743125 17451:0.030286444 17530:0.015728554 17709:0.024596699 17893:0.030286444 18010:0.041878998 18070:0.11670133 18093:0.047958203 18147:0.068743125 18309:0.052271463 18414:0.068743125 18511:0.065582223 18525:0.068743125 18528:0.068743125 18735:0.044612575 18963:0.071485378 19120:0.068743125 19245:0.068743125 19310:0.052271463 19398:0.018256739 19693:0.041878998 19732:0.068743125 19753:0.019328134 19988:0.068743125 20103:0.044612575 20299:0.068743125 20967:0.025407337 20994:0.068743125 21005:0.068743125 21049:0.037565738 21246:0.018256739 21318:0.068743125 21623:0.037565738 21732:0.024596699 22111:0.039567795 22126:0.02840847 22159:0.068743125 #
-0.68962689660047293838118775965995 14:0.044733204 146:0.06314335 230:0.037667312 234:0.12147334 312:0.023892077 351:0.089466408 536:0.023892077 541:0.035896599 620:0.044733204 909:0.0524128 914:0.022459213 1029:0.13151911 1211:0.026335336 1356:0.025476035 1465:0.029254219 1569:0.032879777 1731:0.048087876 1817:0.058508437 1822:0.035896599 1908:-0.00089335354 1966:0.068929002 1980:0.11701687 2197:0.028217001 2428:0.048087876 2636:0.11701687 2641:0.027246749 2661:0.048087876 2673:0.020537404 2821:0.039674781 3203:0.028217001 3343:0.096175753 3385:0.11902434 3489:0.033652373 3663:0.037667312 3889:-0.21970077 3940:0.018306104 4168:0.058508437 4206:0.039674781 4310:0.044733204 4443:0.068929002 4787:0.034312639 4882:0.018833656 4955:0.24018848 4970:0.058508437 5067:0.0524128 5231:0.0117008 5280:0.1048256 5438:0.048087876 5440:0.039895546 5501:0.11701687 5827:0.037667312 5968:0.026335336 6104:0.058508437 6219:0.068929002 6561:0.24018848 6685:0.034312639 6836:0.018833656 6843:0.04631716 7023:0.068929002 7030:0.041992236 7142:0.044733204 7156:0.089466408 7244:0.068929002 7274:0.068929002 7337:0.022459213 7355:0.058508437 7410:0.026335336 7555:0.068929002 7620:0.15723839 7630:0.035896599 7715:0.039674781 7716:0.038760792 7801:0.031571675 8045:-0.0090942411 8053:0.025476035 8290:0.048087876 8377:0.068929002 8518:-0.14772224 8564:0.016826186 8914:-0.014110881 9092:0.030368336 9519:0.084604442 9673:0.015914774 9902:0.15723839 9963:0.032879777 10333:0.15066925 10344:0.030368336 10390:0.028217001 10619:0.058508437 10624:0.12690666 10709:-0.009508349 10857:0.031571675 10980:0.068929002 11095:0.13725056 11256:0.030368336 11473:0.026335336 11499:0.015914774 11514:0.068929002 11624:0.068929002 11728:0.15723839 11843:0.17893282 11969:0.048087876 11983:0.017303485 12184:0.068929002 12354:0.0524128 12636:0.068929002 12676:0.0524128 13093:0.037667312 13258:0.065372817 13298:0.112868 13609:0.068929002 13655:0.032879777 13748:0.044733204 13901:0.028217001 13947:0.048087876 14037:0.068929002 14066:0.25195342 14068:0.026335336 14107:0.0524128 14288:0.068929002 14566:0.068929002 14647:0.0524128 14762:0.048087876 14764:0.048087876 14948:0.068929002 15159:0.0524128 15354:0.025476035 15383:0.029254219 15634:0.032879777 15819:0.14426363 15904:0.023892077 15918:0.032879777 15919:0.048087876 15954:0.068929002 15957:0.068929002 16040:0.048087876 16283:0.037667312 16379:0.13725056 16465:0.047784153 16478:0.018833656 16821:0.068929002 16904:0.015055472 16936:0.068929002 16954:0.068929002 17021:0.058508437 17099:0.035896599 17218:0.068929002 17305:0.089466408 17360:0.068929002 17530:0.0078855408 17709:0.024663204 17811:0.048087876 17899:0.15869913 17915:0.068929002 18093:0.048087876 18191:0.037667312 18300:0.044733204 18439:0.068625279 18598:0.029254219 18665:0.10293792 18684:0.035896599 18881:0.07957387 18963:0.026879499 19141:0.068929002 19265:0.068929002 19334:0.0524128 19398:0.018306104 19548:0.048087876 19836:0.039674781 20366:0.039674781 20539:0.025476035 20801:0.037667312 20903:0.048087876 20916:0.048087876 21006:0.068929002 21069:0.031571675 21352:0.068929002 21460:0.15723839 21547:0.034606971 21623:0.037667312 21732:0.024663204 21752:0.039674781 21864:0.044733204 21870:0.012960225 21890:0.014643564 21916:0.044733204 22126:0.028485283 #
-0.93388388105704678299190391044249 117:0.27235731 2641:0.28178304 4223:0.25506428 4882:0.1947757 5934:0.17895085 6843:0.23950362 7626:0.41031244 8518:-0.16974756 10225:0.12100845 10524:0.54204768 10624:0.21874258 11983:0.17895085 13192:0.17895085 21547:0.17895085 21870:0.067016646 #
-1.0000000033588491987757151946425 61:0.089951657 108:0.061066099 150:0.046568379 215:0.10539415 541:0.072182588 689:0.13860573 832:0.079779945 1356:0.025614213 1660:0.13860573 1863:0.089951657 2009:0.067669794 2240:0.066116221 2673:0.041297592 2787:0.056740094 3029:0.13860573 3608:0.089951657 3889:-0.16064902 3904:0.13860573 3940:0.073621571 4142:0.075743228 4374:0.075743228 4507:0.19217332 4812:0.079779945 4833:0.13860573 4882:0.037871614 5169:0.021577496 5231:0.047057051 5440:0.040111933 5505:0.084439993 5588:0.048043329 5633:0.089951657 5785:0.089951657 5962:0.34044054 6097:0.079779945 6287:0.035785928 6675:0.13860573 7030:0.084439993 7073:0.040111933 7371:0.089951657 7662:0.090324111 7691:0.066116221 8202:0.043154992 8369:0.021577496 8497:0.075743228 8518:-0.099015646 8564:0.016917448 8585:0.13860573 8795:0.13860573 8914:-0.0094582774 9060:0.072182588 9413:0.079779945 10027:0.049805749 10358:0.11765156 10472:0.028639782 10709:-0.0063732807 10896:0.12697165 11429:0.23933983 11564:0.11043236 11686:0.13860573 11790:0.089951657 11983:0.069589354 12341:0.019744786 12650:0.11765156 12664:0.049593948 12958:0.09669739 13504:0.11765156 13793:0.040111933 13879:0.10539415 14172:0.13860573 14249:0.25050148 14438:0.051228426 14588:0.089951657 14634:0.1221322 14916:-0.022422519 15296:0.14436518 15319:0.072182588 15904:0.048043329 16239:0.13860573 16380:0.063485824 16871:0.016917448 17183:0.089951657 17302:0.066116221 17530:0.19027945 17638:0.13860573 17853:0.09669739 18067:0.090324111 18881:0.032002185 18912:0.054789063 19067:0.075743228 19248:0.05882578 19693:0.084439993 20141:0.10957813 20236:0.056740094 21246:0.036810786 21547:0.034794677 21890:0.088337928 #
-0.72906887641130235788722302459064 1124:0.50699377 3889:-0.28209034 18881:0.44955185 20371:0.67918003 #
1.0000000033588491987757151946425 197:0.14228928 312:0.035347644 345:0.055727713 536:0.070695288 541:0.053107992 914:0.033227764 1132:0.07114464 1211:0.038962379 1259:0.054166716 1356:0.037691068 1611:0.055727713 1822:0.10621598 1908:-0.0092518376 2126:0.046709388 2332:0.14228928 2590:0.10197849 3100:0.10197849 3176:0.077543244 3283:0.10197849 3386:0.077543244 3565:0.14228928 3666:0.062126316 3831:-0.023759959 3889:-0.059098367 3940:0.027083358 4426:0.066181496 4698:0.17312314 4829:0.054166716 4882:0.027863856 5145:0.10197849 5210:0.053107992 5588:0.070695288 5968:0.038962379 6037:0.10197849 6148:0.10197849 6612:0.10197849 6825:0.10197849 6836:0.027863856 7033:0.17312314 7126:0.038962379 7352:0.16698499 7410:0.038962379 7462:0.23262972 7466:0.07114464 7650:0.086561568 7662:0.033227764 7691:0.048644692 7742:0.11145543 7856:0.14228928 8045:-0.0033636675 8369:0.015875539 8518:-0.048566852 8564:0.024893861 8638:0.048644692 8809:0.10197849 8914:-0.020876646 9624:0.17312314 9673:0.023545453 9918:0.10197849 10027:0.01832217 10390:0.041746248 10407:0.048644692 10472:0.021071581 10569:0.11145543 10709:-0.01406733 10857:0.046709388 11073:0.17312314 11261:0.086561568 11886:0.10197849 11983:0.025600014 12341:0.02905426 12363:0.10197849 12385:0.055727713 12413:0.10197849 12491:0.23262972 12676:0.077543244 12722:0.061481509 13192:0.025600014 13501:0.097289383 14068:0.038962379 14249:0.052658644 14281:0.14228928 14529:0.053107992 14893:0.12425263 14916:-0.00824863 15319:0.10621598 15354:0.037691068 15383:0.086561568 15515:0.055727713 15800:0.048644692 16212:0.17312314 16314:0.14228928 16478:0.027863856 16859:0.03426246 17135:0.10197849 17233:0.10197849 17302:0.048644692 17345:0.064478144 17421:0.10197849 17451:0.044929087 17530:0.058332164 17738:0.10152914 17917:0.10197849 18433:0.10197849 18748:0.030384505 18800:0.14228928 19398:0.027083358 19578:0.10197849 19712:0.14228928 19940:0.055727713 19953:0.089858174 19997:0.14228928 20236:0.041746248 20309:0.036488507 20312:0.14228928 20366:0.058697708 21161:0.097289383 21191:0.077543244 21275:0.10197849 21426:0.086561568 21547:0.025600014 21732:0.036488507 21968:0.10197849 21997:0.07114464 22126:0.042143162 #
1.0000000033588491987757151946425 6836:0.35461867 12853:0.64607227 20159:0.67589658 #
0.80127646727097279200080492955749 112:0.46323913 150:0.20468207 2821:0.35065693 5592:0.23275915 7175:0.24938983 7662:0.19850087 8202:0.094839603 8369:0.094839603 13751:0.5171141 16380:0.27903935 17964:0.3032648 18963:0.079189532 21870:0.057273064 #
0.96681712324602420149943782234914 281:0.27930892 3889:-0.16966602 4829:0.1555077 5169:0.091154441 5751:0.58554184 8202:0.091154441 11007:0.58554184 13258:0.18511087 16380:0.26819679 16871:0.071468003 18748:0.17446227 21246:0.1555077 21870:0.027523808 #
1.0000000033588491987757151946425 159:0.028663052 200:0.028663052 215:0.057045437 281:0.03578594 312:0.026003839 345:0.040996633 909:0.057045437 914:0.024444327 915:0.075021468 1065:0.1273597 1113:0.10467649 1211:0.028663052 1239:0.0097517706 1259:0.079696544 1284:0.045703825 1356:0.027727798 1389:0.057045437 1504:0.043181539 1611:0.040996633 1668:0.091407649 1815:0.091407649 1904:0.1273597 1908:-0.0038892594 2126:0.034362216 2213:0.034362216 2352:0.10467649 2424:0.063679852 2530:0.03906941 2635:0.075021468 2660:0.03906941 2671:0.034362216 3142:0.016847134 3143:0.057045437 3146:0.10467649 3184:0.091407649 3203:0.030711032 3269:0.063679852 3316:0.075021468 3521:0.057045437 3556:0.019369422 3565:0.052338243 3658:0.1273597 3666:0.045703825 3831:-0.015294339 3889:-0.13042887 3940:0.019924136 4142:0.040996633 4157:0.063679852 4264:0.048687059 4662:0.029655023 4695:0.048687059 4812:0.043181539 4846:0.075021468 4882:0.020498317 4914:0.031568088 5006:0.075021468 5210:0.03906941 5231:0.063675024 5295:0.1273597 5440:0.043421812 5451:0.1273597 5589:0.075021468 5633:0.048687059 5681:0.19474824 5882:0.048687059 5968:0.028663052 6080:0.031839926 6097:0.043181539 6252:0.05368625 6287:0.019369422 6301:0.057045437 6373:0.016847134 6523:0.03906941 6548:0.043181539 6623:0.033694267 6636:0.075021468 6815:0.055455595 6836:0.020498317 6923:0.075021468 7073:0.021710906 7352:0.061422065 7410:0.028663052 7539:0.1273597 7566:0.078138821 7622:0.19534704 8009:0.057045437 8045:-0.0074235438 8163:0.081993267 8202:0.011678994 8518:-0.16077904 8564:0.018313412 8767:0.10467649 8806:0.023716986 8914:-0.020477476 8972:0.031839926 9022:0.063679852 9062:0.075021468 9354:0.14606118 9451:0.047433972 9661:0.03734545 9662:0.063679852 9673:0.017321441 9765:0.043181539 9829:0.1711363 9938:0.03906941 10027:0.013478882 10176:0.063679852 10225:0.012735005 10320:0.075021468 10390:0.030711032 10407:0.03578594 10472:0.046504539 10514:0.063679852 10709:-0.013798358 10857:0.034362216 11589:0.014258195 11609:0.030711032 11717:0.057045437 11947:0.018313412 11983:0.018832898 12283:0.063679852 12336:0.063679852 12385:0.040996633 12722:0.045229468 12724:0.063679852 12989:0.1273597 13033:0.063679852 13093:0.040996633 13192:0.018832898 13489:0.075021468 13563:0.1273597 13605:0.028663052 14068:0.028663052 14438:0.083183393 14634:0.033052519 14718:0.043181539 14857:0.075021468 14916:-0.0060681845 14921:0.030711032 15049:0.043181539 15082:0.048687059 15354:0.027727798 15356:0.045703825 15515:0.040996633 15561:0.063679852 15596:0.052338243 15800:0.03578594 15915:0.063679852 16283:0.040996633 16478:0.020498317 16762:0.10467649 16859:0.050411019 16867:0.048687059 17049:0.043181539 17345:0.047433972 17953:0.075021468 18010:0.045703825 18067:0.048888654 18191:0.16398653 18204:0.1273597 18356:0.075021468 18748:0.044705309 18881:0.017321441 18929:0.075021468 18963:0.019503541 19080:0.075021468 19235:0.11409087 19398:0.019924136 19733:0.029655023 19940:0.040996633 19979:0.063679852 19997:0.052338243 20212:0.052338243 20236:0.030711032 20359:0.052338243 20366:0.043181539 20443:0.043181539 20601:0.40128273 20801:0.040996633 20882:0.028663052 20902:0.048687059 21161:0.071571879 21261:0.048687059 21348:0.063679852 21426:0.063679852 21547:0.018832898 21732:0.026843125 21735:0.052338243 21890:0.14344084 22111:0.043181539 22115:0.10467649 22126:0.031003026 #
-1.0000000033588491987757151946425 1785:0.34708342 2104:0.40890023 2213:0.1872893 6613:0.31092292 8129:0.17354171 9289:0.22344981 9326:0.40890023 10601:0.40890023 13298:0.16738874 15298:0.15112878 17964:0.20354925 18010:0.24910611 21246:0.10859536 #
-0.84213363620705528056475941411918 345:0.049226679 393:0.090081975 818:0.090081975 1037:0.076463543 1085:0.06849727 1239:0.035128295 1259:0.023923893 1418:0.090081975 1525:0.062845111 1676:0.076463543 1785:0.076463543 1908:-0.0023350129 1968:0.062845111 2009:0.04397963 2395:0.15292709 2416:0.090081975 2673:0.026839936 2726:0.090081975 3142:0.10114592 3180:0.090081975 3184:0.054878838 3506:0.090081975 3556:0.02325782 3889:-0.1305103 4433:0.062845111 4702:0.06849727 4812:0.10370041 5058:0.19690672 5079:0.090081975 5090:0.051850203 5166:0.090081975 5231:0.076457739 5352:0.062845111 5436:0.030265499 5819:0.031224091 6040:0.090081975 6294:0.054878838 6543:0.13699454 6544:0.076463543 6687:0.090081975 6890:0.021989815 7791:0.090081975 7917:0.049226679 8152:0.076463543 8369:0.070117719 8465:0.090081975 8481:0.25138044 8501:0.15292709 8518:-0.085802369 8961:0.090081975 8972:0.038231771 9173:0.17187977 9340:0.076463543 9556:0.062845111 9661:0.089685045 9887:0.090081975 10104:0.035608247 10149:0.11692191 10472:0.018613432 10486:0.058460955 10624:0.027641976 10996:0.19690672 11054:0.046912566 11310:0.090081975 11580:0.06849727 11654:0.062845111 11734:0.058460955 11852:0.062448181 11900:0.076463543 12334:0.076463543 12341:0.012832437 12470:0.15292709 12517:0.076463543 13136:0.12569022 13298:0.03687625 13653:0.15292709 13901:0.0737525 13950:0.058460955 14249:0.04651564 14438:0.066588268 14688:0.090081975 14707:0.090081975 14916:-0.021859106 14921:0.03687625 15350:0.090081975 15402:0.034417141 15651:0.076463543 15754:0.090081975 15774:0.090081975 16370:0.076463543 16597:0.12569022 16691:0.011709432 16859:0.060530998 16867:0.058460955 16998:0.06849727 17036:0.13699454 17141:0.076463543 17344:0.090081975 17530:0.020610919 17693:0.076463543 17913:0.042969942 18422:0.06849727 18485:0.090081975 18487:0.090081975 18895:0.076463543 19089:0.32927305 19248:0.038231771 19310:0.06849727 19685:0.051850203 19695:0.15292709 19753:0.050655726 19979:0.076463543 20443:0.051850203 20488:0.15292709 20601:0.034417141 21248:0.090081975 21583:0.06849727 21600:0.090081975 21623:0.024613339 21890:0.01913739 #
-0.8483330443925274355621013455675 1020:0.19066986 1756:0.29616648 2386:0.16643561 2486:0.2653107 3889:-0.1011012 4433:0.24341817 4616:0.22643702 4758:0.15372284 4791:0.11030453 4914:0.018352369 9903:0.3489148 11293:0.087589294 12129:0.2653107 13972:0.19066986 14212:0.29616648 16246:0.29616648 18644:0.19066986 19328:0.22643702 20864:0.3489148 #
-0.58395063188455353930805813433835 6:0.036478441 10:0.030716443 115:0.02077486 135:0.036478441 227:0.056209311 312:0.019483196 673:0.029272484 698:0.056209311 706:0.0427409 792:0.034243274 849:0.0427409 862:0.056209311 914:0.036629487 931:0.056209311 962:0.072956882 964:0.056209311 1204:0.056209311 1211:0.021475593 1255:0.061432887 1259:0.059712078 1336:0.047711689 1356:0.031162292 1557:0.056209311 1611:0.061432887 1725:0.039214067 1746:0.039214067 1828:0.0427409 1906:0.034243274 1929:0.0427409 1973:0.077236958 2024:0.047711689 2126:0.051491305 2199:0.032353468 2213:0.025745653 2216:0.036478441 2240:0.026812365 2246:0.069030084 2291:0.034243274 2342:0.039214067 2386:0.053624731 2411:0.039214067 2724:0.072956882 2864:0.036478441 2866:0.12822269 3031:0.056209311 3061:0.032353468 3142:0.012622598 3144:0.095423378 3203:0.023010029 3219:0.027980819 3226:0.0427409 3244:0.068486549 3346:0.056209311 3399:0.010098958 3455:0.047711689 3666:0.034243274 3820:0.047711689 3889:-0.11401007 4588:0.083942458 4662:0.044437639 4702:0.0427409 4775:0.026812365 4829:0.01492802 4837:0.056209311 4882:0.015358222 5003:0.056209311 5210:0.058544967 5292:0.056209311 5338:0.056209311 5343:0.027980819 5501:0.023855845 5677:0.034243274 5779:0.047711689 5819:0.019483196 5827:0.061432887 5866:0.0854818 5968:0.021475593 6139:0.056209311 6196:0.047711689 6223:0.039214067 6250:0.068486549 6287:0.02902481 6371:0.036478441 6376:0.036478441 6423:0.072956882 6567:0.047711689 6632:0.056209311 6648:0.047711689 6750:0.034243274 6836:0.015358222 6866:0.0427409 6890:0.04116359 6965:0.056209311 7157:0.034243274 7180:0.039214067 7235:0.056209311 7296:0.056209311 7363:0.036478441 7410:0.021475593 7608:0.047711689 7664:0.0427409 7716:0.015804069 7837:0.056209311 7882:0.056209311 7887:0.047711689 7892:0.056209311 7924:0.056209311 7927:0.056209311 8129:0.047711689 8195:0.039214067 8218:0.023010029 8358:0.056209311 8382:0.12822269 8454:0.056209311 8518:-0.013384731 8564:0.027442392 8638:0.026812365 8642:0.056209311 8851:0.0427409 8914:-0.02301391 8933:0.072956882 8957:0.056209311 9107:0.078428134 9124:0.032353468 9173:0.026812365 9365:0.032353468 9380:0.047711689 9569:0.034243274 9673:0.03893391 9728:0.056209311 9760:0.072956882 9783:0.083942458 9933:0.078428134 10091:0.047711689 10344:0.02476437 10390:0.046020057 10407:0.026812365 10415:0.056209311 10515:0.061432887 10540:0.061432887 10709:-0.015507486 10779:0.029272484 10857:0.025745653 10884:0.056209311 10996:0.030716443 11016:0.029272484 11081:0.056209311 11293:0.2257667 11359:0.039214067 11658:0.039214067 11784:0.056209311 11951:0.02476437 11983:0.014110419 12147:0.0427409 12385:0.030716443 12391:0.0427409 12575:0.056209311 12614:0.056209311 12662:0.034243274 12722:0.079071686 12847:0.056209311 12940:0.095423378 13189:0.039214067 13261:0.034243274 13284:0.056209311 13510:0.12822269 13793:0.032533493 13876:0.039214067 13884:0.056209311 13901:0.023010029 14026:0.056209311 14050:0.056209311 14068:0.021475593 14147:0.072956882 14297:0.056209311 14685:0.036478441 14753:0.095423378 14893:0.034243274 14916:-0.0090930909 14930:0.039214067 15298:0.02077486 15319:0.029272484 15328:0.034243274 15354:0.02077486 15355:0.036478441 15445:0.056209311 15456:0.056209311 15483:0.056209311 15515:0.061432887 15531:0.056209311 15620:0.032353468 15730:0.068486549 15800:0.053624731 15873:0.056209311 16176:0.032353468 16478:0.030716443 16608:0.056209311 16757:0.072956882 16764:0.030716443 16859:0.037770107 16875:0.04154972 16904:0.03683171 16930:0.021475593 16949:0.056209311 17094:0.047711689 17165:0.056209311 17183:0.036478441 17227:0.12822269 17273:0.056209311 17324:0.034243274 17331:0.058544967 17345:0.035539575 17376:0.056209311 17415:0.047711689 17526:0.056209311 17709:0.040224049 17723:0.072956882 17893:0.02476437 17895:0.056209311 17910:0.02221882 18003:0.35550112 18067:0.018314743 18079:0.056209311 18206:0.038966391 18233:0.056209311 18312:0.0427409 18373:0.056209311 18400:0.14591376 18523:0.056209311 18552:0.056209311 18683:0.056209311 18837:0.056209311 18912:0.044437639 18934:0.034243274 19012:0.18768656 19039:0.072956882 19248:0.023855845 19331:0.0427409 19362:0.25745651 19398:0.01492802 19498:0.056209311 19548:0.078428134 19725:0.056209311 19753:0.015804069 19836:0.032353468 19940:0.030716443 19953:0.02476437 19965:0.095423378 20013:0.036478441 20057:0.034243274 20072:0.039214067 20089:0.095423378 20309:0.020112025 20330:0.095423378 20384:0.0427409 20526:0.0427409 20644:0.036478441 20759:0.056209311 20775:0.036478441 21048:0.056209311 21311:0.032353468 21346:0.056209311 21496:0.056209311 21522:0.047711689 21547:0.028220838 21687:0.056209311 21706:0.056209311 21729:0.061432887 21732:0.020112025 21870:0.0026421584 21946:0.056209311 22026:0.056209311 22032:0.056209311 22126:0.023228804 #
-0.57074147609417258397712657824741 87:0.069664173 150:0.036065456 159:0.041012701 281:0.051204525 312:0.037207749 638:0.049167383 832:0.061786566 914:0.034976315 929:0.091116704 1211:0.041012701 1259:0.14254285 1311:0.18223341 1356:0.039674487 1611:0.05866028 1726:0.045558352 1921:0.14977698 2126:0.049167383 2407:0.091116704 2660:0.055902701 2675:0.13079119 2973:0.081623808 3148:0.10734492 3184:0.065395594 3196:0.091116704 3457:0.10734492 3666:0.065395594 3762:0.10734492 3831:-0.015631426 3870:0.065395594 3889:-0.24883324 3940:0.02850857 3976:0.091116704 4882:0.02933014 5090:0.061786566 5210:0.055902701 5231:0.054665875 5934:0.10778867 5968:0.041012701 6218:0.10734492 6252:0.038408648 6429:0.10734492 6623:0.14463493 6815:0.039674487 6836:0.02933014 6924:0.081623808 6949:0.091116704 6952:0.10734492 7126:0.041012701 7410:0.041012701 7691:0.051204525 8009:0.081623808 8045:-0.0035406742 8202:0.016710959 8229:0.10734492 8340:0.10734492 8518:-0.051122595 8564:0.026203854 8914:-0.02197524 9354:0.069664173 9506:0.18223341 9574:0.081623808 9673:0.024784489 10027:0.01928634 10104:0.042432066 10225:0.018221958 10390:0.043943066 10407:0.051204525 10472:0.044360869 10709:-0.014807598 10766:0.14977698 10857:0.049167383 11054:0.1118054 11317:0.069664173 11589:0.020401426 11766:0.091116704 11983:0.026947167 12341:0.015291593 12385:0.05866028 12501:0.10734492 12641:0.13079119 12722:0.064716861 12829:0.16324762 12840:0.069664173 13192:0.026947167 13412:0.24714626 13731:0.24487142 13972:0.05866028 14068:0.041012701 14381:0.14977698 14529:0.055902701 14718:0.061786566 14916:-0.026048096 14921:0.043943066 15248:0.10687193 15277:0.091116704 15293:0.047293395 15354:0.039674487 15356:0.065395594 15515:0.05866028 15595:0.091116704 15800:0.051204525 16299:0.14977698 16478:0.02933014 16774:0.14977698 16859:0.036065456 16871:0.013101927 16975:0.081623808 17345:0.067871183 17451:0.047293395 17530:0.012280357 17549:0.14977698 17876:0.10734492 17910:0.042432066 18748:0.031983431 18947:0.10734492 19067:0.05866028 19398:0.02850857 19607:0.10734492 19940:0.05866028 19953:0.09458679 20111:0.032939173 20309:0.038408648 20366:0.061786566 20451:0.091116704 21077:0.18223341 21216:0.091116704 21261:0.069664173 21547:0.053894334 21707:0.069664173 21732:0.038408648 22126:0.044360869 #
0.54496532057995172859676813459373 10:0.028178899 61:0.033464886 88:0.043770134 108:0.09087415 110:0.043770134 150:0.034649845 176:0.043770134 200:0.019701453 380:0.033464886 511:0.080562681 536:0.035747301 541:0.026854228 620:0.033464886 832:0.089042053 864:0.029680686 880:0.043770134 894:0.033464886 1124:0.026854228 1208:0.043770134 1239:0.02010854 1297:0.13385954 1356:0.0095293047 1449:0.094243117 1596:0.039209992 1657:0.11359268 1726:0.021885067 1771:0.071949035 1797:0.051565751 1828:0.039209992 1906:0.031414371 1908:-0.0040099043 2009:0.050350647 2023:0.043770134 2150:0.043770134 2197:0.021109125 2232:0.051565751 2340:0.051565751 2701:0.051565751 2781:0.051565751 2787:0.084436499 2895:0.070856258 2902:0.066929772 2920:0.11359268 2929:0.033464886 2954:0.043770134 2955:0.051565751 3061:0.029680686 3203:0.042218249 3306:0.051565751 3461:0.10039467 3472:0.026854228 3521:0.039209992 3524:0.043770134 3556:0.039940521 3596:0.043770134 3608:0.033464886 3644:0.062828742 3663:0.028178899 3784:0.070856258 3793:0.051565751 3831:-0.0030035749 3840:0.039209992 3870:0.031414371 3882:0.043770134 3889:-0.10459148 3940:0.027389575 4040:0.051565751 4084:0.071949035 4168:0.043770134 4225:0.056357797 4283:0.063327372 4374:0.028178899 4482:0.043770134 4507:0.071494602 4554:0.043770134 4620:0.043770134 4663:0.043770134 4753:0.043770134 4787:0.025669269 4813:0.039209992 4829:0.05477915 4882:0.014089449 5064:0.051565751 5169:0.040137585 5183:0.051565751 5260:0.043770134 5351:0.039209992 5372:0.051565751 5438:0.035974517 5440:0.014922919 5505:0.031414371 5587:0.043770134 5588:0.035747301 5622:0.039209992 5707:0.029680686 5749:0.038117219 5785:0.033464886 5819:0.053620953 5905:0.043770134 5951:0.039209992 6024:0.062828742 6034:0.043770134 6104:0.043770134 6201:0.062828742 6249:0.083340839 6262:0.071949035 6301:0.039209992 6373:0.081058741 6548:0.029680686 6577:0.051565751 6587:0.026854228 6622:0.025669269 6627:0.051565751 6685:0.051338539 6890:0.012587662 6995:0.062828742 7016:0.031414371 7073:0.029845838 7129:0.071949035 7134:0.10039467 7362:0.051565751 7416:0.043770134 7466:0.035974517 7507:0.051338539 7630:0.026854228 7662:0.13441381 7664:0.039209992 7816:0.039209992 7940:0.033464886 8012:0.031414371 8029:0.10039467 8045:-0.0068033971 8168:0.051565751 8202:0.0080275172 8214:0.043770134 8218:0.042218249 8297:0.066929772 8303:0.065655202 8337:0.051565751 8338:0.051565751 8369:0.016055034 8432:0.043770134 8469:0.039209992 8497:0.028178899 8518:-0.30697483 8638:0.024597345 8646:0.051565751 8744:0.039209992 8872:0.039209992 8914:-0.0035187812 8915:0.16001877 8918:0.051565751 8956:0.031414371 8972:0.043770134 9015:0.043770134 9022:0.021885067 9092:0.09087415 9233:0.062828742 9397:0.043770134 9411:0.059361372 9450:0.043770134 9451:0.065207161 9519:0.015823135 9620:0.051565751 9729:0.035974517 9765:0.059361372 9938:0.026854228 10027:0.0092646638 10076:0.039209992 10126:0.028178899 10344:0.045437075 10358:0.043770134 10384:0.043770134 10472:0.021309827 10625:0.025669269 10657:0.043770134 10709:-0.0023710637 10727:0.031414371 10729:0.016801726 10800:0.043770134 10872:0.035974517 10896:0.047237508 10906:0.043770134 10949:0.062828742 11022:0.066929772 11106:0.051565751 11217:0.043770134 11391:0.051565751 11499:0.02381167 11544:0.043770134 11564:0.068473935 11589:0.029400967 11594:0.028178899 11790:0.033464886 11935:0.066929772 11955:0.033464886 11983:0.02588946 12021:0.043770134 12063:0.071949035 12112:0.051565751 12178:0.029680686 12248:0.031414371 12292:0.043770134 12521:0.029680686 12562:0.043770134 12741:0.056357797 12787:0.035974517 12897:0.039209992 12916:0.051565751 12958:0.035974517 13004:0.051565751 13070:0.035974517 13140:0.053708456 13258:0.032603581 13275:0.051565751 13312:0.026854228 13330:0.043770134 13491:0.051565751 13498:0.043770134 13543:0.039209992 13568:0.043770134 13710:0.043770134 13743:0.043770134 13748:0.033464886 13793:0.014922919 13856:0.039209992 13901:0.021109125 13941:0.043770134 13947:0.035974517 13972:0.028178899 14100:0.043770134 14184:0.066929772 14227:0.087540269 14240:0.087540269 14264:0.043770134 14357:0.087540269 14487:0.031414371 14527:0.025669269 14588:0.033464886 14674:0.039209992 14677:0.043770134 14758:0.051565751 14807:0.094243117 14832:0.035974517 14916:-0.012512839 14921:0.021109125 15049:0.029680686 15087:0.028178899 15298:0.038117219 15383:0.065655202 15397:0.01787365 15402:0.078805812 15648:0.031414371 15880:0.021885067 15904:0.01787365 15928:0.033464886 15977:0.043770134 16110:0.031414371 16126:0.035974517 16165:0.043770134 16254:0.039209992 16332:0.029680686 16502:0.043770134 16517:0.062828742 16635:0.051565751 16636:0.051565751 16650:0.043770134 16787:0.033464886 16811:0.043770134 16818:0.051565751 16852:0.043770134 16904:0.056314956 16905:0.051565751 17099:0.026854228 17111:0.18436827 17302:0.024597345 17311:0.051565751 17326:0.051565751 17442:0.043770134 17476:0.033464886 17503:0.043770134 17530:0.005899169 17733:0.073792033 17793:0.071949035 17836:0.066929772 17853:0.10792354 17854:0.043770134 17913:0.04919469 17926:0.035974517 18154:0.043770134 18263:0.02038328 18350:0.051565751 18381:0.043770134 18424:0.066929772 18541:0.051565751 18609:0.043770134 18657:0.051565751 18667:0.051565751 18684:0.080562681 18758:0.029680686 18799:0.035974517 18861:0.051565751 18897:0.043770134 18917:0.059361372 19067:0.028178899 19073:0.024597345 19091:0.043770134 19160:0.022718538 19310:0.039209992 19338:0.039209992 19409:0.087540269 19480:0.043770134 19753:0.014498465 19879:0.11762997 20080:0.043770134 20103:0.033464886 20111:0.063292541 20141:0.04076656 20304:0.043770134 20377:0.051565751 20539:0.019058609 20663:0.021885067 20773:0.10039467 20882:0.019701453 20885:0.043770134 20901:0.051565751 20970:0.043770134 21013:0.035974517 21069:0.047237508 21145:0.043770134 21191:0.039209992 21195:0.043770134 21246:0.013694787 21415:0.043770134 21429:0.051565751 21537:0.087540269 21547:0.01294473 21650:0.051565751 21666:0.043770134 21707:0.033464886 21735:0.035974517 21767:0.033464886 21795:0.078805812 21821:0.028178899 21870:0.014543307 21907:0.039209992 21916:0.033464886 21980:0.031414371 22007:0.043770134 22126:0.021309827 #
0.9930760561575708855741595471045 2349:0.24807557 2821:0.24807557 3883:0.20558825 3889:-0.12488444 4791:0.13625278 5141:0.36583728 5169:0.067095175 5633:0.27970448 6097:0.24807557 6587:0.44890323 11564:0.11446306 17139:0.43099421 20141:0.17036648 21138:0.27970448 21246:0.11446306 21870:0.040518373 #
0.95231708285501903699099557343288 10:0.022938007 88:0.035629489 108:0.036986399 110:0.035629489 129:0.041975226 150:0.04230817 176:0.035629489 200:0.032074504 288:0.020895137 312:0.014549396 351:0.027240876 380:0.054481752 511:0.021859707 516:0.063834935 553:0.029283747 601:0.031917468 832:0.024160484 839:0.041975226 873:0.029283747 880:0.035629489 942:0.041975226 1075:0.041975226 1124:0.021859707 1208:0.035629489 1299:0.041975226 1449:0.076715186 1657:0.092465997 1726:0.035629489 1828:0.031917468 1906:0.025571728 2009:0.051232643 2023:0.035629489 2150:0.035629489 2197:0.051549349 2199:0.048320968 2240:0.020022575 2290:0.041975226 2336:0.035629489 2355:0.024160484 2364:0.031917468 2375:0.041975226 2584:0.035629489 2673:0.037519574 2787:0.08591558 2811:0.041975226 3167:0.020022575 3236:0.031917468 3300:0.041975226 3324:0.041975226 3358:0.041975226 3521:0.031917468 3524:0.035629489 3556:0.054186881 3596:0.035629489 3612:0.022938007 3644:0.051143456 3784:0.057677966 3831:-0.0024449511 3870:0.025571728 3882:0.035629489 3883:0.04004515 3889:-0.17027779 4084:0.058567494 4168:0.053444233 4225:0.045876015 4236:0.035629489 4283:0.017183116 4410:0.041975226 4426:0.027240876 4482:0.035629489 4554:0.035629489 4620:0.035629489 4709:0.041975226 4753:0.035629489 4791:0.01326988 4812:0.024160484 4813:0.031917468 4829:0.011147744 4936:0.031917468 5067:0.031917468 5169:0.045741562 5219:0.027504686 5260:0.035629489 5304:0.035629489 5313:0.041975226 5438:0.029283747 5440:0.03644238 5587:0.035629489 5609:0.04004515 5622:0.031917468 5707:0.072481453 5749:0.031027937 5819:0.029098792 5827:0.045876015 5852:0.035629489 5882:0.027240876 5905:0.035629489 5962:0.068732463 6024:0.051143456 6034:0.035629489 6176:0.043719415 6201:0.025571728 6249:0.048457559 6252:0.015018985 6262:0.058567494 6287:0.010837376 6371:0.027240876 6373:0.056556791 6622:0.062685408 6694:0.035629489 6705:0.058567494 6707:0.035629489 6815:0.015513969 6839:0.022938007 6890:0.010246528 6995:0.10228691 7008:0.041975226 7015:0.063834935 7016:0.10228691 7073:0.03644238 7082:0.041975226 7114:0.041975226 7129:0.058567494 7157:0.025571728 7363:0.027240876 7416:0.035629489 7507:0.062685408 7630:0.043719415 7650:0.035629489 7662:0.027353669 7664:0.031917468 7691:0.020022575 7816:0.031917468 7917:0.022938007 7940:0.027240876 8012:0.025571728 8029:0.054481752 8045:-0.0096916016 8053:0.015513969 8146:0.041975226 8214:0.035629489 8218:0.034366231 8260:0.041975226 8297:0.081722625 8362:0.072481453 8369:0.013069017 8432:0.035629489 8433:0.12080242 8469:0.031917468 8518:-0.41980127 8539:0.041975226 8564:0.0051232642 8597:0.041975226 8775:0.027240876 8914:-0.0028643359 8915:0.12127419 8956:0.025571728 9005:0.041975226 9009:0.035629489 9022:0.017814744 9092:0.036986399 9233:0.025571728 9397:0.035629489 9400:0.041975226 9450:0.035629489 9451:0.01326988 9648:0.035629489 9673:0.0096915122 9729:0.087851241 9820:0.035629489 9852:0.020895137 9938:0.087438829 9951:0.035629489 10000:0.041975226 10027:0.0075415634 10076:0.063834935 10384:0.035629489 10472:0.0086732451 10625:0.083580546 10657:0.035629489 10709:-0.0019300783 10722:0.041975226 10747:0.041975226 10780:0.063834935 10800:0.035629489 10906:0.035629489 10929:0.041975226 10949:0.10228691 11022:0.081722625 11189:0.031917468 11217:0.035629489 11317:0.027240876 11473:0.096223511 11499:0.058149073 11544:0.035629489 11564:0.033443231 11589:0.023932789 11935:0.081722625 11955:0.027240876 12021:0.035629489 12063:0.058567494 12248:0.076715186 12281:0.041975226 12292:0.035629489 12598:0.041975226 12664:0.015018985 12741:0.068814024 12787:0.029283747 12897:0.031917468 12920:0.071258977 12977:0.041975226 13070:0.029283747 13085:0.041975226 13093:0.045876015 13140:0.043719415 13146:0.029283747 13192:0.010537187 13258:0.01326988 13330:0.035629489 13498:0.035629489 13501:0.020022575 13568:0.035629489 13743:0.035629489 13941:0.035629489 13947:0.029283747 13972:0.022938007 14100:0.035629489 14184:0.054481752 14226:0.041975226 14240:0.10688847 14264:0.035629489 14338:0.025571728 14634:0.055479597 14674:0.031917468 14677:0.035629489 14807:0.076715186 14832:0.029283747 14860:0.041975226 14921:0.017183116 14929:0.041975226 15088:0.041975226 15293:0.036986399 15298:0.062055875 15402:0.096223511 15648:0.025571728 15739:0.041975226 15848:0.058567494 15880:0.017814744 15928:0.081722625 15977:0.035629489 16126:0.058567494 16165:0.035629489 16197:0.041975226 16254:0.031917468 16283:0.045876015 16320:0.041975226 16477:0.029283747 16502:0.035629489 16517:0.051143456 16650:0.035629489 16686:0.13620438 16699:0.063834935 16711:0.035629489 16764:0.022938007 16811:0.035629489 16852:0.035629489 16871:0.015369792 16904:0.11001875 16920:0.068814024 17001:0.041975226 17077:0.041975226 17111:0.16258481 17215:0.031917468 17302:0.04004515 17331:0.021859707 17356:0.041975226 17442:0.035629489 17451:0.073972799 17503:0.035629489 17579:0.063834935 17733:0.080090299 17793:0.058567494 17833:0.041975226 17836:0.027240876 17854:0.035629489 17865:0.031917468 17893:0.0184932 17934:0.035629489 18067:0.027353669 18154:0.035629489 18206:0.10184577 18263:0.18251495 18304:0.063834935 18326:0.076715186 18381:0.035629489 18424:0.054481752 18518:0.041975226 18609:0.035629489 18626:0.041975226 18684:0.065579124 18703:0.041975226 18758:0.024160484 18799:0.058567494 18816:0.035629489 18826:0.020022575 18830:0.016037252 18884:0.035629489 18897:0.035629489 18917:0.024160484 18934:0.025571728 19073:0.020022575 19091:0.035629489 19160:0.0184932 19194:0.041975226 19248:0.017814744 19335:0.041975226 19338:0.063834935 19733:0.033184536 19753:0.011801949 19857:0.041975226 19896:0.01326988 19931:0.081722625 20013:0.027240876 20057:0.025571728 20080:0.035629489 20085:0.035629489 20103:0.027240876 20111:0.051520992 20212:0.029283747 20304:0.035629489 20366:0.024160484 20403:0.020895137 20443:0.024160484 20588:0.027240876 20628:0.071258977 20667:0.041975226 20885:0.035629489 20886:0.041975226 20967:0.031027937 20970:0.035629489 21069:0.076903954 21138:0.054481752 21195:0.035629489 21415:0.035629489 21547:0.010537187 21666:0.035629489 21707:0.027240876 21735:0.029283747 21752:0.024160484 21795:0.12829801 21816:0.041975226 21870:0.0059192255 21907:0.063834935 21980:0.025571728 22007:0.035629489 22029:0.071258977 22126:0.01734649 #
0.78782983899924208248677359733847 5219:0.13369672 8518:-0.29151425 8757:-0.0092107784 10027:0.1099757 14452:0.51957101 14916:-0.099021986 16867:0.39724314 17380:0.61210847 18291:0.26967916 #
0.88947585371998305614482660530484 8305:0.6868785 8369:0.10693006 9912:0.6868785 10027:0.1234094 11293:0.17242949 #
-0.75541395499754060427477497796644 509:0.33838904 2926:0.51461405 3889:-0.19610253 6373:0.075990051 6622:0.168449 7073:0.097928412 8045:-0.011161454 8518:-0.080578223 9963:0.16141473 10046:0.33838904 10126:0.1849179 10272:0.33838904 10729:0.11025768 11564:0.089869067 16787:0.21960606 16904:0.073910929 18758:0.19477305 21348:0.28723198 21767:0.21960606 #
-0.67587057263484606739467608349514 10:0.063486338 202:0.088339105 380:0.075395532 516:0.088339105 522:0.13373965 967:0.11617631 1132:0.16209933 1666:0.075395532 2424:0.098612994 2627:0.081049666 2691:0.11617631 2970:0.098612994 3167:0.055417188 3385:0.13373965 3489:0.085079037 3556:0.029994989 3831:-0.0033834886 3889:-0.20197879 4168:0.098612994 4433:0.081049666 4882:0.063486338 4914:0.012221382 5051:0.17667821 5058:0.063486338 5090:0.066869825 5343:0.057832208 5436:0.039032608 5498:0.098612994 5749:0.042938557 5850:0.081049666 5957:0.17667821 6560:0.098612994 6562:0.15079106 7134:0.075395532 7142:0.075395532 7175:0.047558319 7337:0.037853859 7352:0.047558319 8045:-0.0076639396 8108:0.19722599 8202:0.018085791 8518:-0.055328511 8564:0.028359678 8910:0.11617631 8914:-0.0079277232 9060:0.060501885 9219:0.11617631 9852:0.057832208 10225:0.039442204 10486:0.075395532 10534:0.11617631 10624:0.035649117 10709:-0.0053419457 11480:0.19722599 11781:0.11617631 12604:0.066869825 12840:0.075395532 13212:0.11617631 13595:0.11617631 13605:0.044386867 14363:0.098612994 14431:0.11617631 14529:0.060501885 14551:0.066869825 14718:0.066869825 14916:-0.0093970355 15082:0.075395532 15271:0.11617631 15293:0.051184282 15356:0.070775777 15802:0.11617631 16184:0.11617631 16316:0.088339105 16719:0.088339105 16904:0.02537523 16920:0.063486338 17025:0.11617631 17202:0.098612994 17250:0.11617631 17530:0.026581354 17811:0.081049666 17910:0.045923006 17934:0.098612994 18130:0.11617631 18300:0.15079106 18665:0.057832208 18963:0.030202683 19375:0.088339105 19432:0.057832208 19437:0.32419866 19612:0.035649117 19753:0.032664672 19920:0.098612994 20213:0.088339105 20236:0.095116638 20441:0.11617631 20539:0.17175423 20801:0.063486338 20967:0.042938557 21025:0.11617631 21086:0.098612994 21141:0.057832208 21547:0.029164143 21826:0.11617631 21916:0.075395532 #
-0.6670601030423113364520304457983 107:0.17039074 1553:0.47620994 3889:-0.27597222 5630:0.40421736 8369:0.074134156 10588:0.52046448 14916:-0.038518708 17881:0.47620994 #
-0.49767862510676547094234933865664 107:0.046001036 117:0.049119845 312:0.044562753 536:0.044562753 620:0.083434969 749:0.12856421 770:0.12856421 914:0.041890219 1137:0.12856421 1211:0.049119845 1239:0.0334232 1356:0.023758551 1465:0.054564051 1569:0.061326329 1908:-0.0016662551 1929:0.09775871 2179:0.21825621 2197:0.052629467 2400:0.12856421 3142:0.086612746 3302:0.1091281 3399:0.023098746 3556:0.066386715 3831:-0.0074885408 3889:-0.14901054 4036:0.12856421 4511:0.12856421 4588:0.063998863 4649:0.1091281 4914:0.0067622745 5218:0.052629467 5301:0.12856421 5954:0.074000157 5968:0.049119845 6258:0.1091281 6276:0.12856421 6280:0.12856421 6287:0.066386715 6836:0.035127945 6976:0.12856421 7038:0.12856421 7410:0.049119845 7515:0.12856421 7716:0.036147706 7777:0.12856421 7899:0.12856421 7998:0.043194659 8008:0.12856421 8564:0.031383675 8864:0.074000157 8914:-0.026319172 9269:0.09775871 9445:0.09775871 9673:0.029683737 10091:0.1091281 10472:0.026564928 10626:0.07025589 10709:-0.017734675 11093:0.12856421 11293:0.032273918 11499:0.029683737 11852:0.044562753 12677:0.12856421 12722:0.025836566 13015:0.12856421 13062:0.09823969 13427:0.12856421 13655:0.061326329 13705:0.12856421 13721:0.1091281 13901:0.052629467 14068:0.049119845 14192:0.12856421 14251:0.12856421 14716:0.12856421 14952:0.12856421 15115:0.066953212 15296:0.066953212 15298:0.047517102 15354:0.047517102 15361:0.12856421 15423:0.066953212 15904:0.044562753 16399:0.12856421 16478:0.035127945 16998:0.09775871 17024:0.12856421 17181:0.09775871 17530:0.014707863 17709:0.046001036 17738:0.12799773 17987:0.12856421 18112:0.12856421 18394:0.12856421 18890:0.09775871 19022:0.1091281 19030:0.16686994 19105:0.074000157 19176:0.12856421 19398:0.068287939 19562:0.12856421 19589:0.09823969 19723:0.12856421 20094:0.12856421 20309:0.046001036 20490:0.12856421 20882:0.049119845 21623:0.07025589 21732:0.046001036 22126:0.026564928 22157:0.12856421 #
-0.45781667129193182042001808440546 112:0.080070794 117:0.040232375 125:0.068338715 200:0.080464751 212:0.10530253 620:0.068338715 707:0.10530253 1239:0.068439484 1253:0.089383081 1255:0.057544183 1817:0.089383081 1914:0.14692725 2009:0.025705287 2455:0.064151347 2660:0.054839071 2671:0.096463807 2673:0.031374902 2967:0.080070794 3010:0.052419264 3143:0.080070794 3889:-0.24409883 3940:0.055932306 4206:0.060610987 4636:0.080070794 4660:0.16014159 5016:0.10530253 5231:0.017875258 5397:0.13667743 5508:0.10530253 5630:0.089383081 5709:0.073463626 5749:0.038919624 5983:0.10530253 6039:0.080070794 6080:0.04469154 6552:0.10530253 6750:0.064151347 6815:0.038919624 6850:0.10530253 7126:0.040232375 7175:0.12932095 7196:0.17876616 7334:0.089383081 7337:0.034310836 7352:0.086213969 7566:0.054839071 7715:0.060610987 7737:0.14692725 7917:0.057544183 8045:-0.0069466154 8202:0.016393008 8290:0.073463626 8518:-0.075224869 8564:0.012852644 8872:0.080070794 9365:0.060610987 9434:0.10530253 9517:0.080070794 9661:0.052419264 9662:0.089383081 9678:0.25115141 9874:0.10530253 10061:0.089383081 10225:0.035750516 10472:0.021758419 10588:0.11508837 10625:0.052419264 11261:0.089383081 11499:0.024312928 11580:0.080070794 11852:0.14599927 12310:0.089383081 12341:0.030001298 12383:0.073463626 13136:0.073463626 13490:0.057544183 13605:0.040232375 13620:0.10530253 13901:0.043106984 14249:0.027187539 14346:0.089383081 14527:0.10483853 14916:-0.11924497 15083:0.20501614 15296:0.10967814 15687:0.10530253 15918:0.20092113 16003:0.080070794 16316:0.080070794 16619:0.10530253 16859:0.070758514 16873:0.10530253 17141:0.089383081 17197:0.073463626 17451:0.04639357 17530:0.02409341 17565:0.10530253 17964:0.052419264 18540:0.10530253 18872:0.10530253 18881:0.024312928 18963:0.013687897 19016:0.16014159 19328:0.068338715 19354:0.10530253 19375:0.080070794 20058:0.10530253 20212:0.073463626 20213:0.16014159 20552:0.10530253 20967:0.038919624 21049:0.057544183 21364:0.038919624 21651:0.10530253 #
0.84114098152637151173394158831798 863:0.38724539 3061:0.22289422 3203:0.15852404 3386:0.29445681 3556:0.099980973 4791:0.1224222 7691:0.18471965 8757:-0.0058271233 9451:0.1224222 11757:0.29445681 13543:0.29445681 15242:0.3287023 16691:0.050336633 18644:0.42323238 19649:0.38724539 21870:0.036405485 #
0.75128435312374119980916020722361 107:0.28155738 8757:-0.011840971 9272:0.54897553 20121:0.78689969 #
0.69283316782775761222268329220242 18826:0.38584453 21529:0.80888259 21821:0.44202632 21870:0.038022097 #
0.63909235169401223952689861107501 1284:0.19191538 2976:0.31502336 4283:0.12895899 4462:0.31502336 5440:0.091166474 6890:0.07690002 7671:0.31502336 8518:-0.15002863 10027:0.0565993 10966:0.31502336 11465:0.15681763 12266:0.23954004 12341:0.044875983 13393:0.058216032 14338:0.19191538 14916:-0.025480971 14993:0.23954004 15157:0.25791797 16306:0.13879114 16370:0.26739869 18302:0.31502336 18511:0.15026908 20359:0.21977402 #
0.63936970851204788512944787726155 107:0.056012977 146:0.071702905 288:0.077927954 988:0.13287941 1224:0.10159425 3384:0.1190355 3489:0.038214207 3616:0.26575881 3889:-0.045360524 4283:0.12816812 5219:0.034192711 6373:0.07030911 6523:0.081525303 7142:0.10159425 7590:0.13287941 7801:0.071702905 8000:0.1565457 8518:-0.074554272 8757:-0.023556409 9233:0.095369205 9451:0.098979458 9519:0.09607321 9830:0.13287941 10058:0.10159425 12341:0.044600774 12905:0.085546799 13093:0.085546799 13374:0.1565457 13393:0.057859007 14916:-0.037987057 15397:0.054261658 15773:0.095369205 15963:0.73372775 16691:0.020348812 16875:0.057859007 17345:0.049489729 18863:0.1565457 18917:0.090105996 19658:0.095369205 19733:0.18564151 20663:0.13287941 21069:0.071702905 21183:0.13287941 21870:0.0073585408 21890:0.03325722 #
-0.46927985167092362006613370795094 117:0.15320635 125:0.13011815 1049:0.13011815 1082:0.12214533 1465:0.085093498 2641:0.079254247 2860:0.20049791 2929:0.26023629 3073:0.13011815 3219:0.099807233 3399:0.036022861 3878:0.13987608 3889:-0.11619215 4223:0.071739338 4882:0.10956517 5169:0.031212585 5218:0.24622944 5219:0.043792751 5231:0.068069629 5501:0.085093498 5934:0.10066337 6099:0.10441458 6287:0.1552967 6523:0.10441458 6623:0.090049297 6843:0.067362748 6859:0.085093498 7626:0.11540441 7998:0.20208825 8369:0.093637757 8518:-0.047743168 8757:-0.0060340348 9819:0.099807233 10225:0.034034815 11095:0.099807233 11589:0.038105607 11710:0.20049791 11983:0.050331686 12077:0.20049791 12394:0.20049791 12480:0.20049791 12502:0.20049791 13062:0.22980951 13192:0.10066337 15124:0.20049791 15229:0.15245625 16691:0.026062002 17451:0.088334195 18693:0.20049791 18715:0.099807233 18748:0.059738379 19030:0.13011815 19073:0.09563937 19589:0.22980951 19612:0.123047 21547:0.050331686 21870:0.0094245458 #
-0.41771976273173155869145034557732 115:0.018966081 117:0.019605802 135:0.033302415 146:0.047008172 150:0.017240811 232:0.11705888 249:0.051315401 281:0.024477925 312:0.017786875 457:0.043557633 523:0.051315401 536:0.035573751 545:0.024477925 650:0.051315401 673:0.026723851 724:0.043557633 792:0.031261854 873:0.035799861 903:0.043557633 914:0.016720153 1020:0.14021045 1029:0.024477925 1038:0.029536586 1049:0.033302415 1146:0.029536586 1211:0.019605802 1239:0.013340609 1255:0.028042089 1336:0.043557633 1356:0.0094830403 1425:0.051315401 1426:0.051315401 1465:0.021778816 1486:0.088609762 1569:0.024477925 1725:0.035799861 1746:0.035799861 1756:0.043557633 1906:0.031261854 1908:-0.0026602908 1919:0.043557633 1943:0.028042089 1963:0.14319944 1973:0.070512258 2024:0.043557633 2197:0.02100664 2199:0.029536586 2216:0.033302415 2237:0.051315401 2240:0.04895585 2246:0.02100664 2291:0.031261854 2342:0.035799861 2486:0.078039251 2671:0.047008172 2724:0.033302415 2757:0.051315401 2767:0.051315401 2833:0.051315401 2881:0.043557633 3010:0.025544645 3016:0.087115265 3142:0.023047201 3203:0.02100664 3219:0.025544645 3302:0.043557633 3328:0.026723851 3343:0.035799861 3385:0.029536586 3399:0.018439369 3412:0.051315401 3556:0.01324887 3615:0.051315401 3831:-0.0044834889 3878:0.035799861 3889:-0.16356009 4088:0.051315401 4142:0.028042089 4225:0.028042089 4310:0.033302415 4588:0.051089291 4616:0.033302415 4652:0.051315401 4662:0.020284319 4702:0.039019626 4752:0.035799861 4758:0.022608239 4775:0.024477925 4791:0.064890586 4813:0.039019626 4829:0.013628299 4914:0.0053982185 4955:0.076633938 5052:0.051315401 5218:0.18905976 5219:0.01120831 5231:0.0087108649 5343:0.025544645 5440:0.014850468 5501:0.043557633 5588:0.017786875 5592:0.019605802 5697:0.051315401 5779:0.043557633 5819:0.017786875 5827:0.028042089 5852:0.043557633 5936:0.051315401 5940:0.043557633 5954:0.029536586 5968:0.019605802 6107:0.062523708 6135:0.14319944 6196:0.043557633 6201:0.031261854 6287:0.066244349 6371:0.033302415 6386:0.087115265 6432:0.051315401 6561:0.076633938 6684:0.051315401 6836:0.014021045 6839:0.028042089 6843:0.086204052 6859:0.021778816 6890:0.037579644 6984:0.051315401 7098:0.051315401 7157:0.031261854 7180:0.035799861 7337:0.016720153 7352:0.02100664 7363:0.033302415 7410:0.019605802 7467:0.043557633 7578:0.031261854 7608:0.043557633 7691:0.04895585 7715:0.029536586 7716:0.028856151 7755:0.11705888 7887:0.043557633 7970:0.051315401 7998:0.017240811 8045:-0.0050777751 8114:0.087115265 8129:0.043557633 8185:0.033302415 8195:0.035799861 8202:0.023965631 8218:0.02100664 8366:0.051315401 8369:0.015977086 8486:0.051315401 8518:-0.10997441 8564:0.018789822 8638:0.024477925 8720:0.087115265 8806:0.032445293 8829:0.043557633 8877:0.051315401 8914:-0.01400679 8933:0.033302415 9060:0.026723851 9124:0.029536586 9342:0.033302415 9365:0.029536586 9411:0.029536586 9451:0.016222646 9519:0.015746314 9581:0.051315401 9661:0.025544645 9673:0.023696063 9760:0.033302415 9765:0.029536586 9783:0.15326788 9819:0.025544645 9921:0.051315401 9933:0.071599722 10027:0.0092196846 10104:0.040568639 10225:0.01742173 10287:0.051315401 10333:0.028042089 10344:0.022608239 10444:0.051315401 10515:0.028042089 10524:0.039019626 10540:0.056084178 10624:0.015746314 10626:0.028042089 10693:0.056084178 10709:-0.0094382092 10913:0.051315401 11016:0.026723851 11054:0.026723851 11105:0.043557633 11119:0.059073173 11244:0.051315401 11293:0.14170071 11353:0.051315401 11359:0.035799861 11411:0.051315401 11418:0.051315401 11473:0.039211605 11499:0.011848032 11589:0.009752742 11602:0.051315401 11658:0.035799861 11683:0.11705888 11757:0.078039251 11771:0.087115265 11906:0.051315401 12064:0.051315401 12173:0.043557633 12317:0.051315401 12341:0.0073100273 12443:0.051315401 12655:0.043557633 12662:0.15630928 12664:0.036721908 12722:0.010312464 12856:0.10739958 12887:0.051315401 13062:0.17645222 13189:0.035799861 13192:0.012881883 13524:0.051315401 13655:0.024477925 13677:0.051315401 13793:0.014850468 13851:0.051315401 13876:0.035799861 13879:0.039019626 13923:0.031261854 13938:0.11705888 14002:0.051315401 14068:0.019605802 14212:0.043557633 14438:0.037932161 14527:0.025544645 14529:0.026723851 14644:0.051315401 14738:0.051315401 14812:0.051315401 14916:-0.0041506966 14947:0.051315401 14990:0.051315401 15083:0.06660483 15115:0.026723851 15190:0.043557633 15242:0.043557633 15245:0.051315401 15273:0.035799861 15298:0.037932161 15319:0.026723851 15328:0.031261854 15354:0.018966081 15355:0.033302415 15356:0.031261854 15367:0.051315401 15383:0.021778816 15397:0.017786875 15508:0.14319944 15583:0.033302415 15620:0.088609762 15730:0.031261854 15904:0.017786875 15918:0.097911701 16044:0.043557633 16176:0.029536586 16380:0.047008172 16465:0.071147501 16478:0.014021045 16491:0.11705888 16711:0.043557633 16757:0.033302415 16764:0.028042089 16871:0.018789822 16875:0.018966081 16904:0.02241662 16930:0.039211605 17021:0.043557633 17036:0.039019626 17049:0.029536586 17331:0.053447701 17345:0.016222646 17499:0.051315401 17579:0.039019626 17687:0.043557633 17701:0.051315401 17709:0.018360954 17723:0.033302415 17733:0.024477925 17738:0.051089291 17741:0.043557633 17858:0.051315401 17893:0.022608239 17910:0.020284319 17913:0.024477925 17935:0.11705888 17974:0.051315401 18034:0.051315401 18067:0.016720153 18071:0.043557633 18095:0.051315401 18206:0.017786875 18268:0.051315401 18304:0.039019626 18312:0.039019626 18349:0.035799861 18400:0.033302415 18444:0.051315401 18460:0.051315401 18466:0.051315401 18644:0.028042089 18665:0.076633938 18830:0.039211605 18867:0.051315401 18877:0.051315401 18881:0.035544097 18884:0.043557633 18909:0.035799861 18926:0.029536586 19012:0.097911701 19030:0.06660483 19039:0.033302415 19067:0.028042089 19070:0.087115265 19105:0.029536586 19121:0.071599722 19160:0.022608239 19248:0.043557633 19362:0.047008172 19366:0.051315401 19398:0.027256599 19589:0.17645222 19612:0.015746314 19753:0.014428075 19836:0.029536586 19886:0.039019626 19896:0.016222646 19953:0.022608239 19978:0.051315401 20013:0.033302415 20066:0.043557633 20111:0.031492628 20123:0.051315401 20309:0.018360954 20458:0.051315401 20635:0.06660483 20663:0.021778816 20691:0.051315401 20701:0.020284319 20882:0.019605802 20916:0.035799861 20967:0.037932161 20990:0.078039251 21049:0.028042089 21119:0.051315401 21246:0.013628299 21311:0.029536586 21378:0.051315401 21623:0.028042089 21665:0.087115265 21707:0.033302415 21708:0.051315401 21729:0.056084178 21732:0.018360954 21735:0.035799861 21821:0.028042089 21870:0.0072363499 21890:0.010901658 21895:0.043557633 22106:0.051315401 22126:0.010603184 22160:0.033302415 #
-0.48401568846860915096286248626711 312:0.081023403 536:0.081023403 914:0.076164238 1211:0.089309044 1239:0.030384807 1356:0.043197479 1465:0.099207632 1569:0.11150271 2197:0.095690191 2641:0.09239985 3142:0.052492712 3260:0.12173343 3399:0.041997831 3889:-0.27092898 4616:0.15170035 4775:0.11150271 4787:0.11636187 4832:0.32615358 5954:0.1345461 5968:0.089309044 6301:0.17774358 6451:0.23375374 6836:0.063869163 7410:0.089309044 7691:0.11150271 7716:0.065723278 8045:-0.0077101537 8564:0.057061378 8806:0.073897973 8914:-0.047853168 9673:0.053970575 10626:0.12773833 10709:-0.032244947 10779:0.12173343 11499:0.053970575 11717:0.17774358 12560:0.16307679 13093:0.12773833 13512:0.39683053 13655:0.11150271 14068:0.089309044 15115:0.12173343 15354:0.086394958 15904:0.081023403 16478:0.063869163 16930:0.089309044 17709:0.083638467 18644:0.12773833 19105:0.1345461 19195:0.23375374 19398:0.12416022 20309:0.083638467 21137:0.23375374 21623:0.12773833 21732:0.083638467 22126:0.048299998 #
