SVM-light Version V6.02
0 # kernel type
3 # kernel parameter -d 
1 # kernel parameter -g 
1 # kernel parameter -s 
1 # kernel parameter -r 
empty# kernel parameter -u 
19876 # highest feature index 
68 # number of training documents 
68 # number of support vectors plus 1 
0.98684397 # threshold b, each following line is a SV (starting with alpha*y)
-0.011506771270883210667168583540843 25:0.048652235 64:0.048652235 75:0.048652235 100:0.048652235 133:0.048652235 173:0.048652235 216:0.048652235 217:0.048652235 228:0.048652235 309:0.035984892 343:0.048652235 346:0.048652235 350:0.048652235 355:0.048652235 367:0.048652235 417:0.046635106 430:0.048652235 464:0.048652235 474:0.048652235 486:0.048652235 515:0.048652235 537:0.048652235 572:0.048652235 677:0.048652235 712:0.048652235 752:0.032667831 776:0.048652235 935:0.048652235 1225:0.048652235 1254:0.048652235 1307:0.048652235 1355:0.048652235 1378:0.052430574 1381:0.035984892 1406:0.048652235 1513:0.048652235 1605:0.048652235 1654:0.048652235 1668:0.030094916 1736:0.048652235 1772:0.048652235 1786:0.048652235 1865:0.048652235 1936:0.035984892 1987:0.027992692 1992:0.035984892 1993:0.040660031 2073:0.048652235 2083:0.048652235 2087:0.030094916 2109:0.048652235 2114:0.048652235 2117:0.040660031 2372:0.040660031 2436:0.048652235 2636:0.048652235 2721:0.048652235 2780:0.048652235 2808:0.048652235 2869:0.048652235 2921:0.081320062 2953:0.048652235 2991:0.048652235 3016:0.048652235 3062:0.035984892 3091:0.048652235 3145:0.048652235 3169:0.048652235 3176:0.048652235 3194:0.048652235 3281:0.048652235 3321:0.048652235 3331:0.048652235 3338:0.048652235 3375:0.048652235 3421:0.048652235 3435:0.055985384 3436:0.048652235 3458:0.048652235 3474:0.035984892 3502:0.048652235 3514:0.048652235 3517:0.048652235 3540:0.048652235 3576:0.048652235 3599:0.048652235 3664:0.048652235 3672:0.040660031 3687:0.027992692 3751:0.035984892 3757:0.071969785 3802:0.071969785 3854:0.048652235 3864:0.048652235 3880:0.048652235 3881:0.048652235 3982:0.048652235 3989:0.032667831 3992:0.048652235 4005:0.048652235 4095:0.048652235 4104:0.040660031 4119:0.030094916 4133:0.048652235 4157:0.048652235 4165:0.048652235 4186:0.048652235 4193:0.048652235 4226:0.048652235 4253:0.048652235 4319:0.048652235 4350:0.048652235 4429:0.048652235 4445:0.040660031 4447:0.048652235 4474:0.048652235 4529:0.048652235 4559:0.048652235 4661:0.032667831 4693:0.048652235 4705:0.065335661 4724:0.046635106 4855:0.048652235 4866:0.048652235 4879:0.032667831 4942:0.060189832 5082:0.048652235 5091:0.040660031 5092:0.048652235 5095:0.048652235 5146:0.048652235 5214:0.048652235 5216:0.035984892 5271:0.048652235 5273:0.048652235 5343:0.048652235 5357:0.030094916 5361:0.048652235 5379:0.048652235 5394:0.032667831 5481:0.048652235 5550:0.048652235 5574:0.030094916 5629:0.040660031 5679:0.026215287 5732:0.048652235 5908:0.048652235 6040:0.048652235 6047:0.048652235 6071:0.048652235 6085:0.032667831 6120:0.048652235 6135:0.026215287 6157:0.048652235 6179:0.048652235 6198:0.048652235 6235:0.035984892 6264:0.048652235 6372:0.048652235 6440:0.048652235 6453:0.048652235 6524:0.026215287 6558:0.048652235 6572:0.048652235 6593:0.027992692 6595:0.048652235 6633:0.048652235 6665:0.040660031 6692:0.035984892 6700:0.035984892 6927:0.048652235 6967:0.048652235 6994:0.048652235 7081:0.024675628 7255:0.048652235 7293:0.048652235 7409:0.048652235 7530:0.048652235 7544:0.048652235 7553:0.048652235 7566:0.035984892 7664:0.048652235 7683:0.035984892 7724:0.048652235 7806:0.048652235 7811:0.035984892 7877:0.048652235 7896:0.048652235 7911:0.048652235 7931:0.048652235 8091:0.040660031 8162:0.035984892 8263:0.048652235 8272:0.040660031 8279:0.048652235 8302:0.048652235 8332:0.048652235 8341:0.048652235 8371:0.048652235 8417:0.048652235 8451:0.048652235 8558:0.048652235 8582:0.035984892 8615:0.026215287 8627:0.048652235 8642:0.040660031 8684:0.048652235 8714:0.048652235 8795:0.048652235 8942:0.035984892 8954:0.048652235 8993:0.048652235 9062:0.024675628 9087:0.048652235 9173:0.048652235 9183:0.048652235 9196:0.048652235 9204:0.035984892 9210:0.032667831 9255:0.048652235 9277:0.040660031 9323:0.048652235 9429:0.048652235 9437:0.023317553 9450:0.035984892 9561:0.040660031 9637:0.040660031 9638:0.032667831 9693:0.035984892 9799:0.048652235 9802:0.048652235 9838:0.035984892 9916:0.048652235 9962:0.048652235 10000:0.048652235 10001:0.048652235 10152:0.030094916 10167:0.048652235 10251:0.048652235 10279:0.048652235 10294:0.048652235 10401:0.048652235 10437:0.027992692 10468:0.040660031 10624:0.048652235 10726:0.048652235 10751:0.030094916 10756:0.048652235 10782:0.048652235 10848:0.048652235 10899:0.048652235 10932:0.048652235 10933:0.048652235 11062:0.048652235 11092:0.048652235 11164:0.030094916 11294:0.048652235 11295:0.048652235 11323:0.026215287 11364:0.048652235 11376:0.048652235 11391:0.040660031 11392:0.048652235 11436:0.048652235 11576:0.048652235 11582:0.048652235 11614:0.048652235 11682:0.048652235 11777:0.048652235 11876:0.048652235 11884:0.048652235 11902:0.030094916 11917:0.048652235 11941:0.035984892 11947:0.048652235 11954:0.023317553 12013:0.048652235 12049:0.048652235 12139:0.048652235 12166:0.048652235 12175:0.048652235 12222:0.048652235 12236:0.048652235 12273:0.060189832 12280:0.048652235 12283:0.048652235 12286:0.048652235 12572:0.048652235 12649:0.032667831 12663:0.048652235 12698:0.048652235 12699:0.048652235 12725:0.023317553 12732:0.048652235 12877:0.048652235 12987:0.048652235 13039:0.048652235 13057:0.024675628 13104:0.048652235 13120:0.026215287 13156:0.024675628 13176:0.048652235 13181:0.048652235 13250:0.035984892 13252:0.035984892 13255:0.048652235 13291:0.048652235 13333:0.048652235 13363:0.048652235 13421:0.048652235 13446:0.040660031 13454:0.035984892 13462:0.040660031 13478:0.048652235 13513:0.040660031 13556:0.048652235 13588:0.048652235 13594:0.026215287 13605:0.048652235 13620:0.048652235 13743:0.023317553 13745:0.048652235 13777:0.048652235 13834:0.048652235 13893:0.035984892 13900:0.048652235 13906:0.048652235 14020:0.048652235 14059:0.030094916 14072:0.048652235 14075:0.048652235 14112:0.048652235 14148:0.048652235 14174:0.048652235 14223:0.048652235 14226:0.048652235 14256:0.048652235 14272:0.048652235 14273:0.035984892 14296:0.035984892 14299:0.048652235 14301:0.048652235 14310:0.040660031 14315:0.048652235 14355:0.035984892 14437:0.048652235 14481:0.023317553 14524:0.048652235 14540:0.035984892 14550:0.048652235 14597:0.048652235 14616:0.048652235 14627:0.048652235 14628:0.048652235 14696:0.048652235 14711:0.048652235 14774:0.048652235 14795:0.048652235 14836:0.048652235 14879:0.048652235 14896:0.048652235 14907:0.040660031 14972:0.032667831 15049:0.048652235 15093:0.027992692 15159:0.040660031 15288:0.048652235 15292:0.030094916 15345:0.048652235 15356:0.035984892 15396:0.048652235 15415:0.030094916 15450:0.048652235 15471:0.048652235 15482:0.048652235 15520:0.048652235 15538:0.048652235 15624:0.048652235 15650:0.048652235 15691:0.048652235 15712:0.040660031 15723:0.040660031 15789:0.048652235 15871:0.048652235 15963:0.030094916 15972:0.048652235 15980:0.048652235 15988:0.048652235 16020:0.048652235 16141:0.048652235 16173:0.048652235 16178:0.048652235 16257:0.048652235 16262:0.046635106 16373:0.048652235 16423:0.048652235 16443:0.048652235 16451:0.048652235 16462:0.048652235 16484:0.040660031 16525:0.040660031 16570:0.048652235 16576:0.048652235 16661:0.060189832 16671:0.035984892 16693:0.048652235 16712:0.048652235 16762:0.040660031 16854:0.023317553 16878:0.048652235 16909:0.035984892 17001:0.035984892 17017:0.048652235 17018:0.048652235 17048:0.048652235 17084:0.048652235 17106:0.040660031 17122:0.048652235 17183:0.048652235 17195:0.048652235 17200:0.048652235 17218:0.048652235 17273:0.048652235 17365:0.048652235 17377:0.048652235 17446:0.024675628 17457:0.035984892 17518:0.048652235 17520:0.048652235 17528:0.048652235 17572:0.035984892 17663:0.048652235 17772:0.030094916 17872:0.048652235 17944:0.048652235 17974:0.040660031 18038:0.048652235 18061:0.048652235 18100:0.030094916 18116:0.035984892 18128:0.048652235 18129:0.048652235 18133:0.048652235 18146:0.048652235 18165:0.048652235 18179:0.048652235 18269:0.035984892 18293:0.048652235 18345:0.048652235 18368:0.048652235 18383:0.035984892 18457:0.048652235 18629:0.040660031 18688:0.048652235 18766:0.035984892 18796:0.035984892 18821:0.024675628 18835:0.048652235 18980:0.048652235 18981:0.048652235 19107:0.048652235 19144:0.048652235 19211:0.048652235 19221:0.048652235 19225:0.048652235 19260:0.048652235 19269:0.046635106 19303:0.048652235 19304:0.048652235 19339:0.048652235 19388:0.048652235 19501:0.048652235 19540:0.024675628 19594:0.035984892 19678:0.048652235 19749:0.048652235 19818:0.048652235 #
-0.019950289242364308700539154983744 29:0.087130263 30:0.087130263 113:0.087130263 531:0.064444587 581:0.087130263 636:0.050131522 839:0.087130263 931:0.087130263 1002:0.087130263 1211:0.087130263 1244:0.1456344 1419:0.087130263 1424:0.087130263 1434:0.087130263 1922:0.087130263 1978:0.072817199 2335:0.087130263 2561:0.087130263 2592:0.087130263 2664:0.064444587 2946:0.087130263 3515:0.087130263 3663:0.087130263 3852:0.087130263 3922:0.087130263 4570:0.087130263 4982:0.087130263 5006:0.088382125 5009:0.072817199 5588:0.087130263 5741:0.087130263 5793:0.087130263 5816:0.087130263 6097:0.087130263 6135:0.046948403 6217:0.087130263 6293:0.087130263 6474:0.087130263 6478:0.093896806 6587:0.072817199 6714:0.064444587 7102:0.087130263 7121:0.087130263 7446:0.087130263 7554:0.087130263 7601:0.072817199 7627:0.053896353 7802:0.087130263 7853:0.087130263 8067:0.087130263 8349:0.087130263 8416:0.050131522 8540:0.072817199 8804:0.044191062 8835:0.087130263 8890:0.053896353 8978:0.087130263 9061:0.087130263 9062:0.044191062 9066:0.087130263 9168:0.087130263 9348:0.087130263 9381:0.072817199 9495:0.087130263 9586:0.087130263 10544:0.087130263 10561:0.087130263 10626:0.087130263 10929:0.087130263 11006:0.087130263 11171:0.087130263 11314:0.072817199 11434:0.087130263 11474:0.087130263 11545:0.087130263 11783:0.087130263 11985:0.087130263 12053:0.087130263 12179:0.087130263 12199:0.087130263 12540:0.087130263 12741:0.087130263 12862:0.087130263 12939:0.087130263 12984:0.087130263 13058:0.087130263 13109:0.087130263 13271:0.087130263 13312:0.087130263 13372:0.087130263 13375:0.087130263 13394:0.087130263 13395:0.087130263 13555:0.087130263 13598:0.087130263 13619:0.087130263 13664:0.087130263 13726:0.087130263 13729:0.087130263 13832:0.087130263 13862:0.064444587 13917:0.087130263 14003:0.087130263 14120:0.087130263 14194:0.1456344 14351:0.087130263 14403:0.087130263 14453:0.087130263 14535:0.053896353 14707:0.087130263 14784:0.072817199 14854:0.053896353 15094:0.064444587 15307:0.087130263 15463:0.072817199 15503:0.087130263 15518:0.050131522 15714:0.087130263 15760:0.087130263 15847:0.044191062 16231:0.087130263 16310:0.087130263 16355:0.087130263 16363:0.087130263 16536:0.087130263 16612:0.087130263 16728:0.087130263 17274:0.072817199 17614:0.087130263 17639:0.087130263 17677:0.087130263 17999:0.087130263 18245:0.087130263 18564:0.087130263 19001:0.053896353 19017:0.087130263 19045:0.087130263 19424:0.087130263 19729:0.087130263 19762:0.087130263 19797:0.087130263 19848:0.044191062 #
-0.011607371345332476164635693294258 157:0.07344991 163:0.07344991 266:0.054326121 381:0.07344991 417:0.035202332 532:0.07344991 585:0.07344991 782:0.07344991 1202:0.07344991 1241:0.037252609 1242:0.07344991 1326:0.07344991 1386:0.07344991 1401:0.07344991 1485:0.061384141 1488:0.045434065 1729:0.07344991 1860:0.061384141 1902:0.07344991 1917:0.07344991 1979:0.049318377 2043:0.042260353 2071:0.07344991 2121:0.07344991 2178:0.07344991 2214:0.07344991 2272:0.042260353 2283:0.07344991 2342:0.07344991 2417:0.042260353 2426:0.07344991 2452:0.07344991 2480:0.07344991 2506:0.07344991 2531:0.07344991 3092:0.07344991 3170:0.042260353 3206:0.07344991 3305:0.07344991 3347:0.07344991 3394:0.07344991 3494:0.045434065 3594:0.054326121 3619:0.049318377 3775:0.07344991 3927:0.045434065 3944:0.07344991 3980:0.07344991 4079:0.061384141 4146:0.049318377 4164:0.07344991 4254:0.07344991 4264:0.07344991 4408:0.07344991 4515:0.037252609 4588:0.07344991 4661:0.049318377 4862:0.07344991 4878:0.061384141 4910:0.07344991 4977:0.061384141 5420:0.045434065 5521:0.07344991 5728:0.061384141 5778:0.07344991 5824:0.07344991 5876:0.07344991 5879:0.07344991 5884:0.07344991 5989:0.039577018 6177:0.07344991 6351:0.07344991 6524:0.079154037 6700:0.054326121 6922:0.07344991 7157:0.07344991 7330:0.07344991 7396:0.07344991 7508:0.042260353 7578:0.07344991 7652:0.054326121 7858:0.07344991 8047:0.07344991 8080:0.07344991 8112:0.07344991 8138:0.054326121 8238:0.049318377 8255:0.07344991 8498:0.07344991 8515:0.07344991 8683:0.054326121 8698:0.061384141 8746:0.07344991 8915:0.054326121 9068:0.07344991 9107:0.07344991 9161:0.07344991 9413:0.035202332 9430:0.061384141 9475:0.07344991 9527:0.054326121 9600:0.07344991 9601:0.07344991 9630:0.054326121 9717:0.039577018 9752:0.07344991 9779:0.07344991 9803:0.07344991 9840:0.07344991 9926:0.07344991 9956:0.049318377 10024:0.061384141 10175:0.07344991 10404:0.049318377 10506:0.045434065 10644:0.061384141 10713:0.07344991 10763:0.07344991 10806:0.07344991 10814:0.07344991 10869:0.07344991 10888:0.054326121 10919:0.061384141 11057:0.07344991 11081:0.07344991 11200:0.07344991 11236:0.035202332 11291:0.07344991 11329:0.07344991 11378:0.07344991 11502:0.061384141 11667:0.084520705 11803:0.07344991 11843:0.045434065 11895:0.07344991 11974:0.07344991 12104:0.07344991 12195:0.07344991 12347:0.07344991 12358:0.066736601 12385:0.07344991 12464:0.07344991 12516:0.054326121 12551:0.045434065 12669:0.061384141 12790:0.07344991 12866:0.07344991 12883:0.07344991 13062:0.07344991 13177:0.07344991 13347:0.07344991 13389:0.061384141 13444:0.061384141 13467:0.049318377 13469:0.07344991 13520:0.07344991 13652:0.054326121 13713:0.042260353 13725:0.07344991 13827:0.042260353 14376:0.07344991 14379:0.07344991 14553:0.07344991 14573:0.07344991 14642:0.049318377 14683:0.07344991 14691:0.07344991 14769:0.061384141 14801:0.054326121 14903:0.07344991 15007:0.061384141 15015:0.07344991 15035:0.07344991 15277:0.07344991 15294:0.07344991 15298:0.07344991 15335:0.07344991 15466:0.07344991 15469:0.049318377 15508:0.07344991 15757:0.07344991 15775:0.07344991 15800:0.07344991 15837:0.07344991 15856:0.07344991 15888:0.07344991 15945:0.07344991 16009:0.039577018 16301:0.061384141 16338:0.07344991 16614:0.07344991 16699:0.07344991 17047:0.07344991 17091:0.054326121 17099:0.045434065 17208:0.07344991 17316:0.07344991 17358:0.07344991 17537:0.07344991 17559:0.07344991 17679:0.054326121 17775:0.045434065 18233:0.07344991 18321:0.07344991 18417:0.054326121 18427:0.07344991 18517:0.049318377 18553:0.07344991 18587:0.07344991 18616:0.07344991 18637:0.07344991 18710:0.07344991 18744:0.07344991 18919:0.045434065 18947:0.07344991 19003:0.07344991 19469:0.07344991 19551:0.07344991 19562:0.054326121 19712:0.07344991 19713:0.07344991 #
-0.016864595838519569337421444288339 683:0.093200028 946:0.12600814 1250:0.12600814 1546:0.12600814 1593:0.12600814 2059:0.12600814 2377:0.12600814 2767:0.12600814 2865:0.12600814 2882:0.10530853 3255:0.12600814 3270:0.12600814 3311:0.093200028 3567:0.12600814 3687:0.072500415 3830:0.12600814 3840:0.12600814 3936:0.12600814 3957:0.12600814 4027:0.12600814 4636:0.12600814 5006:0.063909292 5081:0.12600814 5614:0.12600814 6061:0.12600814 6545:0.12600814 7089:0.12600814 7601:0.10530853 8050:0.12600814 8228:0.12600814 8416:0.072500415 8694:0.12600814 8804:0.063909292 8918:0.12600814 9069:0.12600814 9118:0.12600814 9929:0.12600814 10478:0.12600814 11410:0.067896977 12247:0.12600814 12425:0.12600814 12536:0.12600814 12617:0.077945121 12765:0.060391914 13694:0.12600814 13997:0.12600814 14091:0.12600814 14151:0.067896977 14471:0.12600814 14676:0.12600814 14702:0.12600814 15055:0.084608912 15371:0.12600814 15408:0.12600814 15811:0.12600814 15923:0.12600814 15963:0.15589024 16092:0.084608912 16098:0.10530853 16666:0.12600814 16681:0.12600814 17406:0.067896977 17946:0.12600814 17949:0.12600814 18033:0.12600814 18618:0.10530853 19048:0.12600814 19140:0.12600814 19145:0.12600814 19172:0.12600814 19179:0.12600814 19196:0.12600814 #
-0.014738481561699514482688400107691 137:0.048646636 559:0.078643434 590:0.078643434 609:0.065724514 736:0.058167432 766:0.048646636 947:0.078643434 982:0.065724514 1019:0.065724514 1238:0.078643434 1241:0.03988668 1285:0.078643434 1369:0.078643434 1408:0.058167432 1459:0.078643434 1505:0.078643434 1550:0.03988668 1691:0.078643434 1970:0.078643434 2104:0.078643434 2224:0.058167432 2237:0.048646636 2297:0.078643434 2396:0.035727717 2400:0.078643434 2518:0.078643434 2818:0.065724514 2919:0.052805599 2977:0.078643434 2990:0.048646636 3151:0.065724514 3456:0.065724514 3605:0.078643434 3668:0.078643434 3906:0.058167432 3908:0.078643434 4209:0.058167432 4281:0.078643434 4298:0.078643434 4320:0.078643434 4401:0.078643434 4510:0.065724514 4525:0.078643434 4663:0.078643434 4778:0.065724514 4875:0.078643434 4933:0.078643434 5162:0.078643434 5244:0.03988668 5266:0.058167432 5372:0.045248516 5652:0.078643434 5765:0.078643434 5796:0.058167432 5823:0.058167432 5948:0.078643434 6362:0.078643434 6512:0.078643434 6535:0.048646636 6696:0.078643434 6788:0.078643434 7074:0.065724514 7118:0.058167432 7419:0.078643434 7455:0.078643434 7460:0.065724514 7652:0.058167432 7750:0.078643434 7798:0.078643434 8071:0.078643434 8118:0.037691433 8125:0.078643434 8138:0.058167432 8295:0.078643434 8425:0.078643434 8615:0.084750891 8637:0.078643434 8711:0.058167432 8783:0.042375445 8866:0.078643434 9065:0.078643434 9088:0.048646636 9167:0.078643434 9331:0.078643434 9333:0.065724514 9388:0.078643434 9445:0.058167432 9468:0.078643434 9626:0.058167432 9718:0.065724514 9758:0.078643434 9869:0.078643434 9999:0.11633486 10060:0.078643434 10077:0.078643434 10120:0.078643434 10371:0.078643434 10378:0.078643434 10438:0.078643434 10505:0.078643434 10858:0.065724514 10989:0.078643434 11027:0.078643434 11033:0.078643434 11083:0.078643434 11135:0.058167432 11210:0.078643434 11413:0.078643434 11625:0.078643434 11939:0.078643434 12093:0.078643434 12138:0.078643434 12140:0.065724514 12353:0.11633486 12430:0.078643434 12453:0.15841679 12513:0.078643434 12608:0.078643434 12615:0.065724514 12718:0.078643434 12738:0.078643434 12846:0.078643434 13120:0.084750891 13319:0.058167432 13371:0.058167432 13440:0.058167432 13670:0.078643434 13697:0.078643434 13813:0.065724514 13851:0.045248516 13949:0.078643434 14044:0.065724514 14289:0.058167432 14353:0.078643434 14402:0.078643434 14405:0.078643434 14729:0.058167432 15002:0.078643434 15063:0.037691433 15154:0.078643434 15311:0.078643434 15349:0.078643434 15350:0.078643434 15449:0.13144903 15465:0.045248516 15830:0.078643434 15941:0.03988668 15943:0.078643434 15947:0.078643434 16151:0.078643434 16337:0.058167432 17126:0.078643434 17153:0.058167432 17157:0.078643434 17161:0.078643434 17168:0.078643434 17224:0.078643434 17268:0.078643434 17353:0.078643434 17406:0.042375445 17478:0.078643434 17503:0.078643434 17573:0.13144903 17582:0.078643434 17670:0.048646636 17840:0.078643434 17891:0.065724514 18141:0.078643434 18177:0.078643434 18280:0.078643434 18367:0.058167432 18417:0.058167432 18429:0.078643434 18442:0.052805599 18503:0.078643434 18819:0.078643434 18878:0.078643434 18926:0.058167432 19008:0.078643434 19061:0.058167432 19325:0.078643434 19419:0.078643434 19428:0.078643434 19656:0.065724514 #
0.99999999456635757510980511142407 52:0.032380335 91:0.032380335 136:0.038745068 198:0.06476067 219:0.06476067 235:0.038745068 250:0.038745068 251:0.038745068 258:0.038745068 332:0.038745068 342:0.038745068 353:0.038745068 370:0.022292474 392:0.052031208 396:0.038745068 401:0.038745068 403:0.038745068 418:0.022292474 455:0.038745068 483:0.038745068 488:0.038745068 519:0.038745068 538:0.038745068 636:0.022292474 651:0.038745068 670:0.022292474 733:0.038745068 734:0.10406242 743:0.022292474 755:0.038745068 766:0.023966618 786:0.032380335 813:0.032380335 816:0.032380335 894:0.052031208 960:0.038745068 1065:0.071899854 1131:0.038745068 1185:0.038745068 1198:0.017601887 1240:0.038745068 1284:0.019650873 1378:0.020877007 1402:0.038745068 1438:0.038745068 1464:0.023966618 1563:0.038745068 1572:0.022292474 1637:0.038745068 1646:0.038745068 1678:0.038745068 1738:0.038745068 1740:0.038745068 1744:0.038745068 1766:0.038745068 1778:0.038745068 1816:0.038745068 1830:0.038745068 1871:0.022292474 1892:0.038745068 1971:0.038745068 2003:0.038745068 2037:0.038745068 2072:0.038745068 2085:0.038745068 2169:0.038745068 2237:0.023966618 2265:0.022292474 2291:0.038745068 2322:0.038745068 2390:0.038745068 2420:0.038745068 2464:0.038745068 2470:0.038745068 2482:0.028657207 2483:0.038745068 2572:0.022292474 2594:0.10406242 2673:0.038745068 2702:0.038745068 2722:0.06476067 2744:0.038745068 2758:0.038745068 2771:0.038745068 2787:0.038745068 2799:0.038745068 2805:0.032380335 2857:0.052031208 2870:0.038745068 2882:0.032380335 2889:0.038745068 2944:0.038745068 2949:0.038745068 2956:0.038745068 3031:0.028657207 3038:0.038745068 3082:0.038745068 3084:0.038745068 3096:0.038745068 3118:0.038745068 3227:0.038745068 3265:0.038745068 3286:0.022292474 3320:0.028657207 3336:0.026015604 3354:0.052031208 3389:0.032380335 3398:0.038745068 3400:0.018569345 3441:0.038745068 3495:0.038745068 3504:0.085971616 3519:0.052031208 3531:0.038745068 3539:0.038745068 3548:0.038745068 3582:0.038745068 3589:0.038745068 3611:0.038745068 3649:0.038745068 3703:0.038745068 3761:0.018569345 3765:0.038745068 3797:0.018569345 3806:0.038745068 3819:0.038745068 3844:0.06476067 3877:0.022292474 3885:0.06476067 3929:0.071899854 3975:0.038745068 3985:0.038745068 4037:0.038745068 4111:0.038745068 4169:0.085971616 4173:0.026015604 4228:0.038745068 4252:0.032380335 4266:0.038745068 4283:0.038745068 4333:0.038745068 4370:0.026015604 4379:0.038745068 4385:0.038745068 4444:0.019650873 4446:0.038745068 4520:0.038745068 4531:0.032380335 4540:0.06476067 4561:0.032380335 4610:0.022292474 4620:0.038745068 4621:0.038745068 4669:0.019650873 4682:0.038745068 4709:0.038745068 4762:0.038745068 4769:0.038745068 4807:0.038745068 4886:0.019650873 4902:0.038745068 4921:0.022292474 4971:0.038745068 5004:0.038745068 5009:0.032380335 5027:0.038745068 5102:0.038745068 5163:0.038745068 5166:0.038745068 5193:0.038745068 5202:0.038745068 5225:0.038745068 5246:0.038745068 5289:0.038745068 5290:0.038745068 5314:0.038745068 5370:0.038745068 5377:0.038745068 5390:0.038745068 5400:0.038745068 5420:0.023966618 5462:0.038745068 5464:0.038745068 5465:0.038745068 5502:0.038745068 5526:0.038745068 5570:0.06476067 5594:0.078603491 5657:0.06476067 5665:0.038745068 5676:0.038745068 5731:0.038745068 5735:0.028657207 5758:0.038745068 5762:0.017601887 5781:0.019650873 5792:0.038745068 5811:0.038745068 5829:0.038745068 5925:0.038745068 5927:0.038745068 5966:0.038745068 5973:0.044584949 5989:0.020877007 5994:0.038745068 6036:0.038745068 6068:0.038745068 6070:0.032380335 6072:0.038745068 6139:0.038745068 6153:0.038745068 6160:0.038745068 6164:0.038745068 6223:0.032380335 6255:0.038745068 6310:0.038745068 6359:0.038745068 6365:0.022292474 6425:0.038745068 6438:0.038745068 6460:0.038745068 6467:0.038745068 6532:0.044584949 6534:0.038745068 6552:0.038745068 6616:0.038745068 6644:0.028657207 6681:0.038745068 6682:0.019650873 6691:0.038745068 6702:0.038745068 6703:0.038745068 6705:0.038745068 6708:0.038745068 6722:0.038745068 6752:0.038745068 6764:0.023966618 6768:0.032380335 6808:0.06476067 6809:0.038745068 6900:0.038745068 6913:0.052031208 6921:0.038745068 6956:0.022292474 6977:0.06476067 7009:0.028657207 7079:0.06476067 7105:0.032380335 7129:0.038745068 7168:0.038745068 7204:0.038745068 7231:0.035203774 7315:0.038745068 7327:0.038745068 7346:0.038745068 7359:0.038745068 7405:0.038745068 7407:0.032380335 7430:0.038745068 7448:0.038745068 7485:0.038745068 7519:0.038745068 7551:0.052031208 7571:0.037138689 7577:0.06476067 7600:0.038745068 7632:0.038745068 7654:0.022292474 7661:0.038745068 7702:0.038745068 7729:0.038745068 7775:0.038745068 7855:0.038745068 7936:0.038745068 7941:0.038745068 7976:0.052031208 7995:0.038745068 8086:0.038745068 8135:0.038745068 8159:0.06476067 8167:0.032380335 8231:0.038745068 8248:0.038745068 8288:0.038745068 8293:0.038745068 8300:0.038745068 8308:0.038745068 8338:0.022292474 8345:0.038745068 8357:0.028657207 8455:0.038745068 8481:0.038745068 8497:0.038745068 8517:0.038745068 8526:0.038745068 8559:0.038745068 8586:0.038745068 8659:0.085971616 8695:0.038745068 8702:0.032380335 8767:0.038745068 8870:0.038745068 8881:0.038745068 8891:0.038745068 8926:0.038745068 8944:0.038745068 8961:0.038745068 9000:0.06476067 9016:0.038745068 9062:0.019650873 9072:0.032380335 9114:0.026015604 9128:0.032380335 9155:0.038745068 9182:0.038745068 9184:0.038745068 9234:0.038745068 9240:0.038745068 9258:0.038745068 9260:0.038745068 9297:0.038745068 9312:0.038745068 9373:0.038745068 9427:0.038745068 9442:0.038745068 9466:0.022292474 9481:0.057314415 9521:0.06476067 9557:0.038745068 9579:0.032380335 9610:0.038745068 9612:0.032380335 9628:0.022292474 9645:0.022292474 9784:0.038745068 9787:0.041754015 9808:0.038745068 9811:0.038745068 9927:0.038745068 9946:0.038745068 10125:0.06476067 10164:0.038745068 10204:0.038745068 10286:0.035203774 10293:0.038745068 10317:0.022292474 10337:0.038745068 10364:0.038745068 10390:0.038745068 10417:0.06476067 10470:0.028657207 10590:0.038745068 10595:0.038745068 10617:0.028657207 10633:0.038745068 10707:0.028657207 10728:0.038745068 10766:0.038745068 10787:0.038745068 10795:0.038745068 10803:0.038745068 10840:0.038745068 10868:0.038745068 10882:0.038745068 10904:0.022292474 10928:0.038745068 11000:0.038745068 11008:0.038745068 11047:0.038745068 11180:0.038745068 11192:0.038745068 11199:0.037138689 11213:0.038745068 11224:0.038745068 11232:0.038745068 11251:0.052031208 11260:0.038745068 11308:0.032380335 11366:0.038745068 11381:0.044584949 11423:0.06476067 11432:0.038745068 11437:0.038745068 11465:0.06476067 11553:0.038745068 11571:0.038745068 11595:0.032380335 11627:0.038745068 11645:0.022292474 11668:0.038745068 11669:0.038745068 11686:0.038745068 11708:0.032380335 11743:0.038745068 11753:0.038745068 11762:0.038745068 11766:0.038745068 11808:0.038745068 11824:0.028657207 11827:0.019650873 11871:0.038745068 11887:0.038745068 11905:0.038745068 11945:0.052031208 11981:0.020877007 12032:0.038745068 12056:0.022292474 12066:0.038745068 12080:0.06476067 12103:0.032380335 12105:0.038745068 12107:0.038745068 12111:0.032380335 12129:0.038745068 12163:0.032380335 12183:0.038745068 12330:0.038745068 12331:0.038745068 12345:0.038745068 12396:0.038745068 12424:0.028657207 12440:0.038745068 12591:0.038745068 12622:0.052031208 12629:0.038745068 12664:0.028657207 12665:0.022292474 12682:0.028657207 12725:0.018569345 12729:0.038745068 12781:0.017601887 12794:0.038745068 12800:0.020877007 12815:0.038745068 12834:0.026015604 12893:0.038745068 12957:0.038745068 12958:0.038745068 12971:0.038745068 12982:0.038745068 13022:0.038745068 13024:0.026015604 13037:0.038745068 13082:0.018569345 13086:0.026015604 13098:0.038745068 13132:0.06476067 13161:0.022292474 13240:0.038745068 13275:0.038745068 13285:0.019650873 13370:0.038745068 13393:0.038745068 13412:0.032380335 13453:0.038745068 13461:0.038745068 13491:0.028657207 13559:0.038745068 13571:0.028657207 13594:0.020877007 13785:0.018569345 13790:0.038745068 13800:0.032380335 13827:0.022292474 13835:0.038745068 13851:0.022292474 13878:0.019650873 13883:0.038745068 13913:0.038745068 13931:0.038745068 13942:0.038745068 13958:0.038745068 13962:0.052031208 14001:0.038745068 14086:0.038745068 14140:0.038745068 14150:0.038745068 14177:0.038745068 14180:0.038745068 14185:0.026015604 14199:0.038745068 14212:0.020877007 14228:0.038745068 14234:0.022292474 14344:0.032380335 14370:0.038745068 14380:0.022292474 14411:0.028657207 14442:0.022292474 14448:0.038745068 14469:0.052031208 14493:0.019650873 14539:0.038745068 14601:0.028657207 14623:0.038745068 14649:0.022292474 14651:0.038745068 14723:0.10438503 14725:0.095866472 14732:0.038745068 14740:0.038745068 14742:0.038745068 14811:0.038745068 14843:0.028657207 14854:0.023966618 14868:0.018569345 14893:0.038745068 14907:0.032380335 14929:0.038745068 14958:0.06476067 15060:0.038745068 15063:0.018569345 15067:0.032380335 15079:0.022292474 15083:0.022292474 15132:0.028657207 15158:0.032380335 15201:0.038745068 15238:0.06476067 15292:0.023966618 15353:0.023966618 15358:0.038745068 15363:0.038745068 15379:0.038745068 15389:0.032380335 15394:0.038745068 15455:0.038745068 15463:0.032380335 15518:0.022292474 15526:0.019650873 15539:0.038745068 15540:0.038745068 15588:0.038745068 15598:0.038745068 15622:0.038745068 15663:0.023966618 15770:0.085971616 15816:0.032380335 15838:0.019650873 15897:0.038745068 15952:0.019650873 15957:0.038745068 15968:0.038745068 16000:0.038745068 16098:0.032380335 16115:0.038745068 16133:0.019650873 16153:0.038745068 16186:0.038745068 16221:0.038745068 16239:0.038745068 16271:0.038745068 16275:0.038745068 16289:0.038745068 16352:0.038745068 16369:0.038745068 16379:0.018569345 16403:0.038745068 16515:0.022292474 16657:0.038745068 16670:0.038745068 16771:0.038745068 16864:0.028657207 16881:0.038745068 16900:0.032380335 16929:0.038745068 16941:0.06476067 16945:0.038745068 16952:0.032380335 16997:0.032380335 17007:0.038745068 17076:0.038745068 17179:0.038745068 17265:0.022292474 17297:0.038745068 17301:0.032380335 17326:0.022292474 17328:0.038745068 17332:0.038745068 17382:0.032380335 17391:0.032380335 17394:0.06476067 17433:0.038745068 17440:0.038745068 17462:0.038745068 17464:0.038745068 17467:0.038745068 17548:0.022292474 17564:0.038745068 17601:0.038745068 17642:0.022292474 17685:0.032380335 17704:0.038745068 17758:0.020877007 17802:0.017601887 17809:0.038745068 17834:0.038745068 17836:0.038745068 17846:0.038745068 17906:0.038745068 17947:0.022292474 17990:0.038745068 18121:0.038745068 18136:0.038745068 18156:0.038745068 18182:0.038745068 18200:0.032380335 18260:0.038745068 18352:0.038745068 18394:0.038745068 18423:0.038745068 18442:0.026015604 18462:0.038745068 18519:0.038745068 18540:0.038745068 18560:0.038745068 18569:0.020877007 18600:0.022292474 18754:0.038745068 18786:0.038745068 18789:0.032380335 18792:0.038745068 18857:0.038745068 18899:0.038745068 18975:0.038745068 19026:0.038745068 19068:0.06476067 19146:0.038745068 19151:0.038745068 19152:0.038745068 19291:0.018569345 19293:0.038745068 19299:0.032380335 19332:0.038745068 19346:0.038745068 19392:0.019650873 19466:0.038745068 19516:0.038745068 19524:0.038745068 19622:0.022292474 19626:0.026015604 19629:0.020877007 19639:0.052031208 19647:0.038745068 19670:0.038745068 19711:0.032380335 19728:0.06476067 19737:0.038745068 19767:0.038745068 19804:0.038745068 19840:0.032380335 #
-0.078280206550059766579252595875005 52:0.024172707 57:0.042786598 91:0.024172707 117:0.038842559 121:0.028924134 177:0.028924134 206:0.048345413 226:0.028924134 279:0.024172707 291:0.028924134 370:0.016641874 377:0.028924134 392:0.038842559 418:0.016641874 436:0.038842559 437:0.028924134 448:0.028924134 499:0.028924134 509:0.048345413 548:0.048345413 570:0.028924134 594:0.028924134 599:0.028924134 603:0.033283748 644:0.028924134 660:0.048345413 670:0.016641874 679:0.028924134 680:0.028924134 701:0.028924134 707:0.028924134 718:0.038842559 743:0.016641874 748:0.028924134 780:0.028924134 803:0.028924134 813:0.024172707 823:0.028924134 840:0.048345413 862:0.048345413 867:0.048345413 869:0.028924134 894:0.038842559 913:0.024172707 957:0.028924134 967:0.028924134 993:0.028924134 998:0.024172707 1027:0.028924134 1063:0.028924134 1065:0.017891662 1169:0.048345413 1198:0.013140235 1207:0.028924134 1245:0.028924134 1252:0.024172707 1288:0.048345413 1297:0.028924134 1327:0.048345413 1329:0.028924134 1343:0.028924134 1357:0.028924134 1388:0.024172707 1409:0.028924134 1428:0.028924134 1430:0.024172707 1444:0.028924134 1494:0.028924134 1501:0.028924134 1509:0.028924134 1557:0.028924134 1572:0.016641874 1589:0.055449869 1609:0.028924134 1619:0.028924134 1649:0.028924134 1732:0.028924134 1774:0.028924134 1800:0.024172707 1817:0.028924134 1829:0.028924134 1863:0.028924134 1871:0.016641874 1918:0.028924134 1954:0.028924134 1976:0.028924134 1985:0.028924134 1999:0.028924134 2018:0.024172707 2051:0.028924134 2102:0.028924134 2153:0.028924134 2177:0.028924134 2186:0.028924134 2204:0.048345413 2226:0.028924134 2242:0.024172707 2255:0.024172707 2261:0.028924134 2265:0.016641874 2282:0.038842559 2303:0.028924134 2305:0.028924134 2306:0.028924134 2316:0.024172707 2368:0.028924134 2399:0.048345413 2428:0.028924134 2439:0.048345413 2472:0.048345413 2504:0.028924134 2551:0.028924134 2572:0.016641874 2575:0.028924134 2627:0.028924134 2630:0.048345413 2665:0.042786598 2670:0.028924134 2720:0.028924134 2730:0.028924134 2735:0.028924134 2800:0.028924134 2805:0.024172707 2847:0.028924134 2857:0.038842559 2863:0.028924134 2931:0.024172707 2982:0.028924134 2984:0.048345413 2987:0.048345413 3017:0.028924134 3024:0.028924134 3040:0.028924134 3099:0.028924134 3102:0.042786598 3115:0.048345413 3134:0.028924134 3197:0.028924134 3217:0.021393299 3224:0.028924134 3247:0.028924134 3286:0.016641874 3291:0.038842559 3354:0.038842559 3369:0.028924134 3373:0.024172707 3380:0.028924134 3389:0.024172707 3390:0.028924134 3427:0.028924134 3448:0.028924134 3467:0.048345413 3470:0.028924134 3477:0.048345413 3519:0.038842559 3568:0.048345413 3596:0.048345413 3624:0.028924134 3630:0.028924134 3648:0.028924134 3669:0.048345413 3686:0.028924134 3691:0.028924134 3761:0.013862467 3774:0.028924134 3784:0.028924134 3827:0.048345413 3831:0.048345413 3843:0.028924134 3869:0.048345413 3902:0.048345413 3924:0.05256094 3929:0.017891662 3932:0.028924134 3940:0.048345413 3968:0.048345413 3995:0.028924134 4030:0.028924134 4040:0.028924134 4081:0.028924134 4091:0.048345413 4098:0.028924134 4132:0.028924134 4162:0.028924134 4176:0.028924134 4195:0.028924134 4198:0.048345413 4218:0.028924134 4232:0.028924134 4252:0.024172707 4267:0.028924134 4268:0.028924134 4291:0.028924134 4316:0.028924134 4335:0.024172707 4353:0.028924134 4416:0.028924134 4427:0.048345413 4432:0.028924134 4438:0.028924134 4470:0.028924134 4499:0.048345413 4535:0.028924134 4561:0.024172707 4567:0.028924134 4572:0.028924134 4600:0.024172707 4607:0.028924134 4625:0.028924134 4627:0.028924134 4657:0.048345413 4668:0.028924134 4669:0.014669853 4676:0.048345413 4717:0.028924134 4738:0.028924134 4773:0.024172707 4815:0.028924134 4831:0.028924134 4859:0.028924134 4886:0.014669853 4905:0.028924134 4909:0.028924134 4989:0.028924134 5029:0.028924134 5048:0.024172707 5068:0.048345413 5089:0.028924134 5133:0.028924134 5161:0.028924134 5210:0.028924134 5227:0.024172707 5229:0.021393299 5350:0.048345413 5354:0.042786598 5385:0.024172707 5476:0.028924134 5490:0.028924134 5517:0.028924134 5549:0.028924134 5553:0.048345413 5566:0.028924134 5609:0.028924134 5617:0.028924134 5654:0.048345413 5699:0.028924134 5725:0.028924134 5729:0.028924134 5735:0.042786598 5762:0.013140235 5764:0.028924134 5771:0.028924134 5781:0.014669853 5795:0.028924134 5843:0.028924134 5900:0.028924134 5915:0.048345413 5929:0.024172707 5934:0.058263838 5967:0.028924134 6008:0.028924134 6020:0.028924134 6022:0.028924134 6024:0.048345413 6034:0.028924134 6090:0.028924134 6108:0.028924134 6116:0.028924134 6122:0.028924134 6128:0.028924134 6136:0.028924134 6163:0.028924134 6174:0.048345413 6184:0.028924134 6211:0.024172707 6223:0.024172707 6236:0.028924134 6263:0.028924134 6295:0.048345413 6326:0.028924134 6365:0.016641874 6370:0.048345413 6381:0.028924134 6408:0.028924134 6439:0.028924134 6455:0.024172707 6480:0.024172707 6490:0.028924134 6514:0.028924134 6532:0.066567495 6560:0.024172707 6567:0.024172707 6581:0.028924134 6622:0.028924134 6642:0.028924134 6658:0.028924134 6682:0.014669853 6711:0.048345413 6721:0.028924134 6742:0.028924134 6768:0.024172707 6786:0.028924134 6836:0.028924134 6863:0.024172707 6870:0.038842559 6913:0.038842559 6928:0.048345413 6931:0.028924134 6945:0.028924134 6950:0.028924134 6956:0.016641874 6961:0.028924134 6962:0.024172707 6964:0.028924134 6965:0.028924134 7003:0.028924134 7030:0.024172707 7034:0.017891662 7057:0.028924134 7077:0.024172707 7090:0.024172707 7104:0.028924134 7112:0.028924134 7115:0.028924134 7144:0.028924134 7145:0.048345413 7190:0.048345413 7214:0.028924134 7220:0.028924134 7222:0.028924134 7231:0.013140235 7254:0.028924134 7295:0.028924134 7314:0.048345413 7329:0.028924134 7338:0.028924134 7355:0.028924134 7376:0.028924134 7382:0.028924134 7388:0.028924134 7407:0.024172707 7423:0.028924134 7477:0.048345413 7492:0.028924134 7493:0.024172707 7526:0.028924134 7528:0.048345413 7542:0.028924134 7551:0.038842559 7571:0.041587401 7585:0.028924134 7613:0.048345413 7654:0.016641874 7669:0.028924134 7686:0.028924134 7706:0.028924134 7731:0.048345413 7761:0.028924134 7762:0.028924134 7816:0.024172707 7828:0.038842559 7863:0.028924134 7889:0.028924134 7900:0.028924134 7945:0.028924134 7976:0.038842559 7998:0.028924134 8007:0.024172707 8028:0.028924134 8031:0.048345413 8033:0.064179897 8044:0.028924134 8059:0.028924134 8132:0.028924134 8167:0.024172707 8205:0.048345413 8215:0.028924134 8242:0.028924134 8257:0.028924134 8266:0.028924134 8285:0.028924134 8338:0.016641874 8344:0.028924134 8353:0.038842559 8379:0.048345413 8386:0.028924134 8388:0.048345413 8407:0.028924134 8414:0.048345413 8432:0.028924134 8441:0.028924134 8482:0.024172707 8487:0.028924134 8489:0.024172707 8621:0.042786598 8650:0.048345413 8756:0.028924134 8808:0.048345413 8857:0.028924134 8885:0.024172707 8886:0.024172707 8892:0.028924134 8898:0.028924134 8907:0.028924134 8937:0.028924134 8966:0.048345413 8997:0.028924134 9022:0.028924134 9072:0.024172707 9091:0.028924134 9120:0.028924134 9129:0.028924134 9215:0.028924134 9253:0.028924134 9266:0.024172707 9302:0.048345413 9314:0.028924134 9320:0.028924134 9338:0.048345413 9402:0.028924134 9426:0.042786598 9435:0.028924134 9466:0.016641874 9476:0.028924134 9491:0.028924134 9567:0.033283748 9574:0.048345413 9604:0.028924134 9607:0.028924134 9628:0.016641874 9636:0.044009559 9645:0.016641874 9672:0.028924134 9676:0.028924134 9681:0.028924134 9696:0.028924134 9722:0.028924134 9737:0.028924134 9787:0.06234077 9812:0.042786598 9825:0.028924134 9905:0.042786598 9909:0.028924134 9914:0.024172707 9985:0.028924134 9986:0.038842559 10008:0.048345413 10021:0.024172707 10039:0.028924134 10043:0.028924134 10089:0.028924134 10136:0.028924134 10218:0.016641874 10286:0.013140235 10317:0.016641874 10343:0.028924134 10365:0.048345413 10375:0.048345413 10395:0.028924134 10400:0.024172707 10403:0.028924134 10414:0.024172707 10434:0.024172707 10451:0.028924134 10496:0.028924134 10555:0.028924134 10643:0.028924134 10651:0.028924134 10662:0.028924134 10705:0.048345413 10707:0.042786598 10771:0.028924134 10790:0.028924134 10900:0.028924134 10904:0.016641874 10906:0.028924134 10942:0.038842559 10980:0.028924134 10991:0.048345413 11021:0.017891662 11034:0.048345413 11045:0.028924134 11049:0.048345413 11076:0.028924134 11096:0.028924134 11097:0.028924134 11123:0.028924134 11157:0.028924134 11165:0.028924134 11187:0.028924134 11201:0.038842559 11236:0.013862467 11237:0.028924134 11251:0.038842559 11281:0.028924134 11308:0.024172707 11310:0.042786598 11317:0.028924134 11328:0.028924134 11345:0.028924134 11349:0.028924134 11356:0.048345413 11374:0.028924134 11381:0.016641874 11468:0.038842559 11490:0.048345413 11533:0.028924134 11543:0.028924134 11558:0.028924134 11581:0.028924134 11583:0.048345413 11586:0.028924134 11598:0.028924134 11645:0.016641874 11648:0.028924134 11680:0.028924134 11694:0.028924134 11716:0.028924134 11718:0.024172707 11742:0.024172707 11751:0.048345413 11754:0.028924134 11821:0.038842559 11827:0.014669853 11832:0.028924134 11945:0.038842559 11963:0.024172707 11981:0.015585192 12004:0.028924134 12019:0.028924134 12025:0.028924134 12030:0.028924134 12046:0.028924134 12056:0.016641874 12081:0.028924134 12084:0.024172707 12103:0.024172707 12106:0.048345413 12114:0.048345413 12130:0.048345413 12144:0.028924134 12145:0.048345413 12149:0.024172707 12165:0.024172707 12176:0.028924134 12180:0.024172707 12192:0.028924134 12237:0.028924134 12276:0.028924134 12333:0.038842559 12360:0.028924134 12408:0.024172707 12463:0.048345413 12466:0.028924134 12494:0.028924134 12505:0.048345413 12526:0.028924134 12581:0.024172707 12607:0.024172707 12618:0.028924134 12622:0.038842559 12665:0.016641874 12688:0.024172707 12690:0.048345413 12693:0.024172707 12719:0.048345413 12725:0.013862467 12730:0.038842559 12739:0.028924134 12758:0.048345413 12777:0.028924134 12800:0.015585192 12805:0.024172707 12809:0.042786598 12827:0.024172707 12839:0.028924134 12855:0.048345413 12886:0.028924134 12896:0.028924134 12910:0.028924134 12944:0.028924134 12945:0.028924134 12948:0.028924134 13007:0.028924134 13061:0.028924134 13082:0.013862467 13090:0.028924134 13091:0.048345413 13122:0.024172707 13123:0.028924134 13143:0.028924134 13145:0.024172707 13148:0.028924134 13152:0.028924134 13161:0.016641874 13182:0.028924134 13189:0.024172707 13192:0.048345413 13213:0.028924134 13266:0.048345413 13272:0.028924134 13285:0.014669853 13292:0.028924134 13310:0.028924134 13311:0.048345413 13388:0.038842559 13412:0.024172707 13435:0.048345413 13451:0.028924134 13452:0.028924134 13480:0.028924134 13485:0.048345413 13491:0.042786598 13505:0.028924134 13527:0.024172707 13563:0.028924134 13573:0.048345413 13579:0.028924134 13587:0.028924134 13591:0.048345413 13654:0.028924134 13655:0.048345413 13660:0.042786598 13671:0.028924134 13692:0.028924134 13703:0.028924134 13716:0.048345413 13723:0.028924134 13758:0.028924134 13767:0.048345413 13785:0.013862467 13791:0.028924134 13800:0.024172707 13816:0.024172707 13819:0.048345413 13827:0.033283748 13878:0.014669853 13892:0.028924134 13962:0.038842559 13967:0.048345413 14014:0.058263838 14046:0.048345413 14103:0.028924134 14158:0.048345413 14159:0.024172707 14202:0.028924134 14211:0.028924134 14234:0.016641874 14240:0.028924134 14241:0.028924134 14243:0.028924134 14244:0.028924134 14247:0.028924134 14249:0.033283748 14258:0.048345413 14318:0.048345413 14344:0.024172707 14365:0.028924134 14380:0.016641874 14382:0.028924134 14407:0.038842559 14442:0.016641874 14445:0.028924134 14451:0.048345413 14469:0.019421279 14493:0.014669853 14512:0.028924134 14545:0.048345413 14547:0.028924134 14556:0.028924134 14581:0.028924134 14594:0.028924134 14606:0.028924134 14640:0.028924134 14644:0.042786598 14649:0.016641874 14721:0.048345413 14726:0.028924134 14731:0.028924134 14749:0.038842559 14843:0.042786598 14845:0.028924134 14866:0.028924134 14877:0.048345413 14882:0.028924134 14913:0.028924134 14940:0.028924134 14982:0.035783324 15013:0.048345413 15014:0.028924134 15022:0.028924134 15036:0.028924134 15079:0.016641874 15084:0.028924134 15196:0.024172707 15227:0.028924134 15304:0.028924134 15305:0.048345413 15329:0.028924134 15381:0.038842559 15387:0.028924134 15423:0.024172707 15438:0.028924134 15440:0.028924134 15441:0.042786598 15448:0.028924134 15458:0.028924134 15485:0.028924134 15510:0.028924134 15526:0.014669853 15536:0.028924134 15548:0.048345413 15570:0.028924134 15577:0.027724935 15619:0.028924134 15621:0.028924134 15659:0.048345413 15716:0.028924134 15721:0.024172707 15804:0.048345413 15838:0.014669853 15852:0.028924134 15877:0.028924134 15889:0.028924134 15902:0.028924134 15926:0.028924134 15952:0.014669853 15986:0.028924134 15996:0.028924134 16125:0.028924134 16169:0.028924134 16202:0.024172707 16208:0.028924134 16210:0.028924134 16211:0.048345413 16218:0.028924134 16235:0.048345413 16248:0.028924134 16267:0.048345413 16298:0.048345413 16321:0.028924134 16350:0.028924134 16366:0.038842559 16375:0.024172707 16379:0.013862467 16390:0.048345413 16397:0.028924134 16401:0.028924134 16412:0.048345413 16426:0.028924134 16473:0.028924134 16477:0.038842559 16506:0.048345413 16514:0.048345413 16515:0.016641874 16546:0.048345413 16547:0.024172707 16551:0.028924134 16587:0.028924134 16640:0.028924134 16649:0.048345413 16660:0.033283748 16675:0.028924134 16707:0.028924134 16714:0.028924134 16744:0.048345413 16767:0.024172707 16772:0.028924134 16783:0.048345413 16834:0.028924134 16835:0.028924134 16845:0.048345413 16849:0.028924134 16876:0.028924134 16880:0.024172707 16900:0.024172707 16928:0.048345413 16942:0.048345413 16947:0.028924134 16971:0.028924134 16980:0.048345413 16992:0.028924134 17019:0.028924134 17024:0.028924134 17086:0.028924134 17093:0.038842559 17107:0.028924134 17116:0.028924134 17129:0.024172707 17164:0.028924134 17197:0.048345413 17230:0.028924134 17237:0.048345413 17256:0.028924134 17264:0.028924134 17265:0.016641874 17282:0.048345413 17341:0.028924134 17383:0.028924134 17411:0.038842559 17442:0.028924134 17451:0.048345413 17456:0.028924134 17473:0.028924134 17493:0.024172707 17501:0.028924134 17548:0.016641874 17599:0.028924134 17642:0.016641874 17645:0.028924134 17659:0.028924134 17666:0.048345413 17685:0.024172707 17702:0.048345413 17715:0.028924134 17719:0.048345413 17758:0.015585192 17786:0.028924134 17788:0.028924134 17799:0.024172707 17802:0.013140235 17805:0.028924134 17806:0.028924134 17818:0.028924134 17822:0.028924134 17828:0.048345413 17871:0.028924134 17880:0.028924134 17902:0.028924134 17908:0.028924134 17912:0.048345413 17917:0.028924134 17919:0.048345413 17947:0.016641874 17951:0.024172707 17952:0.028924134 17971:0.048345413 17975:0.088019118 18000:0.028924134 18023:0.028924134 18028:0.028924134 18029:0.028924134 18030:0.028924134 18044:0.038842559 18097:0.028924134 18104:0.028924134 18151:0.028924134 18247:0.017891662 18265:0.024172707 18290:0.024172707 18344:0.028924134 18353:0.038842559 18354:0.028924134 18379:0.028924134 18380:0.048345413 18426:0.088019118 18446:0.024172707 18485:0.028924134 18504:0.028924134 18569:0.015585192 18572:0.048345413 18578:0.028924134 18598:0.028924134 18633:0.028924134 18642:0.028924134 18643:0.028924134 18654:0.028924134 18681:0.048345413 18738:0.028924134 18751:0.028924134 18762:0.028924134 18789:0.024172707 18795:0.028924134 18814:0.028924134 18832:0.048345413 18843:0.028924134 18881:0.024172707 18902:0.048345413 18903:0.024172707 18913:0.028924134 18984:0.048345413 19018:0.028924134 19024:0.028924134 19046:0.038842559 19064:0.028924134 19098:0.024172707 19165:0.024172707 19219:0.024172707 19255:0.028924134 19290:0.028924134 19291:0.013862467 19329:0.028924134 19349:0.048345413 19351:0.028924134 19352:0.028924134 19392:0.014669853 19453:0.028924134 19468:0.028924134 19520:0.028924134 19521:0.028924134 19523:0.024172707 19536:0.024172707 19552:0.028924134 19553:0.028924134 19557:0.028924134 19558:0.024172707 19574:0.028924134 19611:0.024172707 19620:0.028924134 19622:0.016641874 19624:0.028924134 19639:0.038842559 19683:0.048345413 19717:0.048345413 19842:0.024172707 19844:0.048345413 #
-0.054889450875503884019757094847591 98:0.057011176 108:0.088424601 254:0.052902743 279:0.0442123 344:0.035521857 370:0.030438276 387:0.0442123 418:0.030438276 436:0.071043715 643:0.052902743 670:0.030438276 719:0.052902743 743:0.030438276 751:0.052902743 814:0.052902743 936:0.052902743 980:0.052902743 1025:0.032724161 1065:0.032724161 1134:0.052902743 1160:0.039128717 1162:0.052902743 1198:0.02403372 1252:0.0442123 1273:0.052902743 1388:0.0442123 1426:0.052902743 1430:0.0442123 1554:0.052902743 1559:0.052902743 1572:0.030438276 1586:0.052902743 1742:0.0442123 1764:0.0442123 1839:0.052902743 1855:0.052902743 1871:0.030438276 1886:0.052902743 1981:0.052902743 2175:0.052902743 2257:0.052902743 2265:0.030438276 2267:0.052902743 2282:0.071043715 2341:0.052902743 2396:0.02403372 2440:0.052902743 2572:0.030438276 2663:0.052902743 2689:0.052902743 2821:0.052902743 2931:0.0442123 3027:0.028505588 3028:0.052902743 3049:0.052902743 3071:0.052902743 3105:0.052902743 3135:0.088424601 3143:0.052902743 3149:0.052902743 3205:0.052902743 3242:0.052902743 3286:0.030438276 3291:0.071043715 3373:0.0442123 3400:0.025354693 3424:0.052902743 3447:0.052902743 3551:0.052902743 3616:0.052902743 3702:0.030438276 3705:0.052902743 3707:0.052902743 3761:0.025354693 3803:0.052902743 3929:0.032724161 3951:0.052902743 3990:0.052902743 4203:0.052902743 4207:0.052902743 4317:0.052902743 4335:0.0442123 4364:0.052902743 4393:0.052902743 4431:0.052902743 4600:0.0442123 4608:0.052902743 4669:0.026831416 4725:0.088424601 4758:0.052902743 4773:0.0442123 4851:0.052902743 4886:0.026831416 4958:0.052902743 4980:0.052902743 5046:0.052902743 5048:0.0442123 5061:0.052902743 5106:0.052902743 5229:0.039128717 5234:0.052902743 5324:0.052902743 5327:0.052902743 5328:0.052902743 5385:0.0442123 5392:0.052902743 5454:0.052902743 5504:0.052902743 5646:0.052902743 5648:0.052902743 5695:0.052902743 5762:0.02403372 5781:0.026831416 5857:0.052902743 5929:0.0442123 5930:0.052902743 5938:0.052902743 6017:0.052902743 6023:0.052902743 6041:0.052902743 6365:0.030438276 6378:0.052902743 6389:0.052902743 6407:0.088424601 6446:0.035521857 6519:0.052902743 6567:0.0442123 6596:0.052902743 6659:0.052902743 6682:0.026831416 6764:0.032724161 6863:0.0442123 6870:0.071043715 6904:0.052902743 6907:0.052902743 6956:0.030438276 6962:0.0442123 7047:0.052902743 7077:0.0442123 7218:0.052902743 7231:0.02403372 7306:0.052902743 7369:0.052902743 7540:0.052902743 7571:0.07606408 7654:0.030438276 7741:0.052902743 7823:0.052902743 7960:0.052902743 8002:0.052902743 8018:0.052902743 8024:0.02403372 8055:0.052902743 8060:0.052902743 8091:0.0442123 8298:0.052902743 8338:0.030438276 8357:0.039128717 8378:0.052902743 8445:0.052902743 8454:0.052902743 8460:0.11402235 8482:0.0442123 8504:0.052902743 8638:0.052902743 8639:0.052902743 8643:0.0442123 8813:0.028505588 8834:0.052902743 8876:0.052902743 8886:0.0442123 8905:0.052902743 8995:0.052902743 9128:0.0442123 9207:0.052902743 9466:0.030438276 9489:0.11738615 9564:0.052902743 9567:0.060876552 9602:0.052902743 9603:0.052902743 9621:0.052902743 9628:0.030438276 9636:0.080494247 9645:0.030438276 9867:0.052902743 9896:0.052902743 9914:0.0442123 9938:0.052902743 10065:0.052902743 10085:0.052902743 10253:0.052902743 10260:0.052902743 10286:0.02403372 10298:0.052902743 10311:0.052902743 10317:0.030438276 10397:0.028505588 10408:0.052902743 10434:0.0442123 10518:0.052902743 10616:0.052902743 10617:0.039128717 10668:0.052902743 10681:0.039128717 10698:0.052902743 10743:0.052902743 10767:0.088424601 10849:0.052902743 10904:0.030438276 10958:0.0442123 11058:0.052902743 11070:0.052902743 11095:0.052902743 11161:0.052902743 11184:0.052902743 11239:0.052902743 11262:0.052902743 11381:0.030438276 11399:0.052902743 11427:0.0442123 11477:0.052902743 11563:0.052902743 11584:0.052902743 11593:0.052902743 11610:0.052902743 11645:0.030438276 11681:0.052902743 11719:0.088424601 11731:0.052902743 11821:0.071043715 11827:0.026831416 11981:0.028505588 12006:0.052902743 12056:0.030438276 12084:0.0442123 12085:0.052902743 12128:0.052902743 12133:0.052902743 12148:0.052902743 12149:0.0442123 12163:0.0442123 12228:0.052902743 12298:0.052902743 12333:0.071043715 12337:0.052902743 12344:0.052902743 12370:0.030438276 12408:0.0442123 12443:0.052902743 12581:0.0442123 12665:0.030438276 12725:0.025354693 12800:0.028505588 12805:0.0442123 12827:0.0442123 12853:0.052902743 12955:0.052902743 13082:0.025354693 13086:0.035521857 13102:0.052902743 13122:0.0442123 13161:0.030438276 13285:0.026831416 13314:0.052902743 13344:0.052902743 13349:0.052902743 13506:0.052902743 13508:0.052902743 13594:0.028505588 13688:0.052902743 13717:0.052902743 13785:0.025354693 13816:0.0442123 13837:0.052902743 13878:0.026831416 13898:0.052902743 14084:0.0442123 14098:0.052902743 14121:0.052902743 14159:0.0442123 14234:0.030438276 14236:0.052902743 14249:0.060876552 14304:0.0442123 14380:0.030438276 14387:0.052902743 14442:0.030438276 14469:0.035521857 14493:0.026831416 14498:0.052902743 14500:0.088424601 14537:0.052902743 14559:0.052902743 14588:0.052902743 14601:0.039128717 14649:0.030438276 14659:0.052902743 14727:0.052902743 14729:0.039128717 14741:0.052902743 14778:0.052902743 14856:0.052902743 14868:0.025354693 14960:0.052902743 15033:0.060876552 15039:0.052902743 15053:0.052902743 15059:0.052902743 15079:0.030438276 15149:0.02403372 15315:0.052902743 15353:0.032724161 15381:0.071043715 15423:0.0442123 15473:0.052902743 15511:0.052902743 15526:0.026831416 15761:0.052902743 15838:0.026831416 15901:0.052902743 15903:0.052902743 15952:0.026831416 15959:0.052902743 15991:0.0442123 16015:0.052902743 16037:0.088424601 16134:0.052902743 16198:0.052902743 16270:0.052902743 16319:0.052902743 16366:0.071043715 16375:0.0442123 16379:0.025354693 16437:0.052902743 16477:0.071043715 16515:0.030438276 16525:0.0442123 16653:0.052902743 16705:0.052902743 16822:0.052902743 16880:0.0442123 17158:0.052902743 17265:0.030438276 17303:0.052902743 17420:0.052902743 17435:0.052902743 17493:0.0442123 17548:0.030438276 17607:0.052902743 17642:0.030438276 17682:0.052902743 17688:0.052902743 17718:0.052902743 17731:0.035521857 17758:0.028505588 17799:0.0442123 17802:0.02403372 17869:0.052902743 17927:0.052902743 17947:0.030438276 17959:0.052902743 18192:0.052902743 18217:0.052902743 18247:0.032724161 18290:0.0442123 18299:0.052902743 18334:0.052902743 18338:0.052902743 18342:0.030438276 18353:0.071043715 18357:0.052902743 18446:0.0442123 18527:0.052902743 18569:0.028505588 18685:0.052902743 18779:0.052902743 18798:0.052902743 18881:0.0442123 18922:0.052902743 18994:0.088424601 19046:0.071043715 19130:0.052902743 19241:0.052902743 19245:0.052902743 19291:0.025354693 19308:0.052902743 19331:0.052902743 19392:0.026831416 19394:0.052902743 19438:0.052902743 19523:0.0442123 19536:0.0442123 19547:0.052902743 19558:0.0442123 19616:0.052902743 19622:0.030438276 19638:0.052902743 19842:0.0442123 #
-0.043707934295930200851998392863607 9:0.052605975 57:0.038909215 117:0.070645183 159:0.087928563 171:0.087928563 195:0.052605975 224:0.052605975 240:0.052605975 283:0.052605975 304:0.052605975 365:0.052605975 368:0.052605975 370:0.030267525 408:0.052605975 418:0.030267525 449:0.052605975 476:0.052605975 670:0.030267525 718:0.070645183 743:0.030267525 836:0.052605975 868:0.043964282 884:0.052605975 913:0.043964282 925:0.052605975 998:0.043964282 1114:0.052605975 1198:0.023898898 1284:0.0266809 1366:0.052605975 1498:0.043964282 1572:0.030267525 1610:0.052605975 1715:0.052605975 1749:0.052605975 1800:0.043964282 1804:0.052605975 1859:0.052605975 1871:0.030267525 1879:0.077818431 1890:0.052605975 1946:0.052605975 1973:0.052605975 2001:0.0266809 2018:0.043964282 2032:0.052605975 2105:0.052605975 2113:0.052605975 2242:0.043964282 2255:0.043964282 2265:0.030267525 2316:0.043964282 2339:0.052605975 2416:0.052605975 2417:0.060535051 2429:0.052605975 2435:0.052605975 2510:0.052605975 2511:0.052605975 2562:0.052605975 2572:0.030267525 2726:0.052605975 2737:0.052605975 2812:0.052605975 3019:0.052605975 3076:0.052605975 3158:0.043964282 3221:0.052605975 3254:0.052605975 3286:0.030267525 3438:0.052605975 3675:0.052605975 3716:0.052605975 3761:0.025212461 3878:0.052605975 3924:0.047797795 3998:0.052605975 4080:0.052605975 4099:0.035322592 4139:0.052605975 4386:0.052605975 4560:0.052605975 4669:0.0266809 4705:0.035322592 4713:0.052605975 4757:0.052605975 4765:0.052605975 4811:0.052605975 4816:0.052605975 4886:0.0266809 4906:0.052605975 4918:0.052605975 4935:0.052605975 5012:0.052605975 5227:0.043964282 5298:0.11672765 5397:0.052605975 5398:0.052605975 5399:0.052605975 5413:0.052605975 5455:0.052605975 5541:0.052605975 5586:0.087928563 5710:0.052605975 5762:0.023898898 5781:0.0266809 5799:0.052605975 5890:0.038909215 5904:0.052605975 5923:0.052605975 5934:0.035322592 6011:0.052605975 6169:0.052605975 6211:0.043964282 6249:0.052605975 6320:0.052605975 6365:0.030267525 6431:0.052605975 6455:0.043964282 6480:0.043964282 6501:0.052605975 6505:0.052605975 6555:0.05669136 6560:0.043964282 6682:0.0266809 6756:0.052605975 6793:0.052605975 6869:0.052605975 6956:0.030267525 6978:0.052605975 6984:0.052605975 7009:0.077818431 7030:0.043964282 7061:0.087928563 7064:0.052605975 7090:0.043964282 7111:0.052605975 7193:0.11672765 7205:0.052605975 7206:0.035322592 7231:0.023898898 7358:0.052605975 7493:0.043964282 7552:0.052605975 7579:0.052605975 7654:0.030267525 7785:0.052605975 7816:0.043964282 7818:0.052605975 7828:0.070645183 7872:0.043964282 7930:0.052605975 8007:0.043964282 8015:0.052605975 8024:0.023898898 8236:0.052605975 8275:0.052605975 8335:0.052605975 8338:0.030267525 8353:0.070645183 8357:0.038909215 8456:0.052605975 8489:0.043964282 8520:0.052605975 8550:0.052605975 8602:0.052605975 8765:0.052605975 8804:0.0533618 8805:0.052605975 8885:0.043964282 8955:0.052605975 9092:0.052605975 9266:0.043964282 9288:0.052605975 9466:0.030267525 9539:0.052605975 9628:0.030267525 9645:0.030267525 9671:0.052605975 9783:0.052605975 9900:0.052605975 9905:0.038909215 10003:0.052605975 10007:0.052605975 10021:0.043964282 10187:0.052605975 10228:0.052605975 10286:0.023898898 10317:0.030267525 10323:0.052605975 10400:0.043964282 10414:0.043964282 10617:0.038909215 10811:0.052605975 10852:0.052605975 10904:0.030267525 10926:0.052605975 10942:0.070645183 10955:0.052605975 11014:0.052605975 11087:0.052605975 11094:0.052605975 11201:0.070645183 11207:0.052605975 11341:0.038909215 11353:0.052605975 11468:0.070645183 11485:0.052605975 11512:0.052605975 11578:0.052605975 11645:0.030267525 11718:0.043964282 11742:0.043964282 11768:0.052605975 11775:0.052605975 11827:0.0266809 11849:0.052605975 11863:0.052605975 11865:0.052605975 11933:0.052605975 11946:0.052605975 11955:0.052605975 11963:0.043964282 11981:0.02834568 12018:0.087928563 12056:0.030267525 12071:0.052605975 12100:0.052605975 12165:0.043964282 12172:0.038909215 12180:0.043964282 12259:0.052605975 12343:0.052605975 12370:0.030267525 12384:0.052605975 12476:0.052605975 12544:0.052605975 12592:0.052605975 12607:0.043964282 12609:0.052605975 12662:0.052605975 12665:0.030267525 12688:0.043964282 12693:0.043964282 12725:0.025212461 12730:0.070645183 12800:0.02834568 12822:0.052605975 12834:0.070645183 13046:0.052605975 13059:0.052605975 13082:0.025212461 13089:0.052605975 13145:0.043964282 13161:0.030267525 13189:0.043964282 13285:0.0266809 13388:0.070645183 13438:0.052605975 13517:0.052605975 13527:0.043964282 13549:0.052605975 13590:0.052605975 13594:0.02834568 13785:0.025212461 13795:0.052605975 13811:0.052605975 13878:0.0266809 14014:0.035322592 14053:0.052605975 14196:0.052605975 14234:0.030267525 14345:0.052605975 14358:0.052605975 14380:0.030267525 14407:0.070645183 14442:0.030267525 14493:0.0266809 14516:0.052605975 14587:0.052605975 14601:0.038909215 14649:0.030267525 14703:0.052605975 14749:0.070645183 14833:0.052605975 14942:0.087928563 15079:0.030267525 15119:0.052605975 15130:0.052605975 15171:0.052605975 15196:0.043964282 15214:0.050424922 15263:0.052605975 15373:0.052605975 15398:0.035322592 15526:0.0266809 15635:0.087928563 15654:0.052605975 15688:0.052605975 15721:0.043964282 15838:0.0266809 15859:0.03254059 15952:0.0266809 15953:0.052605975 15970:0.052605975 16083:0.052605975 16146:0.052605975 16150:0.052605975 16185:0.052605975 16202:0.043964282 16379:0.025212461 16442:0.038909215 16515:0.030267525 16543:0.052605975 16547:0.043964282 16627:0.052605975 16641:0.052605975 16709:0.052605975 16765:0.052605975 16767:0.043964282 16790:0.052605975 16813:0.077818431 16977:0.052605975 16987:0.025212461 17066:0.052605975 17093:0.070645183 17129:0.043964282 17265:0.030267525 17301:0.043964282 17347:0.052605975 17411:0.070645183 17548:0.030267525 17600:0.052605975 17642:0.030267525 17695:0.052605975 17714:0.052605975 17758:0.02834568 17773:0.052605975 17784:0.052605975 17802:0.023898898 17851:0.052605975 17909:0.052605975 17947:0.030267525 17951:0.043964282 17975:0.0533618 17981:0.052605975 18015:0.052605975 18044:0.070645183 18166:0.052605975 18173:0.052605975 18225:0.052605975 18265:0.043964282 18275:0.052605975 18317:0.052605975 18359:0.052605975 18374:0.087928563 18412:0.052605975 18426:0.0533618 18479:0.052605975 18495:0.052605975 18530:0.052605975 18541:0.052605975 18569:0.02834568 18690:0.052605975 18715:0.052605975 18747:0.052605975 18903:0.043964282 18929:0.052605975 18951:0.052605975 18995:0.052605975 19000:0.087928563 19022:0.052605975 19085:0.052605975 19098:0.043964282 19108:0.052605975 19165:0.043964282 19173:0.052605975 19184:0.052605975 19199:0.035322592 19219:0.043964282 19239:0.052605975 19256:0.087928563 19291:0.025212461 19392:0.0266809 19502:0.052605975 19508:0.052605975 19611:0.043964282 19622:0.030267525 19750:0.052605975 19815:0.052605975 19840:0.043964282 #
-0.03735914718469873080364251904939 66:0.04693364 207:0.04693364 209:0.04693364 287:0.039223757 289:0.04693364 331:0.04693364 370:0.027003877 418:0.027003877 440:0.04693364 557:0.078447513 670:0.027003877 710:0.081011631 743:0.027003877 747:0.078447513 903:0.04693364 1198:0.021321956 1200:0.04693364 1287:0.078447513 1317:0.04693364 1358:0.04693364 1486:0.04693364 1506:0.04693364 1572:0.027003877 1607:0.078447513 1639:0.04693364 1681:0.04693364 1811:0.04693364 1871:0.027003877 2023:0.095215939 2207:0.04693364 2246:0.04693364 2265:0.027003877 2313:0.10414129 2326:0.04693364 2327:0.04693364 2523:0.04693364 2532:0.04693364 2563:0.04693364 2572:0.027003877 2658:0.078447513 2684:0.04693364 2798:0.04693364 3037:0.078447513 3074:0.078447513 3077:0.10414129 3120:0.10414129 3286:0.027003877 3308:0.04693364 3310:0.04693364 3330:0.085287824 3738:0.078447513 3761:0.022493882 3918:0.04693364 3991:0.04693364 3999:0.04693364 4011:0.10414129 4033:0.078447513 4071:0.04693364 4306:0.078447513 4345:0.04693364 4467:0.078447513 4539:0.04693364 4583:0.10414129 4612:0.078447513 4642:0.04693364 4646:0.078447513 4669:0.023803985 4678:0.078447513 4737:0.04693364 4753:0.078447513 4772:0.078447513 4886:0.023803985 4916:0.078447513 4972:0.04693364 4986:0.04693364 5006:0.023803985 5014:0.10414129 5063:0.04693364 5276:0.078447513 5306:0.04693364 5421:0.04693364 5436:0.04693364 5525:0.078447513 5716:0.04693364 5762:0.021321956 5781:0.023803985 5788:0.04693364 5912:0.078447513 5977:0.078447513 5979:0.04693364 6006:0.078447513 6086:0.078447513 6353:0.10414129 6365:0.027003877 6461:0.04693364 6495:0.078447513 6546:0.04693364 6556:0.04693364 6641:0.078447513 6673:0.078447513 6682:0.023803985 6686:0.078447513 6763:0.039223757 6899:0.078447513 6933:0.078447513 6956:0.027003877 6980:0.04693364 7231:0.021321956 7239:0.04693364 7284:0.078447513 7383:0.078447513 7435:0.10414129 7486:0.10414129 7627:0.029031841 7654:0.027003877 7657:0.078447513 7783:0.078447513 7799:0.04693364 7876:0.04693364 7892:0.078447513 8171:0.04693364 8311:0.078447513 8338:0.027003877 8416:0.081011631 8462:0.078447513 8463:0.04693364 8634:0.04693364 8735:0.04693364 8751:0.04693364 8754:0.04693364 8820:0.078447513 8868:0.04693364 9083:0.078447513 9466:0.027003877 9478:0.04693364 9514:0.04693364 9581:0.04693364 9628:0.027003877 9645:0.027003877 9698:0.04693364 9827:0.04693364 10052:0.04693364 10078:0.04693364 10138:0.04693364 10233:0.04693364 10286:0.021321956 10317:0.027003877 10495:0.078447513 10535:0.04693364 10562:0.04693364 10682:0.078447513 10807:0.023803985 10904:0.027003877 10905:0.04693364 10918:0.078447513 11023:0.04693364 11069:0.078447513 11149:0.078447513 11152:0.04693364 11212:0.04693364 11531:0.078447513 11587:0.04693364 11645:0.027003877 11687:0.04693364 11721:0.078447513 11739:0.04693364 11822:0.078447513 11827:0.023803985 11921:0.078447513 11949:0.04693364 11981:0.025289256 11983:0.04693364 12027:0.04693364 12056:0.027003877 12064:0.04693364 12307:0.04693364 12381:0.078447513 12413:0.04693364 12500:0.04693364 12559:0.10414129 12583:0.078447513 12594:0.04693364 12665:0.027003877 12725:0.022493882 12737:0.078447513 12743:0.078447513 12800:0.025289256 12802:0.04693364 12923:0.04693364 12993:0.071411952 13077:0.078447513 13082:0.022493882 13161:0.027003877 13285:0.023803985 13548:0.04693364 13707:0.04693364 13785:0.022493882 13806:0.078447513 13878:0.023803985 13947:0.04693364 14123:0.04693364 14190:0.078447513 14206:0.04693364 14234:0.027003877 14333:0.04693364 14380:0.027003877 14442:0.027003877 14492:0.04693364 14493:0.023803985 14514:0.04693364 14536:0.039223757 14649:0.027003877 14661:0.04693364 14784:0.039223757 14803:0.04693364 14919:0.10414129 14949:0.04693364 14973:0.078447513 15050:0.078447513 15079:0.027003877 15357:0.078447513 15526:0.023803985 15638:0.078447513 15746:0.085287824 15781:0.078447513 15821:0.10414129 15838:0.023803985 15952:0.023803985 15967:0.04693364 16199:0.04693364 16201:0.04693364 16304:0.078447513 16308:0.078447513 16351:0.04693364 16379:0.022493882 16515:0.027003877 16529:0.078447513 16678:0.04693364 16746:0.04693364 16779:0.078447513 16886:0.04693364 16984:0.04693364 17210:0.078447513 17265:0.027003877 17434:0.078447513 17524:0.04693364 17548:0.027003877 17642:0.027003877 17706:0.078447513 17758:0.025289256 17802:0.021321956 17929:0.04693364 17937:0.10414129 17947:0.027003877 18053:0.04693364 18089:0.04693364 18163:0.04693364 18189:0.078447513 18271:0.04693364 18351:0.04693364 18494:0.078447513 18529:0.04693364 18547:0.10414129 18569:0.025289256 18592:0.04693364 18622:0.04693364 18651:0.04693364 18665:0.04693364 18809:0.078447513 18824:0.04693364 18830:0.04693364 18979:0.04693364 19047:0.10414129 19065:0.04693364 19078:0.089975528 19257:0.04693364 19267:0.04693364 19291:0.022493882 19321:0.04693364 19348:0.1666279 19392:0.023803985 19509:0.04693364 19622:0.027003877 19628:0.04693364 19756:0.04693364 19777:0.04693364 19802:0.04693364 19813:0.04693364 19817:0.04693364 19847:0.03471376 19848:0.023803985 #
-0.028242944633090041189893426576418 18:0.021244789 19:0.034344885 22:0.034344885 40:0.018506058 51:0.028702982 78:0.034344885 143:0.023061076 152:0.034344885 154:0.034344885 185:0.023061076 191:0.034344885 202:0.034344885 243:0.034344885 297:0.034344885 370:0.019760774 372:0.034344885 379:0.042489577 382:0.034344885 418:0.019760774 425:0.034344885 431:0.023061076 511:0.021244789 523:0.023061076 525:0.023061076 555:0.023061076 562:0.034344885 573:0.034344885 577:0.028702982 591:0.028702982 597:0.028702982 620:0.034344885 670:0.019760774 710:0.019760774 743:0.019760774 750:0.034344885 764:0.034344885 772:0.034344885 929:0.034344885 934:0.034344885 956:0.034344885 981:0.034344885 1083:0.034344885 1084:0.028702982 1087:0.023061076 1089:0.028702982 1106:0.034344885 1110:0.034344885 1146:0.034344885 1177:0.034344885 1189:0.023061076 1198:0.015602884 1199:0.034344885 1206:0.023061076 1212:0.028702982 1272:0.037012115 1294:0.046122152 1314:0.034344885 1320:0.034344885 1372:0.034344885 1376:0.034344885 1377:0.023061076 1392:0.034344885 1416:0.050805356 1453:0.023061076 1518:0.034344885 1544:0.034344885 1545:0.034344885 1564:0.028702982 1572:0.019760774 1587:0.034344885 1595:0.034344885 1608:0.034344885 1620:0.034344885 1624:0.034344885 1674:0.034344885 1693:0.034344885 1704:0.028702982 1711:0.046122152 1779:0.034344885 1782:0.034344885 1796:0.023061076 1805:0.034344885 1849:0.023061076 1864:0.034344885 1867:0.023061076 1871:0.019760774 1904:0.034344885 1908:0.023061076 1927:0.021244789 1974:0.023061076 2031:0.028702982 2044:0.028702982 2088:0.07620804 2172:0.023061076 2173:0.023061076 2183:0.034344885 2200:0.034344885 2219:0.023061076 2233:0.023061076 2265:0.019760774 2273:0.034344885 2274:0.034344885 2285:0.07620804 2286:0.028702982 2292:0.023061076 2314:0.016460471 2361:0.023061076 2364:0.034344885 2409:0.028702982 2417:0.019760774 2427:0.034344885 2445:0.019760774 2485:0.019760774 2493:0.034344885 2496:0.034344885 2505:0.034344885 2536:0.028702982 2570:0.034344885 2572:0.019760774 2573:0.023061076 2590:0.034344885 2595:0.028702982 2606:0.028702982 2613:0.034344885 2622:0.034344885 2624:0.034344885 2669:0.042489577 2695:0.034344885 2706:0.034344885 2708:0.028702982 2777:0.034344885 2779:0.028702982 2858:0.028702982 2884:0.019760774 2885:0.034344885 2924:0.034344885 2983:0.034838345 3022:0.034344885 3042:0.034344885 3051:0.034344885 3094:0.028702982 3102:0.025402678 3147:0.050805356 3152:0.034344885 3185:0.028702982 3198:0.034344885 3226:0.028702982 3284:0.021244789 3286:0.019760774 3319:0.018506058 3349:0.034344885 3366:0.034344885 3379:0.034344885 3388:0.023061076 3409:0.023061076 3451:0.034344885 3464:0.028702982 3475:0.042489577 3483:0.028702982 3486:0.034344885 3508:0.034344885 3563:0.028702982 3564:0.034344885 3615:0.023061076 3622:0.034344885 3632:0.034344885 3715:0.028702982 3743:0.034344885 3761:0.032920942 3777:0.023061076 3780:0.034344885 3823:0.034344885 3835:0.034344885 3846:0.034344885 3855:0.042489577 3858:0.034344885 3917:0.023061076 3930:0.034344885 3945:0.028702982 4009:0.025402678 4086:0.034344885 4136:0.034344885 4147:0.034344885 4148:0.023061076 4149:0.034344885 4161:0.023061076 4172:0.018506058 4214:0.028702982 4229:0.034344885 4269:0.034344885 4270:0.028702982 4290:0.034344885 4293:0.028702982 4299:0.034344885 4300:0.028702982 4313:0.034344885 4323:0.034344885 4327:0.034344885 4455:0.034344885 4456:0.025402678 4486:0.034344885 4490:0.017419172 4492:0.034344885 4515:0.034838345 4516:0.034344885 4532:0.034344885 4569:0.034344885 4638:0.019760774 4669:0.034838345 4714:0.034344885 4716:0.034344885 4721:0.034344885 4745:0.034344885 4767:0.034344885 4780:0.034344885 4812:0.034344885 4837:0.034344885 4841:0.028702982 4845:0.028702982 4856:0.034344885 4857:0.034344885 4886:0.017419172 4896:0.034344885 4911:0.025402678 4913:0.034344885 4939:0.023061076 4988:0.034344885 4990:0.042489577 5030:0.025402678 5049:0.034344885 5071:0.028702982 5101:0.034344885 5122:0.034344885 5149:0.034344885 5167:0.034344885 5184:0.034344885 5222:0.034344885 5224:0.034344885 5287:0.028702982 5368:0.034344885 5434:0.034344885 5435:0.057405964 5447:0.028702982 5453:0.034344885 5479:0.034344885 5505:0.034344885 5516:0.028702982 5545:0.034344885 5546:0.034344885 5565:0.023061076 5583:0.034344885 5589:0.034344885 5596:0.034344885 5682:0.034344885 5697:0.057405964 5704:0.034344885 5720:0.034344885 5747:0.034344885 5753:0.034344885 5762:0.015602884 5781:0.034838345 5797:0.034344885 5818:0.023061076 5820:0.034344885 5830:0.034344885 5833:0.034344885 5837:0.034344885 5856:0.019760774 5867:0.034344885 5881:0.023061076 5939:0.034344885 5988:0.034344885 6028:0.023061076 6037:0.034344885 6060:0.019760774 6094:0.034344885 6102:0.023061076 6141:0.023061076 6161:0.023061076 6168:0.034344885 6178:0.023061076 6186:0.034344885 6199:0.023061076 6209:0.034344885 6246:0.023061076 6251:0.057405964 6279:0.025402678 6301:0.084979154 6312:0.028702982 6363:0.028702982 6365:0.019760774 6368:0.10622395 6371:0.034344885 6376:0.023061076 6384:0.023061076 6412:0.034344885 6452:0.034344885 6472:0.034344885 6473:0.028702982 6510:0.034344885 6548:0.057405964 6562:0.034344885 6563:0.034344885 6565:0.025402678 6586:0.028702982 6602:0.034344885 6615:0.034344885 6682:0.017419172 6724:0.034344885 6727:0.034344885 6730:0.034344885 6746:0.034344885 6770:0.034344885 6787:0.021244789 6811:0.034344885 6815:0.057405964 6816:0.019760774 6824:0.028702982 6840:0.023061076 6884:0.025402678 6890:0.023061076 6914:0.034344885 6917:0.034344885 6936:0.028702982 6956:0.019760774 6985:0.023061076 7021:0.034344885 7040:0.034344885 7043:0.023061076 7072:0.034344885 7075:0.034344885 7088:0.034344885 7143:0.034344885 7165:0.028702982 7194:0.034344885 7198:0.034344885 7230:0.034344885 7231:0.015602884 7235:0.034344885 7256:0.023061076 7391:0.034344885 7411:0.034344885 7425:0.034344885 7433:0.028702982 7470:0.034344885 7522:0.028702982 7532:0.023061076 7538:0.034344885 7565:0.028702982 7593:0.028702982 7612:0.034344885 7622:0.034344885 7628:0.025402678 7631:0.034344885 7640:0.034344885 7645:0.034344885 7650:0.023061076 7654:0.019760774 7667:0.028702982 7689:0.057405964 7698:0.023061076 7701:0.034344885 7705:0.034344885 7714:0.034344885 7725:0.028702982 7756:0.034344885 7800:0.034344885 7814:0.034344885 7815:0.018506058 7830:0.034344885 7881:0.034344885 7893:0.025402678 7908:0.057405964 7913:0.034344885 7921:0.025402678 7922:0.023061076 7935:0.023061076 7946:0.034344885 7947:0.034344885 7981:0.023061076 7997:0.034344885 8004:0.034344885 8011:0.034344885 8026:0.034344885 8077:0.034344885 8081:0.034344885 8107:0.034344885 8108:0.034344885 8113:0.023061076 8116:0.023061076 8185:0.034344885 8187:0.021244789 8197:0.034344885 8204:0.034344885 8273:0.034344885 8322:0.034344885 8338:0.019760774 8361:0.034344885 8381:0.023061076 8443:0.034344885 8459:0.028702982 8472:0.034344885 8484:0.034344885 8511:0.034344885 8514:0.034344885 8544:0.034344885 8551:0.034344885 8553:0.023061076 8580:0.023061076 8593:0.034344885 8607:0.023061076 8619:0.028702982 8644:0.034344885 8653:0.034344885 8656:0.034344885 8657:0.028702982 8665:0.023061076 8667:0.028702982 8692:0.034344885 8707:0.042489577 8720:0.023061076 8729:0.028702982 8758:0.023061076 8763:0.034344885 8782:0.034344885 8807:0.034344885 8816:0.023061076 8825:0.034344885 8830:0.07620804 8855:0.034344885 8872:0.034344885 8989:0.023061076 9067:0.034344885 9078:0.023061076 9097:0.034344885 9100:0.034344885 9112:0.034344885 9136:0.034344885 9148:0.028702982 9243:0.034344885 9246:0.057405964 9247:0.034344885 9295:0.028702982 9317:0.034344885 9414:0.034344885 9424:0.034344885 9460:0.028702982 9466:0.019760774 9485:0.034344885 9531:0.023061076 9568:0.057405964 9572:0.034344885 9578:0.028702982 9619:0.028702982 9624:0.034344885 9628:0.019760774 9645:0.019760774 9701:0.034344885 9718:0.028702982 9730:0.028702982 9742:0.034344885 9743:0.042489577 9785:0.034344885 9812:0.025402678 9818:0.057405964 9887:0.023061076 9907:0.034344885 9937:0.028702982 9940:0.034344885 9945:0.023061076 9990:0.023061076 9995:0.034344885 10012:0.034344885 10013:0.034344885 10024:0.028702982 10090:0.034344885 10100:0.034344885 10132:0.028702982 10141:0.034344885 10162:0.034344885 10182:0.034344885 10184:0.034344885 10196:0.034344885 10212:0.034344885 10231:0.023061076 10236:0.034344885 10266:0.034344885 10284:0.021244789 10286:0.015602884 10317:0.019760774 10320:0.034344885 10348:0.034838345 10349:0.023061076 10394:0.042489577 10415:0.028702982 10436:0.034344885 10437:0.019760774 10454:0.034344885 10466:0.028702982 10479:0.021244789 10503:0.023061076 10506:0.042489577 10545:0.034344885 10575:0.034344885 10592:0.07620804 10593:0.023061076 10609:0.034344885 10670:0.034344885 10691:0.028702982 10699:0.023061076 10770:0.028702982 10773:0.034344885 10831:0.021244789 10864:0.028702982 10866:0.034344885 10883:0.028702982 10885:0.034344885 10889:0.023061076 10904:0.019760774 10911:0.028702982 10935:0.028702982 10960:0.023061076 10972:0.021244789 10993:0.034344885 11005:0.028702982 11017:0.042489577 11043:0.028702982 11055:0.028702982 11075:0.028702982 11121:0.034344885 11170:0.034344885 11196:0.028702982 11241:0.034344885 11245:0.057405964 11246:0.034344885 11248:0.034344885 11270:0.034344885 11297:0.023061076 11311:0.034344885 11342:0.034344885 11354:0.034344885 11375:0.034344885 11387:0.023061076 11388:0.034344885 11400:0.028702982 11460:0.034344885 11495:0.034344885 11501:0.028702982 11506:0.028702982 11515:0.015602884 11517:0.034344885 11522:0.034344885 11526:0.034344885 11536:0.034344885 11540:0.025402678 11550:0.023061076 11560:0.034344885 11606:0.039521549 11607:0.034344885 11617:0.021244789 11619:0.018506058 11645:0.019760774 11664:0.023061076 11698:0.046122152 11703:0.023061076 11730:0.057405964 11749:0.034344885 11778:0.034344885 11797:0.034344885 11806:0.034344885 11827:0.017419172 11835:0.023061076 11836:0.028702982 11874:0.034344885 11881:0.023061076 11886:0.028702982 11890:0.023061076 11893:0.023061076 11903:0.028702982 11929:0.023061076 11981:0.018506058 12014:0.034344885 12054:0.034344885 12056:0.019760774 12062:0.057405964 12075:0.034344885 12087:0.034344885 12098:0.034344885 12102:0.034344885 12110:0.034344885 12152:0.034344885 12197:0.025402678 12243:0.025402678 12244:0.028702982 12261:0.021244789 12303:0.034344885 12342:0.023061076 12355:0.034344885 12361:0.034344885 12390:0.023061076 12402:0.019760774 12433:0.028702982 12436:0.028702982 12453:0.023061076 12488:0.034344885 12496:0.034344885 12515:0.023061076 12528:0.042489577 12550:0.034344885 12593:0.034344885 12611:0.028702982 12613:0.023061076 12619:0.034344885 12640:0.034344885 12661:0.034344885 12665:0.019760774 12677:0.057405964 12692:0.023061076 12694:0.034344885 12725:0.016460471 12750:0.023061076 12768:0.034344885 12785:0.034344885 12800:0.018506058 12821:0.028702982 12843:0.034344885 12897:0.028702982 12906:0.057405964 12927:0.034344885 12950:0.021244789 12953:0.023061076 13073:0.028702982 13082:0.032920942 13099:0.023061076 13129:0.028702982 13135:0.023061076 13146:0.046122152 13161:0.019760774 13187:0.028702982 13206:0.057405964 13219:0.034344885 13230:0.019760774 13277:0.034344885 13285:0.017419172 13289:0.034344885 13325:0.034344885 13341:0.028702982 13380:0.034344885 13381:0.015602884 13386:0.034344885 13427:0.034344885 13443:0.057405964 13474:0.034344885 13484:0.034344885 13487:0.028702982 13558:0.028702982 13640:0.023061076 13643:0.028702982 13675:0.025402678 13698:0.034344885 13737:0.023061076 13740:0.028702982 13752:0.034344885 13779:0.028702982 13785:0.032920942 13841:0.028702982 13862:0.025402678 13876:0.034344885 13878:0.017419172 13885:0.034344885 13901:0.028702982 13936:0.034344885 13940:0.034344885 13973:0.023061076 13980:0.023061076 13989:0.034344885 14023:0.034344885 14027:0.034344885 14044:0.028702982 14085:0.034344885 14113:0.034344885 14138:0.034344885 14205:0.023061076 14234:0.019760774 14254:0.034344885 14276:0.034344885 14287:0.034344885 14334:0.034344885 14380:0.019760774 14386:0.028702982 14399:0.023061076 14421:0.034344885 14429:0.023061076 14433:0.034344885 14442:0.019760774 14454:0.023061076 14460:0.034344885 14472:0.034344885 14476:0.034344885 14493:0.034838345 14577:0.034344885 14579:0.034344885 14600:0.034344885 14649:0.019760774 14653:0.034344885 14744:0.034344885 14747:0.034344885 14797:0.034344885 14821:0.034344885 14829:0.028702982 14865:0.034344885 14884:0.034344885 14889:0.028702982 14905:0.034344885 14921:0.034344885 14934:0.034344885 14946:0.057405964 14959:0.023061076 14972:0.023061076 14982:0.021244789 15006:0.057405964 15031:0.032920942 15041:0.034344885 15042:0.034344885 15044:0.023061076 15045:0.034344885 15068:0.034344885 15079:0.019760774 15088:0.034344885 15103:0.034344885 15122:0.023061076 15147:0.034344885 15204:0.028702982 15214:0.016460471 15241:0.019760774 15310:0.028702982 15320:0.023061076 15352:0.021244789 15355:0.034344885 15369:0.034344885 15372:0.034344885 15483:0.023061076 15501:0.034344885 15504:0.042489577 15507:0.023061076 15516:0.034344885 15526:0.017419172 15547:0.028702982 15561:0.034344885 15581:0.046808653 15584:0.034344885 15591:0.034344885 15693:0.034344885 15707:0.023061076 15727:0.034344885 15735:0.028702982 15809:0.034344885 15818:0.034344885 15823:0.034344885 15838:0.034838345 15861:0.034344885 15866:0.028702982 15891:0.034344885 15917:0.034344885 15937:0.034344885 15944:0.057405964 15952:0.034838345 15962:0.034344885 16003:0.034344885 16017:0.034344885 16045:0.034344885 16053:0.034344885 16056:0.028702982 16057:0.034344885 16086:0.023061076 16137:0.034344885 16154:0.023061076 16168:0.034344885 16243:0.028702982 16269:0.028702982 16287:0.034344885 16297:0.018506058 16303:0.034344885 16305:0.034344885 16323:0.034344885 16343:0.034344885 16379:0.032920942 16389:0.034344885 16434:0.023061076 16452:0.034344885 16475:0.034344885 16476:0.034344885 16494:0.046808653 16515:0.019760774 16605:0.034344885 16628:0.034344885 16635:0.023061076 16645:0.028702982 16691:0.039521549 16718:0.034344885 16721:0.034344885 16738:0.028702982 16745:0.034344885 16797:0.034344885 16801:0.034344885 16823:0.034344885 16847:0.019760774 16857:0.028702982 16889:0.025402678 16892:0.034344885 16934:0.046122152 16965:0.028702982 16967:0.034344885 16991:0.034344885 17056:0.034344885 17104:0.034344885 17119:0.034344885 17138:0.034344885 17143:0.034344885 17214:0.034344885 17240:0.034344885 17265:0.019760774 17270:0.034344885 17323:0.028702982 17324:0.023061076 17337:0.034344885 17355:0.034344885 17374:0.023061076 17409:0.034344885 17417:0.034344885 17424:0.025402678 17490:0.034344885 17517:0.034344885 17536:0.034344885 17548:0.019760774 17549:0.034344885 17551:0.023061076 17576:0.034344885 17584:0.034344885 17602:0.025402678 17606:0.034344885 17629:0.028702982 17632:0.034344885 17640:0.034344885 17642:0.019760774 17646:0.023061076 17656:0.034344885 17691:0.034344885 17699:0.057405964 17717:0.034344885 17758:0.018506058 17791:0.028702982 17802:0.015602884 17803:0.034344885 17845:0.034344885 17848:0.034344885 17856:0.034344885 17884:0.028702982 17903:0.034344885 17911:0.034344885 17947:0.019760774 17965:0.034344885 17972:0.025402678 18026:0.023061076 18056:0.034344885 18064:0.028702982 18074:0.034344885 18152:0.034344885 18183:0.034344885 18186:0.057405964 18187:0.028702982 18204:0.034838345 18209:0.028702982 18243:0.034344885 18281:0.018506058 18302:0.034344885 18310:0.034344885 18327:0.034838345 18398:0.034344885 18421:0.023061076 18440:0.034838345 18463:0.023061076 18486:0.023061076 18500:0.034344885 18511:0.034344885 18513:0.023061076 18543:0.023061076 18544:0.034344885 18549:0.034344885 18562:0.028702982 18563:0.028702982 18569:0.018506058 18610:0.021244789 18626:0.028702982 18753:0.034344885 18775:0.034344885 18788:0.034344885 18827:0.034344885 18846:0.023061076 18879:0.028702982 18920:0.025402678 18924:0.023061076 18931:0.023061076 18961:0.023061076 18996:0.034344885 19001:0.021244789 19015:0.034344885 19020:0.028702982 19051:0.034344885 19058:0.034344885 19078:0.016460471 19096:0.034344885 19141:0.034344885 19150:0.034344885 19158:0.034344885 19161:0.046122152 19185:0.034344885 19198:0.028702982 19217:0.034344885 19220:0.034344885 19224:0.034344885 19236:0.016460471 19291:0.032920942 19294:0.034344885 19296:0.034344885 19322:0.034344885 19328:0.028702982 19330:0.034344885 19379:0.034344885 19392:0.017419172 19395:0.023061076 19425:0.034344885 19455:0.034344885 19465:0.034344885 19485:0.034344885 19496:0.034344885 19499:0.034344885 19541:0.034344885 19545:0.028702982 19554:0.034344885 19565:0.023061076 19576:0.034344885 19622:0.019760774 19642:0.034344885 19661:0.034344885 19693:0.034344885 19701:0.034344885 19709:0.023061076 19747:0.034344885 19753:0.023061076 19771:0.034344885 19789:0.018506058 19837:0.023061076 19848:0.017419172 #
-0.021915570046149902144749788135414 31:0.045992255 50:0.045992255 98:0.024782009 106:0.045992255 139:0.045992255 286:0.045992255 391:0.045992255 412:0.045992255 459:0.045992255 479:0.045992255 543:0.045992255 666:0.045992255 685:0.045992255 704:0.045992255 721:0.045992255 766:0.028449528 831:0.045992255 880:0.045992255 899:0.045992255 940:0.045992255 961:0.045992255 965:0.045992255 1007:0.045992255 1008:0.045992255 1054:0.045992255 1109:0.045992255 1141:0.045992255 1152:0.045992255 1230:0.045992255 1237:0.034017481 1284:0.023326529 1334:0.068034962 1390:0.045992255 1431:0.045992255 1458:0.045992255 1463:0.045992255 1465:0.045992255 1511:0.045992255 1523:0.045992255 1526:0.045992255 1597:0.045992255 1612:0.045992255 1631:0.045992255 1742:0.038437013 1769:0.045992255 1789:0.045992255 1792:0.038437013 1861:0.045992255 1866:0.045992255 1909:0.045992255 1913:0.045992255 1939:0.045992255 1965:0.034017481 2009:0.045992255 2045:0.045992255 2095:0.045992255 2129:0.045992255 2220:0.030881772 2223:0.045992255 2252:0.045992255 2254:0.045992255 2314:0.022042705 2340:0.045992255 2373:0.045992255 2498:0.045992255 2537:0.028449528 2545:0.12352709 2652:0.045992255 2727:0.045992255 2773:0.045992255 2846:0.045992255 2854:0.045992255 2974:0.045992255 2990:0.028449528 3057:0.038437013 3059:0.045992255 3104:0.038437013 3112:0.045992255 3170:0.026462238 3232:0.045992255 3272:0.045992255 3370:0.045992255 3465:0.045992255 3471:0.045992255 3487:0.045992255 3532:0.045992255 3606:0.045992255 3633:0.045992255 3659:0.045992255 3667:0.045992255 3742:0.038437013 3751:0.034017481 3764:0.038437013 3782:0.045992255 3829:0.045992255 3861:0.076874025 3863:0.038437013 4001:0.045992255 4278:0.045992255 4366:0.045992255 4371:0.045992255 4465:0.045992255 4498:0.076874025 4545:0.045992255 4549:0.038437013 4643:0.12352709 4701:0.038437013 4883:0.045992255 4943:0.045992255 4979:0.045992255 5023:0.023326529 5036:0.045992255 5056:0.045992255 5124:0.045992255 5136:0.045992255 5236:0.076874025 5295:0.045992255 5331:0.045992255 5337:0.030881772 5372:0.026462238 5386:0.038437013 5426:0.045992255 5485:0.038437013 5491:0.030881772 5756:0.045992255 5775:0.045992255 5782:0.045992255 5905:0.045992255 5974:0.045992255 5993:0.038437013 6009:0.045992255 6016:0.038437013 6066:0.045992255 6111:0.045992255 6185:0.045992255 6218:0.045992255 6219:0.045992255 6279:0.034017481 6280:0.045992255 6402:0.038437013 6404:0.038437013 6410:0.045992255 6436:0.045992255 6448:0.045992255 6573:0.045992255 6647:0.045992255 6655:0.045992255 6657:0.045992255 6678:0.045992255 6801:0.045992255 6990:0.045992255 7025:0.045992255 7069:0.045992255 7231:0.020894285 7277:0.045992255 7390:0.045992255 7467:0.045992255 7494:0.061763544 7736:0.045992255 7835:0.045992255 7838:0.045992255 7891:0.045992255 7923:0.045992255 7966:0.045992255 7986:0.045992255 8042:0.045992255 8090:0.045992255 8151:0.045992255 8153:0.045992255 8192:0.045992255 8259:0.045992255 8269:0.045992255 8312:0.045992255 8327:0.045992255 8362:0.038437013 8399:0.12352709 8478:0.045992255 8610:0.076874025 8771:0.045992255 8773:0.038437013 8783:0.024782009 8789:0.045992255 8792:0.045992255 8824:0.045992255 8843:0.045992255 8925:0.045992255 9035:0.045992255 9036:0.045992255 9268:0.045992255 9285:0.076874025 9324:0.038437013 9378:0.045992255 9413:0.022042705 9469:0.045992255 9515:0.045992255 9575:0.045992255 9627:0.045992255 9662:0.045992255 9732:0.034017481 9739:0.038437013 9745:0.045992255 9786:0.045992255 9843:0.061763544 10027:0.045992255 10031:0.045992255 10032:0.045992255 10219:0.045992255 10227:0.045992255 10273:0.045992255 10286:0.020894285 10301:0.028449528 10382:0.038437013 10542:0.045992255 10636:0.045992255 10686:0.045992255 10703:0.045992255 10721:0.045992255 10859:0.045992255 10880:0.045992255 10895:0.045992255 10908:0.045992255 10931:0.045992255 10940:0.12352709 10977:0.045992255 11028:0.045992255 11035:0.076874025 11128:0.028449528 11134:0.045992255 11153:0.045992255 11156:0.076874025 11203:0.045992255 11209:0.038437013 11238:0.045992255 11256:0.038437013 11318:0.12352709 11332:0.045992255 11333:0.045992255 11351:0.045992255 11362:0.045992255 11381:0.026462238 11414:0.034017481 11430:0.045992255 11441:0.045992255 11470:0.045992255 11556:0.045992255 11568:0.045992255 11772:0.12352709 11795:0.038437013 11815:0.045992255 11836:0.038437013 11918:0.045992255 11958:0.045992255 11978:0.045992255 12001:0.045992255 12065:0.045992255 12083:0.045992255 12111:0.038437013 12255:0.045992255 12277:0.045992255 12288:0.045992255 12312:0.045992255 12317:0.038437013 12441:0.038437013 12507:0.045992255 12534:0.045992255 12588:0.045992255 12603:0.038437013 12614:0.045992255 12637:0.045992255 12639:0.045992255 12645:0.045992255 12697:0.045992255 12840:0.045992255 12871:0.045992255 12882:0.045992255 12952:0.045992255 12967:0.045992255 12991:0.045992255 13031:0.045992255 13076:0.045992255 13168:0.045992255 13268:0.045992255 13279:0.038437013 13315:0.038437013 13381:0.083577141 13404:0.045992255 13546:0.045992255 13649:0.038437013 13665:0.045992255 13668:0.045992255 13704:0.045992255 13851:0.026462238 13855:0.045992255 13887:0.045992255 13889:0.045992255 14037:0.15877344 14064:0.12352709 14162:0.045992255 14262:0.045992255 14294:0.038437013 14305:0.045992255 14377:0.045992255 14477:0.045992255 14482:0.045992255 14530:0.045992255 14571:0.045992255 14604:0.045992255 14607:0.045992255 14643:0.038437013 14680:0.030881772 14738:0.045992255 14758:0.045992255 14770:0.045992255 14775:0.045992255 14792:0.045992255 14838:0.038437013 14873:0.045992255 15019:0.045992255 15063:0.044085409 15069:0.045992255 15114:0.045992255 15138:0.045992255 15175:0.045992255 15230:0.045992255 15232:0.076874025 15257:0.045992255 15283:0.045992255 15285:0.045992255 15287:0.045992255 15309:0.045992255 15324:0.045992255 15328:0.045992255 15332:0.045992255 15362:0.045992255 15389:0.038437013 15464:0.045992255 15468:0.045992255 15533:0.045992255 15562:0.045992255 15582:0.045992255 15589:0.045992255 15670:0.045992255 15683:0.045992255 15697:0.076874025 15784:0.045992255 15803:0.045992255 15816:0.038437013 15846:0.045992255 15878:0.030881772 15939:0.045992255 15948:0.045992255 15979:0.045992255 16068:0.045992255 16075:0.045992255 16079:0.045992255 16224:0.045992255 16318:0.045992255 16396:0.045992255 16440:0.045992255 16497:0.045992255 16527:0.045992255 16607:0.045992255 16621:0.045992255 16665:0.045992255 16704:0.045992255 16734:0.045992255 16754:0.045992255 16841:0.061763544 16882:0.045992255 16889:0.034017481 16901:0.045992255 16906:0.045992255 16957:0.045992255 17187:0.045992255 17191:0.038437013 17271:0.045992255 17320:0.045992255 17326:0.052924477 17360:0.045992255 17608:0.045992255 17647:0.045992255 17687:0.045992255 17689:0.045992255 17813:0.076874025 17843:0.034017481 17910:0.045992255 17974:0.038437013 18070:0.045992255 18100:0.028449528 18246:0.093306117 18301:0.045992255 18311:0.061763544 18330:0.045992255 18331:0.045992255 18342:0.026462238 18392:0.045992255 18393:0.045992255 18419:0.045992255 18439:0.045992255 18442:0.030881772 18493:0.045992255 18558:0.045992255 18596:0.045992255 18602:0.045992255 18875:0.045992255 19157:0.045992255 19162:0.045992255 19259:0.045992255 19263:0.030881772 19335:0.045992255 19338:0.045992255 19390:0.045992255 19510:0.045992255 19543:0.045992255 19605:0.045992255 19677:0.045992255 19680:0.045992255 19711:0.038437013 19789:0.099128038 #
-0.02075431126906013279409535243758 850:0.16409086 1154:0.16409086 1552:0.16409086 2237:0.10150202 2614:0.16409086 2909:0.16409086 3336:0.11017977 3798:0.16409086 3993:0.18882358 5940:0.16409086 5975:0.16409086 6848:0.16409086 7564:0.16409086 7841:0.16409086 8012:0.16409086 8572:0.13713531 8972:0.16409086 8992:0.16409086 9024:0.16409086 9903:0.16409086 10070:0.09441179 10443:0.16409086 10470:0.12136733 11090:0.10150202 11861:0.12136733 11862:0.16409086 11953:0.16409086 12324:0.16409086 13954:0.078643806 14286:0.16409086 14383:0.16409086 16253:0.12136733 16556:0.16409086 16669:0.16409086 16781:0.16409086 16891:0.16409086 17612:0.16409086 17741:0.16409086 18144:0.16409086 18227:0.16409086 18521:0.13713531 18865:0.16409086 #
